-1649
-11479
13660
-14770
3963
-10629
1529
-3122
14049
-4570
-12798
12977
-8930
5380
20870
8791
20065
11758
-668
4911
-16997
1035
-32767
813
3919
10068
8219
12321
-9815
1812
13871
-13839
2547
25058
-31222
-9917
14550
-5672
2724
4001
-17369
14546
-13450
641
10527
-8396
-16974
17897
-9454
-3258
11735
13098
2772
-3971
-5454
-9019
2979
540
-9386
-2832
5501
-1134
-8775
8621
-11181
10458
-18383
-20549
3384
-4020
-4627
19364
5919
9960
-8688
-3526
-25355
-16658
-15147
146
-16516
5585
-5794
7807
-4628
86
-25011
3679
4819
-15118
25306
-13497
-2310
9617
10048
3010
-21406
-11864
3315
3937
-11367
-13806
-4651
5021
13637
-2755
6884
-17242
-7236
-1582
-17994
13523
-9330
-14700
507
-8721
-3253
2980
4008
23055
-19876
-20616
-13714
-16377
-16828
8043
17573
-6901
-12482
-11348
911
2837
970
-9842
11938
20618
-8909
26987
-5709
-10925
4737
2544
5067
-19469
10017
-4129
-3897
18156
7985
7008
1723
14166
-3306
-18139
-5253
7561
-12837
-1057
-13839
-12236
12310
-6497
-6202
-2911
-6995
-5217
-2093
797
-18287
4871
-18669
-1761
-9434
-7479
9526
-13228
-10392
-10869
-5174
22098
-4540
5519
-9253
4971
1502
-24202
11051
823
17942
1315
-10232
-12425
-6502
-9208
-17784
6280
-11615
3982
-1439
-13771
3582
-22677
-5399
-2305
5867
-15296
-2219
-13814
-5405
-18737
-15434
500
-2751
1453
15102
-14947
-3971
-15963
-2647
-10640
-711
-10826
-2011
8610
-2023
-10186
-9251
-5660
-8766
-20697
-4837
7478
1123
-1130
2421
-10500
-3935
10668
-1830
-5427
6045
23145
-12474
-4053
3785
-24394
9182
-12105
-1015
8427
-13474
-8825
2907
6732
-6246
-7991
-10707
4269
11854
2972
-12049
1576
-11739
-1701
-1976
1758
8171
1139
3362
8760
-14617
-20594
4043
4557
-6654
-616
3659
-12353
-12861
-4094
-11381
-9078
-11777
1230
-2230
-14536
-5780
-3685
4787
-4727
-5327
-4657
7974
-3219
11975
-8811
8388
-2051
6015
23759
2769
5925
10309
265
-4495
4573
-19070
15622
-10442
8224
1523
-13544
-4646
8086
-8888
-5800
11542
-10579
4031
-7233
-2473
-5822
-21223
-1925
4576
3425
-6181
26747
-1467
7467
-2968
15885
-26890
-25278
-5666
-5738
2022
2223
-10824
12469
-6311
257
-669
-12701
6158
-4692
-13078
-2687
2895
5567
-5190
1271
-12631
2695
-1232
-7756
5725
-445
-6864
-6535
-12528
-11216
4866
8733
5613
1108
653
2920
-1120
-10527
-8572
-2227
2961
-10635
-14120
-3661
14928
1911
-16778
8963
-14479
15555
-267
653
-6348
-1737
-4798
-3636
-8095
10641
19985
14891
-900
-1829
-13875
7214
-5364
6803
15023
11351
-1060
-5832
-5367
10375
6496
1417
-1797
3524
7347
-1369
16925
-774
5840
22266
6754
15639
10381
3672
-15130
-2671
-19214
-1701
-132
-6779
6328
-7353
1518
-2662
3424
-4183
-5248
-791
9779
-7708
-16877
-8833
-1647
12781
-7079
-3650
-13644
-23987
-11335
1735
13213
2808
-2418
2460
2145
-26244
-1396
18398
-7963
17136
-4137
-1010
-10150
-9950
2292
-5135
-9343
6593
3069
-15531
-15960
7664
19488
1703
1832
-14013
10112
-1289
4226
-4848
7700
1540
-24775
-4516
16702
-6577
18152
-12466
-22915
15028
1107
18933
7401
9049
4863
-4813
-4947
11122
-8283
2304
-3081
-5509
268
11310
-5329
-4530
-3599
-943
-491
-3904
6168
-13062
15831
-10341
-21410
9124
3699
13687
2874
7397
11345
-3853
-8813
-8656
-5465
10864
6785
6757
10459
-12259
-12567
-3094
-16353
-12317
-5548
-5760
-2447
2671
7713
-13470
14898
8251
2053
-11281
-5943
-3249
19972
-20167
-11953
-11023
-1640
4656
3839
-5310
-7334
14323
-14491
-12637
-6238
-4531
-4185
-5329
-4372
11045
-6309
-6110
-15706
-725
-14757
-4707
26922
-9843
-17195
-4717
-12634
17320
7669
-76
-5516
4136
14110
5756
5401
-11958
-15392
31815
-2938
-3186
4637
-13524
-8280
-27396
-4439
-8031
-5341
5319
14726
-5383
-13488
-3085
8710
8554
4282
-11456
5617
-12194
-2591
-7054
-10391
-377
5740
-1525
12531
-9566
-22133
1335
-887
-10777
-21558
4681
-22539
-4210
-2419
-3271
11392
11775
394
-10954
10743
-9119
10792
-2190
2596
-4034
-2135
13924
-3896
-8863
-8977
-2202
-14787
15328
4556
9692
-5840
-8203
8776
11743
2473
2894
2523
11140
-9287
-4193
11252
-1163
14569
3220
4867
-8611
-9925
-26707
-14033
5265
671
-10250
-172
11068
9211
-2096
2664
13777
15161
15643
-13326
9413
8889
24122
31805
-11558
-8636
13645
1470
-5158
-7591
-8186
-16391
-4891
15518
6053
-6923
-10660
4519
17617
-25726
-1342
-14612
2974
-313
5596
24059
-8520
15190
-2305
7784
-7841
18709
-1628
-2855
7440
5826
3322
-10116
-7552
2713
-3666
-795
1260
9397
-3176
12223
20148
-596
23437
6138
-3843
-8535
2237
-9592
3087
7886
770
-3354
7959
9609
13313
9974
7642
8512
1780
11283
-4529
-4410
-16536
8128
-980
-14191
6780
1714
775
-1832
-13339
-13600
-4816
2414
11356
17488
-9165
13344
886
178
-25850
-15837
7408
-6626
-11206
6757
-2265
-3374
-3955
-15800
7880
-1178
10547
