2043
-17
2372
5140
2805
4461
354
6506
-15451
13159
-13455
5436
-342
-2178
-14365
670
-7761
-1202
12413
-5622
-7979
-2027
19877
14604
-741
-1295
-5193
1905
-1786
-1871
17583
8646
-1314
8817
-511
6849
3686
150
-15166
-12486
-12858
9698
-3079
-8306
12911
-2606
726
-9104
4421
9882
2391
-6524
10760
9837
7631
-13885
-15077
4904
14988
-6393
-21511
-4270
1664
-306
-2081
7477
3315
10064
8395
3657
3613
14594
559
4676
-1523
-127
17725
-17858
-11602
-4692
13180
-5900
12099
2459
-17085
-3837
6008
4672
-4204
-10397
11692
7024
-1799
7614
-5583
13356
-10251
-4664
-4582
520
-2787
2593
-12954
5223
3823
-4145
17678
-8109
-112
3247
7843
-1525
-10719
6460
-3679
6476
2511
-7120
-14446
-1422
1197
-4242
252
-2330
2046
-8847
5179
-1456
-2230
-9451
-5540
2744
10244
-7863
10043
4226
15502
9724
5749
435
-1929
3808
6806
6998
1954
-3175
-6064
174
-10144
319
11869
6378
-2715
-4035
5081
-18317
13361
-9057
1973
-5357
3864
7097
-2081
-2640
19160
-134
3220
1380
-10228
-8073
-3656
-7281
-2638
7206
4674
-3659
3214
7137
13726
5409
6216
-10490
-3406
11183
-7795
7134
13603
-7783
-21355
-7990
2442
8549
-901
5448
3517
-5189
7892
-1876
-10404
-2627
-11347
-7234
-9221
20729
7978
6050
604
1717
906
6601
-5669
-10209
25294
581
-4514
-549
-20000
-2425
-20187
-1111
-6513
-2284
-17825
-4348
8340
11183
-9684
14941
2536
-7768
-5917
4838
10372
-2405
7664
-13079
1849
-2013
-7244
7473
662
8055
-9320
2442
4592
-12326
586
-5783
-11779
20188
-10888
-2722
3712
-4436
-18606
3145
-10880
5545
-18364
9407
-12681
-3148
-2028
-7433
-12820
7260
-3347
-7234
-1810
10832
-12813
-14696
2600
-3694
-2196
-19501
8370
-4699
-5874
10046
-16707
-4989
-2127
-19594
20532
4983
20423
-2191
15018
10782
-6203
11829
6352
-6366
14318
-6687
-8645
416
-4007
-6118
-9844
7342
3612
-14914
7307
-6588
12056
9534
5639
11537
-20665
-7222
-8842
5006
12986
4032
9281
-2471
-408
-14989
-10475
2010
4339
7958
-4787
4904
-3950
-2207
-4468
-2419
9102
-750
1436
5939
3211
-5847
6486
4538
-907
-8541
3439
3387
-1741
7136
2370
4635
1695
-2268
-1825
-11502
6182
-2711
-1267
-6574
779
-648
-459
5757
18449
10560
-7852
5018
-8446
-2083
9360
7059
10212
4673
-8145
-4871
3
-2070
12128
4105
2875
-3800
12186
610
6469
9614
-8695
-13533
-3164
801
10002
1134
-3404
14465
10640
6926
878
-2781
922
-1873
-3878
6669
21298
5952
-19859
119
3392
-6085
14629
2416
1651
10342
5497
-32767
-2123
-1166
27219
-4166
607
7672
7708
3493
3322
-13162
319
12318
-932
3545
18724
8565
-2162
-1927
-6077
-9896
-466
14656
3324
-7805
4346
7108
647
-5609
-5199
-5648
-4234
-656
1933
-3764
1878
-11054
-13778
11682
-2660
16662
9824
-9222
7281
-9439
-54
-9985
6980
-864
-5117
-2073
-7901
7462
6478
-11159
-2825
-7937
-13188
12899
-6061
3848
-5254
-2855
7907
3597
-1399
18189
5296
8610
-6017
-4432
-8555
-12343
330
10795
5314
-12488
19476
7080
15457
-9659
-190
116
-986
-9283
2404
8961
-2637
-2247
3695
-8211
16385
8250
-1874
11454
-8685
-10085
-4350
-10160
-790
-2264
5595
14664
415
-3015
-8566
7624
3548
-11611
-265
-1707
1659
2132
-4030
-16660
-4201
-7956
-3785
-8173
14675
3251
14145
-10305
-4711
-716
-6176
-1164
-1272
1866
-226
-3898
5877
12157
9412
-1159
5039
-648
-5587
14594
7176
4490
-14223
-6085
-2506
-3644
-10637
-2124
1139
-11394
10933
-15886
-9991
-790
-7352
8234
6510
-3461
10421
9714
-7621
4040
3613
-12629
-9349
-8254
1561
-1513
14567
10864
4526
8713
16673
-64
2149
8076
-2547
11459
1766
-10309
-2370
-15454
-7016
1271
-2164
-1062
7580
-7789
25624
-9257
1861
-1931
1310
-8663
-11375
5964
-11854
-8753
10360
19139
-11897
10043
11905
1544
-9722
11849
-12999
1632
-8829
7313
-6893
-5571
7385
-1412
2470
10714
-332
-2816
-2368
5714
2426
-21614
5706
13546
-4660
-4250
9494
8266
-1627
-5536
1477
10738
9473
-920
-8237
-3009
-2091
14175
4420
4324
1212
-397
7361
1572
18903
656
-1790
2978
-13676
2517
3223
-422
9041
2710
-11842
9504
8783
146
-13080
10549
2288
2737
-2058
-2692
-4232
-3748
16460
1950
8791
-16739
-9106
1797
-529
9489
6547
9793
4716
-6486
21848
11505
621
-19315
8490
46
2273
4884
-5211
-15986
-12138
1017
5045
-3397
-12794
-5015
-333
-1712
-13173
-6706
-10246
-4777
9702
8967
-10545
5897
7649
4001
-12134
59
4510
-11101
10349
-13538
8039
11778
-687
-7434
2500
-10722
-12856
-9791
-14439
-15324
5866
12250
9801
18546
2265
4196
-7310
7983
-6541
13262
2577
10561
-5911
1567
3793
2115
-3599
9383
-367
1651
3266
851
-9830
-1407
-18853
-4953
-694
-451
2991
-5128
-6517
-1354
-6568
6390
1059
-2266
-5668
5762
9493
7117
-10750
-2726
1287
-5940
-9346
-12655
1751
-1989
-13733
-9787
2859
-545
973
-6565
6478
1153
8001
-644
-5150
-6572
9351
-7821
4870
4013
13338
-638
-12541
-5161
-4285
-11510
4937
-85
9825
15815
1972
-11256
-2456
-788
5610
-5593
3592
6205
-3186
9737
-4245
-5849
11280
-5538
3631
-5454
-2452
-3961
11223
-3218
2578
1077
145
3679
4294
2727
5001
12961
-16027
92
-20548
-8480
2405
-920
-4516
-1476
-13848
21277
-1377
21554
-927
6642
-12206
1410
-1191
-1486
-5248
5813
7856
-5745
-6001
4668
-2039
-9409
6881
2377
-15642
1680
9
5010
-329
336
2627
611
588
-5705
-1598
-12827
3256
1371
5360
-13929
10899
-11511
7647
-2898
19741
-8105
-3355
5546
-6725
-4702
8983
966
-7250
-4635
1452
-6762
-6031
-16087
19344
-14150
6869
1989
46
-867
7990
480
10440
-1449
8691
2050
-5848
15810
8105
-10449
-14482
-1704
-972
-2167
-9948
5000
-285
-9048
-7658
-990
-5982
10730
3043
4032
-534
-9691
14094
4192
5985
-9558
5952
10572
-4604
12484
378
-20121
-453
-925
-918
3174
8125
-4154
1672
-5947
-4066
-6333
-14877
-3981
470
-64
-741
-3156
-6119
-7995
-7578
-11557
17208
-4436
-13772
4999
-11775
6192
-13306
372
1596
3320
-3251
-2715
3066
-8012
-1066
-7474
-3689
-6517
-5323
-5311
-589
6606
1975
3120
-5927
12574
-440
-5443
1296
8230
-3390
7121
6372
-5065
-6682
338
-13433
-17235
2528
-3652
-2609
-8160
-8386
11761
-7501
-7879
-1086
3532
3867
199
-10077
10147
332
-1737
-8588
10615
13819
-4193
-10340
-2170
2424
-4873
4033
5124
6849
-476
3575
-1130
13429
8513
1020
8744
-9076
7886
-4609
-5848
-8766
-1893
59
1774
1561
-7351
3601
7324
4796
-7093
-17593
-1355
-4520
4102
-6280
416
14689
922
-554
-596
10530
-2381
-9334
5252
3391
-3009
7813
-1042
-1295
-1699
1252
21
3706
-2707
10710
-1872
6576
-2774
12
-1430
2793
8670
5245
3289
5793
1154
1340
-2144
-126
-5379
-158
4162
6540
2870
-1432
7118
4050
-5105
5849
1301
-869
-6394
873
-418
11723
-3590
-5170
2165
16567
-1831
15346
2032
-1922
1161
-1757
11567
848
9083
7396
-1628
-3545
8827
2493
2170
476
6407
-14158
-10324
2535
3104
2342
2483
-5168
-9217
452
-7268
-11100
-2234
-8365
-3572
14385
-10258
-13557
-8655
-4461
12548
1354
-6830
-8988
-8779
-3909
11820
-2915
8474
6363
10085
-10314
6871
-2764
-17262
-5430
-8104
-3990
-8120
4959
-3238
-2900
1010
-7677
-3361
-5044
1734
589
22068
-3836
6592
-11133
-4084
-5479
-5029
2523
-2559
-9872
-4008
-6387
-1745
-2602
8882
-1408
1703
276
-15766
17
-11550
-1676
1493
6094
-3757
9452
14476
-7377
4339
663
-814
-12563
-3338
-1008
3184
3677
-9198
10421
-1283
7940
-377
-4138
-11499
21989
974
-7659
4365
-894
3588
-2326
-5566
-4548
7780
-3050
6555
-11203
654
-9608
-6420
7751
11991
16900
2991
-170
-6961
3770
-16183
-2851
-305
5041
-5300
-3887
-2114
-7722
4023
4315
-5833
196
13114
-7346
5990
-6256
9053
-13985
7019
8400
6566
-4660
7357
-6135
6042
-8006
638
2072
-8768
-5929
-13340
3705
1428
-1931
3898
-8169
7985
-2217
-10700
-3102
9514
6457
3321
-7474
-9612
3266
-3458
2515
16939
3360
-10209
7619
-1078
-1032
17034
-2577
1496
-6655
2520
-11764
-3340
-20912
-2025
-6783
3940
-448
8251
5655
-1866
3555
-1238
1650
14818
-10816
6790
2634
-7228
-129
-130
618
5242
4526
-693
3965
582
2961
-7804
-9366
1498
3984
-20348
1620
-935
-389
2901
925
-4181
10512
-39
-3082
-1581
-4117
7306
-3336
-7647
4370
551
1095
-1117
-11633
2759
-4597
-1869
-8694
-6007
5987
14915
9199
4813
6013
1753
2015
-11530
2603
13402
9756
9359
-2318
-1041
-3912
-8346
1345
4646
-3423
3157
9411
-6800
6995
-2475
1957
9101
1002
4378
10241
20354
6754
25126
8751
-8325
-9875
-1931
13621
8787
-10745
-6648
1637
-505
-17156
-12487
-3024
5891
3884
-1013
1696
22923
-8409
20745
-5089
-3181
1365
-4301
9322
-13258
-9728
-7286
-7383
5100
-7215
7961
4044
-11167
-5323
7052
-3831
-1019
-6298
7627
-8310
4245
-1650
12973
-77
7825
-3654
-5110
-16423
-166
13110
-6195
2549
-4902
-10647
-4011
553
-1199
-2090
541
-8418
-4562
10192
-9695
-5029
-1901
333
-1668
13828
20159
6322
13377
8559
-2722
2446
3933
-1819
4057
1378
828
20987
-12188
-7458
8018
892
3574
815
-6754
-7424
3324
4354
5910
-3200
5365
2595
-7504
-4893
-13786
14
-9740
3942
17360
-10216
13507
-11871
6840
-6599
1018
7874
-12240
-655
17759
-18251
16439
-12499
2055
7201
5224
-4995
3585
-4710
-4144
-2687
-6637
-2866
-4094
-1596
-2872
-11248
6446
-6779
4938
12257
-3872
-8257
4721
2216
-1823
1691
1876
1959
3314
16221
-20753
5844
9799
-11092
10392
3579
7978
-9440
3986
-4965
14790
1262
-2318
-19049
-19015
-2772
-4910
-229
-7630
7648
1345
-17
3214
4155
201
-5131
4281
13055
949
11502
-7892
-1540
-575
-12526
3408
-7985
-6190
-694
10202
-826
7790
-9770
3217
-7873
9905
2148
-1599
993
445
256
7471
5391
4156
3222
-11212
-17185
-4383
8147
73
2867
6754
11315
-8768
22050
-14154
11599
3871
2446
3075
4869
4575
-7162
-6631
1732
5920
7649
-3663
2141
1373
12539
10065
8106
-6101
-6074
8643
-10610
-6138
-5947
-5368
9052
947
-12937
3806
-4132
11471
5468
-7855
-298
1071
-15141
-15258
-2295
9059
-15846
-5463
4433
-5495
-25120
6373
5460
-1545
-3567
3083
-2186
-3582
5803
1690
641
1741
8216
-4918
-4218
-401
4890
2220
-4292
-1619
2261
22424
-6939
6162
-11463
-6477
-2725
-4285
-12755
-3262
-11062
-1708
-10014
-5659
-5867
-2478
908
4781
4199
2808
1801
78
495
2749
6619
-5968
800
10449
9953
-3919
-1222
1869
7413
-19479
-4948
1946
-6433
-1364
-3432
-5470
18978
-8103
-530
-6046
-201
14955
-5053
4451
3352
-18966
21020
2956
-8374
-4554
5218
-13173
-14026
-12533
4279
-5897
627
7666
9653
13375
2819
5277
3586
8126
4118
11131
-3622
-9349
-4778
1708
7769
-4772
-906
-9410
7918
2053
10762
-3429
-10033
-4474
14715
2614
8663
4854
-8646
106
-2351
2108
-2435
20139
435
7056
-2205
1500
-389
9716
-4797
-2772
15802
7053
-3613
-571
3736
1159
9298
-6731
4983
335
-825
-2429
11348
-7242
-10904
-4660
-13843
-4880
1401
-16279
17185
-5212
14597
-7629
8842
-1011
-2024
-4640
-11104
-8869
14254
9960
5215
-17457
-6526
-1830
-2214
-2798
-10304
3289
12750
-417
-6255
3362
-2175
16819
-98
10577
-6266
1354
7380
6681
-16871
-24837
0
5559
7313
-13923
2454
9205
-1940
-17842
-3437
-10315
2606
-597
-6841
-1228
-1375
-8183
12530
-4096
3736
-5370
-7240
-600
5226
3325
-17978
-13947
-1527
10269
-7780
-2245
537
-7704
-3848
4740
-105
-7663
-92
-91
-5799
2515
-8143
1908
-7202
7528
-24309
1301
-12469
443
3364
-7234
-976
-315
-3332
5786
2141
-497
-805
-5621
-1794
-2184
4637
3479
-1394
2494
-1952
-2373
9265
884
3983
-8637
-4423
-1430
6578
-870
1960
-1018
-583
-6001
-6197
3351
-12832
1600
-3697
999
12127
1568
-9511
-9292
5962
-2092
15605
2828
4879
-604
-4744
-2411
5930
-4002
4246
4975
-11355
2773
-2022
2671
-4221
-1175
-1473
8821
-4331
9779
-1724
-15007
-7043
-10711
4728
2509
-4591
-10585
12171
17525
306
1319
-5111
7366
12538
2072
-17725
-2420
14306
-11831
6789
-8221
-8663
-5716
-7066
5926
5670
10774
-5010
-8020
12183
-4163
5353
-4197
7666
-11373
3312
2787
-11807
1838
8034
-12277
16475
6277
-8092
-10476
-10139
15107
6588
-9304
9689
-11691
-6884
-29068
8796
2506
-8692
-10539
4124
3809
8443
-9808
1500
6328
-21683
-6318
-2259
5563
7763
-20248
2016
56
2257
1462
-10423
2009
4621
-11923
-3939
-7499
-1346
-2768
-9801
-973
9749
-6712
3210
-1625
5727
13
-328
-6068
4922
1976
-7135
577
-12113
6368
-498
-5226
-5790
2473
9227
-733
-1046
-9250
854
-4394
-2383
2355
-1362
5651
-5861
5768
-2490
-2820
-13680
337
-1745
-4740
-5097
4059
-2341
-2679
-10800
4686
5682
3399
-1880
1005
-9960
19346
6680
6304
8145
-8373
4002
4375
-4529
7917
-2317
2788
7131
3000
12915
-9388
-5322
-7133
-9177
5766
-13999
-6254
-60
3354
8871
7436
7641
5665
1080
-5175
-11676
-4733
2761
13523
4477
-7869
13019
3998
-5789
3599
-8678
-10745
-7799
-7637
-9525
4913
-12168
9104
-12724
6736
15724
-8697
14066
-13864
-885
2189
7688
-18945
5058
-7192
5076
-9980
-4138
9135
2536
-2239
576
-3975
3567
18272
9114
-2833
-2438
-2824
-8694
13823
-11233
-1218
5557
-16605
-4684
-1960
4725
-1491
-9161
-1595
-8053
3886
-2437
-10714
-2587
12591
4204
3540
8162
7935
4372
6831
-12285
-2728
-7802
1680
484
5655
9628
-1880
12090
19
-2497
-8414
9330
15952
-8744
716
-3497
8729
-13490
-10009
-6721
11322
6268
-2060
21464
-261
2834
16438
15332
4439
-15497
3904
-4126
-1910
4656
5110
280
-6358
-3045
1694
-4663
11132
2836
10344
8234
8830
-3409
3799
5
3893
-3171
-2138
-180
1294
4309
-8668
10383
-9799
-2356
-3034
11394
-7349
2467
7864
2272
-6242
4679
-6097
-399
7399
-7590
9986
-6856
-5989
-16763
-6569
13854
-5695
-400
1795
-3391
-3595
1595
1158
-7345
6487
-10628
6100
-14038
-3515
-6014
4941
-2533
14493
-11920
1265
3980
-10194
-10907
13838
10274
8123
767
-7210
-6536
5860
-2309
22364
-6705
6826
8546
11324
383
-9920
-5382
7400
-12378
-6353
-5952
-3414
4113
-989
3510
137
-780
-11639
815
-8159
-945
1727
-1275
9852
10696
6497
-8292
-10614
4175
-618
15536
14329
-8537
-1870
-2412
-19597
-1823
745
-11053
17998
-12066
6980
-6319
15085
-3634
-2668
-5903
-5118
-11130
6888
5104
-10271
11312
-8358
9535
-3993
70
9068
5533
1295
6014
611
-8214
6676
1833
-9354
179
1095
5508
-104
-6070
-6250
-54
-388
-19554
6853
4669
-4888
-9601
-1680
5477
-8056
10543
5962
-3788
3264
-3280
7117
-339
1890
-6403
10824
-6272
-1941
1785
7204
-19796
-10081
11278
-1844
-8180
-2282
5551
-2038
-3765
-809
12580
-11499
1478
8187
-8016
-2387
2456
5765
10553
-9160
6070
4713
-4382
-1544
-2347
5961
5136
-2848
5529
-11676
-8507
-3246
-7522
7723
-2108
16932
46
25590
-2037
-6912
-4255
-7068
2194
2799
6126
627
-6711
2480
-1528
18790
3505
6492
3651
-12145
9167
-5699
10953
-2449
3183
10417
3297
1425
13687
14083
13596
420
12205
16392
3997
-2853
5350
4225
-6451
-4747
-430
3313
-1988
4804
12427
3068
5384
13247
-16412
11845
-21544
-19138
6834
986
-14933
8916
19465
-7979
6360
-4374
6984
4054
9102
-129
1531
-8227
-8954
9616
-4734
-6399
9479
7254
-4914
-1438
2589
7588
2694
-6113
7207
-1871
-2569
-893
3370
-11381
-1458
-3388
11676
-7554
19578
-4814
546
7065
4700
-4199
-9497
-9848
7355
-5521
24061
-11492
-10301
7034
-20229
-7893
-4778
-7652
-5502
2665
-7416
-1682
11760
8012
-1585
-871
19091
-31337
3171
8366
-4486
1109
-294
-6949
8653
-3023
-4995
2640
7399
-302
-7401
5730
3270
-6545
-8690
4433
1036
-4933
-6579
-5332
5689
-7844
-2345
-2911
9727
5825
-6844
-11737
-205
10674
-7463
11936
-8607
-20805
11378
11645
4013
6089
-5833
523
-6754
8196
8055
951
-696
257
6021
829
-10625
9994
-7814
5567
7266
8558
-29033
1950
-3535
2692
-1640
16721
-8433
10924
338
1603
2952
1408
14168
876
14372
5174
4074
13261
-11836
1989
-16035
-4265
-3688
-5045
9731
6350
-20212
-1761
-5348
-5769
-921
15862
744
4834
-723
-3720
-389
-4878
2054
4001
16399
-12340
-14597
-5291
10442
-8622
-4339
-682
-1103
7499
-958
3965
3818
13689
-2853
-4585
-15477
-4160
-8244
8780
3286
-1700
-11589
14356
-8950
-77
-985
15552
-10426
-5307
16726
-6466
-9137
4752
6791
-12884
3761
-2950
-13796
2906
-3873
-2907
10847
-18241
6062
13487
7225
-2868
1939
-12775
7551
13637
-1558
-820
-16634
-2237
11835
6477
3728
7376
-9352
-6534
-7368
-3165
5683
4869
-1301
-9530
-2116
-7084
1040
566
697
-8829
3391
-2404
-2790
-8644
1097
5971
129
-4259
-7908
-16704
-2335
4137
-5969
4252
-1502
2410
-6962
8416
1977
-10628
3492
7750
17611
-7168
-8765
-3603
-7384
13075
-1688
-7615
-13261
4034
9563
5428
-2706
-6891
-8111
3029
1494
-203
2626
712
-11241
3846
-5380
-9121
10223
-871
-10699
5359
-14141
3011
4080
4420
7297
-3247
7376
6191
-241
-3920
-18081
-8891
1064
1716
3263
5995
-9677
4750
-2459
2483
-2398
-3526
-21086
11015
-1340
3621
-2441
-12584
36
9985
-6597
9120
1619
-5095
2724
-1594
3778
-7833
703
-5855
-5015
-9969
-6644
-12286
5341
-6979
10481
2545
6263
1804
-3468
-4485
-15199
-5350
-11307
-8664
3098
7073
7433
-8519
2113
-7814
18076
-12762
7383
-2352
-18432
-15169
6955
388
10158
4430
63
-2622
-1260
4944
-3848
-11049
1135
4386
7873
10647
-5774
6253
3260
6292
-221
-4228
-3259
12799
-4908
-7095
-9236
-4598
2723
-8792
-6552
286
6720
-1916
-2362
-10006
2607
-14496
2660
3614
-704
-6155
5790
-9979
-5986
2308
1418
-2534
-2387
-5533
-263
3722
-10316
-4754
-1938
-7598
-3715
6764
19443
-13102
2463
-8215
5984
-5982
-10369
-14255
-14839
-209
446
-8196
14902
-2265
5060
-1132
-3491
-7012
3969
-1077
-1119
-706
5865
16319
-6860
-4173
14493
13600
712
6383
-1696
4446
5700
-10975
2340
-2336
8415
12900
-4146
3110
4485
-10614
-9886
1289
3932
15174
-9888
-1345
-1260
-7612
-5075
-4041
-2552
11992
-445
-5818
5111
2114
-5801
2695
3918
-1026
-2410
-157
-16572
2746
-7114
1299
-2000
8934
4260
-3785
922
6248
-769
-616
5005
-4842
-5622
-2587
-14899
-7874
6910
-4183
5042
-3477
2731
7988
-6148
4172
-8543
5909
9771
4004
-5984
9629
2335
13093
9754
-10944
-4169
1939
-10168
7096
-3261
-1625
4534
3206
6861
12886
6984
9447
578
-12969
-11027
-6478
1871
1010
5470
6164
3468
2560
-12582
-4165
7493
-4056
-2558
-1042
16988
1025
-10853
4172
11081
-4308
-3534
-289
-9330
4761
9957
-317
-565
5998
8945
-2320
-3053
-4355
1746
-16622
-4207
-8000
-4864
-8811
-1788
-2807
8994
-3140
-9515
7346
5232
-7505
11810
1096
8568
8721
-7786
-6308
-5782
6622
1855
-9173
5379
1824
5513
11594
2082
718
627
-5845
5442
-1423
2023
-6061
-7133
11392
3997
8709
-2978
7138
-3533
-3682
8722
7574
-19716
-10920
4823
5425
-6756
-9331
5633
-16140
-7968
-4784
-5319
-3306
2928
-4233
-3588
9291
3190
-6815
10182
-9347
6562
-159
-1449
-6562
-3792
9281
1759
4195
-2687
-1072
1232
-9154
-5275
6464
2805
3888
-6672
803
20239
1589
5476
-724
-2542
-11470
7000
1804
-6233
-10961
-14217
-3584
-17287
-14373
-6837
5852
8158
-4047
-260
-7566
9230
-3180
-16225
1872
1418
-8827
12480
8113
-10481
-8854
-2978
-6330
-5160
-3429
3720
12006
4430
4798
-643
6489
-421
-2878
-7049
2570
1668
5743
3347
47
6423
12679
12283
-3442
-2064
-643
14383
11687
4080
16564
-6705
-3028
-6834
-11331
6554
7050
15535
-14258
-1840
986
-5265
-235
-7821
9649
334
12906
-10235
230
-3486
15865
2484
21485
882
4484
-11888
-3278
-10584
-10156
3159
-1036
-795
-15908
2049
-12602
8747
-9825
2444
14457
-6861
2893
-1740
17780
-19728
2149
2220
-21212
-3815
-10603
-5636
-6495
18951
-9744
18828
-7640
-2135
6198
261
5644
-10699
8872
9191
2261
-7924
-5833
7974
-128
-8815
14639
-3024
-11204
17026
-7200
8244
-10834
10748
142
1622
7341
2782
-5766
-9103
-8168
87
-7129
-1523
-4262
-353
11875
2779
-5788
352
-3762
-511
12990
-1812
3873
7645
10891
-7054
-7965
5757
3821
-1942
-619
-559
1538
4449
21323
-1716
-4753
18386
9128
-7347
695
4732
5462
7539
9237
19948
1774
-9619
3638
-4979
5761
15398
2551
13385
1838
-1327
-26723
52
533
9129
-1345
3554
-2625
16218
-837
-5696
-2695
1644
142
3519
3392
-4429
-5741
-2598
1667
-6155
1608
-1532
3737
9652
-2546
-7945
3528
-12215
3525
753
-3540
12086
-5547
-3491
7436
3593
6007
7787
6808
3151
-1043
-3515
4707
-4438
-4626
6404
0
-5180
-3466
9916
2695
8201
2391
-1705
8068
-18140
6213
9266
2301
630
8872
-3593
2886
-9803
-7139
3710
6566
6461
-1172
395
-5017
-5567
-5589
-7080
9586
10679
545
-6997
7465
2758
12385
-10610
3319
6546
4447
-6138
11698
3750
1195
-428
6796
-3006
4222
9336
2137
-5146
-6269
4810
2870
-3863
3592
7469
1779
16701
1889
102
-10090
-2700
8584
-6208
-12421
-8783
959
-3321
4793
7105
-4584
11528
501
-5599
-2405
408
924
-4530
3321
-1044
521
-9036
7846
896
9320
-4021
2720
2635
3145
4053
-20331
-3958
-1534
2427
1084
-129
3602
-12005
-2577
12551
-7093
-18947
16856
5969
-15059
9225
-2522
5733
3519
3704
4311
9913
-5330
-3980
4110
-5202
14536
2271
4953
-4
-5886
1705
11394
-5096
11870
-4890
-10422
-7491
9946
-9287
-8973
1207
24288
4312
-16210
7292
-8301
21580
7178
-2247
2319
-1195
-2079
-890
-4928
2227
3352
5138
-13810
-1434
-1383
120
-796
-8184
2449
-7656
-4765
-6013
13004
9888
-4865
2002
9946
1353
6834
-207
-1436
-6888
-6985
-2812
-10303
5398
-12531
4455
-5938
9306
-770
14093
-507
-1660
8269
-8792
10154
-4950
-1365
4547
-3898
3549
-6259
-12343
-1880
260
10107
-169
-11480
6499
8546
-8373
1756
-736
-14725
-14522
4320
12795
-11994
2562
18368
5937
-547
9414
-13284
4236
9053
2986
13486
15331
-8436
-7980
8674
-1728
-119
2050
-7174
-6234
12376
-2772
4689
10264
6225
4085
6999
-5676
10754
-1302
5097
-19304
3853
3083
1742
-18
3615
1526
3258
-2168
14631
11622
6186
-15040
-2592
12382
664
902
6507
-13397
-7374
-2498
-10126
-920
-5118
2621
-3204
1529
-8668
1575
-5370
-3460
7178
-14192
-4572
-8848
8392
-1773
-4905
12666
-1333
-928
3504
-21709
-8659
11454
-13973
1840
-8409
-5529
3404
1387
6588
17032
-7024
3924
-13018
-7310
-2869
-13908
-4623
7705
13944
1731
3905
1681
-14763
-11701
-13850
-266
-5778
16563
7774
10627
-5234
3947
-12515
1630
-17830
826
-18636
-14584
-1225
-16545
-8829
12296
-7770
-11654
-18418
-1727
7822
14332
-4524
-11996
9114
-12615
8261
957
-4294
-499
-3826
2413
-7562
18500
-3834
5281
9017
6797
-14248
31009
-12087
-17629
3801
-15529
2473
8477
-7724
7245
-244
-19590
17921
-1784
-3195
4575
5291
338
-16136
-1748
-3391
-3334
3890
3474
-4027
1833
-11183
-13870
-3754
-2754
-3716
-2468
-2760
996
381
5545
3796
2798
-10872
-673
-5476
-12340
-4190
13736
631
-1921
-3612
19345
-2230
2967
1849
-5736
7794
-6017
-2554
-2975
-18850
-1357
-12219
3548
7956
7909
-7513
2284
-4941
5984
4595
-2454
-10348
6184
-10099
131
-7800
2850
5257
-4846
552
1158
13844
2777
-7895
-5484
5428
-11307
-369
-8478
-14597
1780
3697
2641
6837
-6967
-1247
-13338
7923
-10410
-10779
2986
2377
17387
-6050
-7057
3705
1067
5591
5460
-6713
1725
-10651
-2681
2936
5959
-106
9784
9457
3601
-12816
-8519
18584
-9714
11644
243
-11327
-3288
7333
10298
-2236
-1027
-11612
-1047
-6407
3147
13804
-4624
6795
-8144
-2164
8678
-4151
14157
-3242
9089
695
4540
-6729
13401
8137
-2317
-6178
2641
-12659
1793
-760
204
10467
11275
9833
11343
3542
7267
-4213
10936
3622
2583
-2096
-3614
455
-1270
-3201
1506
-8719
-7726
4295
-9927
1554
3824
-2109
-17532
3375
7660
-16061
617
11878
-8324
-2272
-3406
4290
24420
569
9660
3506
-8050
-5069
-10196
10807
-3773
168
-4226
6081
1505
13589
13588
-11721
718
7334
3012
8198
11483
4003
-12189
6084
22662
-24112
2542
9133
-1411
657
1953
-7025
-3885
2258
4562
-348
-5113
-16401
-2910
8552
-3562
-3663
-74
-1733
1247
-9442
-5821
5360
-1763
5584
-8613
-591
6546
-10317
-13721
1570
7674
-14333
-695
7328
4984
1999
3973
-10451
1737
-6505
-3782
18824
15387
5619
8753
-1198
9323
8755
-2479
1897
3768
-8690
4317
-7301
-2366
-5332
908
3207
-13475
-6548
8008
-3630
2408
234
-1069
-5690
9867
-1300
-844
11328
4964
2408
-10658
-12822
-4099
-5541
5222
769
-4510
4663
-3320
-4799
12302
9084
-5323
9736
6564
-5050
-8753
-8025
5768
1129
4509
-5193
7249
-13361
-14684
2779
7210
3138
-3064
-6686
-4981
12178
12176
3097
-4351
-4131
-11369
4239
-43
2816
-4514
-16740
-2201
-16344
-15264
15355
-2432
1939
-7803
6862
-11249
5915
-1671
-4930
4254
-19168
-14040
4968
-5344
6894
9559
7927
-1844
6920
1104
-8152
-789
-3117
-3939
15288
-9598
-4165
12259
12201
1398
8132
-5892
-9809
13729
-12725
3146
5151
-17966
-5088
9191
-12063
-1910
8038
12716
-3078
12025
2326
6918
-4355
-9320
-2220
-1064
2199
9065
-14310
17470
280
-10014
-8591
317
-5439
-11085
-5550
5048
-3155
-24053
-933
-3106
-21748
-294
-7279
6181
6588
-82
4812
16865
2816
-14924
-12463
8570
22338
6225
4244
-4674
-8094
-4256
-8936
-7531
-782
-10386
12471
-12173
-11056
5922
-2790
243
-838
1775
6611
6156
6540
-2714
-4323
3785
-2784
19453
-5343
-6719
8238
-6228
-10030
9916
5650
-11278
679
6567
-13143
5631
-5029
4599
-417
173
5281
5949
20471
3185
-3961
2082
2461
-288
12811
-13467
715
2828
-722
11667
-9493
-5200
1175
-1841
11095
5499
4853
1384
-2488
3752
-7565
2642
-16727
14145
11523
12690
404
689
8576
1735
-13343
219
18966
-728
6398
-6886
-2561
4858
78
12890
4066
-6247
14876
-8037
6332
-2257
-12455
1513
8189
23234
787
-14177
9222
4486
-12534
-8330
1416
-4275
13035
1903
2996
3175
6317
747
-8073
-7468
5775
-8795
13093
-5290
-8690
3853
-7379
1432
-6676
2077
-15868
-5737
-692
746
9137
5040
-2480
10224
-6169
297
-462
2598
-7887
7191
8703
-2434
5885
13248
-10215
8078
11391
-1891
-15503
1661
7931
-8398
-2090
1194
-68
-2676
-2591
-328
-3971
6810
10711
-740
-630
1545
-8724
-1536
-6110
981
-219
-919
-2499
-2756
9086
-1223
1711
8185
4026
2711
-1601
-3898
6427
-4249
759
6256
5659
3409
14316
2092
-3283
-9992
-9327
-12866
1570
13723
-4366
-12043
-6527
-6001
-132
7557
-2791
863
-3699
17047
1355
-11296
16698
-971
-1708
-509
-2444
-13089
5774
4229
-4552
-818
9706
-11354
-11223
17356
-4836
-11704
12396
2621
-2114
-12274
-459
-5373
5469
-915
-9485
-12112
4696
-10480
-2266
-2784
6468
-10875
466
-345
3000
-8450
8704
478
-6741
14841
14606
-5189
7316
3634
6307
-2014
-5577
12445
-4665
-1021
-8191
22822
1496
8569
-688
-7645
12481
3025
-2255
-2111
12173
1303
9459
9648
-5944
-2474
16767
-2502
-12792
-936
-579
-10662
9086
-6043
2327
-7949
3258
4350
6945
-3249
-5707
3434
-4316
-21326
-6723
5032
4192
6324
5642
-4340
962
6184
-1506
996
7459
-1873
15534
12301
707
4922
9431
-5927
-4429
-4353
10158
77
-7490
5823
6632
4318
-304
1456
-15276
-2612
-15893
-7354
-5800
5360
-10249
839
3336
-11366
4032
-7800
-2197
-4893
-3418
-2181
263
2702
-3871
7209
-9711
-6622
-7094
-5190
13984
-4957
13258
-19746
-2494
4590
12708
5033
11900
-2180
-17977
8654
-3701
6892
178
-9278
-2785
-10201
1842
4239
-2959
3272
10901
-9730
-13578
-4979
-9701
4742
-2783
7701
-547
-2651
-37
7828
-3774
13476
12935
-6685
-13217
-5284
3012
5925
-2799
1970
-5142
3594
-2198
-1654
285
-5288
1588
67
-14943
-2918
2561
-2101
5713
474
5042
577
13466
-10846
2816
-8977
6734
-8800
4843
-4339
-9692
4672
-9342
4375
-13157
-11137
-9368
1941
-2964
5289
7397
-11737
-8927
1963
264
-3486
-2928
10849
3992
-2371
-8291
-10093
3629
6396
-12018
-6182
3590
-18205
-18395
-6218
5469
-5791
-3803
-8300
-8529
4182
8208
7156
7533
-2647
-980
10905
-1994
-7357
-9913
3407
-1066
-2304
-7411
-2585
-12313
-10129
17500
593
-6430
-10055
-6651
-2458
2220
-5040
4181
-7118
-9103
-2094
2989
3436
4552
205
19111
5932
554
17736
-23463
6429
7341
20159
3441
1770
4160
-13142
3000
-4191
8540
1451
-1734
-1455
4669
7612
10879
17560
-6681
11
6350
5532
-12754
-343
4783
-1120
-1658
2942
14377
13446
719
-2418
-27816
8363
12313
5437
3603
-15018
-10408
-10665
12299
-4720
2525
10212
6911
-6618
2487
9885
418
-17732
-1650
-1881
880
10246
-14394
633
4625
-18693
-12196
-2667
-5591
-16824
-10325
4192
-3556
1138
548
329
-10482
3197
-2017
5191
-301
-2369
5556
-5367
801
681
4903
-1579
5091
-3400
4277
6335
1540
10453
948
2642
3542
4396
4889
-2840
-2625
-8795
2760
9694
-2153
-1778
14281
1756
5098
3688
889
235
4717
3391
-8175
-305
-4115
-17021
-13807
8465
16899
3932
-9081
-4133
-9309
13293
20829
-5038
2905
9443
3804
-8776
-2658
-7438
8886
-6047
7379
-10393
-8244
10763
-115
11226
59
2492
-4540
-10014
9329
9247
13169
-6987
-762
10508
3195
-7097
-8783
-9096
9629
-9271
-10613
7684
5112
1075
-2052
5923
-14639
-10876
-4024
14235
10193
-4744
-7224
12978
-10322
-1987
-288
-7953
3074
4910
-2244
1518
16276
-9420
6424
-456
-1698
-2488
9140
-13063
-5998
721
1367
6678
-176
9752
-10452
-5434
-14411
-5263
-9680
-5476
1272
4527
-7054
-11254
3271
-8635
-8200
-15508
-14812
1388
16129
-16619
-14468
-7045
3195
-3539
-2088
11172
-2748
14426
11759
-4888
9774
-3425
1126
-12799
-10063
-5145
9704
9885
-6876
4504
4075
6317
-1440
-7972
-487
1896
9842
4851
15981
-1865
-9687
15907
16976
7919
9649
-10899
-15103
6163
-6269
3963
8397
-1524
-13845
-7215
-3195
-5057
-1268
4291
-1258
2784
5068
5873
-3475
-4795
1102
-6709
-9466
-11644
-8326
-8071
-8952
-2845
-6655
-13463
216
3440
8281
-1991
5628
5422
-5398
14210
-9319
1407
8860
3711
3842
2244
3597
2803
-436
-405
-780
-2129
-2599
591
997
4174
-4620
7497
4578
-3130
-7084
861
-1610
-3764
-2225
6404
12058
-5300
2283
3008
-4955
7754
3476
1694
2273
1263
4473
9292
1010
8248
2209
10293
588
1644
-207
6056
-125
-5257
-845
1160
6563
16063
-3481
-4384
-4938
-862
-4295
2491
8240
-5201
-2126
-13025
1562
-4891
-14252
-10400
-653
-385
6099
-1288
6130
5591
5983
-2005
9065
-1817
-13936
5598
11099
-3938
2277
-3423
-8723
-10353
6945
-14813
-3180
527
9049
3018
8194
19002
5125
-3180
3800
8345
-5687
-13051
-15343
2919
-4799
78
4860
353
10326
-16899
6229
2530
-8623
-6406
10777
-3431
-7746
2545
-5135
-1942
475
-2346
21190
-6547
-7227
2994
-1934
-511
10996
-1929
-4297
-2000
-5967
-2729
125
975
615
4473
359
-3795
-6809
-11673
495
-14994
7164
-9552
-1247
10093
-5174
-9851
-6827
-1722
-2910
-1584
-2027
-9238
-129
7267
1983
1210
-3015
7688
6365
-33
-2029
2683
-6859
-4629
-5770
-2457
6399
-3911
-5510
3817
4319
5212
10862
-748
6427
5148
-10737
82
3102
1427
4483
-1482
590
3332
-4248
-13113
2939
2234
4399
2398
-13580
-3588
10714
18139
-2468
-1993
-7883
1190
8551
-7529
5272
7259
1848
4480
-6456
-5006
-487
18249
-9588
1327
-3158
9589
-3105
10780
13791
-1221
-11152
2574
3083
-548
-6034
-879
-4452
8380
9346
225
-5619
-4249
2950
7404
-3132
-4482
-4495
10509
7770
-9678
18404
14304
-18611
-1876
272
2939
13849
-10676
2288
6741
-8625
8345
22563
-2727
920
-6599
-10292
-17108
-12154
12388
-2955
-5069
14476
-1440
7819
7786
-930
-3983
-11729
1283
-8072
-6426
-8920
-1140
-1270
-5660
-4286
12092
-9896
-6973
-630
2688
5931
1913
-1408
-4489
-11384
3530
-4132
-5306
1333
10730
-13878
-6526
-14621
-2648
-4303
-7919
-2367
-14540
-2048
-280
-3012
935
-6800
89
-669
2457
1591
-2763
4137
6127
-4674
4125
-2130
-3317
-1085
3083
3231
1947
-5850
-13160
-6760
7550
6830
-4607
-4027
14027
5472
8157
1213
-3755
-10092
3714
-9689
-533
-627
-5219
-11763
1396
2849
-3106
-3995
-8929
2360
-2011
13471
-16750
639
-7722
-7763
3732
-7698
-2865
5145
-2299
-16573
-5425
4492
-3802
-9298
1886
7901
-4153
4861
-1380
-4702
14152
-4465
11765
6394
-590
992
-4289
-1154
-123
-2349
-13063
10749
3478
-2580
9046
9216
-1601
-1890
-7167
-797
2377
1105
3488
-2323
-12466
-10414
1880
-11138
3782
9259
12037
4638
1274
18702
-4907
10637
-1578
6403
2330
3286
15076
10166
-10050
-330
-9653
178
275
216
-847
-572
2625
515
18764
5990
10169
-20587
8206
9529
384
16886
2412
15717
-8918
-1012
6500
3255
24769
-7906
9920
-4135
12558
4291
4802
-12110
-1491
-2745
19490
-1918
2911
18222
10495
-13667
-11288
5839
-7865
2107
8625
7532
-4271
2254
-3219
2896
-3374
-4372
-8884
10259
-2234
2167
-5596
6481
-752
2709
-2838
-1708
468
7010
-7168
1145
-10764
5347
386
7693
4410
4817
-7692
7807
-9434
9072
-7496
-2389
9790
3784
3708
4582
-12478
3685
-2245
-3856
-11783
-337
3066
5810
-2830
643
-2603
-272
2361
-16729
4780
12794
3427
2815
-2461
4297
-3762
-17375
-260
-7083
5111
8831
-14737
-492
-7686
-11180
12568
-12032
2637
5822
-4488
-162
-10093
12425
8424
5151
-18593
-780
-6206
-11144
17151
-3063
4065
7997
-888
1022
24352
600
-2557
10238
-7894
-28294
-10042
3681
3216
-9782
-17228
10653
-10092
-13347
1534
-1611
20117
-20219
-6895
-9627
-5461
-1677
19746
2555
6457
-17674
16
5027
-1761
19348
-1556
-6297
-2325
-6429
2791
6931
-3429
16051
8308
3548
-11092
-9814
1858
-10094
-13073
-9364
-3359
5504
5051
-302
-7648
-3025
-6491
11598
-1010
-11124
1598
8776
5114
20865
10772
7140
-5278
-10911
-7205
6334
8207
-7779
-3895
-4714
-4249
-2984
-14483
1372
1014
-4402
7489
-21177
7027
4941
-14803
-9413
2613
-12716
9922
-3442
-1743
4025
-6874
9352
-3047
-15133
-5341
7651
1103
-2822
4805
4980
5613
-5093
-3549
14062
-6407
20177
-24302
-213
-5944
12909
-18145
-13508
5124
-11684
-3599
4191
-5222
-11217
1584
-3865
-10978
865
9239
10099
16858
7528
-7855
-860
-13642
-10912
9190
-1669
8352
-10289
10310
-11986
7103
-5774
10873
7601
14426
6051
-23445
-9492
4273
-25179
-468
-9260
-12017
7507
-6018
-2207
161
7527
2272
-7785
7194
-598
-10165
2287
1777
2607
4136
335
2148
-2254
16644
-7499
10063
16207
-3697
14820
-5296
22450
-4878
5272
6376
25629
16959
6881
-12658
6924
4923
5062
-2044
-2179
-4425
-7416
8380
6571
6319
-1207
9718
-5185
8338
21824
-488
14152
6947
-11049
5551
-1819
-1188
-1834
-4152
-7300
-2157
-2869
1323
-1894
-10269
3028
127
6613
3349
4692
10690
4131
-13330
-4465
-3788
9395
-6826
4692
-3917
5595
-9368
4581
7530
2815
10137
3133
4693
2514
-363
-205
5774
-4672
13799
987
-7282
6821
-4120
-8491
8879
-2236
-6539
1119
-1645
-4603
-10034
3029
3694
857
1185
2500
-4921
616
-3769
-1859
731
15299
-7172
-3312
-2320
4624
4240
4296
1909
4803
5520
-1732
-10139
-6275
-13971
-4568
10822
-418
4630
-4930
-4713
-4783
2436
-1071
20191
-8166
-647
10465
-3847
11498
-14453
-6457
8942
1452
-15016
2836
-3140
-1933
1062
11034
7949
-9421
-4299
-5044
12518
-2144
4510
-6738
4293
2667
-9527
-5348
8479
-3732
-7934
-8421
-2827
5662
-5528
7912
3817
3637
-436
7544
10327
1087
4466
-4644
-4604
8018
10328
-821
-315
-7481
3246
547
-2829
8478
-11
-1040
3675
2914
3414
2490
18512
-5322
10506
-707
-7648
-2607
9872
9233
9007
10055
-1954
-3637
502
1142
-391
-474
-9722
4634
-1246
-339
-13318
-6385
1569
4646
5167
1248
5762
1940
3392
-5471
-10280
2310
-10738
2660
6144
-404
1378
250
7874
489
-10863
-6335
-14650
-10888
-3681
1542
-13631
-3023
-10079
411
-14613
-2967
13748
-10760
585
-3671
-5594
960
-1359
15290
-1765
-14205
10387
4313
3639
5873
6935
6159
657
45
364
2889
4135
-3071
-15590
10800
-4568
-2079
4232
2640
13862
3810
9451
-3877
-9823
-6606
482
2261
-4306
8159
3637
-516
-10469
-8346
-9117
8411
8114
835
-15393
-14798
5899
9941
6556
8469
-17020
12438
16320
7393
12673
-13976
1368
9090
2502
1870
-13807
2005
-5115
-6410
-4964
6504
4666
240
-1865
12436
-20832
-7174
-2185
-3600
-248
-4563
8468
4337
-5347
6055
5738
-3276
1901
-5510
2942
2029
1546
7753
-4224
-928
2894
1845
8475
7618
11370
-4978
-7814
10219
3211
4901
-19217
-7946
7773
-12158
-7980
3842
16107
-6809
-7893
2680
3911
-314
5180
4111
16287
-4446
-9795
-5638
3431
13951
-8629
409
1863
-5063
-1198
1891
-15140
-29
13451
-7834
-3309
-2003
10694
-5098
-7783
6188
12326
-9669
2179
-2598
-1284
7279
4994
-1873
-2559
8716
6673
7614
-279
-1477
61
-693
3368
16883
-1868
895
-4196
-18724
-11311
-911
-2945
6767
-696
10506
3912
19877
-211
-11983
6424
-7558
-3411
1186
4378
-12255
7320
-3988
12705
-12739
-1937
7043
-4735
2202
12613
-1458
-5208
-2418
-292
3702
-2180
22435
1706
-2539
-192
18438
19117
-11697
6171
-1416
-4195
10135
2040
-8127
2966
-7536
-11280
14596
-3210
12560
-13349
8848
7750
462
7338
6074
973
1222
8323
12451
-19038
12071
-2191
-2587
-10466
-2235
-880
-2938
7727
-3871
8012
-12400
-5265
-11073
-21415
15625
-3899
-3684
5336
-23976
9501
8781
-19700
-4277
738
895
8029
-8036
-8097
-15760
4049
3087
-1398
-1531
11779
8908
-6801
8759
3506
-9493
-586
2716
8835
9666
-11645
8502
6700
-12247
-11613
9214
-6123
-4565
13946
-3933
-6388
-6517
7382
-9825
3624
9179
20045
20389
-8426
-2332
5333
4083
-2079
-3156
-10835
14016
3060
1382
-3131
23550
-5756
-9333
4015
10785
-16704
9565
4890
5675
5340
-5978
1627
1352
2945
10926
-4782
4767
17740
9760
2984
-1195
22916
-21067
235
-4721
-3007
-11838
7242
-2931
-5126
6095
11098
-14812
16802
5356
-4399
-18513
15798
-3440
9076
-1337
15628
177
-4031
5865
-1524
8180
-11473
-291
-1805
-2682
-3294
-8773
1059
-4712
1897
-2023
-6022
-5692
-2755
5395
-5764
-7334
-8182
7970
14376
-970
5098
-10516
9540
-7987
-9053
3590
3297
-685
-2198
3299
2546
13936
-980
8973
6247
-5260
5320
17594
21400
-15378
4348
11891
7534
-6459
516
11123
-11762
4442
3262
-12628
759
17384
4940
13145
-22019
2169
9254
-9360
-6269
-9975
18602
-5965
-15805
-724
-16240
-2675
