7485
4376
2017
-909
-303
4855
9373
-9020
-5353
-7535
-5071
-3550
-9734
-2889
6763
4844
4611
1381
6583
6774
4968
4214
625
3914
7464
6735
6805
5898
-3881
852
7894
8413
-269
7729
15661
2618
6169
7124
-1627
3821
325
3893
15498
9562
1939
2687
1115
-2576
-3488
-3350
-6689
-5011
-10886
-6769
-5088
-2318
25
4419
7227
5826
7643
3592
6161
15796
-9639
7752
12902
-11840
12165
-7104
14492
6695
2600
4334
1970
2905
4267
-9318
-14996
-12365
9499
16450
9099
-4552
-3815
-1368
-11273
-1762
-5992
-5992
-3055
-13107
-21829
-14015
5671
8774
9616
16521
6716
8333
5803
7168
2796
6800
6176
16632
6492
-23945
-4194
-6550
12250
3587
-28260
-22523
-6103
11614
10180
12993
12120
-6973
-14807
-7161
689
-1735
445
4895
-8371
-14467
-10719
8780
1362
-1293
6597
-12749
-12533
-9394
5412
14321
7282
2683
-9795
3410
124
-5065
792
-19022
-920
-15136
4303
4622
4320
-10604
-14895
12364
-20854
-14550
-3022
-4303
6102
-1789
-5522
3087
-6820
1681
5513
708
10497
10826
-6055
-10056
-7418
-4242
-6090
-10366
-5684
5388
3268
-1573
7511
12042
6745
13096
-6375
-4975
-4174
-7272
-9011
-8691
930
-7739
-11009
-11032
5260
12360
6151
6200
-643
-1149
9005
9793
2201
7619
1102
10779
3229
1513
7280
1245
5330
6764
-840
-9772
-4254
-11315
-4331
-10440
-8871
8700
542
-871
7737
2840
10113
14448
4713
6047
5448
4254
4701
4447
6625
4279
1647
1291
-3502
-16510
-19569
-14184
-1504
-9633
20310
-14142
-5336
21133
-14217
-11217
1099
23093
6888
-13162
7784
11654
11849
6565
1438
3205
6740
3254
-2499
4989
-6205
-7622
-6385
-13951
4391
5658
2548
-13409
2792
4273
4611
-4655
-14007
-22415
2119
3699
-4903
9104
3445
-29132
-447
-1003
3852
8908
8195
7664
12270
-12579
-3028
-359
-17751
-6708
2735
2590
9893
12738
9635
-15768
-12615
-8839
-7275
-545
-5500
-2058
-6261
-10656
-8959
-5958
10567
5837
4306
5857
903
1029
-3430
3518
-2266
1606
12969
13783
-5371
9297
-8001
-4820
2291
2571
5280
11787
10488
-2200
-4681
-6668
-8152
-9483
-8405
-9221
3908
-1368
6174
8533
7181
4874
5215
-9661
517
-3017
6840
10386
8259
12683
-11913
-455
-5629
11993
17805
-1370
8541
-6554
-3570
-5631
-698
-4279
-4366
-6601
1693
762
3444
1786
3830
4946
4439
6187
14382
9073
10558
-1934
-9495
-14265
-2927
-2313
-4107
-6307
-3870
-4214
-1984
-9475
61
-3163
-2495
-7580
-7595
-9097
5713
10184
-3760
10254
8272
-15691
-18475
-13377
-3306
-538
-3107
-2799
-10884
-1010
428
13811
3630
2923
12245
6432
-3154
-5877
1368
-8787
-9292
-895
-7673
-3634
1314
5268
2950
10049
5883
3922
1105
-2771
696
9077
20088
15139
8296
-1298
4955
5962
5134
2683
3361
3249
-894
-7268
-4461
-6453
-4588
-1399
-6625
-4655
4628
1631
457
2828
5171
5992
3661
-4337
2907
1786
-2381
-797
18467
-32767
-7011
3456
898
-672
3132
2449
18417
3478
5559
2796
10281
-165
4410
4839
-7183
-4292
-5055
5139
-43
14
-10790
-9031
-24624
10261
18062
9837
-25176
-14732
-11249
-16308
-4190
3699
-1678
124
11319
-9370
-9792
-2830
-5293
-6913
-3413
-5780
6333
5475
5380
7075
4928
5852
7430
168
3854
-5982
9053
4298
263
7380
-13314
-3254
-5125
-7792
-2566
-9334
-8106
-1814
-3313
-6113
-8186
-3374
-6984
-4208
-5556
1968
-2661
-5492
-2585
-9153
-434
-11213
-20600
-11335
-7130
-3700
9967
12963
-15997
-13186
-14883
-7587
10178
16403
13276
19351
19096
7565
-658
-12028
-17156
-13919
-1070
4416
-3977
-12798
-834
-4143
-8529
-8629
-12076
-13581
-1191
7909
11934
11309
-3775
-7791
-2313
-5228
-10731
-3763
-5125
-5388
-7861
-4162
-3576
-2222
1532
-7085
2980
12616
-3594
3748
1016
197
9418
-19287
4988
-14489
8394
1819
10034
12976
15520
14939
10076
-1141
-5766
-5558
-9259
-13115
-1673
-1461
12417
6281
8450
13315
3094
8549
10960
-4677
7338
7283
6362
2728
5313
5696
2553
1424
1587
8102
8484
10810
2947
1924
1619
5586
3063
-9774
-9300
-17027
785
4032
4171
17900
10162
2414
1549
-943
10571
-2527
1918
4260
2757
14410
13656
7536
4817
8018
-7315
-11541
-8928
-4428
-3984
93
4158
-1811
-4838
-3707
-9253
-6001
3449
-14868
-9374
-10364
-4985
-10764
-5389
-5695
-2429
10799
6139
6252
1720
4264
5591
3825
-1273
5526
4370
1512
1635
10232
4626
-20670
-17177
-2869
-4702
6674
12007
19463
-20763
-8803
-28950
10373
-750
-8690
-3151
9075
9699
9673
11823
-549
-7832
1619
2105
13296
-1212
-3013
27243
10107
-16786
11419
6424
3670
3899
-1356
1988
4796
-13661
-11608
-2107
-7168
-2016
5173
8013
7000
-1065
1413
9444
1429
10464
11877
-2877
1364
5349
15309
6680
6522
4538
815
18453
5224
-18901
2986
11926
11720
3061
-1439
-3561
10331
5179
10126
8328
10635
3828
7
3229
-662
3469
6814
2635
-171
2869
2032
757
2832
10732
14539
5348
-4683
8653
11973
5003
2264
-1003
-3979
-6662
-12554
-8022
-6764
-2591
-1898
-1182
13824
8347
-982
4168
-1721
9021
8394
848
1693
4956
734
-469
-4175
-4472
-5509
-7692
-5328
-7127
-3829
-10001
-3071
-312
-10054
-2021
-5129
-5894
-9369
-6473
-14315
707
240
-5212
-7994
9271
14872
-1391
-5915
11050
8229
9018
-5678
-3835
-6382
-6989
-4616
-5172
-2664
-5688
19980
24840
-2570
10283
10366
-23535
-13116
-12094
1101
-7820
-9078
48
-7720
-22397
-10192
891
4877
5325
5757
5222
6115
7214
4218
1070
1622
6897
5698
-19652
-11455
-8876
4690
4741
17425
14024
-863
-8871
-10930
-9652
-10464
-3330
-5117
9914
7091
5012
6244
4544
5155
5168
-7143
-4850
-15100
-6474
6540
3869
-334
