3904
-2969
-13519
8860
54
-26179
12295
7684
-9470
6877
6814
-2063
803
-903
-2684
-2289
7079
10831
4310
4807
2655
573
10025
5708
7045
-1875
2555
5657
1739
3577
-1627
-754
-4295
-5523
-8060
-6146
-2033
-1603
-120
3366
-7294
1605
642
-1312
-7102
-1068
1974
-1724
-1680
-7673
-3007
193
-2401
485
-4179
9837
9068
3879
-576
-3231
503
3464
9323
-667
-4865
1902
-1747
206
7603
-1854
-2623
1861
2242
4656
4289
10495
4336
-1513
533
-11381
-6468
-3452
-10449
-17965
-9715
-1726
-2859
-3942
-3617
2525
195
-11638
-4442
-11352
-4198
-389
-12795
-11985
-9923
-17498
-13514
4381
-5247
5376
-11270
750
32767
1760
934
16745
-14696
-4039
1266
-4150
2651
-271
-14380
4080
5836
9708
-229
-2786
4031
11280
3988
12216
9332
7770
11940
-2432
-2830
-6974
-2628
3448
-3659
-7175
-2402
-3535
-1543
-4012
-7515
143
-2036
12255
20393
-17111
-19036
-2834
-2668
1678
8083
5234
-10583
-2674
43
-5124
3239
-5509
-6484
-3006
-6883
1611
5032
-13217
857
-13007
-4572
-2401
-6685
6283
-13304
-7820
-2857
-3609
-1278
-2512
9451
6103
3172
-490
-18175
-13239
-9822
-6143
-6469
1513
3194
9039
11443
4277
5849
6909
14960
-1204
1972
10629
6287
14020
456
-3711
-21155
-15110
-83
-14999
-1468
-636
5578
2320
880
-3499
-4799
-5662
-3039
1453
-2471
-105
-4812
-6046
4051
-2339
599
-352
-6284
-20
6592
7259
-2953
-3183
-432
11671
6400
-1916
1571
712
3579
9706
7790
-100
9296
-315
-799
4928
2590
9069
2874
2132
-947
3047
-5297
3645
17555
1325
10585
1229
-4520
14931
-7067
-3299
143
-4582
9124
-7865
7352
-77
1095
-6073
-5223
9217
-2198
22529
13448
302
9493
-1522
4781
-7390
-8909
-10082
621
14346
9402
8418
16119
20096
3358
-4846
-5770
174
-5963
-27491
-2137
-36
-18929
-1561
8710
-3133
2974
1442
8332
2809
4381
-1295
-1616
2846
3056
2607
-3527
12224
-6159
23691
18751
2336
-2369
11671
-21218
-17403
5761
7809
18495
7783
-14407
-4652
13690
2141
-6098
7240
2466
-2001
1212
-3248
-3287
2329
1274
-870
4112
2808
13880
5070
-3295
-3245
-1897
6288
13952
8000
2048
-7574
-387
-1110
-4670
-8496
-9769
-2236
-2278
1865
2346
-563
-273
-8126
-6031
4385
-2281
-11616
-15021
2152
1482
-1113
1270
1336
10470
2833
3351
1189
345
3422
1037
8935
3918
3013
-2238
3782
7392
3777
15932
3844
-7478
2171
207
-6565
12652
-1464
1111
5698
-1689
11402
1585
-2759
-4755
-2421
-1065
-910
-3356
-4476
-4157
-3073
-4580
-4585
-371
9602
10782
7859
-580
631
4220
2697
-1096
-2798
-409
-4407
5445
15509
-2128
-5211
9083
13292
-3407
10970
10312
-1067
12301
1657
-1046
4715
1951
3959
4501
6939
-2567
-3355
8652
2655
-372
-4132
-14541
-8033
311
3291
-5033
2284
745
48
4846
-2710
-1426
-9079
3266
19048
-6504
5229
12806
-6723
5302
2988
10171
-3717
14136
-4689
-5285
242
-8299
6477
-7178
5705
-5220
1369
7347
4909
-388
3674
4353
2592
1152
3091
4504
534
-1127
-1662
-22327
-6769
1411
-5979
224
7749
17089
12502
-1787
-3824
-1209
-632
-6296
-5520
-3171
670
-5647
4216
1073
-3619
-5098
-3403
12514
12067
-2896
-1105
1096
-14924
7212
22297
5440
-309
-2193
-1393
-2902
-4976
-2254
-3845
-9305
-3033
-6175
-4011
