3027
3208
-2930
4440
-5730
-4634
5846
7165
-7305
-333
6892
11043
-6520
-2488
16183
-4925
-5685
426
-1700
5969
3595
-4457
-6491
1653
1438
4661
-68
-258
-4153
8685
1114
5207
2154
1225
9590
-6396
-14149
-4322
7916
7915
-2326
5060
11072
9684
12095
-11261
10729
276
-6085
-8319
-13650
9010
4973
6126
9763
1398
-10138
-1679
1950
-2217
5870
1084
4649
-3778
2810
2934
-2324
4618
7697
-1623
-2151
-7713
288
-3658
3294
-8693
-7475
3742
16791
-9355
2926
10196
12581
13904
-156
12153
2148
10796
696
775
4708
-3317
3263
-6631
-7151
-6591
-1012
-1310
13621
1522
1178
5274
12362
-3434
568
-1307
1046
-3982
1529
6867
3475
1304
1284
-8488
-8398
-1838
-6829
1765
3446
-7405
-6455
5298
-1216
840
4199
10784
6889
749
6448
-6713
9828
1465
-4593
3262
13425
2600
543
4717
3151
789
846
8137
6775
-5316
1040
-740
-1887
-3381
109
10389
-7855
5279
6852
7667
4502
1962
-2020
6440
6332
-1412
11156
-3822
-525
1661
4761
-705
-9833
1699
1386
7643
5761
3066
-3072
2106
-1208
-14600
-2348
8250
1030
-1700
4526
-4767
4402
-7677
2383
2825
12529
-7071
3358
-10315
587
2083
6083
-3548
7995
-5626
1520
-7621
1591
483
-3983
5072
-1843
-2182
-2366
75
-1711
-1286
3517
-3031
2254
-140
-767
656
-8259
-2395
3556
3131
-4730
901
521
-2216
-6223
-1236
-4110
-5962
6129
-3644
-8442
-8582
-1188
-5241
-544
4135
-7449
856
1708
601
12609
4748
-4097
-8077
1738
-9108
1143
8648
7410
-4264
-578
-7372
6359
1492
-3418
-2079
782
1750
8531
14892
-11753
6118
-3281
2414
5725
-1439
13717
-4560
11451
21004
2495
-5507
4250
-886
-2205
-5944
-1479
6818
1670
8188
-3351
8143
108
17733
-3272
-4916
4395
10071
5863
8771
1852
7844
1156
1151
-11500
-1043
-5161
-10492
13744
-5280
5141
6315
7616
-8403
-7408
13311
-1111
11848
-3429
7515
15880
-7493
-6121
3394
-1606
2648
4999
-4319
-2269
-968
-3603
-7753
8093
-1591
-7778
-1121
2717
3149
-3729
4377
-10082
2775
-5646
8225
10708
7537
6196
-5853
2087
9473
-6264
9542
6161
-8524
6517
6973
3546
3402
-3801
-3087
-5310
-1047
3829
-6431
962
5686
-360
-1012
3129
8360
1621
-2486
1681
1676
280
2473
178
4109
-5411
3010
11078
-5397
2017
-1445
1699
-17738
7034
3547
-8778
4838
6017
-1351
3804
11120
3646
2760
-1608
-2160
6941
16790
441
2091
872
-1180
4952
-2274
-4817
-3749
13913
7994
1767
-9461
7675
5242
-2777
1763
-9173
939
-5184
-7462
-7050
-3415
6561
-9575
7516
-2059
-8081
-5943
7457
3855
-4040
1882
-11137
8315
-677
-4897
-8048
6749
7
-301
-2549
7383
-9751
-19330
-9500
-16799
-5433
8159
7911
-6471
7855
-520
2860
-3044
-2261
15137
-2726
3064
-8534
4401
1986
-2281
1531
-2543
2863
4005
-4118
-462
5066
-13848
-13756
-5196
-7193
-14087
-2068
-27310
-10735
-7183
-6191
-5453
11207
-12300
11703
3529
4110
16788
6894
-2390
-16220
-11237
-4002
10749
3261
108
9337
1828
11423
927
-5054
-7229
6460
4414
-1964
7123
-8258
2892
4689
4446
-400
-2992
14062
-2441
2305
4819
-7463
-352
-3307
-19410
4216
3372
-10850
-9557
-3009
-5838
-9764
-11594
-4169
347
-3068
8214
5130
6864
-3101
2887
-10370
2661
-3951
5994
2026
4812
7649
5272
777
22036
-137
11272
-2111
-5289
8882
1763
118
-3373
772
1975
-2898
-13041
-1870
8645
-11439
-3218
17943
-112
-1430
5370
1039
-2534
-944
-2739
6270
5885
-2059
968
14943
1146
10123
-62
5881
4421
-5941
-9326
4313
7676
-8012
-1088
1807
-4975
4159
-10965
-14175
12776
9432
-4067
-1621
-9485
-2088
-2936
-2548
3617
-19288
-9682
5993
967
302
-10838
-3724
-7938
17892
54
-12281
3867
-15645
8655
7501
-7597
3668
-6859
4322
-638
1283
2913
-17573
1537
10699
14387
22883
3979
1343
-3980
-1623
-6573
-10925
5081
3459
-10685
-3237
8055
-925
10731
3408
-44
7407
9855
4019
-6716
-1090
6733
-10492
-928
999
-10999
9002
-6960
13278
9316
9339
-1745
5579
-327
11422
3507
7165
15150
2663
-910
4249
4636
5535
3811
-10619
-690
7257
2535
27
-3485
2032
-905
8913
6719
3830
-3620
-5848
1977
-9081
7645
-2777
4972
-4281
-6800
-7645
-2323
1178
7147
-13246
855
1953
-8034
-702
11218
7558
2533
57
5276
5186
-2171
-8052
-3432
-4367
3589
-6976
-10210
-7863
-4724
4149
4438
9741
-10031
3648
-4760
3408
-2481
-1450
4236
-12139
-12149
7969
1138
-3404
5867
-7410
-9036
-2335
9705
7298
-11253
-4229
5224
5162
568
-5215
-1548
-1106
3790
-7027
3524
11089
-8519
-1908
-8219
-2502
9735
5563
-9673
1225
818
-7213
-2384
2577
8152
-4155
-4791
-2317
6750
-86
2390
1596
4234
1808
-2483
2308
-6563
106
-3485
606
4892
-4637
3432
8310
-8174
-892
3794
729
-2114
10124
-10039
9336
-13114
6835
-6342
1376
3461
-2797
15908
1206
6630
1709
3992
12259
10427
22096
8839
-23464
-5768
-582
11323
3303
7350
13632
8130
2179
1277
8041
-15058
-23946
18565
4637
3206
-5628
7965
-6060
18015
2165
9679
-7289
14253
11521
-10354
-578
17321
12078
11680
-5049
-7430
-13888
3400
6367
2657
8384
-6894
-2933
-6923
-1286
-6345
-1175
-6033
-13199
5716
11569
-24153
7537
-2820
1152
-19985
545
1826
9469
19112
-3503
3492
21829
19557
-863
-542
-4141
-4947
1443
9157
-2315
8379
-2751
1630
1922
12944
-10592
5552
2396
7784
-1104
11573
-3310
-8406
-4977
-5742
8143
-8173
-1144
-7143
10199
5140
-13669
6446
-8870
-1025
-4862
2072
-6286
10479
-11965
3335
78
-6302
-13394
-826
12812
-2364
17839
5556
-8085
3182
4650
775
-3055
3186
46
2216
15
8174
-7131
12717
6002
-5537
315
-3575
2866
3339
-5581
5214
2704
11496
-12807
-7166
6435
2499
1074
-12126
1140
1450
-11565
20149
-13957
4224
724
1918
18539
12110
12691
4516
-2808
7348
-11949
7935
985
-497
-666
5663
2901
-1519
6598
9622
-10709
-16554
-624
2299
2086
-2234
-2172
-3898
6426
9022
6018
2972
12243
1369
13220
-6395
6892
3243
-5292
4087
-2046
-8271
-5175
238
5761
-1701
-2431
-4265
-11695
-2074
-9868
1095
-1667
-5537
13030
7841
-1910
79
-1905
-12472
7760
10461
-18511
10814
15564
8240
-7457
-12240
-15765
3391
-1884
2472
-2176
973
-13261
12740
7615
23707
-10908
7262
14169
2935
1567
2415
3363
6491
3870
-11673
7229
12671
542
6036
8746
8254
12415
-20244
7029
1208
-598
-17387
5448
5977
6335
1209
10758
-5664
17135
602
-17797
3501
7306
-17622
-4390
233
-627
-1051
7053
3254
-5762
2294
5737
-6111
8030
3324
-3140
6926
1303
13244
4172
8693
-749
4742
-3324
2828
-5698
-26765
-9686
-14388
-9027
7453
5692
2409
335
-5514
-4399
-8016
650
-3316
3266
-13283
-63
-12090
-574
-8552
-11136
-2239
-9106
-1640
-68
-5015
1630
-9984
-3888
-3003
-92
-6040
-6669
-10937
8147
8793
-1267
-1418
-49
-11330
597
-12152
-3415
5092
1388
17954
-4978
-12276
-9597
4578
-14094
-8674
-7633
-1985
12699
1410
10478
-1848
3941
6480
7515
-7262
650
2863
-7207
6192
12995
16110
7716
2178
13556
5379
5498
9946
12051
5208
4624
-3616
-12837
-5386
109
2938
-1934
2952
4515
18823
-3616
-6037
5560
-4467
24838
7757
-663
9056
2461
-3145
-5549
-5274
-7443
1120
-7157
-9960
1761
-3212
8543
1879
11500
-6923
-10148
7616
2051
-10693
3679
-11068
-4528
11345
-4527
-4727
-5190
-908
-587
-9487
4042
-1582
-1801
-1049
5809
3161
-12312
3982
-6103
2259
6618
-293
-7054
5040
-2414
2982
3865
10962
7038
1352
-5159
-379
-4842
3570
-6598
3505
-1369
738
-9757
-3636
-2824
15383
2867
2768
-14721
6699
211
-4291
-7573
-10389
-1746
8432
7204
1723
-10374
1570
-8416
14334
5616
1487
-3178
14237
4477
-11503
6390
-8687
-343
-4186
-4739
-214
-5393
6503
-7896
11569
-9479
-11499
-3189
-4860
-3359
580
6866
-6763
3386
-9615
-5868
4094
-3401
-10385
1565
5849
-3375
-11238
4067
-8506
-5800
1662
-11333
-7135
8915
-3785
-1551
1120
9956
149
-3950
12501
7594
-8031
-6502
11885
-8765
-5072
-7888
-7607
482
4848
8570
-3555
672
1745
2664
3099
7282
-5251
3984
-4782
842
-4896
5273
-338
-1937
705
-8999
-3423
-11052
-14046
-11701
-272
-10305
-5054
1481
-15208
4848
-4089
-26955
-18764
-6105
-3313
-3553
1776
-11355
-8729
3154
12624
-1599
7739
-4765
-9270
8655
2551
-5753
-114
-3206
9720
-6640
5134
14507
8890
-3969
-761
11100
1434
908
3514
494
-4035
-2115
-2684
2233
7656
3756
5071
824
-14337
16507
-8202
-5504
-3502
2925
8646
10657
4433
3810
-9838
-7489
-12375
-9220
7814
8473
-7142
13766
-6911
-19021
8251
11335
213
-7370
-4560
12071
-1279
571
15942
5721
-8275
2054
6184
14336
-16281
-2590
-5917
1829
-6197
-11997
-11693
-569
-1725
-2041
5972
6035
7399
-12014
-1755
1258
168
-9961
5082
16050
14521
-4552
892
1331
-828
-15064
5113
19450
-1505
6065
4994
-12371
15773
5510
-7449
-432
15091
-81
-7377
4102
3655
-9310
2691
9606
2672
-3407
8414
-678
-4802
-4030
-1182
15583
4290
-1050
-3993
-9382
-2709
4931
-4873
-11253
-9508
2603
10035
10231
-4172
-554
3093
10410
-5683
11161
1951
-4467
13864
-5833
-1889
-2970
7681
6328
-5314
1852
4616
-15529
9757
2566
646
16767
-877
-7826
201
-8075
7771
-3514
4907
-3840
-3793
9245
5121
4078
-243
-3689
2146
-11630
1437
-4459
2563
-6280
7099
-12423
7892
8622
-785
186
-8397
11001
-11416
-5878
6796
-9613
-15401
7814
3150
105
-8920
-9557
-432
-10698
-1067
403
9957
12324
5804
-3972
3314
-955
8068
11291
8009
6152
2470
-5642
4741
-3193
-3820
4421
-6527
-5246
9603
4470
6366
-10646
-678
-11815
-113
11756
9707
6146
-15423
17589
-4106
6722
-12131
9032
-8269
3273
6102
7684
2726
13298
6859
-13912
-2756
-11287
182
-1708
-10047
-688
-1506
-4447
-15752
7678
11359
6125
-8513
8547
993
-1375
6920
5886
7461
10521
-4204
5503
10694
4202
22210
-15320
-10466
13578
-9388
-8074
22477
-10737
-10096
-3091
-679
17420
-763
4357
1270
19250
1289
15730
-1380
-3005
-1595
8381
-5705
-2756
4109
-2639
-9770
-5629
-7349
11011
-11384
931
16795
9041
377
-11595
17465
-1668
-6538
9666
5471
-17095
6751
783
-4121
-8307
1952
25891
10358
-25970
-6882
14859
8577
12576
-10568
2041
-7841
-10395
3049
-854
-2307
-4288
-4672
-10178
7999
5764
-6790
18499
-2073
-5339
-5784
-194
3941
-9550
-14094
-3325
-11631
15168
-1178
6876
-1920
-16312
-5102
-3141
-3105
-3096
-6245
-6741
-5364
-4467
9178
10296
496
-6553
-10153
6348
4999
4270
12584
-2646
876
-1469
-4943
13903
-7091
4782
-4231
8978
5283
-9793
1401
-5809
-5526
6606
3109
557
-8338
2524
-5033
4702
4390
150
2485
10435
2446
5236
3310
6063
8208
-3615
-2319
9300
3513
1449
17475
-6994
-4823
2983
13427
922
-19544
-13618
-3555
-2171
10445
3085
-8242
5032
3502
6667
3212
10879
-8559
-3058
7037
2836
-7910
-17611
16522
-11769
-3719
-8166
-11973
-14216
12560
6914
3866
7272
12357
-3208
-9563
-5630
-12578
-8383
-11338
916
4212
-5458
-1723
-9170
7198
12404
4620
-1775
-3766
12625
2572
-17382
1321
-7414
-2567
8003
-2010
-5560
-2641
3138
-12212
-9002
2043
5683
-7443
1530
-3323
5254
-1971
-3493
-3369
-3809
4291
-7526
-745
5284
2636
754
-2080
-9238
-959
2556
-11252
-295
1861
-1847
-1838
6785
-1538
1916
-3591
-2920
-2292
-2625
-575
1758
628
3999
3609
50
6064
616
1072
-3143
-2782
9299
-855
-11046
-306
2315
-1067
1326
5694
4621
924
-4109
3348
-3246
-1985
-3648
-82
6735
2463
-2084
2373
3187
-802
-2002
-7297
10085
-3024
-4731
-2163
-5176
-3684
-3063
-7601
-5732
-1799
-1404
-8253
5817
-4
-1875
1781
-4045
-4298
2084
-2015
-237
4437
-429
151
-4424
-4127
-1636
-804
-6990
-6818
-2672
-3797
-2022
-4070
-8042
1883
-3181
-2989
5606
2043
-2162
-7889
-13773
-3858
-1818
-540
2629
-2177
-6217
1829
724
-2941
-501
-3872
-127
-694
-6972
-1619
1038
-783
-2211
4809
-965
2989
-84
-1641
127
-1887
-3321
-4269
-7380
5468
4584
-12201
2263
-1998
-9202
3362
9662
-10637
7773
1246
13155
-676
-10178
5772
-6559
-3554
1983
15194
-6931
833
-3125
5362
2446
10762
20746
10189
-303
-5190
4203
2753
4226
-7315
-220
-3205
-1274
5347
-13211
861
-496
2271
-3531
3024
8105
545
11032
-20135
-2707
-2024
-782
-732
-1569
4315
-4077
-4056
-1972
-22290
12617
-14001
-10277
810
10563
-7866
1784
-1729
-5224
4307
4603
2989
-2541
-4897
1539
-2433
1314
-2790
14345
2989
-2576
3623
-10029
9926
6804
4413
5640
4191
1282
-13423
-9362
14793
-11701
-8404
-64
-5125
6900
11968
-982
294
-4883
3210
12514
-3326
-7850
4412
600
-3713
-932
-8169
4196
-8506
-480
12455
8126
-2983
-1856
-9480
-2463
-630
-4184
-5166
-5610
-9442
-2619
-17376
-6263
12191
14089
3276
3616
-5844
-6936
2980
-15870
-6620
2274
-12382
6602
-1136
-5778
347
-10067
1719
-829
3337
1878
-6880
-17526
3846
-1862
13119
-3691
-5496
896
1864
-3866
-515
3854
676
-11599
-4354
-6524
-1705
-16075
-1004
4455
4676
-1767
-11451
-1613
-7531
-13902
6919
-4787
1094
-7982
1897
-7192
5753
-4748
307
3922
2194
8571
-14729
3961
15575
4528
1435
6115
608
6668
-3927
1949
-208
7714
6727
4777
-11490
-2854
-14539
-7229
927
-644
-4882
5667
-2589
2919
6495
7037
3541
518
-232
7440
-1850
-6492
-6785
647
945
-7165
1667
-2889
-9155
-6376
6451
8376
-2227
10465
13167
-2478
6518
1124
1470
-8897
15287
8401
-3684
-6437
-28
-7991
-7335
-3994
-11194
-11113
-2876
10224
-1461
5868
-1412
-5349
-3700
-5158
9327
4300
2871
-13349
14332
-1779
-11239
-1075
4796
7645
4816
3521
-3126
3202
-7120
155
622
12482
3544
-2542
5292
13723
-2571
7952
4864
238
7590
15701
-1144
-2672
9585
7068
-3421
-8747
10516
7897
535
4455
17348
-3837
5606
-2221
4350
-6035
-3871
-2036
-3582
1846
-2190
-11023
7291
-2822
1449
-2589
1191
-2634
3043
-3756
-8116
-1853
14381
-3910
-2117
11680
5000
-5314
6410
-2387
-6780
-2007
-242
3030
-9303
4336
4094
-4414
-8271
2064
346
-11066
-4462
531
8640
13210
5818
3133
-2380
5077
-15036
2772
9190
3906
2405
7800
8151
3573
-11018
268
-3531
8226
3937
4696
-1393
7693
6945
3227
642
10347
-5291
-11830
-2591
10133
1
-1139
-5817
-8003
18885
8333
12090
14985
8396
-6867
2539
-6922
-12380
-2664
-4503
-6567
-2764
4470
1343
-1578
5160
13482
2366
6065
-7781
13214
8497
3622
-3182
-9026
-765
-1874
-2928
-6104
6712
5812
6380
-10898
-4148
-5724
-11063
-2145
7772
4750
10366
11055
-5051
4184
15877
6354
663
-10470
2610
6650
5984
7837
7338
2338
-7709
5096
17404
-7658
-11111
-17097
-4371
-1537
-4875
12830
353
-1461
-6672
-4441
4179
3989
-15393
14264
12144
-10322
3983
3472
7430
8447
-8936
13006
4575
-1978
4214
5110
394
11028
-5328
-7261
2567
8883
-12512
16743
-12517
14655
2100
1688
6968
11835
-3766
-1452
19122
-3466
-9313
18334
1241
-16889
17841
-201
-3049
-3243
4382
4227
5532
7251
-7319
-6893
5640
-7870
15679
10826
66
-852
615
5878
628
-4549
-348
2736
9659
9628
979
5718
4918
8411
2799
9757
11256
523
2908
3007
609
14371
2410
4227
-16666
19294
-3383
2814
-6261
-3022
2034
2825
3830
2078
1971
-2353
5549
-3
7978
-1626
9689
3803
8743
6164
297
-467
1614
-4955
-7440
13095
-2635
863
-3554
6390
51
3927
6412
-3720
-3635
-244
9329
-3974
-2826
4144
-5288
5511
4206
9965
2705
-356
-8363
3646
-3064
1426
-2486
-3570
7418
8986
-104
-10178
-2276
1433
-4078
988
-1024
-3042
-2390
9120
7502
2609
162
-3872
5100
2294
-12771
-2059
683
-4843
8510
-6049
5144
6536
-5572
2321
-1215
4276
-1536
-6095
13152
5289
-6770
957
5619
-3571
-4758
7360
2850
-14
5653
4484
-2213
4499
3716
-11996
801
-4146
3032
8407
5256
-1458
-4774
4028
-2154
-5143
2111
11393
15735
2698
4069
1204
-1985
-10640
-1167
-13062
9404
-3142
-10972
-4673
6181
-2147
6260
-9090
-10063
-6016
-863
-4298
4035
9319
11065
5863
5651
6482
-16157
9985
-854
503
22003
-6939
4550
-2751
-575
13887
-6637
-1466
8877
-12436
-6809
-5443
-7076
7751
7427
-1672
6262
8027
-511
2739
-4837
-1378
1521
-5895
3653
-1808
11412
3307
6168
-1558
-9029
-3573
4147
1346
-6839
7684
-9085
2403
-3283
2703
9810
7131
20487
-8317
14558
7310
-4705
-11424
-3600
6719
378
11685
-1133
5665
-7217
-8454
-1991
9107
-2545
3039
-3643
-4104
-10935
-4021
2698
1793
4188
10180
5128
-6337
-3090
10184
-5111
-39
10352
4390
6677
-763
-7613
-14133
-463
-4618
-9890
4385
-14818
-4001
3236
8513
6936
2714
9937
-11307
-3328
-1240
6505
818
909
-543
4941
-5703
-2906
12390
-18161
-4229
-14316
1548
-7337
-836
6786
7597
5385
-9215
-1598
3408
5404
-1228
5053
-13697
-8368
2904
-16520
-305
-15580
7113
-13258
7566
12499
-1740
-1888
-147
-5512
-2083
-7530
-695
13705
-2950
4501
10347
4637
1513
-11114
6618
-2179
-8903
-4820
-8250
-5683
14958
-16586
3969
-1176
4484
9271
1679
-6830
138
565
-12458
-7852
9704
15962
3214
-12033
660
10433
-13544
6513
-6010
-8008
-3099
11062
-7994
-192
7318
-1855
-13026
-9724
761
-1181
-3149
-8305
-4895
-3002
-4334
882
-5901
-9776
-3837
-7911
-52
5997
-1898
-7913
-2256
5001
8442
10372
-2740
3479
7133
5447
6324
1750
-8978
7069
-17398
2235
-8556
-2397
960
2775
-2581
-4542
-16195
3731
-6842
4199
-2472
11151
2720
-492
-20
-16731
503
-6544
4779
2063
3748
-887
-9610
3591
13674
4902
-3106
12345
6030
-1572
3434
6119
-4805
14283
2436
-2419
-2153
-846
9102
9785
12232
-4113
-13274
-631
-4802
-2856
-9441
-5588
4370
18089
7384
8364
2678
4095
9440
7074
5914
5338
-4058
-3592
9806
2354
-3568
643
-4950
4119
-231
10776
-5697
-10402
-4503
-9475
12492
-5445
1041
10750
-13030
3002
6934
-1096
4176
-3111
11988
-18548
-3782
3214
-2981
-955
-2728
3264
-2960
11251
1912
896
619
7221
-43
-11428
6406
3210
5590
-3474
-3064
-4370
7044
8132
-3331
-10015
2287
-3543
-12240
-402
-9572
4179
7596
-597
3016
9618
4949
-2874
2316
-406
1264
6136
4419
7878
1142
7925
7105
1127
-2187
-10240
-10936
3541
3650
1152
-2303
9116
-3897
-9198
261
-3233
8361
10193
-841
-3858
-5769
11602
-6804
-5460
6745
3175
-4879
12473
3588
-9545
-5995
-9554
-110
4373
3131
-6063
-697
4214
3230
3234
-3303
4748
8852
-7183
-9637
16334
-1907
-46
-3005
3410
-467
6200
-12825
-12857
-16807
5272
-9913
-15108
910
328
-4010
9376
-2443
7761
464
8600
-893
-10115
7375
4382
-12024
1218
-7924
19287
793
-5880
-9312
-9767
2386
-4317
-64
5893
-2093
1606
-12992
7598
-208
18871
-2171
5952
-4070
-8427
-5626
9174
5782
23786
-12960
2495
2260
-7664
-5314
11599
10313
-3907
-7929
-2133
-2453
248
-8595
4147
2183
-7645
9536
-19743
19843
15722
-6815
2342
-9074
-1979
11695
-5074
4378
711
-10433
-284
-3970
-2608
-1318
8023
-6333
4649
4691
9374
-250
7427
8147
22753
-1823
5946
-2699
-4825
1993
-1576
-3231
-4387
1359
-7619
-4197
6017
18126
-5856
11652
-24
5232
-4027
4275
-2540
-3953
8973
2492
8601
9666
-6030
170
32767
-2173
-4410
2342
-14175
-1152
-6941
443
20987
5441
1516
9897
8296
8553
10485
-3404
-13830
2740
9410
-3000
6911
-3265
-2825
4941
-2665
5369
-9146
-2712
-387
-5362
9033
-447
-8090
-602
3195
-9976
1169
10859
-1817
9385
4604
3642
-2250
3838
6544
-1018
-15958
3859
7330
-916
12952
-7335
-4182
8578
1720
1213
3690
4990
9809
15904
1491
6719
-16680
4226
-5578
3853
2449
-251
-4824
13045
10246
-1112
14197
-7229
-3420
1915
-8842
-1071
-949
6188
2204
-12484
21624
-4472
7868
-1367
1401
8656
360
-1022
-6308
-9526
-5276
85
2527
-14400
5605
806
-141
8193
1634
-6739
-6059
-158
1881
-15869
2346
3111
-2672
2159
2088
5177
8562
18714
3869
-2784
-8246
-2352
-15862
-11261
22446
-8437
829
-21834
-5982
-3581
-3500
-8835
6173
-7198
1564
-3996
-7788
-7904
14140
10044
13049
-4349
-2639
-2056
19000
11791
-2275
424
1715
995
-5521
9019
18874
-49
4988
5318
-2493
10604
-17296
-8804
-12811
-9853
-1465
8967
-7969
6743
-17477
-4118
4548
2976
-1853
-11023
-4881
-1128
8543
-14465
4517
4963
-28238
-7724
19018
-13768
2503
-8694
-20064
-3534
6757
-1258
11488
6904
-4131
-3204
5267
2218
6667
-22278
-8850
1055
23576
13430
-13308
7544
1446
-6409
-3934
18306
-3918
1081
-270
-11480
13841
10281
-513
10053
-4465
-10049
-10277
1068
6160
11836
876
14932
16819
-6129
5337
-445
-12817
8171
11106
956
11925
5351
4861
-4714
9380
-3621
10083
9599
3328
-3518
12399
-526
2618
3251
10051
9748
-776
-4609
15792
-8177
3152
-9938
-14949
-284
-11803
-1510
-1246
-11721
5371
4289
-5250
-3562
16507
4052
10295
19319
16479
-665
1505
9484
912
4721
-1396
-11305
10762
5851
4153
6005
-12463
3853
-6058
-7701
-1991
6918
-2042
514
8724
517
-7489
-2490
13603
13093
-1687
5375
19905
-3623
-11975
9769
-65
11210
-8253
1728
197
10481
2502
5110
8633
6270
-2813
-890
6131
-4400
5849
-8510
-9227
-5974
-5800
5917
-3737
15802
-913
-14185
10329
-13886
5757
3261
-3066
5680
-1353
3455
3488
4331
6373
3271
-8249
9034
-5153
13429
-6181
-1293
155
7638
6500
1321
3980
-9483
14203
17043
-2309
-4489
-6120
-307
1519
9133
-12432
9739
-13895
9056
-1539
-5472
4767
-3888
278
-10360
12088
-7303
2025
-2903
-8361
8337
-1794
1054
7637
-8478
11372
1913
-14834
-7340
-244
-10541
6403
8391
7175
-10936
-16135
5598
-7892
-5210
4167
-10939
1314
-3234
-18478
6415
-3586
20560
-3596
9398
601
4093
5988
6043
-3034
-16927
4293
-7491
3137
8147
10481
5601
-2610
-6156
2628
-3413
-1391
6410
2669
-15173
3497
1976
11603
-6701
1789
3000
509
4464
12127
5861
1258
-5382
-12006
6224
-8756
-884
73
4944
-237
-3625
16127
4453
-4267
854
-5833
13179
11907
-5811
-19524
11626
2845
7847
5084
-4753
1660
-9916
10012
3297
-5810
7316
5736
4133
-4445
9756
4122
5299
6936
-2423
-14041
-23155
8175
-2736
-964
-1440
-3707
7715
-4115
14526
2718
11321
5385
-1757
-613
-14959
3485
3790
6723
-9192
-2039
-938
7280
-9262
9109
11979
45
-6791
-14141
3305
1622
3175
-6358
-10875
5360
-5755
1684
2639
2825
-8094
7801
-19381
-3353
9076
2088
-1452
-4076
12419
8221
19317
1719
1055
-1650
13838
-977
2831
2948
-1843
11395
4245
190
2674
3050
-7432
-5371
5560
-52
6375
-1155
-922
172
-9106
9303
3131
2697
2855
6665
1348
6270
3455
5117
15299
9576
-5147
10372
-9449
7723
-4089
1652
-4981
-6989
10405
-8022
2645
1413
-3208
-2123
3749
-5946
-6907
3350
196
10979
-5766
2733
8000
1597
-4310
-1047
6650
2857
4253
4415
3699
6475
-3888
5091
5251
-1175
-2220
-930
-3149
-4316
-4517
-451
-766
-4270
7369
7974
6769
-10159
-5474
-4092
-6459
-1117
-608
-7354
233
3153
-5065
1888
2767
2843
-1656
-1982
11781
5884
2264
-2046
-3105
-3850
-2588
-3399
-2679
6646
-2993
-10632
-2815
5694
3078
-1859
1956
284
1432
-3699
-6841
3441
-616
3985
-2010
-3682
2181
8671
-2039
1030
-2849
-8380
-6275
2311
3175
-4201
-5837
3243
-1963
5153
-4988
-2562
3010
8653
3404
-9052
4239
-3730
19391
6614
659
-4041
-13487
-3732
-541
-1791
-1355
-12866
1297
6231
6442
-2473
11920
-3953
3558
4696
-7177
-8312
-6773
9261
-7984
-4412
2516
-3341
3635
-7410
11261
-6956
-15775
-8919
-5959
-8099
-3782
8230
4031
12454
2102
-5629
-2035
-6697
-10434
8030
-1043
1991
-5231
136
3623
16519
-5800
-5368
377
-10416
35
2324
5373
-5059
1704
-838
-2576
-7765
-5660
5093
4019
-5774
1953
-4263
8301
-7548
4916
-9534
10249
-8207
-13305
-421
10623
1739
1602
-9148
-3429
2215
4262
-5795
-6890
-14601
4296
-886
-5823
-7085
1368
3240
-4765
-5485
-1513
-4813
9460
-6954
238
2902
-10411
909
-6804
14715
-58
-4328
-7550
-12394
6807
-6491
229
-10009
8583
484
-7975
3004
5436
-3365
19646
8468
2560
-4777
4387
-7215
7005
-8268
-8535
-12690
9093
-5008
-8333
2710
-1891
4329
-2692
-8080
-14022
4738
5128
6185
10736
6259
9244
-11040
3608
1728
-3070
14274
-4062
-762
13167
-12963
-5799
3688
-8416
7379
3275
-2193
8645
-8032
-7984
5401
4296
-2129
5720
-6239
-11191
-7344
2721
-12361
7333
2949
-5064
13000
10436
-5913
16937
1585
-5713
-14283
10557
442
-5224
9647
-2573
-7628
2360
-4145
10350
7304
4244
-15398
-15405
3954
6301
-6273
6471
-17769
-428
3346
2283
-5530
42
-8695
9223
5060
-17135
173
4797
3309
-6168
3708
-4690
-2197
-682
-244
-252
-1527
187
30794
7922
2534
6072
2552
11617
1470
5042
1167
11906
-6862
3604
-138
-9099
-3167
-16410
-1406
8406
7578
10671
761
-1609
8117
-13468
4172
14005
-4679
2719
-1977
4974
14288
3891
1843
6660
-4293
785
14903
-11828
10196
7931
-102
3574
-4887
1041
-305
9660
6998
-11263
-10098
9275
-2402
14344
-6702
3821
5977
4213
20061
-13773
2754
-5634
-3871
-4312
4308
-941
5755
-5229
6325
915
6515
4147
-6113
-6312
10591
-17667
4114
-1757
-15957
5154
-452
-2394
-2502
-3438
-6359
1924
-8
8696
13789
133
-14892
6384
16328
424
11762
-12820
-14968
-6846
818
-3011
9851
3092
-5236
-414
871
8237
-4881
10180
-5092
-4681
-5571
-1355
1407
-441
-601
9457
6778
-3261
-1723
-18369
-3881
-6513
8760
-16376
-2149
-6069
-1368
3862
5955
5923
-11641
11538
-1401
5070
-6733
6508
15339
2112
-2101
8973
21036
-3887
1141
8739
17862
-11914
-4480
12167
-2635
-15957
-2666
-9156
-4170
19900
-4501
13286
14873
3822
-13833
86
-3855
-8650
-179
1001
537
-16346
9885
3990
5102
1604
-4104
-8524
2600
-854
7244
8207
-18529
-2592
172
-5932
-6228
-6588
-1434
3411
-3461
3562
-6848
-1207
14015
-18881
-744
-5984
5028
2326
-13725
-8494
-13228
2597
6728
8079
143
3806
6202
12173
7707
-696
8884
10332
-7857
17868
9563
5384
4094
-6397
1299
6254
5719
5637
10491
-4625
-8796
5604
9547
6849
87
-2496
-9754
1032
2391
-3116
13196
-3202
10856
11804
282
3727
18446
-4005
7942
1614
10443
-10643
21488
6593
2575
-840
-6
-5654
4656
-168
-11282
-573
-1311
-7143
-37
6146
-12641
-15547
-7761
-819
-1503
9372
-3154
8338
1116
-1613
-1936
2757
-2810
-2960
4063
18130
-21665
11239
3125
4904
3011
-1084
-15803
-6873
15760
8634
1468
-6468
1188
5249
-13564
-5017
-6186
-13504
15351
-3101
-4224
-3307
441
1909
-1150
-5872
8312
3734
3459
3716
1130
-1115
-599
12517
-10745
-5356
2845
12917
-9936
-5689
-9144
-3333
5214
-236
-276
3175
215
4519
-3904
2098
-634
9088
-2060
-6112
-11628
-5058
4746
862
-6251
1972
3162
-8832
6163
-1678
8019
3062
591
-3172
-4884
-103
12407
-5477
7298
6805
1651
2049
-6291
-1152
7263
-2271
-9266
6278
-1071
98
3044
6663
-702
-4599
-8494
3582
2674
3219
6164
-2719
-2867
-2965
-5627
197
-7118
-7094
-605
-4580
-6060
-1600
6548
-1155
-4029
-1896
2566
-1163
9481
1341
-753
2386
-9268
2794
716
-3560
3657
1021
-6697
-7033
566
6137
-973
-3117
-4040
-5737
6920
409
5930
11051
18955
202
-6933
-3374
-2563
18003
49
13438
5510
4896
353
-9088
1720
6477
-714
-4097
2308
-664
2401
9376
3477
765
2770
1519
7273
2899
-479
6339
4262
2040
2393
9673
-5823
-4993
-9853
12800
3014
-797
-4
-4169
-6428
-7168
7338
-2098
6992
-3451
-3357
10614
6927
4732
2871
1837
1354
-9322
-5387
-7499
5725
2153
10978
3362
4596
7216
11044
674
1299
966
3735
645
2364
-1922
-4821
6879
5029
10593
2699
-566
3531
5015
1677
9462
-4541
334
570
3010
-6101
8917
-5293
-6676
-7105
3992
3541
-1350
-5775
-5310
-1477
419
4247
1747
-5021
4292
-12
-7140
-1444
3918
2650
4780
10210
-3261
5252
-10575
-70
4639
-1418
4930
1905
-2051
633
297
2121
-1089
4416
659
-3821
11542
-4314
-8445
3017
4949
-2868
607
5724
7393
4670
1182
-4743
4939
-2464
9387
-8088
-15771
687
1018
154
-2267
-1112
-15024
-6405
8533
-1896
3807
-13643
6961
4340
-6630
-824
5842
-7435
631
-2939
4541
-2449
618
2399
6326
-2625
262
-3533
-4708
-6521
-2720
1369
-985
-3503
-2646
3532
5799
-5064
-998
12183
16657
-1827
-787
-841
392
333
-2756
-10630
1347
1233
-3939
-1084
-981
560
-1207
6304
-2268
-8400
2678
2928
-11489
2640
-2020
3616
536
1752
16566
5907
537
-13726
-12844
-2440
4504
-15422
3574
-9991
-2746
518
-9355
3661
177
1770
-6135
-27
-7994
-266
-362
4864
8426
-9124
-6205
3259
-8162
1462
9242
7467
-4498
-1258
-5832
-663
-7077
10297
20202
-8694
4032
10313
2110
6482
975
-389
-2758
499
-7048
8519
-12017
943
1759
4882
-4235
-3294
4587
7948
3053
2914
-6386
-8220
13557
-368
-3009
9099
18239
13529
-4139
2510
-7681
2442
-2386
2231
-5442
-1040
-3091
13419
1182
-6268
-11146
-9381
-10965
6268
6129
-13339
-3257
-15716
-1069
6510
1641
-18783
14965
-6693
8850
7097
6752
-4562
14
-17567
-5503
10166
8361
-7580
6507
-6787
-6545
3232
5891
4603
9439
-5954
-5142
-7155
-1769
-732
13465
1765
-1895
6304
14131
-9517
-11632
2726
-3824
-6060
-7624
2776
-3251
2529
774
-12486
2730
6882
-3842
-4926
8476
1532
-3247
4333
-2568
9303
-11676
1726
-18684
6335
-1286
7648
-21604
5241
78
689
-1171
5379
15821
4918
3046
-7105
-16760
7098
-6214
-9257
5730
-11350
1005
-8695
5328
480
16473
-816
10326
-2162
-2602
4218
922
-671
13651
-5991
-3551
-5341
4423
-9122
-3274
-7988
10996
9362
-4005
-4864
86
-4979
520
11700
3281
11027
-855
5680
1123
8622
-511
650
-6105
-2520
2000
-206
-14787
-3367
1748
2775
-1421
5394
-2835
-3865
-3776
5238
10114
7921
6802
6767
6803
-10092
4173
-498
445
-1584
-10657
-2028
-6056
-3961
-1304
1549
-2057
361
5390
2151
7226
5931
744
-5843
2864
-4773
9703
2556
4035
-4824
8161
-2089
2761
-3647
3447
6406
9219
10528
7013
-5642
832
-5427
-3705
-1475
3032
-3451
1792
-4840
937
-170
1584
6043
4693
4378
10043
1607
3788
3578
-1386
-5927
-4012
2901
-2374
-9884
11157
-2336
-295
-2847
13093
-5765
1891
8776
7819
-10781
4197
3021
-5778
12270
8539
-1858
8272
-2052
-4392
3675
5583
-11422
-5147
2999
-3152
-3486
-13177
6467
5295
-6720
-9499
-2143
12733
12528
-4297
2224
-6346
1020
-4501
-9640
324
879
12604
2408
5570
-1389
-2745
-12379
-3949
4675
-1683
936
2396
-5372
6832
4124
8879
3030
-1819
120
-9534
3170
2545
-271
1785
3876
-5916
-5472
-4493
1031
-6226
-9895
240
-201
-6996
-3570
8186
-3740
9322
-273
3437
-3376
-6033
-6286
3677
-5172
-933
-10833
-9136
-9124
-5414
5555
5211
1411
-267
8063
-6447
-727
-4071
104
-1688
4127
6077
2129
-5252
-10789
-1152
17253
-912
3665
-757
1263
-10625
-52
-5277
-4779
6046
-3753
1201
-11168
2506
8003
4604
-2007
7810
6285
-1095
-2869
2048
616
-2061
2650
-4300
-4988
-3505
-7274
3170
-967
-3989
-969
4282
-3063
2892
-6440
-3402
2879
1799
-10102
-7142
10207
4907
-36
-1114
-2524
5066
5419
6642
-4266
958
-109
-593
2618
-4341
-636
-9365
1134
5112
2954
4869
2538
-1890
8984
4758
-602
-3999
-2329
5355
727
-3394
3219
55
10093
2859
2292
2304
4438
-716
-7717
-2582
3587
-4980
-1592
622
3757
106
6768
1595
-1846
-7016
10048
-689
-1134
-3219
-3662
-31
-1038
-2706
-5275
2071
-2458
2759
-5700
-3043
3545
520
5813
5990
-8494
9150
-2360
8882
1273
-492
5291
4191
-8087
-2373
-78
-1328
5022
4032
379
-3649
-200
-6883
-210
12919
-4416
-5387
-7973
654
-1362
-1241
3360
-687
2722
-2818
3192
-2292
4248
2922
4943
2497
4627
-3742
5513
1073
395
-900
-3765
-3749
-6106
2901
4428
676
1447
4188
3946
-4265
7839
6832
2711
1454
-4228
5396
10955
7411
-326
-604
-1744
136
-6196
1067
-7003
-3627
-6556
2253
2742
-1579
3749
3068
1219
-1152
5336
4340
-8281
7132
5036
3635
99
9315
5090
2784
-6434
-7589
-786
-7302
-14066
-1404
-3109
-3322
-1977
-1025
-12220
-6225
-3716
9991
6861
2092
2978
-3245
712
3479
-1804
-4224
-9776
-3338
-11913
-6481
-14558
-11331
-15535
1827
6057
10549
11208
2442
5799
-1160
-5248
-11930
-14882
4618
240
6988
-5392
-2209
435
19944
6875
4505
-9579
-4421
-6934
10829
3854
4333
11017
7222
7360
-1442
-789
-1407
-4758
7083
8038
-6618
1551
6105
-12772
209
-3612
-5764
1320
6692
-1472
-10384
-3691
10359
5618
7723
-4433
2308
702
7151
6613
20744
-557
10198
5431
-19848
-560
-9318
-2480
7017
-756
-8170
9784
-3879
6146
-35
11243
6957
6270
-1861
-3437
-1590
4530
-2404
2587
1202
-7991
-10564
-1614
5166
-8348
-15554
3313
5606
-3718
-770
-3702
10671
-9703
2649
-2785
4145
-4653
-9239
3730
-2067
2650
-1679
2531
4223
2164
3482
146
1290
9923
1198
-7159
-4360
2231
5892
-10069
-1417
-2783
3521
-3253
-2291
3770
4727
-2551
-15125
-1855
10316
-990
1649
-2254
3542
1878
-6909
5088
8172
5837
3190
-5902
-730
4668
664
-9190
4284
-5112
-9303
-8523
4955
-6703
499
-10106
-7428
3611
3590
-425
-2087
-11644
-3720
-2707
1514
-1213
-8382
-6463
-449
-7285
-932
7359
-3588
-3842
4306
2568
992
3385
-70
848
8102
3712
-11287
-419
-10706
-8008
-7470
-7444
393
-2066
-3078
8306
5416
3506
-281
-6526
-7708
-10729
1942
2851
2307
-6833
-7684
-11677
892
-286
175
9103
1431
-134
-2128
8158
-6835
-1269
2259
3055
-9151
-3722
4975
-5784
-9196
-6688
5856
397
-5999
-1465
13413
3455
8306
37
10334
522
737
2236
-155
2530
-1165
-658
-4110
6938
-2203
2718
-5499
3960
4416
1239
3325
824
2950
11677
-5008
-2333
3682
2424
8591
4015
709
9840
-1323
-2460
3354
-8692
4286
-5319
-1691
-306
-11514
-563
-2177
-1903
-1533
-4267
1523
-2794
388
-2628
-2182
-1737
11267
-1182
-872
-1767
1524
11368
5377
6444
-994
7643
-2065
-2197
-4788
4498
5126
-2803
-1652
-1488
-8767
-6581
2963
-4992
-2192
1348
2488
-6906
-1253
6406
6303
5547
-9412
-218
2456
3272
3920
118
-904
12792
-3659
1954
-16032
2455
919
4364
-3643
5371
-241
237
-2488
4580
4935
-4027
-1622
12439
-3939
8047
-2924
6094
10743
3905
-1576
-142
4839
3130
-2051
2846
-2797
1706
-2655
-1596
-1505
-3771
3932
1144
571
591
3369
1551
11100
-1629
-1722
-1848
-2284
14659
813
7434
-3634
-620
-3231
5075
-3850
-2206
6764
5167
-4158
3069
7073
6646
-19388
-156
-7194
5280
-11273
-858
4664
7056
2684
-7754
-6204
-7192
-8631
4261
4932
3246
-2497
-5504
-6276
565
19644
4311
-4375
-8836
3496
10562
11521
7720
-1547
6591
5252
-6021
8647
-3801
17569
5113
-2629
-6134
-6404
4
1145
4002
20072
424
-3964
6618
-8418
3746
-4847
-12647
-3313
-1573
154
-2040
15268
8779
13617
-6575
9216
6815
-5516
-3082
-4219
1791
601
5861
-464
5802
-1725
-460
5281
-3415
921
4795
6265
-7917
-5685
-5303
4299
2533
1160
-15749
11983
8487
1926
11360
-2039
7760
960
-12058
-7860
2414
-402
-1507
-2371
-8533
21
21100
2040
-14341
-801
-6618
1105
10028
-3900
11892
-735
-1900
4734
6573
6262
-979
15428
5638
-1006
-6512
-4292
14866
10683
-1306
8607
-7499
2116
10624
-1972
12466
7554
-7848
-1071
5899
4371
-4592
-12203
-2842
422
-3317
-2001
-15251
-3707
-5398
-870
1623
-5068
-6721
-999
-7959
1832
-7632
2000
-5748
1864
-2857
1355
-7274
-11738
-7355
-5898
3655
9274
-367
-3817
-7017
9334
-4586
-7776
-523
-2021
-10831
-8070
-8792
-1740
8034
-2839
10455
-537
3861
14820
9282
-2040
10058
10297
-2516
1890
-2256
11463
-4411
5777
6301
15391
8628
-4199
10783
-8916
-2794
-17866
-2556
-993
475
-4600
2951
-13234
-4324
-4697
-7359
14816
1926
239
3397
-1356
-6324
-3374
-5538
-1832
8696
-7393
5758
19357
6973
1390
8988
5567
5082
-6914
-6563
4050
-7810
-4635
4445
2242
-3423
6015
5480
-3437
1909
751
8625
4205
-14377
12742
12708
6425
15244
-1636
-3304
-2356
8311
10513
274
-6614
5210
1896
-1958
1200
-42
5958
2303
-6384
8549
-10039
-4989
-11341
-2829
-1295
10961
2564
-1342
-5222
9561
-2602
720
2865
-3564
1993
4770
-18459
-17177
6707
-397
12152
-368
-4199
-4542
922
12971
-4556
-1116
-1042
-3027
7560
-2866
-825
15551
-881
2315
18074
-2872
-2762
-9839
12118
4477
-3377
-3460
9750
-10985
1464
-2955
162
-9194
5278
4053
-3140
-3064
-2848
8817
7443
12229
5921
-8063
3827
-165
-2526
246
-18508
-6989
-5106
5557
7879
-2271
-8863
3859
5056
6354
777
152
-9233
-277
8074
2334
-8488
3338
4412
-5792
9361
1390
-10433
1200
10036
10555
-1402
4684
-3143
3382
6839
-7664
3622
-1932
4611
1537
-1702
6579
10821
-5703
-714
-510
6819
636
-6798
-7970
10084
-9155
3940
11209
5551
4316
5270
-1585
3834
-1598
6079
10036
-6302
12008
2063
-10735
9822
-2593
5076
14916
-9797
461
254
11745
-737
-3482
12969
3796
11197
-4617
1072
14771
5051
-985
-6648
2956
8054
2308
18949
-1190
-1879
-1288
13851
1509
-11636
-3286
5392
2912
5510
-10882
11111
14032
722
1019
6753
-4764
357
-100
1934
-369
3606
-2318
-2481
-56
-7167
-5247
7878
12917
1425
4276
788
-4707
-881
-6691
-14084
-2621
-702
9826
192
-3492
-1100
1128
1900
1642
7606
9662
8343
437
-11150
5656
9714
1898
-5292
-15225
-1406
-46
-1409
2450
-8460
-993
-1759
-1430
-3849
-217
4935
-3049
7582
-1797
8061
-3183
-5419
3629
-4964
-4065
485
-527
-1847
62
-7903
3040
4943
5600
-8001
14959
-7993
1312
9186
742
1755
-947
8078
-8222
-14000
-4570
17443
-16968
-7378
-1165
12328
-7278
212
-4911
-5347
1613
-8499
-890
-943
2988
3038
2269
8286
-3963
808
12786
3919
8672
-7532
-9204
-11181
-3238
-136
2442
10018
-4021
-4166
215
-6933
-10573
-1481
3272
4995
14438
-7511
-5854
247
6238
3282
6837
-1360
-5621
658
768
-2855
3698
3642
8498
-3195
-1193
-6700
7063
-10339
-5798
1655
-6912
-407
-5117
-3382
-9248
4524
8034
5293
3496
-12648
3891
-5078
-5599
-8263
5500
-7551
-2520
11391
1210
-11581
-2791
-1670
6793
6677
-4617
4225
-7224
-4495
2848
-9211
-5838
5912
-3474
-7543
479
-124
-4647
449
-7749
1269
-11896
1847
1954
-4623
-10319
4480
368
-1265
-12817
-6232
-7525
-8244
-11629
3299
1175
-2747
-6044
-6627
-10336
7606
-3008
930
6036
-16630
5945
1346
6830
2627
-1481
-7939
-2594
-5345
16247
5665
-5850
7468
-7290
-10699
110
1847
11207
6990
-7655
-984
3617
-7038
2499
6873
13761
-1609
-3895
-14
-10554
299
-11562
-5494
14257
-449
4790
-9220
-2582
-5358
-2214
6921
-16569
8206
-4942
12726
-9138
-8975
11265
-8747
24
11894
-8043
-12379
4081
8672
-5310
5208
-3887
4031
5054
2603
7369
-2011
2201
-6554
5326
-5396
-14396
-13745
-14790
819
11719
-8861
15955
12140
6415
7614
1153
-3812
10470
7394
-9593
-8959
-10658
1049
12269
156
-1893
5007
-6299
-14550
17865
-469
9566
-4270
-1415
-1402
-1136
-1021
5913
4280
2268
-208
3240
12310
-9737
1872
-178
-2699
-3263
-5470
5036
-10374
-21142
3114
-16379
5029
-8842
-11822
-16526
-948
1352
8914
-10016
-796
2833
6286
466
3571
2722
2513
1965
-7009
3096
7876
5421
1732
8035
8266
-4922
8839
-6032
6031
-348
-413
14751
-2035
-9042
4270
-6554
-547
-6943
-1382
-2819
8995
-2614
-9014
-1645
4896
7626
6980
-394
-2129
2035
2586
-1100
5954
-497
-1264
-9379
3381
-4364
462
-1778
5986
1184
-1783
3448
8484
-6013
6298
-3954
-8059
2092
1759
1660
-986
-8015
-8902
-2812
4786
3118
4584
4979
-4552
8851
-5267
-5380
2275
12012
-179
6706
8065
2950
5452
126
1537
-349
2108
-2848
9698
512
3663
5402
-6613
379
6288
6722
-6553
-1623
13485
8933
-9354
1751
6440
4326
3336
-5811
2505
8827
7091
-4461
3383
2165
9975
3920
9741
488
10560
5000
2303
-4107
3929
7207
1774
-1037
-4929
-7098
10143
4507
1915
-23205
-1754
-810
6797
-8005
7109
14771
20919
1727
-12286
-14182
2797
7979
-3168
14170
-21748
7660
21812
-12289
8552
-3875
-9348
-437
16760
-8700
13073
4094
-10681
-1873
7365
1273
5745
-331
1161
608
695
6939
16306
162
8331
17931
-4869
-1080
4548
1978
10376
-10396
3596
-6147
-10941
3354
17620
-29063
7968
1719
3074
8532
23488
-16096
-17726
9498
-2335
339
684
-14347
-7773
-21022
8532
-10791
-8242
16092
-9522
1812
-6171
3640
8198
4924
-1147
9189
-10590
5252
-5906
2462
-1378
-4015
491
12620
7646
1361
1899
6219
-15237
-6319
-2535
-8381
2956
9637
2999
-6578
-11563
2131
-2526
-3371
-7437
6738
-7124
2650
14701
23218
486
1816
-1569
3622
11030
-7324
-13229
-1423
-8052
15834
8742
2468
9466
-12288
5140
-7457
197
6132
-4506
8614
-644
4841
14276
-1166
-39
-2224
1284
5037
515
-1121
7451
-4831
2066
-845
11307
6611
-3769
14520
4581
1735
-4243
-1877
-2533
5462
3377
-14831
3682
4383
-12872
-2155
5837
2095
-5786
-1507
903
441
-1932
-20841
-2313
11178
8786
1589
-4353
9686
-8462
-9742
-10282
1308
-7228
4383
-3514
-1587
2694
-1272
-4356
3561
1205
-14210
-8318
-7808
-603
-4025
-10656
1717
1344
-1343
3147
949
-603
-6390
5729
-6473
4526
-1005
13234
-11880
9677
-2261
-3567
-945
-24
5391
2203
-4216
14176
5841
-4216
-3006
-4237
4091
2102
5540
3605
150
11214
5155
-566
-1814
-11387
5882
2121
-8525
4646
-7361
-13557
-4512
-5480
8871
-683
-3322
5956
747
-2193
2219
-9710
-11731
12432
5295
-288
2252
-3429
-1665
7709
856
16862
-1494
-47
19694
1384
-7336
-3280
108
4177
-2449
10194
-5801
9341
-7416
4401
-14322
2761
-6422
-726
-2963
1575
3358
1514
2907
2926
-4516
-2145
7370
-539
-3330
9057
4479
-12710
-7630
3514
7104
-8922
9787
-1770
11961
-11396
-8181
2229
-2296
-4485
1440
3494
-4833
344
6025
3754
3750
-3427
-3516
-2859
-5424
774
-4214
-4404
6679
-6270
9419
-3594
-16100
7593
-11581
-1282
6915
3620
-367
325
2124
6329
7219
-5665
6613
18651
-10078
-1774
-8545
2764
-12491
977
9892
-996
4128
9001
-5174
-3285
-7824
7058
10875
8926
3548
-1484
-7258
-2107
351
-10909
-10
3548
10096
654
1134
2551
-7372
-2657
-227
8541
11196
-12908
762
15910
1823
-1677
-6315
3603
264
-8147
920
-8872
8602
-2184
11504
-3821
4498
-3349
19389
-408
4777
1359
64
5023
7665
-10212
2977
9309
-1671
-1754
-14854
-4190
-5256
582
2036
-5230
11524
13007
-2361
-3631
-4229
-4503
11353
-923
6412
2744
-4219
15453
-1159
6137
4290
2185
6006
2935
-3919
878
-2150
-4406
-2809
-10717
2909
-6087
-3280
-6384
-9597
-6783
-1429
2675
-3491
-3146
-12373
2898
6186
-4860
24
-8158
-1793
-1751
29
-6040
7660
-2501
4557
-5456
-4141
-7298
3221
-9275
-4211
11203
5174
922
6191
-1602
2852
2566
-5869
-8242
4334
2657
-4881
-11426
-6652
11984
-3791
680
5456
-2449
-12632
951
-6630
-10636
2601
-7496
7601
4351
-8144
-8506
5615
-2784
-982
-4971
-2758
1124
-2384
-3486
-2417
10476
8553
-3777
-12287
-8098
-6605
-6591
-3312
4223
-5032
-3364
11825
-8563
62
-1084
-5529
7259
-195
7758
7402
12165
1395
4992
1866
5045
-3503
9030
-10553
-5725
-3955
-4424
-20292
10314
-16918
-9953
1189
16623
169
-5194
-11210
11411
-4025
-2635
-17411
-2051
7939
-545
6039
-7334
3710
4598
-4420
12822
-3326
-1281
11277
-1436
5276
-22108
4814
4354
-9439
-12773
11038
5132
3785
-9037
-4549
7786
-8763
16427
-2028
-5078
-4657
-651
12063
11986
3157
14213
2481
7109
-6856
-4112
18344
10036
11134
-12259
3213
4565
-10976
14141
5992
3397
22528
11833
1529
18746
2996
-2484
-3446
6876
4236
2442
14384
-6068
12283
5281
-5241
-5295
1322
4742
-102
-2161
-18009
1737
13701
-7115
-140
-2696
13952
12385
-4102
6848
9613
2862
14859
10783
3189
-4999
8791
13524
-16470
-24489
-9221
5064
1534
11085
7958
3927
12277
-6981
-22832
12710
20418
8863
-180
19072
-5957
10221
3962
2066
4847
4913
810
-2877
21903
6759
-5438
-8233
-6319
-8850
4177
2155
-5791
-7981
-2468
-4341
-262
44
2613
10937
4387
-4891
15865
8999
4196
4573
3963
-3101
-505
1945
4943
11017
4168
-1875
6870
-7425
-2814
4442
8712
-3772
-1082
-3721
-2626
6948
-4763
-5595
1108
5226
4391
-46
2811
5728
-3534
-194
5941
-1701
2279
7231
5539
5325
-5390
7638
15047
502
4775
-372
-10823
2864
-1328
4824
3181
-5067
7082
-4951
-4897
3035
14707
3
-1149
-4613
-1705
-4454
4659
-1971
3282
2425
6230
-558
3274
3934
17451
12650
4544
-4150
-9972
947
-1511
4128
7107
1693
658
-1523
-1490
3042
-6686
11578
2091
-5682
2747
-1435
1692
-2813
3411
5231
9623
8302
2580
-7307
-2109
-71
-10989
7656
-4275
4352
-5771
1906
-2875
1958
-134
3533
2621
-6670
3194
2134
-5275
-1371
753
5613
8451
4471
8933
7863
-7271
9429
-4757
-12026
2563
-6892
1493
6958
9871
-8740
-11924
-512
6561
-7775
-6125
3063
2363
14921
-27714
3260
-2550
13692
12379
14788
4820
-4277
-6874
-5786
3344
632
1669
-2967
12126
1748
-2390
2223
-7980
6561
7273
-9007
-6073
-4989
7199
3743
-7492
11683
-9154
3562
-914
-998
7740
6024
2859
5743
266
7114
901
15245
3223
1322
-11194
-2201
-7834
250
-10403
7356
-12842
635
-471
-5874
-12550
17672
5919
2445
5736
-10591
-9465
-567
-2234
10644
7351
8827
-4258
13042
-6449
6240
-2373
6595
5182
-16213
18423
-1128
-512
-4596
1555
5828
1968
9449
6440
8993
-9992
-3037
8214
-1370
7455
13
-1433
1207
7715
2900
10074
6559
-835
299
-4238
-13156
-935
-9519
-3284
8271
7717
4983
965
4965
-6775
-2795
-7857
4560
-2081
-8725
2935
-1832
1617
-2627
1382
-6267
-2665
2679
7619
4925
-3698
-13121
-423
5849
-8195
6101
1550
1267
-2845
-8354
2919
3228
709
-1223
4172
-344
-2189
-5731
-4137
-13829
9845
-6308
9569
5899
-2782
277
-10874
305
1962
-9961
-6
-9600
3655
3982
-6937
1886
1580
-6293
334
-3358
4042
-264
1407
654
734
-9036
6392
-2311
-6122
4097
3107
-5041
-7365
7664
3983
4736
4378
1974
-4584
-9737
1642
4276
-3246
-5952
-2832
-5780
2384
10683
-2971
-1535
-2865
-1455
-9158
-757
-11865
-6409
2826
-1350
7627
2354
-136
-2331
-2198
2224
2701
36
4731
-372
-6785
62
-684
-4800
3718
-12366
-5798
5460
1423
-1826
-2222
6442
-3457
9632
-8089
32
8625
-1307
2747
3264
6742
-3130
12984
-15482
-4148
32
4126
-7342
3927
-3247
-2673
2421
-7273
-7465
-900
-14574
2768
-2831
6395
-8617
2401
-1444
9730
3754
753
302
4286
-6490
9016
-7264
-8230
5540
6338
-9540
-9010
1326
-3870
6685
679
-12501
-9159
-44
-6052
-3497
-15433
-3109
2504
3812
7061
-2087
-2629
2244
2453
4103
8853
-2196
4242
714
-6501
9355
-246
5139
-8009
11205
388
-10849
432
-14153
3912
13045
-6154
12091
-4237
2278
9631
10684
2663
6592
-1550
-13385
4791
1473
4052
8132
2978
2
2964
-14917
2527
13942
8115
-3889
-8984
-1090
-1797
11110
-11944
-7481
3388
6013
-6766
3968
9370
-2888
-5854
-1146
-1117
8866
-58
-3722
-4265
-13587
517
7985
767
-44
4538
-2091
-2065
14412
572
-1930
-9399
497
-8141
-250
-2360
2010
3680
11134
4105
-1332
-3047
513
5590
-2229
-1287
-9231
9093
-7220
-11007
-6212
-9267
-3497
2328
-1826
-3323
-633
-3919
704
-1307
15954
-3069
2156
13804
-9560
-3645
-709
4458
3245
-4335
-2278
-12928
-1878
9415
4070
-9330
415
-763
-2488
8635
-1209
1181
-7283
-1866
511
-5640
-1639
-5059
-2373
-1959
-10625
4227
4690
6950
6515
-15577
-554
-2164
-6875
-1365
-539
-3845
-4705
2922
592
-1064
-2385
6251
3166
-1969
1156
-2114
-2371
5422
688
-5287
2062
9948
306
1047
-567
4941
-7616
-11838
6986
-3325
6121
-68
3060
-7953
-4124
296
-10961
-1336
5087
-2681
3809
-7138
-2990
-861
4937
-6231
7807
385
998
3365
6344
-4836
-3890
3432
-13708
-1851
2070
-1710
139
2801
4128
15998
-1522
-3652
2174
4541
538
2060
9538
-1628
6275
9128
-2077
7206
12156
4252
2951
5033
1979
2894
-3683
4753
3596
-6053
-8919
6134
-2498
11455
-10436
1867
5092
1935
-7521
555
-5852
5968
-1868
-5647
862
-4400
-8109
1568
-17722
9586
6442
7148
15355
-1303
2501
-549
-1151
-947
-2444
-5213
5077
-172
3837
-4682
4306
-2584
1716
3630
-12242
9408
-16646
-2123
-89
5324
4933
-2682
6634
-4670
2642
-5646
6774
4070
-932
2816
774
9631
4122
16398
-10825
10219
7519
-2604
-7325
7052
555
3489
-5483
-4769
-4204
8566
9476
-2495
2049
160
4564
4329
-281
8888
8085
-2492
-5998
-4881
549
6310
4058
1326
-4146
5477
5448
2755
-455
1850
-2769
13450
-4764
-3183
-90
1094
-792
-7724
-1399
1480
7927
-1240
4262
-6122
9915
-11175
-10470
4906
-1567
-4499
506
-1640
-7581
12189
13730
3285
-11471
9539
-9937
6990
-887
11797
9428
2270
-9154
14376
3791
-10925
26216
3476
-479
11720
2903
7474
-7861
-10419
762
-5088
11886
-15075
-326
-1055
3603
4501
-16664
1314
12415
9269
-5791
-6197
-2582
9389
2836
5430
-3772
-14082
8439
5361
-14731
-6806
7886
-4114
10255
-2110
16992
317
-7253
7589
2341
10479
2092
8923
2992
11808
4388
5408
-18282
3941
2955
11944
-2605
-7158
-15710
13544
496
-8224
-1648
-21732
-13698
7006
-10505
13789
-3706
-4531
-3588
9072
-8287
-4958
-7081
-1532
-7156
-11186
-4370
-13437
111
-1345
5758
-9193
6832
-14880
-3806
2559
-12868
4101
4368
-6279
-3964
-9791
11216
9243
-8248
1809
-6751
11966
-12495
-16771
6411
-16053
17107
6772
-6057
818
-8701
7305
2767
-7188
-3604
-5573
8930
-895
4443
-730
-6391
-3097
-3644
2109
8620
-398
-3014
2631
-5561
-10143
623
-3634
5455
-2896
-17512
1559
-885
12788
-443
3653
4222
5160
-2919
10859
6922
-799
2157
-22635
-6332
11028
5965
3368
3477
-592
1853
-6239
15166
2571
-95
-8189
6709
-5209
8324
18921
1945
855
2196
-2624
1564
-5203
1646
-4687
-2043
865
-9400
1396
-7797
-99
-6988
10041
-3509
-5779
-11027
7095
7810
-6675
-1608
-1583
4745
-13464
5149
6179
-228
1635
7344
-5764
-664
-4611
-6200
15843
7132
-6438
3705
-16258
2735
-839
4733
3552
12227
8957
3557
-602
2033
-7969
2201
3511
-4070
-13987
-571
6302
4475
3268
-9474
12160
-469
-10644
-917
3435
343
-419
-716
3209
11871
10425
295
509
-4873
646
-2599
8369
10101
4872
-6215
3527
162
2737
-2669
549
7113
3138
-10314
3630
-3979
-6822
8068
376
-702
606
-1267
-4878
-1698
8616
5993
-2220
-6194
-1772
1763
7817
8024
3047
7026
-6677
586
-5068
-868
-2291
-9733
-6133
437
4157
4958
944
9350
-10
-8036
694
1865
-4434
2686
2415
12901
-1876
11094
4585
-6845
-5127
-2276
-2800
1421
2986
1960
1936
10251
-383
7502
13916
10143
-6665
9106
-17402
-5224
-5902
10861
3895
2438
-8379
11550
3055
578
-7426
151
662
3705
-1176
-2868
6691
-13304
19032
7179
6116
2404
-7065
-6405
4694
252
-650
6102
632
-6835
101
-6246
-12625
-1598
92
-4980
-1359
-1268
-7537
782
4070
-2487
5192
-6864
-469
632
-7507
-3460
-3724
-2912
2604
4555
-8955
2171
13784
3209
9026
5409
-8466
-70
7725
-6072
-5308
-6029
824
499
-6307
4406
7087
-4809
2815
7194
-355
18218
625
-419
1099
-1616
2010
11276
3198
10397
-7434
2875
4438
10093
10283
-1913
-2183
-3957
8997
7616
-159
9133
-8792
7409
2942
-2354
12310
-2937
-559
-647
2243
-3251
-10297
8739
-4925
8732
10144
-5951
-1871
1794
-515
10474
-4929
-3962
8884
-8925
-9076
662
-12233
-9367
919
-16301
3851
-7034
8394
7180
-9195
-3938
760
-4178
1010
6177
2180
6747
-4852
-9197
-327
9117
-16426
-8770
-5201
-11058
611
3958
2283
-3707
-3430
-10582
-1500
4005
8521
-7866
-6209
-2133
-1504
4748
-4361
528
-12384
-12026
4393
-10410
4632
9047
6701
-7191
13242
-1089
-10301
-452
-14155
11217
7136
-2284
-9150
1918
-9406
-3638
340
12218
-9047
-3018
15543
-3925
-2710
1624
351
-14280
-5100
-1741
4311
285
-10160
25
-3412
-2823
-9450
2192
-243
-2068
7682
389
-1996
5699
-1848
2107
10501
-12150
-2165
1811
152
2945
8671
-1288
124
11209
-9594
9274
-7603
-2456
-4653
-2268
1271
9202
684
1616
8326
3028
-3274
-369
4983
-6515
-7406
14270
5280
-13664
-2278
3518
-4432
7948
2447
-8203
1084
-1259
1694
-1702
1242
-4252
6093
-7687
-8770
-2933
3585
-4567
-3180
-124
-2208
-712
-6710
-1856
-1456
-945
4237
-7229
6329
7836
-24
-7983
2590
2765
-420
-3003
3299
-4084
-220
-2675
7927
-10586
234
5470
-2582
1405
-481
1365
-3869
-2107
953
763
-4372
-2308
2371
-1342
990
1336
1576
-4558
-7551
-5542
-7009
-1772
-14460
-1011
3656
2311
8552
1027
-6544
-179
1336
2396
10097
-4441
-6586
5055
-2460
329
-1778
-3869
11788
2497
5915
799
1892
-1517
6303
15772
4063
-5579
-10710
10260
2564
5951
13491
-769
-4810
101
-4417
544
-2525
-18176
-17648
14028
-11671
538
-8636
5274
1434
4254
6367
1353
-3172
-3059
8285
-15525
13615
7506
-5624
-8019
14215
-479
18672
1389
-4780
10863
4614
-1590
-1487
-12096
665
4163
-3818
2653
-4636
-2596
-426
-411
-4544
-27104
-11055
11578
8088
-6252
-9365
1909
-11174
5100
-13314
-4922
-12451
-9855
-8241
-9858
12321
-5583
-26217
-570
16626
-11860
-14157
-11515
14341
1762
14552
5669
5724
8590
12254
-135
-3889
-6063
-4868
15483
-13515
-7890
-7670
-10847
-9205
-7228
12013
12880
-13374
6012
14018
1544
-8774
14502
11366
5629
19873
-9297
-8399
-13091
-16491
-11982
7795
8908
-18944
1893
-5956
3985
6167
1883
-4745
-2920
6436
197
-1912
6840
2263
-6046
5074
5635
6744
8438
-2538
4574
4049
-1630
-1103
-10823
-4551
-238
4379
2199
7055
7841
3092
1077
1833
7425
-9168
-21
1974
-3931
-1955
-945
-7554
-564
6833
6232
4413
264
-1619
3500
6117
-5642
10215
-2916
4473
-2729
10025
9467
-8632
-517
6087
3804
-143
5687
2486
-2016
5560
521
-5912
-1465
-6333
5033
-4815
-1597
1548
-9128
5330
-7233
1554
-1183
-85
-9486
4318
-1200
676
-1260
2724
-9585
2844
1362
1725
-1671
11333
-922
1068
-3530
5208
775
9765
8888
1580
4006
-4956
9508
-3696
4038
-7849
-4278
5022
-3453
8884
2241
99
1223
-3163
5954
1631
-3476
1989
8
-208
6350
-2463
-4591
-5867
5822
1784
-9217
-5390
13806
-5369
-6035
-2181
-6164
-3618
1799
3025
4423
5488
2363
2403
-6284
1424
-1009
-3323
6955
5648
-4279
-5153
-1216
-8070
-3288
-8647
735
1285
-34
-10498
-7891
-4488
396
-596
-7574
567
-5159
-6999
2683
-4430
1283
5321
6095
2407
-7689
5891
5754
-3312
-6124
3742
1638
-1924
-2495
-3742
-7413
2448
2440
2398
-3990
-2537
217
-8045
-3974
-950
-4883
5680
-3760
2018
-7881
-10018
-713
203
-7707
-896
3235
-3925
-9463
2552
-2700
-531
13871
3468
2692
-1901
-494
-5880
-4381
2236
-550
3293
-1465
-13276
-3
2267
1244
-7686
2343
-6016
-917
200
-5639
2898
-3568
461
-7969
-3251
-10994
6873
-1035
5698
7442
788
378
-7040
-3027
-7085
-4619
5215
-2097
-6235
-9636
1136
-5145
-6142
5689
-7660
-11165
-7817
-7739
9420
2419
-1650
4336
-1105
2113
-6262
-3877
-4518
-1261
575
-4890
-12303
-2072
4267
396
-1211
-4430
1123
-13133
-3300
-8740
-2069
7422
3286
-103
4619
-12281
-7597
-2727
-5575
-3930
2512
-8880
-2127
-10726
-6209
3179
1237
5964
9426
-8217
-3533
-3717
3316
-17442
-2217
5996
3502
0
-1786
-5475
-684
1168
8041
3748
-3986
-1367
-8217
-5014
-10526
408
1949
-5200
-4108
-3248
-3501
637
-5008
-7878
-4565
3667
-10726
113
1546
-5941
-3899
6457
-5204
2469
-3856
-3222
3621
7333
3025
-5010
-3506
1096
-6964
-9478
-4289
-1395
8515
6588
-13423
5681
3656
-15170
-5878
-2317
-4453
-2885
-5791
4009
-3249
-1393
4109
-1880
-3082
-9592
12609
-12053
536
-3944
-6490
8856
-4054
-1145
-6737
3610
5163
1231
703
-7164
11772
-1163
774
-6610
7757
-9155
-717
1273
2116
-3261
-1683
14147
6346
-3687
-9757
-15411
-22393
4266
21056
4054
2410
-8927
-1990
-1297
3309
-2502
3585
-15040
1598
3127
-4819
12708
2205
8026
9681
-10223
1294
-1449
-2467
-9983
-3886
18508
-13839
-2440
3772
-792
-13146
15078
-837
-18246
-743
-2253
-1729
-2236
-4252
7691
-16668
2136
13905
2459
-8427
11349
-7496
9701
-7456
-9000
-7821
-2021
-3233
-5087
2270
1836
-14558
19033
4347
2464
-10036
-922
3822
-3510
5328
6019
-12479
12899
-6674
-19211
-1021
941
-16671
1881
-22
-21385
-10968
-8398
-11328
21586
-4879
-349
4809
-4604
19943
-7732
3502
-5996
6800
-588
5549
2338
-9118
11391
-15749
8743
-2383
2637
-4693
13478
-2313
6237
4279
12072
1495
-5115
-1149
6458
-11285
-988
7168
14257
1293
4964
11042
-22166
-5073
6706
-10557
18725
32
-10127
-3793
11269
15289
3196
2944
14595
3715
11713
14446
-6582
-277
7284
8365
10294
-8887
-2150
-195
-4315
-7664
-2073
11200
-9296
-5843
8365
12380
-3203
21756
12852
-1404
2968
-10231
11039
-655
-931
-3476
-90
-7080
-13165
-16478
-5557
-4831
10210
-5409
14765
1846
1415
5487
792
5968
-4596
7928
-7215
-6223
1677
-405
-5737
-11856
-8457
-3885
-5375
-131
-5814
-3131
-2407
-12776
-4321
3650
6224
-11621
106
5357
-6519
2900
7422
2681
-10203
-744
1622
1918
4951
-9681
562
-5586
628
1719
-195
4036
-10705
2160
-10820
-633
-8206
-7879
-1604
4233
-937
-16137
2378
8628
6369
3591
4629
-3104
-3574
-10321
7254
5432
-9656
5004
-11667
10530
390
-5032
9826
13057
-987
11088
-8725
4961
-8687
2214
-8275
-9277
6287
3749
-7346
2212
2479
-9868
10915
-871
-799
-4255
14915
-6282
-11747
8191
2928
-6503
-10876
-5143
5792
-7338
-7409
2564
-9260
-1601
2703
-8151
-6746
-3301
5008
8990
805
-8058
4434
6875
8458
-4656
9684
8925
559
15573
-8429
-4322
-2866
7926
406
3928
-3876
9419
-12807
2761
-492
1741
-602
12798
-3864
-8317
-2721
190
-3827
-1657
4180
-10479
719
4220
565
2658
-9846
4538
18835
841
2126
2296
9130
-213
-913
969
6194
10444
-7885
5406
2677
3452
1697
6203
4622
-903
-3142
-3018
-10944
6859
-10806
-3982
-3035
-1667
3137
6773
4747
7230
4785
2379
5278
3796
3596
-4005
846
-3478
3372
10640
-2417
1416
-3766
5314
9906
-3163
8427
-8392
-9824
-4472
9050
3685
-3100
5446
-11190
-3403
7176
4094
7465
-3108
-1515
6594
7505
-9293
2936
-9386
811
-7635
-7917
6937
-18245
-14636
4287
-7943
8520
-12979
-1816
-15813
1116
-6468
12601
3352
14814
2385
-4176
5776
5239
6690
3058
4379
23058
-7283
-267
10362
10524
7619
-4219
542
-7866
-2588
4027
3620
10824
6278
13461
-15503
-2652
-1713
7349
2529
17412
-6112
20159
10117
2771
-15593
-13568
8147
5756
5064
-1453
-3134
8305
2459
-4596
-1617
3696
-1751
-9515
-6035
5446
3693
-18505
-418
2331
-12424
1877
7684
-11973
18533
-18941
-3622
941
9235
15476
286
-635
-12564
-4484
13013
4525
-3066
20066
6804
1574
5493
-13066
8105
3444
-579
-11316
8792
3590
-3230
1115
9537
12391
-2950
4303
-14010
5896
4073
17220
-849
-15737
-1411
8017
1428
-525
-3730
7771
4794
-10516
-6042
6025
1931
633
-1374
-5526
-967
1158
6406
-3281
-3107
12431
7678
-21995
-9125
2606
-3290
-5156
3563
11144
-11348
531
-27
395
-437
14872
-9797
4841
1049
-2190
-2125
5108
7893
-11255
-8630
6828
-5695
-14264
-7592
9835
-13438
1202
12263
-7813
13039
2809
9244
-5663
7863
7072
-10683
5442
271
-5417
-1644
2192
-7547
8984
-74
2311
7150
-6140
-20948
-1553
-2961
-733
3420
-3214
-1582
-18202
-275
-6424
5038
5738
230
-4290
5935
-4807
4603
-8102
-9910
17906
4404
-9693
11065
6401
-5557
-17370
-9337
6360
-10196
1775
1346
-12027
-3286
-1210
-91
-809
-11392
11017
-9261
7836
1093
-2195
5344
-14197
15393
5325
-5298
7160
16744
-5128
17516
6093
-5263
-2938
-8885
9014
-3927
13608
10351
13232
-15235
9360
-13623
20716
-916
5236
-311
9102
306
4948
8973
-10625
-11109
16116
-1896
-6614
5312
-11250
8173
31127
1453
-573
4587
5212
972
-7751
-423
-8151
-1869
-9264
-6609
-5792
5046
9004
-5907
-4153
-5919
-6863
3818
-4058
-12952
-998
-2175
-11354
5269
-12883
4583
-1425
9843
-6908
3651
-18333
1076
-16573
8519
1746
-1958
-4450
-1908
-555
-3129
-4119
5266
2707
-11044
-10406
-19196
-8389
-6654
-5224
13142
-7713
7866
2524
8421
4211
14974
3786
19298
4756
-901
-14078
1277
7480
-8287
-2366
6081
8954
-13285
-4920
-4159
15948
1876
11253
427
-3176
14590
-2911
-8763
-4992
-8341
3703
-15462
17003
-10285
11765
-3838
-1777
-25534
1794
-10267
-16500
-8639
7342
-8654
-6331
257
9014
5999
-2372
-7739
12233
-9103
4372
-4643
-9536
-3566
22756
6830
-6411
8625
-1211
-2426
463
-5688
-7812
6487
8320
-193
-12229
6631
651
-766
2033
-12190
3417
-3334
6913
-371
-5752
-1929
-7846
-1828
-5360
5730
-11022
-761
-10313
-11537
1790
1089
-4254
-2263
-10432
2103
-7892
-6376
5938
-6890
-3916
-4790
8655
4442
41
2263
-5695
4404
-3379
109
-17282
2957
3035
-11951
-5237
-4343
-2058
-307
13771
3806
-5111
-7137
5520
5370
14650
3949
5646
3168
-4941
-2429
-4856
-3283
-4015
-7600
2286
100
7097
-4180
2493
8480
1639
-1499
-4685
-4764
1692
3751
-7061
7119
-5588
3640
6018
5884
13080
9780
1370
1160
6519
-7246
-2891
2739
-9288
-11973
-11255
-6827
8137
1656
11445
-4677
5007
5146
-6064
-6819
569
-288
-17610
783
6930
3328
10750
410
-164
9585
-1830
-2603
8921
671
7355
6079
12321
7229
14834
9343
5871
-1082
-1276
-2673
-1995
-9651
3040
-9153
-16068
1739
2641
-12786
3871
118
-11907
8704
4988
-7804
10036
-6749
18142
-417
-7791
16071
7057
8818
270
844
1760
-648
1827
5465
5879
-981
3072
7002
-3479
-5764
-2007
-9822
7588
-9312
6955
50
-5121
2123
7554
-3305
-4689
3039
4295
-5872
4167
1442
-3359
-1254
10503
177
16158
12789
-2517
-7202
1082
-8213
-4112
-5328
-355
-3549
932
-45
-16076
2156
-11950
6501
-6844
4929
-1842
6757
4147
-590
736
-571
2490
-4228
-166
2285
3283
-871
-10567
-13986
-1544
8416
-2851
-4244
6145
-5429
9118
987
-5055
13080
-11038
5284
-3324
4880
-3881
-774
1072
10925
6893
-9083
-10508
2283
324
-5591
-6150
4280
-2724
-8470
4261
-449
5910
11187
-671
2902
-5088
12076
11903
5371
-3134
3066
-4793
4052
4565
9319
7441
-5221
13774
15736
6813
-182
2129
-658
-472
815
-2926
3602
2051
-2407
1690
-1898
5491
6965
4544
10418
4878
-3602
4242
4027
-6289
2534
-2416
3240
-1951
2863
3845
5018
-567
5692
-2585
1063
-6491
5030
9753
8273
-5563
-1254
2203
7886
6216
9044
-1618
-4975
16652
-12731
-3277
-1866
8402
8581
-5947
-5289
-240
3208
386
-1700
-7712
-2027
4435
-8198
984
5176
-7433
8627
2890
-9999
7311
2415
-1954
6807
-4184
-2812
2401
7682
1028
14606
5180
-6015
505
1893
-597
-2187
7149
1197
-8086
2183
1278
-5989
7524
1977
7675
194
5618
4957
2649
7260
736
11689
-710
-791
-6136
8196
4948
250
6126
2322
-10071
104
-3986
6073
12020
2686
2139
-5733
900
1664
4598
-9774
3408
-6518
779
-7265
-2429
2246
-3170
-3546
3914
-4781
7329
5177
3644
10649
-7277
-3262
-36
-6648
-8697
8914
-8377
8423
11542
-6516
4943
689
5539
8038
-2995
6127
8232
2010
5648
10198
1878
2337
5732
20085
3708
11901
-54
4693
6431
-16526
15626
-107
-1982
-5496
-750
5692
10947
3617
-7666
-212
8894
5825
-1711
-1890
-15133
51
-278
-9879
-10405
4749
52
-6955
10801
-9053
5155
6021
-1728
-3124
-962
385
-11317
4153
932
16524
-6585
17192
7128
-484
-6708
1474
2585
9318
-10334
458
190
-8467
-7411
-14017
2585
-7555
2091
-2436
-4934
4883
2143
91
2044
-6397
1991
1103
-14849
12334
-2266
-13817
-464
13073
14061
-2536
-8278
-6929
4376
11845
3702
2173
-3322
2067
-1143
4690
-6119
12194
-5791
-11412
-2720
5063
9026
-14388
-4814
13749
6743
7982
349
-12901
6086
-7287
-12317
-1778
6265
-795
-1708
-5862
-2625
2049
-4643
3448
-8968
-6780
-1013
-5186
14584
3355
-7302
24331
-8777
-3550
147
15896
-1388
-12166
16441
660
3151
-6355
5456
13746
-12340
-10015
-14363
380
2009
-6596
667
-10545
895
2700
13261
-18765
1480
-2330
4627
9123
-2054
-7076
952
7609
1827
-8378
12765
8886
-2674
2256
-7066
-8365
5034
-519
-2361
5850
4010
1385
-2629
1013
-46
3971
-7064
10088
-1851
20319
11913
9576
19712
2551
-14769
-439
-13298
-16535
-4405
1673
-5402
-8857
-3990
-8504
-9190
2153
-14563
3784
4374
-780
11367
15479
5273
2768
-7316
5470
-7528
1210
16301
3573
-7740
-14048
-8048
-582
8943
-7612
-4304
7075
4292
-2611
-3088
-1520
9625
2690
878
921
-5470
-1609
-14599
10186
-482
-10270
-716
4210
-8241
-10113
18609
20008
13773
-11823
-4019
-11769
-766
-15955
-2976
10362
-7478
15112
-3110
11071
15626
-4932
4500
-18869
11467
17819
-744
1991
-8995
10900
1205
-4125
-266
2487
-18166
-4427
15187
4266
2292
1273
5902
9253
-1860
-19183
6592
10265
-2904
8605
5236
-9001
9308
-4302
8862
-15659
-427
-7438
-1701
-8907
-4336
822
-5441
10343
-9829
-2562
-26478
2131
-7955
19238
-6308
-12297
-1759
1827
16837
-1679
-2003
11724
2842
-4579
-4792
5173
-10959
-16788
-1868
25584
24786
6939
-1880
-12193
-4711
-11690
-394
-198
8970
-5540
-9804
517
10604
13714
-11647
1327
-9733
840
-7499
896
10770
-8712
6445
-2140
5020
9909
-9980
13100
-16618
-11877
-3483
2859
11477
-11291
-6763
-6389
5430
-629
-6480
-9400
9341
21
-14732
18062
9582
-10580
-5838
-7032
-2021
-3984
549
-2292
-4993
-5930
-1844
-2593
-2384
315
-2888
272
-818
3177
-5462
6164
501
1761
1421
-4460
2661
8062
-9666
5149
-4872
-1453
131
-488
3881
-417
-3441
4836
-1838
-3554
-1333
5726
3678
-12781
-6482
-5517
-2337
3142
4207
651
8025
1896
985
3279
4662
-2816
-1650
-27
887
-1985
3129
5540
-7277
-8895
7812
-1889
-3087
-3503
4983
-1888
-4826
-4929
-2245
1801
3664
-7209
-12613
5936
7543
809
-4750
5841
-1470
-5555
-1234
1819
480
2062
-2274
-718
-2527
4093
-4344
5919
-11134
3594
5858
3187
-4023
5206
-665
4841
7422
6697
-9059
-4747
-84
2155
6670
-3901
-9538
1601
798
-4843
-6257
-6217
-3077
-9398
4269
-16392
-4698
1003
3241
-6008
-7427
2845
-574
-16270
3325
3508
2701
2487
-2955
-12777
57
-210
1652
-3734
316
-2148
2506
9714
6367
1995
2351
2051
-1915
1769
-54
6273
-9318
-601
2706
987
-3393
-8739
-7410
9515
-4753
-7552
-583
8247
-9054
1016
6057
1417
1889
4177
-6581
3854
-7129
-3549
-7582
10674
8306
-3787
-4122
-1176
2721
7185
8823
1421
-5768
-2441
180
11713
1697
257
415
1535
-1811
-997
8971
6829
6019
7033
-5910
-627
1517
-10447
3115
2358
8450
2220
873
5695
-1404
2189
-2763
5923
2895
9492
-1994
316
-8484
4093
-5918
8455
-3749
-2691
4571
-7099
-5298
-386
-6816
2992
-917
5890
-5048
-2404
3775
-1250
-2850
-5864
5579
1450
2071
1997
-1373
3174
3194
7452
-4725
-486
21
10284
6345
4745
1311
2010
386
2261
4070
-2129
2320
-2983
6244
-7330
-3714
-2897
9821
-955
-5545
-4504
-14498
-6412
1692
-1918
-1482
5987
-2386
2479
-13885
1626
-6927
3232
7830
-828
3035
-735
7940
926
6916
2677
-5917
-1439
1504
-2493
-10218
-7927
4093
-5827
-4528
-8977
-6399
5020
-326
-1454
5049
6781
1682
2010
6096
7622
-6729
-7163
-348
-4935
-620
3856
6614
-5382
-1102
-8335
4321
-782
-409
957
-6049
-13873
2627
6238
-7165
2909
-10310
2216
3009
-13371
-9410
-5261
4336
-16877
-1783
4967
-3025
2352
-1019
441
-2884
-8369
-3511
6455
-1775
6365
-242
8596
-7538
4962
-4955
-3219
6588
-1405
-1672
5023
6893
3602
4937
3828
-7237
-516
-3503
-2910
1754
-13295
-161
2020
6842
-3650
-3545
2046
-12281
-3627
1954
-2322
4635
-3289
-2749
-8920
6292
-12366
12520
223
-15333
9152
3061
-8399
6882
-7564
-10243
1255
3994
6636
5017
15499
8800
-3274
-2228
15076
-2098
-5077
11092
-5091
-3006
7352
-7183
-838
-8058
-977
-738
170
-6513
12831
6571
-1882
-2875
-12341
21615
10161
7901
5796
6986
13176
256
-11817
2515
2519
-8815
-2800
2845
3085
6788
2343
-4844
2952
3011
1841
-3198
-6745
9450
-19540
-6702
14395
-690
-11696
-11382
2761
476
10562
3516
-12956
-2445
6200
742
-4810
6028
-1483
8876
12338
-3737
10693
14453
2256
5812
-5597
1154
-132
6329
5955
-8806
-10086
-1737
-1373
-5872
3446
3880
1883
1929
8221
-3332
7873
-9800
5370
1230
4184
54
8725
16279
-4107
10706
-1923
-3828
-169
-3439
-5564
-3339
-4039
-3776
-7469
2803
1435
15613
-5097
4148
-9770
2226
3671
1856
-7621
3833
-6662
7904
-3394
4652
3070
-185
-2409
2908
2607
-2167
-2169
-44
1645
5064
6431
2110
-7341
-4138
2696
-10544
1064
8859
6152
2304
-168
2527
2674
86
-3966
3712
7312
-8155
-1036
3672
1545
-7630
-1008
8354
8365
2686
1243
-1502
3405
-12890
-8012
4658
-3480
-7246
-5397
-10388
-98
6970
-404
7672
-1773
-1942
890
-1888
4926
-4702
719
7445
2711
13743
2213
-1546
-9219
-4117
1097
-2451
-8142
-5627
-4606
5234
10754
7888
-915
7955
8783
-5903
-5141
-4619
6252
3156
11670
2372
-6855
-4780
-5664
-2597
-2349
-1022
15892
-5216
-1780
-2232
-6457
1857
-4447
-4713
14041
7563
-2071
5120
-7444
-3069
2186
-250
8792
3512
-7211
-4259
6598
-504
1185
2937
-2781
-8657
-7494
2599
3740
2736
-9059
-10397
-599
10720
8506
-1436
-1828
2945
286
-3678
-3445
7
-4032
4770
-5367
5725
-1249
-5321
1777
-6871
-1760
5251
6694
3056
-10086
-1309
-478
1385
17624
5460
7666
8362
8947
15444
6687
-4823
7775
3723
705
-7074
639
3165
10975
3978
3254
-10275
-5475
3726
-9891
3736
3495
9236
-4199
2269
8051
1011
1982
3918
4805
5851
-12057
-4071
-756
10009
3720
-5206
-2121
-1559
-3965
-3869
18492
1051
15024
-320
8826
1171
-4216
-8384
-187
-518
-3325
7846
1746
-5434
1103
7549
-5164
928
-11826
255
-1290
4644
5149
-3847
11295
5339
15337
725
7251
4415
9929
-992
961
16531
3421
-2581
-532
-21882
-8861
-8431
-12334
-9008
784
7356
-8361
-2971
2136
-5883
951
3877
-10076
10207
11577
-4224
-629
3301
2580
-10321
-6803
15666
-15276
-3470
-2883
-7384
4606
-4011
10550
6411
2728
-9206
7770
9358
8512
4630
-4629
9266
-2109
-23
-8764
-4395
6285
-9010
-2062
8354
-6209
882
-9476
3012
-4502
1852
-12961
-16504
-1710
-9800
-5688
-1041
-7749
-3490
9381
-7649
7979
-4137
-3037
-3133
-2493
16311
6921
1571
-4573
-3867
-9827
7283
8404
-905
-10175
-3158
-4336
-1257
7270
8184
1347
-2437
4210
-1953
277
-4800
1556
6412
-16486
-10984
-7243
-15203
-7552
3281
-2149
-7838
12186
6758
12928
-2126
-16469
5504
5967
264
-1824
3694
7231
-2236
-3095
1211
7200
989
10372
3693
-7012
758
-17750
4035
-9903
5495
-15035
4259
15473
-1655
6528
-5910
-12862
-3821
6769
3327
1240
5993
-7276
-1292
2725
-2335
1524
-17495
-7145
10349
10575
9001
-9005
4081
-9080
-90
-9516
6056
-5043
2311
6973
2670
8470
4543
5
-8740
11562
-1520
102
-9435
2704
-8
4329
4684
4762
2058
3389
-6486
1422
-593
-1903
-647
2998
2349
-446
1539
1145
-1218
-4763
-3779
5356
-945
-5069
-1164
-758
2981
3759
-581
3049
-3491
-1145
5103
1001
274
-4704
-2839
2854
-2828
2221
-1041
-5604
-129
-512
-181
1406
-534
-377
1577
1589
3267
-2108
636
-678
2770
2555
4300
4278
-5057
-6779
2714
3290
1962
1745
-3312
237
-786
4271
2763
2610
2961
7062
7310
-1424
2941
1422
865
981
-7217
1997
2461
1152
-1011
1445
1462
1594
5006
-8358
4731
2914
-798
5089
-5859
6184
4035
3745
6367
-1382
-2765
-4344
-530
1238
276
1437
-2172
-333
95
1695
-4030
924
-1972
-543
1525
7185
5954
-5574
-5040
6564
3435
782
3999
-2718
-3972
2328
-5028
-935
-188
2037
-811
4879
-1774
1382
5965
-1161
4894
-6076
-7528
11297
-121
5448
2914
2935
2089
8566
-977
814
10220
667
-11622
9978
-9590
1114
944
9194
-6912
8452
1857
7501
1343
-4716
-2607
15190
-5723
-7203
-6857
15182
-1745
-1983
-2276
-1434
-10876
-7229
2698
-13890
5619
7273
7911
100
-8322
-7384
6022
-3137
-6383
3710
1459
10991
15836
9902
-6098
-6516
5670
16944
1733
-7557
13137
-4716
8480
-4307
7451
204
-2843
7444
5880
1564
-1584
-16084
6310
-221
4724
11213
3708
3055
-4997
-2451
-4048
7338
305
-1999
-2131
12487
1712
8902
8198
-7202
10638
-4532
8249
4162
-9858
-6717
-2478
-13599
3279
-2168
6204
14873
3093
12435
-5655
-9212
-56
-999
-9050
-12
12611
-8838
6164
5387
-15830
3927
2547
-18564
16302
816
-7843
-2340
17566
11625
2132
6922
-7464
12765
5464
-8150
-8610
18031
-5977
1935
20784
22119
-4927
8732
-6184
8039
-254
4095
13319
4472
-5632
9827
2262
-6445
-4708
-14854
10261
-7126
-12998
-9107
-5375
-2937
4893
-6792
5577
-2837
-8689
-8685
2248
2831
1654
-4965
-3899
1903
13106
-19057
10751
9871
-4428
-24490
20749
-2775
-2848
17050
-24485
1061
-1442
-4939
1168
-3211
2228
-5767
5314
9525
14184
3812
-4294
-2638
3328
-1546
3847
-7535
4543
12391
-21150
-6600
-6295
2554
3365
9183
11553
-9637
2376
-7668
-856
-2723
-1563
-5715
13516
-15837
-1850
-266
525
-9255
1353
12533
-6483
-4523
-731
2242
-24135
4151
-745
16794
-4631
-18181
13840
-6054
5752
-4696
-7110
-3875
-5683
4316
18144
5774
-2748
12895
9973
-9992
393
3082
4281
-9747
-1612
-6647
17232
-1515
-2193
-2348
-8820
2772
-4146
17595
-459
1336
13126
11586
11050
3662
-3397
-6090
-2751
-6731
-1719
-733
-10342
2039
6832
3401
-13090
-2317
-927
6157
-6652
2130
1644
-5460
-9503
-4146
729
6980
9965
-291
-403
1647
-16476
-969
4910
7492
-4497
-11324
-3220
-8750
7528
-5702
556
11617
-905
2342
14758
-11925
-6439
4207
-5176
10590
-407
-2362
-5694
1985
6422
-983
4875
-4053
2603
-13787
-7505
7971
-4890
1985
-3203
7728
-15797
-9619
11064
-4084
425
-894
2972
7360
-3977
14353
-4761
2291
-4412
-8570
-7880
-1125
-9667
6735
-12316
-5421
-10056
-4936
-14530
4256
9032
2138
12074
-1478
-16305
-15930
1462
6628
6217
-9680
9733
-3939
-6067
-7558
3404
6017
-8901
-8392
-11828
-2738
-1447
-2611
15685
-10089
3423
-3883
-3933
7556
6375
-1793
-7338
4001
-1209
4187
10641
-6783
8495
-10923
8823
-292
2788
7102
6784
4360
-5513
3549
-6887
964
-7346
1544
7512
-6233
6020
-7965
-1088
403
-9874
-4034
-7162
-2123
-4739
3556
3521
-3664
602
14246
2918
-2312
8943
804
252
-5563
-4564
1315
1081
5605
-4782
-7243
-4912
-1217
-2411
8629
-2339
11972
10171
-5249
-1811
10441
5953
4950
-7153
-14195
-5239
6455
-3599
4184
-8339
-6293
9780
4093
586
-3608
-920
-3322
-4537
-9234
-4455
716
-3164
11687
2628
7622
-481
74
-15800
4851
-4665
4360
8301
11092
-82
-6955
949
4296
2767
968
10245
2132
7548
1795
7406
-11534
-4720
5260
-6485
4959
24
-5886
12211
-6756
-3942
621
1916
-6947
2090
-4684
5864
405
617
-12189
5464
7832
-2256
-4636
3265
-5086
-14537
5575
-4420
1930
1988
8896
-11228
-4847
-5165
6017
4010
8539
7096
-19127
19172
-1971
5638
20847
3373
-11796
-11755
4010
1401
-7295
2356
1535
1660
7936
-7315
3620
-1532
-6364
2103
2684
-6680
-8032
-10447
9788
-18
-8145
-10052
4777
-1594
470
-13197
2392
4199
-1355
3352
2941
-5060
9293
-4539
6616
-3075
998
-6160
4135
-10014
-2413
-11688
-5239
5978
6033
-6321
12226
5915
-8697
1371
-1148
-6475
-362
-5315
-6683
-15056
-5823
9231
-8624
-865
17549
6361
-3705
1414
-4881
-1460
6013
5065
-7086
-2535
-4474
-5571
-3059
-3743
-11660
11733
-1264
-4228
-2035
23303
4654
-2066
3985
1496
1446
645
5101
-7911
-8222
-3177
-3660
-6870
2008
-890
2313
4095
7376
5045
-2631
-6098
11910
8002
-7190
-7677
12772
2908
7556
-2881
-1917
9976
8577
-6277
771
9261
-3059
3466
-1304
2857
11297
-6175
-6722
-1227
14384
-7771
15201
14898
2898
-13569
-7214
2257
2266
-11407
10907
399
-2139
-1251
16
11810
-5682
-172
16903
-9468
1378
5565
5551
574
-8681
-547
-16691
-6931
-11261
8280
-20485
-2238
176
17544
5876
-661
2454
-10784
-23769
-12547
-693
-4405
10215
-18162
12521
-6604
-11790
386
-26581
-8738
-5735
2372
-7866
-5251
-4822
553
-7796
-14798
-1749
-1178
9684
9866
-19122
353
-12693
-4735
8076
-7990
5886
-6042
12148
9505
-10111
-5200
9021
-17416
-1432
17031
10306
19372
-7553
4883
11104
8730
1326
-8374
28579
-4598
-8009
-1841
10229
-3484
2927
-13570
-3918
7537
8783
-5091
6344
-5159
9960
9094
2527
-3965
-9967
16519
-8172
-7307
-16889
13336
-11516
-11762
-10826
3926
15584
-5282
-15059
-20271
11557
-5620
-1269
3099
-1018
11025
-2108
-6530
-1822
4922
-9773
-2862
-3863
-8827
-8157
-9481
3449
16862
-165
4652
9889
7142
-9126
-873
15591
6923
4254
-3320
-7784
8064
-13372
5072
6826
6466
-267
-10613
-1296
-560
210
-4844
-3124
1261
-9330
-5023
-16787
2645
-9201
3292
-16175
-3922
2538
3981
7403
7641
7108
248
-5829
8385
9417
-16650
11421
-14363
-4626
-15940
-3908
-11183
7460
-16766
-5349
-2572
-4381
-5867
13252
-5948
-423
-13995
-11715
11801
10379
-3620
10506
-3726
-10968
1152
-17938
1161
-3016
4040
-12093
2809
8988
-6274
9660
547
-5440
-2449
-6412
-7806
8135
-15791
4676
-6065
-4959
-1203
7742
-6476
2892
653
-9978
2033
-2127
3291
7706
535
3646
760
9185
-12195
6031
-4760
-9219
-3963
-6500
9965
-2918
6247
-17233
-20315
2789
-1323
8254
-2840
-6413
-5378
7608
1050
3440
8052
3751
-1276
-6427
-9742
-3673
-7496
-4731
5139
-11008
1076
1040
639
1459
2416
3232
-586
5317
-1357
-1
666
-4657
-11845
-13033
-546
-296
-9105
-2295
3458
-10369
6148
2973
-2599
-1712
5676
6159
2966
-4244
11875
-17608
10276
4110
3143
1817
8107
6369
-2864
-397
7007
2351
-7245
38
1174
-851
3312
10172
790
-343
3032
-5508
-653
6039
4725
354
-2224
5036
-6699
11153
1029
-6336
3296
-6059
9471
-1786
1087
-360
-1690
10356
6998
-8608
8600
8195
4949
586
14568
-2737
2310
-1357
491
3744
-14842
4981
2234
-8786
-3681
-1228
-1630
4869
-453
7601
8642
7414
752
-1786
-12741
800
4313
-3484
6374
10288
-4415
-3589
348
-5352
-3571
-2545
3018
-5712
-3281
-760
-4216
1003
-1756
646
5483
3575
-4990
2256
3270
-188
19391
1541
-19789
3815
-992
-1815
-12268
-1370
4598
-4555
-5086
-3121
14567
8430
4203
-3856
9799
-3999
-4535
-4746
-3402
4903
-1252
3850
7350
-12968
11355
-9766
-7674
5178
-6386
1549
-6479
-11687
3639
-7650
9278
-1444
23234
16875
532
-12039
-7502
4914
-845
-2357
-13591
-8240
10919
3643
-7175
-4444
-2490
-6169
-1126
-9163
-5269
284
-8149
-1977
5183
3911
12780
14028
-2420
-10442
-8385
-4198
8546
-3275
-2096
-12999
-10385
-4412
7284
-7121
7890
1803
5074
-10569
6138
1368
-10341
17196
7562
12762
-1247
688
15462
6191
3326
-1152
6442
7338
-12261
-2819
-11114
3279
8807
-649
-5886
4895
4671
2900
-4422
5413
-919
7619
245
10163
-4508
19882
2129
6474
-5778
75
103
1031
6550
2029
-3811
-1109
1489
5524
7897
-6888
7418
-3408
-6144
2545
-3260
-1498
8253
1538
-611
-2732
3880
6008
4478
-7421
-3888
1038
-4645
-4031
-1299
4624
4648
-409
-7091
-2149
214
-3912
-6927
-4347
-1013
-2591
-2721
-3118
393
1069
-2547
3352
1136
7766
1947
60
8203
-7054
-2682
-2741
5414
3666
2749
-2391
1758
2487
4184
-4215
3314
-2457
297
1341
8220
-759
3923
-5591
-2869
-162
-5085
-8016
-1050
6189
-1287
-2521
7700
-3795
6096
-3214
-1183
5529
4952
12286
-5006
5534
1451
5591
-39
12908
1073
-989
11232
525
-3638
-10901
-677
5520
2247
-215
-2392
-6779
2661
-5824
2860
3055
-3055
9248
4323
2860
-2981
-4130
2242
3170
-5855
-4511
1571
4363
-2175
-620
3165
-5451
3271
6103
12873
773
1742
9610
18775
19822
25281
-3453
3560
-12958
-229
10617
3544
-19170
3956
3278
-10978
-6848
4669
7697
13320
21160
10239
3368
3725
6643
-18690
-2154
8160
-4061
-9654
6434
-7631
-8717
520
-6332
-20
11535
-3863
9089
-12594
-1987
-810
16851
1974
8377
-5579
12860
5154
2245
12920
365
-6922
-2630
15219
-18352
-9735
6454
250
4825
6640
-11279
-7239
3288
-1138
-18728
-8576
-83
14996
-679
6205
-6186
5877
4783
1092
19747
-264
4269
5634
-3581
3369
25530
13674
-8009
-7689
6176
1938
10240
-3756
-1439
-5218
15910
-4646
2336
-5819
-562
7534
2820
-13796
8107
-24781
-19312
11151
-476
-1479
1315
1779
13931
17453
3430
-2153
-11769
-12458
757
-4871
750
9501
-8912
10490
7188
-12467
-4766
13889
6088
7403
15015
28213
12096
6082
-360
-16684
12357
7583
1962
14648
-9339
-7867
-3819
3432
498
-1455
3909
11507
-6348
-17439
7118
-5239
-13641
10405
-14373
-3283
-2512
-12540
1857
-2218
12301
-699
-7758
10988
8066
-4843
1927
-26459
-3820
5149
-11376
3671
-6378
-1412
12634
6370
9595
1954
2548
-8986
-635
5688
-9673
-1976
-307
-7467
-10509
4198
-2103
-5907
11971
-10448
-3627
-8350
4190
10576
7177
340
-7758
2644
6049
4951
-13969
-13485
20053
-13011
10836
-2716
18762
4654
6062
3939
7610
-10103
3510
-13803
3223
-8993
-10075
11737
-9113
5550
-17391
21408
-15102
-90
2128
-574
8589
7214
4492
-14050
2898
-13139
-2951
9827
12664
8482
2115
-2015
6467
-3351
-7007
19806
-14542
13969
-138
8356
12119
-9633
-9815
-12775
-16726
-5050
417
-5663
324
-642
-1944
-16902
2938
-2769
18354
-11282
3836
3083
9884
2926
-8372
4552
18002
4103
-2302
9412
-1963
737
10816
-3234
14335
-5200
-4018
11397
9507
7140
4234
1100
-519
7646
2917
4009
4877
1378
-12592
5319
4881
-1165
7120
1606
-4659
11458
2885
-1445
-2661
2339
-3923
-6649
477
-10449
-2891
-2800
-3103
9486
12
11354
8668
-16294
-6478
-2142
5140
-6836
-7568
9626
3757
-2493
3112
3118
7520
-10978
-4205
3413
5519
-12867
3890
3944
-12230
442
-25
3767
6004
5826
14786
10744
7738
-9925
9726
10120
-3013
23987
-179
-8163
8244
2326
7919
-1136
4462
10826
6762
773
-2404
-2232
-15285
5798
-228
-1807
-5455
-7302
8560
-6355
3028
-4347
-4480
7207
-7277
3671
-968
-3671
-4394
-10357
-2485
-2618
21452
-13707
387
15810
-10824
3649
-4053
5154
3783
13427
-1960
16136
-859
-6686
3627
1816
7491
7079
913
11092
6566
3501
8349
5635
2530
-3216
687
1392
3403
3205
2979
4560
-1039
5883
9841
-8257
-495
2642
3246
7413
-2775
-5587
7995
-5365
8665
13246
6545
5992
7338
982
-6085
-2071
-3195
4850
-8627
-5331
-11478
1565
10190
3532
-21828
4055
1192
2535
-2962
-9731
-3560
-3922
7043
-8625
-3193
-60
7957
-123
-5958
689
234
7915
3025
3064
6504
-892
13624
-1605
10942
-328
1265
9547
-11042
2193
-9098
-9032
-618
2467
-563
-1066
-4360
-12318
5813
924
1464
12880
-921
10112
10683
-2773
-5052
-1137
3080
-251
5398
610
-3632
11931
4544
7421
898
8944
-2847
6005
-17301
2620
6536
-1501
-1801
69
4605
9000
6998
9741
2305
3602
3754
1888
5520
-3073
3417
-11830
-7110
2911
1091
3962
-2516
3224
-4819
-1947
-1835
5030
1823
5382
-7771
561
-3556
10
276
2988
-746
-1031
2059
11624
3456
-7601
-8132
-1662
550
8769
9773
-4048
-9089
-2928
5260
10834
1046
-2150
7328
7779
-16859
-8459
737
301
5271
-9718
4605
-7092
3653
8195
-6960
-2727
-6279
-2201
14160
-5418
4635
15837
-581
5748
2519
-1353
-12021
-5801
4040
1543
1433
4373
884
4389
14248
8125
3158
1204
791
-7423
-5433
4609
6711
7437
4577
8697
-12264
-5025
-4245
1162
-3913
7331
6083
3684
5487
-3589
-3492
8486
136
-49
-10144
-3485
1334
-1270
501
-3827
-5802
5189
4545
465
1315
-9746
3054
7383
3220
-5831
2433
6348
2048
7546
-4710
2568
10371
2991
-3125
3968
390
-7407
475
-14099
9810
2844
-7945
17
2181
-2603
-5438
-1139
-5817
3205
-5203
-5236
12153
7993
7850
660
5965
4170
8997
-335
1809
9097
168
5116
1215
-3764
-6495
4500
1517
-7494
282
-1823
8306
2591
-4229
-7647
4005
-3946
245
8005
-435
1061
-7103
6053
-1200
925
2160
1827
-6578
3218
2769
-1488
-3716
-2435
5395
6050
1655
2007
-734
12559
-2038
-5671
-3604
-3641
-6675
3403
8009
-4868
3545
-2008
-3164
-9347
-9082
995
-4000
-2485
1529
2052
-2554
-4752
-4193
9544
-7281
-11544
911
-612
9539
-7006
11135
-6365
-6621
-9183
3478
-3000
-1756
-5300
-1568
5226
10307
-8303
-6797
5654
406
-14708
-6455
851
-3577
2655
-1464
-1920
1926
7114
1521
1269
-1312
-4958
-10134
3700
8571
-6654
7272
602
1181
6453
1415
1109
6570
-14204
-3234
12590
-2849
13876
10961
-5776
1375
-1635
-8199
1817
5980
-2318
1451
918
-222
1789
-6725
3846
-3442
25
-8402
4738
5178
-1632
-634
5543
-2014
-3113
-9981
-7935
-3177
-402
7046
-286
-913
816
-7821
-648
-2462
3376
10010
-4759
-60
9356
-4642
8443
-3628
2258
-9779
3648
296
-3078
-10178
2641
-9512
10388
7496
4245
-16624
4383
-18476
4872
8411
-12831
-13391
977
4370
13328
-1199
9610
-11992
572
-4692
52
-898
-9320
-9298
4340
6429
4990
-1705
-9363
-1291
7830
-3522
-15349
6201
-2541
827
8544
-631
2185
974
-26406
-17717
4885
13492
-2086
-476
-6251
9128
12722
-4022
694
-3875
5569
-5584
-3999
-3232
-4145
9595
-7331
2324
8213
-16
9122
-396
8539
-7297
3102
9463
-2313
-78
-6431
-1750
-8483
-3186
-1663
570
-5644
-8483
-563
826
-268
-6911
-3450
-11278
-11059
-1855
-5421
1495
3614
2622
737
-2405
-763
-793
-2772
-1002
-2890
1298
-2798
-6417
2047
1318
3444
3
7373
-4928
3094
5107
572
-2988
4968
-2730
-933
-2850
4153
4541
-2897
-952
-994
1632
22
-3404
5104
3516
3797
4854
-1008
-2654
-5638
-899
-5428
7138
1117
-1791
5020
3470
-324
1753
4717
-7711
1313
-353
7739
-1291
8510
5225
-2695
778
780
-6426
-3665
508
-2109
4149
-7056
3360
9544
-5412
-9074
-636
-2113
3459
681
585
-3402
1858
2278
-10
-8588
1204
88
2288
94
-2143
-2122
-8282
1276
-4609
-14663
-2668
-438
1906
4177
-6033
-4298
4511
-8363
3340
1824
-4051
-3572
-4594
-3267
464
1807
-5041
7902
3838
264
1492
459
-4864
-5095
7514
5083
-1283
3004
2618
-1557
1277
3122
-4687
-8322
-6925
908
-6085
600
9251
192
11336
3953
-534
-6230
-3770
5757
1780
2693
9134
353
-8061
-6081
3667
2000
-24195
16582
954
9871
2651
3999
-1310
-3688
-6245
10066
-6408
11954
6454
-428
-2048
1484
1038
772
-5421
2790
-5371
-3696
-687
5403
-1464
1930
-4233
-1772
10269
3411
-5895
9696
3053
-2080
-491
14
-1938
-4072
-22709
2597
-4860
-1726
245
5450
3631
592
16623
-4615
1593
7730
-10657
1998
5609
-4821
-11830
-2786
-13410
-4607
-9075
2273
-361
-1309
-7663
6980
-7435
-6033
-1077
8533
3890
-1958
12728
5867
-6383
4199
5138
-3329
-10168
-383
6122
889
-10507
8618
-5143
-6988
-7510
-3011
-2366
-5525
13814
277
439
-337
-1730
-6286
-3234
981
9701
-1996
5026
8583
12952
-7376
3018
4117
7052
9544
-4181
5598
6466
-11738
7320
-1597
-8020
2653
-12734
-4483
7524
3101
4679
5673
-6299
3760
5281
-9669
-4
-726
12914
-3795
1184
8736
3419
12973
8411
-1208
-5310
-1692
4149
10476
3470
170
-4304
-1764
-79
-2748
-2809
7848
1655
-6315
6143
-6455
-10889
265
8881
-3983
13311
1165
11137
-1174
6255
-4407
-274
11883
-1603
3310
-11614
-2019
-13199
-3967
-848
-848
-3584
11962
6857
-1988
5135
6802
5449
8048
1417
-2400
-2373
-5768
-2345
-3288
16978
5651
3219
-5823
-8356
-13158
9143
-7730
4850
-6763
-9636
-4279
10685
-2341
-17762
5331
-10896
6845
-11099
-1804
1883
-2595
-5061
-3273
-6016
5143
1692
-2421
-4569
3825
-7617
7140
-1638
8693
-12865
-2285
7036
1364
9356
5662
-1579
6723
-10643
4017
-2990
8460
758
-10577
-94
-2380
1592
3
5050
-2932
2648
-2859
-1094
-246
-1224
4141
1302
-3272
-1839
8323
-10058
-4714
-12556
-3198
-1629
2475
10815
-920
12690
-1138
-1031
2277
-4678
3164
9878
-10994
3164
-4321
2469
-12834
726
-6364
-10187
-3447
-1468
-176
-936
8457
1738
7448
6745
2954
-9146
8763
5883
-7516
-5801
3895
1746
-4416
2662
2341
816
167
-4873
2013
2759
-789
2369
1914
-753
10679
8491
-2708
7055
284
-1067
821
5449
-5057
-1352
2313
1989
2083
7042
-4461
4112
-782
-188
2224
-10832
741
-2111
-598
3316
1432
-2353
546
-578
822
65
-399
4724
-1738
6697
4760
-3565
-10946
4470
147
3197
2759
-603
-2566
5710
-891
-853
-1016
2918
-3509
3521
6378
3063
-5206
8021
-2831
-1215
6124
3555
5437
12089
1193
-12057
9174
-12939
7663
-10035
6542
11676
-1952
-1367
-6208
11471
-10570
3141
-9613
6138
13321
-5891
12432
4460
-8447
4491
-4038
8394
-4796
-2461
2569
-8183
8906
8070
-2037
6495
-1576
1183
-2517
-1867
-551
-2969
5257
2552
8249
2885
5111
11719
719
14237
8625
-10572
-3276
-229
2721
5626
-2841
6167
3225
429
1550
1733
-14493
-3001
9487
10867
2351
-7339
-4587
-8575
3542
17110
5330
1940
-8306
7162
-3908
-8611
13241
-5342
-20157
-4505
1919
-1074
3239
-5321
-10397
3399
3729
5681
330
-7206
2320
8198
-5989
4332
-1130
-7849
-11351
3368
-1701
7983
8144
5770
859
-7733
7280
5753
-3842
-5269
-2344
-3083
10308
-61
-3004
7319
11276
4216
-668
-6282
8076
2118
-3484
1473
-5246
-11776
-8412
-15102
-1145
10647
-15881
-3531
2996
5407
9877
-2548
15096
-9614
581
392
4965
8078
8221
-1080
7961
8406
5392
858
9196
4410
-1518
-3108
685
4455
-5720
10265
631
5620
7851
2289
4517
-2855
-12614
5274
13033
12871
-6472
-2543
-5721
173
-387
-3359
18586
3716
-17743
-4398
-3937
-3561
-3229
2339
-3592
8049
-3104
-548
5077
-2857
-4653
2620
7564
2989
-686
-4156
7637
1620
-5744
-3969
-13932
11944
4228
-2388
852
3363
10824
8176
-3833
-37
11974
-3676
-2488
6236
-6942
3602
2934
-1989
7297
20196
-5980
3883
9162
-1593
-4738
1415
-2168
7445
12157
-62
8208
-3695
828
-18394
1745
-4802
1906
-2760
6665
4017
-3887
8505
6861
10054
10193
-5575
245
-9321
14996
5568
11948
-1321
333
18331
-4120
-14250
-123
4948
-2765
5852
-8605
6040
4564
-1470
5670
-1052
4657
-5536
4012
-16781
3200
-1227
-5015
-489
-1286
-8192
5925
8510
-13839
486
-13848
5854
-6816
9419
4094
2891
324
1911
5578
-11225
6610
10553
4157
3122
-6222
-223
-4756
1544
-6422
-5588
-3733
-3765
-9413
9580
15318
952
3286
422
5317
11213
-545
-6707
-2560
1205
-4087
15465
-9180
1482
-2933
-50
-4844
-9666
-2499
-11559
-15107
-2394
194
-6972
573
1979
-9754
7794
7754
21047
7872
13806
9035
-9141
-661
-7906
3675
10004
4094
-915
-4635
-7734
-1528
-1494
-7382
967
-4053
-8645
5120
2265
-5225
1850
4534
-1109
-8268
-10317
-2647
-4925
-18532
-7730
-166
9477
1019
3682
3533
18711
4797
-3456
-6919
7078
-15804
-11298
-9059
-913
-2411
2352
4709
-3737
4488
2151
-814
-14492
-11506
2455
738
23
-17719
-14056
-7046
2181
6370
4648
-13004
6820
-4980
11094
3805
6842
-8642
-9940
676
-570
8128
4814
13569
883
1630
12159
895
-14880
-14412
-9222
17913
12362
-3598
-485
-14052
-3328
9123
17754
-7949
2436
-1362
6772
-2123
-4848
-9845
7765
-8777
627
1905
1725
721
9194
-9132
2611
9222
13558
2217
7238
4551
10531
-4575
8916
-8934
-3113
4717
8067
390
2909
-5658
4930
17339
-16138
-5927
-4563
-15275
-15585
-8466
-5448
18568
-8275
-96
-8727
13014
-3476
-4933
-3649
17723
18331
-2449
1332
1925
-10437
-8242
3403
-12138
2450
-5169
-3178
-1262
-12752
4931
8767
-16263
-11953
18837
-1321
-5692
8750
6717
9321
2470
-9298
8813
-12500
-6553
-11189
9397
-3768
-3616
13025
262
18133
-6923
418
5091
-2679
-7571
-3192
15507
14709
13784
-675
2443
9489
-16899
3491
6116
-9752
3652
3128
2391
370
3632
-5900
5129
1562
5527
2665
4783
-4251
8726
9572
-50
3596
-4660
1293
-1452
-5763
5861
986
-5006
12117
288
-258
8402
-8545
127
4011
4975
4747
-4101
-570
3681
30
2393
-1853
1220
8932
-1152
-6952
2353
-148
-911
3757
-2801
1939
11377
-3532
6454
4656
-2003
2504
6394
3185
2514
-10178
1265
-893
6381
1781
970
-733
6281
-4126
-5418
1851
4231
-4128
-3555
4953
-2634
339
-5503
1741
-10220
-1845
6361
2238
-7509
1184
7473
5764
5263
-8869
1790
50
870
1363
3392
-8949
-4660
6470
-4722
556
3636
6130
6613
3212
1260
-7275
9643
-1316
6140
3255
5765
6323
-920
135
1317
3069
-5084
-1267
1672
-36
5132
-9501
-674
-1608
6954
2905
-7115
5238
5290
4271
-2898
12545
9303
-5078
2115
-7564
-10054
14879
10786
10601
16018
240
-13659
1103
8348
-6829
3479
-1127
-987
-1553
2708
-2194
3019
-2195
5633
5183
1890
-3793
12068
-2947
-1124
7810
-16469
10473
9976
12335
-7571
-1623
-5570
7268
2722
-3824
10164
727
-1171
-967
624
-15730
6418
-8349
-1877
10321
-3371
8591
-2967
-7339
-1450
8754
11557
-4448
-367
1170
13059
-12365
-5270
2898
2474
-1286
-765
-12380
-7835
-8537
3
16975
-12583
5758
-15763
2050
965
12636
14781
7494
4422
-7515
8983
6732
21255
-3544
-15888
678
-4207
-15383
-1330
-13624
-15901
10031
3568
10163
-6010
-10671
9073
6725
6141
1009
611
4962
-3681
255
2259
1493
-5876
-796
-13966
10371
2384
-12395
-5421
-11099
1244
7085
-544
14770
5466
1457
5323
-6027
577
12455
6579
4387
2321
-1160
-1688
-1064
-2345
-8967
5486
-1583
-3094
9793
-5272
-1472
3301
9504
15087
3278
-781
7737
8411
-439
-4754
-1315
1048
4191
847
-3324
-4342
-1712
3222
-4400
-1453
3436
1153
8888
1621
-10011
4977
5994
3392
-4420
-1620
-10590
10601
-448
-635
-3041
36
-13209
506
5193
-3551
29657
-7219
-4837
6541
-4931
9419
-10229
-4744
6077
-3632
-1461
-1567
-1827
2548
9335
14340
4038
-4050
-15928
-1542
6543
7385
7838
-1135
7938
-2638
-3953
-9149
3237
-6626
1573
-9261
7513
13938
3805
4264
4567
9691
-13659
-14963
2154
-15838
-5480
-2302
-1180
1327
5245
15753
8761
764
-5640
1777
8930
-10316
2756
-1854
-8107
331
1020
6180
-4757
14047
-6189
902
3835
2322
-8488
-6916
-2306
2946
16042
-8994
-502
12059
-141
9264
-455
8731
8854
216
6689
-314
-1271
-4666
-3984
-9233
346
4544
14384
-2819
24
-9412
-3565
-811
-8028
7045
-13875
1183
618
142
-10510
3464
-5622
-7166
-5413
5586
-6698
2781
15569
-219
-4448
-1093
-10040
-4637
-8450
-5920
473
-5269
-641
3526
-1183
-3553
10569
2953
5608
-4328
-2806
-4325
-3298
-2154
-6742
-8071
3278
-7748
-12929
583
-643
-369
17420
11711
-6603
1573
-7316
-2897
-9016
-6602
-15582
-8320
-5181
9574
7122
8232
19341
4029
-4062
9736
-10403
-7250
1378
-2133
4919
9748
13532
-14275
2847
-4997
-11167
6050
-2285
13009
3625
-8193
-1911
5832
199
-6022
-5284
-13005
-12137
3591
-2119
-674
-9755
405
11824
-8061
-4961
-8780
-4916
-4511
3493
1243
-1838
-4423
399
-211
-3157
-3361
934
2599
941
7897
3484
-11043
-5902
-1470
-2196
-9460
8920
4386
-1123
3612
-16808
5881
10905
2193
3215
2449
3682
6167
-8392
-2846
-142
10942
5000
-2345
5159
4891
5733
5957
-2251
-9082
9930
-11033
-1585
6126
7039
-5285
2351
-2412
10771
-5429
2391
8121
99
869
-9733
10549
-7076
-7028
1598
-1043
4941
1484
5579
13015
-2176
4247
1344
-1962
1473
4351
14182
-10434
-75
-7970
-4636
-5882
-10848
-1038
4358
17302
-4390
-8657
-384
-2783
-5855
2797
16083
-797
5274
-7466
2582
-3214
4112
8194
-418
-396
-1179
-2274
-2124
-972
7194
-3577
-1358
19302
-1223
-620
594
-6760
5404
2367
-8794
9246
-2065
-3039
-444
6363
9270
10148
-2458
-7189
7813
-1825
-6304
14437
5409
3773
-5914
6102
-5818
-6641
4977
-353
-7475
5163
4166
4945
5615
8185
551
-2921
1107
13432
-4544
8782
-2314
-11601
7376
-2736
1170
6713
6837
-1373
-8271
-7289
1434
-11208
-4964
-748
-1203
-9607
-7200
6299
3972
-7092
527
10861
3914
4236
1133
-5734
-10240
-11606
-6447
2095
-567
7067
-4678
4453
2560
1369
-1753
8675
1576
595
-11697
1513
-21426
122
-10750
-1606
-1710
2497
-3149
-519
11706
-45
1736
9720
1341
-1015
-13628
-79
-467
8272
5855
2450
10182
-6185
1431
-2767
4666
15489
5771
-1552
-3073
-102
-5925
-6362
-5567
4894
-6860
-6404
2146
5854
6437
-7523
3332
-7928
-7405
2632
6673
5672
12667
-3422
-2217
-9289
9005
2677
-5050
1376
8595
-8755
-10493
7174
-2884
8187
7152
-4788
4866
-11674
-144
328
10827
841
-6779
5208
-9517
-3645
-1802
11289
-10750
-8300
10665
-10987
-4182
3668
2746
2174
-119
-2254
-4895
-5789
-2824
12452
-11587
3332
5510
-1668
313
6355
3644
-7709
-9460
545
-6641
-2340
-10455
-12501
-6028
-2980
3138
-3081
2064
-5032
2143
-14642
-1284
7078
-17538
-1360
11613
-778
-2189
-5556
-9406
10925
-9097
-10389
-9193
8825
19223
-8811
-8530
3001
1194
-3525
-495
2451
1171
-12765
-5102
3286
-5757
3323
6374
7395
-8319
-144
-6878
6618
4723
8879
4192
7229
11288
-11171
-6862
1777
-2679
-6726
-8465
-6130
9218
8602
-7980
-2167
15454
-11285
323
-13380
11554
6533
8671
4400
3670
-1393
-7779
9573
8474
9027
-23689
10457
2986
1657
1432
2231
-422
-7161
-8164
-2909
-1558
746
-7695
3582
312
-15036
-3889
11172
-7877
11014
2166
-3729
23081
-6264
394
10725
-10561
-2275
-3703
-13716
-11207
14931
-3738
10134
-3085
-8068
7267
-2031
-8052
14187
-504
6870
6435
2806
5058
-7241
-134
-12301
4391
9126
-22
-5960
1598
-14354
10291
15599
4109
-7342
-9256
-662
2432
6950
2006
1017
4982
-3119
-17446
-1031
818
-4354
2109
-5447
9472
-5957
-1672
403
434
11148
-3877
13876
-4436
6522
-2214
-6026
16510
7322
913
12024
597
-9530
-1494
4316
-5910
-5248
-8740
1445
10178
11843
6961
596
-6843
-3849
9084
-1746
-5093
-3474
-12941
2903
16627
2598
5786
-7563
7269
-12742
4914
11166
-5057
16734
-108
-3719
6436
-12438
12930
-1437
-7634
6568
3544
6540
6100
1313
12953
18079
-4540
-10570
13555
304
8953
7261
-12206
12046
9364
2832
1340
-11960
11965
-7058
-9068
-10919
-7773
991
-5227
-3074
-17230
19767
12087
-4819
-7990
7570
-3963
4756
-4209
3276
14140
6418
-582
4459
-2899
-1863
-1013
3747
9316
3314
5829
5621
2066
3463
3812
6087
6049
-6540
10468
1702
61
-4070
-6463
1229
-387
-1398
8546
-11566
-1727
4606
-1806
2872
-3039
-2934
-8879
-5589
7147
9701
-3490
-4949
1600
-699
-1437
-1481
-269
-4451
2516
-6033
3480
4504
4339
-2350
-2163
1667
-1380
-4012
1054
-685
9286
-1273
2228
6121
4002
3477
3085
7756
-4720
-59
11727
2797
75
-1504
-7205
-3497
-4137
-8466
-2522
624
7334
-5012
14593
3612
7177
2738
-703
-463
1039
-1162
-2674
-4070
10428
-5119
389
3675
-1412
2121
4244
11557
1617
2553
3472
-4445
-3740
-1659
-12486
8757
1743
1011
794
4868
6098
6110
-3347
-255
-3328
-4716
5007
5039
3773
-4523
3755
6271
3369
-10298
2746
4977
-3365
4954
4984
2514
5232
-622
301
-6080
12917
-22
-1570
3277
-12562
-10991
-4091
6003
1012
8689
-1557
1375
-2011
-1351
-164
-5743
-11610
-893
-2751
879
11033
6514
-11167
-10053
5483
45
5625
1135
660
-1755
-2784
-2823
-6193
-7614
2929
10112
4001
-9690
3080
3999
-1602
-1510
7665
-3417
4870
2796
-1462
728
-8278
18151
3608
-1085
-11463
-1209
-1812
180
11353
5427
-9906
1426
301
-4548
-4078
5535
4858
6015
7667
313
6664
1979
-1491
-664
10014
4102
-6265
-4528
-7263
-2301
-6751
-2428
-445
-334
-8522
10603
2822
-5290
13356
5904
55
-2391
2384
-14799
-10180
-5261
-9338
4073
-3885
-7088
-21
988
-9293
-1677
-789
7215
6934
-8470
-349
8614
8744
-5826
-2793
9473
2786
-21600
11928
-34
745
-4593
-234
12907
5170
-1414
-6252
-5252
4044
3974
-3846
11948
7007
-7441
12375
-2510
9108
-14264
-9837
-9488
5263
5181
5670
10659
2172
4089
8724
-11201
3703
10630
5404
1768
-4269
11161
19477
-1226
445
-17853
-1194
-5604
2037
1224
1109
-886
-13841
14749
13112
550
15103
3888
-1224
1665
-2092
-3242
1691
-16812
8417
11234
-6357
-4675
4553
-8253
-21577
4084
11519
186
209
-6983
-5512
-443
-4357
-3922
-10340
3764
-2123
-2434
2806
8504
-9281
-5330
23719
479
-8648
-9399
16921
3364
-3258
-20739
5874
-9766
319
-12875
-9303
9021
6608
12389
-2228
6751
4265
-8242
-12570
153
9236
-6281
-7914
2371
4604
20059
-4547
2965
-3931
7343
-4329
-1480
1092
-1630
4793
-5165
2413
3955
111
7697
-7098
652
-6922
13328
-4994
-967
9835
9384
37
6326
-3835
-2499
10520
7164
3490
5269
11025
-5447
6277
1035
-2929
-6277
8054
-6346
2055
3728
-2492
-2426
2512
-5237
-4464
-3366
-4799
-88
-10111
-4732
-13451
-2269
2788
-2522
3914
4401
1699
-2116
-465
11377
8010
-5090
6664
-7221
-3070
-6114
-3000
2238
-9078
-9657
574
3203
4857
-611
2561
-554
1227
-9157
-4284
10299
4901
-816
-3422
5165
10688
6302
-642
2150
2091
7490
-166
6624
-247
2652
-3342
-1992
-2235
-2030
3113
-3736
-6723
-5242
4832
4916
-6148
7807
-8137
-6946
-3646
-7833
-4555
5784
3751
586
3137
2387
6499
4927
-3296
12863
7975
-1833
5441
5259
-6254
5991
8556
-3832
-643
2493
752
-1330
3399
393
-9908
353
4258
2549
-1841
-5445
-1445
-2264
2432
-9013
1718
3721
6037
-235
-7067
-2505
-6448
10744
2738
10717
-11223
-5806
-3150
756
2480
-3363
-1612
-4803
-6897
-11700
8910
-4680
1320
11115
-9519
-1190
-3669
82
4707
-1178
711
5820
-6544
-5427
-5821
-4870
-6645
-9649
-1656
9570
-4181
1698
-9627
4529
-5420
-3441
-3454
4005
-10530
6669
-1366
-10532
-11663
1504
7488
-2825
4323
-408
-12890
-11752
3266
-15610
-1923
14440
8298
6138
1494
-4758
-397
11421
8491
-7235
-4615
-4083
-5218
-5892
-7036
3905
-8196
-2754
969
-8260
329
-11714
-8213
1511
1394
6583
-8616
5830
-10843
3118
1653
5556
-890
2109
2750
-5672
3945
3224
-15415
-2631
-4814
4950
-9485
2491
-7940
15771
-86
5079
-8323
-5271
-4995
2259
-2679
6495
-5597
-3135
432
-11357
150
-9061
-5775
-6331
8278
-15673
9670
-2738
-6475
-9755
2022
-6276
-1345
-5507
-2162
-4132
4285
-4599
-2922
-11250
-1707
-12929
-6360
5884
4021
1816
-28
9224
-19606
-5378
-4599
2636
2738
4388
8833
-4977
-2046
226
8417
2968
4779
4228
4805
-582
-11414
-7047
-8821
-8918
6666
3093
18251
-2644
3673
8686
-657
-2146
10607
-5894
558
5438
2624
8753
-10509
9200
2642
-1055
-20776
648
-3632
6285
9208
-1897
603
-1437
3015
6431
-9813
6094
-11262
2402
-16350
-2378
4221
-14036
10906
1116
4721
-5094
-14254
14889
-6431
2196
-2854
-2483
2043
-1895
122
-3657
10079
-13743
-736
-4227
2086
9145
2347
1797
-10398
11611
5949
4206
3130
8693
4019
-5801
-1895
5026
1731
8243
-14947
2443
-15165
7856
2625
-5361
2027
-2499
-2818
3865
-5564
-990
-4836
-16234
-1238
12252
1506
3122
-4184
5599
-9175
8689
-6800
1055
10302
-2443
-20661
3879
-9831
11204
2581
1865
3267
4203
9716
-4318
5033
4625
-7890
-3228
6192
-1810
-9354
-4419
-5338
-6044
9218
3446
-1334
14380
-4896
-638
1357
3127
-12697
2697
7972
12147
4984
3652
-12319
-7458
13420
1771
-16591
13105
-5208
4644
2637
-2543
-4058
-2332
-804
1976
93
7566
15909
8898
-16200
-1435
-2568
-7224
-2355
-13704
-3632
4242
-4848
8896
-1205
-20846
16386
-574
8594
2024
-2252
-10437
2583
-1484
25311
3560
-13308
-643
-6778
13064
-7658
3967
367
-4200
4880
8303
-609
-5308
-3319
6556
2899
18468
13399
312
-7503
-4267
5097
7191
3775
2381
5804
430
-9540
-13073
14846
706
3913
9090
-10322
-8899
-15208
-11248
2624
-9634
-1213
-3886
-15165
-8107
-1893
-7631
-3975
-7462
-8951
-13566
-11761
8491
-3395
-5718
-5449
-10206
11079
-14023
6002
9594
-544
3375
14515
-1402
10741
4289
-2588
11573
963
3709
-8991
-9818
10286
5326
4247
-366
-5706
-9427
-6674
4433
2858
-5642
59
958
6614
315
-9681
6186
-6283
9309
2384
10337
-7795
3994
-12663
6102
1050
3176
-1177
11209
-6467
-7077
-7932
-9613
8507
5301
-8060
12683
-11264
-2472
3433
4957
-5627
-1714
-14583
3893
4366
5626
8250
-4522
-14596
-247
9388
-3332
9039
2827
146
6886
5576
-797
12529
4481
-529
-12167
3196
-6203
-7556
3822
-13508
4324
-8125
5199
23192
-2610
10188
-2841
4287
-408
-4046
-1371
-2315
9036
-907
-2129
-5535
-10754
2850
10403
-9399
-930
9985
-4067
-17263
-17791
302
4157
-4186
-6791
2543
6129
-3552
-6551
8758
1068
1040
2566
-627
-36
651
-3352
-1116
-6830
-2600
458
-704
3426
6971
-5468
-26
6092
12515
-5
3236
-18761
-8478
13296
1208
-4573
98
14808
10719
-4803
-8859
12027
-4103
1428
3687
7796
-18766
6068
-9133
3196
-8946
6689
-12540
7742
2508
171
10161
-5454
-6567
-5074
1797
10771
16725
-3824
-4763
-2503
3548
-7497
10501
-6296
-4977
3143
-12747
-6149
-8230
-6641
-4728
13548
12695
-907
12020
-2584
9379
-7069
-1201
-448
-9117
4812
3683
-215
8932
-1003
-15354
3027
-8745
11660
3055
6549
4081
8824
-2312
2235
681
-13077
9852
2276
7986
4079
16023
11850
-5592
5368
1437
6647
-10260
9837
-2493
-6465
5421
-7235
4952
-6692
7240
-1630
17252
9874
-5883
-5123
-20005
-5590
-2570
-3329
3789
8745
-11580
-4961
-1678
-24770
6592
6137
-2486
-6302
5926
-5648
-1810
-3820
-3644
3709
-6296
5071
-13061
-5753
5143
1136
-6173
4274
3332
10518
-715
3063
-10450
-9016
-9767
-10528
10553
-13883
10178
-1724
-2240
-1727
-1301
742
1694
-8361
3043
-1672
-3157
3727
-305
4539
749
-3416
1372
655
-11696
2164
-6358
-694
-1420
-12082
6068
-13275
-11033
-13940
1181
10748
8757
3287
527
1346
-3102
-13692
13529
-10399
1444
16433
7164
-4544
-6281
885
-7998
3150
-6455
5132
-2945
14753
-12149
-8674
5421
10055
-3016
-5560
2469
5080
822
-2134
-3687
12452
-4938
2051
-7175
8014
3055
3506
-1299
398
1437
166
7219
-16773
8120
-1890
-5390
2905
8111
-6047
12155
4538
4100
-8796
-6253
-3443
-4206
-13913
-7758
1542
6018
6379
-4644
2331
4413
210
3334
4604
-177
-11383
-9824
-4426
-114
4763
3903
-3190
-16021
-13795
1475
10015
-1438
6346
-15224
8230
-4190
7760
-2899
-3574
4514
3846
-4989
-3521
9189
-3932
17243
20228
-1437
5543
-9009
-4492
655
4740
903
3596
2043
-5180
-1391
9937
964
-7634
-5351
-13018
4351
19683
6296
-8715
1509
-14499
-2015
3535
-6381
7266
-4862
10357
2145
2491
7087
3545
5107
-2153
10887
6838
20682
-6771
8490
9902
4527
-2265
15587
-12771
-2481
-2220
-4921
1144
-3660
5441
11725
-6433
1631
-4253
3268
8275
-531
-6944
4466
8010
-201
-7594
-442
10938
-16492
-4326
-3511
6574
2539
-3478
1792
-314
-1340
4328
-13515
11660
-5269
3681
-13577
10038
661
12651
-8081
2494
3041
-10378
-687
14390
13528
-9030
-16586
5063
-9023
6181
1366
-10573
2052
-723
11086
-3212
-2513
1872
1319
-753
13340
-10089
-3809
-779
-1433
7255
5205
4501
9060
-7515
9181
-4722
15643
10054
15933
1734
-6622
7128
5633
-2596
5959
17938
12108
21780
2595
1100
-6465
396
6816
12911
4046
-9171
992
7783
-258
450
-8570
5450
8699
-11669
6397
-4866
-4404
-3162
-6154
6240
-1028
-7367
-1269
-9050
1614
-4431
1633
-6977
-5862
2900
4076
-6352
10845
1363
-14515
9762
-1921
-8330
4750
-5534
4571
7693
-6282
-5728
-529
12852
4727
-4870
-4918
-3218
-182
-2852
-8377
-7040
-3356
3772
-4444
-13491
-631
5185
-7442
-634
-95
5938
6363
1909
8710
2936
3073
-4727
11756
-5079
-8481
-8929
-12047
-19393
11536
2004
7136
7575
-8500
4031
-2344
8901
3241
10002
-2887
10735
4073
890
-3500
-1851
2796
5469
479
1216
-3605
13044
8862
10374
-186
10198
20185
5587
-5018
-783
685
-9222
-3131
14809
-18909
2813
2478
19569
-4073
6726
5121
-4080
-18482
-3202
-2727
-123
12999
-468
-2436
-8845
-11677
-3414
15958
-4250
-9704
4311
8117
5384
-2107
-1690
707
7921
-4610
-10847
-1557
1257
-12046
5499
-11988
152
-9374
-8355
-3860
-6029
-1415
-1050
5722
-2745
2647
-11290
2766
413
14477
6309
6292
10938
-1698
10217
5167
-6571
2488
4393
-1053
-1756
35
-3103
4381
1255
-13126
10018
-3944
-11414
-2327
-2360
5827
3092
9150
-8128
-4909
-9374
-15838
8813
-4278
-479
-6727
6755
-8486
-4446
-6310
-10929
3087
-969
12933
-382
-3099
9502
8817
-3026
9372
-7469
-15843
5494
-6853
-688
-11343
10927
-3431
-7582
-103
-6374
8856
7890
-6069
369
-14472
7943
-2926
4832
-2863
-593
1657
3015
2687
-342
2645
11654
205
-984
13641
4392
6946
902
-2632
6151
5205
8220
-1031
-3561
5223
8737
-6605
-5562
-17598
-2353
-3477
12893
-9371
-11664
8171
9055
-11298
15181
-2297
-7746
-7042
8958
-9951
-2469
1269
-9871
11868
12755
-19691
-2584
-10721
3350
41
1606
5765
8139
-8225
-394
5933
-194
15461
-7423
14070
-5919
9119
-7326
-5728
1178
-2150
-4580
8890
11921
4780
-626
-26326
-1509
-256
14621
7563
-2409
474
11013
1227
-8098
9173
8412
-353
-459
-5480
-893
6592
2436
-1395
-8405
15934
-13229
581
9971
10972
-2814
622
-7945
4921
3942
5545
204
-5186
-6030
5699
-22104
11127
5691
-3372
3538
-7887
840
911
748
6575
-2410
-6586
13583
2397
3587
-1226
-2149
4979
4066
7451
18639
-5050
11948
1934
-6197
7836
-6256
-9532
6333
5559
8490
3185
-11707
-12919
-4276
-6388
12630
9724
17134
-8621
-4837
-6279
-707
-6566
8175
12477
11253
-651
2160
1603
4297
4678
3666
1595
-3773
-4148
1876
10597
4616
4241
-370
1356
4296
3157
-6022
11941
-7900
8815
2562
-3929
-6445
6284
-2001
113
-11470
5747
16282
4276
-20405
-18
986
-5302
-5120
1059
-9845
-4623
17058
462
-4183
-3467
2711
-6065
5489
1429
5980
-3854
11552
-13430
2050
1232
2904
-8205
-6727
-11222
7011
-10738
-2919
-7629
4454
10950
6572
8567
15395
-4797
1009
-6435
4754
6247
694
-10480
5981
405
11
9602
-4334
-5343
-3192
-881
11247
5331
1616
7981
2365
-709
10343
-1397
-59
-2632
-6744
-2226
1934
-6672
-4264
-4504
4077
-4305
3229
8040
-3728
9022
5795
-995
1241
7087
-12231
-7373
-1663
374
-1155
-2517
5435
3371
203
-8692
2147
-1967
6866
-5288
5968
-4626
7773
-14842
-6354
18837
15979
-1039
2732
-6628
-10471
9823
-3539
-9100
-459
-1961
8684
2264
-6901
-2475
7298
-7917
785
3398
-8703
4315
-2772
-3676
8542
-3911
887
19945
-893
2661
-1063
2056
2306
-5037
-3146
15648
-8223
7711
7088
-10391
445
-7562
-3737
-8693
11573
-10915
5256
4813
7345
5106
4753
-7322
-49
-292
7239
-11493
-6952
-5847
3865
12139
-3236
18431
-8285
2746
17991
-6118
-1161
7195
12469
24065
-6254
-2889
-1232
-7731
-14905
-2914
-730
751
3777
-749
-10268
5936
-10610
5236
4653
-1600
-8432
857
545
-572
-4428
6196
7739
17061
10379
-5085
-6312
-6514
7931
-7256
10624
9348
-7559
-15593
10334
8168
6685
4857
2847
2079
-865
-8514
4231
5825
-3303
24110
7093
-2083
2994
3053
-8784
-11182
-4237
-2895
5578
605
-11163
3194
-7424
-5919
-2834
-316
3009
7967
-6240
-3561
-1356
8394
8359
-5214
-9235
12386
-8433
4872
-6702
-14485
-11804
-702
-6287
-5255
-5021
-3770
7671
-8460
-1101
2159
-2043
6183
3454
13464
-5897
5787
-11934
8477
-860
-15153
-1399
3721
-7874
14216
-4786
-10463
3593
-18390
-2226
743
4118
-11263
-5976
-3219
7315
20257
3230
-7220
7919
6335
6897
-8178
-241
2149
6831
-12776
7711
3086
6669
-3373
-11839
14906
1150
575
13837
6253
10657
-47
889
3649
-1800
58
4986
11044
5
-4354
2929
-9659
-8566
-8940
484
-8836
-12732
3496
6637
-7279
-1171
1163
-2757
-4858
-2609
34
-993
3738
-572
-1993
6344
19505
375
2268
-15982
-16466
-3952
-2125
-4261
14809
6330
-419
15252
7535
6255
12521
-6490
-2226
6026
7540
1544
2457
-13881
5576
-5144
-1292
5969
-8407
-9358
3884
-6135
250
-1475
7647
-9370
1385
810
-3727
3088
8434
4008
8861
3339
5155
-5382
-1868
2752
-5413
-114
996
-7342
-7980
958
-8434
11971
-12613
20106
5237
3552
18891
5933
4167
5124
12977
-6137
-14403
-738
-7466
2914
-1407
7120
-18251
-3137
2600
-8746
-4357
840
-2356
-1508
5955
-10938
-5829
6556
-4168
-5509
8321
-11400
621
6876
-1821
243
878
-4936
-3642
1858
3288
-10110
-12855
-6205
6712
8313
-537
-4057
-4899
2980
1292
2515
-5852
-1389
1113
4937
2798
6758
-15699
-8259
-9168
-5027
7034
-3088
-6684
17157
-3830
2086
1478
-4868
-810
817
38
-11375
-315
-5616
18034
5768
-5411
-18064
-2654
-7649
-14295
9602
-1860
986
2166
4958
5219
-2552
-2136
-8319
1733
5760
9496
-58
-4719
-208
3094
-1854
607
5017
-6914
6198
613
-6926
721
-1703
-1356
-6693
4897
-1957
-1671
-1150
-1908
-6408
823
-1003
-1233
2265
-79
5739
2271
1440
-1191
-997
-1067
-5579
-1005
-3993
830
394
502
4212
2467
-910
5914
2855
6179
-1980
1359
-503
-3014
2371
570
936
-8601
-2948
-115
2171
-767
1318
-7622
-1063
-4824
412
688
2663
-1713
-333
-1944
-5740
-1286
-2459
-1977
976
-1322
-4216
-935
4110
