-12095
411
-1637
-5484
-13059
-7238
-5232
-3708
6341
9663
14670
4423
710
-10266
-8757
-487
792
5161
4324
11962
2308
5068
-7021
-11854
-5207
1030
1742
56
2654
1609
-598
1843
583
-6640
-3381
-922
-6285
-542
-4679
-3694
1924
3291
2382
-4121
-2290
-1465
-5784
-4117
-1690
-925
-346
3141
-872
302
818
-3129
-5568
-6321
-11554
640
-2850
-3783
20845
3800
-3438
-18094
-1787
-12561
-1785
20279
21034
3431
-6956
-32372
21606
-23321
15954
12983
-1831
-14918
-13208
-30497
20784
-8665
29151
-1950
-18639
8143
-7899
-22754
16096
27706
-4692
-1409
-2439
3519
-5079
8823
10155
6563
-6308
14589
-1217
-13820
-15380
-1096
-633
-2934
-5648
5845
-652
9137
2056
-2960
-7542
5975
-6527
-10895
4823
2813
10018
2843
6471
-910
-6281
-18241
21227
11982
2019
-20179
-18894
11561
12564
25725
-25456
-8397
-3169
7396
8571
-14105
-3390
12342
6085
1036
-640
-13064
1501
-3943
17770
-10043
-11412
7623
12523
-1719
-9959
-14821
15470
-14738
22266
-15701
12948
-2411
5309
-12497
24563
-11734
3990
6480
-20462
12099
-962
-13293
9503
-101
-11544
6648
5881
-4842
-9315
30407
-31489
13855
18876
-32767
16947
4181
-4548
5106
10010
10045
15264
4505
-6895
2586
-7853
-10501
-6044
1466
-5366
-3108
-212
-6518
-5668
-14336
-4943
-581
2228
5277
11796
4894
4887
-9021
-2748
3775
1564
-3670
4536
-4010
-8061
-6999
-619
-1443
10831
5636
4698
-771
-3078
5072
8363
4466
-43
-2288
9542
6856
-7169
2698
733
3541
521
-4840
-7634
-8253
4755
1743
-672
-48
-10924
-9573
380
969
502
6442
-8758
4497
-658
-6527
-5270
-4386
133
-442
3927
11538
5322
8892
12438
8606
5095
1240
250
2152
1777
-245
-2448
6126
5974
-1527
503
-4021
5094
2962
4471
11003
4588
1368
6795
-2206
-6007
969
-4776
-2414
-4389
3168
-8246
8285
-3499
-6235
9815
-8746
-4690
-9397
6026
-16855
3613
-9461
-1152
-1170
-4146
-3609
-2919
8040
-4959
7798
1745
-4753
-354
-2377
2477
3342
-14094
-8437
-3482
-7726
-1429
4840
-40
9770
4738
-4467
-4192
3612
285
-2436
-377
-4793
-10499
1920
3698
-94
-7165
-10265
-5188
-2304
-7418
-7197
7040
-3910
7273
10834
-8400
4060
11323
4274
-11297
701
-11993
-3223
-4754
-407
8024
-14130
9217
11127
10028
-6307
1863
-2690
-17645
6499
-8623
-733
-9055
3530
-3390
-10417
-628
-11915
-1644
-8570
-239
96
5045
3594
6173
2831
11358
2582
15829
4860
3662
9619
-6151
-4047
4269
-2900
-33
-835
-13997
-7242
-5994
6562
-1783
-583
-1273
1230
-6465
-4367
1575
1813
-12822
-7728
-7348
-3573
1478
-2587
10275
-3605
-11881
-12123
-3334
-12508
1571
7690
-611
9980
1061
-1424
-11149
-11437
-1052
3769
15552
13077
-3758
2273
-4633
-2772
-4455
1227
1963
2386
4553
-1924
-3110
2099
-6162
-3365
-3151
7514
-386
3189
-8187
-8207
-6369
-421
-10192
-3399
-5980
-9160
-43
1984
-7588
-5093
-1851
-5585
5186
-8636
720
6612
977
-11165
-17
-3083
4492
10531
-2401
3693
-1142
460
8223
3925
-2200
-1395
3269
1574
3389
-5142
-6031
-11450
796
-17021
-3035
446
-5120
-7168
9132
3918
-5563
5247
-12819
-6725
-1900
-9208
-6582
4212
-3453
-4981
4444
2806
-6530
-2025
3554
-12003
-4847
8732
-6199
6311
-572
2848
-1931
374
211
-5649
-10054
2125
-4292
-8812
6947
-1264
1527
3376
-592
229
-3855
-6128
-3802
1639
1311
8772
4604
8519
3895
-5981
-5043
-16383
-16783
-8843
7617
4734
7312
11514
11830
12459
10567
-7696
-7077
-8178
-2342
-10501
-3133
-8931
-1736
-9779
7632
9649
-11964
1596
1616
1638
-9285
2093
-12463
13408
18470
4583
19132
-5920
6333
-14075
9125
-16356
16301
1899
8664
-11731
-9105
13827
-7124
-14121
-14261
-2149
1474
1770
10209
9682
2253
6895
2044
2986
-40
-1143
-2976
-7045
-3433
-11545
1046
-10976
-3762
-1994
890
-5810
-3366
5908
525
856
2772
6147
2426
-3339
-5244
-5755
3802
-4174
-3333
-7760
923
-1404
2124
-7313
-10578
-4006
-7486
-105
-825
-2578
-3296
-8253
-5107
1281
-7999
-180
-8917
-1019
-5038
7716
-3118
-1379
-7093
-1711
-2129
-1271
6415
6102
-667
12547
6310
2751
6155
58
3637
-2339
3201
1617
2373
5256
-112
2148
462
5551
2107
1171
3570
155
-1868
1173
-2661
-6262
4481
891
1373
669
-410
-8074
5647
-482
6400
4159
-9637
-8036
-6630
-7982
-13685
-10399
-1911
-1344
589
5751
271
2946
4354
-10835
-1622
-3633
8720
1874
460
-2112
1478
-718
1069
2534
-1523
6790
983
3647
1523
-1460
16300
-1782
1665
11193
-12461
398
-10694
8099
-1811
6285
-10214
8729
-3119
-2897
7470
-1464
15933
4360
3357
-2425
9065
-11830
-10345
-1988
-10194
-7351
-1649
-95
