-6692
-9228
4223
-10806
3908
-6465
116
-7036
-5755
1979
-2532
5161
-1392
-24744
-1819
888
-19460
22068
-13073
-5072
4599
-5896
-7110
13129
-5482
-1217
-16915
285
963
-1920
3223
4557
-17296
-2227
9530
2456
-7373
3804
-18191
-1237
-12029
-8857
8498
21427
7512
20266
-3512
3619
-2318
7087
-7940
9617
-11616
-12473
-10230
17020
7912
9171
-10524
-12699
228
-21114
3897
-745
1742
5882
21153
-11793
-2051
1100
7696
-4113
9545
-4657
-5306
-7350
5653
-8574
5906
5691
-14742
1729
-15315
10653
-7130
20262
-5885
18648
20022
-3797
381
2654
-3907
-6159
7706
8333
14444
-1566
6516
-14118
9940
-14718
4909
5333
8089
-12401
-11643
-2242
16792
7288
11620
-3651
-228
-12748
6551
13804
-4159
27615
-9991
21260
-9577
15789
820
-21066
4208
242
2680
23154
13511
-7887
-4599
12314
-2069
-1017
9730
17777
15118
-10817
10665
-15535
-3299
-28250
-5583
2548
5123
-4618
6423
4937
-837
-3649
7531
13804
19165
6960
-641
-16571
4980
562
-3170
9679
3967
-1040
-8854
15837
2504
-7341
-6402
6150
10470
-8987
2993
-5503
8430
6973
6223
-11577
1204
4596
-4865
1563
-1837
-1636
7999
-3849
5584
-14468
13748
721
-6405
-11192
22685
-13472
8810
11464
8970
-17764
-4950
-11202
8649
-9169
23446
-2100
-4679
5802
28130
-501
-6569
-6458
-14424
-6568
10654
-22669
4199
3729
-8269
4502
9770
-7
-5823
342
-3353
179
5713
10076
21719
3031
3972
-4779
-8426
-17827
-8802
1366
-8673
-510
3320
-7869
-13532
-2412
-9008
15519
-2393
-3399
-5635
4427
-3539
7625
-11365
5302
1541
-11578
221
-10392
72
-7000
-14876
1992
-16700
-3891
-1550
-22566
-5705
-1863
-2297
15005
-745
727
1444
7108
-2994
2418
5308
-10821
-11773
12074
-9788
-2814
4179
-6813
-2056
-2813
-12817
6760
7377
8239
13064
-9676
-24883
1539
307
-295
11632
-16088
-7330
8838
-7030
-2078
-3348
757
10074
-12345
-12556
-7091
2999
-299
-17178
-5690
7748
-2676
4800
223
-5443
3064
-5469
-3946
-15843
4623
-5696
-1209
3177
3857
-130
-15696
16314
-23298
-12486
8787
-1967
-21231
7849
20964
-14080
-531
-1250
-8786
11068
-12681
11143
556
8078
24819
-498
-4281
-2400
4894
9559
-500
-8665
-7024
-5931
-6666
-8644
-6913
-2303
-7191
6376
-9255
-1549
4074
17610
5076
-4545
2030
-6023
-5692
-2098
-122
15261
-12782
-16158
8931
6166
-12255
-10681
-13774
6715
3758
-3241
-9145
23608
20655
13018
-12911
-7552
-15804
-7637
5540
7453
12334
7035
5590
12763
2660
6309
9642
13417
-10624
-5120
5070
-25683
15169
7170
9123
-18608
-1597
-2626
-9548
-2216
-6380
-11547
-7032
-654
-14782
-2474
6304
-676
-6997
10109
-2901
4196
8653
633
-9702
12334
14352
-678
686
-5588
2290
-2194
-2200
14836
-13002
-8257
-8254
11260
-8236
-16221
-3146
-11385
9086
8360
-2719
-8057
13333
3994
-3245
-2278
-16697
8050
4073
-8435
-12750
1377
4116
17355
-1969
15701
-7288
8088
-15616
-17112
-4764
9036
3198
-7117
4424
23846
3763
2135
-1455
10773
7641
10828
11178
8865
-9532
-13302
-2612
-8773
-14542
-6695
-11753
-9517
3521
-11911
-9156
-8314
4725
-21877
1652
10156
12449
2302
8224
22692
-42
-8548
11721
-4956
-2807
7600
-15022
3589
-12091
9229
16642
-872
-18380
-13876
9195
-2580
-25728
13776
7875
14539
-6323
9969
-4692
8536
7227
11659
1184
5153
-13963
-11960
-5838
-17965
-3234
-4609
6482
6464
-7528
5336
4641
10444
-5336
-22365
-9000
-17330
5434
2181
-17438
-870
-8267
-5167
-20264
2762
5580
3070
-5098
11006
-5833
-4227
9155
7585
-8899
-10400
11495
-3669
-5622
-355
-17088
2501
-6251
1849
10966
-8645
1417
-8641
6308
1653
-12789
-7609
596
2473
-6613
3567
-15236
1768
-15704
-3790
-4518
-13052
-4679
-5841
13728
3678
9849
7795
-3134
10003
-4420
5112
-6905
-7601
-3558
-2351
12552
-4680
-8453
-11760
5770
-19720
-7265
15095
-2702
-9385
5047
-14199
-18815
-2559
-765
20373
-3888
8196
8952
2047
10443
16693
6488
-9201
-2014
4818
-17459
8075
6620
-8354
3420
-5862
-7310
21633
-3086
-21693
5953
6552
-7003
-2847
-18402
25691
737
-4979
-20418
-5361
-11017
-7390
13014
-4852
2375
-9496
-7191
-21229
-720
2774
-1294
7281
10545
-6954
-2028
-12456
17182
-10165
437
8737
6954
13151
4303
-8109
46
-15873
-6281
24972
1101
12497
19922
17233
-19133
20835
9897
-10380
-12309
-6101
-12496
-14983
-4971
-3204
-606
-1747
7933
-4861
-4395
-6503
-9084
15188
-7755
12348
-3889
-5401
5952
5551
-13490
-3630
-18434
-2268
7470
-9876
9568
-3694
-4219
2857
-254
1388
-579
-21286
9537
-23365
-5660
4102
-5331
-347
13536
-7763
8225
4164
-3446
14434
-15610
-10677
8881
-13908
-19541
794
-2517
-3949
5447
-3970
5398
-12443
-2814
12531
6974
9106
-9876
17757
997
9241
-2977
-2667
4714
12822
-10487
22828
-249
-970
-1804
12633
-18955
-4165
-1496
4527
9189
6413
-11634
-1209
-19730
-19848
3857
11555
1259
1586
-14400
10373
-15663
8258
-8541
2055
6357
-8922
5645
4748
3809
6503
-219
3803
657
-11509
2722
15657
5187
-6140
-6248
2175
-11307
13321
1413
-8568
-5192
8707
2608
-12031
2921
-5186
-1507
-12400
-1052
-5698
10336
2426
401
4591
-3761
-9540
-468
-23089
-6703
-4011
-20603
-5534
11186
-16173
-3874
21492
7212
5781
-11938
1482
4749
-3069
4066
-4107
13545
-9179
-6211
4541
10752
-1219
1207
-19657
-2279
-3745
-5209
9447
4530
-2102
16840
-15511
-3981
8165
-4045
-2634
1754
5830
-20518
6554
-9665
-1648
-7924
-13819
-5116
-4558
18304
11160
-7441
-9112
-8769
3126
-9685
8707
5133
10659
-9635
7871
2923
-12422
-5097
-3061
6345
5555
25424
5827
877
12406
-2978
8286
-11021
6855
17568
-2050
4043
13246
-4297
-9293
-4583
-8064
-3374
-10655
-14662
-7294
965
-11275
-8276
-8567
-6160
-726
-15079
452
6092
-2429
8365
-14797
4441
4780
-7010
5650
-12845
4287
-15510
2802
-3833
-2190
5902
1158
-13186
3216
-7219
-3132
10198
-5752
2501
-19712
22892
-10105
12789
-523
-11868
-3539
-3638
15551
-6668
-2616
-11056
17340
-767
-7376
-7947
-12500
-2002
16300
2675
-16110
4290
-3016
-17270
7729
6574
1578
7808
-4586
-5614
6978
12170
707
-2662
-17040
-519
12747
1506
6490
1894
-11258
4586
-20255
14638
12672
2266
-1546
8886
8968
-4352
-23608
20284
10196
15260
-11373
-1310
-6
-3404
2478
-15396
-1816
-3183
26926
-5354
24903
3803
-2480
-5577
23195
10336
4687
-6112
616
3497
7121
10882
8437
-5623
-16081
1722
5154
4811
-5443
-8839
5777
-8231
12534
-7277
21260
4973
8767
-11773
2257
8953
-16703
5987
8553
1062
-8282
-7835
-32767
-1983
2362
-8969
829
-7492
4867
1734
-3805
-4695
-13225
6129
14482
-9664
-26923
-7705
10724
-23273
5522
-961
-11431
3500
6913
5185
-7714
4678
1397
209
-3022
-4754
-15808
-2338
-9095
40
-1224
-777
6570
-1621
-373
18844
-1067
934
4844
2344
2134
2087
10403
-149
-6736
-2070
5182
-5495
24365
21774
-20474
-9910
-3159
5640
5790
-472
-14756
-8852
13432
161
-14263
-12425
29933
10683
-4093
846
-9584
7082
11107
-5976
-17090
13101
-21024
4578
-27227
9156
15590
13917
1632
-2228
-5030
7395
-799
-14611
226
-8382
-6498
-5365
-17827
2420
-6985
4450
-10487
6817
1251
5860
16630
-10240
7555
10234
-7857
-7651
13066
7331
9888
-11507
-385
-10685
-17644
2513
-10389
3066
18236
-8993
-4037
4057
-1640
15764
-371
1918
10329
-9898
-14570
-13487
-19443
3596
-2433
550
-186
-208
-3513
12528
16692
19216
-4878
849
9654
-18929
-10603
15895
-13997
4373
7671
-5449
493
16155
-4811
-12328
-2323
25021
-1056
2814
11099
6724
-5974
-3892
48
8670
5536
14284
-665
15287
-2993
249
-4552
-5576
6757
875
514
-940
4978
6637
5639
-1869
-6125
7634
8765
7567
4220
-742
-11840
-3520
-510
2151
5173
-3628
-5096
249
2766
-3830
3249
3368
-3870
-1899
-3369
-17336
-4488
8665
13780
-1479
-14014
-6924
-11960
-7449
-1662
9073
-10621
-13283
4268
-10313
4450
6656
14613
3502
273
-8975
4736
24787
10573
-16795
-1077
4825
10213
-6162
-8173
-3006
5298
-3702
4360
8264
-70
-5237
3464
-975
18018
-8015
-10414
-12507
-15488
5961
-7298
-1622
-6708
8803
15858
5770
-3482
9729
9811
4927
-17001
-4616
-9526
9338
24354
-4382
-2955
-16702
-13311
16346
58
6189
-1467
-9053
14155
-10889
-15033
14210
-11669
-25005
309
6318
3889
-14501
18405
-6444
-10737
6308
-6274
10996
20551
-8942
-15121
1380
8310
4373
16505
-12881
369
-21690
14846
2967
-3987
11025
-5852
7184
1621
-842
4257
548
-3275
-7683
-15768
3800
2846
-8913
-20126
9130
30619
27997
-20087
-2440
-12028
-3186
-2928
21690
-7669
-30
-2493
2212
-2134
2566
-5357
8341
21634
-1417
-7771
-2757
5091
14907
1330
4901
-4689
-14312
-960
10651
11537
-7794
3616
3044
-11
-8332
-3878
-11805
3301
367
-14059
-1038
-2680
-25430
18245
6771
-6256
-4410
16937
-23391
-5846
1990
3271
17273
14889
4567
-340
1484
15303
411
-15384
-9450
-7003
3706
-12544
8858
2701
-12613
3441
6300
-9209
-2519
-274
-20139
-3846
-18443
-1247
4561
-11513
-19903
1032
-6934
-11036
-13846
1421
1656
583
3990
-2993
-1535
-1188
-15926
-5460
-4819
-3643
7893
7037
4263
-4918
14025
16631
-9747
-10754
-3203
-4444
-6288
11053
12826
-4501
5685
-3095
-6834
-465
8972
3718
11078
13287
-11069
9384
9220
-2531
4460
3469
-75
-10777
-544
4138
8746
7710
8221
13964
-4862
8682
-6686
-5859
22898
-5338
4501
-7295
-12663
-5163
12486
12382
-8749
-15152
-3916
3554
1616
8164
-2324
-14839
-1210
10825
-9028
2609
7870
6048
-6730
-15176
2234
1241
6153
7499
327
-7836
10518
-5417
1378
-11778
863
-20118
19772
-1219
-366
19464
221
-7695
-1650
4499
7871
-8524
1510
3086
-11618
-13472
664
-16362
-5043
-7205
-11091
12211
1176
-1664
1241
6507
1329
3018
-12961
