-3466
-1865
736
221
825
1480
1213
532
-3760
2504
-1908
279
-65
3610
5161
-950
736
-352
-2218
-1211
1219
2492
-3124
-156
-2416
403
-2592
-1394
-1856
-1346
-4134
-4659
944
1389
-3312
-4096
-7419
-1741
2443
-2431
1307
454
934
-2212
-6207
-772
-3813
404
-730
-3261
-2688
307
656
-1813
-2179
-3349
-2225
-481
-3825
-1252
-1781
1081
1058
-1773
3898
1030
-27
-4929
-715
-581
3606
-1544
581
-2061
-892
-1838
2975
-265
-1926
-2993
1550
-1018
-755
1011
-207
3064
-260
6041
964
316
-6854
-1917
734
-4963
-2110
2
2464
127
-3244
-803
2975
-1779
-638
-3232
1207
-1502
-258
-568
-1373
1111
1535
-2136
988
-301
-1037
551
-752
4036
-332
-1529
741
-72
1590
-2217
-1609
2550
1257
-717
691
1353
1073
971
-705
-1733
263
610
939
-1188
1175
-3165
-1115
519
403
-7626
784
1002
-2572
-83
-4678
1208
-922
-2337
-3081
2183
5565
980
310
1780
727
-3485
3822
-4171
-3424
-4562
-1919
-5759
-1572
-3759
4723
-5221
-11113
-7019
1734
-884
6656
3879
-11793
110
-3797
-2786
-3539
-4543
7240
9130
334
3825
5052
-2845
-8341
-8754
-530
6523
5810
-11133
3357
-7674
-3607
585
-8010
358
-128
2633
-8363
-1599
375
575
-9023
384
5486
-2552
3246
1203
-875
468
4990
-1727
-4717
1420
2829
-9806
10171
-5012
-3686
-2431
6202
-5695
174
994
3471
-2962
-654
-2367
2522
4743
-3312
-4854
-4899
-6431
-1355
-2147
5286
1763
-4808
-1399
7461
1259
42
1973
-6878
-5427
2144
3779
8653
-3492
-2592
-53
4347
6244
-4158
811
2970
-5737
-4754
-2813
2342
-415
-4476
-6301
-888
3331
-3740
24
-3686
3786
-14035
3053
-8563
2337
-2760
1918
1453
-3472
-259
-3367
-3479
-4042
401
-3163
4796
184
-11775
4246
664
-2683
-2659
-188
-8132
-4286
-28
-2648
-6493
-1172
142
-11552
-9900
-1199
2216
-6384
-2809
-987
4779
-11805
-4144
6694
-1321
4737
489
2477
6585
-718
-3812
5028
1587
-186
-2899
3722
-7289
841
-135
-1784
-4983
-6571
-1860
-2153
3112
-699
-3257
9224
287
-12735
-7437
-5711
5800
-33
-4566
2147
1524
-7631
366
-7004
-10033
192
-4313
1259
1624
-2012
-2638
8023
5284
-2940
-3559
1782
654
-1661
4366
-1352
1751
-3242
-5503
2006
-4341
2934
396
-746
7227
12280
-4500
7796
-3993
-18919
-8281
-6627
3023
6819
-5328
4755
-4026
-3061
3787
4576
-5016
7501
-3286
5446
597
1373
1049
6526
-2410
-3526
6134
-2292
-644
5048
5533
-3971
-4988
-5362
-7207
-8434
-8581
3386
28
541
13513
-2474
-9388
-13587
-4146
-841
-3892
4981
-4856
3610
-3898
-1981
330
-5482
-1802
-1475
-547
-10372
2194
-840
8464
1299
-7880
-2797
-88
4133
3928
-9831
-4488
-12315
-367
-5374
1923
8942
-10142
182
-4752
3855
-12212
3601
4155
3344
-739
-3111
-614
9148
-3076
-2373
-9410
-7809
3925
-2027
459
6860
-6561
873
2943
-5284
-4166
6321
-627
4243
-4172
2953
3055
-5047
-2593
5386
304
9246
-4877
1405
2226
3810
3595
87
-5596
935
-119
-6508
-2255
-5619
1703
-9482
-6768
2599
-8226
3332
-1794
6420
-1816
5706
-15365
-1289
-8359
164
-6037
2997
-3456
3466
3786
-9062
-3193
-631
-815
-1331
7810
-4748
2910
-1345
2347
-3418
-314
553
-4227
1267
8812
5975
869
-10194
1500
-849
-4925
766
-3369
-4753
-10381
3633
-170
5603
5149
-3274
262
-2068
2716
-1059
-3034
2773
2027
-6084
-6451
2503
5137
-336
-2046
-2538
-10177
-4749
16964
2426
1496
-9073
-6144
-12158
-2443
12040
-3902
406
5287
-4535
6779
7422
-2914
5230
-3486
-271
-2701
-5044
6843
-4327
1445
4451
-8708
-9674
450
-322
293
-1815
-9849
1549
82
5272
-5832
1427
-13852
-3873
5411
4009
3905
-1887
-6438
872
6312
2643
6682
-622
910
-8030
7209
-7548
-2529
-5914
-16091
919
9412
1032
-1695
-9573
7878
-1915
1361
9514
-7706
1253
-5202
1141
13950
3898
1681
-739
1090
-1981
-3497
-5087
1274
3419
1963
-4187
-6729
486
2303
-2056
-6431
-11950
-2696
-1705
4268
-3012
-4425
6315
-3033
-6271
2887
-6636
-6564
-6014
-5118
1722
1842
4504
3052
1255
-7309
7158
7876
2881
-5489
-3901
-10409
1326
-704
2376
-476
1301
724
4379
2015
12015
-4286
-5399
-2068
-1171
924
-6958
2557
-1567
-4816
4898
373
-223
-2356
-11351
-1485
-1831
-5594
-5863
-1575
-4038
-1996
1572
1455
1614
2553
-45
5908
-943
-5774
4720
-3169
-615
1445
3268
5481
-4939
6332
-534
11538
2365
-5005
4004
-4019
-2769
3050
-2939
-8263
-2128
2365
-5206
-1638
-9692
850
-283
-1006
-14518
3486
-2305
-5420
-482
-4228
-10024
-2380
1594
2797
1409
2460
3355
6243
-3342
7287
1147
-295
-1609
8280
-7606
-8899
-4664
-4264
804
4878
503
970
5328
1868
-1833
5278
-2659
-1472
-8469
-1576
-10323
570
-2934
737
2689
-1143
-5483
1267
9091
-138
-7145
-763
3502
-3099
-4145
-2978
6228
-2716
-4683
149
4140
-1047
1575
2198
-3367
-7704
-2778
-185
-8092
-1815
-7358
-4758
3994
12811
1618
2671
8441
-2284
707
2782
-1628
9050
-2491
-1758
7162
1041
-3777
-223
-9769
-4418
-10930
-2628
428
6982
1123
473
3954
5737
-10326
5847
2324
-8131
-11658
-8021
2146
-2440
6402
248
411
1950
-7919
-8901
410
-3856
4361
971
-868
-3660
2016
6114
-2790
10220
-1337
-4210
1799
10295
-5015
-4062
2848
-4002
-5411
5196
2138
6482
-1615
8856
-1883
5422
-5483
5179
10142
-3151
3139
146
-1345
-9421
1387
2818
-7199
-608
1865
-2479
1160
-7785
9552
-8344
-148
2697
-5972
2957
1326
-5551
-1516
-7138
-4943
-8745
747
-1211
-4944
-9420
-3893
6618
5242
3548
-3380
-7153
2928
-5133
-5994
5053
2469
2787
9249
15447
10893
-8664
-3873
539
1184
-6437
-10161
-430
1884
461
-64
2573
-8994
-697
1623
-3992
1869
-484
2966
661
-4583
9361
-9830
-6514
-1502
856
11013
-4820
5241
7796
1113
3748
5029
5729
-9857
-508
-6059
434
2384
-5158
-4724
-2109
2482
-4900
-2595
-2508
-2000
-3027
-2937
-3394
1530
923
-6349
-383
-4313
-598
675
1147
-3728
1119
-1809
-574
-3458
-125
4605
-3868
-618
-1022
-2478
-5028
-1937
-2537
-784
-959
6300
-1533
-1429
-4295
-1516
-2254
-4762
2760
207
879
2182
-4472
-3044
-5313
-187
-4985
2681
-3372
-4763
-1026
-1447
1262
881
5815
-3568
6051
-467
-56
4301
3062
-1459
1911
-2695
-4277
-6277
3144
878
1151
-1371
-2835
-783
796
-1254
-1341
-1624
-994
-1783
-3648
-4228
-2474
-1925
1880
304
355
-1389
-3452
-1698
-823
830
-1691
610
1041
-599
281
-625
751
-3563
-1805
1893
-2770
-9519
1040
538
1901
369
3125
201
-3379
2284
-1813
-6564
734
-2696
-143
-876
768
2293
-3196
-1475
-3879
-1087
1734
-715
2951
1436
580
3165
-6323
-3766
1290
2211
-2433
5883
-6397
-4169
-3082
-2637
-2556
-5990
2700
-1695
933
-4344
2024
2469
-4143
-4112
-558
-5183
-4960
-3333
2193
-539
-1185
1826
-2000
-1159
201
5747
2191
11026
5296
-717
1709
-731
8811
-1127
2591
4563
9505
-12958
4212
-10761
-5665
4835
8877
-12787
5657
-1694
-10145
2823
2010
4361
-598
3649
9246
-3428
-3328
-5430
-5742
-3535
-11735
-9991
1573
-3963
862
6952
738
2189
7531
-9984
-889
-274
3910
-1148
14297
10655
-701
3885
1073
-8659
6414
-7210
11731
-4175
-379
1273
14212
-13231
-801
-2984
5501
2939
2464
3187
1877
1246
-7237
-11646
2699
6579
12783
-6197
-2617
11740
-4457
-5330
2215
346
-5474
1392
4569
-12867
14469
-3943
-7122
-12836
-907
-6194
2331
-2331
7482
-7728
13298
-6483
-14819
-329
-12540
3283
-2009
2220
6846
-6954
-9166
-2091
-7880
-8306
21069
3371
13836
6390
595
9682
-1378
9846
-3201
-13827
1252
-1424
1726
3346
-16264
-10078
-11588
-21654
27
-3458
-261
5986
1795
310
-3814
-2545
-14005
8398
-5690
4946
6103
7005
-603
-3376
-6704
-2594
7148
-1775
-3547
14830
-10348
11157
-10594
-13762
-6410
-1515
-990
2947
383
1707
466
963
-10214
-6995
-1977
-5865
-4171
366
-2938
-3821
-1162
38
-1924
8367
3023
936
-9168
-3629
9574
3413
-5166
-4672
-2060
-5108
-12013
409
-990
-2253
7328
-4766
909
3607
-3571
72
7969
-2652
-754
-12055
96
3558
-3861
-5851
-3132
1250
6317
-5459
-1341
-6529
1069
-9832
-1015
-7028
-5592
1440
5176
8293
393
-4911
-4595
1202
-2194
-5048
-1536
1936
609
-3008
185
-3375
11117
-1931
6761
-6343
2166
-2058
1832
-5261
-9114
8391
2278
-9242
7873
-845
-2042
-3116
-196
-5198
3091
573
-790
-5396
-2922
6619
6671
-11310
-2462
-6028
5539
-2965
147
2330
-2821
-578
1961
-8510
782
-4080
419
1689
-3445
-221
2004
4481
12104
-3879
-519
-7263
-2726
-433
-6335
-7011
-12090
-3327
-6655
-2723
5106
301
-1760
-2812
-10081
8994
-3080
992
4386
1544
-1801
-270
-6781
-4482
2751
-2616
-10564
729
-1929
4115
2391
8940
-8668
-5250
6988
-9753
-5439
-9373
3463
5424
2276
-4889
-5649
-1962
-765
-8123
5418
-996
144
-4661
-1581
1143
275
2535
4597
-3272
-3212
944
1303
-3189
-2792
-143
281
-3432
4070
-1162
-4491
-6992
4115
1432
-3295
-4956
1799
3366
-5204
-5867
1641
-2676
1493
215
3437
1341
-6728
-7896
8967
-4497
-2367
1586
-1452
2704
-4745
-3075
4416
-2589
-2054
5296
-2314
390
-5728
-2347
-330
-8433
-351
-7241
-310
-428
2911
9244
-4916
1980
-2099
-4116
732
-3035
5540
-6223
-7132
5225
-2847
1948
644
3701
-2231
1107
-414
-3441
8186
2450
-2283
3750
-4108
5489
4244
-510
-4116
4867
4008
1065
4446
3510
3321
2586
4863
-6341
1307
-3523
7601
2891
-3945
-943
-4597
-3721
-1740
4077
2621
-6628
766
-7321
-6134
-4233
2303
-3566
-2163
-3921
1556
-1931
-5509
-207
-1372
1957
-2106
-2643
-5860
-2380
-3225
198
-4866
-3191
-1091
-1044
-2122
-3841
-369
155
-4117
-6083
-214
52
-4129
-7934
5054
-8911
238
1401
5447
68
2805
-3516
-1484
-10083
4306
-3452
-3120
470
470
-4179
5378
-5899
-6765
-2280
1909
1137
-2700
-285
509
-1364
2503
7174
1612
-641
-1538
1595
-2801
-2887
-1207
-4493
-2110
2002
-2522
3868
-5028
2140
3504
2062
-3336
-3559
-4085
-2083
-5734
-2775
-569
4046
1207
-5669
-2918
-1415
-1912
-2343
1498
2433
860
1663
-2630
-2486
-1168
1475
1416
-3570
-511
-1979
-1767
263
-559
3128
2431
-600
-1201
885
-894
1426
93
-4371
-691
952
-694
113
2928
1823
-1263
1633
-4073
247
1539
910
878
2440
-4549
3201
839
-2850
4253
-114
1531
-2831
-5137
3686
-654
-3356
-2576
2266
809
-1479
2096
-849
1473
-3655
-7097
-61
-512
-1669
-896
1493
-1925
-1890
-3808
-844
-549
3119
909
165
-3118
-1083
802
962
-220
-454
-665
1104
4356
-130
25
-5291
-1291
1761
-3875
92
-3205
1638
5
2958
-3905
3183
-1169
-170
-612
-2147
2601
843
-1569
873
-41
-6436
-1388
255
-3282
364
-3101
-657
-955
-3899
-967
-1189
-2521
-50
-5667
-2071
3150
976
-1216
3364
1552
-9986
-5484
3561
-5056
-1204
1397
1457
-4351
-9411
-5520
8928
2443
7814
212
2780
1257
-805
-1491
2738
2216
-7214
997
54
2356
6201
-813
2521
2278
-1135
-5996
-7833
-3254
1544
3082
-5599
6988
-6506
3700
-2275
6813
-7676
8129
-5616
4365
375
6419
3105
-1043
2819
2859
-17016
-4795
977
633
2322
-1844
-7581
3278
4373
2478
-3721
2862
-5908
-998
2386
-1071
8378
-3539
-1600
-4500
-2704
-5906
-7699
-3958
5463
-3079
-8578
881
-6720
4107
11375
-1343
-4082
5648
-3563
-6925
-7805
-14
-3328
-321
-3580
9262
9347
-8410
-1082
-5734
-282
-49
964
4465
-237
-5393
4204
-5195
1672
-8509
3848
-1873
-480
3841
-1874
-9574
-2577
4502
-5832
-3859
1056
2091
3596
920
-26
2889
165
1348
-1221
-20
-3838
-4953
10954
527
-2199
1955
5950
10122
5710
-2652
-2697
-2769
207
685
-238
-5290
-952
-5172
8398
-2181
-3047
-4157
946
-5925
-1747
-5614
-2234
3443
-1162
-4509
-10217
2696
5892
1693
3574
-3
-3177
-141
-2698
-7403
-3906
6216
-1341
1910
-1907
-8907
-318
-3810
5986
-3040
-10638
-1537
-2481
-1121
845
-5815
3237
442
5167
2287
-5973
-727
5225
-5892
-9078
-617
-6530
-3102
3599
-5720
7257
158
-4093
-4143
-56
-8827
9738
3123
-10538
2481
4234
-3287
-3156
-909
2765
-2300
-5631
-3479
8319
3054
-3619
-6192
-8417
4401
-7364
-2961
-2805
1134
2953
4714
-49
1328
-2046
-1829
-2340
-3182
-8399
2750
-2846
-2160
-3569
-13911
-9190
1331
-6954
9505
4276
-3136
-11917
-3097
-2712
1691
-579
6330
2251
7634
-1134
-2833
-925
-3454
618
-2128
3402
-3500
5058
-5122
-36
-2194
-2828
3335
2510
654
80
4350
-6296
5727
722
1081
-1636
-16436
-4354
-8244
5237
-7249
-409
912
-2646
16
-11323
-416
-1548
1638
1887
-6389
1057
-4350
-4631
-5622
3452
-7905
945
-4883
-255
4291
-5112
7507
-9208
94
1909
-7230
1174
3049
112
-9022
-1078
1366
-8653
2373
-6833
975
3128
3027
-2976
1448
991
2746
3738
649
-7933
1253
4869
940
-6139
2137
-3647
4216
-3789
-3550
-4130
-5445
-3754
-2863
1684
2988
-92
914
5659
1362
-5887
-3821
-4945
-58
-1207
2084
-6100
-2972
550
-805
3101
-1807
-2043
371
-1425
-5162
-2036
-2316
-4591
-3878
1819
-2759
1093
4780
-1522
-2366
-1314
429
904
1000
1274
1687
-197
-5512
6600
-1915
-6551
-1424
-1556
-1671
56
2545
1620
-3355
1434
102
919
3620
3697
-5043
-2878
-7801
-7913
1525
1033
405
376
1919
408
-1298
1610
-155
-4588
-1570
444
-3388
673
3678
-1534
-490
-4563
-5591
168
-2039
-1782
-3407
-2078
-3220
-1123
-112
-4737
883
1047
-4182
1528
-3226
3178
2109
-974
2042
4547
-510
107
-3478
3311
4065
4358
-2061
-898
-3822
107
-2059
-1540
-2891
-190
-5617
451
2481
1582
-9647
-1667
-1306
4272
1667
-3922
-4465
-2466
-1330
-2149
2943
-2921
-2282
-808
-932
-6851
-1294
-7883
949
-395
-575
-3254
515
-2068
1898
920
5876
1192
-490
-1965
-3835
-3936
1802
-5045
-5194
666
-3912
-1800
1332
907
1968
1457
-910
1974
-3479
2644
2137
-5317
-4210
4469
-912
-3775
816
8514
4729
-1482
2490
6968
-2772
-263
7682
-342
5248
-3917
1605
-2293
3728
2644
4051
-1440
6108
-5433
-5777
1900
2505
3927
-2340
4250
-7949
4111
-1432
4114
-2738
-2858
2744
144
-557
1422
-4707
3444
-361
3209
-145
9762
425
-1652
-1637
-4168
-719
-4325
122
1814
3000
1456
-3064
1151
1704
-2508
424
-4183
-4782
3362
3954
159
-645
2921
1033
2426
47
1082
-7186
2135
1697
-2431
2990
1866
-168
-1233
414
7505
806
-695
-362
1390
7013
-6892
-6055
2986
2258
564
1447
-377
1789
3097
-1178
2325
-1423
-2659
-277
-6083
4968
4757
4540
267
2363
-7
553
-5887
240
4238
7414
-4228
989
2295
6146
458
-5627
681
-4147
4376
-1854
-3844
-1962
-5482
-4929
5785
-141
7923
1114
-2912
-494
-5081
2570
-2113
1499
4103
-5947
-10847
610
-5206
1749
-2523
3322
-444
1659
-1753
-3700
-4316
2260
-4061
-1430
3080
1498
-764
-88
-1119
2632
-1518
775
2537
-5197
2666
-6080
1031
-3665
-1176
-5149
-3902
1734
-8938
-2287
533
798
-2050
-4163
-1449
1307
215
-4169
-3068
63
-1218
-5556
-6902
-3629
-2579
-7361
4395
4122
-836
-3488
3394
930
370
2333
3544
4087
5181
-5093
5015
1880
-3721
5254
1480
-704
4813
-524
-1500
1144
1629
-1126
-1789
-1082
3666
1706
-7430
-4909
2756
6154
-985
-3944
-13785
-388
-2301
-10375
2313
878
-2775
4098
-5996
823
2654
2107
-6707
-271
3566
-6845
2510
-6084
1270
-7974
-4168
-2848
-2320
-2894
-741
1716
-3842
5251
1127
-5392
2347
1597
-4135
152
-7697
-4114
-4528
-1866
120
-4482
2790
336
-3985
215
-5124
-3011
8636
947
-2242
116
2179
3509
-5288
-2683
4807
3781
-4566
929
-1791
-810
-6469
-2262
1634
2458
2094
1640
-767
-529
1418
-1473
-1509
1265
-5217
3547
11552
-13228
-4007
1271
8549
-15001
-7149
10324
11235
1373
47
-1947
12733
5296
-850
678
4602
-17045
-2650
-3467
7285
539
-8307
839
7503
-617
-1164
11448
6189
3660
7929
8456
2810
8554
-3566
-3755
-12406
12778
-3481
4146
7705
-7666
3498
5961
-7008
-12747
4669
2002
1330
-11299
-1008
-4624
-8688
355
11917
5536
-1987
-7626
6625
-9161
-5612
-4323
12070
-3341
8550
-1198
3357
6663
-1898
8117
9421
1901
-110
-2486
-3046
-5331
1056
5621
-9816
-7690
9556
808
13900
1918
430
-1089
-8365
10348
961
-2809
-1852
1629
3400
10509
9428
3756
-5821
5326
11797
12288
2913
1053
-968
-7835
-4028
-8217
5841
-8499
-2666
2065
6471
-7099
-10751
-1907
-10340
2058
-17576
7167
-1050
4602
-23524
-4815
-4394
4038
6556
-1136
6591
-6541
2250
-1410
17350
2474
-12395
-10382
-5379
-6261
2761
-4020
-10132
7679
5145
5561
490
-10696
-5974
-8126
-9808
6544
7637
-11730
-7448
-6270
8337
-4780
-29
4512
-597
-604
-13052
-648
-1924
-38
6119
966
345
-2502
3567
-4113
3794
4224
-2716
-1112
2819
-3251
-4952
2668
3024
3448
1092
-2125
-2194
-765
1787
-1061
-285
-3902
-2581
-2086
569
-4111
-6115
-1589
365
-3383
-5030
-2085
1939
-4289
-1253
-2318
-4806
1754
-1130
936
-5491
1734
-921
794
3425
1844
3640
-3306
2676
-1223
409
-3722
-3590
-3234
4029
1484
867
-4500
-4514
232
-561
-1139
2864
1409
-2802
1686
-4195
-5016
6553
401
-3292
-1964
-1403
858
912
-2112
-2174
-2821
1142
-1821
3072
-1675
2612
388
3655
-790
1438
-955
2067
1853
5085
3078
2205
-1790
-4104
-4637
1531
-1925
2870
-1740
-3445
-1741
-2738
1192
381
465
-1456
503
-2318
-1772
-272
-3989
2150
1300
-5988
-2492
4870
944
-2684
-3669
-682
805
-283
-74
-2907
2222
2917
-2052
-2518
-1690
-1969
-2958
-3988
4251
-1971
696
661
-944
-276
-1097
-3717
-1694
362
-1988
-1160
371
-5288
3857
-5842
-634
-1967
-901
268
-2274
1342
-8422
-5964
-5089
2479
1665
4019
6878
1136
-7793
2678
5
-2454
-8285
-5990
-5937
-3212
1472
-8704
2086
-1670
-6974
568
3186
-3070
-4997
3211
-1352
-2346
-4092
3009
684
4898
2539
-4113
-535
-4127
4199
-1830
-601
-700
-2130
-4235
2562
-1730
-3587
2357
588
2261
455
-2409
8515
-2766
2554
-6470
1135
-4488
-1243
-2411
-2772
-1319
-4499
-3000
-4386
-2437
-3064
1520
-830
4320
2047
6068
-1574
2552
311
800
3734
-1882
-4965
4694
-1583
-8527
2731
719
-1372
127
3122
155
-489
-4124
7092
-2201
-4840
-832
3071
-539
-4227
-2375
3735
-449
-3127
-2251
3398
-897
3392
-451
1425
2218
1786
-5235
-2836
2742
-4577
-3852
5438
-3313
-892
-12
-1706
-6162
-2649
-2764
134
-725
2032
-3443
-2429
48
2962
-2152
-2946
1232
-3358
-3148
-686
-204
-1956
6361
-800
-3276
-1160
2203
2255
-3328
-2859
-3587
2998
-7502
4088
4553
-4353
-4986
-1259
-1303
-2174
-1056
-790
-1537
-3759
-999
9738
-1833
-4621
2245
-1439
1964
-1160
-3306
-847
-605
-8908
3209
-1864
-3415
-4093
1081
-1732
-4435
-3868
-5694
1769
-2013
-6871
1149
-12470
-3309
-358
5240
-6316
7869
-9654
6228
-2801
-881
1554
464
-2830
-11729
920
227
-667
1194
5965
-4593
6128
9186
-1444
-6151
3214
9004
56
-1131
4405
2307
-4033
6227
7123
-2664
1836
2348
-6545
-4160
-10679
-1355
1538
-2399
-2915
4653
4252
-2664
461
1079
-2251
779
838
4597
-5138
7083
6413
-4575
-1464
-2597
-9009
365
7213
12137
-3730
-3713
-5625
-3983
4202
-7769
-5569
-4539
3013
6511
3907
-6564
6046
8029
-7602
8150
-2818
51
-5759
-1403
1594
-612
4449
-3384
9281
809
-4485
-5732
-9979
1169
9134
-147
-8231
-2483
-11261
-5779
176
-810
-1778
4121
1425
-3259
-1506
770
-3142
-337
6405
-916
25
-686
5344
-2372
-4327
-1601
1684
6176
3167
-3392
4343
-4843
-5324
4006
2944
3370
-2109
-6192
404
2812
-5948
744
652
921
-2054
3205
-6385
-2345
2317
181
-3436
-565
16208
-5702
-7507
9421
-3913
-11621
-3288
16387
-20493
8844
1550
8447
-3161
3142
-9568
4236
12790
-7423
2343
9755
-5765
-6154
-4903
11882
-9953
2696
5821
3368
7728
-8706
-16856
10238
-1566
2864
-944
9670
5699
4732
6976
-19264
-6952
-5925
-2013
-3470
-241
3317
-6617
-4560
7258
16986
-2325
1131
1044
6959
-7750
-6358
11993
1630
7105
-12135
3782
5872
7083
3932
-1161
15583
-651
-2883
2879
5739
-5307
4263
3440
-6652
-5900
-745
-5130
-8268
-9066
-16428
109
-1282
7312
3052
-7144
1833
5218
-3986
-43
1678
-4974
-4876
2275
1464
-4483
-3205
-723
-4565
-4133
-1898
-8149
26560
-13003
13614
14362
4403
1025
-8859
-3273
3363
-8831
-16672
-8840
-10945
-13262
-7270
-5397
-7345
1721
3377
418
-3958
-19126
9755
7631
10257
7807
-7621
3752
-1833
5354
-11026
11748
-501
1164
1143
-3479
-22994
-30229
4368
-7247
649
3977
-11723
-800
-8222
5249
7956
-13642
89
-5705
-596
1723
18223
3509
2421
6402
5414
11124
2916
3799
-2828
-5156
-14534
-149
2430
-4390
-2398
-3033
-4373
-2945
-236
-1349
-2757
4143
-451
821
8028
499
4900
-12042
7135
-1175
1006
2194
6885
658
1830
77
7762
821
1635
3822
-1515
-1519
-5819
-10
-7285
-1297
1455
1956
710
-1223
9358
5310
2158
-1954
8501
-8288
-148
10566
-1606
7929
3255
-8326
-963
4066
3142
5447
8012
4299
5429
3951
3817
1927
454
-1489
-4057
-97
389
885
4064
-810
-3216
-4509
-4894
-263
2827
-176
-9362
-8400
-2809
2063
732
-4605
-1353
4213
2416
6852
-1555
-4455
-1326
6858
176
3023
-3540
4664
4897
2579
1160
-6916
9337
4968
-1623
-3088
5496
-3709
-1955
-1908
-2325
-166
-1543
-13092
-3565
1423
4889
-1702
1430
-5674
1993
5313
2054
4488
3456
-2040
3961
-307
-821
-1341
-9460
2857
-3084
-3641
-1777
-4619
6150
-1601
9775
-5917
595
-2778
1073
6445
892
1973
-1242
3601
2665
-8926
6618
1535
787
-2234
11461
898
-4918
3113
-12662
1660
-13440
-9752
2390
-3895
8554
-17075
-1063
-5115
4415
-4262
3049
3996
-9612
3110
-8473
-1575
-14421
1816
-262
-3520
-3104
-2692
16515
-37
7024
-5161
-5682
-10428
-2516
-7722
5551
4426
-1322
19611
6927
4622
-5455
-10997
6550
847
-1973
2612
-12745
-9245
5362
10717
-5932
-998
9274
2918
-560
14895
1588
9227
-6507
371
-4339
-6475
-2571
464
-21268
-7877
-83
4127
-1515
8424
4788
-4983
8081
2469
-4431
15646
1670
1845
12760
-2418
-811
12097
8389
-6903
2521
-5299
-8010
8599
8732
12205
-7303
2848
2208
-2872
-900
281
-792
-8805
-1795
-10640
14089
26
8340
-2978
-8543
4275
-9582
11753
-7030
1069
-1999
-4410
-6612
-5984
11975
-4746
-8256
-2950
10085
-1899
-11470
2398
12116
-5961
1025
-1629
141
-5570
-6146
-561
4196
4185
5684
-5290
-8992
-6687
11822
3549
2210
-6661
4512
-6470
-13079
-15207
-7835
-3391
10605
10247
11728
-1851
-1014
-14082
-520
-14229
4004
-12477
-9114
4032
383
-2524
-3085
-4890
5283
-4408
818
-2482
-411
-2107
4191
560
-462
-4868
11693
1115
-5468
-9287
7733
-4732
-4920
-4643
9136
-2754
284
-11740
-5578
-4272
2566
255
-10700
2945
-5255
9292
-1985
-8312
-2571
-5146
-2126
338
-3966
-2638
1233
5858
-2973
-5390
2362
693
-5342
-2553
-1609
-10334
10601
618
417
-3378
-7998
9408
-4972
509
809
-569
8463
765
1015
1397
-6340
-6352
-8302
3227
10511
-3787
-9589
-461
3406
1056
-957
854
1452
-6639
1756
-1911
-1301
5060
-2119
16502
-4200
-2160
-1808
-4413
1720
2989
-5695
-1391
-741
-4489
-2612
-10092
1836
-6125
1003
-2028
-886
1177
-8242
5373
-6061
401
-5032
933
2818
2942
726
1267
-240
-3055
1700
-2579
9869
1095
-462
2629
-15056
-1447
-6912
8062
1657
-12572
-2980
-10727
1506
-2605
1885
-2581
-4415
-3077
-258
2212
-7858
-10665
-7375
-9644
-4717
1532
3493
2311
-6786
-5036
2168
-8260
21641
-700
3791
5281
-3775
-8205
-4060
-208
-967
-3769
-1732
1135
-10063
-4368
-3277
-5098
8908
3742
466
4927
-7737
-2780
-1538
4186
6146
-4075
-299
965
4885
-1852
-7512
-950
-4307
-79
5435
-1723
-4337
3518
-5069
-4622
-3632
-2255
5096
-4534
3167
7137
3219
-8401
-5797
4217
151
-977
-7794
-1091
4039
904
-7565
-2121
7742
-2659
6517
-2763
3292
-2160
-1444
-257
4712
133
-6637
-901
-2055
-1212
3589
-684
204
1863
80
-3479
-1070
3695
-949
4515
4038
-2742
-875
-1109
-2358
-3318
-2023
-112
891
-3297
-5217
-1382
2040
1713
-1042
-7694
-51
731
4016
-838
936
-10337
4146
1344
-2399
-394
-3590
5601
1444
7352
-4108
-685
-5460
-4005
4856
-1273
-2787
2774
661
8318
-238
-4189
-1689
3971
-996
2721
3834
-4556
-3238
-1806
-4739
1262
694
-4180
-832
-2940
-179
-1108
-4430
-3837
-1441
7423
630
-2569
-7043
2755
-2366
-4939
-1525
103
1276
-6299
-3435
3264
-2579
3865
609
-1023
-3888
-1629
-2832
-3268
-3120
-2967
5074
355
1157
-2781
3111
1447
-1683
2863
2141
-1348
-2991
-5025
-416
11154
337
4220
1176
-187
-725
8090
2368
-4320
3708
953
2696
-2531
152
1815
-3148
-2207
-11527
3787
-4698
-3415
-1667
-2969
1598
7185
4357
-6065
-11877
2599
3617
5446
2484
-895
1725
3533
-4357
456
-4641
3642
-7377
3357
7631
-8758
163
3306
-495
6633
-7956
102
-5085
6015
5938
-873
-8993
-1498
-5754
-2886
5370
-1340
-6921
-1394
2501
-3192
2681
-208
6252
-66
-2217
-7466
3211
-6691
4462
2947
5601
915
-1987
6921
3250
6038
-655
-4313
-1469
-9686
4332
-731
242
1625
-6508
-59
1302
4250
-7220
92
-11024
2330
-113
-5333
4111
1000
4050
8443
-3050
-102
-1353
1170
1798
-3779
-3724
-6824
3799
1725
-6525
-5435
-235
1980
5023
-5073
675
5076
-1925
4886
18
-3903
-7413
-1183
-2736
4005
-3472
-773
4222
1247
-4850
8528
-700
-3843
-316
-1278
-3559
7055
5196
2111
-1548
-3733
1116
-7503
-11510
4389
-2779
-3854
42
1851
-1629
1407
2970
-1698
-5487
-613
1126
-3678
-2626
-1450
-989
1493
-1008
2540
3595
4546
-974
2491
-5405
-913
-3175
-10179
-488
-2756
1919
702
-387
-1526
-1148
-3667
3008
-4697
267
-2511
-282
-3302
-854
-7481
-293
5272
3279
-703
874
1848
5195
-3821
5563
-8434
-1432
-232
3618
1209
-3882
-3830
2086
-5544
-3032
-7313
-2606
3600
37
-6113
3474
-4387
-2903
-1899
-2919
1965
-1474
-1092
-2220
3455
-4792
-2110
2029
2633
-4468
-246
3800
-5088
-1673
-3761
3052
-2829
-1207
-2237
-3275
4183
174
1467
3334
748
-2793
-3144
1819
-778
593
2121
533
-40
1611
-1015
-4699
-5744
-7746
2214
-1415
994
-3587
1126
610
1206
-4911
-2758
1423
1467
588
-1714
-375
1075
516
-622
6532
1448
-1124
3850
-1074
4558
-133
-4229
4751
112
-3779
-221
1139
-48
-1322
-2978
3357
-2491
-3368
-804
-1585
1977
2750
-91
2517
1868
-1669
2433
-3785
-259
16
2785
-2213
-303
-3555
1234
-3864
-6582
-42
620
-1393
71
-8201
-3802
-4732
-1151
3858
2017
-5893
1598
-4731
1640
-343
-46
-2531
-5243
4289
-895
-5232
-395
-3374
-3679
68
-1027
1681
4852
1199
1733
3722
1446
4493
-5936
1752
-7481
-2981
-9864
-3409
-14951
2723
2324
-5236
-1224
2518
2875
1082
-1810
-3012
336
-2124
1620
-2672
4004
1867
1998
3650
1166
-403
-580
-4700
-3757
-5771
1981
2802
-4224
-6373
-1298
3238
4975
-2092
-191
-532
-618
-7322
167
-705
-2765
1869
-3791
4326
1158
886
7957
-936
185
-2917
-22
-1374
-242
4031
-1874
748
4137
6247
3312
-1403
-8269
92
1709
4373
2446
-2536
-955
-72
-587
-2200
-3325
3561
3387
5595
-4079
5667
-5304
-8530
-3923
1477
-6852
2585
-1147
2409
1481
-6830
-4053
-52
1427
-5471
4369
-4753
-1180
-320
5071
5985
155
2830
1041
-8374
-1576
-2985
2151
5650
2141
-3050
-583
2013
307
-6078
837
-1956
-2955
1160
-124
-2492
5421
-5630
-2527
-4078
4360
625
-4892
-2747
7165
-392
-2395
-6129
-9144
1005
291
3252
-8389
2274
-6117
1495
3292
-5675
5842
-4158
-860
-5192
1513
-288
3684
-9027
-795
-1971
-4087
5138
154
-2669
-9146
93
2512
1082
-429
5364
3341
3533
-4477
-2052
-3443
-5349
-768
-3615
-3895
-2874
2109
-6192
-4216
5445
-1630
837
-6150
419
3969
-1930
-3565
3657
2627
-3439
5916
-1815
2567
-3400
3028
-3434
2324
1865
-1059
4889
-3692
-8633
-3989
3501
1007
938
-5731
-1126
-5904
-2822
-4586
3181
-1013
-2619
870
3540
927
9697
757
2330
-3125
-195
70
7389
3520
-4662
4226
1827
-3028
4740
-404
-1681
587
-2185
-418
-2361
-4411
7216
-4341
-343
126
-2421
5463
-787
-8487
-3202
-1989
-6321
2871
-1752
-5168
3138
-210
-6606
-3873
46
-1963
-2267
-5614
-89
-1746
677
-2309
-2858
1312
5057
-3114
-314
55
-1309
453
-899
1685
1263
1268
634
-4719
1628
-2047
-3404
1997
3210
-2136
-1857
-940
3200
-192
2804
17
-2792
1439
-552
-244
-4399
316
4176
-743
-666
1897
3102
886
3218
8163
-979
-7555
-1070
-8600
-1755
1150
-514
1956
-2338
-2467
2671
2837
152
-2981
-2587
2737
4561
2410
1322
-131
2889
-6503
3538
-3298
1975
-1928
-4727
2170
62
3112
-10708
-5588
-6936
-2823
-538
-5069
468
5532
-1270
-6010
2812
1570
-797
-3758
-163
2483
-1404
-873
6239
4637
-9009
-11050
1319
1199
-1432
3439
-3749
1717
-690
1422
3901
2406
-6932
-4180
998
1596
1714
-4771
-3428
947
-3453
-8567
3000
-4056
3492
1788
2233
8330
1387
-4692
-5559
-1784
4505
6298
-10343
-353
-2551
-8011
-1405
-2541
-1906
-4819
-4534
2225
2977
589
-3666
-5692
6094
4070
-4318
-5407
-7699
-631
5882
5596
-6167
-1576
-2209
3114
149
1384
427
2285
1390
267
-1314
1078
5267
-1778
-4069
-2042
81
1297
1862
-4632
4046
-1232
-1165
8486
4552
-1102
7581
1004
-2026
-915
475
-804
11219
-1704
-2332
-6472
242
-7811
2111
-6285
-4566
-1749
3037
1331
-3057
3598
2564
3181
-5061
496
-1062
-2703
-7616
-786
-3236
1604
-8012
-887
9
1881
145
3379
-2670
-4026
-1089
-1178
3600
-2802
-1523
-122
-5420
3276
-279
5451
9162
2304
652
1281
1778
-3445
824
-2627
-672
4784
-6233
3320
-4140
-9053
3135
-7414
-1202
3149
1452
1576
-409
-5792
1895
-1698
-5087
5145
-2591
1289
3252
-6943
4478
-2617
-2387
5628
-11083
-1410
5114
-1368
-2267
3251
4217
-786
-2060
-5202
6463
6444
-7172
-2360
-1485
475
4242
-408
-2520
3345
4390
8088
3833
1744
1302
7565
2468
2231
4447
-3701
-2080
1650
-6446
-18
3632
-4564
696
-729
-10705
4274
-7120
-1170
218
-2305
-5319
-999
-6172
-5778
-6154
-681
-5458
-1870
948
-65
-158
6285
124
-140
1479
-1602
1454
-4227
992
1630
-2466
5473
609
-4706
2739
-4214
4334
-2186
-1177
-6028
-1446
-3648
4311
-1090
-3989
-124
-2108
-2625
-2559
5381
-7392
-3703
-2330
2622
-5658
2505
4343
504
2204
-1773
-2501
2527
-1679
-1804
8302
-237
-3733
-572
10845
666
839
-6643
-3016
1288
4531
-31993
-527
-6140
5858
3946
-8747
7841
-5206
1359
2070
-2962
-3549
-898
-759
88
3044
-11082
-12958
1781
1438
-11101
2020
7676
3992
6900
2034
650
-2425
3849
-9223
-7329
-2731
-13808
3480
-730
792
2739
7982
-3510
-6710
-11097
-8090
4965
-1051
9655
2137
1630
-8076
-2646
13205
-8080
-14032
-4510
1517
4705
9365
450
-378
-12409
-21339
6411
-14911
-8451
8624
8168
-16610
4808
-2192
334
-9181
-4304
4270
-6964
-4098
-14345
-4336
-8673
3693
-4249
-8483
-5766
-11706
4985
2929
-4949
-117
-1906
11893
-5742
-4821
2086
9020
-8095
20111
1434
15193
-2621
-12622
15127
-471
-7765
-7196
-163
-1737
-8571
287
-3315
-8019
802
-5385
1133
-2800
6621
-1941
-18475
-393
10706
1823
-7106
-5355
700
-1804
-6711
-10331
-6743
-11412
-2302
11785
7806
-7008
-8113
-10678
-5322
3537
-984
-3132
4030
621
4048
11337
-22992
-2476
-1995
-7111
-5944
13720
-3289
9774
3422
4468
-4512
-456
-1513
2603
5249
-5395
-2942
-5568
3977
6918
-938
556
-6823
-10888
15068
-683
6381
4573
12524
2166
418
-3816
-4514
4830
-5189
-2364
-4987
-5776
-2435
-1033
-11423
-6284
10411
-1333
3280
-2050
-710
-13633
-2104
8574
9709
-621
-5254
75
5605
-2997
4617
7031
879
-3901
5243
2701
90
-6011
500
-12213
1486
881
5125
4800
-6307
2312
-4873
-1203
-6591
2923
-1800
-1398
8820
2825
5004
103
2657
-154
-4906
3704
-5665
50
3196
6022
498
-2117
-157
13776
-4091
-4158
6109
538
-117
-5868
-3416
-1290
-446
11037
3790
2764
9042
324
-10557
5224
-319
7312
-1707
-4496
-3060
2224
6301
8316
2270
-2251
2658
-15811
10613
-5960
508
3573
1795
2607
3004
470
-6702
2899
-5334
-4983
3839
-7970
1358
5687
1535
3535
-4055
-6172
5058
-7575
-3318
-8531
11456
4885
-7056
-4279
-15051
-1919
-2533
3383
3071
-4654
7381
6200
-2158
3764
13853
-217
2482
2887
-11805
315
5144
11666
433
2908
486
-1881
-3580
3086
-2962
312
-1476
2408
1574
-4949
-5177
7345
-4129
-8997
-1920
-4166
-4043
-6527
-5969
-6170
-108
-941
-141
2066
249
4759
-5426
-3552
16
3240
-835
1317
-3231
3035
-757
-926
5256
1989
-2403
-3767
-5418
-4032
650
-5636
-2514
-1215
-4428
8147
1042
-62
-932
-1221
2586
-7368
4040
921
-9827
-3686
3812
-8273
-1548
-7429
-266
927
-5156
3020
4563
5063
-2164
1966
2393
2538
3085
-5375
92
-4311
-2092
4872
-3101
-1906
-8544
1476
9740
-2170
-852
-14169
-2540
-2332
-4880
-2101
-934
-1714
-223
5129
-3351
1246
-5152
-3038
-2800
2249
-3753
2783
196
312
-321
-650
2316
2301
-4547
-510
-2725
857
240
2089
-5390
99
2889
4103
-6661
2936
-4704
-4070
-3590
6332
1138
1141
-4420
-294
638
778
1580
252
-2735
979
-3332
7447
3459
2380
3006
3457
1525
-137
-570
-11310
-1538
2983
-5007
766
-828
-926
344
611
1508
-11381
-1477
2511
1539
1316
-3328
-4573
-640
2639
-497
5875
2227
2743
-1480
6062
186
-2510
322
-1498
-9139
-1216
6490
-1506
8864
1771
365
-528
324
5484
72
-1163
-2434
1002
-3616
6012
6814
-2630
736
11484
-10232
-2559
2719
-5817
-340
546
552
-2967
2624
1499
-2805
2151
-5203
-60
-4718
-8010
-1993
1341
-4401
-10820
1528
4691
-6459
497
-5016
-4725
-3479
1577
1965
-418
-1706
1349
678
-2840
4917
-4797
-676
-1050
3127
4474
-516
2343
-6094
8718
4015
-1192
4480
-1690
-2455
-2954
-3817
2648
-1862
1915
-5404
-2386
-5258
7304
-4878
-1486
536
3295
764
-4427
-4207
-718
-5337
3987
13
-2599
-7319
2931
-493
-993
3523
-2289
-2198
-596
-3822
3521
2090
-789
-2813
1039
-5077
-3605
2715
2510
-319
-2577
-2597
-2954
1988
-5776
1103
-42
1754
2008
-1248
6831
-4016
3091
-929
-3594
-5264
-1420
-1211
-1743
-4059
-1281
256
-3397
3675
10066
760
-1628
-1857
-579
-9759
1436
2029
-2508
-3692
5732
-3067
3228
431
7584
2313
6053
-5857
15388
792
2023
-11511
17034
2641
5780
-1329
-20770
-2317
11417
12848
-10496
1587
-18662
-11949
9441
-4213
5258
-7557
-7644
5986
-12329
-2142
1281
-12030
-7120
-714
2774
-5772
4015
2780
11454
10255
2137
-11060
6011
11450
-7967
6022
-13234
17071
24294
10680
-443
7318
-9311
6148
7047
13911
-2436
-6362
4267
-5471
-11821
-5108
7604
3244
11808
-117
-448
3501
4180
6293
-8588
-8867
-391
-15814
-5554
2069
5272
-9373
9325
12376
-22907
-2542
-6535
-5636
8906
5149
-179
6454
-1112
-15453
-13847
2634
-5484
5205
-5534
-6225
16068
4590
-8062
-19769
7621
-1564
7668
3621
6867
991
8014
-21002
161
2170
-6588
-1538
4291
-6701
2701
2275
-8006
-12448
-5756
5366
-4555
-122
2355
1408
-4563
-5994
-14020
-2806
-6377
10840
6761
5280
-4280
1435
21914
401
14224
-10550
8618
-15334
1664
-21127
-9431
-21686
-500
9715
-3010
-1434
-3677
-13386
-1260
-2383
-6657
-3387
-5500
7244
9145
271
176
-7593
5369
-4700
-1902
-4412
-4911
1413
-535
-4733
717
-1609
-2394
-5965
-1308
604
709
-1047
349
-2197
-9054
-4489
-1129
4968
1710
-1200
1727
-2559
1546
-1000
-1049
-1253
1578
1133
-4796
-2697
-2555
-5452
-1391
-965
-4640
-91
3627
2323
-1514
-1965
-2448
-5043
-3031
-4379
-1576
-2287
-840
-2163
-3476
-65
6306
-2350
3847
-775
3576
-89
-5815
-1619
-3932
1491
-5137
2703
2197
-2922
2336
5826
15
3673
-2028
-7691
-592
-439
182
-1505
-2294
-674
-1117
1175
-404
-1074
-554
4174
24
-2479
1046
-2836
127
-2088
2644
1397
-890
-444
-3135
1800
1972
-4236
-1453
5034
-872
-2172
-1857
664
-310
-288
-1775
-846
-351
-2027
-2813
2172
-1611
-5118
2765
-885
-4009
-172
-2274
-3775
-457
2836
-7089
3392
-1
-227
1523
-2450
-3234
-3340
487
2826
2472
-924
2477
-1927
355
-2624
-4335
-1338
596
105
1171
-2151
1694
-616
-3426
-1244
618
-290
-451
-929
-1911
3380
-5439
86
3076
-2661
2119
-9286
3605
-4189
671
-11
267
-7445
-7081
6317
-11587
-1472
8098
-8770
-2613
-7204
8072
5893
8189
355
-3224
5348
-5343
-2806
1918
695
-7566
-10248
-12509
-4802
4021
7822
-1668
-1591
-15015
-13718
2472
-4288
-5887
-3230
-10700
1427
-9901
-275
4085
-3929
-6395
-2273
-13078
-2663
248
12287
-1133
545
3244
-7651
3595
-10436
-16420
-3887
-13657
1793
-12645
3393
5332
-11836
-14211
4517
7601
190
558
-1695
-4890
8718
-5925
-537
-4939
6618
9668
-5229
4404
5371
-4170
-960
-9566
-14164
6420
-1760
660
-6814
-3034
5909
-18203
-4587
-8356
-13243
-9275
-13145
-2682
-1081
1191
-5977
-10026
-9925
4624
3827
5122
2590
4134
-5798
7991
-5383
547
-2623
-174
-7104
7856
5394
-2908
-8453
-1508
1989
1521
-7286
-2684
6019
54
6922
-1429
7600
-398
1140
2407
-1012
-332
-1728
8043
-3413
-12828
11619
-7592
4099
815
-7072
-5070
-9497
9538
1412
7810
-3872
-12189
-1911
-6646
-6719
80
-3054
-4502
4405
-4473
4663
14801
-2632
-3556
1070
8411
58
3415
5423
-2405
-2187
-134
1496
-8496
-3556
-5626
-3049
2205
10334
-11
4498
-6
5451
-226
-1691
-1401
1090
-1107
1151
3423
4139
1551
419
-1857
-480
-5605
2246
-2971
-3558
3951
-2307
7770
-5530
1090
-3837
-6607
-2078
9768
2615
659
-4889
843
-2256
-734
-494
-4847
2159
-9944
7472
4192
-2424
-14
-4548
-8005
1559
-4837
7525
-4709
-4536
-4946
-2513
4732
-7141
-1789
7193
-2076
1991
418
3487
-1576
-10929
-5749
-6356
2822
-5098
1129
2958
-6417
-2596
-5824
-883
-6162
214
7166
447
-4781
14070
1141
-1946
-5723
-8095
-15235
-8195
6012
3018
8926
6367
962
4550
-1398
-2292
5960
3640
1938
1296
-9321
1580
10698
1906
8940
-7582
-11750
-1357
-2932
-3013
-7544
6273
-5427
-7843
-2377
-216
-4250
5500
6095
-2601
2013
-12220
1207
-2885
-3209
10965
-1473
-2191
-5094
502
-2452
3165
2558
7629
-2866
-3389
-4361
-2103
-10994
5005
-4126
-5290
10613
614
2585
14053
-1892
978
-3714
-11209
-11232
-3682
-4497
-8688
-6137
-364
3173
5195
7482
-13858
-9307
-3720
885
-1657
-5071
5373
1828
1652
1617
-1758
-2221
-1097
4578
-1390
11841
-4021
5612
-5962
12588
-21104
25045
-1439
2968
-7682
-8545
-5828
-8397
-11332
-8911
3776
2771
-1528
6970
3596
-4590
5861
1926
6129
1087
2051
-5074
6040
5777
-5157
1131
9685
-7785
9723
10784
-5767
59
-5163
-2881
-2466
-8240
6109
7988
-14042
-6694
-3957
18117
10793
8745
-1116
-4464
-1925
-3363
2734
838
-6397
-7250
2116
1998
-1550
16073
-7055
-5196
-3777
-15660
9633
-4878
1319
-3376
-3256
2871
-15034
-10686
-7813
5054
9271
3764
-10744
9529
-879
-1525
-1050
-1563
8729
-508
-6549
4734
-316
-4723
-6631
531
-15157
-28182
-5895
-20966
-2873
-4464
-10370
-1805
-11745
2651
5013
2099
4561
-456
-280
-7118
6219
-9810
-1206
-5763
1812
-3817
1294
3821
1949
991
-13166
1658
-12147
-11410
5676
-13347
-20541
7967
3041
1278
-3487
813
-324
19607
3738
4197
7854
-1383
1580
9608
-10249
1779
10910
974
-8261
12032
211
535
-4600
-444
7066
-169
-5184
2559
-3663
-30
8537
-3982
-1230
-7852
6002
-4607
3909
2352
-1005
-6064
1604
-6587
110
1121
-5761
-6424
-8276
1110
8686
-2043
-1053
-385
-3242
-9801
2520
-5033
-1879
4680
141
-790
-7808
3481
-6119
5820
-7364
-389
9504
-1062
2724
-14071
-1452
5063
3886
-245
-2997
2560
3566
-4494
-2283
-2392
-4107
1314
1801
1239
-1784
3769
1211
5321
4585
-706
-2462
5685
-1894
4030
-3285
3992
146
6534
-6443
-3187
3544
-5128
-272
-8572
-2360
7112
8840
4068
-10221
-2311
-489
1518
6790
-3259
-3186
7643
-2790
-6605
1532
1592
-4565
5880
4879
-1728
-358
-3243
-5758
-678
-8202
-5661
-1787
1539
-4457
-361
-5192
-7044
1965
-391
-6992
9212
8786
-555
-1260
-6011
1936
-6942
-7408
2092
-5191
-529
-4412
5901
2068
656
-10376
-3880
-5557
-631
-6609
1623
-1833
2018
-604
-193
-818
495
4045
7988
-5637
-3713
5884
-2277
6193
-4032
136
2103
-1885
-728
-396
10196
-4794
-701
-1777
-5994
-12446
1675
-1198
3211
-4477
4875
5827
6122
-5
-10049
-9554
581
11772
4617
9031
-2084
-464
5544
-7825
7413
-1873
-1076
-13462
4318
4487
-9533
-3977
-9342
-5165
1300
7752
4720
-2436
-232
-7550
5386
7468
-289
-1220
-2033
630
2845
7913
3139
-10879
-1838
4931
3889
-1759
-4011
-7957
3713
1570
1898
2178
-1772
7478
-2234
-7712
1394
-10492
6216
4356
3683
-2618
-6157
624
-6960
-794
7111
7765
-5183
-3461
3670
-8487
-6672
-1517
3847
619
-24
-504
8588
6662
-2738
-986
-424
2794
-155
1559
-5743
5947
-2045
1633
2276
6457
-1803
-4891
-1905
11002
7362
-1088
219
212
1781
-10868
573
6841
252
870
-6653
3805
9614
-2598
-3368
-6304
3085
-3962
588
1275
-5890
1081
14064
3787
9634
-3768
3245
-4792
1481
3277
-1746
1139
-3109
5880
12541
-5509
-4769
-3940
-1137
3287
2898
-1354
-8436
-554
-2425
5406
1214
-1117
1632
-3276
-267
-342
-5118
-2417
-1245
-1453
7512
-5743
7555
4653
2894
-6652
-486
7162
-3665
-949
9294
3295
1755
-5776
-1515
347
-1975
-3707
-4156
1717
-4407
-1684
-6069
-838
1121
-11851
-9170
3313
-5914
1243
-420
557
5793
-4597
456
-6468
318
-487
653
-27
-9915
5260
2358
-466
6446
6657
-6478
5840
1703
-1457
-5109
-3124
3357
-3436
6851
-3835
-3541
2139
-6289
-1031
1047
-5249
3942
1090
-1534
4041
6359
-7455
566
-4046
-925
-5228
-4117
593
130
3541
-3133
-11055
11425
-2910
-1657
-2607
-255
1369
-843
2585
2576
3551
-2064
-10537
1360
-3465
963
1010
-541
-969
252
1460
-2388
5287
78
1209
5845
3816
1030
4142
-5852
-2010
5184
8668
7575
1848
-2324
-9273
-749
-1834
-1083
-2939
6323
-1077
-648
-1645
-1200
-319
-5667
6412
-690
-6015
1020
-3690
7414
-7201
-2158
-1505
-1141
-3125
-4440
1149
2132
1531
-4098
-1188
-3556
-8846
156
-419
1916
-1545
8552
-6152
-5114
8139
7799
-9561
4566
6612
-9342
2977
7308
-3391
6145
2988
-6849
-5824
-8241
-9445
-9853
4435
2049
873
594
-4997
-9261
4556
3241
-396
3984
-11638
2851
-586
-3465
-12954
5320
-14807
-3023
1029
213
-652
-2526
5732
-7619
2378
-19021
-1218
-157
-1713
-2509
-7073
-2829
-6905
2244
3562
-2437
-3206
-11568
-3446
4828
3102
-1400
11366
-11525
1849
-6126
-4762
-158
2423
2548
-4958
12343
-3966
2990
-7508
-4318
-3185
-6985
-2981
10690
6736
2562
-648
-14752
8676
10591
-14496
6380
14369
-5165
6357
-8394
-13212
7647
447
4349
1601
1958
-8528
-1576
-6009
3139
-1131
5614
-516
-187
6094
9425
5099
-3238
-5405
1915
1025
-6742
-10722
-11701
-202
12459
3217
-7933
-9298
5629
-11571
1086
-5106
-1938
4478
524
1867
13496
-4459
224
6437
-3954
8854
904
1132
-2427
8981
4545
-9227
-4291
2944
-8323
-9785
9514
524
-5969
8966
-8718
-6676
4809
-1044
-6271
-4130
-7661
6373
5074
10568
-650
-1235
861
-278
-1482
-4933
-5927
-2607
-17021
-2385
-292
-3376
-152
17302
-6910
-13641
-489
-13295
266
-4810
9708
-2228
-5302
4148
-4651
4686
2933
4118
4366
-3187
-2682
-19022
-5499
-682
9889
754
-4418
-3309
5336
-3153
7101
-8433
-4410
-2526
-3510
7099
-12817
-3840
-14042
-8363
2354
6371
3734
-2630
-4774
3932
1996
-8632
5477
1870
4644
5628
19838
-2876
-3827
-12173
-3717
-5068
970
-3725
-1143
484
20595
-2890
-2142
-3855
-4672
7410
-1680
-5775
-1824
-13638
-3389
12921
-2221
-9596
2924
9118
6509
-848
3487
1772
914
-6089
-9404
-5143
-4000
1420
281
-2923
-12295
6473
-5618
13677
-301
-1276
-47
-1470
-12006
7883
2866
-6396
9259
6727
-1788
1831
5679
-3005
2572
-8941
3157
410
3315
3306
2696
1079
149
-3916
1259
2661
-6267
-2086
10271
-4516
-5498
4159
-7519
12310
-3344
-600
-6170
-237
-8968
-7221
3276
-2897
6332
-1521
2856
-6086
3265
811
-16759
4076
-13212
-5109
-1751
-1207
-2146
-5995
-3701
-2095
4863
-352
11559
4284
1155
-267
4741
9167
2407
-7623
125
5629
5344
-6685
3754
-5972
230
-7062
8429
-2833
2107
4596
-311
805
-5568
812
-2635
-5683
2558
2169
-7291
-98
-5351
-8654
-6575
-1400
9266
9587
-4107
-2775
3297
3638
290
264
-4014
-1126
-4099
4918
850
1642
-12682
-10859
-7588
-2793
7956
398
-3672
-7979
-3690
1840
4800
-2367
5669
1153
551
4867
-3037
2650
-1233
11092
81
690
10186
6419
2422
-4692
-7046
4966
-3411
-3789
7298
-3033
702
-3231
745
-2926
-1624
-6147
-4419
-471
5883
-6194
3807
3103
2
4248
1859
-1765
1470
-19624
10390
-4007
-6958
4936
-8316
1063
1022
2908
3386
3592
676
-18310
5363
828
-12068
-3101
532
8514
-5238
4063
10188
-5843
3541
6106
-5739
5569
-2901
4647
7876
-2040
3458
4796
8571
-2006
-296
-5926
-6812
75
1430
8179
-2892
-3346
-9170
11242
-7077
-16844
-3877
4338
8572
-6537
3209
-2457
-2752
-145
902
-726
-5499
-5684
-18912
-2193
-2111
-177
-1325
-4802
-5509
-1625
3671
4504
-333
-569
-8691
3824
7982
7180
563
2250
4176
-12149
10035
2470
-4273
-2565
-9572
788
-35
-3076
-4230
-7121
-3423
2120
-7473
924
-2573
-1210
-2247
-8298
4192
7591
-2372
3938
-10022
1945
6493
4219
-6461
-4277
-8870
1534
5342
-3665
-6800
-904
-2822
-2855
4092
195
151
-4042
4263
-1493
12555
172
1858
5199
3778
6933
-5912
-12407
-3101
6399
-4305
6351
-3521
-4081
-7960
-5751
-3478
-5666
285
4736
-4800
5733
3065
-3119
-1601
-2485
-5090
-6739
1960
2325
4918
4660
-1520
-3379
-15709
2196
-3647
-4411
894
-2582
7574
-1485
-2092
3206
4014
8013
5380
3960
10095
-306
2132
3829
-2517
4906
-8806
1447
1120
5558
-1025
-2595
5857
-1116
3525
-3469
2895
-69
9416
8724
-9413
12636
2162
2139
-5363
2894
-8025
4536
3811
-382
3673
-2918
-1130
1047
9237
6815
-1888
-7401
4209
-2921
2133
-3863
2798
5089
-433
2629
935
-6424
-6107
7701
-3441
731
-6377
-4299
-12731
8314
2991
5895
-3452
1725
-1485
2468
-4043
8473
1797
-4025
-7245
3482
2148
2181
7976
6042
-3573
-139
-1873
4710
-2379
187
-2295
-6414
7406
-2837
-167
1559
-449
-2940
-740
-8078
-8312
-9014
-2985
3128
12697
2982
2714
1318
-9218
3600
-8200
1521
-6818
-1263
168
229
166
3171
-3059
7715
6915
11645
-3682
-5761
-17
-131
-6446
-839
1534
3150
670
4764
1980
8303
4354
7706
1092
-5145
1671
-2792
1099
5172
6978
-2822
1283
-344
931
6336
122
-4126
-5145
4274
-10208
-6177
3042
-25371
-815
5167
-456
3793
-3939
-6088
6302
-3416
2443
-1808
2653
957
2732
-3757
-4619
-11881
-1245
-8176
-3878
-2046
-3944
-3560
-10567
2411
-853
8744
-3437
4249
-1483
-1517
-10138
-207
1800
2650
1977
-7631
-4002
5939
1576
-50
-10968
-1945
7795
-2204
-4185
-1273
2466
3016
4041
335
3332
1282
-1856
-15249
-2931
4935
-10910
3466
6184
-4665
7915
4068
-1782
-736
-14229
-5142
1549
1276
1748
-3800
-2841
1024
450
1613
-11106
943
1783
-11785
-5087
-1812
-1922
4935
-1527
-6348
-4196
6437
-376
-6120
-1091
-4271
-9436
3028
-3878
-1238
3207
3088
-603
-536
-5660
-10300
179
2562
-1594
-934
-5379
1322
3111
7394
5503
-5624
2597
5215
-3627
-7177
-10785
-2899
-4420
-5705
-507
1213
-8523
-7980
-691
-3962
1257
-599
-5
-4487
4258
3355
9393
7001
-7467
4595
773
-1280
-10044
-6946
2848
-1334
-10245
-417
-4231
-2083
3077
536
-11059
-10313
4753
-387
3743
-11717
3932
-1048
-1601
-1548
-4111
12723
-2124
216
-2077
-4403
63
688
6219
-11514
-608
109
1974
-868
5219
3805
338
839
-5112
727
5063
3273
-6767
-6963
-838
4330
-10210
-5162
-20
3097
-8919
-7409
154
-4334
3210
-2772
-828
-2538
-4772
6664
-11281
3311
-2434
-1130
-9801
-17685
-12349
6310
1669
11308
-436
-463
6944
-3400
-3018
-5989
-2506
-4553
-5545
-3899
-204
-5673
-1982
-591
-3196
-977
6690
1107
8
6836
-100
7321
-607
656
-2097
11986
-5147
2910
3850
9654
-2044
-5432
-3251
-1566
-3710
4452
-1904
3456
260
4936
-849
-1367
2383
-2340
985
1401
3935
2998
-3161
1498
4916
622
-2544
7683
2238
-24
4716
-2113
-4626
4254
2637
520
-9741
3661
-4033
-3639
1025
-8874
6962
-3200
-658
1510
3221
6836
-6367
1247
-2915
-7191
-7872
-4577
-2959
-5899
-5732
-8330
-7123
-1497
3711
13074
2383
-10392
-1324
-5071
-5193
7881
-6217
313
-3951
-4039
1193
-1495
-6803
-3180
8036
-2141
-1769
10812
357
-8641
-3669
-6167
663
11790
2513
-1813
3180
-8575
4353
-3017
-3564
3910
2908
8839
1382
-1123
-6184
11138
-3906
-6893
-12102
7447
6100
-6330
7364
-10306
-643
4710
2485
-330
5008
-4625
4501
4727
-3279
-10378
5330
3070
5760
-1341
-3099
2605
570
-9351
3392
-21
5260
-861
676
-1140
595
3849
-146
-11703
-10697
-1844
-5964
-12438
11028
550
104
-7259
-6177
630
6689
-8456
3937
-551
-10378
4095
-1906
5148
6176
1633
4159
-3040
-5642
6361
-3222
2100
-4647
-605
-1791
-175
2647
2111
-5641
908
-2736
-6749
-10093
3922
1754
-5146
6183
445
-2024
1831
-3726
1126
-1190
-4152
-1070
662
-2819
-5442
-2736
1517
-1806
8864
-9803
-5625
1701
-5948
2678
-4467
1242
4937
5394
-697
-413
-4648
5130
-8790
3509
-6334
3140
-5524
5021
2148
-615
1661
-12929
3273
-546
-1450
-13204
3320
1279
4687
4510
-10329
1984
1992
-3346
-4393
-10694
736
2990
-1834
-2369
1203
-5948
-7210
-6515
-4954
6781
-5739
-6138
-360
11327
6757
10194
-6025
-16844
-942
3549
2855
12370
-918
-1471
12953
-10328
430
11425
-1294
5721
3424
-9246
12568
-954
-7772
-4675
3520
3597
-1215
-8872
1998
-14369
-6456
-8399
6446
4082
-1318
3813
5842
3449
861
1273
4782
-9095
-1378
3871
-7790
4248
5199
-4128
-7418
1923
2880
8395
-97
10631
-4299
-9994
-8853
-3489
-11975
4321
-645
8700
-3067
-5406
15419
-9935
-4678
2862
1012
2037
3573
1458
-10728
-809
462
-7109
-2278
-8212
-3718
8514
3682
4311
8991
-155
-2953
1760
-6651
-3216
145
3045
2887
8848
-124
-3555
-6683
-1539
1041
-779
2184
-7604
2312
-1500
1825
730
2043
6628
1986
4779
1917
-1764
3739
420
-3367
2962
-6324
3802
-9777
892
-1909
-413
480
4515
5459
560
-5068
-10948
1439
14
7544
-1997
2319
8959
731
-3337
-6466
-5657
-9627
7800
5133
1053
-996
9240
3880
8378
-456
-5707
38
-1810
4609
-1058
-4956
2463
-2221
-3679
2416
759
9075
-2424
-1673
6435
4439
10338
-11309
537
3507
-4569
1680
-2467
3097
7279
-593
-3871
-8259
-1263
6039
4036
5012
-1232
10244
7207
-8795
-5067
-14047
4397
3231
95
-7916
6725
-1472
3022
-2663
-2954
-4843
-143
-5636
5085
958
7650
-903
-2897
-2321
4703
3618
2277
1415
-6697
1955
7557
-7623
-4654
-2150
-684
8568
-7879
3696
-8533
868
-6397
9520
-3370
-9569
3991
-145
4784
4230
94
440
7002
110
4893
-4245
-1870
9557
5793
-1753
-439
503
-4640
-2618
-2806
9944
-1939
-9697
-12193
-4498
-4994
-10089
2016
1406
1301
6508
3792
2748
3052
4985
-1478
1016
-1585
-2413
-3001
505
-5136
3450
4338
-501
-8236
-4550
-4336
1482
8537
-4113
-3267
766
-5496
5138
3905
6033
-9310
-5239
6464
-3716
-7800
-1596
-1623
-3475
1007
1562
7470
4386
-10
9034
2752
9994
11216
-3574
1054
-14153
2123
-12360
-186
-6026
2326
1811
397
-1226
-3435
6876
-3436
-7708
7843
-800
908
4198
3498
-9898
4204
2290
4034
-400
-7406
-11585
2132
4693
1415
-2058
-14200
2075
31
-271
10696
987
-4684
-982
2865
-9359
2764
3795
-2299
-2797
-7394
1728
2317
-337
199
-1598
-2968
9108
2512
-7513
-7865
3866
5313
5774
-1056
-4961
736
-946
181
-7020
7031
-2398
-4269
-7111
285
-156
1813
922
3440
1614
477
-11782
-5217
414
10144
-1207
824
-5063
5179
1469
3108
-3413
1816
1239
-6521
-5290
-7351
595
377
-862
-1304
113
6100
-157
-2743
804
3580
-2640
-5354
-6928
629
-1914
-2551
7266
1813
-6873
-7985
3562
84
356
4771
-9177
7972
88
2917
7912
5606
-2663
-9179
-1851
1265
-9055
468
7088
512
-6918
7842
-2523
-11912
-9180
-7133
1012
-2554
-934
-330
-663
-2424
5866
-1050
1961
-5334
-2560
-9719
-5364
-10765
-6919
-3514
10992
3189
120
-4776
-2372
-31
-7176
1875
-7806
-7840
2102
1349
6700
-4003
8413
-53
-11222
8443
2033
-745
-1763
6145
1773
-8118
2868
-1304
-460
-2125
146
3904
-2069
1196
4948
-5632
-4642
3614
-3122
-4220
-4364
-3756
-3158
6119
1796
1339
-3093
-2887
-321
-258
-3044
-6083
-412
-3476
9346
-943
-8994
3290
1256
1159
-3019
-1402
1450
-2566
-2079
1236
1085
1691
1555
-11120
-3157
-1954
-3860
-1463
1351
13875
6564
-9243
2506
-617
-2346
3679
-2870
-178
-6463
4876
-1500
3460
10497
3140
-3789
-4916
-1337
-4726
1239
1253
-8444
-5050
-5194
-1482
4908
1101
-6098
-6385
-6022
-1004
-4967
2298
-7165
3141
-3010
738
-4308
9810
-4407
405
244
-4587
-450
-6046
-1942
-3630
-7198
-2298
-4024
-664
3799
-449
2499
-292
-2897
-132
1683
-2733
787
-1019
-5428
602
1730
-124
-4393
269
-3909
-1975
-1959
1472
1267
-640
-5735
-432
-576
-1472
-3118
-329
4287
-3405
-5992
-1433
-9226
749
278
4
1315
764
-2741
-2225
3021
4904
2941
-2319
-2294
3298
-210
-6560
-4895
-4893
-223
3440
1265
-5441
-762
-1615
4347
-1271
-27
2129
-937
2025
-273
644
-605
2184
-2117
691
-1531
-6512
-2478
-625
3280
3267
-3361
-3982
-4080
-1047
-1858
120
-1124
-58
270
-5988
5586
3878
-3509
-3300
206
-2336
168
1481
-2324
47
3791
-5545
2554
5690
-3046
-5276
9851
2416
-2664
-2657
1385
2141
-3129
1244
51
6183
1099
-220
267
-1203
420
626
-2152
-678
-2675
3644
-4909
1157
-1788
1350
4190
-4377
-3998
-2261
-4079
4152
-99
2702
-5139
-3189
5453
-2022
-1988
2146
1041
2145
-6123
-1277
-1642
-3620
-4337
375
787
-955
-5304
-1432
-6002
2636
-7986
535
3329
8278
-6887
-2390
4021
-5383
876
-117
-1164
-633
960
-834
132
-6540
-906
9069
-7166
164
-1862
1933
-1932
897
-1768
3738
-715
-3653
-6842
1372
621
-1020
-4574
4337
-1944
-3907
-223
-4122
210
2749
-2772
2317
6288
-5775
-2828
1449
-1871
-6125
-2415
-3703
663
-3869
-122
-396
-2723
1327
-3255
2493
-4886
-1050
-697
-722
2739
2248
-1583
4516
-4597
-5131
-4240
-8227
-3835
4615
-6412
2413
-1208
-6558
2231
-4280
-2601
-3118
-659
-4803
714
-4278
1715
1821
-1170
574
2497
-1523
-7317
-1412
-3690
-6952
1423
1810
-1628
-4748
-4055
910
-10504
-4710
59
2011
-3436
-6742
-1275
-834
594
482
-313
-10051
-2797
-3718
1139
-2744
2018
-517
-2654
-2190
2241
-1945
-6691
998
990
8395
6355
-2401
-2603
81
-3482
-4917
-2616
2400
1237
3336
-1696
181
-5157
-2888
-1305
-742
-7786
-1922
-5851
-7580
1329
6704
-2456
2526
4926
-4129
-5327
-6893
1330
-2651
3289
-8702
-1993
-5354
4764
-3706
-2901
-3858
-937
1141
-1820
-3251
-1243
-817
-4230
-7940
933
-7043
3483
6022
-6726
3009
-4466
2744
3130
6485
-4500
-4328
1920
-11587
-7524
-110
-2146
-3261
901
-738
2639
641
4489
-118
-7161
-7889
49
-2229
-1401
-256
5048
-1698
-1112
5336
-4492
-5141
-4464
-6676
564
-5589
-4438
2960
-2288
-4680
-6650
9912
-6019
2205
4564
1455
1284
-630
-2440
-1497
-2559
-9265
820
-591
3922
-4227
4169
-3444
-14721
-5575
4315
3772
-4644
1790
-482
-7296
4129
-3868
-704
-4773
-9822
3332
590
-6690
-351
1449
1028
1384
-3700
1021
-3013
1615
-1446
3526
-2646
-4461
-3285
4137
-7842
-2764
-1474
-103
-991
8365
-3390
5042
-458
-7375
-7400
-1132
-2761
1676
5722
-6118
1786
1703
-8499
709
-6891
6802
1795
-6144
-7219
-2542
-8131
1420
735
1168
1148
4307
79
10045
505
1460
1540
6808
-6349
-935
-6271
-1069
-2492
-1675
-3907
-1143
-592
6077
557
-4308
-2443
-3884
6
207
-3130
-47
2827
-9341
-4367
-2034
-2730
8327
8548
2673
-4082
-4063
1801
-1619
11708
397
-6022
-2038
-2595
4941
5256
-9305
-2020
-3857
5734
-2567
5481
1832
-5379
5857
1305
6964
2427
-6059
-1555
3660
876
160
-293
-785
3313
-995
-406
-1110
-632
3104
4820
-3604
-3385
-2148
5468
1397
488
-8225
8104
-3199
758
-3101
8468
9819
-5101
256
876
6127
2358
576
4249
769
2958
1054
4809
-3182
-7098
7025
-3878
-8852
730
-2072
4037
2799
-122
-7093
432
-4291
3116
-8837
-4002
-4273
3119
5747
3971
-6349
-5826
2885
2184
-374
15
-157
1219
-6487
-631
-737
5516
-1285
-193
-1990
5424
3143
-3904
-5863
-6248
-9575
-5096
-3809
-2093
-2638
2896
5589
813
907
3169
2142
-1208
-2843
-750
3462
-682
914
-4679
-714
1792
508
8547
2128
-5870
3642
1276
4570
-5402
-1153
-4239
4596
749
-2828
-9313
4074
992
-2047
-529
1280
5799
3492
-3027
-1372
3349
-14536
12527
-2368
-588
-1782
350
947
1565
1072
388
3273
-3001
2906
-2574
-2021
-2338
-911
473
-5444
350
-1189
2636
-484
-437
-3917
633
1410
1707
621
-3760
-3434
-2075
-1180
2145
-627
-988
5606
-1518
-2578
-2307
-1079
807
-4178
-1169
-3390
-2726
-2179
-4809
-2159
403
-649
-1798
265
3996
-4719
-1342
4488
-2662
-278
-733
-579
-3270
-1133
1170
-4475
-1051
-1382
423
-750
-1310
837
938
-3622
-360
-46
-3638
-4557
1674
-3066
-3775
-774
-2794
-79
1190
1761
-2532
351
1017
1834
-2131
1872
1209
4157
-1952
4128
2998
-374
3372
2003
794
2771
-248
-334
1102
-5269
-2151
4410
-393
-2735
-3841
-1397
453
-4236
-1740
1952
606
1579
2013
135
-2487
648
2242
-5585
1940
101
2671
-5261
-2561
1428
-3397
1126
-2325
2252
-4940
-1618
810
1860
291
-1819
-2652
691
1592
-2081
-557
-2077
0
-2672
3281
-4024
3016
82
-6615
1194
1699
-746
-5093
-2454
2488
4147
1102
269
-1975
-167
8196
-8350
3105
-5750
-200
8166
-1984
8085
-8916
-20223
-12466
-3162
5831
2960
-17788
-9948
-5653
-1330
8341
-2770
-3768
-13210
976
-7470
-3202
-3242
4194
-826
-5502
5294
2951
273
-10716
-17900
671
-2873
3410
-9063
-6699
5169
-1106
7596
112
-775
-2050
-1748
-4864
-8835
-8099
-3520
377
1224
2545
-1698
-4901
10498
14298
-6324
-2082
-11804
-6551
1239
-847
-7386
652
-18895
-9268
-1285
-4039
-4590
6786
-4916
-5925
-3623
-2864
-2212
321
3338
-298
12618
7071
-8671
6380
1238
6793
6656
1756
-21649
-3513
-2424
2989
-7143
171
-7623
-3967
-241
-3417
928
-5135
5230
-5795
-11548
1564
-13369
10008
1117
-9050
-1901
1553
2999
2183
7203
-3429
-5063
2854
-1385
3021
7566
-12833
2061
4952
3952
-2177
-3872
-8293
-6970
-9990
1299
208
-9758
-321
7884
-4383
3523
10502
3540
-77
6474
-3425
-1975
239
5140
1783
4932
-13787
6906
14093
6608
3730
-4608
3018
782
-7631
-1718
7343
-12195
-3521
-14235
-902
-4588
-15083
3003
9428
-9080
-4662
3806
623
-3312
7837
5409
3048
-3464
-4947
6910
8986
-382
11024
-4564
-10156
-619
3334
1882
-11321
-3307
9167
7048
1232
-1659
-198
-6349
-754
-4746
12999
4311
-888
10711
6306
3435
12525
-4553
-2932
-5200
-6326
2384
3023
5372
-6237
-10871
318
10884
-10262
-18369
616
8676
-6750
-6679
-4060
957
-2509
4229
11898
9507
-146
-573
3903
7544
-3905
-419
-4071
2481
578
290
-296
-6873
8580
-189
-717
8255
-3117
-10154
-8209
-4150
-456
-742
2107
-15707
4238
1455
-6399
2562
5620
-1628
6120
1762
1153
3569
1254
-4238
6024
-2332
-149
4034
-4590
6495
-3800
7989
-4993
3205
-4409
1476
3960
1748
7074
-758
-5753
-5163
13027
5422
-2299
-889
-529
206
-1874
1166
5517
5162
-5235
-11
-3129
1967
-4373
11701
3535
-2051
-5217
881
3033
554
2453
-12949
1843
2498
2866
2006
-7494
6329
-6805
-6216
1495
-3233
-5479
5480
115
2139
-662
-1412
5578
6710
-15915
-9262
-5503
-8241
-56
-4714
2909
442
3503
-2376
-1957
-1626
2825
-4008
-1356
-2849
918
-1320
2920
-4988
58
-3008
-5142
3591
-4405
5747
4046
4151
3005
-5418
-672
-682
1312
-2766
2143
-2417
-4211
-1551
172
6849
2363
-2766
-1824
-664
-994
-216
1720
1407
-2499
1371
50
-1727
1133
-1349
-811
711
-524
-2043
2143
3614
-2362
-644
-3947
-993
-3689
-3830
-2786
1187
648
-5972
2680
385
-3005
-742
-2343
-5704
4557
920
-1770
-6261
2111
-2307
2020
3308
-205
-2902
-326
-4384
2408
-3197
-3082
-708
-4130
-179
-3059
-166
3108
2228
1686
2969
5415
-3084
-880
1547
2596
-1235
-1817
-4698
-2160
2078
-337
-4088
-1084
1192
3210
-2084
-1438
-512
-4977
-5252
1169
1316
-2536
445
-7607
-2901
240
-2146
1347
-4
-1957
4337
-6271
-1868
-2203
-3529
-3615
-936
-648
-4381
599
51
2681
144
-6326
-5357
-2646
-532
-4443
2060
-1354
-4151
-109
-325
1584
-1723
4124
-576
-948
3627
1483
2087
-3894
-3421
4729
-3584
718
5194
-8918
650
-1676
8267
208
6194
-12128
8719
12797
-5216
3029
-1199
-8041
-2091
5665
4786
2352
3908
-263
-5366
-5729
7287
2786
-6982
4057
-3201
-4644
-8155
-4616
-4704
-4524
-2298
312
-5592
2633
-8358
351
2743
4307
-236
274
7262
2009
3463
-1847
-5225
-174
4995
-372
-1317
1278
-9793
7130
-2513
-3081
-450
813
-3873
2514
3989
5510
-6133
10669
1425
-3640
-659
-3333
-5888
546
1793
-2378
4747
-1773
5635
39
-2482
-2891
-5379
3860
1081
6928
1905
-347
13753
-2596
2869
-2285
4451
7614
4879
-3844
-7519
-4377
3553
2096
-709
-1693
3431
-7985
-494
-1786
1149
5311
-2303
1927
3580
-2313
4091
6585
-2924
2109
1445
-4639
-69
9153
-146
-4544
-6385
-1515
2115
-491
6192
-5297
944
-1137
2143
-493
-6020
-1747
-8870
-1894
-4866
-460
-10838
-2073
-1062
-4572
-1843
-1510
-5529
-1676
457
-1321
8313
1406
1262
-1614
-3947
-6129
9401
-1561
-1743
-9933
3921
-8396
-25
451
-644
-419
-4338
-1749
-905
90
-3718
2307
-2373
-2240
-2255
-1007
1305
-2310
-2699
-2196
-856
-3318
3882
-567
1458
2217
-176
-158
2330
145
-1641
2586
-3907
-4796
-4942
-4384
-4160
-7215
705
-3113
-2047
-279
-1133
-3833
-7455
-6317
-225
-3727
3151
1578
-2875
-699
-344
3581
-751
-4269
-1907
-2533
7329
-4478
3079
-3068
-2497
-1544
-3080
-5107
-4118
1968
-3413
-637
4292
-2141
1438
-3524
5928
-8483
-2562
379
-3811
-684
702
-2865
2686
-4873
-208
-5402
3337
-944
-2862
1907
-58
-3236
976
-1064
-293
209
-1092
-3067
496
8665
-6526
102
-306
-6175
-774
-3624
1305
-5069
5315
2220
1340
-2871
-331
-693
2299
1003
2480
358
1795
3635
905
-2440
4280
1437
6356
-157
1519
-2001
-1165
-2867
1772
3057
-1753
-8295
428
950
1637
825
732
879
-58
5654
5639
-4385
9
-4673
-1451
344
-1401
-5790
3963
-213
-153
-2620
1016
6006
3003
2312
1647
110
-1525
-5708
3993
-10396
3726
-3421
20120
-16079
-14580
2531
9207
1541
-15557
6780
2088
-5833
13444
1713
-1019
3185
-989
-5279
11713
-1455
-1730
-4004
-8738
8796
3846
7068
7891
-19266
10181
-1613
916
9523
-13477
2816
927
-9531
13690
-4702
13957
-15252
5713
-15226
7484
-14143
-6594
10921
-6127
5989
3861
-630
18055
3458
990
7505
-492
2100
-2398
-7236
161
-8223
15338
1228
-17344
12850
1436
731
-9992
-17955
5464
-15000
4228
-4126
4467
-11975
2357
7453
-3761
-3554
-12610
-15933
12087
1968
22283
5459
-7033
-8968
-9782
4669
3387
-822
-10222
4406
-5327
-265
483
-5312
-12556
-5378
-8287
-11803
8824
8297
2895
-681
13442
-9800
-1024
2633
1546
-10144
2183
-6723
-1337
-5487
5087
-19083
2403
-7761
-4988
2520
4519
-7078
-4286
4263
8880
7185
4544
3591
-4775
-5702
7892
12415
-6256
4444
-1361
-6237
5797
4113
14989
13918
-7020
-10819
-15208
1104
-13823
5564
2995
-5434
-877
4387
2107
-16224
-12844
24810
-2579
4620
-18080
368
1013
-1150
1869
-311
-1812
-2879
431
4374
291
-2008
-3163
-5216
-3070
-2142
-2727
-4462
-8933
-1115
-552
3208
-101
-3900
-873
-5449
-3128
-1251
1829
-7989
478
2409
936
-215
2950
2694
-1497
-1457
372
-2928
-4134
-2238
5697
3739
-1602
-1098
-10431
-1326
3995
-3228
1098
-2426
337
295
3262
-2399
-958
1234
3349
-56
-3258
-1623
-2166
-2854
-9194
-1026
2835
1003
-2118
1579
4194
5377
2942
-1165
-1422
-4213
3434
-266
2344
-2648
-6340
1191
-2423
-492
-779
-1498
2984
-7470
-5230
-2396
-2836
5478
-3670
-1246
1615
3283
3517
1478
1938
1780
-1479
-916
-4496
-1021
95
1844
-3667
-2930
1589
-2722
2000
1585
-3207
723
-1831
713
1223
-2317
-2459
-4670
-1169
-4693
-2780
-3144
-1064
2001
-204
-2502
2904
1801
1180
-4150
-2147
-1784
175
-322
1419
2112
-6304
-1018
3101
834
-1575
-1723
-5157
1654
-3804
3066
-1335
-4745
-4979
2294
186
-1235
2001
-4288
-390
-342
52
-2948
-3099
1878
5839
4020
6830
1819
-4275
-2366
589
6875
4070
-643
-1410
3498
-1660
-3235
1328
3070
2562
-7096
-4181
1294
-1768
-5990
-5100
-2637
2000
5672
-7082
10236
4059
1790
578
-402
-743
-6544
4747
-4399
1202
-501
-3701
-2103
-1351
3742
978
9971
1269
-7788
-7616
-6098
3273
-1518
5421
2142
-533
-1887
2745
282
-1688
-536
9012
-6503
6086
4170
-2217
2187
4218
-3891
280
-5037
-1203
-1036
-4718
1088
-235
4818
289
-3451
-575
-2711
1725
-5022
-9559
-2896
-5562
44
4291
1050
10125
-563
3964
1539
-7116
12457
1592
2431
-1408
-11791
-602
-3695
5912
8530
-3742
5912
5674
-3487
1172
-2230
4750
118
-288
-1664
1400
555
3881
2096
3929
-1673
5290
-3043
284
-4988
-5256
659
575
591
-580
-4107
-696
-5874
4115
1821
-1976
694
-1505
-58
4404
-967
-2084
-1876
-11527
5992
2265
11863
-1004
-663
643
-6823
-902
8672
-5751
-4123
3750
5103
-1839
-8161
-1030
3942
4680
225
2978
-4385
-6813
-2540
-2101
4666
2726
3088
-5838
-1056
2529
7064
3669
6193
678
-4257
1900
73
1672
-3202
931
-2398
5139
253
-4351
3561
812
-1599
-1870
-398
6553
-6386
-3387
-6625
4549
1625
1444
-1085
-5951
-517
-5943
-3972
6993
-2812
7758
1486
-3101
4627
-57
-5402
-4856
-5146
1897
3286
-4997
-3902
-3969
-11533
-6024
3667
784
-7367
2314
-1383
2009
-32
791
2768
266
2326
-1990
3885
856
2498
589
11123
4379
-1465
7787
-3786
-5647
-4574
1735
901
-3030
-4064
-4499
5527
2374
-5089
2962
-4752
1463
1288
-4229
2581
-3481
-1389
1589
-187
-376
-4997
-6779
-28
-5016
-1708
-2585
5919
3714
-151
-245
-961
5033
407
440
1402
8031
4488
3863
-11490
906
3326
2416
283
-5443
4231
5740
-8137
-3462
-1132
4528
538
2781
-1069
848
-5924
-1037
-11951
11
-1553
-9212
6246
3128
1934
4373
-6850
1125
418
-434
-7641
2404
-2165
-59
1522
3009
8760
-2079
1480
3339
-2505
-1279
247
9060
4126
4144
-7103
-2187
-1364
-10672
-1065
-6545
-1435
-3603
-1014
-6216
-7736
4506
4883
-4611
-7309
-6093
48
2676
-10346
257
-2698
135
-10505
2496
-7019
-1149
-2745
-1518
1296
-3901
-3929
2171
-354
-5736
-5327
4346
3527
5094
705
-4614
10459
-5361
326
916
-791
-3075
-8561
992
-3409
-10251
2311
-13093
1599
-8561
-5559
12164
319
-7271
4066
1713
-121
-6327
-6817
5083
-12597
-873
3746
3616
1673
-3277
-1500
4999
-6954
3055
772
4580
3475
-3441
993
2531
-846
5534
3752
-1029
-2685
-5009
-5924
5556
2945
-1900
-4811
-4373
3447
2644
3839
4912
-8636
-769
-11442
10142
-6935
3302
148
-5239
5249
489
1569
-2012
-10107
2460
-3719
5858
-8764
-5764
-6797
-3273
-3447
1866
-14828
-11550
4597
2674
-5009
247
-5466
3757
3742
-1791
7857
3403
6001
-5311
5980
707
-1624
1658
933
-2943
11253
4625
-507
-1672
-2297
1086
6802
2097
5841
-712
-14
6783
-2375
-6672
-14116
-1857
1112
-13778
2165
-3762
2553
4879
7203
4194
-3318
8329
7204
10613
2974
8849
1643
-4756
8906
-2961
-11357
-4423
-1573
1278
7815
-2951
15684
-10985
5691
1981
8621
-13960
-8504
-6821
4182
995
-12872
3815
-1128
-955
57
2752
1581
-1757
2689
-27618
-8388
-5314
5679
-5573
4795
-6551
-8852
-255
2428
-13537
193
-3497
-11441
4022
-6468
-4217
14512
-7255
2959
-4650
3604
9650
10059
-7732
-11679
-277
-1684
-5920
-3463
-4343
804
6352
1547
-24955
-6001
923
-5745
-754
-9802
-2984
-7701
4534
10697
-3303
8460
6455
-17953
-4372
-869
-10071
17484
-7169
8274
1488
-15410
1056
4269
9910
-1565
-10921
-7332
4595
1121
124
9900
4655
-2949
6603
-2942
7671
-838
-2822
1177
-2344
-282
900
-6299
-162
-11369
-237
5807
-2045
2823
2392
-1488
-1131
-9833
-3867
2348
8879
5146
5657
257
1513
82
-123
1548
-9057
-4777
14733
4315
4365
-3371
-4533
-1811
-1265
-4737
6584
-6245
-5996
-4879
-7661
14025
-7817
634
2836
-1397
3744
3315
-2271
281
723
-2511
424
-5053
2303
-1307
819
-6790
-6288
1744
4787
-3958
-5974
-633
-1219
659
-5827
4320
-3773
-2605
1246
-2382
561
-209
-2183
-7168
1951
-4648
-473
-1530
-2966
-4061
3959
2239
-828
-505
2335
192
-6260
-813
-4906
2957
-4350
-2660
-5975
-2955
2990
-1591
278
773
649
-596
-1297
1313
5819
-2602
702
-11784
-8279
-1890
-3079
-3957
-1289
2767
6259
8567
527
3786
1429
-3125
-3444
4188
417
-3055
3927
-2074
2613
-1718
4306
-3490
2281
3815
1030
3903
-64
2581
-46
2365
4259
-1318
2206
-2252
1943
62
3215
-8158
-3461
-2500
1878
-1356
567
-2556
-2013
-4477
-491
-2967
-232
4919
-3155
666
10332
-3057
-1875
-70
-5723
-3746
-5758
-4165
382
1643
-4213
934
1091
-687
3389
-2654
-6084
-3720
-1332
-2789
1121
516
9500
-571
-1844
-5312
2513
-591
-4577
-3102
313
2151
4804
3025
3803
-6316
-1058
1835
269
-4998
1393
3854
-896
114
-1700
3583
-5000
14826
-2040
18147
11771
-2160
-5215
-9195
-5334
-48
-4671
-7287
-6357
3459
1132
7014
5333
-989
4409
-11620
4994
1254
3245
1212
-5703
-3195
-7916
-501
3158
4005
12766
-12450
2989
-5242
-9020
2122
5967
22704
-8271
-17314
-15601
-1452
10416
466
-1546
-3506
-10832
13934
16025
4775
-13488
-1333
8741
382
8997
-5099
-1287
-8482
15704
5714
4641
36
673
-9791
-2294
-6555
3859
19851
5531
16473
819
-184
8644
-1291
-5186
10512
1354
-10369
-6777
15232
7485
7134
12195
-2029
-3444
-2946
-8991
-5474
-3310
2907
5550
136
15185
-3440
11
-1600
-7417
25161
3764
-779
-9318
231
11466
11157
-6078
284
-6544
5395
2781
3706
-7874
4382
-8059
7297
-3568
-1171
9160
-3665
6282
-7528
-2768
3301
2838
-5795
-9804
531
1408
-764
-3431
1728
1040
-17993
-6414
4437
-3867
3465
-1776
-4881
-14065
-2641
-4963
4210
14089
-14295
4556
-10491
-731
-10106
-16012
2619
-1610
1200
5049
-115
888
10304
-12765
-10554
764
7020
-17517
-567
5306
-10610
3599
1114
-1117
7613
-4940
4076
4075
-984
3841
-6704
-5509
-2139
2310
3501
-8801
-6149
1242
-865
-3802
-686
-10960
8154
1612
-2250
-3519
10898
3579
570
7007
-3788
-6767
-22
-1152
444
273
1563
-8481
2139
-941
166
3436
117
-5864
2601
-179
-6882
7518
11208
2678
-533
-933
-182
-2225
1833
-140
11662
-6184
-887
7727
4310
-6929
1635
-4027
-4363
899
-9862
859
-6083
7986
5002
-3195
2817
3439
-915
-4802
-10832
-6498
1316
2556
-3381
5249
5071
1343
-516
3569
-4981
3759
-2180
1783
6511
-13715
9453
-8461
783
-3038
-1067
6377
6967
8151
-593
-3621
-2206
-1280
848
3438
1386
3800
655
-1447
3263
-3132
-4451
1232
2523
597
4607
-602
-2549
9677
-2738
3035
7318
572
-926
977
-2843
-8461
-2064
5382
-6735
-764
7522
3807
-4550
7149
3211
4738
1651
2494
1231
6425
8648
3974
6427
12063
1653
3355
-6439
-7699
12452
-121
-575
-8398
6863
-585
10974
-2184
-7010
3337
-1381
-3680
4339
8538
-7551
16139
6325
-8090
1806
-2164
-88
18009
-6913
-12974
-9155
8078
-11512
9382
-15451
-13218
-1853
10901
-5706
-8897
15451
1686
3494
-3128
1813
5809
-8356
-2386
-3193
4695
-10951
-324
37
4625
2619
-19864
3435
6219
672
-17979
8704
-3984
2312
9526
4379
3422
8352
1836
-3699
-5937
4550
3095
-10862
3465
-8032
-12065
1909
-4909
-2157
4564
949
-9017
13412
5465
4898
4893
-5941
-3331
-5101
430
-3681
-4571
-1125
-2656
9505
391
-5863
6913
-275
-3754
10420
-879
7127
1117
7409
8925
9757
-3963
-6103
4620
281
3079
-3818
10946
1470
10628
1194
-7095
14392
535
-2952
8927
-8720
5553
-3084
7391
-617
9137
-20126
-12641
-334
-6159
10203
341
2056
16346
3562
-3355
5895
13008
-2986
10130
-1730
3619
131
11683
9619
-14904
10843
6727
830
-5852
5298
-1972
-6338
1691
-5795
1225
-3740
-7693
12760
-9472
4726
1620
-1331
-1932
-1255
5
12305
2174
-3194
3133
2209
2149
8013
-11345
-6168
-9038
4282
-1733
-3042
-6003
-5216
630
-9992
15081
-2926
-5708
-7360
172
-9810
-2125
6964
-12547
18742
-4232
-1111
-1726
4925
1853
-7201
-3341
379
-13707
-1308
-4429
-22338
-470
-14514
-24481
15036
13433
-1327
-11890
-5456
-6244
-997
1236
7051
-4308
12649
9556
4369
4639
138
880
22299
11980
4609
-1238
456
11827
11796
-1889
-2288
2682
4096
4120
-7775
-9027
6870
3207
-3708
8958
-5016
12415
5204
-138
11532
-10902
9531
-11536
-1114
3661
-6620
10791
-5145
-9731
3847
-9148
-3144
10289
-2425
-3484
12794
5240
5036
-19309
-13037
-6446
7010
6548
-6347
9044
2948
1105
-1474
-778
6453
-8214
-1155
-12886
-1673
-4390
4541
-7756
-5481
2079
8662
2175
-18747
7002
-5452
2069
-4763
7517
-13434
3552
-4066
-2293
-2974
7689
-7350
-3029
-12203
-4499
-13551
22698
-622
10653
-3201
3656
-3926
-285
-16456
-15196
-6533
2305
12377
3498
13489
9529
2098
5427
-677
-6325
3809
1681
-10528
-13393
5919
10873
8407
3422
423
7081
-5454
-766
3919
1816
6606
-27
6893
1539
-919
-5094
1464
-9550
4291
-10948
3421
-7084
3385
-6322
-1226
6492
-7454
-4511
736
-4409
-3573
-4190
-5994
5497
-690
1898
5801
837
932
-2393
-4419
1588
-1842
-5711
1302
-484
-8155
-2290
-6933
1742
3819
-3641
-2711
954
3108
-5987
-4305
916
4140
-109
-64
-1414
-3157
-2948
3653
-2601
-86
6665
-2373
9204
2412
-5975
-3835
3929
-2679
4192
-250
4351
-2070
304
-8426
262
-8557
1802
2743
4677
-2945
-820
67
-89
-7410
4211
10953
-4419
4
915
871
4146
1403
9702
771
-3017
-310
8187
-1119
2632
-15507
4968
-9855
-6011
5767
634
8249
-4901
9508
-3611
160
-4920
3444
1479
-4263
1348
1474
-2513
8406
2329
-5277
2344
-461
-1769
-2981
1500
-2532
2588
1829
-1579
2644
2852
-1522
1944
-770
1057
183
2404
888
-7809
-1684
-720
9400
-4052
3457
6679
-2498
2800
-2513
-7164
327
-1763
5928
8060
1474
2942
260
5182
7878
-834
6437
-3395
4399
-11439
-3696
-7052
-6026
-832
-4647
8743
-13386
191
-7040
-3623
-9306
-5317
6459
493
-1159
-8653
2027
-5209
-2699
1060
247
5922
3952
-4027
-4859
4603
-4961
14623
4214
822
7141
651
-6551
1061
4087
-10782
-2626
3686
2278
-2067
5248
4814
3332
-9980
-8829
1444
-4035
-760
-5833
8054
-6753
11672
1483
-2395
2990
-1717
8824
-1214
-4366
3838
5320
13215
1195
6411
684
-11003
-4536
9104
1217
7341
495
10671
9388
3991
626
3316
7191
-3678
-8767
2300
1839
-3016
-7923
4828
2261
-3457
216
3334
-1572
-1077
6918
-5908
3547
7318
-1131
72
1445
-4193
3640
6865
-2518
-681
2635
9456
15327
3249
-5771
8944
-2660
-7849
1699
2025
-2360
4135
5654
-3183
-503
2609
1974
-7122
-8795
-226
-1254
-3270
2544
-19572
650
4057
-7244
6311
-9978
3520
5477
11049
-4552
704
-163
4697
5004
-9856
534
10855
2203
-7427
-4292
1463
2019
-1206
1504
-8061
-1349
5893
6233
-632
-1692
468
-15
-6165
3083
-5547
3920
2198
167
-3203
-3525
-6251
2121
-3203
3889
2846
-4617
-11627
-3351
-1226
5780
-1344
-1118
1060
-981
3543
-13396
2741
-6249
-6573
-3668
-9060
-2884
2047
-150
-2578
-6263
-8946
2220
5078
3765
2315
-7039
-1759
2617
-3839
845
1675
1151
-8389
4345
-628
-1576
-2619
-3142
1477
-1694
9220
-1032
-4627
3078
-408
978
5250
2085
-5141
4450
-278
6836
-966
-3184
8662
-6317
6121
-150
1627
-3017
1986
2548
509
-5479
-1314
-3568
2363
2399
-543
5643
-3555
-1231
6186
79
3667
-134
25
708
8139
4706
-2430
2202
-2879
7385
-2188
850
3871
169
6699
-3349
-2462
-1005
-2761
-2901
2434
599
1263
-1442
-2025
-2425
4770
-7800
-4871
-691
5005
4623
1713
-5988
1877
169
-1659
3120
-7261
-2978
-8088
1478
2048
-2204
1599
153
-1818
-3306
610
-7721
-2404
-4386
-2948
-4858
-2249
2329
-12365
-1881
6551
2839
-4589
-2982
9428
2662
5958
-905
3701
-2796
-3960
6702
626
-3919
-13568
11318
-6582
749
-7382
3794
246
-7569
3669
11995
-5187
1095
-10629
-4207
4192
-9348
1835
2715
6483
-737
3655
1838
9170
-7126
11846
-5514
3849
10914
-324
-1333
-5289
-6520
5886
-2533
11019
-4930
1462
-4244
14890
4404
4476
-5052
-9192
-2517
1376
-4202
1347
-4472
6141
-3498
3684
8051
-345
-9872
164
13784
5339
1260
12956
-2549
-5197
6424
-7207
5739
3482
-489
-6512
-997
7573
-4095
-4531
7819
1220
-9741
3005
-9818
-4811
-2733
6068
6385
1379
5083
689
-7981
3230
-2904
-9535
9276
12670
-3347
84
-3475
-6363
12587
-2746
12120
-3842
-1045
-8756
-5906
-6522
-1560
293
-120
-2864
1560
-4409
-4059
-9167
-7372
-7833
-10937
2494
-530
8890
-4404
7774
7724
12382
-6538
-6597
2638
2146
-9488
-1874
-2141
-5331
-1840
5632
-206
-12106
-3061
17245
-387
-6632
-16112
4388
-9938
9702
10061
4718
3072
2583
18015
225
-267
-3231
2131
-11623
7269
8973
-1999
-8534
-1383
2058
-1672
-1983
-5547
-692
-5102
-9208
4172
5672
6366
-5697
734
587
-5442
-274
-12368
-4907
1621
-5745
2104
4001
1098
-1569
-8152
-2929
-4476
4629
-5238
-438
-6469
-3701
3508
-10541
-626
7006
1308
1793
-4412
-6008
-1598
-3092
-1729
5060
-2939
5640
3778
-4706
4279
2577
4363
-13463
-3260
-10190
1390
-3945
4825
-7310
-5446
-2171
-11754
-1763
-3884
-16547
-5339
3208
3411
8344
2241
4362
6830
6780
134
17789
-3035
-11599
1944
-8831
-6340
-5446
1401
-8051
-12215
-965
-275
-2471
-2809
6414
-5300
-3341
-13120
4660
-3400
-1037
-10483
-8298
16306
812
629
-1533
19
-3062
-1363
4763
-7899
-13031
3902
6012
-614
2716
-6047
-3776
-79
1906
5136
-7570
3011
-7276
-803
-4125
-6513
-3085
-12219
-1518
-4046
-844
5129
6217
1651
-3355
-6055
-2774
-7394
3433
-5543
4498
1107
5342
6906
-2353
-449
-5948
-6118
4279
4027
-3004
-8397
-3591
2649
-4836
-7178
-8225
-3821
-584
2531
552
-2186
-280
1739
-4703
6747
-3001
-663
973
-1441
3805
3694
-3813
20
4839
-2904
-35
-2060
1197
-1734
484
1472
3320
7421
1569
-1252
5498
-3075
6959
-2919
-1928
3104
-3726
950
-1591
5
-5465
1402
-3351
-1701
2517
202
9
5830
-455
-364
-2084
280
-3219
2271
-264
725
2076
6999
1757
-2692
1504
5524
732
951
-3450
-946
677
-442
855
4254
-799
1830
-1958
1041
-5993
884
-595
1826
4234
-2809
619
-2751
435
-1335
-503
1880
1459
2697
1723
1919
2409
278
-3884
3041
3799
2311
-2177
105
315
6599
2580
1314
878
5058
-2950
-5864
-2084
780
5292
-2740
1915
-621
1687
2290
4684
-2647
-1719
2467
2682
2675
947
3017
2590
1216
-5093
-2020
927
-4870
-6390
-2819
-2151
47
2083
550
-1923
4319
-2839
3579
-230
-341
-423
732
-510
-5322
2083
1229
-2235
-238
2288
-737
4825
5040
-2070
-5888
803
-6211
1920
599
5055
-3298
4695
290
1224
351
188
38
-635
1038
1387
3791
469
-882
-5343
-14170
285
2797
-6989
-3636
305
-5830
-4581
-6954
-9430
14429
6032
-22419
6227
-10827
10460
-11606
12778
-850
1578
-7518
3962
6626
-6606
-16297
-1807
6733
-4483
-6186
7277
-5718
-2028
-18846
-12716
-5482
3243
7527
6299
-19383
-9228
11618
16079
5201
7245
-11216
-1517
1852
9762
-2164
1448
109
5481
-7752
-8972
1284
2710
8181
1629
11467
-4857
18934
1516
8948
3330
-16735
-4520
-9077
-11714
3664
-29945
-739
-8425
-5146
-6535
3511
4651
-2163
15932
-9986
-6152
-2288
-6864
-1610
15086
7444
17830
-3671
2263
1067
15160
-8283
-13464
3711
-6734
-2266
-3703
-751
15916
14621
-7234
868
2316
1597
10817
-14207
-2935
-13022
1590
1862
-2280
4610
-1408
-11029
470
-22346
-7754
-1620
-9359
15961
-754
-4586
-7491
-11473
10288
-5436
7979
766
22403
9714
7494
6837
-3612
-3196
4931
-11982
400
-7406
-6108
-6761
-5145
-12580
7872
10084
4863
-9887
7752
2069
-15868
13417
7146
7982
-4102
17154
-13097
6603
-3919
2292
-4279
3007
-1630
207
1959
-6
3265
-6362
3450
-7078
-8826
-3716
4054
7780
-639
6978
2495
-463
-498
4670
2412
-5047
2221
-1496
3838
4412
-2965
1110
-988
-426
-1309
6251
-6105
-3089
-6536
-5295
5107
-905
-3119
2534
-1393
5187
-5784
7749
2833
-723
-2379
-2930
-747
-4005
4234
1962
435
-2723
-1393
4589
4955
2705
4459
1033
-4840
19
-628
-791
1300
-4181
-3613
-5119
-8020
2467
-3811
4241
1693
-7400
976
2246
2269
-2400
8767
-2431
-1072
-1261
5150
-2787
-3594
-6719
3687
7917
3513
-8495
-874
-1066
4171
-4725
3459
892
7749
8417
-6958
2731
9649
-3898
-4614
-8851
-4683
-4662
-6502
-1386
1195
-4709
3651
4470
3551
-6449
254
770
1406
678
-2361
3517
-7602
1432
-5140
4121
951
-8063
341
2490
2776
-4877
5425
-4229
-404
-5443
48
632
4169
-2637
1067
2217
-2204
-503
254
-5155
-5866
-4554
5472
-6662
-5176
-4723
-2142
-6841
-3761
-5530
-7386
-3692
-6168
641
-2914
-4416
-4649
-9580
-6674
2106
-7229
-1050
-3264
-944
-4814
1198
6455
3267
-1670
-5
4245
-3048
-8647
1162
-4127
-1066
-4876
-324
5493
-3490
-598
-2241
-3686
4200
1401
1533
-978
481
-3992
976
-2417
1972
3459
-7724
-3473
616
-1976
-1084
-6475
1391
195
-1000
-677
634
2106
4550
-4938
-947
-2235
2575
-4721
-1447
3578
2133
4208
-11996
-5973
3103
-1501
-6771
-5726
3834
-9757
-4070
373
-6610
-8902
-2338
-49
4696
2889
-662
-4147
-2079
-5324
1782
-7157
-5763
4008
-2140
2422
1855
-1778
-1300
-1599
-8193
1652
2124
-795
947
27
-3217
-1275
2574
8737
2246
7258
-5531
2746
-4665
-7408
202
1898
-4066
-823
3890
-433
-281
-2821
-835
-4570
-4957
-9154
-2834
5
-103
5248
1276
-5143
1690
1875
326
1446
-1883
-8168
-2313
577
-4967
-5133
-9261
1585
3366
889
-219
201
-922
-847
1827
-6196
5907
-711
1173
1631
2562
3773
-1399
-6770
5468
-997
5887
-3169
-435
2433
-8983
-1110
-404
-2532
2428
1807
-462
-8071
-2647
2075
-5878
3837
-11938
-3885
-5012
-4683
1178
-13324
-5936
10901
-2541
7859
-4621
235
-4016
-138
-1198
-2973
-6807
5489
-5495
-1379
182
-449
1493
-4613
10032
-4717
-8110
-4403
-6238
-3390
5198
775
1137
4203
3983
3815
-1825
-1500
1507
-6233
-564
-481
1169
-2329
2513
6048
-1408
-1114
-6352
-8777
-6388
-4241
-4117
6000
-4419
-3563
1850
1233
-7573
-1534
-763
-3596
4026
-3225
2233
723
844
5221
-1138
-644
-10020
2948
2139
-10118
4454
970
-9007
-4147
-4575
-2384
1632
5306
-3985
3417
-5935
-1076
-904
-5495
1174
-864
2114
3199
1597
2503
-5407
5500
-6263
-1931
-1161
6071
-6203
-2335
-1162
2634
7993
602
-7329
479
1339
-1864
-592
-11680
-3204
926
-4387
419
-5690
-3638
-4017
12900
2450
5778
740
5789
-4627
-1447
3416
-753
4606
7744
-52
-11293
5155
1202
339
-264
-1808
3560
-2394
-62
-4763
-796
323
707
2911
-1773
-3394
4398
-1845
6510
-2510
-858
-6431
-1405
-7873
-4442
3939
5494
4355
-770
4982
-1993
-2805
-210
5347
-3500
397
-5058
-2991
-8475
3350
1177
-5013
-324
-2060
405
117
-5016
5258
-1225
-1429
-1303
-3388
1453
-2668
-3209
7719
1724
236
1997
1537
-4644
-1083
-1450
2594
-7203
-355
-523
-6827
-2795
6329
9776
-3021
702
2585
-126
3130
-901
-4449
-1496
8029
6638
2927
-7063
-4090
-3434
4044
-1148
-3792
-5729
4911
-2469
7372
-5829
-1848
1319
-6157
3124
-3492
3552
-4501
5497
2069
-4601
-7147
6388
-914
-5780
5448
6100
-1565
-11639
-327
7355
3622
-3952
-1732
-1225
4136
740
-7098
3413
-4998
1506
-5925
-10
381
1328
-9416
353
-9367
-3733
-620
-8399
-5744
-2389
2728
-3084
1152
-8584
-10263
5048
2018
6551
355
3579
-6664
2446
-786
-5860
-2990
-2533
-2583
1820
-1097
4056
-3835
7953
-4533
3123
-6360
-4037
6882
1233
-3123
2760
-1158
-5628
295
-5032
-6227
-1166
7
-1965
-415
-3219
-3323
-371
553
-684
-910
-1056
2282
2772
7407
6255
-9105
-4193
-7220
-3735
164
5633
11312
10617
-3610
2004
12238
-8857
-4589
1319
1254
-5604
-1324
-8521
-2909
1167
3470
5074
-11122
-4211
3637
3660
-2924
6261
-19641
2136
-11169
6464
-6320
-4146
-6420
14405
-1881
-12555
-5577
-3659
4260
8764
9731
5361
6742
3633
-2124
-9815
-3116
-5048
3605
-6650
-1458
-3161
844
-11175
-1880
2842
-3940
1045
-2299
-10588
2038
-2677
-1284
-10908
-1729
-1941
-2420
11240
-2576
-8106
1507
3155
238
-11538
1950
-9546
4297
-469
-15004
-1654
5534
10955
-3234
9829
1001
-2737
-1882
12687
8535
-2709
-2479
1950
5320
1979
-11800
-11205
-1667
7949
114
-7544
-1393
-5352
-45
-3828
16990
-13730
7742
-494
-7675
-4330
7080
-7968
-13106
13367
-16605
4175
-4059
-4327
-728
-9575
-4112
-10478
-807
-1904
-4775
3864
-3678
1063
1681
8028
6947
3165
3946
1003
2405
-2183
4528
-5225
-4173
-2440
9614
-5423
7044
3356
-5006
398
-10219
-9361
-895
-4671
5032
-1438
-7
2778
-1515
-14886
-11872
4985
-9239
-1224
-691
-629
-11359
-3949
12207
490
5100
-2425
-3498
-8639
8310
8197
-5020
-1860
-5266
-4923
-1327
-3510
-8871
1155
-2175
-1981
-1233
-8546
-1277
-12052
2360
-6938
-4403
-1463
9986
-8740
4085
5994
1852
-6776
-6729
2479
-1406
-4260
9737
-9967
-6625
-5010
2001
4184
-136
414
-4646
-5614
6722
2698
-1222
1231
-2408
-4195
378
-3297
-659
-5118
-10677
-2304
-4042
3190
210
-6644
1639
3770
7814
3359
-2219
997
587
-6333
-6298
-4939
-16065
5910
-7152
-2650
-1553
-808
-13282
-2000
-1434
-1947
4599
-2456
-6197
-325
2564
-4009
2984
4091
-10869
-4756
-2783
374
-3615
-1983
-4508
1578
1101
-3557
-483
13300
2684
398
6590
-667
-3304
-10422
-6473
-21
-5133
-7156
5385
-8253
-9618
-361
-4284
-4616
-5004
-688
-10680
922
-8220
-6788
-1008
3553
-2577
7575
6488
-4791
3094
-587
-5060
3065
1953
4161
6134
-4389
-2496
-4003
7531
-8122
6859
4695
-5508
-6725
122
272
187
5758
-775
-2015
-2923
-3451
-3689
10157
3075
1144
-6645
-1837
-6427
-3914
3381
4341
-4587
5754
1893
-1563
8774
-4401
-13555
321
-2676
-7105
-1781
887
1329
77
-1090
4543
-1651
2215
-9026
-1987
-1509
2370
-3108
-3687
3578
-557
265
-2815
4292
2245
-129
-1564
-4481
-10903
-2890
-5890
817
3111
-283
-3319
2428
-881
-6111
-1398
-370
-5388
-2190
5546
119
7807
2539
-1532
-5324
-3752
-768
2847
1341
-3939
4670
-6668
-6904
-1719
-1192
4287
-1601
1755
-1504
1523
3805
460
-5896
10253
-2282
807
2202
-6630
-5302
3973
-9763
2369
-9115
-11937
-2913
8146
7884
3155
1026
1499
3961
2679
-9005
5408
-9721
-1504
-10332
-635
4489
-6682
2653
6439
4249
2550
9329
-6524
-97
-1942
-4694
3099
-3176
90
1652
2347
-3493
-1241
-4132
4225
8816
4801
3104
929
2874
-6884
678
4280
-3204
1493
2779
-495
4352
-8396
-3125
-3670
9029
2005
-9391
4358
7968
-1598
-4935
2676
3347
-668
-1303
7779
-7452
-2775
-6008
-7721
-7665
-4079
1540
-1912
-2570
4879
5960
3217
3250
2533
-2527
-1246
-10729
-464
-4579
-1833
4577
-3182
5002
-6556
-2373
-5569
-6371
-2880
1407
1420
1424
1101
2057
-1327
1438
4280
-5216
-4079
-13187
-3820
-5034
-2347
2005
2973
-6503
-6993
917
377
-4657
-1325
1165
-8891
-3791
-4558
1908
-1917
1835
-12769
-1009
-4251
3279
916
-4635
289
-2800
1804
-8895
-3703
4375
-3311
4465
1482
2041
9028
1926
-8024
-4532
-7490
-2117
5380
-6386
-349
-10255
-5596
818
6061
-2045
5505
358
-105
839
-10288
5679
8144
1047
-2021
277
-2813
467
-3245
-8985
-3741
-2173
-166
-3433
4205
2271
4472
-6811
-246
9290
-6318
-6655
-3919
10341
-2762
7201
-4345
1618
-1043
-491
-7413
-7791
233
885
4989
-232
-265
-7272
-1223
-6503
-2021
-3909
-5765
-609
2233
2540
4953
2409
5104
-3732
-4761
6764
-1789
-5107
-2553
-3988
-1086
3277
-1209
10294
4763
-1614
2577
-4209
2257
408
150
7677
-475
-155
-2000
3864
4407
39
-2526
424
-6530
-2251
4188
-48
-4374
-1897
2972
-2447
1281
-2255
1293
2186
-930
-1625
-7227
176
-2435
3418
611
2172
-1704
1572
-1068
-4530
-1763
-1905
1116
-3223
-44
-438
2153
-1244
-9886
-2864
-1089
-858
-20
-3087
1081
-1774
-5202
-3897
2679
2931
2250
-2003
11286
1099
-681
-4409
-1117
498
-2589
-1846
4196
-2250
5649
-325
-2960
562
-1359
2873
-604
-1465
-1760
-1149
5398
-2179
-2565
3232
-4038
-1911
-2920
158
3540
-9378
359
-1925
2274
-985
-2673
-7353
3685
-5598
6694
-733
2592
-2152
-3758
3010
-965
-432
238
1909
-2763
3121
-2663
-185
-2125
-4750
-1835
-1919
-55
-81
-2626
-648
-2058
-4422
-190
-2579
-4936
1592
-2149
1917
4194
-5143
-2317
794
-1525
-3090
1625
-3986
6424
-1413
-4251
-887
-4612
-4932
4874
-637
-2769
587
641
-9682
-5162
2694
2811
-107
-2461
-651
-268
-2117
-639
570
6261
-204
-3744
3354
3215
4210
-2254
6121
-4430
-3354
2621
3703
107
-4427
-5530
7643
5968
5719
-18927
-4965
-4567
-7125
-8116
580
-17765
-1183
-2832
-583
3379
-2977
-5275
-11518
2794
7143
2301
4293
2570
-1382
6596
14548
1223
2775
-9048
-496
3815
-7370
-5910
-7175
-9508
-360
4713
-2434
13027
12206
5383
-455
3559
4640
-1816
-3550
1554
94
12099
-10523
12150
-4679
-1929
-12538
-12138
-16982
-8474
371
-4041
-4397
-3623
3019
-2930
1372
-18180
-9653
-2086
6569
-16422
3456
10712
332
-2357
11118
-15624
8614
-1951
2074
-5468
-10414
-8314
5012
7870
1385
-9832
4383
-6072
-9822
-2739
-53
7471
-5238
3536
6472
6357
-8956
9531
-2995
3696
593
-10974
-1952
-6812
5281
-5936
-233
2947
8090
15993
-16145
-9199
930
4813
-6883
-2828
128
12909
-1914
-2915
-814
-747
-4627
4352
-9218
4591
-6111
-1320
-7127
-596
-3382
-764
9130
13075
6862
-118
3718
-2925
14555
-4103
-19043
-5637
6101
3294
4086
-8345
774
-10745
-1922
-6816
11254
5952
1164
2549
2902
-2213
3846
5134
7656
-4134
2277
-2550
-1222
-4329
-8318
-3225
2667
-3262
1245
2454
4845
-3460
-280
-1517
-2389
-2114
-207
-5617
2946
4180
-1009
3554
-2926
-4079
-6570
2275
-2566
-1394
-2937
-5416
-8362
-3736
3640
-208
420
-4725
1257
-3572
-667
981
-1690
1020
-239
-4987
-2633
2018
-5308
-825
-912
-2755
-5682
-7481
-2507
422
-4150
-3420
-2372
-817
-3391
-521
-775
-762
-1691
-28
-3553
2957
4801
1672
1294
-121
-1154
-3096
-325
-3647
4027
-5757
4200
-6439
-828
-2653
-1744
-2225
-2545
-363
1042
-784
-3554
4567
-2492
-3331
-3959
-717
-2660
3292
4279
1283
-122
76
-3774
-4963
-7513
-3300
60
4496
-4617
-3239
-3628
633
2819
5254
-2341
-1196
1775
-5180
-2437
454
440
-2028
-3364
-1032
1093
1600
-889
-5821
4829
940
841
222
64
1974
1219
-908
-5466
-3241
-2285
-515
-6824
473
524
3140
119
4545
-2704
-3728
58
1628
-5261
1689
1868
-851
2397
194
-1657
-3172
-1272
-2010
-1991
847
5684
-1488
-4869
2273
1919
3549
-113
3119
2316
-6076
-2735
-1614
123
-5130
-666
-2863
177
3071
-276
-620
-3676
1640
-1497
178
815
-949
-1671
-74
1290
1571
-1490
-2420
-1266
-1803
706
4575
-150
385
2017
-1134
-229
-1115
-1791
527
-104
-2594
-3942
498
-6217
-1862
1158
-13
1468
-551
-713
3224
-85
-5962
1648
2936
-4310
-494
-3686
-409
2338
-5226
3472
118
3437
-2089
-340
-2125
-515
-3042
-205
-1252
-1189
-1208
-2132
-3536
-6863
2652
-2021
991
3723
1033
-6362
8889
-1355
4581
2198
3772
6990
-6253
-3585
2810
-3299
-7303
-744
2682
-830
-1
-74
742
-3770
-4860
-7666
-657
-1858
-4783
2791
-3676
4013
-11116
-530
1717
-237
-2715
1335
1777
3473
-3469
8141
5522
-2353
-7231
-6235
1161
2616
-1334
4655
455
-1168
681
3642
1572
1988
1059
3115
-4850
2094
-7675
4132
1314
1069
-685
-5020
-8108
766
2320
-2361
4332
-3661
969
984
-3425
3599
3582
-1464
2541
1633
4284
-1299
81
-2844
-1543
865
-2378
726
694
1416
-551
-1492
-919
3407
-352
-4168
-3509
1940
-5496
1631
-1791
-2945
-1316
-3361
306
5184
367
-1198
976
-2613
3138
1433
-3217
-7730
-2681
-4788
229
171
-2500
-2719
745
1973
699
-741
1971
2964
-1803
-10015
-4084
-13
298
761
2253
-4199
-3198
-949
1233
-4927
-577
-6965
1033
-410
-3349
1789
-396
-6536
-4774
-1764
118
65
3354
-942
-2777
-5562
4107
-1922
1554
-1847
553
-2035
3743
3183
-4802
-932
-1401
-498
-1080
-2761
-6738
51
-3066
-1480
-1022
-3569
3461
1897
448
-295
4162
-2418
-4075
-1623
-3946
-3286
-28
-2569
531
-136
619
-2596
-1190
-1896
-8621
2435
5732
2990
2373
3586
-1963
-3585
-785
1543
1841
-945
-2202
534
61
1001
-2392
-2862
616
613
-128
-2436
-2285
-2149
4613
2606
3929
-1710
1927
-3987
-4066
-1840
1589
2535
976
6744
2752
-7152
-5098
1873
-1350
-96
4512
-279
1323
-1136
1183
2754
-901
-2851
1056
62
3669
-5568
-10433
-1593
-159
2777
-6077
-5884
7840
5108
-6819
-3262
-636
-5445
-7921
-261
5939
412
-3133
-11949
3702
-2734
6026
-1223
-6850
-4191
1366
1992
-6190
563
-2075
-4164
-5853
-698
-2437
5311
3311
5846
-4514
9343
-1562
5205
-207
4264
-2716
2149
-5173
3820
-9506
-2166
-237
152
-4091
-2872
-9002
1995
-7107
-433
-1901
3585
-1851
-1240
-2923
-4437
-6864
902
-6976
11110
2105
-4007
3194
1614
1203
10658
1690
-7030
-8138
-9430
-4035
6618
-4877
-1827
-1300
-4776
4132
1428
2893
-2091
-3075
4853
-7657
-2412
3157
1707
7557
4244
3137
2136
-1199
-4998
-1760
-6803
1850
-1969
-3704
8164
1375
1402
2741
-2542
4276
-2884
1377
763
7625
-2583
1794
2849
-5212
-9274
-5666
6398
819
-1296
58
-4626
2218
-1344
-5633
4625
2281
-3424
2448
-3419
-2402
-252
-6073
-3208
-3008
91
7067
-1559
-10897
-3389
1848
-2288
-9375
7456
10809
-4084
-2492
1406
-7686
-8097
-5911
-3196
-4893
-1916
6900
2127
-3906
-3267
-203
-1414
-1382
-1475
-1535
-2326
-575
4644
1820
1583
-742
-1556
1569
1495
4309
-5008
1246
843
710
-5070
-609
-2170
2142
-1865
-4118
6670
3844
3293
6447
1118
-1922
2324
3385
2816
2035
1301
3525
-2117
3121
-549
6144
5096
1676
555
843
-923
-898
1894
-2372
-284
432
8471
-615
-3565
618
1940
-4214
239
4867
4362
-3981
-4397
1762
-1395
1581
3076
-2510
1350
-5
-4260
6202
2214
-592
2513
-388
-111
5259
972
-2577
-7154
756
-937
-57
-1676
3523
-1395
-38
1541
4465
2383
-134
5426
-1402
47
1723
-1556
-5235
-586
-719
5546
1092
708
-832
-6083
-675
-1610
3226
-3417
4737
-4528
-1275
3286
5718
3475
43
684
3631
-1656
-504
2318
-57
8475
-198
4036
-3184
-1308
-2353
3506
1065
4049
-6590
3161
-2173
-6045
-338
1274
376
1036
1814
778
-798
3503
-2169
-2856
2777
644
4007
1209
1060
2178
-758
2353
-6971
-1024
-1313
-1419
-3568
-5410
563
-2924
114
-2732
-3942
-2457
-6423
3170
-2608
788
27
-4894
-4287
2246
-240
-2986
-3063
2775
1026
-7797
-2203
-884
760
-6106
182
63
1823
3232
1740
-1750
-4940
-3678
4196
-4573
1892
2851
124
1012
5036
-638
-2306
-2774
-5552
2887
2311
1098
1274
2631
2816
-4574
-1080
-1989
-889
-267
-6518
-1708
-3529
-1253
-3220
4427
-2574
-5855
3283
1518
-1736
-2218
-1451
-116
5321
1192
283
-2771
-413
2985
-5292
-2305
-995
-3740
-1140
-1342
-7000
-1971
-1772
2181
-1084
1846
858
-3221
-5176
-1265
-102
-3702
-2687
-1875
2468
-1432
-486
563
-6742
409
-4606
588
-404
241
-1213
-2618
-1165
-2182
-1175
5418
-830
58
977
5620
-2309
-5251
-4488
-3012
2609
4054
-4588
2055
-756
2161
-293
3795
6576
2540
475
-2972
-8309
-2166
-1894
-4010
1805
-1094
-602
3471
3013
863
-4594
1390
3951
2019
-109
-3916
-4955
-258
-1863
-1213
-698
828
80
2491
1689
4780
-1668
6878
1547
2043
1743
-4385
-1406
619
-2551
-760
7537
-1016
-5277
6519
-3983
4211
-2161
-2788
805
2249
2846
-882
5101
-8120
-1621
1639
-1147
-1107
-2637
-14337
-7721
-3755
-1869
-826
5081
-8075
1597
-3442
-711
5177
6244
-3060
5448
2843
-5230
-3591
-7756
-4194
3055
110
-12866
-221
7881
10382
-830
-139
-16989
5399
-4824
2408
2849
3885
-1335
7854
7272
-6971
13131
5145
-1616
-7952
-2911
-329
-2085
-3029
-4825
-6650
-2063
-324
5954
-1679
-711
-11
5254
-2208
4257
-3103
-8495
-8169
13534
-37
-3801
-765
8105
-5341
-1761
-4093
11419
997
3207
-1804
-4372
-4914
1695
5350
-2134
-641
-3370
4151
-285
3207
-4285
-6381
-9343
-2213
10822
6641
-1970
7559
3651
-5702
-7192
-5754
540
6447
2789
-5427
3272
-1908
1613
-2358
-980
798
-2031
472
-2909
11094
-3578
-1348
-14193
1703
-4656
-3176
-3413
-4374
-4592
-1966
2310
1854
4907
-1420
5420
-1706
-5429
3798
-1657
6979
5582
-2670
9328
-1497
809
1500
-1465
1157
2975
-3009
-2787
-313
-77
-2013
1481
-2164
701
-2020
-3249
-4199
-1219
5786
-2849
-332
4953
-2324
-970
-2105
4098
4720
-2003
-6549
-168
-2617
7609
-6601
1892
-3292
1358
-4536
-238
-5957
5318
2936
-2725
1169
3165
-3959
-7108
-3691
-2039
-4180
-2566
2164
-4369
-6915
-3417
1666
4050
3965
-2003
1944
1575
-2352
-740
1849
502
-2043
-4484
3978
1617
4272
-3986
866
3542
794
-3775
-604
3908
-2289
821
-365
-4668
-4491
1144
-3322
-622
1025
2600
-3960
1282
3705
1536
3183
-908
-1338
65
-1674
-5924
3333
-4990
-1022
2508
184
1873
-2243
-3085
-5738
1319
-187
2218
4247
4843
-1301
950
2438
-4478
2519
-2702
-652
-1075
-4029
3083
-846
-1978
3480
-1077
2881
-1493
865
2371
-2667
-2924
1617
-223
-6522
4201
11
1010
-5364
8173
3776
-1419
63
-323
4748
687
-2225
-1692
-912
-3040
3587
1914
3399
-2930
-1683
1563
-1613
1963
5177
-1939
-505
3147
2020
-984
-1746
797
3645
178
-3811
-780
1628
-2084
-5836
-2894
2064
248
-58
-4672
-653
-289
3070
-1837
4307
-4263
145
-4044
780
5204
-5330
-6579
-4093
-4203
4152
-3877
-4656
1302
-1562
2498
-4901
-4438
-9882
3504
4623
-799
-1755
3944
-8030
-2149
-4484
316
-2369
5282
2082
-2259
3213
-2338
-706
6220
-1150
-5238
232
4210
2569
6332
-1697
-2232
729
-3697
1658
-71
-3672
-5154
-2744
5273
-230
3044
-6235
5177
8683
-1686
-4365
-1086
-2230
3973
637
310
-3766
4832
155
-868
-430
-4227
156
-1466
-2238
-276
7729
5276
4224
5393
-1940
1155
2030
-9392
4128
-2238
-6537
655
3618
-5154
-529
-2591
1914
1853
-2140
-821
-5055
-1490
-2802
-1656
-6853
-3019
1230
-3449
-1841
842
1351
2348
1464
-1396
-3210
-1023
504
1304
-2369
3523
-4281
7039
461
2652
-516
-6332
2380
3264
303
-2285
-1296
8051
1419
-2519
6448
-1324
-4204
7030
607
-301
-2096
5111
-1307
896
-5914
-1222
1406
-3524
2234
-2235
-1005
-134
-1133
115
-3598
1901
316
6927
4672
-1933
-4178
-4610
-3375
-2549
-2579
-2719
-3705
514
1251
-1635
24
-7251
4151
2143
-1663
98
-877
2826
1038
-6640
-6992
-239
4486
-2414
-2474
-2090
1920
-403
-2048
-6142
-1174
-221
-4795
-2
1635
2152
776
2654
7665
-828
1534
-3883
-5280
1446
2824
3261
-531
-5391
59
7902
-5741
-5129
-8039
-2186
4060
-9243
299
-602
988
-1899
-906
3463
-1316
4264
1397
3211
-1968
-4503
-4767
2734
-2282
-2852
4504
-4599
-3918
3391
-5183
441
-8287
-1380
-2925
-5102
-331
5683
-1828
-3248
-2595
3874
-3890
-2663
-2003
5451
-8112
-967
6306
3850
-489
2759
-4509
3589
4396
-1064
3633
6479
2215
-6369
-4669
-1146
603
490
4159
-828
-290
1257
1639
336
9663
1521
3962
3591
-1993
-1038
-8059
3503
-4411
-941
5177
4355
-2512
4258
1035
-2584
4424
-1533
2899
5408
2736
2549
-11146
-11265
2730
1661
-4542
3202
-479
-4745
615
1811
2186
990
-8593
17492
-9011
16210
-14215
-4695
7067
-5755
12925
3220
-3338
-4844
-20688
12264
21116
1631
7033
-2784
-12647
4056
2900
-5807
7843
10232
17807
-7109
12650
-6770
-10559
8273
1919
-12274
-8724
10756
7316
3507
3221
2143
-1778
11978
-4486
12551
14753
22626
-5953
-9255
-12731
6365
11229
3716
-22758
133
13931
-11022
-1112
-2908
2002
8109
-3585
-14935
-7844
-1910
-10030
3464
8569
-1546
6797
4137
-10752
-3217
-610
-26127
9129
25590
-3567
-11006
-5062
-13979
-3596
5589
-12508
4844
6621
8762
-5845
-32767
518
878
-5856
-25165
-7670
-13862
3297
-2314
-15871
5020
-9
-852
-1995
1613
-3808
-9750
18535
-6573
-3477
-10464
-6902
-5775
-5514
-3279
-2440
-8134
3384
-6289
-3484
-12186
4639
5589
-9833
3050
-12520
8507
16216
-4817
-6033
15723
13171
-2293
-1311
9323
12786
-1282
-5377
-3993
-5024
-6514
6022
14814
-3431
1094
-5793
-13961
6102
605
-13983
1799
-4981
-832
-3713
169
4825
1667
-12358
-5250
-10625
-10949
-2858
-1912
3827
885
-4935
-3651
2206
-355
-529
-4617
-582
-2243
1866
-3584
257
-5305
6498
11803
-2605
-312
5817
-5233
7856
5759
1862
-5301
1398
5742
3973
-2004
6646
8426
-2011
2383
-2188
-14079
-1796
-634
1602
9516
4570
-4486
-183
5615
-4208
-2927
-788
1571
263
5446
-10179
-2556
-4820
1754
-9566
423
-581
3956
1181
-3459
-3020
-5649
-2637
-2193
-3722
-2795
-11962
-4300
9106
-1270
-7210
-3823
3587
5122
9280
2167
-3869
3029
-1336
-1004
-4168
-612
-3804
5601
4808
-4922
-83
-8809
-201
18272
-10536
-6147
-1348
278
4944
-10598
-3043
10870
-1586
-4958
-4453
4314
189
272
-3719
-3356
-2313
-8752
3145
-4997
-2235
1754
9057
4597
12057
2511
-6498
-650
2720
-2020
-5961
-1365
1287
7709
2423
517
3648
-5167
-3307
-94
-7480
3057
-6232
3942
-1493
-613
-7977
-3746
2423
-4248
-6427
-256
2303
2099
-12437
2646
6746
4028
1942
-2131
2823
10506
-2359
-9739
2750
-3793
4684
-5882
-1445
-5406
-3697
866
-5001
2239
8603
5068
-2152
5128
3812
-8624
626
8
10529
2046
3472
970
-413
-2874
6512
2561
-843
-1257
3902
2836
5996
-8257
1472
-8008
6628
4727
4528
2
8743
-6645
-1875
2687
-3845
-1750
6913
-1290
-3167
-1925
2284
7338
1438
-5728
-2972
3839
4418
2959
-662
3887
4274
-593
2538
-5120
-10833
-7800
-987
-1072
991
-8262
1739
4187
536
-2823
-3150
8065
4989
8750
6025
639
-2546
6302
6449
-7258
-2401
11179
-2593
966
-3352
1322
7874
1061
-1057
719
-1777
-2868
-4751
7290
-2698
5388
-4369
-1274
-1002
-2922
-565
-768
2512
195
-3535
-4258
-3440
3859
4486
137
-4196
-1678
2219
-889
-3685
-1264
-1807
364
-1906
7834
1067
5426
-900
-6274
7414
4371
-810
4019
-1773
-1328
-3992
-2410
-1085
4300
7524
5642
4227
6388
2438
-10267
950
8503
-720
-3486
-458
762
1569
9569
-6950
-1242
3713
4519
-6413
1413
5917
-5244
-3301
-1154
2314
465
-3308
5264
-7289
-3025
3158
-2132
-775
-4204
2222
-3309
1128
206
303
4321
2729
-4342
-437
661
2646
777
-109
-1966
-1329
-1031
-2744
800
-4660
1520
-3699
4061
-1248
1566
-2569
2451
-4462
-1208
1621
-5615
1874
-1497
-167
-1279
-2094
541
-2887
-444
-55
2408
972
-837
3954
658
-1118
-4066
-784
4076
-1572
1202
-203
3158
-3863
-2129
-4470
1326
2573
-1270
-5971
-1026
-893
1475
-233
-203
-1989
-9546
3549
-1031
-839
2927
386
-1035
694
821
-427
-1481
-2659
-1780
454
-433
-1458
-2313
4652
3161
-2786
1937
4052
-93
-5463
4762
897
1328
1726
181
3376
-1264
1329
-2081
514
1968
-878
-5046
-6973
-788
4363
-2563
-1954
-524
-317
-5992
-562
-3442
-2444
1881
-4758
5412
-2886
-2403
1716
-3371
-4130
-3038
-4188
-2619
-10466
1607
-3526
-2477
1235
-2635
-1822
439
2444
185
-3240
-2202
2708
470
-1293
5066
1206
-2589
-4273
-7861
-1283
-2899
-6701
1546
743
-2148
-2221
-2176
-3198
116
-501
-39
4106
-843
-6112
12887
-4458
-10857
-1311
1157
-11060
-10254
13413
-3802
14244
2675
8976
1653
-13209
-12677
-6629
1034
-16729
2585
-78
3918
-4014
-22274
-3381
859
-6671
1171
1076
-4155
7315
13090
2161
5147
-10094
2416
10673
7393
-12055
1641
-16998
12211
126
2430
3479
-2365
5917
-2075
-14786
3351
-1093
3301
-4970
-5791
-14821
7097
-11908
-13754
1034
-2759
-2433
6653
8274
279
-2423
172
886
-9223
-628
-821
-3411
-6648
9108
-7760
13803
3091
-3119
12588
7566
9714
-2873
4897
-8172
-656
-4028
-13639
6875
4536
-5828
3564
3842
120
-4135
195
-5746
-154
-13182
9917
-6997
-1224
1083
301
8969
6516
-3458
10486
1338
2822
-11081
-1710
-463
1237
3441
4608
-6176
-4558
1197
4557
-3395
1773
3283
-11020
627
6056
-1253
1705
-2522
8101
-13587
6174
-436
589
7460
-7068
2574
4402
-7069
1214
9779
-7364
3313
9443
6256
3637
-4361
1679
-3020
-17067
-13015
-36
-2367
-13644
-5833
4852
3949
-8717
12721
822
-2195
-3315
-13850
-5380
-2231
-3224
-62
11254
-1318
619
-522
4561
-2290
-5272
-2239
1553
-4479
-2291
-978
1851
1002
-4346
-1259
-2524
906
-2578
-6301
6846
2240
2168
-2354
2563
4046
1224
-436
-1837
992
169
-1516
-5183
-700
-4852
-5848
-523
-1047
2701
-3105
-5204
1045
-1779
-6507
-2658
4754
3855
-1020
-3591
-2303
-1213
-2579
1765
-1435
-484
-1613
479
456
-4966
-106
-4635
1740
-5561
2269
1443
-3358
2337
-956
-4549
73
-1415
-2222
-3937
380
-1388
-7284
1397
-3456
-1686
1739
-4256
-3548
5665
-5010
-203
-3481
850
-3598
-1605
1269
1943
-1068
1169
1143
2507
566
796
-5545
-2476
-6854
-145
3702
-2176
-403
-2232
8379
1062
1255
1958
-3052
-3806
2461
1036
-694
1609
-386
-4974
1457
-317
3814
1609
-1218
-846
-6126
-158
-2744
1316
2870
-8162
3268
700
-2529
-8206
-1675
663
1821
-2692
-3993
-3060
74
-1572
1812
-862
4253
4151
-2776
-5894
1870
3796
-860
4017
-838
-566
3219
1622
-10118
1115
920
2310
-5322
461
4163
465
361
4415
3031
-5342
1011
2490
-5360
3896
929
1366
-3175
-1313
-3573
-5938
-1356
-9729
1744
2155
510
-1221
829
1690
-5165
3014
5400
-7491
-7090
-1943
107
513
-5468
655
7299
1554
-6826
-1844
-2199
958
1219
-3758
-6830
-1861
5951
-1115
6078
-2046
9069
-4554
-6971
3991
-7494
-5815
-5140
-591
3159
-1027
-5388
1786
2241
-2252
-318
510
3314
-369
1525
-3514
3061
1483
-3143
-3309
-3101
-3644
-736
-1201
-664
2249
6149
-91
-3625
1360
4877
-8875
-8648
607
-1818
-1569
2378
-2203
886
-5785
316
4121
203
1376
3373
-2561
-4825
762
402
-1879
-886
210
2610
-441
5097
131
3526
239
1043
-4639
2095
-6248
-1313
1642
1257
1842
2280
-502
-6685
355
5005
490
-1654
-8683
1336
994
-2577
5744
859
-2638
-2630
584
-4475
2535
-1219
-3795
-1327
-408
-5404
-3414
1892
1467
-355
-3659
-6469
-5861
224
-1146
-3633
1375
588
579
-2621
-896
1109
371
-82
3779
-4836
-237
-500
461
2707
3085
-803
3343
-80
-6883
3635
-301
-107
5087
-9362
1469
-4178
-505
-2088
-2825
-933
-3744
-3516
-582
-6080
-5052
-2499
-2119
-4935
-2281
-1303
-1744
3836
-1148
797
116
-1314
551
-7382
2926
-600
-2879
887
-206
474
-4808
3520
-2387
-2245
1174
5116
-3918
-3830
6770
4092
130
-5622
-5264
-8295
3733
-942
-919
844
6911
3887
-1118
793
2016
4850
3054
244
-744
-2967
-4316
-3173
-6503
-5331
-4376
6801
-1886
2291
-8106
-1783
2623
-3435
3608
-4744
-5516
4795
-388
-2987
-7278
-4079
-4567
-2473
832
-1101
-3166
-5996
705
2114
-1159
-799
-1144
-5349
143
-5604
-4348
-869
-5257
-5856
-661
-202
4062
-284
-663
-7643
-6175
-703
7224
-312
4088
-5685
185
-4842
985
1798
-1334
-3889
706
-6365
4020
6508
1462
-7375
1258
-4990
-3719
-7166
-4955
-4422
-2630
1483
5749
-1953
-5924
-3439
-7855
622
-5812
7928
-706
-1853
-861
-6582
82
-4494
5114
-1369
-2289
2343
-9396
-213
-2591
-433
1251
-1725
-67
-2709
-6198
7883
-3189
-1258
3144
1886
2032
915
926
1337
7096
4728
-7887
-365
10521
-580
7932
-3881
-2150
6039
-1901
-6290
-332
-8499
-7416
4477
-3984
-5009
5087
834
-3822
294
2735
-937
-5504
-1955
-2343
1542
-1048
-947
-8219
-5539
2638
-11008
2625
-3499
-4273
503
-3078
-1364
-5823
-9532
8233
7354
40
-7835
955
-2668
2209
-4347
836
-7289
8449
-4934
-4775
145
-4370
-245
-2020
1214
2383
-9728
-3818
-2145
-4238
4429
-6257
2106
-3841
-8220
10034
3456
2018
-3753
6998
-2543
4044
4718
-5094
-2760
-4819
-9137
-1540
-12636
836
-2765
-1612
9417
4069
-5003
-8811
-2809
1368
-1164
-1383
-2620
3386
-3738
-1146
-1718
6070
857
2945
4930
-471
2987
1680
1821
-6707
-4751
1997
-2948
-3868
-4096
2422
-8570
-3170
-2308
-1768
1043
-9167
2089
1611
2712
-5133
-5868
4865
1999
-3236
-5159
-304
-2921
1731
3869
5006
3
6679
-3326
-1044
-5806
-6515
1697
-6556
3902
4279
5283
-1936
2129
-2257
4625
2722
6020
1585
-6218
6365
90
4360
-2253
-407
5419
-107
-6280
1088
777
1748
944
-5457
1103
-3372
-4284
2727
-3467
-5599
-12607
-4794
2263
3225
1662
2327
1812
5876
-3424
-779
-6725
1203
-5309
8
-3205
-4891
-1093
8639
-4064
-221
5091
1377
-961
526
1050
4547
-9817
6323
7129
315
1187
-3266
-5227
-4453
6632
972
6411
61
1389
-6436
3473
-352
-138
2395
-7712
-1538
-4557
321
-506
980
-571
-321
-1446
3494
-2135
4320
-5186
-3150
-3325
-3116
-3016
7616
1169
2444
2577
3360
-3632
0
758
4014
3783
263
-2581
-18
-5206
2782
-1693
-3500
1124
-4856
-1480
2009
-1232
-8258
3331
3762
-2975
-358
5756
7026
-118
1638
1285
2836
-2559
-6185
2815
4266
60
-3312
2316
-2885
7819
-1647
-13021
-376
-14888
5675
-951
2204
1881
4122
-3039
-1309
-3222
-2014
-2697
-199
-44
-3530
-2849
-3130
-2804
-7194
-720
-6454
-1957
-1157
-1874
-470
-4253
3329
-4011
2724
-3814
-4759
-4019
1483
2489
5092
-3324
1412
-1839
416
-4358
-9253
-6923
2257
2413
1132
-4804
-1768
1367
-679
-6973
-2237
-917
-714
-4706
1608
-2079
-1103
2183
1019
-7629
-3234
-3045
-2774
-3079
-5074
-2220
-3105
-2179
5723
4908
1963
-905
-1038
4393
5235
-3877
-1793
-3338
1318
2933
1027
-2846
-1029
-2874
-4063
1801
-2482
2954
6901
-4616
-3528
6023
604
-1221
2331
-1054
-1275
-2509
4785
-3408
495
126
3736
-5230
1873
-1067
-2225
9011
1916
-2033
1865
-4641
1517
-2979
-2090
145
-1716
-2641
969
-7343
-3076
6379
-1964
4657
-1133
-179
-4176
-632
-3020
-2315
-751
2554
-4858
919
905
2761
2539
-4025
299
-10781
-347
-336
2073
-1611
1548
-1001
-837
-223
881
-1328
33
2753
7059
-8267
-2426
508
-3633
-2770
6073
1655
-4560
-2465
-863
932
9309
-2624
880
-5518
-7578
-1337
608
1014
-2235
2332
702
4633
501
-2238
-6437
2382
-4552
1942
-6873
-2468
-4402
5907
-2835
-2469
-5773
2015
3410
-3097
1497
1166
-2291
-1735
-8337
-97
1539
-1430
3715
-1553
3258
995
-687
-6573
1463
1272
713
-7208
-2366
-8936
-3225
3540
-1006
-9
-3101
-4794
4457
-738
-2771
1336
-4635
-5143
750
2345
526
-6475
3995
3293
587
-4228
-2387
-733
-1073
-3423
148
-391
-6630
-469
-6591
-558
2437
2572
-2792
1825
-1366
-3811
496
-802
-121
-3384
-2193
2368
-581
2557
507
-8979
-2013
1008
-1427
4341
-3295
-1718
6021
6183
-3514
6369
-2950
-4763
-5367
-2772
-1696
4825
3643
3167
-2060
3845
-472
-6161
3262
820
141
2561
1050
507
-2618
-3268
-2603
5021
2587
-7814
3391
1540
3
-70
-3394
-236
2983
1951
-260
4446
-1699
-3391
-162
844
5753
-2239
-74
1980
-5220
1308
693
-162
-10044
-2023
610
614
3487
183
5265
5670
1139
8039
-6181
-3411
1111
2430
-6166
4056
-5233
-2226
-6604
-4141
-1502
-1223
-4673
8437
-14261
1018
-8935
6242
-10126
-3917
310
-2203
-9507
7619
10368
-1742
5660
-4714
5268
-5226
-15094
-7145
-6561
1297
8346
11963
4037
5225
-10274
-7067
7669
424
-22888
-8425
5439
-8432
-1258
-8833
-15431
3324
7646
-6072
-3043
-1491
10002
-6942
10712
7993
-6868
-3569
-9390
9623
-1130
9386
8765
-3028
4415
3886
244
-8990
3550
4863
-19004
-1304
2775
3770
-1704
-3784
17722
3609
-196
8211
2386
-9030
-19057
-4271
-519
587
10584
8643
-8227
2672
8445
644
-9392
2669
-2630
-10182
-13155
-4276
1208
-8251
2021
2049
-7651
951
-9085
2030
8288
6380
6782
-6118
3848
10696
-4760
3140
907
-3333
1777
1988
3356
-138
663
-2767
-4109
1168
-1624
-9185
1421
-798
-3276
-2251
10958
2968
-10269
9775
14840
4374
-2274
-109
-1455
4694
-9209
-3348
107
1016
5511
3831
-13196
-7020
2352
3904
-2428
895
9645
1845
-4360
4082
-12688
-7610
-16704
-3841
-7332
-1137
133
-5812
3654
2028
-5532
2627
6789
-714
-595
889
-5987
-2507
948
549
-2226
-7218
-3270
-583
-1009
-523
-7180
-1834
-214
2349
-2770
-1134
-3086
-5847
639
1135
5772
1988
2110
-750
-83
-1689
-824
789
485
-1962
80
769
-2270
-3521
2642
-4360
1983
-3869
-2144
-5567
-3923
1445
-2775
-3551
2527
-3335
-6057
-2082
7108
1586
-2663
-412
1409
-2048
-1285
-1493
-2619
2867
-5387
-5215
-4114
-91
-13856
-1104
469
-472
-1177
46
1823
-2390
219
-392
-1307
2357
-4010
-932
-4782
-859
2623
5703
3549
-6729
-1851
570
-5755
-3832
