4264
3063
2445
1579
4556
3743
5007
5047
3954
4256
3107
4848
2592
2964
2251
5894
5630
3071
2608
833
1517
-1021
-1130
1053
2544
-530
1590
899
2390
6231
1786
2314
2274
1758
2189
3581
2551
997
3261
1877
4181
2164
474
659
5302
2198
3117
4999
3776
2945
4784
5691
7135
7353
7553
7886
5012
3314
1518
174
-3188
-4801
-191
468
-1540
2952
-4038
-4585
-2213
-2330
-3369
-6201
-2515
-5473
-4719
-4082
-2557
-3483
-2568
-2956
1642
-1470
4356
2266
-4061
-6569
-5495
-3441
-2889
-4898
-1984
-2575
-4279
-3180
-3296
-7014
-9557
-8134
-5954
-3985
-3402
-3778
-1524
-1285
-487
-3023
-2704
-1301
-1194
-3028
-3772
-3515
-4587
-2548
-3252
-3950
-2205
82
-2735
643
-2326
-1596
-304
-458
2200
1943
2502
3375
2546
2668
3405
5877
6783
5739
3407
-6993
-6141
-4372
-4896
-6054
-3678
-2233
-3298
-6704
-6251
-5747
-3169
-5334
-6594
-4491
-6138
-2835
-2603
-6836
-4678
-2012
-3301
1287
-4951
-2602
-3132
-2781
-8710
-6327
-7536
2314
1764
976
1769
2800
3664
4242
2053
3967
2346
1611
1347
-239
629
931
-276
-3451
-3455
-3469
-3981
-4022
-6254
-6638
-5488
-6944
-3449
-2752
-892
-1049
-327
-8227
-3865
4324
5624
10373
12523
17132
14725
7419
-4269
-9725
-7491
-10099
-13412
-19200
-4299
-5460
-6403
-6192
-3725
-8108
-10804
-10113
-10926
-11018
-2887
-7843
-7192
-8422
-5353
2445
1497
1926
1432
4335
4403
3203
2751
1319
-259
1306
1371
3421
1448
2533
-5372
-6663
-4018
-7887
-5380
-4743
-5404
-4691
-5984
-5020
-6962
-4243
-3024
-2763
-3271
-2689
1015
1213
2937
6282
3779
3976
6352
3151
5601
4437
2751
1938
3709
3621
-836
-2440
-567
-2955
-1219
-4225
-3735
1385
-2547
-2356
-4089
-3288
-3255
-435
-2576
-12185
-10000
-10478
-8767
-10896
-1420
-2005
337
5191
4698
4400
6219
3264
6837
3926
-4021
-4965
-4890
-3835
-4237
-4979
-4670
-3990
-4146
-6649
-7244
-6600
-2962
-1447
-590
2824
2390
4567
3344
4381
4168
5343
7907
7330
5284
4417
5082
3775
3367
3302
1211
4784
3661
4734
2471
5154
5715
5926
6242
7084
4173
4741
1064
-242
-1239
1754
1035
2087
2000
3031
3127
4855
4700
5876
4939
2020
2099
1345
1180
1662
-3678
-4388
13
-2485
233
-3686
-4860
-1412
-6433
-1857
1437
-146
-4667
489
-3242
1009
-2091
-4099
-2849
-2187
-2673
-59
-5208
-1709
-3435
-4084
-1476
-2148
-1485
-3415
4213
5386
4908
1874
1737
1723
3296
2842
5010
5360
4680
4027
4664
2235
1688
874
-60
1872
1181
3301
2190
4043
371
903
2200
3898
3015
2313
3069
1749
1634
-2281
-538
454
3807
1240
663
4692
6428
4988
3618
1235
-511
1288
837
2459
4486
4906
7043
4585
5134
9949
9197
7709
6385
3172
3225
2011
2385
345
3632
2885
2488
2527
3254
3716
2066
2016
3759
3408
2852
2523
450
1250
2950
4235
3943
5247
3921
4233
4849
3440
2576
854
-1573
-2390
-1427
-2863
-1445
-1210
1454
1114
1561
2123
4183
4166
3781
3853
3130
3332
1860
2512
3743
810
1918
-3878
-5538
-6465
-4677
-5397
-3999
-3767
-5670
-7005
-4465
-6279
-5391
-5643
-4398
-7212
3935
3181
2265
3505
2304
2460
584
2581
3233
3855
2770
1505
1775
2762
2215
6435
3497
4177
3741
6480
6263
2955
4129
-78
1480
2366
2078
-1907
1170
-766
1019
2359
2070
1712
2914
1340
2241
2520
2125
4009
3002
1936
3615
3720
4537
-609
-1879
-560
-6566
-1780
-1690
-222
-3693
-3011
-2098
-2173
-5675
660
112
117
2072
3308
6382
7792
9451
10219
10133
10655
9024
5281
7367
5145
3129
-381
608
-1091
2213
7
-132
2013
1920
3107
2144
3018
4811
2864
2245
2658
3623
2036
2642
4784
1535
-540
2220
-6556
-765
1300
-11509
-18317
-11164
-7619
2681
7476
14534
3960
3219
5021
8007
8456
5493
6963
9832
8448
8087
6123
5520
3858
3378
2756
931
367
-1220
2851
765
2931
3284
2655
3630
1105
2469
2614
6992
5720
4636
2220
1974
2578
2546
3289
2754
3919
3207
2130
3213
3631
2380
-887
2551
603
277
519
677
3014
1284
4489
4030
2939
3883
3859
2124
2820
1424
4247
6136
-403
943
-731
1214
3364
2311
3691
4400
6461
5689
4369
2872
1529
3907
1474
2195
945
-154
529
760
2706
2857
373
2110
3189
2827
1174
3010
4523
852
-2467
-4623
-4018
-4485
-6775
-6598
-4239
-6033
-4101
-4743
-4378
-4325
-3988
-2212
-2662
-5382
-4300
-4879
-8360
-8212
-1237
4409
2690
-4048
-8095
-3853
-1796
-2193
-2494
-2875
5206
5876
3963
3299
1902
3402
2045
2181
3310
655
830
-458
-330
2416
1942
-2790
-4316
-1421
-4319
154
-208
-1884
-2835
-4905
1161
-5820
-2045
-3377
-1538
-3025
-5041
-3634
-4478
-2041
-3312
-6349
-8451
-4504
-5888
-1712
-4443
-1388
-1814
-901
-540
2307
-959
-945
543
3687
2225
4751
5010
5157
4172
3390
3056
-445
293
2102
-5664
-3443
181
-4464
-3369
-4358
-4568
-3390
-4294
-4518
-5418
-5065
-4891
-3135
-6367
-2895
-1177
-2590
-3727
-4850
-2114
-4835
-3663
-3674
-3821
-3625
-2708
-3036
-3543
-4403
2311
3966
4565
1852
1277
2107
1961
809
4783
3389
1475
745
214
371
-202
5565
1255
4345
1931
778
1022
1870
1495
352
2440
1333
2315
4076
3788
4624
3118
4005
3999
3229
3166
3007
3531
4223
3315
6215
6672
6997
7307
5310
5050
989
2054
1728
2704
1639
3332
4037
4154
3243
4394
4546
5066
3976
1987
-35
-411
2850
1423
2940
3929
6319
9753
8127
8886
8126
5784
5604
5107
4514
2937
3329
2925
2500
1730
2437
6189
3461
1601
2682
2737
1917
1394
698
1399
1032
2435
2363
2827
2840
3933
2216
5167
4972
4660
3029
3806
3276
2362
3081
1447
-2486
-1529
-4001
-961
3952
730
2965
-4018
-3085
-10681
-3892
-1455
-1298
-8321
1251
3953
-690
491
967
3096
3947
1428
4061
3848
3352
1689
1345
1893
2232
2088
-3674
-3262
-6627
-6327
-4968
-6626
-6764
-8150
-5382
-2586
-3358
-5029
-2910
-3045
-1795
-7652
-8495
-6805
-7399
-7988
-7248
-7181
-6438
-6871
-5998
-1985
108
-1168
-2208
-3843
2921
2659
3130
4562
5729
4995
4649
5603
4145
1956
1679
3452
2796
3148
2766
2200
3043
1159
3036
3542
2752
3558
3507
-102
696
2601
2718
1258
1152
3815
-3169
-3409
-4365
-9327
-4775
-8537
-8567
-6400
-16184
-8017
-6677
-7026
-2716
-1895
-1804
-10545
-9763
-5904
-5734
-6050
-4550
-3941
-5009
-4440
-7490
-8648
-5795
-5172
-6772
-8686
338
-554
-2392
-5085
-6581
-1797
-5740
-4020
-5804
-1317
-530
-858
1368
829
1386
-5308
-4004
-1489
-3076
-4599
-5002
-3234
-2570
-2715
-3733
-6216
-3871
-1767
-2253
-3363
6054
2897
1964
596
2192
381
2115
-183
-471
2872
2042
1075
1300
1362
5863
-817
-2595
-3985
-3961
-3855
-1748
-5095
-1377
-734
-2267
-2164
-2714
-781
-758
-2744
-4744
-2578
-3752
-2294
-4164
-1491
-4200
-3159
-4377
-4809
-2099
-1546
-2330
-2904
-4672
-3657
-3521
-2043
-3381
-4173
-1119
-3025
-5339
-4146
-4034
-5518
-2930
-1800
-1656
-2469
3
656
608
2450
2708
502
-191
1671
703
4828
6046
5736
5709
6237
3857
-3210
-1042
-1728
1804
-2600
-4740
-1271
-4416
-4242
-1873
-2547
-4815
-4127
-1047
-6271
5245
1371
1969
3728
3503
-814
3405
2291
3481
3405
1967
1104
758
866
1952
5053
3957
1362
40
-1062
-3210
-3584
-3906
-4918
-3147
-3811
-6261
-5452
-4398
-4837
-881
-1699
16
4500
4646
5443
5833
4768
5477
3816
2678
1328
-110
52
-3594
-1824
-251
-64
-1023
374
-704
-187
-1723
-5842
-6776
-6223
-6485
-6710
-4095
-2008
-15455
-13397
-10251
-10247
-7852
-8256
-8904
-17506
-7918
6617
14575
19427
18344
15318
14013
-1784
-3868
891
-1289
941
13
-3975
-1512
-4391
-3364
-4665
-3074
-890
335
-857
4494
4136
5655
4379
5333
4778
5076
5398
6469
3287
6106
2424
1566
3158
6529
695
-1214
-1413
232
718
2643
-2017
-3444
-7476
-4970
-1659
-3346
-4643
-3727
-2836
7211
3521
2464
2635
6114
3425
2197
570
-4609
-2523
-8294
-5059
-7062
-8994
-6442
-4051
-3930
-4187
-3898
-5781
-6623
-7811
-8022
-8700
-9716
-11293
-8916
-8939
-6407
-4013
4529
5148
3655
4817
5530
5730
4444
4396
5534
4990
4796
2019
2155
2717
1847
3707
92
-1730
-2029
2752
-2624
-600
-6266
-3292
-4824
-1684
-6706
-3590
399
-2950
862
259
-294
1435
788
3413
2374
1592
4619
4035
1677
2569
1864
168
1991
-3251
-3878
-4765
-5159
-4175
-5054
-5957
-4870
-4379
-7016
-5949
-8878
-9678
-5781
-7238
3035
7451
6773
7809
5172
3653
6041
5656
4097
2927
4853
2932
-511
-2728
1893
2827
5187
3969
6254
5021
5156
4872
4364
5212
5460
5632
4268
2712
2092
1023
-5266
-4868
-4034
-5636
-2264
-4846
-1014
-3984
-6409
-5040
-4084
-3860
-4338
-1914
-1017
3755
3190
4831
5430
5175
4247
3882
4291
3488
3369
2781
5036
3263
3354
4493
-363
-1237
-1977
-2039
-2204
-5398
-6879
-6936
-5151
-6318
-6131
-3702
-3739
-4254
-2357
-1408
-3090
-4719
-1642
-510
-4476
-4643
-7360
-2974
-4845
-1323
-1808
2964
3615
3131
7715
8021
7421
6942
8134
3404
3924
1497
-3279
-2750
-5031
-11548
-6242
-10850
-11005
920
3061
1514
1816
163
690
2222
2092
1045
2763
1242
794
4555
4842
6891
2383
2028
909
5340
9267
9387
3986
4102
2954
2145
5646
975
718
543
1634
4784
2114
-163
496
1612
1238
4141
4735
5875
4046
1269
-44
2429
2087
3641
1024
3691
3704
6442
4365
6861
4947
739
3739
521
3796
-607
2337
-102
2585
1775
1540
1513
502
1493
1663
1499
-698
1878
2467
2703
3196
4673
3120
5349
2038
1363
-851
3296
2661
2108
2135
2617
4252
3843
2880
3382
1720
1144
-271
-11082
-9990
-4448
-2966
1297
7751
16061
18863
15949
9724
908
-6309
-8338
-12344
-12241
2209
2885
992
766
1815
3662
5416
4219
4320
2426
4285
3238
2320
200
-1171
-27106
-15055
-8678
-6052
1635
3887
13441
19903
17512
12732
3855
1598
-4565
-6775
-11288
50
608
1209
1612
2186
4989
6717
7229
8116
5791
5865
2715
1555
918
-751
-6822
-8036
-6305
-9644
-6855
-7496
-5848
-4972
-104
3868
7534
9289
9868
11937
10610
-3718
-3162
-2625
-8707
-3563
-5825
-1607
2162
594
-2546
394
-1689
-2886
2254
-428
1575
668
3634
997
3568
2072
3498
4711
1295
3679
1660
1099
1325
1450
1289
-4330
-5128
-5042
-2357
-5320
-3344
-3791
-2687
-1710
-2007
-1228
958
1358
2204
1811
-849
1170
95
3221
4544
6326
4305
4572
4717
9167
5782
7442
8861
9020
7035
-4684
-3402
-2514
-2879
-2055
-3280
-3416
-4773
-3891
-3515
-2636
-2940
-3013
-4815
-2803
-718
349
-4547
-2102
-2687
-3408
-1496
-8154
-7321
-3243
-3206
0
834
1448
329
-4807
-7374
-4446
-8535
-5840
-11558
-2452
-1278
2480
2996
4249
5791
6143
2791
6641
-3473
-3197
-3414
-3703
-5548
-5907
-5612
-5929
-4918
-4843
-4907
-2674
-4512
-2419
-2143
4661
3589
5256
4511
3506
4197
3859
4942
4587
4351
3281
2477
2103
971
2030
1429
1796
964
585
1971
3818
2525
4618
3372
1755
2753
1311
3433
1799
2127
-6544
-8150
-4850
-3441
1051
3608
6419
9579
9765
7274
3356
3359
-116
4030
2226
-4901
-6934
-3890
-3876
-3522
-1084
-5072
-2907
-4190
-2695
-451
-1386
-2567
-4874
-4515
3150
3407
3372
1346
5732
4675
6241
5329
1618
2659
-1131
4058
1994
414
-3466
3974
4227
153
4396
2492
5199
2012
1461
4829
4159
4219
6520
2194
2410
1342
2606
1567
1842
3323
4008
6646
6046
2577
6331
4927
5406
-349
4988
4524
5521
2015
5143
7854
6825
4037
8433
10032
626
-2892
-4648
-6897
-11124
-9423
-8451
-7438
2499
1050
1340
3104
2239
4666
4223
3220
3954
3402
2380
-257
-196
1671
1518
-1339
-5664
-1205
-4612
-12452
-6896
-13785
-8533
-598
-1062
2926
4650
902
2945
3282
-1093
-1466
-3572
-3951
-5251
-2948
-7277
-5430
397
-2366
-2103
-1557
-2087
-1229
-3050
2228
2942
3430
3017
4394
2703
3264
5491
3402
5041
3092
3500
2759
2147
2014
228
3587
1712
2996
4818
1550
2311
2658
4646
3978
1843
169
611
-243
10
-2437
1401
925
4810
6306
3730
8821
9843
8161
7919
3716
4014
1520
4104
6368
-6328
-11631
-6084
-5968
-2352
-2256
-10571
-9199
-830
8066
9865
12097
8060
7275
10712
-4025
-3095
-1914
-3343
-2821
-3277
101
-2400
-2733
-1520
-2918
-2897
-3171
-3442
-3182
3744
4816
1150
611
1562
-227
1289
1018
252
2286
2111
2955
2729
3610
4211
-861
-1916
-4809
-3431
-2369
-3074
-6050
-5152
-4579
-3043
-5925
-3869
-3778
-1755
-813
2580
1499
1110
1973
2434
3514
4461
3499
3023
2606
2178
4903
6981
3178
3469
320
5084
2430
1980
696
3193
4218
3346
5692
7923
4617
2875
-1207
2440
2261
976
1478
841
943
4069
3336
2610
2079
2637
1602
3493
1408
395
4001
4383
-3596
-7697
-4935
-3340
-2565
-2352
-2653
-7012
-6339
-4973
-6307
-4208
-4723
-3027
-5922
-1596
-5562
-5171
-10541
-6788
-7151
-6907
-4431
-4206
-2069
-1117
-1579
-991
515
-485
-32767
-22541
-20496
-1483
3239
9513
20672
18309
19430
16406
9602
-2665
4683
-12404
-13116
6265
6485
7645
7444
10729
12343
6973
4557
237
-5185
-8048
-8389
-13923
-14705
-13592
-1119
-205
1843
-485
1351
2557
2212
2085
2670
1088
1174
4005
6410
3602
4148
-6267
-4879
-6685
-3125
-2751
-4493
-3527
-6574
-6425
-6153
-6073
-4886
-6329
-6267
-5768
6182
4492
3777
977
1531
1948
876
2003
3707
2403
3943
3606
2067
1370
629
-2172
-2720
-4863
-4410
-5316
-4706
-5346
-5491
-4734
-5193
-5036
-4946
-3434
-2807
-567
-1889
-2563
-3142
-1603
-3841
-4687
-4384
-5578
-6619
-4312
-5362
-5167
-5723
-3846
-3248
12573
8386
3817
469
-695
-1879
717
-2467
-3138
318
3954
-150
2272
11101
4955
-1196
-3101
462
-1956
-3385
1164
-971
8
-1361
-3623
-3802
-2995
-5177
-3447
-4467
-3257
-4300
-3477
-7219
-2820
-7523
-8819
-13396
-8503
-4104
1304
7724
9261
9926
4334
2649
3602
2440
3073
3790
2287
3310
3035
2613
1383
1188
2736
239
4024
781
4755
3925
3901
6064
6088
2901
4203
-985
-4796
-5988
-9315
-10594
-6996
-9582
-8654
-1600
916
241
3
1161
-313
2199
-282
-2568
-3392
-7177
-3906
-3919
-5420
-4665
-689
530
2100
4008
-1251
-4519
-4517
-3381
-2891
-4178
-2561
-588
-3413
-3331
-2652
-2078
-1134
-380
2286
4453
5414
5549
4821
4927
3194
3862
1301
391
-386
-749
3021
2527
1540
6069
6505
10992
10281
4615
1106
-1600
-1427
-920
1993
-4512
-2652
1137
2704
233
1673
548
3919
4578
9383
7749
6213
4796
2188
488
1503
1743
2736
4492
5479
5704
5439
3819
3084
4029
4627
3568
5428
3242
4126
4120
2185
-1746
-2949
1131
685
-1806
-6267
-1223
-2915
-5754
-882
-929
-2465
-3786
699
-4764
