3959
560
6734
-1109
-9582
4488
-4325
5508
-4056
5586
-8226
-18683
-11153
-3076
-9715
13885
-9996
-11098
-1909
-2020
-6996
-7958
-10724
9317
17118
-6281
9627
10692
-1293
-6522
-10629
-8586
-2785
1106
-9135
-10572
-2144
857
-11790
-9281
-2035
-2928
6094
8183
7217
-1892
-7785
-14397
-392
10653
-2329
4431
-2733
-6969
7691
7711
4774
-3722
847
4171
-5312
-7096
-12444
11023
8192
-6258
1883
-2380
4799
18345
1626
-589
918
-5639
20
3530
-11790
-16450
-2462
1488
8207
-16551
11685
-4594
-2793
15063
911
-5733
9647
-42
-6005
14438
685
-7485
-2947
6666
5987
-201
25638
5262
-15418
4799
-1497
-8043
16295
-6152
-8202
-17074
-7534
4898
-10298
9754
10723
5646
-4805
9696
-7269
9276
-8256
11515
-7357
6663
-12176
3031
-9509
11384
1619
-4005
-679
460
5807
173
-3078
-9738
3064
-7305
-4400
-17622
5241
8968
-5713
-4007
8003
7850
-19210
9438
12926
-13504
-2453
5652
-8652
9520
4851
7452
13834
-10175
-3430
3360
-6921
5462
356
7408
1995
-1867
12649
11979
3502
-22203
-2401
9310
1976
-7864
-9489
-5279
4523
-3504
-2043
-1667
-1707
-4817
-7835
18786
-8297
-13970
-1395
-10172
-11748
7840
-2490
-11227
-101
14801
-16969
3057
-21352
19175
4075
8002
-10759
11306
8162
-2359
6924
-8859
-8363
272
1792
-10648
7720
945
3255
78
-16299
-2335
-19845
3036
15639
-1928
-9326
1861
-4868
-5935
-1733
7915
-11951
-1360
16852
8872
7039
2384
13874
-2857
-1597
113
-5884
-2134
-2803
10916
2389
-14402
-8992
11355
-15175
9153
-2488
-8393
7057
8620
-19530
-7315
-8590
15460
-6501
7816
-1659
3609
11964
3973
-1784
-16028
2420
2930
-6277
543
-3013
9871
5445
-11215
-12478
-12810
-1764
6845
-4345
-4498
-13167
-6561
-5866
15119
-4660
-5894
3230
-5186
1678
1632
3978
-2400
19227
-17327
-12177
-6719
-3227
4443
-6633
-4714
-2757
215
9405
-17724
1810
14244
3028
-2157
-476
-3774
-12344
-3393
-5804
11750
-7104
-3253
-12635
-2142
3205
-4755
-6756
-4143
-12831
-6438
-12333
-1023
-7339
4798
-10886
7077
-8797
6213
-8500
18551
-7076
-10573
-17406
-1991
-15415
1113
-10175
7334
14869
-4224
-3087
-5385
-13948
2227
-8793
13764
11192
-5619
8540
-10742
-10193
18704
-10250
1114
13796
13116
-2309
6230
-9035
9275
3744
15865
-186
2663
702
8927
4023
-1908
2322
-1450
20865
16616
1812
14212
-9902
-653
-287
-12242
-9804
10933
-17251
185
7555
6557
2857
-1188
13997
3251
10361
3347
-961
-3779
-13626
153
15094
8449
-4403
-8196
-4041
-16549
2036
-9140
2609
-15211
13930
-15393
-11334
15456
4076
2061
-8089
-7719
-4785
12034
-8925
2095
-17006
15576
-7732
11807
1746
945
3549
-3237
-2127
7560
-9305
-10205
-6749
-4021
11998
11684
-25979
-4115
9931
-10673
9614
-14699
-10126
-2414
-2055
-13116
-1684
746
177
-5719
2287
764
5513
2995
-3813
-8364
-8912
7446
972
2202
-10913
-2042
2468
-14397
6735
-3707
-5094
9065
-10736
-15855
3097
-7820
-13889
-2741
1324
9057
1582
4785
8283
3505
4039
12320
10799
7410
-2652
13508
1434
-13325
-6768
2420
333
18402
812
-1473
7538
-6841
3161
5256
4743
1870
10086
7491
-3400
-2429
7902
-14531
5404
-2176
2281
1939
-4598
5952
-2202
-725
-3902
1350
-5511
8380
4379
8576
-10156
14108
-16464
19433
-5867
-2815
4693
8966
-14392
8283
-1645
-8828
-5478
-3584
10817
-3194
1655
4411
1910
-4451
-528
1442
1293
-5729
-1989
-8466
1800
11686
6603
4444
-431
4443
6191
14079
-13474
-13640
-6302
-93
-18752
-9843
-2737
-4323
18942
7042
-1558
-8463
-10987
-6918
7434
10537
11816
2970
-4955
-9892
-6531
3118
184
-217
9325
7900
5662
-10964
611
2387
-4620
-12618
14564
-2559
15967
6036
15822
-2184
-3040
3444
-1792
5086
-1298
11274
10484
11193
11090
8853
8560
-5554
-6216
-1802
3396
-8153
32507
-4208
-9651
17136
3458
-20911
-11798
-9345
4439
-13707
3673
-11676
927
22803
-16067
-633
-12537
11543
843
-3234
11537
11920
-1428
-62
306
6052
-4375
-5381
-23152
11912
-5988
6464
-14380
4301
4911
-7107
-8953
-10550
9106
12702
-4147
11616
5403
3896
10851
-11130
-710
-4119
-16534
-16266
-12042
-370
-2176
-7386
-24236
7642
-2540
-8219
-6127
-2508
7999
-6391
8809
-442
2565
8657
14779
2656
984
12467
10488
-1404
2409
9446
-3955
-4696
-2091
1237
6194
5107
7566
7407
-4809
9050
-7223
-15596
7765
901
1806
-20760
-3088
-16758
2475
4030
4078
-7659
16583
-8911
7406
-6646
414
-331
3262
-9686
-9530
-5599
5316
7657
5030
10771
2675
-9903
20027
2252
11830
6211
3580
4876
-12965
-572
-19167
-14900
-13778
-5931
5323
2486
-23937
-2856
4009
2568
3864
-8744
90
-12468
4434
5588
-10618
8793
7959
-13461
12128
-7783
-4544
-14962
-19531
21889
8754
13665
-1235
-12464
74
9243
-8073
-9660
1593
7788
-3447
-958
-374
197
-6912
6961
-16401
5197
1595
9985
4279
3410
-7704
11822
-11247
5971
4973
10389
-18027
-13454
13331
6012
-12540
-3035
-3544
-12873
-8914
-14367
-9561
17104
-5343
8113
10561
-2483
-11249
-5915
12875
13583
-7603
-14114
-1080
-11021
2180
12139
209
-6767
-10755
18084
-10265
6519
12740
-1087
4493
-16852
7395
-22698
7023
-11914
-8080
-7686
3063
-12537
14362
3723
-6269
-6415
-4219
-13247
-8312
-1476
725
-378
-5452
-652
5572
-6726
-4518
-11610
6437
-1316
1331
-1399
-12839
12381
5191
-1740
-868
-6327
-5179
-12264
-28
-6554
6901
3772
-4916
-6101
-6736
1391
9328
-7941
-9202
-5504
18667
-4306
17237
6134
6734
5351
3159
-4408
1453
10806
-2958
-11892
-7121
-8529
-5427
16960
-9974
-3100
6350
3999
-2254
-1508
13050
1791
-1685
21314
14547
-2831
144
-17285
-11099
-14698
-5736
-13704
574
-13463
19763
20614
-565
5019
1417
7566
9734
-5529
17389
-8018
-5889
515
-5133
-7245
-591
3367
-2621
1423
13959
-7395
8047
-3658
5373
16305
6594
-14792
-12954
-3332
5063
4663
4020
-17143
15990
-8324
-13558
-1155
-4283
-19368
14805
9863
1004
-10660
-18579
6909
-12114
-5755
7321
1611
9595
-2855
-4392
7237
4152
2463
3623
-3783
-3269
9334
12968
757
12066
-9308
-1792
8425
-5767
-4857
2298
4854
-8077
9254
12865
12365
6761
10388
4654
-5361
-13308
-4643
4718
-9807
7243
-2375
1980
-8635
5451
5133
6705
7751
-6961
9066
-5230
2485
-1839
-1807
6163
-1558
-8651
7887
4635
-8986
7752
4357
-731
2187
-2129
-147
6356
-8179
-8099
1911
580
3503
14810
4808
-7735
15090
-6093
-10614
-470
-19964
-5304
-2821
9285
5671
3950
7100
-163
17568
694
3155
22396
-3861
3030
11573
-13607
12883
-12120
13179
9124
-15456
-1410
-1143
-4797
7784
-3152
-1942
3950
-5105
-2256
174
-6198
-16210
-4431
-3086
-1901
-2489
11735
6422
-11831
-6770
1330
3616
1526
-1863
-701
-2672
2615
77
744
-1228
-2821
-3684
-12920
2073
-1783
-3698
1861
-2494
1003
-6607
802
1343
-1880
-709
724
267
-81
538
920
224
342
-942
-1557
-738
681
1773
-8789
1389
-7870
2181
-4988
1308
2321
5928
-6
-7177
-1019
-6900
6338
13126
10084
-2276
17768
8116
-7963
2421
4253
-626
13342
4107
-4708
28439
-9382
-3597
-2933
-711
-18627
-456
7075
-10344
1664
-8212
-10706
-2164
-1697
-13270
4390
-15636
-7321
4471
-2678
-9049
-16870
-3836
2548
1468
5888
5717
7932
-508
-1521
13140
-6916
-11424
-23512
9245
7246
2846
8937
-5609
16718
9531
6364
5960
1155
7986
6796
1613
-13500
-2335
13602
-3935
2974
8755
-5745
5195
6939
4821
375
2854
-841
5962
-983
-2572
-2724
1286
11746
-5516
1048
6223
-11074
3162
38
10067
10168
3034
3924
-15894
5546
-8901
1895
448
-7032
5978
1618
-21530
-5820
9883
3758
-5990
-2979
5628
-8
19328
-3933
19046
12227
-7550
3345
-7687
16505
-881
-6344
-5890
9584
9162
-9925
-7415
-3567
-4951
5063
4526
14162
380
-6603
-10043
-509
-3474
-583
5364
-3153
-13874
-5659
-6554
7866
637
-12405
15487
11903
-2563
-1194
7068
-3560
-5378
14820
-6907
714
3976
5753
13668
2684
-467
-1754
-2296
3607
553
-9324
888
2280
2247
-3039
-10827
1739
-1800
3519
13007
-5653
4896
-2698
2252
-1612
-1553
10524
8491
2509
2075
-197
517
1656
-9907
-4936
92
-1511
-3941
12509
7890
-1844
-12627
9973
-9906
4714
-6624
10035
3600
9631
-11810
7104
3871
1944
1542
4549
5709
-2994
11382
337
13666
9893
-10390
5956
1154
7435
-7343
-2077
11203
3930
12259
-7595
2088
-290
-12456
-4329
-10873
-32
3171
-15836
-18607
-8612
-3710
9459
13690
-3777
6186
5903
-1610
-5853
-7658
-6065
110
-11146
-9611
1014
-2717
-1371
-14135
4429
1082
4330
-244
669
-14353
-8389
4795
1822
-691
-9799
4118
-5128
-2365
-1133
-549
-5569
5542
-9040
-12066
-14277
4925
7273
-7760
-12523
7498
-2775
11628
-7099
13939
-16617
5494
-559
-4834
-11415
2474
-1080
-10059
831
748
-9982
-20034
-2126
4444
-9084
8088
-2153
9767
23505
1561
-5799
-7089
12710
-4908
1335
-9029
11385
1088
9854
1868
10527
-6677
-11944
-4202
4667
4835
8518
1141
-2207
-13033
-24418
2868
-4554
4814
-1769
-14939
-8242
1138
9930
-4328
-9562
-8796
-4743
-16378
5582
-5425
-56
11667
6674
592
-4661
-12848
-2641
4322
-4342
10689
786
221
10364
-6820
-8747
-2971
2287
-13997
-7308
-7562
13450
12528
-2634
3950
-53
-6480
-9928
10241
-8949
-7204
-5693
-13750
9555
-7451
10433
1504
15589
-15496
1310
1485
4334
3255
-9160
-3028
4930
1274
9951
11618
-1214
-2712
-329
5315
326
-11200
9612
11430
16991
9167
4700
-3514
5952
-5135
4051
-8566
10441
-4960
4595
-5217
14915
-167
-4739
1285
4881
-11831
2734
10767
-3141
5839
9508
-19927
9017
-7271
4765
9314
3085
-10280
14382
-5876
-1823
16321
15956
3820
-11397
-6382
10870
-10359
-9023
6149
-2724
-9314
2009
5190
1443
-8530
-15398
-6615
1669
1129
-7900
6745
-15906
26950
-5668
12533
-15749
21234
-1484
10253
-6548
-5023
-1294
-2288
-2064
-5184
3906
-16490
-9845
2946
9226
-6382
6369
-10407
4670
626
-7224
-10939
-14098
-14012
-11723
-11407
499
296
1804
10145
-1273
978
2284
-11253
-5480
-7994
-10856
3204
-14507
7401
-862
-6063
16247
10051
-16353
5086
-437
-8735
-16150
-13641
-12637
-13190
-4138
19084
10490
13470
-2963
-5233
13610
-4231
17828
-12274
-2105
16308
-2152
-4073
12693
-4562
-15263
15565
9819
-1537
-6008
1812
-689
3560
-12135
-7297
7476
5032
5282
-14476
4410
3688
-3163
-767
10782
-13900
-9527
1430
-4376
2327
-15109
15262
4293
-2978
4109
3056
10738
-531
1029
-8584
1603
7356
-1325
8467
-7559
-897
1121
5376
-22041
-226
-1976
-1557
2185
-5777
-2857
-1099
-2645
5421
7777
-9876
5969
-3424
-1731
-8056
4585
1339
-21809
-1166
-143
7506
-897
8553
2236
-7468
-5200
3926
187
1649
269
-501
-2213
-5307
-3640
8328
-12529
-4142
6979
6070
2178
-536
5436
-7272
-1249
-11891
-5967
-7274
2024
-5129
-1073
-3361
3086
-18364
-11112
12090
14676
-7193
1833
14387
-6067
-4351
1119
662
942
-5240
-5261
4243
408
-322
4213
404
-2148
5943
3478
18012
10639
-2505
-330
-2315
-4915
-1645
-5377
6992
-8582
-6043
1779
-15537
10259
13465
9515
-13181
579
3011
7396
1142
-2644
-2664
-1116
1147
-3942
3384
3125
-285
-2881
-432
-6772
-9846
-6990
85
-1520
-3844
534
-7538
-5522
-4191
-4448
9753
13603
-1149
-1615
7
265
6234
837
-9908
2640
4099
8079
3514
2468
-4448
9730
-1858
-5544
2903
-7850
8449
-9639
6551
-2348
681
-4483
10412
-5650
-12198
-855
-8588
-4718
351
-3773
16489
-13668
3443
-7156
8007
2172
13163
-2355
-12680
-5527
-14438
-17986
-5403
-4268
8590
-6035
3890
1227
14455
-5256
15087
-2968
-2070
2413
22713
12985
-14912
2561
-2243
-1994
-10737
-823
-8381
11131
-8431
-4924
4766
2470
1214
-7189
1514
2852
7995
-685
2409
-4997
-147
18960
44
2631
-6573
-7191
3566
5912
5046
-5426
4863
12571
-6776
-1191
-3565
-11986
-16423
1945
-13153
-21588
12973
-1308
-5069
8643
-6063
4650
3447
-16646
6310
2107
-3582
-2373
-7053
-1237
-7038
-5291
-1767
-2055
-3289
-5283
13837
-1574
-2500
-7785
3680
-2812
-10533
5134
-12047
13831
-10259
1112
21519
14091
-9997
-3743
-9789
6970
5056
12869
3489
4427
-17067
593
8255
1494
373
-6412
-692
-1474
-1484
-6884
2031
-3238
6872
-4391
-997
-2755
-15
-2979
-5358
-6156
-855
5669
3833
3946
1846
-4389
-10001
236
1412
-1094
-1115
-1603
20
-12959
4683
2924
-3950
-1114
1906
-6204
5031
2258
3822
4733
3150
-250
3840
735
-1224
10659
-4479
-3578
10497
10430
-11098
3076
9162
10587
8436
1112
4862
6388
15989
2099
-18071
5003
6197
7203
3668
-8092
1110
5527
9284
-20753
9085
-4475
-9529
-5657
-6198
-6103
-18762
-676
-8081
6299
7634
1204
-12016
-10294
274
7508
5184
-9715
2640
7523
15211
-7434
2683
7023
-922
1877
-10481
4942
-6752
-9014
-32767
-4036
1058
-5024
-6263
-5326
757
10782
10029
1055
-554
11826
-8569
-8349
1456
6960
316
-5229
-14289
16608
9317
-2289
11081
2125
-1539
-5833
-21640
-360
513
-2166
7857
-11875
-17653
-10961
-2049
2571
-418
7593
3592
-843
10409
-12594
-259
7062
-1715
-13144
5659
-810
8161
997
-132
3962
1768
-1023
-540
-7340
10249
3975
-17786
-6871
9264
6236
-7440
159
-3189
28
21027
3400
3847
-372
7648
-10543
1858
-4356
19543
2542
2606
3349
11375
-4806
7560
9919
-11628
-1966
-7363
-1124
8613
-6638
10119
-996
9835
-2856
-2099
-22563
-20341
2636
527
-966
-700
16454
14723
-7462
-4842
7407
4072
-2306
-13266
-2219
-6566
15039
-9206
392
16322
-15669
-7745
-7264
-13281
-787
-398
2434
8174
149
-10789
-2963
-1572
-8867
7258
5464
-5208
-3052
-7055
6272
-13369
2204
1855
8229
-19352
-1227
4655
1650
-886
-1462
3702
6430
13578
12208
9604
-4037
-11788
-623
-18535
11468
-3969
17435
10
4269
6454
9988
-9596
-4488
5116
4604
17207
-8506
-7474
-1395
-10172
-9951
13176
3973
-1463
10307
-9236
-15122
5054
9542
9581
-2368
18364
3307
5655
-10366
5058
-19020
-5597
-4592
-14097
12612
2589
1208
6562
8802
-1316
21456
1004
-6458
654
1862
992
-3092
-4228
-793
828
3718
16583
-10569
-1202
-2899
7632
6529
-1761
-4598
-2951
8389
1885
-14843
-4763
-2160
9580
-8848
3803
18828
680
11694
-4904
1257
-4309
2304
-6308
-2138
11591
-4340
2604
5720
6453
-72
-3077
19514
3392
6429
2810
-5268
-2493
1237
-14485
-6828
10209
11267
-3133
2020
-7221
6247
-5201
3402
-15009
20856
2514
-3308
-21181
-13041
1121
3436
8374
-82
7093
-9735
-19930
2163
-9955
4671
6396
4152
15472
8381
-7070
-991
1881
-7974
-1908
9145
-7340
2459
1218
-3133
7426
-4647
5342
-4549
3579
12046
-8370
1843
2315
-8809
14391
-4244
22921
-4422
-9435
11076
-4715
1570
1387
7414
4774
-7433
-12033
-13136
6434
-10203
10723
8898
1545
-6494
5825
-10754
-8913
-10196
4532
1536
8230
1825
-591
1488
-9114
-952
2577
-5856
-6172
-10080
-5449
-5914
2545
-10783
7659
4148
345
11643
-5097
-181
-16799
12365
4694
-1756
7565
-5392
-11052
7679
-8117
-10803
2196
-11583
-5035
-14813
2365
-5532
-6705
15298
11575
-722
10809
9198
7473
-873
-3493
7204
-8542
-8235
4514
-7954
-7475
7480
5004
-2475
-921
19213
9161
-19113
-2210
4369
4699
4019
2470
-11717
799
-11099
-10892
3067
2241
-5685
4872
21022
-5195
-492
-435
11351
6041
3681
5184
844
-5948
3178
14771
14128
13448
15762
-13786
-2294
-3446
16265
7860
5642
-11249
5634
-10610
89
-1557
-2745
-18453
15922
-15825
-3073
-5107
-12088
-14359
1814
4436
727
-3313
-6810
756
-698
-4398
3516
1785
-6554
-758
1355
1047
-3635
-2736
-738
-156
2004
-4607
878
135
12418
2432
-2302
-8743
-5541
3029
-3935
-2573
3503
6574
-5566
4789
6230
1037
-3432
11083
3160
3719
-2767
2342
-3139
5091
1323
-3203
-10378
3647
-6421
14480
12332
-19793
-7617
5509
13954
5688
-10463
7879
-4513
-901
2296
3527
-11290
-8062
-1144
9297
-3043
-561
-10479
-5722
-12765
-2372
2410
-5804
4099
-10997
3092
-325
649
1378
644
2094
-956
-10957
-17145
5710
-958
7991
2786
-187
14664
-9991
1891
-419
12736
7227
2443
-2644
-11828
127
-17189
-2377
3052
154
-2628
8143
6615
-4421
-3783
2843
-12461
-261
-8699
1625
6504
-3732
-5217
1258
-7879
126
-8603
-4221
-13802
-2610
2956
197
23095
5417
-13618
180
-128
-8160
-3119
6367
5873
-1204
-11355
-20406
924
-14502
-5436
-5291
13552
2025
-10580
-9614
-14266
15832
106
79
558
6005
-14268
4989
-3473
-12573
-2567
-8332
-7112
-1432
865
-5636
-4628
-2715
-3805
12834
-5445
12946
7552
14475
-3044
-1754
4983
6527
-3042
-2433
-21297
272
-18317
-1711
-689
-7836
-3329
14305
-1028
3167
24
-2001
-3860
-7410
-1996
-5467
-4064
2773
556
8840
-4208
1514
990
1241
-518
3630
-2427
8996
-8190
1329
-2159
1104
-3181
-1645
-3067
-3216
-924
8996
-214
-5463
7475
-3412
1314
4149
-6428
7666
113
-5083
-2505
9251
-2683
7751
-1508
-282
11396
16373
-4395
-835
-1295
4387
-5008
467
-4926
-967
21098
-2190
-173
-5705
-13599
-3214
-10884
22722
-12493
-6615
-700
15068
7595
3881
16791
6747
1077
4040
2743
-9015
-3631
-9278
1321
5857
17734
-16160
-3327
11221
-3178
-4344
-10129
18638
6862
2185
-17224
-14427
12580
8746
-7914
-2659
-5905
12058
-12575
-8418
-14945
12589
-999
12289
26201
-5568
13396
5371
4424
2972
14113
4677
18456
-5021
8524
15730
-784
-5865
8843
3404
7783
-8346
5954
-95
3970
15361
-13966
-475
-4124
-1801
-669
-10848
1972
-4000
3662
1686
879
-10864
1614
5657
-6178
1201
16766
-5574
-6416
-3752
9334
-3096
-4328
-3419
-7929
8136
753
352
-2007
2331
3874
-2310
5274
-4196
11776
-3437
-7562
7635
-8733
478
-2009
1816
-17726
-1731
-5586
-7659
18615
-2214
-2071
-4422
16407
-8267
231
4386
-6799
4758
-4619
-8660
-5730
-423
17178
-5748
-662
1360
11732
-1261
-5057
13717
-12431
12981
11578
10346
-9761
-8650
9023
1637
4335
326
2778
-1009
3515
8633
-1522
7708
13597
6325
-12916
-12983
-2112
6969
10710
4243
13781
-2784
757
1380
-3738
8277
17826
6260
-3917
-5346
-6886
-1042
-6360
4043
-8248
-11546
9607
6365
3547
6783
814
13940
2849
684
7528
253
-3279
-2855
1763
-4782
-9910
-3643
154
-4579
-4115
7781
1052
18611
-1519
4532
-554
-3103
4256
12449
-7934
-16835
4241
-8136
-12363
-13241
17283
-9905
-6280
13282
2702
-6255
2483
-7345
4321
-3198
-1426
3826
1179
-1858
-14281
-4824
4485
352
-18294
15158
2249
-19786
-3450
840
19283
2104
-11113
13311
-16772
-11675
-4526
-16164
7238
6025
-1849
-4309
5212
-13392
-13276
2102
-9573
-15671
-4123
7050
3300
6847
-1713
-655
893
-5305
-4242
-1996
-12670
3018
-3023
6907
-7935
16506
-645
1144
-3097
1200
2800
-4171
9191
-818
691
-10417
1645
-8200
-7616
11806
-15785
23472
2479
-1841
3933
-1865
-1187
4191
-5904
-4776
-12038
2739
-5436
9266
-3388
23506
-1402
3464
-6193
-227
-2986
1948
2200
-10732
5934
-1517
-12231
-3526
9987
1528
8381
-18427
-2948
-1493
9686
-396
-1562
-8077
-8595
-12858
4227
-4417
8265
-5333
-1274
-2200
2383
3511
4160
-5020
64
-747
-1856
11237
-829
8808
11283
-15107
1543
3140
4291
1616
-2508
-17576
-3108
-7679
2119
-424
5000
6585
8988
-1170
-7094
-15327
-8037
-615
8942
3805
7847
3841
4781
6821
-7756
2849
2311
5801
1819
6340
-4678
857
1968
-2407
-630
6909
12399
-460
-8958
997
-18579
-8654
