-5091
-4799
-5604
-5982
-14693
-7913
2555
2806
5683
4237
10978
4275
-2530
-5969
844
9632
1779
-4548
-7137
-3548
-7042
4419
8000
14009
-9397
-7062
1200
-3012
-4078
-6018
-4649
-8673
-905
2064
-1250
1757
-1683
1548
1535
3014
7898
14674
7837
5982
2872
13706
5517
-10895
11304
7149
-10275
1203
3283
3655
3714
12510
9805
8526
9277
13045
3693
-10323
-3980
-4581
2496
14183
13666
-1537
-9258
-5135
-2432
-8844
-3810
1289
-717
-435
-1525
-12260
-1149
-1602
-8819
-3965
-9298
-5733
-9520
-9311
-12580
-5316
3685
-2481
4235
-104
2734
-5208
-4090
6711
-6246
8539
12414
-2575
21554
-2019
5144
7915
2675
10181
-8225
11789
-3772
4347
-10095
2206
1108
-11720
14072
11462
-2828
-3284
4415
8423
7376
8372
10804
-2215
10828
13449
2962
12068
5380
3418
9482
-164
-2799
5158
-2852
-2003
2808
-3908
-13364
-8585
-7835
-4951
-2603
-793
6318
-441
-94
-981
-9935
-4583
-5069
-5074
-104
-6517
11768
18693
320
5959
-1609
-8178
12663
13268
-583
-673
-1064
-5565
-4669
-4564
-810
-3781
-5556
-6981
-4744
1598
2053
-4215
4310
-2099
-728
-12672
9780
10712
4129
2339
-26
752
-4129
-2227
-2298
17333
13237
1508
-13726
-10943
-10379
-435
3539
8814
-23217
-18421
-8980
-32767
-11764
19800
28104
26621
23799
-5248
-7373
-9997
-5084
-9330
-3955
-2480
-164
-6287
7631
2404
2585
5330
128
-1797
-697
2974
3874
3882
299
2656
2703
-13625
-6884
-5967
-8741
-12022
-3763
-4440
-1922
5553
491
-9494
-12228
2820
13366
4831
-11358
-1001
17573
-4707
-1386
-10798
-6038
13145
3823
4092
1139
5291
11066
7930
-2463
6390
5574
-1733
-2700
-10868
-10052
-9911
-17796
-5778
4816
3248
3563
9845
976
-7599
1276
20291
11058
-6291
-3815
-8789
-2390
5567
10179
3545
-19853
-757
2859
4605
-5162
-12560
-8282
-9876
-4726
6316
12316
868
-1212
8707
4745
-4918
5831
6615
3060
-1835
6692
8947
-17250
4067
20285
-11970
-6785
7401
-17550
6103
2900
4363
-4473
-6836
-6714
-11949
-3205
-16738
-11539
3630
-4643
-12829
-10750
-11239
-2512
10514
2956
11093
19986
-6094
-2336
-3485
-4757
1088
-5210
-2424
5287
-4090
-3830
7927
2572
425
7927
-7135
2176
7311
5932
-3258
6464
4549
9185
8535
4054
8195
-3653
-1023
-3501
-22948
-16620
-6841
3403
5895
-671
16254
11492
-6390
-11813
-6581
391
-17196
-2134
4983
-7899
-426
5258
-9913
-7281
2504
6221
7997
4187
11639
15252
-1838
5062
-206
7693
-9959
-15537
3964
-7292
1779
5819
16425
4320
-15706
3880
2656
-2386
6328
2888
-1666
-4431
-6720
-3008
-4881
-4916
-6736
-1571
1493
4099
7080
40
-692
2936
3670
8810
6859
1888
4432
16604
859
90
-4323
-4940
3524
747
6563
-376
-11176
-2987
6758
-1352
3046
-895
9148
18774
-85
-1270
-2566
-6570
-14917
-9575
-5069
-479
-201
-5374
-6649
-5572
-7285
-4734
-9328
-4220
-7515
-6869
-15551
-10188
-9065
-7764
1307
-5167
6852
14435
11258
-14919
-5531
5998
8198
5318
6530
-1051
-3862
-2223
-6872
-2180
2639
8269
3843
9936
15754
-9648
-14186
2037
2045
-4450
4075
9009
10344
5290
7692
8473
14160
-4564
-2301
-1089
6924
-7731
-16545
-2299
-623
9248
-6409
-7363
15179
8861
5157
9384
2863
-2438
1340
291
-2062
-1632
-2153
-1567
-7581
-8718
-4167
4144
5354
5035
8968
5185
-4393
1119
-341
-1702
-12696
768
-3102
-10615
-711
2559
3068
-1459
3548
5675
11628
8799
2088
2756
2980
-6197
-7483
-761
1070
-26465
-2119
10678
-18992
-529
452
-1930
9659
16049
1414
2424
13362
869
5710
1872
-3291
-10573
948
5218
10610
8652
9338
1769
2669
5199
2096
