2398
5240
1351
-2510
-3652
8543
2812
3163
-8865
1859
-2521
-2402
10623
1567
1674
-6355
-11232
-7784
-6277
3605
-1654
10719
3315
8476
1914
2806
-3950
-1442
2142
4678
-1637
-3082
5428
1875
3734
12305
2524
-389
-6669
4775
-12187
-1448
-4379
-4884
-476
10835
-3389
8751
9658
-490
-687
3317
-130
6730
-5859
7150
1370
2231
-5545
5569
-216
-8091
518
6287
-8448
742
-9049
9868
-2340
7423
-7176
-13363
2389
5070
-4113
-6156
-9738
707
287
5
10267
-4515
919
-2233
12399
-2050
2289
-7973
3299
2503
569
11097
18039
921
-8825
5135
8752
-9801
9872
2586
6371
5540
686
-16034
8366
13986
-534
-12344
1805
565
1993
1853
1950
-2380
-2891
-11811
1375
2814
-3038
-3436
4106
-14013
1971
6966
331
-5717
6483
-8471
12542
4156
1574
-2209
1755
-6974
2975
22541
10102
6188
-5380
-4699
6377
-1853
-2719
-2891
2286
-2621
10455
2997
1101
1205
-4114
-1619
-1324
-10615
6351
-3480
-2621
1254
-2029
7036
-4210
-7830
-9867
-6961
-4579
302
-5396
-3937
-3498
-2335
-8489
1656
-5160
-5299
-1428
2292
-20367
-8642
-5731
-7793
-10540
-3317
-14713
2602
-1783
-2407
7345
13063
-6567
-9294
-7303
5079
389
-14864
3093
23856
-2544
5559
1848
4022
1889
8516
-3695
-7152
161
8850
6946
2622
-11140
-2381
-8246
-1681
-9890
6855
-6163
-3917
7849
-4765
-5701
5318
5700
-14094
-3123
-8871
-955
-1063
16696
-14124
6570
-10809
-10339
5770
1039
2578
-3767
-32
1083
-13706
-2006
1369
-52
13437
-3323
-2046
-5334
5483
2380
8085
1107
3780
-11764
5502
-5292
11154
-1672
20776
-4753
1759
-4152
5197
-6532
-1047
-393
4148
5278
-13337
4662
8460
-459
-8061
13749
-3544
-9439
-11622
5703
-4849
7364
-9022
12050
-6368
16297
-2120
-14770
-15748
5935
-3074
13798
-14191
4302
610
3515
12097
-6557
-2148
-8248
-5000
-11448
11770
-3346
6630
9615
481
-4197
11055
-1520
1807
227
-5552
-8476
5238
-3123
7172
-1497
-8449
4361
-10500
4363
-1234
-958
4143
-5159
-14155
-3173
-11071
-12252
1633
-2901
11
-5786
9731
8425
9718
3218
13271
16781
-11339
-5447
-3854
-10445
-7313
-10702
-686
-15040
-986
900
-4245
-3651
6986
-10020
430
-6431
8554
6772
7220
9861
16491
1322
-8668
5521
7980
-10689
14875
-8105
16817
11141
17469
-2349
-3110
-1545
4612
-18518
-1705
-9809
777
17151
-14794
227
470
-2943
-9613
-1045
3068
-5207
-2168
6219
9296
-4606
944
-2031
5071
-2752
-4110
-8438
13109
-5158
6376
-4064
8599
724
-3591
6025
-8831
-1892
-14659
321
6895
-3875
-6056
-2438
-10493
4431
-1300
1735
4654
5001
-2701
-6692
-10163
-3519
6689
15047
4277
-1588
2297
-2379
3681
-6395
-7586
-4500
5985
7049
-3305
-4111
9401
-1485
-4920
3303
-6957
16204
-4703
-2568
4106
13418
-1578
-3469
-12841
8
-2652
2873
6048
-3443
2600
-8296
1818
3040
-563
2447
2776
12295
2923
-156
17476
2308
7132
-8359
3543
12678
-1722
-3603
4963
-5873
866
7040
12374
1263
6597
-12608
-3489
751
9310
-6940
-6425
4040
1728
7113
-3483
-1340
-4006
6419
-2777
4738
4781
-6394
-389
11661
855
3380
-5325
-10072
998
-2282
5200
-1051
10109
-4152
-8641
-2397
2213
-5399
-1927
2169
6735
497
-2982
8821
-5084
1131
-4754
-1121
5318
2075
-2033
1231
-2408
31
-5450
4555
-592
-2398
-4377
2307
-588
946
9738
-8905
-333
2258
-639
4788
-4004
11252
-6679
9468
2617
-2655
1049
-3694
2845
2159
-3920
4886
7304
2215
1800
5385
-2919
-1155
3021
-6296
10025
-15404
-2882
-8481
1434
2947
5353
1031
3337
-2835
-147
7052
-2322
7077
783
-5229
937
-3372
-6856
3767
-12499
6890
827
9487
1431
1596
-3126
5434
-2920
1658
2890
1422
-4980
-4664
2482
3471
3583
3124
-2948
-2814
11064
3047
-13695
3119
-4913
10687
5975
11301
2431
4739
-2917
6032
2858
4218
-599
-4041
-2390
-1275
-7999
-2597
3860
-3944
-9696
11334
-3589
7407
3062
1264
1047
-3093
2860
-4172
-338
7537
1549
7041
9499
-4621
-764
1282
3141
-4314
-1372
8273
-2311
-2100
9157
-3907
-80
-1390
-2346
671
-4999
-5880
5637
6640
6934
-3903
-9301
-2162
4529
-6273
2079
-9543
-2267
7034
1187
-2457
8075
86
6708
2865
331
1280
3395
-7845
7223
3028
-11630
-321
84
13424
21706
802
12692
-328
8339
6014
-1172
-2676
7436
3519
-22521
-20962
1839
-5719
-2485
-341
-5428
-7917
4385
3410
-5047
-721
-11286
6178
2844
-11937
14196
10615
11810
3391
-4055
3729
12292
-17220
7430
13137
-6566
-20505
606
856
10332
2574
11047
8305
-13537
14228
21162
-544
-7766
17610
649
-3566
-3740
14091
800
-2308
-2979
-36
-19381
-16503
7909
-10245
2134
-14512
-1111
-204
-10359
4587
-9083
6860
-4842
-13104
349
7857
-7171
-16147
-19194
-3367
7604
-527
1572
-17367
18939
960
6351
13300
4349
-3539
5462
-14250
-12607
-591
-3549
536
7923
11941
-907
1596
1489
431
653
-2836
-6815
-11271
4259
-315
7229
2724
-5818
2180
27119
5308
-728
-7424
-3350
-4336
-690
8632
873
6717
-2139
-3423
-1725
257
-11121
4032
11401
15536
-18
7432
-9258
-5649
715
-8806
11490
-1148
7998
-1565
-5513
7400
-14385
158
-3647
8240
1610
5971
8201
-12569
2472
-2381
12745
-2957
2914
-11627
-967
696
1639
-1298
10733
1959
8306
2049
-12906
-2960
-858
379
-1512
-5863
-6050
-6358
-2213
-9784
11806
-8837
5019
-10401
-3252
-340
-24747
-5355
4794
-20709
-2203
11044
-3176
13133
-6458
1250
8713
-2735
-12252
3612
15280
-9143
-7094
-8798
4881
9549
-738
5000
-8439
1235
16791
-5893
2574
6322
-9237
8824
-182
13246
10951
4150
12636
-4052
-1063
-5177
-8082
-4825
13926
13732
4496
2035
2813
14320
7477
468
-2490
-8331
-3545
13524
2389
-2456
1576
6749
-818
-3455
8337
-8719
-8039
-2312
5767
11031
-518
2999
3425
-2706
5045
247
-1291
503
4084
8884
6460
2602
9661
12226
5413
1602
9876
-1215
8150
9713
-2313
-1647
1082
-1265
3238
-8071
-5762
9527
-8659
-4197
2122
13982
-3582
1540
-8726
-3
-184
3749
-4444
7030
6599
-2205
365
-15745
-1011
3169
100
9264
5723
-6007
8811
-356
3458
-3147
-321
-699
2610
-12618
-3896
5294
-2922
-1087
12699
-10012
13464
10688
13776
7010
4656
15774
11708
-3929
-8025
-7480
4863
4926
-2505
14791
-9348
-7525
3541
-2847
2915
-10197
2886
-9348
-2798
-1701
-19046
3286
10489
-9983
-239
-2352
171
16162
-4579
-4029
-21
-4931
-8273
-5056
1394
23162
4572
-1359
-8210
-2460
-7558
-4550
10850
20074
1451
-2094
-3234
-748
10393
-8688
-20089
-14044
-11337
15904
7149
-7230
-7037
-5431
-14828
2918
8778
-6849
12002
-5781
-3833
2018
3262
7522
-3007
-6574
-1443
2981
-120
-11151
3511
-11536
2930
6534
2710
1303
902
-5896
3947
-3698
-1241
3757
-2339
2355
-3667
7246
3549
-1555
-3867
3481
923
-3127
6712
-5374
-332
7383
-659
-566
-1554
-2647
7051
-11800
-2698
2461
-15976
11936
2309
5725
-1328
85
835
-4935
-21175
372
9087
2411
2528
-19710
-11962
-1108
-756
5842
-3273
-5937
-582
2143
-5555
-1282
-7438
2565
3411
1764
1106
-6229
-4047
-674
-2137
-5135
-10250
-5704
-552
3698
5092
8910
1451
-4970
-1158
3683
3141
-5401
-2788
8779
-1041
-4994
8510
-5041
3847
5777
-6167
1392
4037
13279
-3915
-3756
4212
1975
10331
-12375
9006
-15873
-9594
1747
-1325
645
5333
20694
769
-4808
-955
-7358
-2320
-21246
-2935
-1584
-8
-12196
4602
4439
376
7722
4649
8951
-7405
3888
5992
3869
7584
4795
3300
2224
-1062
2243
-15351
-140
-11400
-1375
-12979
-3917
5096
3071
3419
801
-1752
-12308
-2162
17100
-15943
15882
-13247
-266
-5433
4638
-11483
13812
525
-416
-1551
31137
13675
-126
-6364
-13944
-3162
7100
4161
-4453
-3757
-23211
9100
5888
-7521
-9307
9493
-13178
15216
-7696
-9856
19150
-8322
-12383
-337
-8829
1891
4463
-3546
3623
42
1041
-12196
5737
745
4007
-3730
5441
-666
-8125
2244
9355
-8157
-5889
6588
-6660
3895
-4650
-3279
450
-4871
-1057
-4460
3033
6352
3271
5175
7117
8347
1063
-1716
2148
-12083
1509
2046
-6871
-2909
617
-100
7556
6190
-826
2634
1281
11514
-5580
9425
-1701
-1803
-5213
-3213
5219
4697
-6245
4605
8374
6235
2540
3165
-3473
-3071
-142
3209
-7432
10824
4066
-7367
1666
2260
-768
8077
-7186
-11469
1172
1635
-5091
-9916
2965
1859
-5930
13032
-11123
3091
2841
10273
2569
-8559
-8035
17534
-1544
7699
-4126
1641
-17112
3161
-20164
-4936
5804
-1766
-8463
3891
-10328
-2787
-2921
-2476
2666
7341
5966
-22037
2944
-12726
12708
722
-2907
160
11660
5799
-5161
-9394
-9724
2263
8487
9072
-5838
-1687
8009
-5338
-10379
2946
-6509
-3371
1575
4156
-3893
-1615
8490
-1358
-14859
-725
-17459
2136
5240
-14523
6258
80
-888
2898
6059
-560
12315
6144
671
-3057
-1515
5591
-7648
-2109
-2557
-7455
8404
17774
-6771
-2936
-5922
8323
277
-8335
927
8064
7216
148
-4105
-1672
2097
-4220
-10242
5891
2927
3903
-14916
2717
2527
-15013
-7564
-3205
1947
663
-418
4956
2698
3028
-11200
11331
2652
8826
-19531
6299
8027
-12772
-9484
22132
-9786
-4394
15852
17397
-10918
-11793
-7997
-6203
-4251
13847
-1779
-2326
3674
-1720
829
-826
-3667
-16393
5304
7292
-11794
-8213
-11860
-1139
-1077
14643
20868
2536
-6798
-1456
15335
-2777
-21229
-3466
1364
3554
-19201
7332
8482
-1947
1135
-3465
13810
-3493
-8183
-2662
360
6981
5676
-29291
535
-2302
-8282
713
1104
3842
-6653
-473
-2344
-2114
4608
-12621
4635
3665
2380
-1695
8590
-14997
-4263
2192
-1819
7361
-11758
-27129
8971
863
11137
-478
-6857
16100
-8291
2904
1853
-3692
-6389
-262
-6848
5427
-7652
1448
-7311
-6517
303
7856
4023
1203
3404
-7050
2811
-11636
-9096
-2131
-5741
-5625
-19270
8246
-3181
-6051
4640
1288
5923
-5767
-1549
1416
4006
1534
-3408
1079
3433
-1123
2025
-6853
5211
3771
1502
5527
-1585
-2624
8280
-5114
280
-7094
-1659
6414
6524
-10227
3790
-460
-11840
-6070
-2052
-10961
-3201
-11839
1527
-1573
-2584
10371
-3736
-98
-3606
-4422
-7970
-6613
-2812
-3736
-266
530
-611
-21
-2524
10361
2073
3176
-1932
-5853
6344
-2699
151
-5346
3176
-1945
-5089
-6914
4332
-4845
-5020
-3697
3145
-5144
-8997
-1033
-6284
-3087
3284
-5740
-18435
6246
9246
15217
-6361
4937
-5958
-5192
13562
5091
-2141
6713
-4
-1523
-10597
-11733
-10671
4746
82
-11392
-7815
-12189
-12638
4822
10431
3209
1475
-8924
11045
485
3366
-10766
-3212
1610
-3903
-8628
-12659
748
11794
1013
5247
5582
-11200
8285
6551
2865
-2998
-12549
-2703
-4510
10439
3827
6989
14101
1960
-3911
2206
150
3623
-4772
-7701
6945
-1680
5439
-5612
15006
-6189
-4499
14451
3517
5732
7835
1274
10574
-10255
14737
-8740
7296
-8833
15988
-7323
9279
10648
-1963
-2024
5934
-14252
8344
604
-8417
-6283
-5193
2372
-11991
-9352
422
-18466
21472
4587
-21950
4081
1674
-9085
4588
1265
7855
9261
-5027
-9131
-2627
5151
-11309
-2764
-1962
1706
-200
6321
-5020
10140
-20326
12972
-5090
13653
7235
1958
-7692
13521
16095
-2764
-437
14287
-9583
4443
-16779
-518
-1332
9709
2608
-1716
11379
3684
2287
4081
-2923
5556
8628
5296
18173
13379
5447
-10342
5672
-6785
10289
-2099
2880
14896
-7979
-10306
-11810
-11696
-4931
13571
26680
6151
-7435
1135
384
2779
9908
-1244
9482
10134
-4805
-10241
4256
-79
-23590
5359
-235
-5991
-20080
15515
4824
-4640
-4610
4397
5561
-1612
-8669
-3840
-710
22630
-5685
886
-1015
7534
14615
11363
-7804
-10855
-2591
4745
1019
-4896
621
-3737
4454
-16105
567
4036
-10603
5863
-7831
-257
13091
10497
9039
2511
-6836
-2267
-5083
-1779
-5770
1707
11371
1558
-765
7423
3296
12282
3026
663
-894
-2435
-5313
9075
-7545
12220
3619
15890
-16286
5902
-14495
-3342
7796
-9959
5631
-8365
4037
-4934
4435
-1583
1853
6167
-11196
9892
2232
-1517
1800
-9857
5503
2382
4459
-14599
5358
1548
-15394
12606
-5384
965
2623
14969
9797
-14121
-9654
-9731
-9213
-10368
6171
-1458
5071
9357
-1708
1149
-1334
9989
-1698
-167
3737
-4041
8557
476
-8786
-10769
-13170
-3588
4372
-6805
-2953
-8037
-7806
-10068
8239
9732
2048
7768
3690
3665
5811
16776
11973
-13499
317
187
8133
7978
581
-6355
-1363
4682
-11576
-10496
6476
-8621
11493
8776
-6414
-7925
-6407
27086
-18252
870
-4067
-27536
-8469
4811
9213
-16913
10629
5246
2378
52
-2053
-18004
-3795
-2276
-6308
4836
-851
-2894
-14958
-4977
-4532
-6394
13263
-5269
-889
14469
655
-3971
-10757
-12468
7759
-3882
5716
11316
15693
-5355
23899
-18113
2991
4350
-14489
1401
13678
-14435
3544
10673
2464
25072
-6541
8848
-2488
-8260
-3459
7912
4194
4110
-2527
-7239
-981
13207
-3635
-5966
-1811
1597
8893
10019
-2798
-4587
-6318
-16011
6909
3086
-4308
10448
-6321
12550
-10614
-20992
8517
-5288
-7398
-7770
21325
-8276
9983
17769
12394
-4133
-116
6207
-8292
303
-5965
-3544
9818
11784
4581
-974
-11517
-8909
-10222
-2803
4994
-8540
-8717
-14406
7094
566
2626
2679
363
11465
9114
-11347
-14169
10309
13278
-10540
-5826
-6202
-2820
8521
-7624
11323
-6873
201
5144
1664
7752
4663
-10504
15754
10303
15520
-13845
7440
4026
1522
14882
2740
11621
-4364
-5300
-7002
4498
400
3594
-6544
11175
2174
1573
3453
6766
-1634
-372
-5265
689
-1424
-2947
-1148
1744
5922
4071
6719
2163
11714
-14337
1538
-7586
423
-6244
-6511
-6263
4187
9581
-5695
6247
4669
121
-11192
-7039
-4645
-8635
6891
4137
-14617
-2851
-838
4544
-9617
-1159
-1661
11565
6473
-4571
-2899
1191
41
-2855
-1990
-1555
1376
-2406
1765
-2549
-12785
-153
-2789
4505
1842
3274
4065
-8456
-3865
5722
1734
-10180
-24861
-681
8585
-7687
-5803
-6331
2894
-3899
3911
-6643
-441
-11008
6142
9312
11704
-133
10927
3649
1139
344
-904
-371
2527
-3417
-487
-994
4887
14365
2930
5226
8760
12805
-14941
291
25
16661
4754
-1102
11877
-6727
-11637
-2942
51
-8449
8206
-2311
6376
17578
-2423
4201
-11366
831
-9924
-12510
6282
-8021
963
16188
357
-2746
-18406
5076
8126
-3928
11729
14098
-5527
14593
-917
-9014
-13133
-570
347
6782
-2359
-4037
-7721
20088
3440
1624
-4044
-23181
-4481
4690
-1564
-9897
9214
-9035
-5230
1015
-14300
2263
6587
24928
1974
-11093
-4883
12058
-3771
4455
4353
5785
-6549
5211
2306
9394
8765
-1644
371
-6805
10937
-14528
14683
-6740
-5456
-12542
6466
-2632
-10332
-3390
-2308
10070
1513
10214
2672
-135
-9517
-9378
-9030
3593
-9815
5969
-2229
638
-12037
-298
-552
3942
5156
9795
-6843
-4594
-521
800
-207
1143
-2432
4681
1033
-3555
-10868
-1945
441
-7026
-4657
-1291
-15079
-412
7482
-976
-11630
-3915
-6369
438
-4114
-10643
-5653
-6672
-5822
-1242
-2548
9984
329
-1405
875
-3510
-564
390
5618
4751
-2224
-4402
2873
1363
1616
-4451
-8491
4557
-2888
16444
-3756
7113
15674
-10113
2296
1314
-10811
4969
6143
-5809
2459
-3357
15399
-11258
18738
1117
9329
-1496
-7359
-7329
-3110
-3560
357
-8325
-5658
-8096
-915
-10580
-2559
4686
-3088
122
-6089
1223
-7579
1320
2436
-9230
-9994
-3276
9182
5623
4875
10841
-7844
4884
-1780
-10932
-582
7557
10217
-4582
6568
8660
8749
3555
-574
15375
-1453
-2814
-14383
-3659
-17192
-4492
9335
-10520
-4309
3206
4654
-3218
1864
-10828
19874
7754
4216
-1417
3682
12625
6189
4416
6686
-4155
4902
-3886
6461
-8382
2330
964
8543
-5077
6406
451
85
2972
-389
8825
2301
335
-11076
-3090
573
4479
2741
-8595
1198
-10791
-1028
496
-5976
3347
1116
-788
-3853
-3605
-6157
11355
10209
-12870
742
9395
457
406
-12811
-2233
-5345
-3457
-8701
1467
-10628
2809
-12409
5451
2744
320
-8744
-15939
-5708
6646
13077
7745
-2160
7501
-828
4340
4947
-495
-6401
3421
-1638
-5402
3313
-5018
142
1193
-349
-11536
1353
247
2026
8837
6480
5527
-6877
2428
7130
3119
-5890
1417
5461
1410
1642
-4248
-8847
-912
-5501
-9099
-3532
-3614
-1737
1462
8381
-8823
-4569
-18979
2126
-11615
7533
7395
-6186
9605
11124
220
4345
-542
3692
436
-521
1055
2745
4880
-9257
-5233
5930
-2808
8276
5770
7938
-7702
-3936
2668
-7644
5333
-952
-1268
-1787
17966
-10194
2034
10108
4080
4910
265
-4340
7379
6733
3499
-4182
-3458
-5384
1790
6337
-6775
688
-12762
761
12847
9555
1386
2018
-9897
27405
3578
10296
12736
3075
-2911
-7795
-7032
2047
748
2156
-630
10162
7447
16033
-3540
16483
1266
2839
2169
3179
890
-10779
1592
7753
204
10553
6745
-6433
-11844
1492
-5769
-16330
-8632
-2022
-14116
-6544
-9413
221
-6540
276
3083
-4492
5297
-5646
-2329
-14886
-2966
16127
7858
4356
18863
4779
-236
8186
-4412
6860
11444
-2371
10047
-12161
-6304
-8941
-2460
-1877
6765
-1189
3767
-13060
4485
6779
1441
-1666
3995
-12039
12696
7671
9657
-5804
539
2076
-5368
-6414
808
1375
-7169
13185
5538
-6666
-14331
216
1123
685
3339
-4364
8698
9511
-3615
-6860
2480
3084
883
5782
2535
-2146
8296
-3619
-1336
7948
-7308
-3584
11771
4865
3252
4382
15750
-7119
11606
3111
-454
2599
11545
-2590
11713
-1634
12975
1718
2447
-11453
-192
14959
9757
-7146
7495
-3776
-2865
-10933
-1373
914
1957
-6457
-1679
-2780
-1331
1479
-1
152
7968
2735
-6465
5960
1772
1342
8258
6228
-11657
6605
-14666
1961
-1944
9956
4293
7168
15290
2601
-2428
2778
1906
-6599
7687
-4366
35
-9430
-3226
5954
-6029
10365
-7135
-12011
12839
-125
870
-4845
-9303
-7186
-18108
117
4211
-11063
-7263
4172
-13835
-8591
7012
-5299
-15740
2441
-1
9532
-2090
1071
-11451
5146
9587
-7688
7461
12146
737
7261
-5536
3530
10191
5266
-20876
11089
-1863
3399
-9279
-11495
18539
-16640
-10222
4700
-8764
2198
-16648
17190
-4048
-3151
-3360
11582
-7527
-5572
8488
-4567
-1158
-9780
4940
5115
-2347
16627
7624
-7675
-8268
-8510
-6651
7232
4718
-10212
18169
-18862
3579
-13259
-4402
-739
-11536
-1330
6574
700
-4515
-9906
-10431
8601
3624
-9979
8179
1050
1153
11778
3358
-3744
6213
16489
-11697
7126
-16985
-4735
-7125
10336
-5003
4950
126
10118
-4970
4966
849
10114
2596
-1184
-8068
-7156
-1987
13405
-8737
3369
2346
-5518
9109
1716
-2453
-4907
-404
-9057
1933
7516
7057
7069
-3083
10223
7099
13258
-15135
-4999
-17482
-1578
913
4210
-3977
-3590
-1437
1692
-9801
-15070
-5756
17625
-2329
-16880
5134
-14569
6303
6891
1373
8013
-17083
13420
-1879
-1157
11756
1797
-673
-5002
-1560
-15790
5142
2148
-8416
-18659
-1332
-5985
4106
-20089
-2458
15413
-6008
376
-7683
-3180
-845
-559
3181
-4870
263
-2059
7654
9259
-6688
-6495
2304
-935
1116
10079
-4610
-6193
20
-1995
501
-5208
-13216
386
-6234
-15786
4819
-6104
-12734
8528
5684
2402
181
1808
-7080
-7734
-2651
-8454
-6023
-2428
-8110
6706
-7222
-2124
-6170
9552
-6659
13316
3105
694
8114
-4041
3026
-938
15813
1335
16213
-3189
-2316
-12247
5361
-6131
-6555
-8252
-17899
-9010
-379
1451
-8933
-5823
-2174
-954
-2647
3523
1027
-5317
-5947
976
-898
-1234
10685
-3210
-1239
-4109
13024
3318
6894
-2424
-1831
-3114
1187
7751
-7323
2538
712
-10697
443
-5409
-2064
-1415
4126
7610
-11210
-2808
-3000
8947
9074
8928
-1113
-4797
2494
-4871
-4947
-2201
-3921
3639
6429
-4412
3108
4856
25
-4486
-666
-11729
-9079
-3354
-18055
3935
5629
15437
-1401
-80
-5113
-5825
-1727
-633
902
7724
-6181
-6627
3555
7289
-13360
3139
-8656
-8236
-3984
2711
9434
-1443
4010
4067
12139
-12916
7960
5736
-8214
12438
-16730
-15310
-6026
-4801
8121
7047
1291
9855
10194
3290
9958
-15794
-5852
-5978
-12294
-1108
3431
10632
9302
8372
214
-17754
6802
4557
-731
-5660
3730
-6612
-1629
-8636
3699
8001
5077
-6875
-2697
-6105
-1541
6337
6805
-2304
4531
5275
-15121
-7656
2711
813
-1644
-9199
2807
-8002
3161
1926
-2857
-2887
-5541
436
913
5934
-7616
3424
509
6229
-248
2427
-1156
10341
-10142
-8389
5130
4960
6486
-14752
3786
-202
-4525
1513
-2181
575
-704
-6432
290
-2733
4964
-17343
3651
10861
-4323
-2824
-8758
-615
5928
-6699
443
-1633
-16431
-4652
1663
-3100
-10028
2884
-6056
-8062
7082
-7702
-10402
9551
6623
3635
-4552
-3167
-9481
-15465
-8966
-2033
12807
-4337
9937
-7446
-2756
-38
-7008
-602
-2938
5085
-15872
-13973
-5104
366
416
-268
-69
2382
-1904
-17203
6267
624
19129
15600
3635
-7498
14961
-12176
-2892
1691
-9464
-10454
-1334
-1137
-4569
-9821
7773
-6985
-6859
3321
-10272
-4522
-5394
-5571
1275
-7674
-10732
7022
-1953
-2360
-4187
-4191
-8998
6925
18530
11850
-2201
4191
-7760
6216
16689
-5504
7576
-4225
11215
8778
-11700
3195
-9377
4438
-1613
13659
19709
1163
-1647
-4119
-5402
-8961
-10507
-8785
2033
-743
1727
-15057
-1975
8880
-9512
5760
13591
8408
-2712
19980
5250
-14058
3287
1784
-10520
1524
-5183
-11961
2258
15544
-7880
-1943
1087
-13851
-6280
-9480
-5379
1152
5670
-140
-3156
-1943
-8225
4025
-12355
891
2669
6136
465
-15942
9092
-10031
3211
917
1887
6569
-2944
-6321
-4763
2768
-9738
13045
5062
1858
9732
-97
-13283
5210
11849
-4048
-15427
-5130
6267
-6862
-4485
-10410
-1527
-6563
1074
-10561
7162
4179
6506
-5665
4800
2026
-769
-6898
-6111
-6567
7398
-2924
-8061
-2015
212
-5098
-3609
-3502
5901
-2949
14655
-196
3392
3877
6627
14965
1715
-155
-4642
-6719
-7558
-10402
-880
5596
-9183
-8258
-3807
-2220
6128
-10596
14702
-487
1681
-9378
6147
644
-9151
-1771
-10162
10223
-11484
2199
4856
5425
6236
-2189
-123
-1386
-2652
-1136
-8578
-2178
-11174
546
9432
4608
3109
-1417
6880
-780
-2603
-2057
-1355
2765
-11698
-5662
2923
-15526
-5888
-4174
-1232
5124
-5345
1768
3834
-9488
-8352
-5065
-16085
8144
-3185
-9717
17341
-4599
3206
-17410
20209
947
23029
9273
-1528
4789
-6574
17986
12316
-3844
-2981
2420
1088
-1414
-7889
-1710
13245
3920
2375
13587
-3133
2072
1377
5773
-11904
-20447
-7363
5895
3384
-7169
-9463
-4067
9684
-3171
-6342
-8654
3184
-14732
-1017
3848
-10021
-6104
10201
3206
1992
-4598
-12376
-5905
909
-4095
8138
-1610
11487
-6075
-8412
-15691
-5716
15437
-248
-1254
-2641
971
5117
15330
-7030
-3181
4414
-1897
-1820
9108
4718
-7293
605
7084
15086
8225
14686
-1115
2484
5621
-2285
-804
-4778
-8568
2838
-3987
-8326
-4994
-2109
5797
-4310
-11967
-7921
7867
7285
-7434
13479
-2706
2211
1524
-3927
-3015
-5744
-7809
7702
-1461
3385
1477
377
253
5196
9793
-1900
16946
3932
-2652
-13005
3674
-3709
9156
-3465
-8527
9839
-338
2524
1564
-2975
3889
6132
-3432
2034
4873
10106
7794
2328
8525
-2508
944
-743
13216
-5088
-10181
-2295
10416
-13999
12029
5018
7785
8708
-10429
4842
4709
-9700
-3191
7907
-2197
13218
-5000
-1363
6292
9867
-3085
22332
11412
-12549
-1472
-1267
-5552
806
-4853
6569
19764
-8577
-243
-3797
14170
1312
660
4545
-7516
-3685
273
-3313
-1394
-5856
-8913
9523
11022
6097
-10660
-19985
1060
21162
1820
-4878
-4627
-18899
-11174
3345
2476
-6197
-1885
-2722
-5664
-6563
-17251
582
-1742
4157
3327
4014
-13967
-16255
-2020
-5568
3823
3540
7577
8080
-2378
-2041
-3167
2283
-1170
-12607
-6361
-3853
-5900
-5450
6065
-5059
-4800
-18049
16732
6186
-6551
3243
-604
108
-12132
4166
13017
-13799
2711
-4030
7184
15887
-11711
-3440
-899
4344
9687
13337
-1302
3800
-5260
7766
4627
4244
123
-8292
642
1971
1150
-3425
-14355
-6764
-296
-5136
-3119
807
-10199
14965
9742
-396
-8373
-3398
7960
-11085
-8443
-3147
8687
-10736
3247
4805
4329
-10165
4460
-7896
878
-10641
-13333
906
2493
1160
-11617
-10567
5318
5212
-14371
-7145
633
-10184
2496
-18538
-10466
23735
6455
5652
-2804
-9029
894
-5698
5035
844
9153
-4598
-4537
5409
-10501
-4896
1694
416
-84
-3272
7233
-14694
-6956
18
207
-3981
-535
-14506
-2804
12405
4704
5
-5555
-1348
16771
24
2963
-2645
-5360
6379
-7398
-1958
-670
3021
-4618
-2331
-5
7444
-7191
-7601
3623
10513
5732
10506
-15672
-209
528
12139
-14684
7161
-7290
-8254
613
-4581
-2163
902
3871
1901
-4199
-9292
-2145
-4703
-862
9979
-1849
-9479
-2120
6022
-4426
-17028
8331
-2271
-5869
-3373
-2751
-1578
3960
6083
-353
-9818
-1679
10070
-1349
-7045
-4910
4067
8371
-2535
3766
2227
-3737
-12706
-5808
2461
-16678
-7991
-1560
8239
2777
-4939
5432
-1609
2709
8555
-4779
3495
588
-5649
-3161
-2671
-4551
-5932
6402
616
-4178
8150
-13714
-815
-5013
-10759
-4881
3674
6620
-566
7895
521
-752
-6637
595
-4313
-7047
10927
-606
4815
11147
-18570
1245
-9229
-8043
8754
-6045
3224
-8584
-1427
-5240
-2546
-19817
253
-264
-693
-9626
-4759
-15093
-2761
17992
2965
1982
-2554
-414
-6300
-10687
1291
-1541
-274
3161
16828
-9597
11883
-13396
14065
-16255
8470
-4929
-12438
-3510
-10412
11817
6161
-621
1727
5437
7169
-3046
17773
8588
-6980
18082
2697
-2031
-791
1258
903
-12468
-8178
5084
-16207
9420
-22638
8930
2030
10596
-5879
8340
-9264
-7618
-4011
-5686
3789
4446
-9118
-7990
-3772
-21454
-10001
9510
4675
-64
2738
3250
-461
6519
2504
-10313
-1664
4547
-2642
9098
454
3093
8136
2168
5592
7201
-5382
-11466
333
9870
-12915
-2504
2692
-2684
-5877
1024
7817
-5144
-15932
-11418
11086
-11823
-4452
-1684
1815
-449
15623
-7133
2505
-261
2278
-1960
8664
-9827
-8420
-6061
-6791
-723
-9067
-8988
-3908
3433
10629
255
-9803
4673
-2141
-8712
8858
3827
-8043
-3361
5709
710
-8797
-2198
9824
5603
-10761
-6077
2629
3436
7694
-3869
-5478
661
-3126
-794
-11470
3956
8719
3240
-10529
-9560
5698
-2900
661
-1548
-2498
1194
-6800
6426
426
-3046
-556
5054
8749
3406
-9063
14001
-2365
-4982
3528
4044
4237
-15349
700
-6635
6661
-3967
2520
7429
2234
-3943
-163
-1402
1414
2435
-2887
-1269
4103
-5276
-3440
369
3393
535
-2396
-6400
1186
6259
-7056
-4372
-7987
-13131
7706
-3655
-2595
-9488
-2650
-8770
-187
-1172
-4841
-4133
6016
-4446
-7821
-627
16651
-5112
45
4751
3010
-4141
-6117
2077
-3069
-14359
-4591
2872
6704
-243
-5564
-4864
7450
-6419
-2413
6111
-1203
8484
-2564
1240
-3095
-4151
11699
-13516
-5221
-11415
2833
7418
1714
-5230
6467
5953
7846
-3730
5925
-1324
-101
2724
3090
1458
-1825
12158
-3752
-3245
-4259
-7873
-1829
8756
4560
2972
-1298
4774
385
-4174
-14562
3464
-183
10748
4598
2153
-6806
-4799
-4654
7610
-3226
5527
3211
-5608
5301
6774
9361
-2887
-6346
8282
-3407
-634
13630
3407
-2345
13896
-1885
983
640
10651
1970
-12886
568
-10422
-4990
-2925
148
10625
-1601
8373
-9707
-1322
-774
-1332
5379
1674
17843
-4012
-8681
566
795
2006
3773
654
1349
-1477
5041
-3289
970
10861
-4039
-2296
-2018
2191
1070
-966
-5287
-1443
-1087
5845
-931
4135
7444
3150
-4072
8738
43
5301
-3619
1668
-5194
-4738
-10082
3130
3928
8990
-3018
1704
5978
10996
-2690
-16119
-4546
-7810
-3001
3103
12112
6808
1865
-5372
2074
-4742
6370
-5789
-8109
11829
-4005
7745
848
-6438
-5119
-3868
515
-12244
16261
-1300
-1149
-2807
873
-1820
-665
-6694
-9974
-2121
9435
-4690
19149
-2711
-5449
649
3892
7371
496
-12634
14578
-7908
-3237
5562
-1877
-9482
5097
-1511
742
6347
4846
4563
4571
-2161
10876
-5355
15366
3851
-4266
-6514
11616
-4332
3133
4722
-8578
-8126
-4132
315
2951
-3786
-9317
-2121
2999
2301
-77
-4376
5476
-6142
7015
11052
1585
10680
11430
-7226
5857
-11726
3507
-6475
1194
9909
-4489
17661
11328
-4717
807
9390
18040
12808
-2130
-3607
6
12596
-10741
19590
-6456
-1413
1431
567
2010
-6855
-8008
-2550
12843
-766
-8773
7958
-4736
-2657
-759
10353
-6628
-3227
-12630
9274
-675
-59
5851
5039
4106
-1273
10795
1955
7273
5395
4762
8397
-3897
-274
-13172
1748
7986
-3743
-18800
-12032
-786
-12136
-1566
551
-18457
322
9246
9887
-12201
6792
10338
-8168
7836
-12584
26109
-10428
-1936
10724
-11475
1457
1209
-928
11863
13243
5953
5244
-804
-2034
12175
-5355
8447
1646
-299
-14059
13790
-849
6330
2768
10498
-6929
-762
-157
-4779
-1236
9313
-12988
979
-1231
6114
8848
9737
9341
-437
-3449
-7100
2697
10653
2531
6842
2310
-5698
-1657
7489
11219
-5799
-7834
-1211
-5498
10979
-14982
-3654
-3103
-15483
-4229
1187
9314
-21478
-794
2016
6523
325
-2221
305
4843
3313
-8624
-1892
14688
-2847
-14170
-2896
-12314
-4876
-10261
2377
-4663
3069
-846
-3086
-1215
-1010
6009
11732
-6927
1625
-1256
1618
1315
14729
663
-12014
-4361
-3216
-4227
6116
-2136
-1189
-9605
-15841
5371
-17004
-7344
-8353
-5273
3491
686
-6845
10297
2768
-164
7653
4479
8564
7190
10627
4250
-15860
-6797
1620
-15915
-5871
-1341
-7655
4136
-5017
-7741
-5032
11068
-5643
8157
4915
1006
4755
4604
11799
6534
-8757
7431
14993
-16944
12427
11188
2506
1488
-2323
-19185
-2618
9110
4969
-1001
-1244
8933
4070
-3095
2582
-6003
21521
-4226
750
7648
3367
-2558
-312
-11954
-8627
835
6098
-10923
1085
5348
-16453
2465
3221
-7177
7649
-7831
3689
3894
7009
996
3317
-9535
1627
-19572
-1594
-202
5728
-303
4412
4726
-15503
5339
-1817
-5740
-1266
2588
-18288
232
-8024
2282
5559
10199
4480
2113
-19056
-4171
9266
4289
-2898
6663
6854
3840
1901
5503
-2405
731
-5358
6487
3373
423
-9686
4002
-4144
-1387
-731
-3008
1918
-3850
-9080
7258
-4519
-881
8966
7767
1262
1023
-36
1840
4673
-5764
-8274
4170
1455
3170
-3970
30
3032
-2859
-982
-952
-1981
-9621
-4063
4644
495
-9281
-4367
3139
-3756
-8710
1870
2536
2669
5119
-6320
-7087
-8604
-8816
966
3048
818
141
12581
-2135
9446
2182
-4179
8191
2486
-2719
-2833
-4650
2216
-2766
-3867
-1302
-3577
-1419
2949
-2289
-5180
-3896
-5576
-3007
8661
4596
-9784
-2578
6826
-7868
5710
-14201
10190
-3521
1066
-2420
499
3360
2517
-9821
5268
7425
10702
-21881
4426
12926
2
-6926
-3522
396
3010
6239
773
9336
-24497
-3551
-16711
7916
6399
-10043
-2158
-5586
-11106
-8808
-1962
6342
3281
-11752
644
3823
-2240
10337
3534
3656
-13675
-7889
-9916
-109
4598
-6656
11973
892
-10459
9167
11785
2815
-6372
-19963
-1608
972
-16595
-2425
5818
3908
-17235
-725
-13569
11841
-23251
1362
215
8085
-5430
22563
-10771
10558
2812
-1738
-1591
13304
2727
-3779
9791
4961
4872
1100
-4370
-2865
-9779
-8202
2150
4026
12953
-4735
2902
11489
3711
-582
-2185
-298
1811
5007
-4518
7437
1130
-16424
-10064
-12208
2637
11066
947
-313
-10514
-3573
-2692
873
5637
-8054
3116
-23541
-3228
-1122
4286
8341
-2038
-2337
-952
-2639
10261
2880
-6416
-4841
650
-3786
10356
8541
4257
5
-11061
4112
-21340
9412
4732
17636
6206
-4730
13468
13233
1147
10141
13230
83
-5023
4532
12679
20337
-3275
-6730
-4664
13372
-12147
-1075
8128
-15844
-12551
908
16485
2273
-11727
11112
5578
-1845
-2802
-14146
-2435
-13975
5267
-10139
-3156
-9245
11376
1340
1022
-13727
-13187
2981
-13630
-8112
10567
-8189
398
12789
-8795
-8612
12906
-17737
2226
2791
-14579
-6826
9972
11381
11901
-4917
-3192
12570
-5644
-9851
2650
-3258
-7845
2184
-2210
8057
-4588
-7640
3564
-552
-8175
4359
7867
1363
-5213
-8086
-2282
-2649
11436
1351
-8045
-6665
-7063
4594
-1489
-8327
13320
-5737
-2666
1078
-5249
-9682
3154
5509
3512
1400
-6903
-12311
11565
368
4578
11507
4841
7076
-225
7130
-7921
-2765
1917
-3474
-2796
-4961
12975
9531
21657
2827
-56
-3592
-7847
2640
-1973
7015
-6409
-9001
-1425
60
-3036
1120
338
11586
1214
-10695
2035
-879
1556
9036
263
-2729
877
-6681
7364
2725
-2399
-4738
-3377
5821
3627
11688
-1899
-4260
-6845
-4360
9596
-5700
-6003
5085
1725
-2235
15289
-12465
2573
1290
-7180
2459
2759
-5706
162
12135
4703
-6031
301
-19233
5880
-1488
-2262
-2443
-3391
5672
5198
300
10634
-1011
-2015
12154
-1160
-1953
-934
15220
-1496
-41
-594
-8414
1051
-4304
3677
-4648
897
13630
-4086
-95
3181
4201
1566
13108
-2176
-10961
-4935
-9101
-7152
-9253
-91
791
-795
4192
-6836
-4104
-4857
-4538
14336
6372
-4687
3691
-6694
-12357
3778
-5878
1392
-11425
9341
5278
9443
15297
-7293
10358
-1437
1980
-2048
1033
-4798
-925
-15475
649
1976
2357
-3663
-5891
-3934
-2866
-7860
12356
427
3097
6932
4011
-5711
2113
-2206
-2994
-7667
569
-2112
3853
-10692
-3702
8994
3547
3766
-223
-4151
4106
8106
-1361
-2473
5724
5853
5071
3736
-5453
10786
-4177
7189
-8947
-5029
390
-4206
-789
-507
2074
1904
6202
-3353
7785
9401
14288
307
7178
-453
4646
-494
6947
6430
-6080
3828
-4255
-1214
4773
3020
356
2247
325
-2465
4391
-381
-804
1159
8631
-15952
2868
-3838
6298
-282
-1357
-1578
-2870
2064
6945
3289
7033
-1293
-11749
4866
1278
-2742
5830
-656
-13885
3334
7794
2764
16126
-8807
-760
3190
-6057
-6220
1251
4531
-1838
-5299
-19
-13942
-8546
1539
-5798
-2334
121
-8727
-12267
-6991
5025
-2649
-3665
-17027
-12752
-8532
-9293
10115
-1646
-2106
14102
5215
-1403
3259
-1002
10051
4612
-3413
-11789
1186
12785
9096
-4997
3267
13737
-3116
-5944
3174
10468
-1098
-10328
11436
-33
1136
2730
-16615
-1305
122
-6522
16598
2582
-7677
-1016
5086
5264
1523
-1211
-2229
5840
-15248
-4153
-955
3195
15415
535
9328
-11210
-6556
-11199
4067
12878
3347
7321
12416
-11499
-12241
-142
-2493
1869
-4553
4157
3769
3154
3251
-9052
11692
6070
-3764
7663
5188
9614
-5141
-1647
-2855
25599
-5351
-1022
-5657
4369
6395
10878
-1908
-247
-13931
11131
-4467
14809
11218
14751
-14551
-8444
-2074
-12291
-2129
-3362
-3922
14328
4152
5573
-4901
-12999
-2264
-8728
-5086
-8520
8558
6923
-3131
10602
5277
-13585
-2202
-19999
1463
1663
13445
1522
1188
-5261
20610
-5635
11465
14415
9236
-24951
-10774
2433
2695
-9176
1605
5225
-13097
-3388
6531
-14405
-7161
-6682
-7289
24613
-5510
7201
-9649
3364
752
-14963
7481
-915
4790
-4646
4767
-5849
-547
-3552
-5340
-20602
-13131
4089
-2130
-23248
2525
1324
7692
1740
25277
-8903
9828
-5644
8514
-293
16892
-1981
-541
-11767
-9035
-13296
-5498
1971
4600
-2031
-809
8846
2089
-5192
-10577
893
-38
3932
10120
-7542
-6789
-6576
-6789
-8717
-9831
11145
-12535
-12650
4172
8539
-1581
-1721
6018
276
4442
1599
1765
-956
-895
-10301
-1701
-8521
2576
12501
-10735
-2551
3452
-3841
-2961
7532
8383
6369
-4412
217
13629
-1890
8945
7367
-8114
3372
4598
-6370
6577
4214
1303
-3966
-6269
9142
-18444
-12543
-474
-3651
-2491
1191
-1446
-2380
13568
5400
4059
2286
3793
8308
-6985
-8125
8070
11566
-1068
-1691
-5644
4917
-3079
7190
4338
17409
4184
591
2178
-1964
2715
-871
-11494
-7433
-10953
-946
-5462
430
3949
18111
3129
-9644
-16741
2091
12013
8723
5956
-827
-1435
3094
16667
3853
10423
17255
-6202
-500
975
-4753
7312
9722
3722
-12523
-4153
1110
-7291
659
-11051
19520
10702
3107
-15643
-4452
10067
4374
1833
-9710
-11531
-2529
5826
-3021
-3048
-7594
7515
1141
5300
-11101
-3369
169
4577
-13991
-5383
3464
-12912
1786
-115
9222
849
-1787
5412
18639
-771
2122
-5060
8322
4901
2599
-11956
6376
1927
-14805
177
4277
-13805
-138
-3330
-2657
4668
2545
336
-2357
-2859
-5600
-5129
8291
13476
2948
11025
-5874
-4101
942
5643
3243
1801
2538
9334
-1786
-3137
-944
-26
174
-2605
-5793
-3474
-2840
1654
9386
1879
-4802
-10538
896
22645
-9921
6786
-12479
12873
-7205
-10482
-1995
2765
-13657
5166
805
13120
-6207
-1018
4958
-10921
-3951
22264
-20340
8637
-3745
-12278
10706
-15574
-11150
-5008
-2570
-3365
-10447
3662
2183
3621
8813
-11047
-10885
11670
10627
-2698
-7676
-1683
5902
-5718
-306
9488
8065
-3413
-11199
8997
7181
-5503
5183
8077
-2509
2609
5842
-4864
-14199
9563
5286
-12827
3871
12137
-10625
17536
486
7611
-6491
13859
-1286
-1837
2882
-7479
1050
-7584
-10347
-2581
-5766
5351
276
711
13261
2250
-8296
-3273
-1410
-3099
-4701
-6771
-1709
227
-5279
-5280
6643
12472
13599
-1531
-2226
2717
1328
-1921
2760
-1733
-4005
3329
-1021
1032
5355
-6787
-2727
-10543
3875
-7949
7000
-6178
1285
-6154
9446
4082
-2393
-1920
5851
3833
-17035
-63
4266
-1545
-6374
3957
-5327
-1859
-1937
3023
1107
-8559
-4222
1916
1425
3659
-1057
-1490
-8615
-5112
-2233
4276
8513
1961
-9637
-6299
3510
3739
-3430
5449
-4504
7544
-5014
-1637
5928
9591
487
-1802
346
-1173
1450
-5727
-37
1086
-3309
-11870
4209
719
-6704
1359
5928
-172
-4823
4548
-2887
9043
-4994
-3919
3939
1981
1396
5346
-1590
-20434
-4071
-2911
-4123
-665
3930
800
-3150
-3541
173
-8554
-1610
-2034
-3313
-4184
-2147
5732
-1662
3265
94
-1458
-1824
1840
1165
-10
1747
-1940
-4562
-865
-4519
4481
6051
1374
-4373
3702
-2854
5956
-4327
-4862
4116
-9666
1489
-8377
-3626
-1840
-2036
3204
-126
5569
7391
-1262
-1565
1267
3676
-4965
-6135
685
9972
7458
1785
1856
2064
-2332
3682
-586
1614
-152
-1038
-7720
-5608
1679
455
2858
4954
-6210
-9926
4507
-7965
5720
4477
-5345
-9468
-610
5122
7919
-7711
1261
-9049
-4371
-337
4833
5211
-8879
-4647
-3041
-3908
-6150
-4366
-2902
5882
3679
5949
-6688
4121
13187
-7717
1891
6471
13142
1737
-3448
644
-6990
-9874
2729
5230
-3726
1435
7363
18409
2682
-4733
24765
5161
-5618
-1200
-7466
7606
-1226
12811
6717
2621
12579
7926
1491
-5271
-98
3543
9453
3128
-2175
-6361
-7492
2450
2418
-4421
5986
520
-4668
3717
-7726
-4247
-12424
3115
-60
-3981
2374
-8191
9410
-7910
9279
-6963
429
-13464
5583
1324
8056
943
-13372
-6136
13904
-17193
-10219
-18151
-19200
-14167
6046
-9425
-3876
3013
-1699
-5741
-8660
9248
764
-3626
12872
7545
-8820
-6400
-8350
-550
-142
4457
-11009
3873
-485
29803
-12710
8913
-5525
5062
4521
-8343
4973
-10184
856
-7371
6370
-6876
12078
-3694
-912
-10403
15829
-2670
-15260
542
-50
-3816
-13512
11982
19706
-8460
3554
-1922
-9290
-6217
2227
-259
-21879
9347
13742
3860
2294
-8275
-8127
19819
-10921
4776
-11858
5269
6256
7671
-8164
-10551
2437
1802
3542
-2208
-14751
-12804
-23185
5401
-10942
-15906
9102
1285
-14008
-18530
4813
-2226
7992
2460
12712
7512
7559
3797
-10166
1623
-6886
-801
-2388
-750
2256
2628
-967
14487
8002
10262
-13512
-9193
-1511
8281
14998
-3259
4035
-8765
5532
5763
-2557
4625
-8070
-7649
7640
7542
-9931
-191
10858
4618
-1014
-4580
8589
-6062
-70
-441
2385
-9338
-1888
2064
4542
9767
-2986
-8321
2002
2539
4394
-964
12212
-2025
-11734
4106
-1065
-1016
10974
7924
6433
-1360
7000
-1054
1864
132
-1362
4429
-4365
-7250
-10686
-8038
8443
5345
-57
1245
1324
-3693
5940
-9395
4308
1237
-5856
16887
-7034
7590
1151
-248
-5058
1410
12614
7700
9195
-8111
6196
-5213
16650
-8100
563
2687
19079
5374
-9677
-9378
4897
-1108
15311
-4609
-4609
-4353
5962
-3548
-9846
91
919
-6430
-12934
-4426
3712
-7231
-20880
4472
-6338
-7515
-3658
-8026
-12837
-13693
6759
9628
11309
-8688
-11756
2909
-15383
-1009
-17985
-7219
3587
3338
7870
5903
-2331
9191
-4318
1179
111
-10298
6917
-3465
9320
-2060
-3977
2570
1033
8590
15238
-704
4411
-10943
-845
15787
-948
-12340
13822
-827
9999
2915
7616
-4357
4333
7
-11930
-18326
1264
-431
-1531
2214
7378
13622
3923
17229
-3691
8585
3240
843
-558
736
68
7645
9434
1878
-4016
-2423
8924
-4405
3824
718
1525
-13303
6755
-2780
-445
7076
-7766
1571
-3467
11675
-11276
-5854
2409
-24
-8881
845
-2028
-2286
9386
4636
-3229
10864
-9872
4114
-350
1985
-6305
12064
3027
-4856
17589
-2569
-469
4707
-2514
-722
3425
-7248
-1696
-2617
2933
-2201
3133
5750
140
-1704
11905
10629
2159
-15980
3116
-6387
1228
2621
2049
-7256
1987
1972
803
1505
11903
-1427
2122
-1992
-7618
-7375
5398
-620
855
611
-14984
-2333
-6276
-993
-4382
3363
-253
-9023
-1894
-7445
1819
-12568
5444
-722
3101
19511
5406
6388
10331
7779
-9396
-5365
-3082
9398
14782
-3557
-14956
-10467
10695
-15932
-9462
1722
5807
270
-6051
18484
-2874
14752
5376
-3722
-12308
-9245
5184
48
3832
6952
3864
21
14050
3208
-5710
-10542
-20463
22806
-13876
12264
9686
12848
8508
6414
-8119
-10055
-6379
-3331
-6418
8264
-4674
1024
-9537
13243
1610
3235
3233
265
16810
-2598
23613
4465
-7573
-8581
-9408
11441
-7635
-301
-210
2623
-946
-5932
963
2018
-8839
2406
-5801
10279
-4629
-9798
2914
-2693
-6593
10116
11118
-353
-16438
-1287
-4947
7877
-5225
9788
-4035
14390
-8119
17912
6325
4248
-2641
-2080
-4240
4992
2970
1298
7943
-14814
-13879
-492
-3127
-4289
-2443
-3332
4841
9364
-1763
-5881
-1837
-2961
-3507
-7213
-9922
-10016
-14616
-1425
84
2091
-1457
6688
2320
1059
11601
-4297
-9432
-9307
-8240
-7128
-9569
1971
-1396
1032
-3519
6843
-9732
2861
8287
4949
16630
2901
8776
3263
4063
-8261
-8644
2314
11208
-4859
-9568
3148
6795
2828
2372
-2472
-1860
15144
7866
2440
10372
2881
-5505
-5835
8340
9563
-10947
15384
2002
463
6745
7198
-8920
7458
2632
-1656
5738
-6651
1449
3850
-857
-10346
-6330
3116
8647
7975
-2787
12385
-1473
-772
-1777
-2433
-7522
1739
2700
2883
-4974
-7544
-7235
2910
-15335
5105
6221
1705
7447
-10219
-2333
-4727
4622
9534
8710
-1115
-611
3496
-6387
946
6863
212
-6923
1535
1322
-493
2274
9530
-1857
101
-10405
7091
2089
10556
-2940
496
-5114
1706
-12044
-3009
4554
-4540
-257
-2525
4211
-2213
-3899
-6600
-7206
4451
247
-3456
953
-15290
4496
-5311
-8014
-6116
6563
-1821
-4645
-8480
-7674
-9276
-2445
1058
-5720
2339
13359
-4052
-15982
1645
8053
-2611
-4097
-10099
-2504
2020
2110
-4325
7532
-1824
15701
3974
726
-9405
893
-12776
-2712
-6189
-3559
2882
11926
15346
-11097
1066
-8907
-2513
-3409
3699
-6401
10696
-10377
2155
-11234
-9783
965
6556
-1012
3115
-11757
4219
8138
3081
2880
5709
-5007
5911
-6487
-1953
-6387
5009
-678
-746
1151
-2532
2653
6397
4210
5853
3900
-5296
6150
-832
10001
1899
6043
199
-1039
-14184
-6647
-9060
8615
4504
-8961
-2595
2589
-2726
1774
5489
1500
4390
-1806
7940
13328
-2580
-1614
3226
15600
3421
-7775
5026
-10066
-31
-7389
14910
-1435
12836
-7785
-20340
-5369
2077
4051
8327
597
3023
-19353
-8049
1533
-8572
-2215
6885
-3592
3463
376
906
-12888
2808
-3309
8059
-2086
-8134
-1999
-7068
127
-5010
-7332
-4971
6198
2155
-104
-4663
5491
868
6700
-11908
1476
11339
-9329
-5509
7946
-7243
-4380
696
-9118
7147
-13950
-8527
4349
-7381
5708
-17269
-2603
-5212
6802
4516
382
2302
5484
-6832
-512
-1971
876
-1145
-4546
6832
3508
5418
-3238
-684
-7601
-3521
2986
3908
-752
7469
2655
-3316
1097
-5734
-8211
3915
922
-9649
10588
1480
-5214
2072
3401
-3574
-3830
11062
-6517
6767
-9396
5834
-2712
14513
388
12513
-1796
91
3775
2824
279
-7296
-6692
-12439
5392
-505
1787
-693
1408
-817
983
-7
-9684
-12498
-1754
-2732
3053
18189
-5102
-5675
-12571
4246
-19954
-1104
11567
-9750
15013
-387
-10844
-3651
-12392
-494
2005
-12679
-667
-4749
-8548
1672
-5588
1032
-4666
4898
4765
8019
3033
2086
-8120
9156
1246
-464
473
4271
-3971
2264
-434
7333
-6779
-4471
-12230
1561
-10108
-6821
-1207
-11025
1722
-3461
-8395
188
-4774
-4912
-828
-2525
507
3835
6845
-4764
2815
-6196
-4223
-8218
-2477
255
3012
-4714
-10381
10051
-2344
-13030
-8407
6106
1297
8917
-4242
91
3000
390
1453
-6410
6833
-2049
715
5032
-9074
-8776
4027
6910
-6993
10042
6798
-11104
371
-2607
15135
4250
-1799
-13871
-11784
-4056
-9256
5407
-9292
-16431
-120
7016
647
20847
3116
-1306
-8378
8294
-1105
-510
5049
1118
12165
6320
3597
10177
1554
-6941
1753
-4114
900
3488
6675
7920
8667
-8183
1196
6600
-14317
6746
268
-3231
-13465
7441
-6571
15214
-915
3675
-9147
-5001
7359
-4241
4142
3644
4837
5900
5770
2050
14229
307
222
-4755
-1871
2353
-7310
14092
-6828
-1492
-7551
528
-8321
5465
-9978
5223
-14181
-6585
15121
5362
-1256
-5123
-3786
13281
6670
-2846
-1731
-10513
4800
-11475
6928
12347
8319
-9625
7801
14327
1327
486
-4406
-2398
12421
4371
-3107
413
12926
4780
1389
-8265
444
4149
4683
-2313
-7063
-7682
9129
-8336
-14212
2475
-15135
-6707
-5438
5747
100
17077
-2461
-4327
3231
12360
1814
1197
-2960
1090
-6278
3311
-2613
-9911
7839
-7095
-1872
1425
9730
4455
-11891
-12098
-2868
1166
-19779
15887
-8772
-8249
2877
-18794
-16456
-3558
-5577
1990
4384
-8464
-11641
-5291
3835
-23163
-25980
5819
8107
11154
5049
-5493
10266
2219
-13666
9562
-1938
425
1689
11986
5079
-22574
-4425
3538
15810
-1703
-7138
6472
-7560
5340
2920
-8165
-4100
5451
6627
1710
6920
-4748
1229
3387
-11081
7503
-15937
-6332
-855
-12594
11064
-1280
-10140
-4830
-8960
-4739
-1259
1229
-8561
-12248
7879
-9866
-267
9786
-3648
-139
-4208
-8476
6081
731
-12658
14526
-218
16748
10966
12473
-1201
-6235
9238
-8720
2650
15373
-5404
-3623
-14538
-606
2253
5838
-6143
-3648
-2879
-9167
-6754
1133
-2655
6663
-2672
8489
11064
-10368
15483
1987
7139
-2733
-7849
-8494
-14739
5896
-12085
-3845
-98
10146
-8296
8785
11675
-23680
-10769
9325
22437
12931
-1376
796
4278
-3636
-2594
-929
-11252
-10573
-4948
8600
-12002
-7661
13032
5598
7845
6621
6683
-3498
14556
-5036
-1549
-2940
-8128
9936
7331
3721
4362
-6202
-1788
-2515
-1808
-3034
243
563
3618
-4678
-3838
6166
10315
3502
-2519
7884
12354
3754
-4337
3417
-860
-3965
-3004
-58
7680
-7684
-5571
-2696
-5463
2153
-12005
6501
-5062
14539
3231
-3190
7163
2855
2924
4805
488
2893
356
1327
6418
-1788
-1120
3854
8395
4075
-1829
10885
6268
2392
-1377
1709
-12267
5618
2033
11487
1588
-10917
10976
-812
11877
7214
7584
-3841
-13131
-3049
-14759
9774
-2372
2193
3288
17333
2900
-2002
-180
3152
3985
478
-147
-683
-14708
-11663
-9598
-7535
-9697
6636
1813
3004
-16060
-4107
4418
-1372
13042
-9425
5120
4325
667
-7681
-2160
3595
9413
-377
-13282
12050
1891
7897
-3898
505
-3816
3947
-2376
12296
17063
-918
6273
2086
-12475
7271
14797
-7930
-2005
-756
2878
-11387
12930
-10972
-637
827
-43
1272
2842
-5875
1894
3534
1487
500
-19619
-3729
15032
-13195
-6803
-14816
-11052
-9165
8272
-11795
-4654
1231
-723
-5247
-5258
1280
-5049
-1633
-975
10798
-5310
-7418
-5835
7256
-4751
-11610
195
-4377
12276
2968
2168
-8553
-7863
-252
-5644
8233
-2236
3517
2765
2129
4577
889
7308
4320
1955
4011
11040
6049
-6477
5724
9054
6845
9937
-4076
-17000
-8806
330
-6696
7256
-7601
4320
-4300
8059
7980
-6036
-7536
4137
-1069
-4658
2353
-1884
157
-461
7588
5400
-3333
-11670
11781
-1406
-1020
-4785
-5683
2294
-1614
-1096
-2465
2203
1230
-566
-8174
-2512
-5501
-6665
-4315
6068
-1508
14673
-5105
-4890
-8141
6609
3244
3227
6060
-6721
-2045
1577
1798
-4420
-6374
-1918
-2939
3385
-4386
3405
-436
14322
8322
10943
-10965
-2224
-4291
-2927
-8314
12366
8284
-257
-3401
4097
-6391
5117
-2409
5294
-9490
-9050
-7249
-11559
2061
-10072
-10217
10420
1561
-4799
7208
-2803
17298
-4141
11922
3579
-5003
5001
781
-7535
-1098
4502
3333
-368
13208
-10294
7690
-4368
699
-4684
-1101
-6223
3969
5252
-11902
20288
-5916
8155
19
-14250
3893
7324
-5048
1452
-5562
1826
3970
-548
-12058
-6633
-17
707
258
-11584
-13528
-7885
4180
-7541
-9379
-14064
9237
-10938
3569
3611
-7987
2762
4081
17075
8131
-22235
1027
5208
4312
1230
-10588
-5318
-14654
-2513
6199
2820
4684
-10850
7346
-2351
5368
1162
6624
-2993
-4363
-1603
-13
-1099
14823
-1339
-5645
-10645
23401
-8411
-4398
-3509
-4897
13509
-6674
-5986
-984
-15993
-16514
-6950
1824
4026
-2321
680
-6846
7092
2144
12177
-547
-4977
-3345
5383
-2181
-264
19015
4380
9418
-968
1272
11563
5450
-11988
-7036
-4636
8201
4825
-406
3008
5572
5261
10953
9343
15092
-18021
7379
19401
833
8890
114
10480
-6694
4090
-8010
4977
-10264
2360
-8254
-8933
3166
2450
-1989
-2554
-9735
-1772
-9577
17935
-7273
-15504
-9451
362
-5935
-7691
15541
-6467
8417
9203
9010
16447
-3753
-8864
-6795
20039
-3117
-1898
-9395
-1942
-5733
-14483
9042
883
-6262
2091
-23385
11676
7320
4210
14323
-5716
1375
-10181
5291
-493
2318
-4812
5754
-21877
-3318
-5606
3489
6857
14391
8657
4493
-3353
-10330
-6064
-9338
-13819
-747
17627
-10298
-3219
-3071
987
11921
17083
-7190
-8605
3410
724
-1799
2124
-9359
-3270
-10523
-3557
-1047
-19698
-18243
-3586
24050
-16723
-4820
-7063
-6626
6575
4803
-21156
-10278
-13897
11843
3604
8043
-1428
-8471
12623
-9510
-9933
-11135
-6890
-3108
-19742
13286
8394
15359
-1195
3841
14143
-8298
3496
-8882
-10790
5920
-4718
15417
-3439
18429
-16919
-12244
-3963
13996
-3655
1134
7393
6786
-11938
-4576
5421
-6929
17217
-16698
-2226
3789
-7288
6973
3642
2316
-896
-23800
17639
22367
5037
401
-4168
3853
15335
-15682
12603
-2861
20741
12071
9007
5228
-2491
-975
-12071
1503
-1012
-11239
13821
3744
-702
2058
-12142
12238
3253
-3877
-16419
6820
10901
1880
-12393
-4960
-4495
4512
4712
6960
-4327
-722
5714
566
-10475
-14271
12460
-21991
3785
-10609
942
16606
10083
12306
5638
-3551
37
-12041
-18
-91
-7537
7786
2620
11213
12250
25972
850
10189
2683
-2825
-3648
-5869
-8794
-9011
6401
-227
-1245
-5942
842
13040
-14760
571
-4084
-4099
-5731
-2447
8970
-9796
-7423
13102
-9468
8339
-2739
8981
5387
-1777
-4523
3296
6287
-189
8640
2225
17803
-6830
1180
3273
2781
-454
268
-18174
8091
-4972
-7239
-12178
-4117
-5821
-2934
-7277
905
-7524
-13444
303
4494
9156
-1855
7707
-12001
5764
11581
2634
-14427
5532
1791
-6755
-3527
15676
-1576
1362
6076
-5673
-722
1716
4592
13613
8117
-1369
7290
-5810
1681
16030
18186
-7882
9885
-4847
5560
4501
-4304
-10241
-17182
-9823
-13661
-8472
-9376
20195
-10586
-18169
11682
4763
4755
2280
-2210
2654
9371
-3485
11414
15737
-10697
-13522
-12452
1488
-10596
-4145
18175
6336
11572
1702
-1271
-11659
-11415
-2881
29873
-10519
2087
6746
17264
11361
-6069
6792
-5841
7460
6363
-18650
4066
-1264
993
-5075
-6648
-1632
2494
4107
-10079
-15473
-14576
-2814
2249
1172
-646
-4623
5884
4612
10297
291
-15142
9228
2060
-13350
21636
10484
-3927
7425
13601
279
1256
7114
-7999
2639
10120
10780
12016
-9389
-14441
2929
-4326
4501
3992
3655
4307
12003
-20054
-19006
5699
-10025
9136
10561
11192
-354
2754
-5031
500
18642
6622
5878
-4042
1211
1313
1657
4010
1685
-4893
-5442
-13352
-12034
-4274
-4975
2287
588
-14452
-10544
-10274
6978
5449
-2831
-13908
8857
7031
12356
-7803
-143
-1530
-2111
-2086
3342
-3925
19090
-27825
-8822
-5125
4595
-13972
7239
8464
3169
-2442
10545
-1814
-7901
-518
4471
8953
-5646
-6734
14009
-19930
9468
173
-3952
5004
4246
2349
-7138
2167
-4118
-6733
4905
-4922
1696
-12423
-17814
-7997
6949
5475
8680
4635
75
-22707
-5793
-6180
-2507
11307
657
15998
-4967
9230
-3672
18143
4081
5030
19166
3216
2517
14276
-9351
1530
1594
15680
-9600
2740
-1929
-5252
5407
-13749
-143
1565
-7778
-15359
8976
11587
-3055
-7416
7663
-8090
-7032
1660
-3812
15539
7384
-2761
-5820
-4010
-2739
-3092
-1970
11661
12861
-2413
-6294
725
2994
3198
-9001
2200
14345
3304
-1865
-1635
-5402
2913
13821
-12046
-10029
-176
17248
1820
-1960
10212
-6027
1417
-294
6621
-2347
-7
10708
-3815
-1478
68
-1225
5456
6
9565
-8820
1304
-8974
-7188
8979
-9056
3858
15284
-4317
-9194
506
-8032
397
7742
-7696
-187
557
3348
6393
1459
-1802
-12541
-6305
-1127
-4895
-8048
-1438
-9361
-5926
-5057
948
-738
897
8303
7581
269
-10952
-7612
8506
-6024
8685
2215
-253
-3115
8051
-3719
1628
-3916
3361
-4483
1352
-10008
543
-20304
-5651
-2495
10105
-8688
-9016
-388
-11049
-2760
-16843
6199
-17730
1980
2466
6434
7083
-4002
1668
566
-10874
2178
7431
-3833
-8450
-299
11974
-6739
-16942
9847
-9265
8138
-7392
5718
17447
-11275
-569
1969
5412
-534
3994
-1148
-4790
-2886
8064
-9040
11395
-8105
-424
3263
2447
5993
16946
-1950
9751
-2088
-8138
-5121
-3835
4878
-10310
21784
-900
0
2444
-4772
-12231
-321
253
-11232
13900
16424
5967
-3229
4748
-731
-14437
14928
1779
-3033
-2226
-10592
7626
-10135
-5161
-171
-8664
-572
-1241
-4945
3092
-7538
11145
6198
20634
-1176
12084
-3022
-4660
-9245
-6320
128
1620
-9082
12948
476
884
50
-2304
7497
132
-317
5306
1351
238
-8239
-5223
8199
-1253
-6976
-3120
2753
3418
-7356
10047
-7805
524
4793
-4874
-3876
-3025
-3888
-6458
-4568
-4842
-10064
3532
2137
1598
-5323
2681
6164
4922
-1240
617
8778
-5582
-6219
5772
-10315
-616
2188
-9265
734
6223
1409
-9595
-5001
-10073
1587
-4458
9514
-3828
-3295
-4161
-10275
-4175
3632
-4457
-1613
-5495
12897
6841
849
-121
-85
6427
2684
-5454
-825
-18351
8385
-10168
603
-5915
3109
-6674
-7063
-3270
-205
-5531
2264
14315
-2384
8266
-3963
-2982
-4050
-5971
7137
8064
-7128
-8613
3630
7669
-2816
-11563
-2005
788
16190
16375
4535
-13114
-19719
-1579
-4857
-6998
3206
-5244
-4544
2589
8272
3051
607
8467
3476
2146
-5330
10635
-246
-4761
2170
2279
11319
12938
-5780
-2929
-4381
13509
-4151
-2064
-15717
-1591
-5434
6921
11354
261
783
7500
-19208
7326
-2411
4105
3627
1177
7677
-283
2262
433
-13278
-1381
-5889
-14411
2845
6325
-11560
28685
-797
5050
3720
1300
15782
912
-5442
3370
6114
15309
6472
-8743
-831
2369
-19082
-7583
-3439
-364
-9072
-4416
-13424
-1762
15218
-4657
11657
-2038
13953
2632
3263
-5686
21370
6786
159
-1702
689
806
-971
-13767
6703
5353
-5895
-1958
4615
-14561
6229
6003
-4003
-7034
5728
214
4079
-3248
8820
-13329
2345
19151
-15831
-3736
-1370
709
3300
3160
-26918
11201
-8344
9366
-1707
2405
2200
4480
-10876
-16318
-11479
8183
6184
-5718
-6513
-9147
-15273
-10151
-5470
5591
-2324
1448
-9260
-5754
-1681
-4071
-5935
546
4277
-2147
-8661
8924
-8635
410
-6915
3675
825
6382
-9306
-593
10322
-16539
-2218
17037
8987
-6183
-7311
-9351
-52
-5061
316
209
-4054
-5154
5258
-5043
6335
272
-7144
-3198
-2129
566
-2050
9571
1153
-5640
1973
5102
-3204
6211
-2245
1547
-11565
2523
-6249
519
-4277
-7626
8129
-1775
-5327
9365
3100
-12631
4750
-334
3155
-9595
4175
-4779
-483
1118
4685
-16
2950
-7639
-5732
3795
-960
-2023
-13534
1495
-646
12268
3533
5494
3665
2286
-4438
-1680
7802
8086
-10704
4685
3253
1806
-10925
-5803
6308
9174
2459
-3146
7374
9119
10579
-1724
-7105
9883
-1273
4561
6200
-349
-4016
-5483
5378
-5808
-7409
-5091
3318
-1298
4823
-13824
5924
2966
8173
540
2437
9360
544
-6415
-2031
-5069
-749
-2874
2303
-1807
70
-715
1771
2077
176
-813
9811
629
2824
-1728
-2191
7536
-7884
1597
227
4836
-3061
-2241
16700
-898
-3076
-5562
4319
826
1996
3028
-3569
-11620
-6385
6240
-3771
-2451
246
-1389
8589
-2160
-4403
712
-4823
891
4238
1286
2213
-2098
-3012
-5554
8884
11719
7956
7965
-1397
-2130
-6870
-1731
803
1067
1
-3874
7489
5733
-2119
-2863
4060
5948
-1222
5730
-5931
293
9043
4935
-634
-2056
-5304
598
-3680
10110
4461
2849
5344
7395
9826
-623
6275
-3181
-2075
2118
6424
6606
2900
-1261
-6111
-362
-1379
-4388
-5036
1686
-6193
-5763
3264
-4073
-2326
1330
-2537
4318
-525
-8489
6941
-6358
-9060
3913
-5972
250
248
-7206
-7318
188
4840
520
-2720
3061
-3535
4461
6594
-3670
-2695
3744
375
-7763
798
-1593
4098
3817
-1441
-4262
-1069
4271
531
-3081
1718
2040
-3155
-7129
2136
-5941
-7067
4174
1792
301
-820
-1152
-3935
1254
-4867
-2084
-2390
-3244
-5593
2748
8702
-4187
4110
-2911
2602
-9859
892
-6844
-325
-2508
-3749
-2668
-2234
1879
-8286
-7437
-6198
1633
-6033
11861
7768
753
10090
-4899
306
-6893
4114
4425
-4109
14115
691
-9311
10989
-12373
359
-22474
14663
-5695
5638
-4972
-1241
-8570
-3546
4351
-3005
6366
5505
-3104
-6507
18606
6576
-2634
2233
-4554
2419
11078
9604
-5143
1729
2776
-7252
19977
1373
-368
8709
5504
-4642
-8105
9108
-6382
15858
-16608
3208
10757
20302
-11315
-12011
-7481
-8104
11964
16911
-7565
-887
5456
-6062
-2646
-11847
-15502
12650
6415
-4654
3964
4215
994
-12374
5221
3799
17323
2319
17117
-5620
-5385
-3106
-8021
-10514
11265
14306
-4067
-3133
509
4379
9104
-20175
-12796
4219
2103
-11295
-1444
2842
5973
7619
-1701
-7654
-5484
-11422
28305
-738
280
-7215
14463
-13192
-3943
-8459
21071
-319
-6190
2709
7118
-14708
-6341
-2918
-8913
-2830
16597
4454
-6875
322
-2495
-4322
-14981
7169
-11533
1640
-13763
-2332
-1072
-997
9556
3356
4051
-314
3348
-12206
19334
14460
-20858
-2223
-7222
15189
-5859
9853
8790
8578
-7890
9045
-13613
-3411
5783
8789
-923
11273
9968
4413
9221
2402
-731
-7402
3958
-26818
-22969
3263
16572
-1643
3393
-8376
2131
6044
-2938
-1261
15260
14964
9097
-15228
17415
15086
8641
17693
13839
-6619
-25356
-305
4882
-15259
18283
-2579
-6653
3642
1930
-5918
12898
3229
3889
2371
-9935
-1153
4689
-10495
4678
7711
3966
-267
-5681
6133
-1329
5230
-6623
2105
5055
205
321
-8224
-860
9533
-2970
-6697
-7844
-7987
5051
10228
676
11087
12651
10186
-2650
-120
-5969
-4
4682
-13374
-576
2712
206
-13538
-2082
-5670
-12101
-10856
12745
7141
5148
-4668
3239
-654
1554
-1899
-2334
7186
3003
10955
1762
7042
-4584
-11027
2582
4511
12837
3441
6064
-3215
3827
5906
-2486
823
3315
-4819
7611
179
4993
3601
450
9898
-3968
3047
9822
-713
-8166
-343
-4530
6041
-349
5034
-14694
-10975
-9034
4189
-5019
14298
5408
-10038
13803
-4585
-9568
-4925
5562
-3018
6429
8837
7125
81
-815
16273
16678
11348
11241
-8158
-75
-7518
13504
-7355
2299
2486
-821
10521
471
-2857
-1936
-12024
9909
-2732
-4112
1885
2018
-4967
-1670
15816
-6045
-4540
-2237
8195
13154
20131
5075
4706
7554
13037
1125
-6048
-7369
-18599
6517
8902
-7878
-6713
-9565
8549
-6348
-8011
9857
1852
-784
-404
-4245
-8988
17327
-1304
1884
-10482
-4473
10980
-5008
7069
-893
-11798
-15845
13065
-266
-9292
744
1526
-4154
-8632
7109
-5685
13836
-3477
-1529
4414
9671
2810
-3490
-8308
-2092
15565
-274
3045
-3465
1559
-2359
9825
-1753
-3884
7219
-5561
3455
-3478
-2180
-3307
-8924
15586
1300
6606
-2004
-6350
-1433
-1270
-3262
17677
-15320
7761
8266
4173
17119
-6501
-1460
-4427
9040
6460
3265
-4482
14331
1164
2535
-3791
3076
-6810
-3149
-5644
1889
-1992
10832
3154
-369
-6002
-4501
14152
6299
3430
20841
-14569
19447
4964
-12177
-1944
-4359
-98
-14112
6374
-2938
-14250
8261
-20488
-3297
5780
-8339
7326
61
-2746
-4677
3766
-3017
-1152
-8985
-4169
9835
-1475
-3850
-3624
-2341
1208
-6985
-15904
-7843
14814
6803
2577
15784
-4638
1351
10368
10648
-5301
-3168
841
7656
2345
665
-7143
-3009
3988
9933
-4718
8450
17159
-1075
2246
-5826
1050
4747
-832
3313
-4216
-4529
-2789
5878
15276
-2430
-6315
7232
5728
-2587
6476
-13874
1155
-9435
-1916
-11492
-795
4422
5352
205
655
-3971
9176
8194
3539
-3094
-970
-1829
-9693
-8620
-9278
2467
869
-1906
15004
3668
-7719
2641
-7957
2119
5140
-8485
-8975
-2052
5663
9186
7667
-12023
6685
-5957
-10403
5847
3403
-1361
-7386
8513
-9186
7288
3552
5891
3628
-12198
-4457
6619
-2292
7783
-4284
5542
-1352
-11996
-9221
-1660
2473
5980
-11121
258
-690
-951
1188
1408
-5350
4128
-293
-4542
5702
3241
333
-2353
-6509
-1257
2941
-5035
-11187
5913
-1471
-1187
1668
-9974
1354
-6715
-3082
5385
-6764
1580
5818
-7100
4195
4074
7415
4251
-635
479
2880
-9387
733
2348
3303
-4244
-4669
1360
2678
-1215
-3049
-3543
1485
54
3939
-11477
-662
-5793
5133
245
4515
-2961
-2794
435
-5509
6658
-5739
-1220
-3125
-1950
-1969
-4669
-6285
-1573
-5102
-6257
1919
2267
-2106
-7794
-660
2010
-715
-6650
6802
2492
-5785
4505
-3375
531
-1396
282
233
1988
390
-8941
3460
9121
4526
2702
3710
-3425
-2580
-6592
4060
-10650
10008
84
8493
-442
-770
-4111
4107
-9739
-15378
2801
-18599
-3973
11607
9125
1436
9514
-8538
2339
11594
69
-4379
5380
20476
-1619
2849
4528
-9242
516
10744
12103
-8811
-632
4550
3698
3893
-9700
2698
-8676
12983
-2279
-4350
-17169
10720
2107
20591
11827
1680
-4710
3297
15938
16364
7775
17774
189
-14398
-7509
9341
50
-3594
267
2208
5115
-5650
2190
-4932
-10381
3212
-15239
-2940
1871
1302
-7887
2389
3901
-4825
7285
-12204
7807
2974
-5922
-21006
2125
1417
-5648
7071
12069
-9420
27932
-12645
-4188
-4884
2219
9528
16352
1291
5582
-10822
9632
8687
1559
1157
-3546
-3967
-12153
17510
-9335
6200
-5583
793
7305
2400
-6882
-7345
-11272
-3607
-10727
17650
-2231
-1094
-2004
-5870
-3694
2816
-2094
4566
16587
1774
-12120
8897
-20446
8125
23182
-4842
6275
-2740
923
-2364
2028
3427
722
5544
983
8242
-2217
10360
726
-8672
10133
-3304
-18338
7607
8484
-5060
-6217
3469
-50
-3644
-6924
5815
3917
-25301
-7588
3910
10085
-1014
11475
13257
9710
-1591
-10560
-2673
18890
600
23835
10285
2882
6373
-1326
-214
8751
-4959
-21383
-8572
6812
-14777
4738
1675
-6143
1653
-7496
28
-1404
4642
14686
9944
6378
11323
-10842
-4789
4550
3556
-16993
6920
-600
-1797
-32439
-2987
-6796
-2405
-8703
-2065
-146
8996
-9005
-4161
-2130
4094
-3223
3999
3790
-841
-8043
-497
-2280
-15986
-42
3030
5478
-9939
-5080
12148
-3520
-10171
-2665
-4909
-6954
-6682
1415
6892
-9057
-1126
-4179
8577
8236
8018
-4704
587
921
-12124
-3076
3254
-9471
2188
-3524
-5726
7101
-9095
-4842
7983
-239
5187
3342
-3375
-3895
811
-5789
483
-6911
9133
1372
8732
-13247
5308
-8710
-5791
12160
7320
-98
365
-3676
5352
1860
-6275
563
4509
3491
8765
-10578
1148
10579
-7108
4874
11311
7876
-6989
-17107
-3951
-12631
-6485
-8301
1104
-4342
-5849
-12237
-4913
-5629
-5625
-1869
1292
7741
-6574
9216
-5997
7692
-5040
-10688
12699
-3697
-7899
-3157
1559
6818
1793
-5879
-3009
2651
5406
9393
2030
-896
935
4028
6580
-2460
-2692
-6725
1152
11768
-22540
1280
-2854
10229
-7991
4133
929
3359
2134
-6927
2508
-447
17174
-10334
-2064
-4502
-7229
2038
-8092
2039
-8630
-8403
8199
6559
6099
-7140
3775
-3350
-172
-7431
13529
-4275
10517
-7244
-5887
-496
-4869
-9018
17480
-8337
1075
4646
1367
-1522
-8777
7280
-3152
1863
-9993
2318
3960
3807
2156
-9323
-4127
-6793
-4805
483
-1656
247
3929
-8712
5894
-6305
-6266
-5067
-7440
2344
-3951
-1437
-1141
9913
-8988
11018
3244
3028
-10310
-6737
-6938
-2125
-6916
-6985
-1681
-2935
8693
-8322
19204
-15851
7746
1353
-10108
-790
2966
6971
2614
9452
5103
1385
7825
664
-11383
620
-6249
1088
1218
456
77
-2265
8012
-2962
7483
-1286
-7595
-2078
5374
2867
-8280
-3269
257
3023
-13141
3575
4005
-16042
4900
761
-1651
-12938
2295
2922
-6641
12854
14543
-10565
2397
1205
4303
-5636
-1274
-3344
-4068
444
-2194
1931
7236
12503
-2239
1853
6692
3805
-3631
8341
-126
4002
-16354
-15912
-15678
3077
-4974
4131
-11201
-5691
7296
-13378
-8535
-5287
-5825
-4043
2639
-6130
12445
-3256
6022
-3471
5241
-24277
-4547
-10820
-8314
5767
-9965
3806
-8813
-1241
7239
10552
12096
13955
-5613
-24686
-3269
15117
5543
-4835
5950
10970
4689
-5447
8765
7980
-6069
746
5222
-1072
-12909
2797
11543
1835
14363
1736
-16091
-7697
577
-40
9548
1505
-3079
-4144
1419
14417
-10373
-2388
-5524
5028
1842
13326
2888
11758
-564
-10911
6194
12302
6719
-4788
4599
1261
12833
8441
4263
-14044
1325
6784
-16891
-7771
5500
17441
-672
-7152
-7144
-4353
-7547
2893
8530
7642
-3611
9857
-1083
10050
8417
-1317
2573
2400
-5946
-2477
-2121
12078
5672
-6505
1096
1863
-6719
-3422
-28806
-4141
1107
336
7512
779
-3763
-7939
5689
263
-1053
-3443
-9066
4461
15055
-5785
-3032
-6801
-21628
-1778
-3847
3014
-6115
1854
-780
-18402
4559
8057
5199
1588
-7613
-2896
1233
-10069
5677
7243
-9185
2336
559
6356
-5573
-7072
25
7931
-21771
3821
11344
-12020
-4363
1644
-3270
-2364
-12028
-780
10076
-1568
6711
-3466
3122
9703
2143
-86
-7005
-1727
245
3395
6082
2079
-352
-2533
6356
-6028
-1488
1899
-6999
-5695
3839
-2254
-1313
2073
-17256
-1628
-4916
1180
-1234
993
4513
-6183
-2260
-8648
-261
-1469
1746
-2233
7953
-1564
-11878
1238
-9551
-8613
-2325
-8030
-3341
6311
3701
-180
-6435
5817
2891
-3410
177
-5301
1925
1048
4389
5445
-6937
603
12139
-5376
11974
4912
3524
-6711
-8027
1393
-3256
-6667
8628
-7017
-55
-1084
-14049
-7803
854
1378
-5583
-8887
-3066
13177
3133
12738
6346
-1496
11247
3377
-7743
2092
-4112
-2552
1198
3008
4531
9851
-7814
-4764
11883
-691
-3252
-508
-3512
-6256
-10776
-6551
11416
11380
3956
-5864
8113
-1107
17966
455
-2794
-5699
11038
-10905
-10436
-3078
-6764
1014
9078
-2698
-8251
8232
2798
2792
4562
-683
-2265
-2329
9395
382
11764
1716
8977
-10700
59
856
3798
-1909
-8926
-2991
8288
4382
3743
-6031
5966
-4727
1720
-1630
96
4866
-7259
1958
11559
6156
6311
-3012
7630
4245
-2477
3356
1752
-2315
-5594
-5423
6942
9233
-1243
3115
-16243
4129
-8010
7903
-2940
2910
-5156
3756
-1798
8336
-6504
5584
3489
8119
-4060
628
-3961
-14510
1356
11224
-614
7287
-5746
982
639
1652
-6145
2693
-1596
7543
-3744
3120
-2388
-1491
4080
4791
1939
10093
-2074
-2785
10004
-3783
8602
1011
6697
-5071
-4927
-5593
5104
3770
9175
-11083
-4139
-12071
1398
3908
2612
-4130
-2246
2001
-1901
-716
2394
-4525
10178
19761
-6875
-9245
-9555
-173
10170
-13443
-3741
7643
4201
-6910
4572
-2835
-1575
923
-464
-1132
8728
-1462
4021
7586
5290
-13094
5691
8535
1649
7549
-5147
-6527
2032
3022
-773
-4924
4789
7456
-12893
-6735
1175
-3879
-13999
-10793
479
-1855
5997
13933
-4898
-4040
492
2355
15520
1848
3464
-2530
-7149
-11172
-633
3059
6702
-356
-6539
3578
4791
-13303
-13492
-5059
1798
-8488
-1451
10134
1030
-6811
4052
-7791
-384
5320
-4859
-5478
-8115
1011
-10019
-2015
-1368
13103
-4928
-4212
-1067
1199
14220
4237
-845
-5226
5238
10335
-17282
6537
-2432
-8740
-3005
7068
769
6082
7409
-7819
1467
19846
-7164
4770
-3359
-5815
-10466
-6123
-1777
-849
4112
-11375
16705
6756
-5202
-3937
-9319
3382
7646
-2220
8033
-988
667
2549
2410
-9945
-940
-11231
-14611
-6724
1002
7292
-7867
-1037
-18816
-4526
170
-3419
-1518
372
-11613
-7454
14002
-795
12984
1263
-23848
98
3243
1314
2380
15749
-5976
-1182
-3007
-9201
-24371
-6033
-9100
-974
8829
7112
-5050
12800
4038
-11266
-2253
-2292
-7203
6056
-5845
-11588
-6589
2789
-6529
-10110
-17289
43
4836
10434
15199
-13627
3933
15
-2937
9149
4059
-843
11690
5052
4579
1947
4226
-8178
-8260
9329
2815
5018
-3054
-6715
1732
9744
-12546
2925
-3869
2314
-7002
-11268
-10837
-44
5783
-2644
-5846
2105
-7095
-2784
6569
6165
10888
-2899
9066
-2286
3642
-19845
5538
-8145
5358
2004
-14529
-15976
8949
-11376
-7395
-11241
-21575
-10361
-5855
3241
5910
2979
10708
3520
3602
-15128
4742
18472
4033
1967
5767
6366
-9961
11746
-5624
-2028
-1445
-6333
11082
4026
-182
1833
-9245
-712
-10548
-1583
3033
-4766
-7102
8370
-5452
-2764
-1868
-2422
483
9617
9312
-1893
-482
-1522
8414
-5529
1517
-1274
10381
4734
-2630
-4610
6055
-5681
-3456
635
2063
4162
1269
2296
-2610
-2621
639
9582
1460
1451
5675
2565
7029
-1371
-5790
-13700
6516
12985
-15183
-8812
11084
-1270
-2982
416
-13088
7648
-6231
1491
3702
-4622
3957
10050
1912
-6619
6853
16753
3879
2442
1350
4632
5981
3242
3424
-742
-1726
-5251
14
-613
3325
1273
-9043
-1004
14406
-1035
10202
285
-4136
-956
-10575
9169
4021
-15630
-2765
-891
5577
-998
3693
-8126
1755
10077
3353
788
-714
-4252
4155
3738
12258
7192
-1978
-5481
6214
-1570
-3397
-2594
-2548
-639
-2610
6593
256
8025
3172
8176
-4814
-7582
-2530
-8929
-2864
-6531
3869
9135
-346
-981
-5949
846
469
-4101
3366
2858
10239
-6599
195
-2886
7200
3180
-2509
5444
-52
-4587
-4420
8686
2454
-1622
4675
-1527
1261
378
6020
-88
2832
-15273
77
-6586
-11248
-5541
11597
9596
-2475
-5229
2119
-4000
3280
2005
7640
-13637
-4145
3182
314
4669
705
-2485
1266
-4241
-9379
-6572
-6655
13959
-5523
-7070
4242
-1019
1258
-7670
-5774
-8684
-922
-4011
-7355
2690
9004
-5586
4651
9093
1426
-3396
-4846
3723
-10474
-9788
1092
-4672
5189
7503
-12970
1602
24613
9375
4622
9215
-2155
9001
-1546
4227
8760
4466
-2401
4828
2375
-2141
-17883
1713
3785
6009
-769
1231
5734
16338
-11841
6655
6522
-10586
-4904
-2320
1665
-17522
-15855
10051
-17405
2540
-10795
-14408
8788
-3434
-3179
-7769
6067
14799
-1092
-5622
4979
167
4914
1042
-1339
-6082
-2227
580
4762
-354
9471
-821
3743
-12048
-9070
8038
-18678
-1935
10149
-8785
-5595
-2034
-1891
10483
14321
-10035
5926
-822
-13972
-7854
6559
22444
-2636
2606
-2371
9791
-7488
12681
18556
-2670
8667
7587
21703
9940
-3359
6952
-7430
7344
5001
-4579
15415
139
20062
22698
10158
2995
6731
10437
20244
1437
-341
-1346
2274
6319
2830
8475
1767
-3398
-1467
-22444
-5682
-8895
10297
7153
-5944
11928
12848
3270
5163
-728
4413
3769
-1789
-22925
4091
-5392
-3788
12828
1866
7457
-13856
-4543
-7584
5072
-11593
-2703
12473
-11667
2292
-2295
-12136
-3576
17103
-9813
1824
-742
-3194
-10099
147
4774
-5383
284
-9473
4171
-2638
-7844
2019
-8839
-1137
-6164
-2844
10429
-798
3657
547
7132
-7170
-4060
2998
-501
2817
1083
-2382
5639
2363
3302
8131
1537
-7804
-1342
-7305
1804
-7221
-4165
4092
6099
8396
2223
8184
-835
-10712
7410
-18392
-1504
3984
-12904
-409
-4302
-9658
4274
9166
1854
4425
-7505
3076
-11252
4723
-3960
-5545
1321
-616
-1637
-5427
1279
7120
-1879
1699
3270
-1219
4191
-1661
2407
-16040
2062
-9519
-8721
-4602
2701
12357
-2812
-14868
4015
-6443
1314
-1486
-9760
-871
-4282
-1968
2817
2767
3445
-5608
802
-798
15802
-2853
-6395
13423
-8174
7446
1892
-3767
3863
3464
1643
5910
-1349
-5413
-3533
1290
5
841
-8274
-2706
6366
-1395
4685
11690
5704
13948
11910
12486
5065
-503
9859
-1501
-907
3962
-1996
-11848
-4294
4877
8704
1194
15511
-9761
-11983
-11508
8365
5760
9960
-11905
-3213
509
5874
-6
-8327
1894
198
1021
-1555
-5794
-5104
-13106
4043
3847
-2358
5601
-10267
15307
-10827
7421
-8528
-12476
-9618
10310
982
3648
-1809
-1728
12734
-4282
8194
8981
8287
3631
-1215
-6642
8008
-6530
4907
-24264
-3614
-4499
4799
4068
-10897
9484
-218
-2250
4697
12341
-2815
3312
-17235
2331
915
15987
-6034
-7858
-5991
6436
10564
8408
-9086
2732
3078
-209
10864
-3630
7308
1833
4212
7494
1009
9404
6931
-5279
4195
-2726
10506
-12535
3087
7320
-151
-10463
2013
-4399
9904
3318
9433
-3111
-420
-8677
622
-2892
9510
-409
-12416
-4313
-2965
-6563
-889
9283
2328
-2423
-9613
4836
-2551
8995
484
3981
6251
-13231
-3747
10084
-7088
2313
-2417
1859
-6702
11786
693
-6060
15096
-5477
372
-4087
-293
-15646
-651
2728
-15920
14138
-3902
10935
-51
7703
-7141
707
-1367
1069
-6542
-1707
6500
-2837
-4661
7639
-3361
2526
8745
4828
-6649
11430
-6121
1807
6117
-10651
-3684
6617
-6366
13602
-6461
-9678
-3763
7140
-2972
4747
7284
-1003
3951
-1482
-1895
3362
-16196
-2314
-13167
-557
9025
3403
-2507
6303
995
-3294
-1713
5329
-3771
-792
-1249
-7775
-817
-2438
-6278
-3021
-1528
3090
-5002
2425
-1295
-3136
1911
-5585
2721
5875
-6124
4546
-2776
6543
8108
-2300
-2749
2028
7994
5636
-9296
11169
-279
6388
-1501
-12
-5101
4839
6150
-11397
656
2558
4268
9892
-10058
341
-3668
4516
-16520
-1789
2093
-6
-12620
408
-4968
-786
-3505
-4945
-3392
1209
-3915
-1287
-3154
-2604
7532
-8153
6145
-4606
-19959
306
-11295
1239
-2836
1499
-10793
6032
-3191
-18469
1311
10167
16545
936
146
10383
4712
2438
-5696
-5469
-4513
3932
8481
2278
3364
3081
1802
-237
1225
-5031
1412
-536
-4978
-3218
-2711
-2532
-7458
-8588
-11167
-9742
-1834
3904
4377
-13221
-13656
10820
2777
-8360
6040
6865
-7754
2011
-5941
5953
-8874
7729
-2543
3636
-2511
5545
-5237
-259
-6359
6725
-5644
-8920
-3642
-9527
-18809
-5107
12194
-4379
-14607
-12772
-4911
-3600
6544
634
2815
7142
2835
2711
864
-8524
965
-6845
618
9316
24899
1998
-4905
10691
-58
-3154
-9208
-2992
12333
19170
11562
5821
-10210
4618
2281
13104
-8824
7590
-700
1565
12148
6317
-3143
11975
1100
3952
9021
1423
1480
9063
-1587
-39
-10702
-11729
-244
10400
1257
1488
-12769
-7222
11608
-4636
-2452
10135
14516
2157
376
3183
-1262
903
-1223
-2071
-3744
10073
-11932
-8394
-3773
-610
3866
226
-5064
8464
165
-14337
-1396
-7712
-7824
-6744
-1109
6557
-3631
-67
-15449
-10830
228
15176
-9819
11108
-3632
6556
2182
-12472
6630
-8446
-204
-6282
5954
-5065
-5388
-1499
-14323
-11701
10044
-1759
-10062
-309
-2164
-208
5362
376
-3364
-4869
-111
-4110
-6835
-535
3059
2778
694
-12680
-283
-733
-7168
10093
3930
-7913
12909
16622
-4829
12255
2891
-7881
20210
3066
6230
-6050
4939
23076
-3472
-6167
4080
-5087
-8332
-8080
-1624
-12965
-5569
-10004
8840
4981
-2420
8568
1096
-8725
-3915
5690
-6475
-3757
4044
-3127
1873
-12114
-1922
5235
7185
-4883
2640
4224
5982
-14542
5411
-12961
-5483
-583
-7611
21351
-1830
-18954
5390
-10139
12135
-7065
8612
-6089
1193
6961
94
-3699
-7316
10600
-2122
-3603
-1100
1931
972
5367
-6095
135
4710
-4019
4211
4441
-11418
4841
1692
132
-2492
15379
-3750
8051
-2283
-1911
-5221
12414
1525
7707
-6856
24479
-2673
-4495
1796
1055
2664
-1702
3379
-5465
7816
7651
-6387
6600
-73
-109
-690
7142
-33
-8501
12039
-6071
-7578
159
3232
-1667
3646
10816
-5508
8336
11324
5564
6320
4661
444
11393
-6252
-2078
-2007
10478
45
-2211
4585
-9351
-4373
6426
-27
10545
7655
-5115
6913
2877
9472
-13526
-5013
-13132
7045
11201
3310
-4855
15801
-6211
-4853
-9728
-453
11105
7728
307
3397
1684
3370
-6341
-1195
-743
-114
13805
5568
-5198
-7378
82
569
5384
-4890
10608
-7151
-1923
5720
-1650
-6386
7159
3538
-4392
-9221
5957
833
1884
-366
-3832
-1232
-2339
-5987
4985
5520
-3114
7207
8064
-7252
-2583
-13909
8502
-9840
674
-4503
455
5259
5463
11481
-17370
12918
-4151
1276
-4125
-8142
5879
-3703
3662
-192
-13509
-1007
-2865
2502
13522
4474
-3759
-5327
1271
-1005
-5098
3202
-3621
-4283
2142
-10593
3061
2072
7414
-1994
-2998
921
-3586
5056
2026
-1042
1315
6878
-3602
1266
4444
8855
497
-5323
9479
-4069
17714
14549
1830
611
-4971
67
-3066
8599
900
1966
-11423
2176
-15556
4295
10995
6479
5273
-16355
-11190
-3981
2575
8478
6307
17334
3931
-5546
-3247
11654
-838
5928
2137
1972
-5463
2551
-10021
-8069
-1022
-4005
-9211
8711
-9087
8430
-1741
7051
124
2055
7317
-12375
5951
2868
-3350
3796
-1139
4374
3105
-2063
3449
2916
13997
-11310
-2874
-10319
-14533
-3040
-1730
4983
-10649
-3617
-8727
-9336
17998
-1928
-10456
-19802
-2969
3049
-14844
-5164
5094
-25751
3164
-3515
-5177
6582
10796
9332
-7033
-11193
5017
-14440
-5770
11404
-9552
1879
2155
10464
13285
-4785
4352
11984
-4300
3826
-6712
4323
32767
-8180
-9322
11918
-1369
3603
1551
-11224
-10609
-5454
5700
-12699
578
7074
6271
14392
3188
-11194
1602
-8367
-10532
3180
-8761
6479
-10645
-14541
-6459
5336
11316
-20000
5290
2228
-11080
8921
8611
-21298
-2722
7952
-11987
-5854
-1939
3600
-7176
9146
-3040
6514
-9446
-1653
-19859
4411
19938
3050
-7694
4545
4803
-3497
-11742
-4626
327
-3148
-14795
7149
14631
-3795
11170
-12672
-5310
-6811
-3440
-5394
-4410
-2639
1477
23256
-9019
-6901
-3595
11501
-4888
7060
-9637
-411
-4570
-971
-186
7182
-156
3588
-14159
6166
2331
12310
-394
-1660
6931
