-9383
5529
-11829
-21471
7220
-1459
4194
-11297
-9671
-32643
7563
32767
15316
4311
6311
2914
-5894
-19123
3482
1250
716
10996
1732
10912
12360
8015
2996
13023
7993
-5543
-22217
-11461
4344
16379
-367
-18815
8605
5096
-5056
2018
6652
10176
16111
5488
578
1061
2002
8675
5308
6042
4437
1146
647
4494
5139
-12471
1813
-1097
-8178
-716
6057
-17776
-8114
345
-10172
-10847
-13040
-7183
-2165
-1134
16917
24761
6901
8204
1864
15139
13590
-5966
5333
1854
-5519
5364
-8782
-14337
-4173
-25186
-9953
16078
20057
14541
-15171
-13824
-10332
973
-8248
-14834
-7405
-9546
1059
-3091
547
4127
-7173
684
16400
14063
16127
8096
-15060
-15732
-1768
2552
9093
4666
5131
-972
-16986
-2624
-6333
-4531
-7235
-4461
-9535
-4677
-897
-2114
3373
-6116
-10520
514
7427
11538
6903
7266
13509
18367
19338
5857
8852
-323
-2411
8379
276
730
-19245
-10985
-13341
-9626
734
10795
8216
10915
14602
-10568
8662
22410
14704
22969
-1424
-19023
838
-8071
121
13090
3198
17074
16170
5368
3647
7157
5097
-5015
-9948
-6771
1225
-5630
-13470
-17127
-19524
-16917
-17220
-9393
1785
4526
12819
11273
20732
22686
22924
-10885
-5616
-7830
-2738
4145
-3269
-3740
-1392
-8144
2746
5278
-8635
-7337
-2735
5939
-1443
10469
23132
-2487
7271
7437
8124
1407
3146
9648
11065
5326
-4061
-3382
8300
2739
-2112
-6402
-16116
-4861
-2138
1847
9545
16398
15692
7972
1413
179
5231
-690
-3237
-12412
-8652
8235
15516
9421
242
-9720
-16099
-23365
-16195
3448
9092
9840
2512
-10631
1870
8202
-26355
-7563
-5135
-16648
-3934
-3264
5238
1940
-365
-24553
-28416
-13927
-19519
-10290
15973
17613
16587
19856
22229
10777
-6559
14919
506
-3454
-23656
-4637
-2261
-15179
-6257
-25352
-20103
-4419
-5632
5739
751
-12027
28879
15820
-15576
12156
1320
-24904
2714
-4196
-16228
-13632
-17221
-8806
-5320
-1246
-3338
5600
-8548
-7911
16605
20104
-6764
-1547
-11511
1744
8430
11782
18771
5240
-5081
-3514
-1585
-12651
-12544
1093
2872
-3831
8920
-5594
-8317
-11459
-18311
-2135
-5593
3896
7870
-8639
-5536
4612
13225
8150
5199
14433
3620
-2472
267
-582
-6380
-15911
10481
11825
-12743
-872
-9856
11765
8970
2542
4058
6782
10275
13242
13829
4267
11228
13933
1666
-18560
-14769
2259
16370
12073
-14563
11373
12833
1481
-1005
12195
14710
9494
7840
-2223
-8466
-315
-13935
-5425
-9559
-6314
-1717
-22349
-20486
13675
14719
7579
7605
11476
10575
-10322
-7738
-2799
14649
18248
12806
6856
-9510
-15791
-2759
-2812
-3249
-6188
4055
20080
4652
-6306
15959
4849
11243
20141
-2764
1957
10128
17107
17575
7820
-3811
-4341
-1189
-17149
3461
8815
29918
2178
-2649
1150
-25559
9515
4171
5492
6925
4216
6089
8354
5371
10343
8356
-11269
-5744
-5149
-5898
-5555
-12178
-6253
-1083
-4570
-1680
-7819
-6453
7785
3925
-2668
854
-3600
-23538
-13890
-5398
-9457
-20061
-12699
-9568
3457
16767
23382
-9495
-11935
-9483
-16914
4519
523
882
10617
2039
6498
7097
-4879
-14026
-4644
16176
14869
10930
6538
16303
2723
4518
11282
2463
3535
4384
-1797
-1959
-7765
-11920
-5245
-7108
-6372
-3009
292
-7896
-13550
-1116
-11549
-4430
-6152
-2796
-9358
-1972
-3346
-4041
-3218
420
728
-8460
-3691
-12822
-9929
-12253
-9330
-6091
27250
3231
11356
-580
-657
8486
-27463
-14676
9180
6553
4312
3400
6682
3771
-1450
6545
1774
10952
8350
2317
4935
9051
4552
-4513
5241
-1912
-9828
-10219
6781
3787
-20629
-12042
-5107
-8606
-25014
3528
-2887
-9282
-19581
-8698
254
-1117
1535
723
8157
6665
4986
5179
6750
737
1030
3679
6909
316
3237
7734
3581
-1080
9051
-4749
518
17897
9171
4130
5401
11944
-2313
5642
767
1730
5546
8927
9849
4523
8790
-2265
2226
8228
6552
7469
-5092
-3073
-2329
-12354
-5823
-3420
1023
-568
-4538
-2564
-7244
-4742
-1579
-6495
-12287
13310
29762
21880
-6718
17332
22843
10794
7576
-125
-4679
2777
7379
-493
-18133
-8990
-13096
-10287
3479
2400
8863
5979
179
-7917
-9173
-6164
-13084
-18734
-4893
-2094
-5111
-237
-5442
-2728
-8937
-8991
-5001
-6891
-4011
-7712
-4923
-10533
-5426
-2183
-1830
-18167
-10062
-16338
-9227
14016
5182
1314
6950
-1511
3915
8362
3824
-1386
-10687
307
-3721
-4038
-4067
1829
-664
-7910
-1253
11074
8480
8350
4006
5105
16249
-3168
-8291
4824
-17835
-16996
-6670
5206
22035
23370
18255
-4645
-18077
-20371
-14634
822
4473
-707
3014
6206
-6884
12587
-8885
-12829
-13623
-14907
-5436
-12952
-6909
-874
-4298
9088
6124
6714
7030
12668
13783
10467
4214
1042
8692
10314
3128
-3332
6643
7242
2999
2913
-2220
-18746
-12918
-15309
-15164
-9672
-1149
4849
17021
13766
3427
5670
2587
8101
4813
2844
5001
5195
5764
-3623
-6154
-7884
-8259
-12228
-10654
-9797
-9003
-4562
308
-6505
25676
-5626
-3718
3775
-15997
19770
-3955
-8062
-5264
-10084
-6210
-5449
-3856
-5521
-1795
1901
-2808
1070
1949
9454
7306
10500
7867
5118
-4674
-21320
-11446
-3483
-13922
-6930
4117
-3253
2883
15835
10189
8172
19960
21255
6059
4418
2347
-4811
-1022
20376
-5627
-14474
15439
-200
13874
2954
8184
11508
-1823
2146
1736
-6132
2276
4975
6972
11579
14783
12177
7241
4436
6158
2947
5067
3414
4272
9224
2621
-3396
120
-1085
-13335
-9499
-14581
-5157
-9374
-9740
-6196
-2312
-12752
-7493
3255
-7406
-3413
1424
1994
-15238
-5537
-2345
2425
31236
9089
147
-7329
