2156
-1802
-2309
12207
-2312
-6557
7496
-8696
-4123
14478
-8823
2192
10633
-6097
200
-5202
1841
7417
5401
7823
-5623
-23
-11227
9650
9970
621
11241
-4819
-2040
-7118
-4538
12001
8514
-12498
-2174
5110
-2396
-5776
13421
-9600
11638
5656
14174
-1548
6292
6012
7200
5482
2132
3136
-2260
-3865
-2041
-5695
5541
3369
14194
13056
5174
5659
-8546
5660
-12272
5928
-12947
6163
-6239
-5104
-3972
-8300
10377
-5508
2156
-4307
580
5982
-2256
4077
3023
4197
-8509
10168
2124
-4733
7550
4602
5169
150
9547
-3279
407
-10107
507
239
-2417
-2198
191
14573
-12570
6156
6399
-6475
6122
-5567
11465
10728
-19532
7644
1740
-6277
2738
-1843
7252
-12836
-3116
12041
-5834
9296
-6243
1973
6981
4764
-13194
18691
468
-1486
3627
-1785
13373
-5529
10108
-8352
7609
13132
-6133
-2681
-2831
2277
-7114
-1991
9894
2700
7374
19501
4769
4484
-634
-4588
691
-11935
-5415
-11166
-10474
-4010
5736
-4425
-5560
-306
876
-7391
-7101
-7500
-10320
-3668
-8954
-18513
2040
4413
-11162
-2670
10069
-4841
-16106
-14294
16861
2859
-1985
-7384
-8122
3897
5602
-1882
-1066
7469
-1814
-4406
1600
8525
-8028
-6534
4346
-755
-2423
-3834
2513
5587
4577
2138
-8319
-2241
17730
7444
2911
3524
1611
2697
-11628
4320
-5453
2803
28914
949
5950
32767
-6435
19766
18333
-18100
-7764
-24601
-2000
-12268
-8933
2661
-28646
10146
6450
5033
10827
-2148
1112
4163
8140
-7563
-6390
7404
-2067
-5079
2049
-1646
1378
-812
2327
863
3481
4140
-1138
3990
1870
1015
-336
63
-654
606
2154
2056
7631
-529
-500
2024
-788
-1601
-3811
2422
3868
-1398
1636
6487
2117
-224
-1834
-16188
-8168
-191
4286
3227
-552
3858
-1563
3050
-11169
-5019
4474
-4253
-3015
3251
-10064
1995
-4026
1561
732
4557
-1194
2404
-2563
-1774
-7583
1651
-1833
-742
-8691
10166
2103
1253
-4583
-4872
-12094
-5133
1789
3249
-6823
-8445
-2792
-6064
3383
-2030
-2236
-2314
-6049
-5850
-3223
-6332
-4918
-2267
-8638
-5077
-2885
-1652
-7
-1366
-3149
-4332
-8592
-8467
-815
-7740
-7934
-3033
-5107
-7117
-3656
3623
-1785
-2437
445
-4149
6515
-9130
-4214
-7153
30767
13408
2116
3491
-15948
-13606
-3237
29285
-979
6925
-1763
766
345
3326
4501
-6400
8818
-2023
-9602
12108
1317
-9401
7453
2951
-1015
6998
3020
1298
10518
4327
7257
769
4667
9334
-5468
2566
863
-5841
927
-1576
3982
12554
9057
5043
12659
5178
-2987
-6471
-12534
3300
6365
4966
-14795
-15251
1485
1687
-8124
1584
-7628
-2225
-950
-1592
5579
5147
-1504
-5006
-7460
1104
2585
3168
-292
-5226
-1031
-3934
1781
-1750
-2132
1108
1118
-8447
3319
3034
-5068
79
-45
-3243
1
1724
-2774
2458
-3868
2253
2470
-266
-4466
-4341
-3532
-1381
-845
-4549
-1000
-715
3797
257
7646
11364
-3942
5116
1689
-1805
2111
-3504
3567
-5322
-6122
-4462
17104
3098
-2019
-8491
-1029
5699
9882
19547
-4452
-5157
-5876
-1360
12482
13083
