-244
-3553
-7833
1408
392
-19129
-1400
-11693
-2469
-2572
-3152
1391
-2572
17501
-14822
-4081
-765
3358
-8228
2403
12739
11245
-1949
14175
3929
8023
10529
13278
-13776
-14159
-6553
-4830
-10263
5203
-9749
1852
-3643
6157
7927
7035
-7295
2505
4056
2725
18553
-7659
2390
4892
-18659
-3583
8541
-5390
4739
3619
-12233
4297
1776
-18790
3903
6350
8213
4870
-3007
-5159
-10904
3658
-12253
4648
24681
453
-23973
-3172
4277
16543
-6733
32767
-8881
-7335
570
-22977
66
-6223
3063
2465
13033
-3827
30510
-25306
-5626
-6422
14266
4892
-729
-4562
5085
-4207
-2216
7136
11526
10693
-1022
1038
-6336
3631
-3537
-9992
-3778
-7085
10665
10665
5058
2528
-15140
5122
-4849
6323
-521
14692
12078
1287
-7438
-19133
-7121
3450
7319
-2570
-2321
-840
1017
6226
1127
-2525
448
-7847
-10161
-18944
-7482
1540
-49
-12712
-13400
1667
12686
-9647
11155
6855
-2113
351
14793
-12131
3586
9358
6980
4205
-857
-9544
1212
-1337
3322
11916
3265
-6893
10424
10295
9304
-4314
1762
7554
-16178
-12942
15469
5212
-11724
9516
-6355
-106
2259
-3684
-2597
9345
11072
10684
3711
1092
4727
71
-4823
-430
-17747
-10138
-13713
-11467
-2881
-9786
-714
-13876
-5852
-7642
-5161
6225
-4543
-3562
-4087
-565
-813
-4235
1682
6291
-6358
-1440
-3182
-4829
2308
-260
-12367
13101
3916
6564
3784
11654
3604
6853
11350
-2550
-12584
19721
6033
-5683
4160
2815
2046
-2037
-13944
-18553
16957
985
-4973
5395
-13706
-11582
-12273
516
4687
-13529
-4383
4648
-871
-2211
2921
685
-5822
-4245
-3142
-26394
8850
-14834
6723
4359
2197
-11434
-3564
-6187
4445
-809
-3458
-1749
-8590
-5462
-700
1829
5052
-8826
-8570
-1091
414
-1069
-15720
-15396
6165
-1869
6277
-1470
-2547
297
-2483
8281
1559
-5613
8102
466
-20289
-10301
2660
10033
13437
2305
-5757
13120
9489
-14377
4819
-5955
-14762
-5025
-103
249
-4816
-6726
8273
2189
2297
413
-14685
-4150
3215
-9998
-9415
-3549
-5015
3024
-1139
-1291
-2920
-3478
6354
14453
-1147
20713
1434
8207
-692
12911
6958
-3298
-5325
11425
2800
-3531
-2008
-3752
8369
2845
4997
7652
8980
-7177
-17514
3762
10956
-2393
-583
8359
-5877
1762
16136
-1770
-2539
12952
-18634
-22601
