-5205
9343
378
-10499
-2916
2940
13
-280
2816
6277
-4390
-582
2588
1990
-61
13907
-4342
-12485
-2888
-3975
2477
-3206
4057
-2818
-4612
3282
3619
-11978
-3865
-3266
-4283
-9061
-46
-6046
-6879
4014
675
-10843
353
-5323
-6091
10544
14045
987
3017
10079
-867
5945
2108
-3472
20138
-5492
5965
-9014
7360
-11760
5198
-316
-1362
12365
-7233
-8247
-10606
-10376
9143
-676
6314
9063
3177
10086
11182
2028
-3562
-5264
16240
-6364
-1227
3834
15931
-19874
-1111
6803
2419
3981
4319
-6839
5626
1220
-5436
51
-3601
17240
-4809
-14271
-175
3186
-1015
-11570
-9204
-12971
-3289
-16581
-3176
780
297
-2642
7894
8349
2484
-98
-9878
-12533
3361
-5415
5192
2249
1819
2035
-5374
7884
6927
-4949
-2354
5063
-1219
8174
-289
5274
-11203
-9268
-3836
1969
-3051
992
5782
-4178
-1266
1168
-13599
8023
729
2573
-3581
-4393
-9273
-226
-1176
-3365
-4282
-5010
-12370
15481
3573
3060
-1189
12796
-14978
-58
-1950
-8572
-886
6794
-2073
-5107
-10471
-359
749
607
-3290
1645
885
3715
-3970
-4858
572
1090
1568
4364
-4235
-6646
-5122
-1208
1991
-5992
-1690
-6587
695
-11686
6860
-5846
-1667
-9438
-2754
319
-9559
-6785
3493
-2999
-4402
-6926
-2679
-222
-255
-3339
-5293
2007
196
-545
-227
-5495
8817
2155
-1366
-7165
-1675
-9079
-15910
-2714
-1055
2575
-2012
-4831
-5376
-10050
-7044
-1989
5130
-4568
-3515
-2618
-5422
2847
-2953
-885
-2179
-3161
-2314
138
8242
-9453
-4411
733
-5553
5225
-1401
-3815
1609
-1863
-4265
-4267
-1223
4464
859
1117
-8701
-7586
-1793
-8188
-921
-10733
2997
-5189
-5124
-6999
671
3664
-3320
-1273
-9756
3043
1167
-3064
-5868
2824
-5982
-13552
3418
-9061
-1139
-11891
-3191
1231
-918
-6102
8131
-4965
-4275
-7713
-4258
-12824
1799
-14511
-13275
-9585
-2643
-3089
-4969
-2896
-4875
-11555
-4013
1639
-6055
-4604
-4739
4766
-9259
-137
3338
-7908
-4938
-5183
3226
-7431
-3590
-1934
-7428
3137
-2904
-12880
-3210
-8776
10849
4785
2510
5492
1052
-13588
-321
-48
-8204
8501
3164
11937
-6571
-1774
-1678
-1915
-2687
-2776
-10593
-7173
-9235
2262
4686
8762
6337
2720
6738
4799
1942
1994
-3916
-2164
-11515
-4914
-9234
-5556
5283
-2842
8178
11989
6526
507
11927
12135
3874
5092
2980
-11243
-389
-1705
1872
6055
-1119
-11264
-597
-8067
-1034
-7641
-1507
-13523
-7880
-11
3362
4615
781
-3511
-1512
-3705
4876
-8078
6855
4943
-9498
-22439
6741
380
6834
-6509
-4642
-8222
136
8023
2932
5220
1632
-6875
1343
5799
2881
-4130
-6735
-2824
-7553
-950
9511
-4695
1052
7125
11248
21526
-7759
-6951
11137
11696
-12970
-6372
8686
11181
-18624
-15268
-64
-5477
6412
3637
4859
-8542
6435
12036
4817
1534
-11121
-21124
1296
1416
1457
596
8621
5385
-1690
-4810
3879
-839
-3121
9898
-1099
1160
2891
7041
9910
12828
812
2129
2856
-1060
2421
210
15289
16590
-14292
-19978
6278
10652
7490
12133
9365
12912
-6198
-13862
-1602
-976
-997
-2270
-3136
2419
3336
1531
10471
11454
6555
-4598
7403
2028
9800
8780
-4128
-5010
-4937
-5990
-5381
-12727
18251
17888
-904
-3884
-14221
-20979
-1042
3362
2042
-1963
-1117
-2733
-1315
-5179
-4989
-3810
-10045
-12975
1304
-13872
-910
-876
3836
-2351
-2545
1171
-8527
5411
5238
-4563
4551
1957
8737
6671
10185
5106
-3446
2053
-11644
-7617
-2728
-9474
11966
18065
6239
1107
3315
-7948
4247
-1254
-3747
6988
14175
5857
829
6827
-7371
9107
12521
11933
-3332
-10004
-11644
-1070
7155
2150
8463
11002
10913
-4281
6658
825
10726
9036
129
-11125
-863
-1054
-11441
-17046
3491
5015
-574
-2031
948
6712
-982
5508
-13195
-11892
-10166
2569
4946
771
-6431
-9776
4120
6492
-593
-9072
10728
5575
-5036
-1749
-6356
3688
3757
-1009
5155
-7574
-4544
-4791
5474
309
-14069
-6968
3839
-1634
-5815
-10198
8649
20919
2721
9059
-264
1867
4914
12273
12255
13118
-4700
-10625
-2079
-212
6738
-4439
4820
647
-6691
-5107
2135
3709
-781
-3184
-1619
3776
-5522
-3081
-4108
-8561
-5868
8518
305
1452
-3107
775
-3062
110
-4034
1343
7210
2466
1901
1907
3177
-3684
-436
8328
-3830
2179
1553
3335
1335
-2414
-6576
-3958
-8483
-1358
-733
-3987
470
-2636
-4901
4586
1016
3765
-5764
-1766
1593
3498
6693
13018
-6895
-9564
290
-9945
1991
4562
-1923
7553
-9807
-4764
2517
-5248
9433
1923
-56
1708
1526
653
2792
6228
-5020
-3531
666
-1035
-5954
-4337
2539
-843
-1386
3819
2429
445
250
5188
-6720
-3060
4963
3719
3053
2645
-3957
4254
-151
2780
-1644
22
7284
8181
-2987
-2885
-982
-2823
-1204
-2572
-3668
7181
-9934
-11557
-9361
-10755
-513
-4690
-3534
959
3525
3769
2389
-3063
-4182
-1196
-5561
-641
3742
-3722
-1806
-3076
6649
2004
4131
3255
-7812
40
-626
5177
-1989
-3271
1333
-1317
2623
5960
-590
4264
3489
1979
-545
5892
-6425
3015
-4381
-606
-9774
3506
10329
5480
-2372
-9993
-5120
2801
-804
3332
-4921
-472
4849
8608
-4785
1851
-2938
4075
2832
896
1511
3494
-1039
4057
-5604
-799
-4889
-4864
3319
10162
-3918
-2817
-69
-7670
-410
4951
-5002
567
1453
6342
-4542
626
2029
-6937
4088
-9544
557
3776
669
516
-4311
-446
-3880
-557
1655
5782
-4093
6790
-916
5620
-6711
1717
-7248
1397
-2701
-4954
2574
3827
1065
2777
-2365
-1236
2016
-2298
-3572
-4932
-8656
-7853
5031
-169
-5183
-3544
-2009
4486
-7146
-2684
-4938
-1652
1904
951
2411
8358
-4488
-1779
3488
1348
-1143
-4147
3836
6964
-2874
844
7115
-5859
-6065
-3134
-1286
-5785
-5545
-8796
-10636
-9043
-8792
-1373
-731
-403
-383
-8458
-2105
-4227
-3068
2156
-6243
235
-4944
-6274
-2351
5448
1092
3079
3361
142
-3991
-801
-7265
-9055
1924
1064
-4690
-3237
-5163
8103
3680
658
-5799
-6117
2220
-2368
-4409
5007
5831
6157
-4473
-945
4834
5489
-3816
1214
-1654
-9815
-446
2970
-4280
-2937
-3557
-5189
-6854
3544
318
2037
10078
11903
7600
13285
5846
-1062
3073
8081
-8008
-1531
-8322
-11064
1897
-3809
6557
10120
-1168
-2383
-3450
-1622
-3120
9215
9040
10573
7488
-246
-6244
938
-3182
-6604
6695
5134
5145
-3472
7121
8280
-4114
-219
1181
6046
-3546
-8923
-7206
-2017
-442
-36
5600
-372
3377
697
11460
2498
-2986
1235
2729
4706
9616
13251
4662
7076
-549
-4013
-5625
-5052
-9394
-7404
-11729
-2544
-1664
-11723
-16160
-8858
-8346
2209
-7888
-11965
6424
5980
7403
3125
8957
6762
1805
4038
-1564
3692
12332
5230
-7389
-504
5399
4918
-4569
275
1060
-52
-2487
-623
-1011
8086
7027
6802
5417
11995
-5109
-5212
-6969
-14625
-7677
-12991
-3839
-9115
2953
-5891
-3254
-4346
-633
-13145
-3812
-13810
-1130
-1989
-5975
-2402
-2403
-4115
2575
122
-4765
-1326
-7444
-2602
-3833
-2109
-3230
-5601
6945
-5922
3859
80
5381
6033
2697
4954
-12771
-14002
-5339
-18372
8812
691
5161
-2190
-1712
5300
1724
-10300
-749
-4819
-3237
-8718
1992
4763
948
-4773
-1824
2034
1274
-5092
-5353
-5314
6133
-7431
3249
-3300
-1545
1692
7233
7366
10958
10046
-3056
405
-3594
7698
4177
1459
787
824
1937
707
-685
-561
5873
1386
11076
4776
12657
17910
20356
21707
3536
5511
-6328
-2365
3760
7661
2577
6895
-10112
-15792
198
-11454
9008
7639
7553
10063
-20683
-7342
-13162
-18443
-1877
-8310
-1587
-5440
1774
-740
-9
4869
-77
-3494
-5448
-9824
8397
11207
3055
12323
202
-3149
2788
261
-7264
-1079
-14758
-13350
452
-3229
931
-44
-7953
-10042
-3348
-9556
-619
2717
-1302
10274
-8439
2067
4304
6569
-707
2601
-2547
6528
-1004
7186
792
513
-4949
6805
-1738
10272
803
11753
1727
-1466
11664
1628
14765
1056
6351
3160
15455
9476
4348
-7035
-6337
2322
1781
-2685
8059
-2175
10340
14726
7722
19335
1598
-9873
-12306
-10207
763
748
4823
4781
13101
4319
3570
7487
10268
16318
17448
15692
-14565
-16106
-11949
-11452
-5877
-2036
-6153
3985
-544
1520
1615
7246
2707
4684
666
4660
-4671
1314
-1663
7054
760
9769
3938
12681
-3096
3732
9758
-4588
11555
6058
-416
11108
2431
5179
-2916
1807
-1856
4208
-292
-5021
-10900
-2151
2103
-749
1636
-338
-13008
-4902
13209
16173
16991
24042
-2528
-1572
-3025
34
-17949
-23781
-8763
-26076
-1089
7718
6508
5810
1701
-3855
-4823
-3196
-1454
-5412
3071
3429
-4702
-10661
-5539
-6143
-7354
-6884
1624
-5992
-2404
-4555
-13042
-11627
8384
-7768
-7028
-5181
284
-8060
2292
-633
1877
1214
-1564
8796
-7679
-2782
1060
-5162
-2415
-6610
-1484
3378
12513
9056
-2677
5804
2491
4620
-355
5875
3472
-1910
4875
7771
-2895
5595
-4005
2775
-404
3458
2938
-46
-2245
-8041
-10401
-14579
-8370
4772
-5753
-4558
3730
16601
9794
12797
3305
-5288
5535
-2628
4504
-4343
3429
1405
-9513
3010
-2022
6055
3885
-7149
-4378
-915
10658
5389
276
5200
-1919
4927
-174
8467
-2489
11662
-2305
3331
1051
7191
7245
12778
-9969
-14056
-10405
-13733
-4704
524
-8002
9080
373
7533
4634
5929
10650
8940
4544
11820
257
2831
-2215
-3257
5247
-8
4620
1456
5718
10903
633
2414
3523
-1289
-3885
-14106
3999
1052
-5704
-12943
-8874
-8065
-7218
-11806
7221
5186
1719
3371
7475
283
-6133
-1613
-1745
4347
-2940
3443
-1507
3420
-154
750
-17908
-4537
-17873
-20347
1623
2880
3412
-4665
8496
4272
113
4034
2043
-17410
-6247
-5005
9455
2255
2630
142
-6725
-4006
-11094
-6281
19532
10101
13338
19403
-3466
-7094
3387
-6335
-389
-897
2016
-1567
3311
3258
-8507
1577
-3144
-6922
7504
-1154
1832
-12843
-8088
-12503
6162
7796
3446
3592
3267
-14966
-2046
-4386
-4603
-253
1249
9507
-14767
-3123
-12488
-5640
5037
9204
15971
18399
-290
8310
5723
4205
7980
-293
33
9249
6492
-7764
9609
2956
9551
9404
13401
3359
-12601
-12413
-19885
-13039
-4079
3320
1724
-1399
-1982
-4140
1921
-5287
-9727
935
-5631
-11997
-1679
-5174
-7665
1546
1288
-1166
3830
12795
74
4142
6143
3059
-4705
4168
-224
-2511
-4985
-3681
-6169
-5141
3517
-7052
-602
1408
-5202
12
3153
-287
-2724
2460
1313
1675
-753
-1693
3498
6851
1113
8479
1057
-487
-11841
-9899
4963
423
5170
6811
3765
6131
-989
10880
5062
5109
2112
5114
8468
6572
673
2334
5819
1386
2435
7042
10246
5742
3097
-4
2267
-710
-3061
-5652
1160
2107
-6291
5187
-3537
-3749
-674
314
-5269
-6264
270
587
329
669
-2300
3371
-853
-2596
-435
4695
3843
8535
-492
2924
1570
2287
3757
-4264
-4371
-7577
-2893
3012
-746
1985
41
2723
6381
7259
-1314
-5387
1793
-10653
-1048
-7403
-8888
-5000
5064
10980
5083
1849
12027
-1077
-457
7591
-2812
-3142
-2253
-4802
-1534
-1829
-2715
4343
432
3687
2774
11639
-5043
1771
-4201
-7600
569
1587
-323
1926
5570
2565
1650
10498
-8431
-3773
-5102
-8829
13
-1290
1067
-479
-2572
-3039
-6530
-9647
6103
2139
5286
3224
4836
-1202
424
1976
1676
587
-251
-3812
3428
7381
6371
2414
1502
-628
2730
-1313
7612
7026
3102
5543
2754
3135
-849
-5264
4754
5245
11509
2241
8125
4019
342
7055
-4434
3955
2085
1366
12184
7544
2799
10061
7613
-1548
967
535
3361
7458
8052
6909
-3667
-1396
-708
-869
6818
6690
2538
2408
-11126
-3541
-11237
-10235
-4275
-5013
-2976
-12009
-775
1779
2668
-1221
1849
-405
1835
5377
2243
6841
5342
12346
4729
3568
4302
4181
-8633
-7900
-1441
2828
-4143
-4489
460
-528
-4809
1025
1794
1038
6947
4061
5682
-2549
3217
1421
3343
2684
3633
3753
5301
87
-527
296
-3652
-3495
2615
4335
4209
2671
1906
7048
9594
7875
6860
6975
5184
6599
5396
275
990
2391
10990
3486
4340
1297
8123
6963
2827
-1118
5554
-434
-3719
6588
6550
-2742
329
4074
6073
333
-6
-1398
2685
-1106
3510
5791
9748
8837
9782
8616
-13349
-9107
-5774
-1575
872
1109
-2082
-1995
4441
7522
5620
9851
-1906
0
-2108
2949
2169
2213
7073
1138
-201
-5649
2996
2426
-4278
4114
4024
2612
8353
896
4456
-4395
6385
3533
2346
5080
-3823
-1265
-4773
-963
-6400
2357
-10937
-1949
780
-2720
1543
7726
2847
11850
1717
8877
-3124
646
-1822
-377
-314
-822
-8244
-4126
-5497
-4392
2889
-4837
5176
4517
3244
-340
-1576
3221
-2356
-1021
-10480
-1984
-7989
-2946
1416
380
-425
2957
-6530
4606
-7371
-4587
8253
-6861
-2659
4065
1500
5350
1410
-6371
-5867
2023
-2647
-341
2210
5986
3896
6770
-4283
-1847
-2231
2989
9404
8344
1153
6260
1506
5631
4276
2528
-561
-5151
5785
5140
-3993
6883
-4480
2986
-541
1533
3264
8179
8310
6235
-304
5588
-3193
-2351
-1908
-3570
-4356
397
10184
-1417
-2606
2460
3408
3070
-1780
-3582
-6331
-2193
-7081
-3296
2523
2475
4745
-4176
1017
-4765
7134
8229
-735
570
5837
816
5113
1273
-3143
-2419
-702
1120
-4733
-219
5883
1050
-4506
5931
-8563
4091
2463
5757
3499
-506
120
2668
-5037
-4279
5702
-895
6307
-3196
49
5983
-2172
3305
4479
9815
5827
1657
-411
6100
-104
-583
-4486
2164
-2323
4182
2665
-367
-5225
-7051
-2619
-293
-6161
-4489
-7285
7
-3046
-2951
-2845
-1514
-3256
116
2115
6045
-1244
6754
-5578
5482
327
-3412
579
-3264
-11615
-7029
-3759
-7580
3813
-7073
506
2063
-1970
3262
-3234
-4527
6312
-1210
-5269
-3028
1376
-863
10679
6392
6852
2811
7167
9151
6228
13258
4997
-100
1259
-1853
-1540
-2790
-635
-2299
-205
3168
-4359
-1324
2826
2550
792
-1766
-7205
-1464
-2236
-9536
-4241
335
122
3929
-1433
-6009
-141
-1420
-8056
-5042
-2631
-3012
1402
-4378
-574
-6612
175
1836
-721
9569
3435
11011
10591
7733
2660
-3362
977
5969
1855
2904
2362
3862
5099
4979
3134
8962
-5409
-326
-12443
-2196
6343
5378
6620
2149
-2199
-5169
-6769
1289
-10842
1293
-5953
941
444
8266
-1330
8625
6163
-13109
-4987
-12944
8352
1805
-4643
-476
3246
-6690
-7011
1183
7475
-2063
-304
2187
641
6354
-8592
-13841
-7138
2809
-2665
-2534
-316
-1598
-3540
6517
2533
5638
3258
-657
-11099
-3074
317
-1791
-660
-5522
-5485
584
1709
1325
610
-7120
9610
2680
-4879
4873
3471
-2220
-4759
-2693
3826
-766
6634
2020
2037
2774
-4380
10674
3832
735
10181
12927
1829
10047
-1353
-1640
1941
2682
-4199
9597
1466
-6642
503
7050
-520
1791
-12432
-829
-6026
-2369
5593
6586
-5291
-3815
-446
-2831
3735
12428
-10893
3718
1581
11961
4334
6599
9242
-5534
12985
3327
-4640
2560
2454
-1943
-1495
-2828
8616
-764
-9500
-979
964
2865
9041
-16562
773
-4579
-192
8731
-4938
-6722
3376
1825
-6551
27
11728
-1961
10699
-2667
3009
2821
-6195
-4301
2893
-1559
7780
-896
4192
-5756
15313
5479
637
-2515
159
-6389
3467
828
-6068
-678
-4520
-11108
-562
-5497
4345
4177
9434
3791
-222
-11149
-2927
-8192
9063
632
10604
3592
14145
8760
8018
-432
1125
-736
-1744
-2393
3789
5266
-5446
-3996
-90
-2357
5335
1785
15602
-4742
11739
8660
2011
-4677
-4730
1060
5645
-2849
5005
10555
-5767
-2959
-2312
2440
-961
-10230
4705
-7996
-1254
195
4485
7417
-2983
-543
8953
-2918
3930
-578
-11285
-2461
-2844
925
7833
-771
627
1102
3014
-8106
6433
105
-2779
14868
13661
-11488
-9385
7250
-6300
-3021
-5593
1867
-2830
-6925
12067
5113
-4725
9974
12188
10033
2011
-3169
5019
1580
7352
-7792
983
-2975
12000
-2600
-6490
-8849
-1693
1625
8007
1652
-2346
-1672
5544
-574
7223
-680
5088
3112
3097
4970
-2350
5170
-3865
15374
4765
-7921
255
-10889
7842
-565
11472
1766
-1554
-744
11033
-11401
1972
-4230
3906
-8446
3601
3235
-18348
12296
3392
-4649
3727
288
-8041
5840
16778
5089
-6988
-3248
7649
1683
2482
10263
1789
-577
615
4054
-4517
5055
-5030
443
-729
-192
1367
-1284
3786
-2740
4117
-1556
2431
-989
-1678
-11450
1696
4637
-17058
-2943
2513
7966
-8151
180
4253
4017
1525
-4297
2226
-15781
4619
9468
-3781
-4704
-9871
-11745
6056
1544
4872
768
5544
3167
9416
8145
8528
-4179
-1240
-2264
-1767
7559
925
-7497
-7851
2397
-1258
-16204
-8144
-4870
4913
-2037
4047
1838
6747
10806
1184
5645
-7590
9333
-106
6992
-1912
7438
3811
779
12761
15708
-2923
-508
7953
-4835
-6264
-2010
-3327
201
1223
-564
1205
-4379
1611
881
-1794
-5006
-4421
-1040
-7411
15206
3972
-2954
508
-4517
-2769
-6248
10226
3203
6664
5315
3382
4628
-576
-4837
1451
-1607
13493
-5654
-4532
-1934
-7121
-396
3214
-4651
-429
-7572
-4239
-6133
2818
7092
-1802
-8747
6311
4150
7627
3313
-7878
-3071
8147
3629
59
-1033
-4944
-5153
-2304
-1288
8572
-718
12731
-3449
7683
6316
-7706
3900
1872
4621
-6665
-4894
-6057
-7974
1781
-5692
8309
10451
7861
-5418
-7868
3043
10172
-11284
1178
9853
-1297
1361
10566
-10352
-2294
-13248
9792
9885
-441
7578
9614
-2169
11499
-6633
2915
7670
-702
3100
1171
8747
-7640
-2026
-5119
-2591
3121
5381
4985
-571
-2222
5231
1284
1229
9452
3390
3436
-2005
-4890
-4054
11064
5578
10745
2188
5415
-555
1337
9921
5507
7808
866
546
1524
1004
-102
6695
3912
3974
-6369
-6400
4200
-2255
7573
5684
7268
2541
330
-6241
-581
8257
5875
14131
-5109
1876
-47
5550
-2306
-7486
5353
-761
13216
-2725
3841
3193
2082
5056
-2612
-8737
-1438
-7634
6308
5154
-2295
-2145
1204
461
-463
-10186
3936
6829
5977
6175
9735
7943
1678
7917
-6952
2848
377
-4117
-11493
1273
1584
-108
-1352
-3916
-7181
-11695
11260
3787
-1533
-9667
-2309
13663
-435
4075
7527
10754
5355
1606
-4525
1780
8108
-4359
-7335
-9500
6714
-2191
445
3139
4052
1190
-3362
-1195
-5232
-13584
1857
1133
4729
-7671
6455
-2194
-1690
-9986
316
2828
1089
689
1154
10022
-2979
-1528
-3203
5576
-12478
-142
-343
-5857
-1555
2096
9560
1469
-6761
-3165
6841
5097
-1787
-3896
10803
-5947
2959
2931
7759
5608
397
-4348
-11403
-7815
-9503
3238
-2166
-411
-1124
1280
2857
887
4047
5751
-4374
-9235
-1854
1881
-1701
4383
-67
301
2722
-4291
-1076
-8739
11867
4643
-3605
129
8649
6386
8972
-3814
2446
883
-1778
2119
4280
648
-1845
-3447
5536
856
-7154
4454
-4304
-3256
236
-414
-5094
-4245
4112
-1644
-2354
-3500
-3740
-1584
-3018
95
-6705
2526
2066
-9296
-6367
1271
-1332
-7573
-2294
769
-2410
-4448
-746
6034
5599
-2828
2516
-2273
176
-1869
-4690
222
4220
-2503
2
10283
-5531
-5940
3133
-4374
-903
477
-634
-2052
1589
7219
-8231
-62
3523
-2122
5097
5225
-121
-623
-3130
-5462
7972
204
10715
2527
-4201
2295
11192
7746
10575
-2841
-10024
-3650
-7884
-5099
7826
-1292
-4855
2347
-2589
-3015
-2656
1217
-4854
-2879
-1973
-1381
-5487
-8544
10633
771
3348
3597
-5308
2170
10796
-7268
11368
-6945
-1435
72
-2389
5259
-8975
-3132
-2013
-3077
-563
1103
-699
5055
-10381
-2900
-4790
-7854
-1342
6824
6137
-3949
-1385
1132
3178
2405
222
-3498
101
1436
13749
-802
-5005
2831
2214
-2699
-2659
5759
-4477
2633
6153
-2232
3035
-1730
2293
6158
6330
6604
6463
1959
-2139
-7544
2137
-760
3181
-5130
-3066
-3929
3397
-3096
-290
-9348
9872
-3882
3484
-2534
-5725
-2617
1463
-1466
-5677
-4339
658
-776
-3899
-113
5726
1192
5288
7112
-2190
-2017
-4205
2796
-1034
-378
-7589
-7575
-546
6910
-5949
-2093
5573
804
-7927
5685
3417
5464
-5812
-2555
-10735
-526
9681
1857
-3934
-6418
-10118
-4400
8245
4454
-1335
-2805
-3953
3595
-4407
-3145
13186
-504
1559
5458
-9055
-2039
777
-1889
-2643
-6904
-1212
-29
-2366
108
-3689
-659
1545
-5851
8202
-3584
5375
1259
-372
-10730
-3601
-4805
-354
-898
-9776
1017
-1044
-260
1347
1263
3370
3092
-2113
-1657
2645
174
-1284
6158
1297
9552
-1773
-9686
881
2615
-5542
-8231
-4842
-3807
-5057
-8604
3127
5713
2097
414
5591
11646
-5922
-8453
-14270
-8525
-2042
-5088
4910
3931
5299
-6275
-14689
-9523
8887
2368
-7897
-12942
9387
-5513
1540
-3543
4336
-4531
-4260
-1084
718
2205
4719
-1659
-2757
-3454
449
-1524
-6255
-6832
-9627
-6723
1451
-4395
-269
6267
-4998
-8265
-4437
-7804
6845
-2497
-2906
-1464
3806
4707
1111
15480
249
10818
-2346
-4009
-4221
2124
821
-121
-7569
109
295
-2364
7385
9568
383
89
-2094
814
-712
678
-4192
-5436
-4361
-2319
-6904
-2769
-1038
11152
-1279
477
-9104
-2738
-1801
-11249
-12003
-3131
13323
3958
5795
1015
3696
14093
11643
4083
-6073
2144
2109
-2508
11255
5348
309
6150
7566
1584
4905
40
2025
-3248
115
-3500
10872
3445
19010
5765
-4617
-2056
3025
-7608
11096
-7062
-3741
-9486
-5864
3924
2050
5246
-5579
-2005
-8514
-4813
-789
-2148
-619
6604
-281
2424
-348
-1212
1729
4848
671
-978
-9636
-1343
-849
-8765
-4054
-987
-6025
-16522
-8803
1333
1436
2980
2490
863
4421
4334
1034
567
-2185
3605
1768
-635
-828
2675
6524
72
1528
2972
2322
14263
4031
4793
-5462
13334
11743
13779
-148
-1700
-2264
-9113
-833
3126
7804
5877
12809
-6111
-3666
-11908
-10767
9469
-7608
3292
-4764
-2547
6686
-384
58
8948
1305
-5502
-4829
-4131
-8283
203
-7017
5025
-1143
-4520
1100
7095
7997
12157
-3820
-31
-6022
-12008
2258
2076
-1629
212
8257
3883
4205
-1269
-2177
184
-12913
-6025
2073
-1726
3063
-3463
4387
-3530
1430
4714
1639
-9309
-2391
-11185
-1408
5989
-1387
1987
12559
-988
4217
11198
2505
3508
-2540
-458
-4231
4489
10782
4208
-10480
-2719
3987
-6403
2924
-4271
5579
3166
-2342
2971
-5176
10364
-3506
1459
4337
-1655
310
-63
2920
-4301
3170
4836
3800
7157
-3052
5559
3743
1893
5062
-12444
-5575
-1426
15483
-6343
7806
-3781
5040
-899
9578
8502
-9599
2363
-4750
-308
9829
-425
1709
-6297
-330
-17865
-15969
-13130
9793
3359
5063
965
1870
-2640
-693
-10418
1872
6646
-4173
-2051
7835
-4732
4093
-4063
-9444
-8383
-2510
-6477
-830
9381
-3400
-819
-13711
10158
2250
4207
-5792
5161
12125
9787
-303
1403
7243
-1986
9104
-4507
3172
268
13104
4801
5012
2365
6865
7229
-4024
-3179
-5945
8577
8221
1332
6366
-5499
2705
-323
13354
12420
2413
5260
-4398
1561
1434
9634
1824
1224
-4883
4587
17501
5515
4382
13549
-2353
3863
-7898
-1843
7301
-3436
8671
16915
6900
-3483
5868
1665
2854
-3253
-10349
11337
6363
4050
828
11249
-2199
-1481
2236
7568
14368
-9209
1458
-1292
-1375
-14020
-10899
-18502
1785
-8239
7399
7038
1428
4924
-99
9136
1311
846
2628
1812
-776
-10806
-9393
5161
4446
6749
2377
8882
-1041
6801
6051
9205
-15143
3168
2104
16004
2313
-445
-3682
-659
-5098
-10722
-3253
-5280
4867
-319
-481
78
7974
1671
5137
-7132
1412
-1278
5157
6724
4583
6184
8364
6804
3784
-1737
-10425
-2560
-5128
15
-2795
1032
7093
12960
6638
5402
-12473
2186
4914
4206
8084
1874
4869
-19802
9372
-6172
-3934
5415
9963
14039
-284
1553
-11855
15093
8173
3338
11913
436
10327
5973
-4507
-164
9031
5246
-18917
-1398
18740
2040
-1272
-180
7075
4520
-12063
-2831
-8404
-17171
-3822
10287
8285
2156
5214
11366
-905
-2923
-11371
-4350
-6957
-4341
3208
11441
8178
4445
-9129
-9554
-314
-2012
482
-999
6217
11606
7375
-3676
-7886
-8037
-3543
8108
12874
6203
4674
7297
3231
-1997
12471
-2124
-1667
-1798
-345
-237
-11997
11384
-11053
8516
-6060
2762
5909
2703
-6125
-8898
6675
6444
-1963
-150
-4983
-1024
-1715
421
81
3806
-6115
-2383
171
-7112
-2234
-14521
-9742
-3657
-1951
-2682
1637
741
-6785
-11325
-2345
8468
2939
9285
2237
2536
-747
-4750
-5222
-2106
5940
7531
4319
6481
10502
2450
11891
-881
-248
7539
-1425
2380
-6186
-9751
-4419
-6421
198
5314
-17555
-10351
-6944
-5864
-3616
-7731
4741
-1649
-564
-838
-580
-6854
10008
2678
-2332
770
-5479
6484
-12757
-2450
18541
-8574
5935
756
-3412
-2200
-3263
2843
7813
-1964
-8738
-8862
8260
-6172
-4966
5800
3524
-4495
-6992
4030
-5182
7151
5463
-432
-7565
939
2894
-3485
-559
-3445
-1569
2600
-3005
-370
1840
-2610
-3205
3877
-2634
-3736
4745
-94
-912
4445
955
10689
1957
-373
-690
-2986
4550
358
3011
4023
4283
-10972
-268
-2552
2406
2749
-2032
5000
-1763
1227
2736
-2975
-90
3285
3122
-8679
2798
-7393
4323
2862
3592
7
-7762
-428
4754
-9929
8152
-6643
4213
-1077
11163
-2371
-1661
3201
-3913
5930
1503
7875
-2193
-6013
2125
-2856
-175
-4570
-8005
2260
-2265
-5350
-342
-1455
1393
2178
4129
-806
6243
3177
6187
8068
6577
-1828
6911
-1065
-843
175
1000
750
-2839
7460
-5726
-4359
-9181
-1942
1852
-4272
-4144
6146
9703
-204
-3309
-4278
1039
-4198
1866
-4512
-2392
9283
-8561
2686
6051
-1857
10794
-2701
-4886
-10210
-8098
874
626
-865
2255
-4482
-5216
-9004
-7421
2923
2711
307
917
-4368
2518
-6875
-1684
3206
1077
4066
5804
4339
1667
4012
-1979
1926
-3212
610
6147
-2703
-2452
3132
2494
5018
-34
144
-2646
4622
11456
1650
-1332
-192
1634
7570
-2058
-11637
-4284
-6570
5699
-11075
2195
-822
-1231
4387
-954
-3837
4019
-2460
-3044
2725
2251
-3960
9440
5001
-4267
2351
1009
-2467
509
-1373
7467
3405
-5672
669
7672
4579
457
-1831
-1154
5927
-1381
-6321
-9252
-6655
10494
5522
-678
-2790
7848
-11346
-8660
1667
376
-4399
7710
-4866
7671
-8347
-3056
8093
13212
-7495
387
-1216
-13078
-3327
214
1909
-2408
-3502
3161
-3535
7455
-5556
160
3117
-75
4949
4019
-247
-5160
2127
-378
893
-6709
4046
218
-5653
1805
-3822
870
4704
-3502
-1924
2443
406
-6880
-2573
-853
-6577
11007
891
4370
106
-3047
-921
3678
-3025
-532
2485
1112
4935
13280
-5773
-2051
-6355
8965
1266
1652
1683
6062
2112
5534
6784
1678
3851
-2712
-1202
-2206
-5895
-9974
1484
-439
1428
-2204
2851
-77
-6539
954
-2799
-2626
8859
3407
4183
-10507
-4042
9749
914
5135
-6905
14112
-1454
-5902
388
-84
1107
10719
2037
-2584
5579
-1960
114
6632
14563
-6463
-1960
4565
3223
-14031
-8926
-5081
-2465
-2586
-1531
-1142
3739
5008
1193
-1514
-3451
2046
1629
-1562
3084
-10643
6206
-1591
8795
7068
4735
11010
9432
-911
5154
-1895
-4735
4854
-5459
-2236
-1073
9341
1265
683
25
7465
-7637
2586
3636
-2829
-5448
-1224
3315
3123
5612
-1460
3093
2315
2028
-6746
-4144
-3488
-6990
3428
-699
11359
-374
827
4572
-304
-5641
4293
-5905
19
-309
-54
-1805
-5781
-1733
-4173
-7038
6330
-4105
232
1446
1024
1096
2715
-867
-11428
4716
490
7154
-6581
82
-6261
-113
-1132
-3655
428
-6937
1052
2102
-6203
3423
3269
-4455
-531
-6024
8138
829
491
-3489
1973
3932
3980
-850
2672
303
2051
273
6311
5027
3691
2083
-27
-3853
-192
525
3232
-4724
-8454
-928
4573
7703
-4901
-4103
-6494
2905
1439
-2876
-2851
2921
-3061
1003
-15463
-1367
521
3414
8
-8421
-978
-2915
-4239
-3422
-8566
-2527
-17924
-353
5697
-2097
11112
-3199
-629
6654
166
-15804
-9028
-4150
1708
1119
386
414
768
5102
352
1849
1382
-3115
1355
3042
-8509
-3541
-3444
-1618
317
-5036
7060
-581
9231
2888
-2746
-3456
11231
-175
-190
1400
-4991
671
-3323
-2437
4035
7175
-37
3313
-1086
-16557
-2517
1072
-2389
337
-3995
-657
8126
2168
-1279
-2427
-1992
-3858
223
1026
6715
-659
3024
-1147
-896
-1612
4128
1048
2408
-3849
7320
2996
4726
2006
-8599
-9051
-1247
-5765
-2255
-5676
-754
3050
-1991
2049
-11040
2752
-4054
-714
-272
-4369
-1725
597
3396
-6433
1342
-1258
-655
1277
-97
3371
45
2607
319
1565
-5130
1709
5940
5644
3474
4367
2817
-157
-2328
6079
-783
-8241
6416
-11139
-215
-9321
1113
-9895
-11139
6298
-5505
10579
-1297
-6712
-2553
-9240
-14428
-5860
1953
-61
-8235
4791
2324
-12742
-14723
-6399
6215
13809
-7519
4029
8299
11496
-4445
-3136
2956
-8726
-6411
-3560
-8874
551
-8915
-19890
299
410
-2230
-513
-2473
-8150
-1181
3206
733
-1432
3021
6956
-1202
-3652
8263
-8333
-8289
2570
3852
-3650
-4222
-5047
-12591
-6850
-2676
-10519
-10325
-10322
-7372
540
-11387
-5952
9003
4841
-4893
-537
7706
5056
120
564
8778
691
1336
950
-540
1864
7995
2356
-16615
-7956
1717
-13834
-1840
-1377
-3434
-6553
-942
-3581
302
-8394
-367
11728
168
-3492
-4780
-8844
-9526
9031
-7562
7302
2841
-4665
-3038
9324
1603
11297
9759
6091
-13235
-2316
3597
9425
2501
3686
11196
559
3475
2407
-1947
12036
-12604
-9147
-14228
5695
2044
3167
-941
5654
9722
5210
-10940
-9870
58
10752
-3726
231
-6934
-5615
3176
5039
1984
-10726
-2805
8289
-1549
-7804
-5654
-143
7555
-2564
3136
-9623
-4188
51
6805
919
432
-229
-698
-1813
-10068
-11160
7745
3462
-3160
202
-3432
-683
1042
-1939
3502
-2274
-6473
10148
-1012
-5567
1229
2080
-5164
9434
719
8631
-4288
381
-6804
-7124
5357
10873
8412
-6585
363
-3715
366
666
-6621
63
2976
-4339
-9607
5829
4040
2435
4406
-7250
1916
-2766
1631
-2743
5224
1112
-1992
671
-2883
1146
1934
-2595
-4447
-4836
2494
762
-1239
10609
-1965
3506
-14108
3305
10231
-3112
-8187
8600
3280
-3954
3528
2411
3660
-3413
-1365
-1586
2600
5704
-2652
3876
-4395
1655
3199
3189
5855
364
2295
-3414
1708
-2009
-2841
6578
-4003
3444
473
4383
6634
708
-4115
-8033
-1630
-10943
-1524
-3125
-6873
-2146
-7448
3784
-1340
3396
7343
-3369
-581
8798
3843
6634
670
6455
5246
-346
-10014
1168
-6348
4429
-9377
4702
11812
4609
3779
-9423
6753
8869
-4993
-1454
-183
-6579
-13151
-606
8260
-5901
-2371
5366
4920
-7309
289
-5916
-6223
-7443
-6241
-3546
-99
5880
4984
5476
-1754
-349
7532
3795
-8016
-5117
2364
-4869
-3708
-4800
1506
3934
-8330
-2274
-790
-2389
5166
790
-5142
-2295
3692
6094
-13158
-5172
12244
5432
-5842
-1556
-11710
-3363
-13735
-16277
-485
-2736
4281
-5245
-4739
2591
1116
-11402
-2347
226
4340
247
-2370
-3472
-6368
-6606
-3017
-3629
1581
6409
1814
907
-7950
-6490
-6021
5467
6182
-5528
10715
2483
-8648
-5354
-12154
-3783
11931
1239
-3547
-2622
-9171
-3372
-451
-5198
-11430
-9523
-1632
1116
-7392
-1892
-16301
-7846
8094
-3269
4298
-641
-1616
-6152
-4019
-8663
1721
1460
-4422
-2955
-8553
-1650
-262
1773
-3393
-6220
-7918
-9435
-1511
-666
2480
11170
-4895
3190
2037
-7484
9234
9546
-3781
-8186
-4622
1261
1792
12224
-2674
-10087
-6957
-3747
186
-1510
4700
2807
-14394
-17207
-5868
-9071
475
-3774
-9150
-4876
-10737
-8318
1767
2309
-6231
-5401
-5968
1438
-16674
-12834
3907
3840
3434
-3287
5687
10472
1138
3350
8169
-2860
18917
-5661
1791
6150
-7283
4611
7908
8142
2115
13121
-1027
1467
-2524
2645
1242
-1993
6395
-3894
1030
3410
-2165
-2860
10550
5091
-6525
3467
-7739
2107
-5476
5030
-12447
-6181
-2442
-4782
-7734
-5226
-1181
-7002
-5330
148
-11681
1897
222
-4823
-2985
-4082
-6694
-1955
-7649
7761
7951
143
-13953
7028
1781
-4064
593
-3423
-3831
-11906
1900
-10443
6548
-2779
-2038
-10012
5212
8196
-2579
2314
-3729
1119
-6060
-4506
-6158
8551
-1432
-5291
9114
18024
-3685
2767
5861
2543
-14490
-3188
-3414
-6253
-6502
-7205
2212
6319
-1092
912
-5351
5003
5406
-923
-10025
-10411
2753
11063
8696
164
468
-111
10690
2940
-7828
-8370
-9635
4570
-18307
-5574
5176
-3288
5052
8332
-5921
2444
-4872
-1317
938
3337
3446
1406
11390
1490
-6962
450
-6519
-1441
9571
-5528
3759
7412
-6178
-3981
-14082
-11492
-5768
-7873
882
-1074
3886
-7033
-768
-362
-1804
231
-14235
136
843
4169
2936
5720
-4978
-565
-9230
-4027
-6201
4148
-3688
-2813
2880
4302
-952
-4420
-4916
2315
-6541
245
-9038
-949
5962
1588
-1770
784
-5568
2752
1221
-1500
5626
2571
-3196
-978
-3352
-6966
-11110
-3808
-9426
-9010
5754
9338
2108
421
-8465
4996
-4582
1716
-11957
4207
215
4221
1009
5813
-2965
5931
528
4243
-274
-665
-7884
-3992
5748
12723
6348
-2511
-4364
-1388
1286
8277
-3875
7669
-2265
-1664
11859
12088
3842
8033
4992
4935
428
2178
-3506
2608
-5985
-517
-4091
-3781
1060
2218
1702
3845
5000
154
-12155
-1498
622
-3128
444
2176
4386
692
-3767
2248
-2267
-7675
962
4621
6694
-1487
4837
2350
-5669
-7258
-983
8
2460
3078
3628
6845
3419
-1263
1596
-3715
-860
-2461
3551
-3163
283
828
1716
2023
838
675
-2592
5266
-4765
1836
-2863
-4418
-3893
348
-1939
2299
-3249
4595
312
286
-299
-6017
-1965
-4766
4983
3276
1663
1032
-2579
-6119
4479
8974
-3019
2509
3740
5043
-227
-2767
5962
-197
6326
6561
-10242
-2619
-10180
-4457
7355
16989
-3412
1586
-7701
2639
-5836
-1394
5428
6477
-1443
3218
-9259
-2689
-1711
8333
-5464
3387
-232
1311
3650
2430
445
2177
-2798
-2698
-8568
-9757
-1052
448
2571
5667
372
1972
-1631
1485
3997
12293
4286
3628
-4037
3531
-9549
-168
-5920
1780
3438
8176
4823
-865
-3939
-5957
-500
-1574
5448
3924
10506
6244
7528
3245
2768
1367
855
1078
-3153
8271
-4509
5073
-903
-7361
-2695
5176
-4064
1612
-6156
-2342
-54
1101
-10435
-8181
-1189
5897
-6135
-170
4052
2142
433
6000
-7427
4749
1722
7163
-2182
8001
10136
8109
-677
5114
1903
4202
-1119
13817
3490
4728
-914
697
-7190
1876
9169
7434
-4632
748
2114
4465
-9163
-1967
1602
-453
6477
14500
1398
7105
1421
33
-5709
8119
13787
17210
-1856
5887
-6286
3137
-3356
-2084
-2115
-153
158
5176
-6735
-10138
3210
-2197
2624
3457
-1139
2486
6246
7726
-1483
-4992
2904
2265
-4316
5803
-1011
-3986
7218
1874
1561
-4028
-4239
-4802
1704
49
-7150
7181
-12189
-1370
-4786
1126
54
4363
5439
-1640
1263
1260
-8593
2028
7532
4122
3621
8389
-476
-315
-6476
-5002
-6361
-3647
-1832
-7837
-1391
-885
-7159
-6772
9854
11834
8110
4379
1223
-4584
1212
-2070
924
1820
-6679
-7953
-3029
2899
2477
-682
4609
-1619
-608
-29
8749
2993
7743
-3352
2383
-8077
2381
-4833
-5317
4864
-2139
-2314
-5371
-634
7308
-60
-2461
-5194
-6647
-2684
-23457
-15506
-13655
-9037
-2332
6395
-423
10304
-5470
-5619
-2859
-5169
-10156
3551
1680
-6033
-13352
-3038
-6910
-4031
7290
-4855
5194
-2481
5582
4416
3517
4873
107
-4253
-5444
-9543
347
-5284
-951
-12605
-9519
-8041
-10231
-8835
-3111
-6241
7859
-1506
-1915
600
360
-1103
-15842
-796
-6226
-1
-2494
-8730
430
5877
-2791
2276
-2064
9892
12396
8190
12780
11455
-5992
-8842
249
-5378
-9133
-4052
-3060
-5116
8956
12604
5740
13193
-12571
-8772
3926
-218
-1391
-1683
2245
41
-3539
1597
-2348
-5002
-10635
-9599
-13582
-14093
-7483
-669
-709
-1426
-9775
-2361
118
3696
-11828
-8632
-17092
-7359
4682
3693
-6077
-9634
-3018
6532
-353
2218
1793
-5119
-5493
-3450
1107
3463
-4148
-4606
-9512
278
-6533
-1963
-13970
-2169
6304
-8322
-625
-8470
-2053
-11918
4260
-10662
2431
-4000
284
-7823
-979
-6761
2809
-6553
675
5254
7416
710
-2780
-8106
-1852
11086
1650
9954
-6924
-3888
-3257
-7037
6964
-6149
4154
-5259
-909
8593
5749
-1037
512
3263
-2961
-8760
-4607
-5989
-9460
-3896
9760
5444
-630
6819
-1413
-3273
-1548
3368
3527
729
-2140
10255
2878
-1313
-6175
2310
4526
5754
5366
-6098
-16502
-9077
-8911
-6800
-6806
-6804
-3664
-487
-1938
168
-10437
2292
-10863
2386
-1114
2979
-17422
-14605
-14504
-17609
2681
-4651
-6216
-3335
-12644
-5464
-5529
-7900
-6036
195
-2086
-1833
-21423
-11696
-5813
-10751
7344
3325
9945
157
5363
-6530
-8366
11
4833
-2387
-480
-1307
-4422
-7198
-2504
11269
1566
-1702
4266
1977
11801
12297
12851
5580
-6563
-3486
-1495
-175
6571
1709
-5823
-7302
1648
-241
-1898
4461
-2406
12659
-714
6349
-11167
-433
-1159
2664
5303
2917
5075
-3309
-2584
3829
1440
2297
-2657
1793
-11722
-653
6392
-2975
7054
1820
-6542
-410
564
10537
8101
6444
1857
1493
3503
-1062
-6481
-5293
2239
2951
-1375
-3361
1458
-3810
1083
9779
-7851
-4487
-9780
-5370
5419
943
5092
-9383
-7356
-196
1173
4910
-732
-6405
-3526
-6535
-4320
-3528
-8509
-10844
-4763
653
-10717
-4863
-1932
2293
-4497
-3955
1353
3633
3663
3225
-5585
-1011
3899
-2225
-2133
-7302
9403
7050
-3271
4716
-2209
-231
-635
-11819
-6922
-3522
-409
-11033
-1391
133
-5057
627
-2995
-1589
-13361
-477
-3060
-14817
-2425
-7340
-3938
-5157
5857
8583
361
-6249
1531
-3068
-46
-6547
2826
11387
16389
13327
-1454
3954
-1107
-11444
-11894
-6813
4236
3238
-10769
-3015
-1316
-2192
496
373
1459
-386
-1876
2717
-5300
6415
9354
10172
11097
6463
3968
2902
2697
-2027
9475
9207
5472
5961
-17288
-10165
-11524
2186
-3096
370
-3647
-5930
708
-4705
6255
-6509
-6002
887
1648
5270
-2172
-13101
-9219
-4859
5
685
-2721
-2576
12604
5945
-1160
6802
-10511
569
-9354
8842
-177
4159
10020
5221
-121
-6469
1880
2288
903
-6286
719
1642
3508
3682
5680
-1010
-5689
-13623
-11318
-12980
-4962
3852
-244
-3690
-39
-3706
-11807
-369
9312
5944
-5273
1105
19
2209
6282
10505
503
-1385
-5382
470
-3430
3607
-3196
-6063
5495
8536
4144
4138
12673
-709
4441
412
1163
-35
12863
6933
1509
490
-10225
-2566
-19105
-5792
-15030
4048
-5052
2042
-3119
5980
843
5708
8859
2419
3102
-1165
-10849
-7633
-3673
-14499
-12668
-3581
-10147
-7483
-14979
-2852
-4116
2455
-1491
3600
-861
-6846
2625
5746
-6698
-989
-356
3963
673
-4361
754
3965
-12899
-6188
-5486
-3040
5379
-826
1568
5794
8719
4816
1979
2830
-7519
-1901
3571
3011
-5858
5428
-13098
-10372
-1330
7714
2156
8043
-4822
6254
1125
1166
1760
7181
274
348
1105
-429
-6771
-1565
6026
3306
10099
6174
-8936
-10749
-4920
-984
-3263
4061
5648
-743
-853
-523
3837
5903
6396
5051
620
2717
-2910
4970
4370
-3720
1965
-2046
3203
1960
5861
3210
5020
-6691
-748
-1186
2169
-2278
3651
-5502
662
-1181
-8671
-11612
-1245
-8635
-825
-9468
-7926
-7613
4073
7425
5077
8457
-1979
5104
-2956
-430
-1386
3947
787
-1040
-5183
504
-3718
-1275
-5664
-1153
-2385
-6478
-8497
-2649
-1768
-1332
-750
779
-4195
-6532
-306
-2937
9605
1162
1384
12332
10513
5622
-4500
2518
-7005
-2235
-3671
-6104
1664
-1403
9863
10081
8807
11649
987
-1447
5203
-2973
-5755
6286
-1850
-1158
2114
8504
12619
7259
4526
3635
-1410
5356
9927
7271
1503
192
6039
11162
14862
5918
-842
3016
338
5087
8777
2838
6281
5591
1021
-1596
4373
590
2730
1141
-1592
-1819
-4914
-4922
-6205
-6328
-5866
-4083
-1321
-1724
3821
-4510
-771
-2846
452
8263
6140
3012
2428
907
3949
4022
-3151
-6023
2707
-3381
3362
6577
6196
1065
-777
6468
-73
1193
8728
5765
171
-1508
1185
3390
1834
-2957
-13450
-4750
-4358
-1591
-5625
-1260
2970
340
-4493
-314
7604
-2490
2170
3983
3680
1663
-4825
-2245
2496
-7747
2313
-3893
1043
1440
4477
-3508
4939
3087
400
12540
14236
10508
-343
2390
2764
-1831
1689
7458
-704
-1080
-123
417
3462
2074
1228
766
-3375
-306
5550
2705
-1660
632
6184
593
5210
-3069
2986
1248
1868
-4328
-5675
-1080
-1365
-1576
-955
1942
1034
483
-2203
-863
-1051
-822
-6898
7627
-2726
4286
1611
-5155
-1429
-2783
258
-1051
320
3581
82
-2075
-6689
-239
-1439
-9378
-7912
-7410
-2932
-4220
-222
701
-826
3976
4698
1792
-4286
965
3622
849
-5551
-6442
-5284
-1324
-1774
7321
11931
-3159
2141
3494
3850
2385
5744
3151
1678
5347
-6267
2084
2691
4824
1908
3309
8581
-404
3809
11085
6297
3410
1938
-3054
4003
-6506
-1039
5755
-4818
-323
8541
6044
11655
9440
-931
-794
979
-814
-6049
-2921
-1969
4722
-797
174
3956
-5661
-2750
7482
4424
7212
1912
14427
6361
8185
1961
-927
-1243
1492
-3496
-5344
7031
3073
-2603
472
4306
2752
-5731
-1529
-796
-3224
1782
4085
7082
-1603
470
5637
6572
5920
-8891
4341
5013
5745
1193
-6766
-3234
1752
4275
1401
5096
-1450
-2974
-1705
3994
-4706
-3004
1243
-276
2451
2068
2558
1081
5611
11012
5950
6266
2974
-453
8040
-4173
2181
1514
4181
6009
6005
-9766
-1464
-7142
7620
-4669
811
-274
3706
8523
-8801
-1852
-3877
683
-1920
4944
4431
-5588
994
4172
5198
3355
175
5655
2407
-456
1360
1202
-240
-1349
-3799
31
646
1601
3216
-237
177
3835
5119
3306
701
-5107
3414
1652
-10244
-9395
7756
1358
1000
-1568
-4650
6355
3359
-478
2411
-8552
-3604
790
-4550
-313
-5513
-7119
2969
-2765
9826
-9054
-4125
-9823
-3939
-1905
6213
1499
5883
-8947
-6009
-5117
-839
-1291
-602
4938
3477
-6154
-11027
-8392
-1888
4776
6509
-2905
903
-2275
4187
3487
-4196
4611
6322
-2360
3134
-3630
7863
503
7062
-2804
4448
3041
11010
5342
6182
8012
715
-2088
9409
3320
4109
219
908
2985
3110
4165
2597
7607
2561
-1500
1755
-2510
-1345
-6219
-125
-2969
2880
-3190
1829
-7768
-2188
5342
9861
9428
3762
-10733
-5472
5558
-2005
3284
8789
8619
3069
-3024
-1290
-3318
557
2410
6764
1734
-1846
7080
2107
10769
2442
-2505
5653
7947
4791
3612
4941
700
843
-4873
633
-1795
603
-4123
8737
6437
6271
-1272
8822
9922
2044
-7628
-166
454
-3189
-11347
2616
-1195
505
-1479
-578
-4159
-175
3683
-1929
1665
8693
-11438
163
-6714
-3451
1664
-4790
-5503
-896
5727
1522
2046
4546
-7307
-228
3556
-6104
-3739
9322
-9977
8743
-6904
-4792
9517
3663
3407
5782
-3175
2670
-836
9057
3040
3175
5989
109
10846
-1442
-981
-1930
-4087
-6214
19873
-5298
1598
3474
8653
3416
10208
2612
2085
-5215
-6308
-1248
-4364
7572
8409
3658
-479
4150
3099
-6811
-5519
-1233
-1807
-12052
-4094
-2393
7567
2913
-5357
-9297
-2773
1227
-9264
1000
2598
2391
-7447
5223
-5140
-928
1480
2797
4127
-1750
6796
1041
-9455
-4835
-13228
413
332
-3494
5165
-1116
424
664
1874
5359
-2532
-4503
-6367
3231
1996
-2673
10748
6665
7580
-3852
-7038
3715
-1633
-2458
-5417
-4239
-4841
3835
12759
-6777
5965
-5230
7496
-4511
-4840
-16201
-9370
-2734
1080
-2017
-11849
10989
-414
1155
42
-7683
-1398
-3608
-7152
7672
-3782
-4115
1480
5564
-2723
6348
10543
-1910
4328
-8420
-6321
13764
1817
-919
2957
-2239
3209
-8004
12697
3116
-3102
2802
3391
-3431
-2780
-4581
239
-4237
-830
1209
4106
-8158
-6020
7128
7240
5469
-6017
-2097
-6422
-4278
-4231
16610
6118
739
-1757
5226
5722
-9564
-6278
-2226
-4603
2465
-6383
11737
2772
2338
-5567
96
-3157
1
-2516
6996
-5342
-3569
-9303
8509
2366
12764
-1229
1939
4709
-2154
-2746
-3669
-855
-890
-6058
11135
-7258
2465
-8358
7575
1416
3319
2507
-883
-393
11941
5508
3210
-1734
-5364
-8033
-4126
15568
3058
-4922
-728
-3662
1190
914
11861
10123
-6395
3366
2422
5409
3548
-2218
2265
3229
196
3025
-5368
958
1355
-4193
-4511
2478
-3819
-12075
175
-9483
2903
969
-604
-700
-1618
2660
12854
-1330
-350
-5433
11935
-3073
-11817
-2982
2014
-5915
6368
-6162
-10965
-687
1027
4002
-13528
-8832
1327
-10265
3214
9396
-11328
3155
8500
-2641
17452
6939
-2866
-6414
3476
2913
15159
-2779
9381
-6657
2719
-3328
11841
-3497
-10906
-2287
-3162
-7058
6689
6484
-2192
-710
14275
5367
2202
-9185
-11364
-8577
1365
2964
-10581
-2408
-8044
-3646
3044
7409
-7272
503
-2612
15957
3680
1173
-15211
7494
2207
2110
5136
-3049
-10896
8121
-4742
-5800
-10091
-1752
1781
-4690
4631
-3109
-5861
-3124
-10208
5347
7688
3114
4287
-6387
-3522
5613
-1766
-4538
1862
5043
-3233
2778
9150
2523
-2132
-2310
-1636
10106
4429
10627
1107
6625
5924
3864
855
-5048
-4779
-7884
-1304
7416
-469
-10712
-1962
-4622
5086
5498
4830
12053
3047
960
-2068
6933
7412
1813
901
-4014
5889
-8052
-9628
-3756
-12290
6704
2863
726
-6983
-734
4689
6662
11235
11738
-3370
7725
2
3713
-2355
-8303
7378
3985
-10473
3236
8600
-3648
-6693
-1694
10196
-7284
-9812
1531
-1079
-212
758
3001
5149
6847
10149
1399
-2904
-3572
-4909
495
-4409
13024
-3992
2451
-8010
4217
4978
-1868
1439
-1141
-7848
-1071
840
6408
-5088
7334
8717
4340
1379
-5641
-2360
-1361
-2777
1137
868
-7057
-15462
-2494
-2475
-10395
1196
-12041
-22115
4115
-1283
1705
-547
-2252
3716
-9688
6418
8044
12112
3041
-121
-2817
4417
6553
-1763
6385
-2103
-405
-2657
1694
6373
1661
3191
11430
3544
-1098
-7087
-2004
2612
-2436
-8983
5598
2883
9810
9748
6362
2784
4193
-5989
875
-7054
1836
2536
1162
10107
3108
-7715
2024
-6337
-520
3686
-3051
6435
6868
10305
-1415
-3420
4170
8122
1834
1716
98
-4152
-9315
-3432
5462
9864
6162
4096
2776
1957
-3975
-7022
-10648
-5240
-874
-3301
-4176
-4895
-162
77
-1907
-10215
-7074
4805
2690
-2240
5220
-4955
-11454
-6429
-4901
-8452
7742
1143
1138
-12584
-18224
-5086
8881
-4151
1728
-4363
5629
-3463
4587
2478
3749
4537
1093
6688
5732
-1663
6342
13837
14217
3802
905
12589
795
2538
5828
-7507
10943
9771
3204
-1023
-1902
-4824
-3629
-359
-6556
-437
-2510
4090
-5320
-4910
7612
5737
-4445
-8875
-1498
-6927
-7082
-992
4242
1245
4221
4567
5361
2869
6943
-3549
-1085
-3806
-947
-7069
2203
9470
-7579
-8617
10302
-2786
4954
-16729
4067
-1443
9256
1901
1390
6848
5943
9016
1726
6775
-2143
3
1097
-5219
-1086
-6163
-8329
4287
10341
16298
8816
4930
-8401
-2046
3759
-9873
-2556
669
-4962
-5366
-13078
-4873
3449
3488
3403
-1660
-7369
520
-4646
447
-1215
-2726
540
2227
-924
3410
4293
8190
-13438
-8667
966
-3968
-1262
-377
-1867
-4607
-8661
1548
4925
17067
1578
-7600
-2645
6207
-10265
-640
12657
5573
548
-4953
8133
9181
2108
921
-2667
3234
8670
4536
-6120
-5244
-8331
-219
-1158
-6115
-8801
3616
2099
3248
-3628
-2075
3106
2246
-7464
-172
4110
3405
-739
-5098
8048
7191
-878
4859
-3876
-5308
-115
-3443
635
6006
-572
-3039
7941
6752
1029
3111
-806
498
-3462
-4587
5221
2196
1219
-4991
7598
3581
10228
11158
949
-3927
-557
4881
-4136
-789
-731
-5549
-4172
2449
-1309
-746
14868
-194
8975
421
-4004
-7265
3342
1394
5513
8575
4423
2588
4716
-209
-421
-2993
-3171
-2771
152
779
4098
4232
-3497
68
4788
-4018
-2058
-3540
664
-2856
-6174
-1562
-3868
-4082
-232
-613
-1156
-734
-10046
-4424
-2726
10124
-7062
2845
-8911
1907
4123
-5020
-2201
1643
-4050
-5495
-4197
2672
-1334
-4264
10589
9488
-7524
1725
-1598
3988
-4501
-8745
4190
10222
632
350
-4368
4038
-410
4826
-4617
5075
-3178
-2810
5154
7427
-1073
-940
-6053
-4970
-246
5728
-712
3113
5139
6179
-3520
3004
-15115
-478
-6037
-544
-2052
-6654
1425
-1445
8876
1362
-3102
-11019
3868
254
15800
3944
-2317
-4737
12873
11226
3255
1975
-3316
-7100
-10028
-4688
2525
8356
-1213
5071
8765
10630
-6027
1654
8435
11322
-43
-8431
-581
8274
4000
-3540
14376
5878
2641
282
-4499
2825
-1383
5624
-4175
-1682
-11438
4332
6415
5984
5712
2821
-3642
1254
-1096
1248
8935
9111
8979
1887
5038
1527
-5941
-5258
-6487
-7239
-10084
-5191
1862
-3737
-1766
-5943
-5385
-11798
1554
-405
-6711
5116
-2317
5145
1512
3476
6830
1211
-5259
700
-687
4718
-4395
-2753
12097
3875
2703
-2413
-1905
-1324
-10086
-6789
5159
-2244
1471
-11152
1882
13143
-1860
4723
-7678
-11520
-5730
-5325
10697
1296
8380
415
-5986
-21806
-9773
-10112
-971
3083
-6700
173
-1151
4729
1433
-847
3644
1904
-5518
3248
-2619
2430
3355
-238
-5813
-1048
20369
13324
8060
2311
9693
-481
-5726
-7387
3594
68
4999
-4318
-8840
-5895
-8511
-9116
4724
17
-6239
2509
-344
-1940
13537
3154
1240
2823
4234
-3373
-3274
-2037
2088
-968
4345
5088
11398
11472
3295
2287
1430
2707
1315
10758
6687
2444
6297
2522
-2216
-1578
3739
-4033
-3380
6694
3932
-1915
-4639
-14519
-7134
-5403
5350
14041
8895
12722
-706
3747
1557
2451
-7365
-111
7672
12577
12833
2669
-7224
11209
4353
4762
3737
9832
2121
-2317
-1430
-9439
3316
7054
5955
4243
3735
-2465
-5380
1271
4312
12631
-8506
5923
2280
-3553
307
-8929
-8529
-7395
-12265
567
1649
-3874
9668
3446
-1708
-5266
-11859
-2655
-2013
6405
-340
1611
12106
13387
15396
9112
4604
6042
-2933
-265
-1105
1745
2275
-6695
2407
-4943
7620
-5991
-544
3285
1392
-682
-2163
-7125
136
-7353
-4714
-2294
786
-2419
4238
-4568
-8097
-5920
-2724
-821
-1498
-5246
-9677
-11988
2918
-4121
5083
-3286
4896
2918
3815
-1006
-3925
3699
-2514
3800
-4910
5956
675
9002
-1300
6515
-2877
5904
-7168
131
1269
-7764
921
-2845
-3024
-4245
2364
-5308
-3145
1514
6193
7499
-3422
-2217
-17409
-16682
4659
7125
-3629
7338
7358
7334
-5947
-3701
5517
1935
537
-11410
-2083
-5730
8092
5166
-9443
8979
8718
11879
2749
1233
-771
-3623
4101
-6662
11780
4686
3048
-4762
-5585
-4790
-8198
-2757
3319
-2311
6309
-3583
-2190
3727
-382
-8510
-3234
-3077
1309
7
-3128
-1195
-5601
-110
142
-2525
-6313
-9365
-12554
-12681
7880
-1946
-2110
2038
4513
-5434
817
-1835
-2405
-3761
-4100
-3549
-3479
-6235
-1616
-5754
1013
12577
13283
3924
6798
-3712
-1714
4186
6818
-4588
-2763
-2806
-3199
4119
5206
-6478
7895
-8053
-8989
-853
-10342
-12608
2825
-2334
-7620
5717
-9728
9491
12852
-3793
4184
-1089
6351
3705
5872
5778
-11913
-11062
-916
539
2419
3472
5181
4836
2741
-2369
-8340
6624
11103
-3511
5531
-6104
3090
4739
3780
9648
-1217
-1575
1743
-3297
2385
-3228
2683
1704
107
1998
86
-1294
-5922
-5420
-10023
7728
2643
7176
11950
561
6082
-4988
1618
1274
7772
-2719
5254
-6568
2896
4781
2452
3397
-1602
10122
12085
1112
4847
1756
-3309
-606
-2055
-10499
8424
-1953
5417
9923
850
-4059
-3578
4730
6973
-3240
4065
3155
-687
6898
-9467
-5823
-6489
-12040
6574
7784
-98
8064
2419
9727
3090
9795
-5000
1506
5461
2058
-10641
-496
124
-10921
-17263
-8256
-5954
-10361
-3022
-10468
-957
2191
6233
1584
-97
-12928
-4843
-6544
8493
-5164
-8504
-1378
-74
-6730
-2113
-70
7823
-1048
-6790
1337
998
1231
10212
-11827
-4681
-220
-4177
-5494
-4619
-6426
6403
-6907
-6370
-4725
-968
11909
2621
1210
-1622
-4925
-14922
-8301
-18106
-7014
-10170
-7582
-11701
1137
8946
14854
1270
878
-1153
-616
-1716
-11661
-9743
-2325
8898
5213
13152
10868
8729
1243
6698
5221
-2765
596
3049
911
3020
5885
2927
-457
796
18819
11994
-447
2527
-206
1840
5885
3767
-1054
2591
4525
-6310
-2059
-133
4509
7091
-874
-3969
3539
4862
3894
15988
-3587
-3615
1237
4334
3926
-4455
-2543
1039
-3206
4177
-10510
-4596
-11767
-6705
1352
1033
2753
1495
-679
5516
12781
1929
-5348
-9779
-9344
17566
6551
-3153
-7242
-1536
-5481
-8314
-5878
-11652
-4842
568
-7891
-6266
2163
-2332
987
7953
2111
-1606
5368
-4280
-6242
-3858
7898
2560
-456
6799
-4576
-2457
-277
-5918
-4682
1968
-4912
518
-1698
-13381
-1973
-12089
-9500
-10908
9230
7673
-2717
4407
-8815
-6409
-12330
537
2561
10030
9691
-3961
-9414
-7931
-14390
-2147
495
-399
1594
9813
7514
7484
10910
4772
-1397
6859
-3956
-7502
4560
2711
88
2117
-1419
-6638
5560
5856
11890
16081
-1544
103
3155
-2870
-1957
1074
-4079
-3655
2519
-10246
-7197
4191
2209
7873
11708
8962
7327
1587
533
6696
6832
1191
686
1869
1248
-11002
7358
2527
-11518
1698
-6422
-445
-2401
-10419
913
5725
442
-17353
-3181
6826
3697
3150
3807
-3876
-3559
-2340
4308
7515
-4080
3258
-4092
-3252
-1297
-4314
-3836
-3652
5457
-1796
2010
-3619
3621
2706
-6756
5575
-2154
-3718
-287
3014
-6117
1934
1969
-1804
-102
-4685
388
-2226
-3445
3208
5609
-5987
10952
-4109
2388
-4304
5039
4756
238
709
2534
-4432
637
-4781
-5324
4723
-485
11544
5665
-1259
12479
1906
-2837
-2189
-8734
70
2035
97
-2782
-3833
2259
-397
11331
-1286
1189
6442
1029
4357
-2631
11720
8523
3592
6385
306
1054
-1677
-654
1056
4744
607
2694
4532
4574
5034
5787
1008
-416
-8934
-9039
-5046
6393
-2141
6081
-1284
-713
-6585
-8905
7152
9923
1072
5397
-1871
3107
2068
-728
5334
3533
3234
9457
4553
1541
959
6184
-4528
-2622
1672
3102
2914
-1076
3657
-3977
-3118
-1395
-7968
-4012
4411
8395
792
2709
1784
-1181
-1354
-1774
-2584
4209
-1935
-3277
-3610
-2869
-4495
-2823
-3999
-6003
2314
2558
-4651
5007
463
3348
1400
5038
621
-2940
991
1862
-5105
-1575
4772
2304
2898
-2601
-4384
6875
3169
4926
-3617
495
4938
-5250
4029
-409
-11365
-5939
3512
-2484
-4659
-3495
8682
9861
10306
8195
-676
1272
-35
1904
-1431
3312
3245
5995
-7277
1659
437
8113
-3714
-1352
-977
3766
2104
9027
2031
6329
-610
-4026
7396
1335
4543
-5641
461
-697
8016
2077
1494
-4219
-2032
3254
-1511
-2969
6435
-6189
-2948
-4889
2707
2684
-3839
316
-4733
2681
-4558
3647
2153
-7518
4906
-483
-9361
-1643
-262
-3724
2623
-102
-379
-5268
8608
-3376
-2078
1799
4831
4259
-3509
-6515
103
-3075
-5742
-3579
-2988
1889
8787
4108
-2525
-1187
-4094
-1850
4490
-78
-7775
-3066
-4232
-125
-3250
-3259
-7285
5752
-2594
-1194
-778
601
-112
-1409
-5123
-313
-3959
-1811
-6581
-7941
-3129
-9723
1661
-349
-905
3582
-9678
-7034
3418
-3643
-3140
-4308
4254
4849
3875
1984
-11093
1457
5523
-1580
1225
-262
-5209
-4581
-158
-898
-2982
-4842
4072
280
7638
4140
5112
3743
-1064
6423
8275
2983
-3267
-4087
-7835
6749
1564
6052
-5068
-894
-14210
3969
892
-8024
6284
6313
9925
10351
-3010
1078
-518
-4531
-18134
-2991
1208
-2865
-1822
5948
-6002
-2444
-2284
11494
4025
4277
-1004
3356
4804
388
1198
7021
10578
-5119
-3503
-2963
-3597
-6792
-9476
-4299
-6626
-4058
4438
1324
1212
753
1414
1974
-2073
-2334
1654
5054
4341
1435
-11715
-4719
-1091
9312
-9856
-7414
-5909
-4495
-4262
3597
5215
-8369
-3735
-3587
-7720
-1035
-3964
-2229
-1772
6779
3267
6539
10190
5615
-11703
-1016
2184
-5977
-1435
1129
335
1035
4199
3391
-1597
1342
-4587
-3138
-5739
-2627
10462
12702
7345
4367
5850
5321
-2218
-81
-7616
4210
-3644
-8486
-9005
-3482
-169
-5931
-1430
6422
530
2246
978
2508
350
-3833
6838
7347
8457
3239
-7404
-3490
-51
-8403
3183
3736
4823
6712
-2926
5352
-2751
-7373
2016
5598
1765
3387
-3717
5396
1070
8403
7492
2647
4549
3743
-5919
536
-4852
-7437
-18483
-1939
-2236
-5962
-764
6184
-2871
8505
-5740
6602
1737
-3389
-10071
-6971
-1724
-7298
-1070
1480
-821
-3998
2039
6645
385
-3342
-10493
-3924
2295
-4338
-2240
-173
-4114
813
3125
3508
1159
4417
9745
6290
3792
-1317
-1131
-4578
-9890
-4380
-9647
2438
-8532
-3221
-782
-2868
-3444
-5969
-8259
1414
-1767
-6791
779
-4726
1420
-2382
4173
4548
-152
-7600
4562
-2233
-7850
-8393
1386
1627
-822
-4287
-11328
-7250
-3597
-2900
-5646
4718
4203
754
7853
4829
-3167
3031
-3458
-947
-3986
6412
-519
2809
7563
-1783
3797
-5165
-5097
-3212
3268
-474
-6240
3669
12974
11099
5079
5457
-1684
-3556
1617
5217
-4992
-1893
-2705
-2379
-6568
4637
-11114
-12629
6369
589
7099
-17923
-11263
8922
-43
-414
-611
10466
4781
-3750
-18837
2073
-8611
-11097
9159
-3791
6202
-5895
-7240
1759
11373
7997
5850
-2949
8781
2060
-4504
-877
4902
3126
4001
-6338
-3901
-3014
1128
6701
3056
4853
69
4704
4326
-1873
732
8319
4119
4363
-2383
-10920
-5920
-1897
-11628
-858
-9589
-5191
-4041
2177
-7308
-7119
-2833
-3920
4066
1365
-14394
-4235
2964
214
-5998
-6608
7830
-7751
4906
6594
2989
4154
-739
-13699
2378
7180
-5319
-5904
-9051
-2941
-2455
-8261
6896
-1585
-3533
2583
12856
-18528
3186
-4639
6756
-920
8446
-9517
6131
3612
-4142
7529
-9844
10321
-1216
-531
-2545
4768
8288
-6286
-5207
-214
4920
3960
-3100
417
1940
3842
-2602
-73
4813
11402
724
-10420
4753
-1958
6615
7564
-10234
6512
2264
-3030
-6733
-1716
-3253
-6480
1015
10139
2559
6986
-2421
-1998
-5624
-7837
1025
9479
-123
-14930
-1711
-1199
12796
8731
2770
-1626
-7907
503
-13970
12038
319
12044
7003
21517
9547
6841
-2340
10811
-3520
6861
3525
1346
2613
430
2954
-3680
-23
-5864
-1390
8372
8229
3737
-6522
-5979
6086
16841
1383
3677
1324
8236
189
11065
2388
-6850
6901
26
752
-4111
-1797
7401
11108
1588
4028
-2418
-1048
895
-1260
5935
-164
-1267
-1462
-6570
-2766
1480
-4474
-6618
8499
4518
10590
-1580
3030
10585
-5620
-4203
-5944
-5199
-8834
2209
347
-36
1931
1133
7435
-940
4709
369
3658
-4212
-733
-2833
3750
785
-2349
5635
-16068
1235
-5638
1303
9502
-8251
405
15304
1779
-187
-2827
5934
7251
489
-1498
8200
2444
5068
3140
4662
-6737
6442
-520
-5981
-5811
16337
-1288
3574
-4109
488
7890
4714
-9139
-7926
1757
10394
-563
853
5590
8498
1841
-17
6093
18626
10205
3972
505
7494
5043
21050
13941
10550
-1119
12260
-4724
-1368
1250
5709
-981
5087
4610
-6568
15046
-2026
36
-3879
2343
2831
13820
6785
5643
6107
4072
16305
587
4873
-2652
2488
9877
-4923
-9143
1039
2726
446
-13218
-7112
1673
-176
16307
15028
8774
-7757
-7200
-6477
-5822
-8351
7200
-5630
-1031
4414
-4500
-532
-8634
-16315
1520
4709
4856
9425
924
-8502
-6039
226
-15621
-5411
10435
-56
-12109
4483
2096
1213
3646
-856
6624
-825
-225
1521
-4078
14689
-1245
5889
1065
8836
-109
1488
-2747
-6034
4947
5837
4250
3358
5749
6043
3730
-2146
-18613
-6058
-4597
-2838
-5779
-12332
-1109
-6135
103
497
5256
11784
2853
16545
-12230
-5365
-1783
-93
3764
-5074
-7907
-5720
-3413
-8400
6745
3594
-5009
2904
7321
4535
-5413
3392
-15656
-14742
-433
-2808
-6512
-1770
-10562
-14980
4429
1398
-9374
-8148
-1204
-10798
1590
-4632
-930
-2872
-15996
-6054
-5634
-7485
-4112
-2856
-8049
4853
-724
3157
-3513
-1315
-8307
2295
851
-12067
4560
4981
6022
89
3393
7853
-8519
-1825
-406
7530
-6632
-1358
3619
5302
-1525
-230
11097
11070
8404
5385
4932
-5974
-7309
-2305
10379
2397
2462
2526
-1254
4747
-10286
-39
-13303
-3713
6225
-7859
-18631
4586
-4169
-8758
-4129
7340
-11985
-4147
-4768
-2247
12013
-2646
9377
1900
-4943
-7568
7019
1674
6241
6458
5332
-6894
-6984
-8773
-2384
4660
3990
1720
-1112
13413
1798
2749
-11769
-3443
-2404
-2753
-4417
-11444
13547
7008
-4281
-5637
1560
3129
-2088
-5761
1681
9032
7750
-6818
-19353
-511
347
-1622
6444
-3490
7420
1834
8715
5261
-7894
-1151
-4591
-3142
7700
6728
-1795
8178
375
8722
-2944
-2429
8600
1129
4085
9288
8620
999
-11625
-7670
7231
-2151
12909
-313
8704
9494
6028
-1534
2724
-107
5236
-1282
2968
-1406
-927
1367
-13382
492
5735
-1002
1969
-3851
-847
-10438
-1278
-5770
-6533
4169
1540
3435
-637
870
7216
-1829
356
-4217
-3836
-9
-6246
-7399
-4207
2440
9992
4050
-14
9079
-8279
-9831
6060
5322
3287
6894
6071
961
-4161
578
4913
5414
-6766
-6089
-4898
-15203
-4445
399
-9713
-5807
6333
5052
-2627
182
4753
5799
412
4994
11658
5499
5134
-2848
7864
2780
-9361
-3326
7780
-2464
-48
199
6868
3251
-2020
-1991
7582
5662
-1148
-1255
4287
-3236
853
-1552
-1370
4514
-2531
-427
-104
-4345
-950
2143
-942
8704
-1164
2729
-3747
1926
-5618
-7500
-716
-677
6882
5367
14248
23
-2087
908
5407
-2744
-1664
-622
-2315
1317
457
2089
11654
3651
2479
-239
-9202
-6980
7955
2171
-506
-5035
5280
1523
-1284
-3708
-2570
2400
6003
4847
9017
4068
-1396
1599
-2522
2955
2139
2857
6793
-587
761
3200
-4767
2801
271
242
2145
-1648
-1651
3638
5096
-4702
-5800
-1217
-7361
6513
-1591
-1014
-3305
-2054
-2121
-2233
7444
-4076
-3651
-4234
-3385
-5324
-517
-5575
-2602
2463
8792
-1941
-703
-6043
1112
-3615
-4666
3143
-3887
-7818
-3805
-3752
-8271
4462
-8241
-937
-1274
8711
-3566
10691
2717
-4751
10231
1599
-3699
2050
7732
411
35
-1136
1597
1443
2764
-2665
-801
-3196
-8211
-10858
3758
456
-147
231
-914
1548
8490
2118
-10303
-2828
1460
5405
-7580
-2321
2591
-2667
-1550
5115
-9849
-8492
-10080
-2972
6639
-4323
-1206
330
3399
-6488
1508
-7075
-2600
4721
2428
3987
1167
876
-5855
11322
3994
4673
-5459
4111
2233
4305
4668
-1204
5291
5947
-1916
3649
4578
1306
2494
1519
1940
-3834
-2144
-600
14177
6649
4383
5025
-4646
-6409
-1516
3056
3548
767
10576
703
1893
1274
-7702
257
1078
4939
1169
1005
3716
912
-7445
4893
3693
-6501
3696
4670
5220
-1508
-30
1576
-7598
4085
5148
-5285
14610
798
7568
-6012
2477
-967
-4740
-3808
5831
-9091
3482
1842
10051
2390
17690
5640
579
-8401
2692
2708
4488
-1784
-6413
49
-1387
-1788
4321
-2406
4156
-144
-1027
11202
-6308
5866
969
2042
-5881
-10227
7322
-4385
-5442
2390
-5219
-7074
4178
-5962
1201
-1504
9334
1205
11616
3574
6173
1137
-2460
6676
-2660
-1180
-1326
3309
16501
1313
-2283
3666
4383
11452
-4203
-1719
-133
5707
14639
-3602
-1637
8025
-4106
-495
1432
6211
2717
2314
-2679
660
-8821
-13660
-11921
-5970
-7810
-549
-3187
-7942
22348
14023
9350
9328
8827
-2006
-1746
-4319
-3387
296
1881
-327
-5349
4715
-3332
-370
8616
5800
-333
10243
4581
6310
16955
7404
691
-9253
87
1366
1923
-16363
-5527
-14145
4696
-2135
-5111
6039
8373
2515
1643
-5662
-6571
-14675
-4992
-10651
-7013
908
-2298
-4049
-24400
-10734
-2139
771
3943
8644
3418
-1520
-9603
-4077
-2342
6687
-6768
-2134
2795
2377
5948
-584
1227
-4920
4121
16810
10519
7345
10641
2938
-1522
-1792
-13836
-5969
4207
-2247
-91
1128
-1438
3378
4671
4409
2199
1923
9858
10467
8947
8567
-10196
-5781
962
-3258
9184
3389
139
7934
2715
1333
-187
11597
5180
-2979
-2667
7031
3379
1205
-3073
-9795
-14634
-13038
-10261
-6579
-822
9757
-1358
1732
-9722
-9624
-406
-3159
-5588
-17108
-4397
948
7945
1580
5113
-29
12655
309
2727
14220
7884
7997
7151
8402
-6701
-12087
1836
-10453
5979
10284
965
-4632
339
6145
1089
-1335
-12954
-726
2791
-11087
1407
4288
-3448
2551
11862
-1345
12018
6552
256
8895
5072
-3360
-1622
8050
11230
6233
-14036
-3869
3248
-2778
-5739
-9869
-10599
-15683
-4997
-2937
-427
-5005
-6235
3326
-1297
-4160
-15014
-11107
-16809
-18911
556
-894
3704
9020
-6479
-12751
-3724
-4333
-4629
-3325
-8228
-1550
-351
-4844
-9402
-466
1220
-5198
-2249
-4065
-11086
-8590
-1019
-7414
-1922
3571
-1538
-12364
2454
-3999
1503
6383
-26589
-3777
-8531
-2369
4125
5738
-387
5532
-8722
-2186
8743
-3012
-16752
3014
-4987
-7353
-17448
-7998
1707
-11689
5401
549
5881
-894
3313
-53
5667
-3919
-2214
-2966
13410
8422
43
-7714
3942
-972
-12905
8884
2843
-1638
-3511
-8193
-4879
-11484
11548
917
2384
6324
8225
-2788
-5441
-6036
4517
10442
6130
11110
1239
7804
6814
3373
-2098
4251
-4671
-7271
-10456
-8908
-14947
-8888
-5011
4238
4497
2782
10809
6468
16523
507
-4710
-877
2349
3094
-17509
-3041
7106
253
-18334
-5054
9010
-10272
19504
-8024
-6293
-3857
-7665
-8800
-2270
134
-8396
-3263
-7254
-11001
14947
-2224
10162
4319
-4738
-3977
-9449
1788
-15061
-5561
2305
-8100
635
4453
997
4452
9032
1414
-2397
6612
-5589
-24283
-18256
-10830
3612
4648
-756
38
-3798
4033
-1843
-1547
-7762
7660
-1677
3818
492
-7324
-10344
-12015
-461
2418
-2099
4757
-115
-6734
10154
-3793
6274
5305
12462
-6644
11590
-1844
9434
4816
-13241
-3436
-5479
-10173
421
1540
1660
-3510
-20730
-4817
-5678
-14391
7281
3099
1043
-8747
7851
7891
380
-7838
-2751
-4246
800
-2295
3189
7840
5708
-5621
2564
6345
9883
10394
-1954
4081
2085
6060
-17971
-7699
-2116
-11092
-6039
4174
-5263
-2212
9876
-427
6806
-1504
52
12805
5786
7960
10113
-1147
-3791
6623
-10280
-2685
4997
-2641
-11352
-10602
2014
1175
4774
4872
-401
2853
10500
3405
5739
7284
-6039
-3050
7589
6980
-5120
-6393
4109
-8240
10320
11935
5534
2147
-3170
3711
-1480
4641
1056
4989
3743
6702
-13382
-5609
-1628
-9319
-3316
8625
4011
886
19341
-791
-7543
4383
18813
3762
2102
5618
3239
-2384
11297
7199
-6442
-1421
318
-7170
13641
-3191
-10503
3265
9296
7464
4197
7704
4976
-1996
-5186
5330
-12869
-16763
-7173
3969
13459
-1739
-425
1815
-8794
-5388
3616
4736
4368
41
-8449
6600
2843
-10768
-11238
-4541
2877
634
5059
11443
2943
8317
2361
5771
4321
2006
8182
5025
4962
5375
4092
2893
-1759
-4840
-7620
-8297
-9864
-5484
-9779
5725
-5068
1956
2783
1614
4983
-7521
133
4627
9494
2632
10529
-87
-3118
807
-374
8630
-6444
-14590
-7535
-6797
2076
5008
4496
6589
2023
11257
4039
4996
14493
-178
8183
3804
7642
-1989
-6376
-10083
5055
60
1199
4074
-485
2545
-3786
1348
2145
-6085
-4980
-4405
-2158
-13546
-6033
-5908
-9733
-9706
-13767
806
6580
-3153
6365
3723
-8917
-6591
1912
-9978
10089
4593
3180
9027
1123
-930
-1804
-2381
11183
4200
13242
8716
3563
3617
810
1909
-728
-5417
890
-4889
-7538
-1635
-5153
-1273
2960
1401
-3130
4783
5352
-5628
-1588
-10645
2431
145
-1567
4767
-8156
-7898
-5267
-7486
2236
3230
3989
2617
-2869
-11870
5541
-3785
440
287
-2409
-622
207
-7139
2174
-7734
-2970
-6738
8362
-3756
-3365
-1645
-4038
327
-5616
-11834
-6676
-1518
-249
6467
-1217
2297
8424
-8017
-180
349
-3215
1451
2061
-2317
-3490
-574
4318
-2501
-1196
-5867
-7207
1333
-543
3649
365
2138
6584
8260
2702
1213
8574
9356
3086
3403
2435
-1628
4833
5103
4442
2443
1722
-1965
2249
-2624
-1425
-125
359
-813
4752
-3943
2583
-3722
978
3104
9531
4415
-4393
2920
4534
2358
582
-644
1731
-7670
-5050
-6625
4915
5975
340
-117
4464
-2803
-5909
2427
1130
5510
5173
125
-5876
-5014
-6279
-9174
1485
-10661
-3919
5032
3415
2158
3248
-1131
9544
6180
-4667
6667
1623
-9682
5954
3910
7333
-10314
-4123
-2896
828
4056
-2256
-4025
-6203
632
1037
-503
-1494
4522
127
3266
4207
-4064
-2790
-8458
4311
-1344
-6528
-945
-3164
-6010
-2667
-2573
-1222
1529
5027
-2005
5129
-3191
961
-2638
-5985
742
-3146
172
-6185
-6619
874
-6598
7211
1999
1413
2733
-5900
-1811
-6675
-6688
-5832
145
-860
531
-2768
-4979
1860
-4333
-7069
4757
-372
824
12244
2255
-9155
-10954
-5345
-6811
690
-2781
164
256
-3094
-3254
1271
2614
-806
4396
-3032
-506
265
3122
-8177
-174
-615
-2666
-6225
6559
3987
4685
-701
-4599
18
-5519
-4872
-4664
-644
-5441
-6921
-4007
-5606
-9595
402
-5668
1253
-4880
1488
-8619
4370
-1194
283
6032
-1811
-1222
6104
-1452
2372
1737
804
2607
5289
3254
-97
-5789
-5156
-6781
7027
-1814
3612
4682
-2812
3902
-5316
2712
5067
-725
1292
2527
9302
2340
-465
-3593
4195
136
-2960
-7430
-7814
-10134
-5761
-12405
-2802
4199
799
2441
4200
1593
-5371
-3052
2045
3106
-2788
-1949
1664
209
4025
7066
-6774
-13448
237
-8192
-3127
4190
-5555
-3406
-4040
-11372
-5005
-213
-3661
-4192
496
-2852
9344
617
4874
-1376
1989
-13684
-11667
-5867
-12769
-6688
306
-2853
10373
340
360
1769
13032
2938
-3748
8910
-6582
-4523
-5258
-2524
82
-8509
333
-8506
12213
4837
1155
5939
1973
-1945
4315
-2832
6467
-12654
-8061
-13327
-2311
673
3530
1309
6105
3367
-2921
-5112
-3252
-6781
6675
-7618
2540
1953
6473
-1028
3046
-4268
-2666
-4342
8359
5497
12796
-3788
-9381
-2776
-9888
-5048
5592
3317
6830
-2972
3091
1156
-5353
-1296
-1540
-12541
-2885
1163
-5675
5168
2989
2238
62
3953
59
745
2351
-3281
-1160
-1435
4380
-2980
-1016
1236
-6473
7222
3668
2688
-1132
-669
5696
3818
1192
520
3389
-1177
-4473
44
-3764
4738
-8344
-4556
-4072
616
-9094
-12271
-4295
3330
6334
-4954
-3436
1157
10941
-3868
131
-4501
-464
-4844
-751
-1984
5928
-1043
-3742
-3380
4300
5070
2587
-1397
-904
-1299
9549
-3477
6501
-4382
-1469
2532
-2268
-7164
-254
-13581
21
-1308
-1168
-3949
13115
-1403
-66
559
8066
-5709
818
-3050
3721
-1590
-2466
2952
-3381
-2275
217
-1478
12087
-10765
-5410
-7493
-577
-4553
-9070
-3411
5993
3222
-4811
-3686
7644
-2830
193
3570
5150
2977
-6776
324
-7086
2900
-5422
-3428
-3178
479
-13256
-5030
-8667
-6226
-333
-8292
-3179
54
3597
10188
2940
-1416
1992
361
-4551
-2776
542
-5082
-1082
-7214
-1989
216
-8998
-3909
-6900
-1516
6517
-9304
2414
-2444
-7889
-4631
-3880
-11201
17154
3304
5889
8080
-5406
1848
2565
-924
-2829
-3297
897
-772
4544
-4673
-1193
-8333
6387
-1137
680
-1945
1323
3930
-1111
-7247
10394
2720
3179
3672
8328
202
-892
-1886
-3347
-3253
-462
3140
-1324
-4322
-5093
-4080
1814
2509
-4157
-6683
19249
3005
543
-1868
-2419
-4864
-5037
-5581
1235
5545
3195
7760
-1586
-3496
-6784
3427
3596
-6537
-1051
-8920
6176
2835
848
9813
4012
13309
-3254
3184
-12349
3432
3034
-2671
-9805
12706
-3037
-12393
6709
-4967
8308
-102
5083
1160
9495
10439
1743
-3626
6983
-9066
-7373
-3677
-11027
5630
-1236
-13492
13725
16815
-10881
9107
-15851
10977
6164
6094
9813
8880
4261
-7198
5038
2294
-8036
13710
-10714
-923
3538
5459
71
5561
10868
-713
344
-16336
1240
3775
2736
-2461
5875
-7528
7850
8339
4109
-2467
-352
1581
-5573
6983
8211
10750
-5808
1802
597
-10180
5955
-5029
6407
-1169
6014
-924
5986
-377
6745
-4636
674
-1903
1209
6275
5010
7942
829
32
11590
-7084
-14442
6454
2412
8081
-7252
-3535
-9992
8388
1946
-2250
3334
-5479
-4158
-5127
-3902
-6060
-5357
14831
7317
9902
3319
-5570
621
9705
2313
582
-2561
-6927
-2689
10828
3479
3921
10559
-5714
11966
7609
-3025
7308
-5095
-4648
13460
-12881
8031
5567
3943
-2237
-5708
11707
2301
4700
17373
-6045
-14305
11094
-4691
1869
6787
-6741
8850
2421
3460
-672
2051
1376
-5123
3852
-4198
3301
-10589
2391
2972
-614
-4245
2414
14
5747
1996
7198
-8826
2730
-4343
-4375
3057
-1407
-3071
2832
-2314
-4275
-2
-4160
3807
-10868
-1524
-6025
-2613
1405
-5732
-7715
-3184
-9231
-6328
-901
-1648
-2103
-5421
1550
4557
-440
6983
295
-2615
4323
4058
-8415
-8744
3392
-1896
5311
-3437
-6469
1546
3694
-4659
-7349
-10867
-1373
2261
1387
1637
-4105
-7783
-175
-1187
2625
-2902
-2877
-672
-2413
-7083
-12606
1361
6325
-4693
3530
524
-641
5125
-1686
-3162
-8783
217
5367
-9195
-5319
-9541
7028
1787
526
4444
-2666
-865
2217
-2518
225
5288
-4389
-1662
4591
-2310
-4796
-2937
1387
-10149
-7898
2176
1147
-673
1377
1859
-3942
-313
4033
1943
1902
-4686
-3017
4093
-12444
4612
-12555
-491
-1820
-1862
-13789
97
-3497
-2909
359
2680
-7089
-12876
-2765
-5786
-2809
721
-324
-2795
3972
2231
-11017
-3970
-4730
-14742
-1714
3326
1830
5013
1858
2077
2923
7064
6999
5597
6185
6060
6609
15365
12002
5487
-5237
5788
11283
-10408
-2413
11275
7549
-15855
-20427
-1216
8031
5316
-2230
3026
11627
-6885
-7920
4420
3902
-9710
-1737
-8535
-17309
2711
8670
-6071
955
-729
-11049
-595
4142
9580
-4319
1254
6503
13076
14839
14311
14365
10368
901
2307
-407
-2644
7599
-2280
-2107
-12007
-13170
366
2750
-10093
1347
632
12510
-414
-2541
-7917
-18233
14311
17699
19001
18763
-4959
-11091
4068
-7516
-10566
-9523
2174
9344
2816
6639
8463
-1138
6894
10885
5330
730
4549
5328
-5588
-2594
520
-3991
3287
13718
-5838
-9765
5915
6851
-17320
-8722
-3759
-4280
4632
10299
10175
1521
7910
461
8906
4847
8043
5134
6439
1145
3709
13631
-13196
-15756
-2781
2350
-7587
9200
14905
2329
-13964
-1036
13152
-9755
1156
-5358
-9103
-2000
14794
12876
1375
-7209
-4712
-5738
2038
7078
817
6824
-7811
-8363
3437
3123
5026
1103
4186
-5205
-6673
6867
6148
5756
-2451
5854
-8487
-1487
-136
-436
-6050
-6831
7755
8036
-6900
-10958
10144
-2846
-2111
-3748
7989
8230
5711
587
6839
3964
-14413
-9072
-3058
3182
-3802
-4805
-6221
-1258
-4836
-164
3651
8935
-104
2970
3113
-5811
5005
-3373
18361
14541
-1369
-10906
-21674
-125
8974
-350
2311
-4222
5946
6510
1064
6333
-9662
-3342
-11485
-4404
-3238
-1378
6623
1304
4828
-4283
14961
6428
2534
-445
2650
-3826
-3448
-5958
2388
-6007
-3971
-1199
-2518
-5490
7636
9921
-159
7207
-4573
323
3759
9534
-8342
-15074
936
-4918
10237
3634
-3824
7861
-13074
-11645
-489
-4675
808
-1050
-4368
10734
7134
-1826
5857
8219
-194
10474
-1747
2728
-13748
-9977
1024
12501
-2248
15902
2360
1078
10837
13460
-3828
-823
-6370
-1069
6419
7390
-6332
-9613
10446
5859
12974
7693
3365
4780
-482
-6318
7239
3517
6788
5721
-8263
4907
753
1520
19339
18318
-5216
-6793
-17227
-11668
5540
8693
-8275
1069
6632
1845
466
-1630
-2989
-78
2458
-5187
12797
3818
-3788
-6652
-324
-6965
-2003
-915
4849
12953
4076
-4787
3089
2043
-4882
-2327
7099
4123
-12161
-13966
2977
741
1929
4121
2636
-5052
-7994
-10581
904
-3272
770
1275
-5639
-7408
2987
-655
3200
8561
800
-441
-5449
250
-4073
-1930
190
1804
-2617
3349
365
2526
1052
-4374
-136
-493
3399
-10885
-11525
111
-4864
-1891
-71
-3555
5080
6893
-10683
-4789
-4991
-7346
-7401
777
-4822
1100
6476
2167
-3822
-10007
-6913
-1045
-5591
-5761
-4902
-6603
3007
1491
9
-5373
5215
3071
2325
1104
-5070
-6092
953
-5862
4219
510
-3211
5248
7696
2128
-241
8129
-6119
-9647
-381
-3900
-3001
3656
-5030
-6780
699
-5616
1138
23
-4712
-3003
1178
-6227
-8189
-6233
-8287
-11479
1626
87
1332
3395
-5102
-4567
-6552
4204
-5342
-4370
-3969
-6480
-460
1232
-2817
2013
2897
7132
-4875
-4520
-2784
-7701
570
1525
1860
1714
2391
3518
1766
3311
-1925
2649
-4682
-1767
-2044
1923
-1484
-4746
-8012
-15227
-4469
2372
2585
2120
7159
916
2104
5796
-2887
1450
-3356
-2065
4677
4530
5164
6484
-3134
-3469
-7132
-4821
8854
-1347
1049
3400
-981
-3800
-2038
-3136
-3831
-5859
5471
13075
2592
3868
-8727
-1318
3345
1476
-2592
-4375
-7846
776
1828
3557
1875
1635
-2004
1663
-5369
-1505
3409
1161
2170
1592
-9897
2187
-5046
-6105
-6120
-3627
-2442
6567
1298
418
-5452
-11341
5972
-4634
5831
-93
1886
-1968
-434
-3353
5141
2131
-539
-4979
-3377
-6880
-6052
1492
1702
-1853
-3187
-2156
6279
3932
-7512
-2495
-244
-5122
-449
1178
-6676
-6959
-3056
-357
4810
-1559
4679
7830
-2576
-1270
5006
1352
-8546
-6776
5937
-2446
1621
5008
-2297
2707
-6669
-3415
-7156
715
-2755
-10054
-8462
-953
-11990
-1325
1727
-3197
1036
-1694
-5670
-2253
-3941
177
-2703
4558
7107
-1493
1027
-146
-7694
-8140
2371
-5975
-5207
-10851
-12669
2395
-1588
532
-167
3254
-6603
-1413
-688
3979
4126
991
-4374
-2391
8212
3393
12747
9699
-3177
418
11546
7355
5313
-3782
9861
283
4966
6402
1581
16985
3480
12455
5592
-2907
-993
-308
14224
7831
4875
6178
-267
2438
-4012
-8401
11960
6896
5893
12897
-9755
-12237
-16128
-18984
-978
4000
5584
-9371
8201
4151
-1398
-2028
7656
5773
5332
2496
-10063
-8739
-10554
-17582
10430
7792
6348
8071
4569
-529
4685
-3771
-10669
-8666
-3472
-8368
8202
-1015
885
1420
-6964
-4074
-10289
-2383
-9627
1727
-4338
2126
6912
6569
-7679
-910
4718
1232
4612
-1145
-226
-1177
-258
178
8320
12565
19369
9219
4533
5506
10634
3840
3799
4527
10182
-166
4087
-1566
-5245
2345
5958
693
12177
-7134
-5631
-3038
3815
7205
-6295
-580
-17488
-6964
6451
-3118
-1440
1417
-26319
-7461
-11331
3800
5191
3330
9896
6999
7410
2841
-2188
-3559
-4239
-10895
-13782
-9917
12651
15375
13523
12969
13167
14724
17478
17961
573
-9521
-6753
-4831
-8760
1331
-4719
-3133
-832
-2568
-9211
-7393
10925
9859
1111
2105
10387
8101
7810
-2091
5801
1777
2871
8110
14710
10946
8591
17894
1178
7668
-3247
-2719
-4427
3256
8633
7778
-6724
-9740
-3132
-4237
-4262
-1521
-3919
-1472
801
12918
11381
5696
-10259
-12228
-3619
-2759
9838
15581
18423
10377
-3682
-9881
-10314
-9888
-3948
-426
-8088
-3614
6880
400
2412
10423
6047
8538
6818
8042
-4289
3585
1996
-108
1098
12743
2905
514
6427
13658
10822
16051
3341
3080
-932
-5085
12625
-4900
3472
4391
-11229
-11503
-15071
-15414
5504
1708
-10489
-6335
1433
-6563
4806
6269
9321
3053
7369
-2478
-6509
-11481
-11027
-3909
6615
6920
4567
5437
-1924
-8288
172
-269
3790
5633
-2281
-2478
13705
8855
10424
13093
-2452
1590
2016
-6952
-7420
-3228
-4019
-5773
5764
-5534
2581
1876
7827
-814
8130
3635
-6381
-27
-444
-6274
3227
6952
-817
4774
2532
-22
5895
-3381
12337
1924
-6890
8588
-7122
-5925
-7968
-3551
9611
6965
10650
703
-2713
3623
8040
-9149
-18126
-3393
-7251
-13562
4007
-2998
705
584
2652
-2862
-7067
4872
74
7027
433
7874
-1739
-4612
6427
-4199
6274
6291
-226
7146
-415
8516
476
3216
21187
8873
12390
5887
8939
-5396
2916
7888
11521
1514
11455
3439
-11364
-9258
-2756
-7896
1713
-5607
2557
-6257
8016
3493
1352
-2016
457
-2602
-3333
-3856
3462
2565
-9593
-5399
-2410
6870
6120
1946
5203
11555
11593
1187
7202
1888
2176
-5251
-3031
5446
6428
3873
20478
14075
14799
23117
-14713
-1272
-13431
-10574
-25485
-13176
-5785
-2433
3553
1531
-5689
-2236
-2731
-3464
-10897
-4801
1125
6654
5656
-619
-1370
-229
3312
447
-6800
-10655
-7403
-3729
245
4426
-1312
2570
-6162
4217
-540
-5597
-5511
5353
8032
9696
-3354
7361
-10588
4952
-214
7573
8777
16244
-6745
-2873
2214
-1728
5835
-2125
-3117
343
-8469
-2147
1527
-5316
-6861
-854
-4983
179
73
2100
-5254
-5028
-5435
-4649
-914
-4814
-1854
11605
14760
10043
-5357
1519
-40
4690
-1641
1843
463
12555
9094
1292
5523
3216
-8805
-8281
-7574
-1328
3957
987
-3311
-4486
1797
10193
1352
14327
5884
-4027
-26
3377
-6924
-1126
-5794
-12047
476
2025
670
-7403
-2092
2937
4757
-3268
-1646
-4739
4981
11690
15574
-1049
-1694
2062
3704
9387
3141
10879
5079
-3135
-2419
-2830
5573
6052
1675
4544
-247
2905
-5721
-10639
397
14288
8269
15861
-1807
338
6135
4708
5543
4869
5026
2993
9357
14753
10236
10737
-7802
1510
2341
7382
-1035
2144
7408
-7236
14921
4825
325
1582
-1069
-4417
6938
-11113
9427
6845
5544
4146
8598
5850
1832
14242
7304
7073
759
-5134
-3365
378
6210
3807
1015
1343
6418
-5788
-630
7870
-2573
6116
5591
10
6633
3867
5052
10451
6622
7993
18831
6547
9163
11428
2551
-1651
8776
-6618
-20098
-8275
-10283
-10266
5565
9083
4907
11684
-2399
-1738
3192
711
-1028
3230
2087
-1586
-5073
9156
-4892
5568
-10902
-3186
-17808
-8743
7577
4979
964
-1983
4112
17201
-1325
8829
8787
2683
-4091
4189
-6166
-5844
2680
-896
-2532
-6955
-810
2158
-1718
10106
3181
9444
4450
4515
-3054
7518
2163
-1521
4296
2522
-3722
556
-11079
-10721
9603
5060
1221
6749
-9063
-6371
-4713
-3585
-2835
-8157
5580
7329
-126
-3256
-3512
4966
5003
-845
8012
9063
-4584
-5054
-5284
-12952
-2720
8864
-2447
5584
1299
4654
7236
6194
-9225
-224
2111
-3798
3550
1769
-1477
-213
8178
535
-2767
-5763
-5816
-619
-9476
2823
6610
-2068
-6005
-93
-983
-5618
-1657
-103
3327
1927
-880
6868
1888
5090
-2752
6157
2003
5042
6731
1985
4751
2808
-4368
703
230
1189
-2707
260
-1497
953
-7463
-6186
-11865
4773
607
6431
-8061
-7287
-5790
4750
1153
-1388
3429
-2573
1659
-2103
8633
6428
-126
-5387
-1042
-1476
-4860
1045
-5894
945
-4319
-6479
-7842
3737
-5644
-8666
4397
-1970
7360
7688
5525
1628
-2981
-9973
-4270
-8714
-8637
-997
-345
-7316
-3163
-5326
-988
-4820
4126
-6440
-1915
-4572
7674
4656
3100
3890
2666
4090
3091
2230
1216
5375
494
-710
1821
-894
2619
3644
-5203
-2838
-2273
158
-386
3548
-564
-3719
-3240
1770
-342
-3454
123
5040
1678
827
-233
3049
4906
-502
-878
4387
10852
3760
-9645
-4322
-3780
-715
1015
-2413
-1721
307
1303
818
2037
-598
-1605
-1196
-5980
-6668
-6133
-4358
0
-3831
7207
8197
-1570
5059
-2
5378
1497
-1767
1011
6875
4175
4102
5878
-3082
-3010
4647
-17987
-11378
-9057
-11518
-3344
841
1325
2685
5970
-6486
-4821
723
-2891
-5918
-2548
-6532
-4722
-1981
2662
-3237
1072
2676
466
-1973
-1227
-2166
-13616
-6367
4730
-145
200
340
4015
-364
-4338
4185
684
4979
3356
2904
-1784
4266
-1170
3421
-3556
5932
2359
-3361
4288
-1893
652
2407
407
795
4816
297
1596
-709
-3145
-1204
350
-4063
-3263
-1420
6409
-5174
-1382
-3738
67
3314
-4130
760
4359
1218
1399
971
-2505
-7728
-5719
-243
-4081
-1895
-7930
-5212
6375
4804
-503
9641
-3501
-597
2560
6111
-1332
438
2397
2315
1550
3854
-533
4675
1570
7393
-8619
6486
2385
1654
-506
5187
10346
6690
1031
2474
7236
3488
-583
-2308
1562
-7336
-2374
-3653
-2330
-6344
-8686
-7470
-2207
-2235
-4889
10712
-3708
3938
6860
1871
-1101
-2800
-2273
539
1642
-13548
-4772
2885
-2786
-3594
-2244
-4415
6669
6606
3057
8492
258
1957
-609
4975
-5934
-525
-8015
-11615
1910
-539
-6448
1835
-1537
-16926
-701
-4656
-4132
-6178
772
-1542
3501
9774
4324
-3829
-5581
-1152
-1535
-6468
3888
5430
4581
5480
-131
1139
-1384
2349
-456
-3595
-517
-5784
-1489
263
3087
2335
-7817
651
-6250
-5156
3082
5911
4673
-4196
-1256
2199
-3653
3118
2783
1677
1138
1082
-727
-57
5829
5384
-5179
3628
-4272
-4321
-6894
4003
-6260
-4568
570
7498
4588
4603
3512
3676
-2622
-5000
3859
1375
-4649
-2245
6131
6130
4094
6412
-17
2649
-1492
-1823
-3183
-6195
522
-9449
-4510
621
3413
1668
-8042
-4113
-11274
2829
305
114
2378
-2133
1408
9788
4690
7237
-4835
2101
-2237
2949
-5294
-6006
-4316
2383
-815
4092
1191
-4305
-1836
-1163
-761
-2621
794
-741
8218
5518
2132
-6905
3424
-1291
18
-212
2764
369
2232
1123
3766
-7719
3917
1078
852
7912
-3311
-1342
-13012
-7967
2782
4590
6918
3578
1392
5887
4109
3019
1173
4142
1358
-2995
3224
-4477
-3620
237
-1306
-3516
-659
-481
-6989
70
-3207
-6427
-6614
-3648
-5583
305
-3688
-6101
-11360
-10632
1174
-2007
-3699
-6595
3278
7032
3762
1468
10320
3535
1988
4897
1512
3388
4330
-2760
-3221
-4999
-743
-2528
-6
4927
5738
2426
4878
1329
10701
5830
-358
1571
2122
-6378
-112
-4920
-6222
-774
-7024
-7158
1934
-4294
-4133
-12347
-3640
-2154
-4111
2952
-5779
5004
1132
-3449
388
-2458
8681
-2808
2626
941
3608
8621
15088
-998
3729
-3982
1319
-1231
1470
369
-1067
2370
1572
2360
-1766
-3470
2257
-314
-6469
1965
6738
-4338
2695
-1426
3530
-4990
273
-7790
2521
2137
8877
41
-5471
-1627
8436
-4259
755
8409
5433
-9
29
-577
-939
-5036
-4115
2429
6496
-2145
5008
775
-10859
3119
5981
1964
-4611
2979
-7502
-1550
9692
-449
434
-4129
962
-6561
2016
140
4562
-825
9328
7280
1361
6430
3210
-5582
3616
-11716
5239
269
-6282
-3159
4719
4523
4229
-10896
4244
-2962
6975
-3556
366
-2602
-1782
47
-520
1222
2998
6392
-1829
-3208
1742
4231
77
-6690
11752
4361
-7432
-9873
-1024
-6190
-3745
1610
6194
1059
-3575
1690
8060
-1377
-535
-10115
9025
-5462
-6084
1009
-7895
-3989
-2848
-4297
-66
218
1298
9629
7864
4745
2568
-6951
6315
932
5564
-5873
5068
-5500
6361
-7738
1240
2832
-2723
-1158
-2710
-4114
-9528
5063
-4404
-4064
-5130
-7156
-2739
-4286
-5102
-3582
4518
-8162
5603
-779
-4030
1437
8097
4799
-7462
-13207
-3180
3536
-2729
-1191
426
-129
-2779
4733
3285
7593
7182
-7480
5974
1205
-2660
-614
-2669
-18907
1441
9051
1105
1876
-3471
-364
6185
-2266
364
-8867
2038
-998
11728
-2095
-14653
709
-7141
10659
-5037
-2167
-8259
-438
-474
13454
10095
-7136
15004
6004
-6117
3435
2162
65
-499
6327
-4424
4762
-571
-1173
-8637
3992
-2505
4094
5116
10592
6612
-390
7107
-1506
1554
7751
3430
-3566
4759
-584
-12168
-1188
-3053
-1541
-5018
-225
14324
-1448
-4794
5125
4055
7700
704
5364
-1045
-816
3036
-7732
-132
-5196
17492
-10797
-10005
-4764
1443
11369
2674
-4014
-10914
3748
4938
-8413
-2471
6216
2871
2317
-2227
2222
462
-6877
-2243
10155
-2105
4465
5200
15795
990
-1382
6824
1994
942
2010
-2211
-12917
8027
3479
4520
2860
-1716
-2428
4121
-7962
-3236
-161
2923
-4606
-2357
18414
15889
-1151
-327
6929
-4587
19283
-4124
11272
-18495
6477
-2379
5595
-15947
6890
2504
-7960
-4375
775
3773
3428
3426
14197
-177
-12489
2220
5041
659
4172
1764
-2705
12421
-3543
-8003
-9372
-14149
4332
-1948
1913
-3096
-2701
-5377
-3659
-4969
6127
1001
6260
-1313
5260
-9225
11161
-727
-14090
4306
7225
4525
2935
-2615
-8517
2156
-3521
-8169
-2372
1691
8823
1435
5744
-4709
8633
-2215
-280
8148
-3102
14984
-3542
-7846
3001
2800
11071
-4492
-5165
1964
15741
-9019
2743
-6156
-1554
-3004
528
-2403
8979
5389
-7970
-12501
-3019
12678
8580
5594
-17182
-8412
13079
672
1171
-429
-6259
-8050
11823
-13931
1590
-5056
6241
-163
812
2190
3481
-1077
-6658
-12228
-3640
5745
7580
2109
-4484
-3707
-11359
826
3290
-4040
-3012
5551
-121
2433
3965
-3503
2269
3221
-1574
8637
-773
-2551
6490
9114
57
-4102
-3154
7661
-668
2222
-15674
3037
-2323
7270
5034
-3938
-172
7418
3513
-7783
4719
1196
-11939
8356
2245
-5495
-12159
-6505
12129
-8417
12160
11705
-7628
9321
8427
1508
-1539
1645
-8906
5974
-6975
-732
9339
2980
1765
227
-1881
-3479
3458
-2773
9682
-3716
4299
-5767
6732
-2700
18099
-3232
-1005
-2118
-1559
-5322
18935
4502
5413
-8213
768
-8177
-338
2509
5022
-8140
8939
-753
536
-4116
-2284
-3153
1807
8327
-12973
-12159
-241
6252
2470
-884
11393
5955
2613
-763
4530
-3777
-4757
1369
-5487
6621
-3683
1328
-9005
-3465
5830
6332
5247
822
-213
-7817
-8985
-4360
10939
-7247
4976
982
-833
2433
2777
4113
-10743
4352
7735
7233
2166
13637
-284
9136
-2472
-2584
-6876
6599
3432
-2619
-10641
3616
-7032
3592
6218
-5268
-3642
5050
5032
9781
5005
-6417
7460
1988
3436
6225
-8414
-3874
6897
-9735
15131
-10133
5225
6853
-3084
4304
-9177
-1790
5312
-3395
1647
5712
-5216
-881
5138
-12671
-8995
-4310
1514
6916
-1821
8452
8475
8037
-5832
-7168
4176
-4690
-380
-1862
8529
2265
-4834
-4255
1278
-7011
4836
3581
-3164
-3934
-1496
603
392
-3668
-6936
6390
6740
7032
-13604
3165
-588
-6850
-3394
-3120
-1402
-6473
543
4757
-1530
3994
15998
8607
5474
14494
-2499
3555
-11309
-3944
738
3038
-6589
-2576
-6186
-2942
4393
2128
-2484
-5059
3178
955
799
148
-1056
8505
1825
1370
-5399
-2852
-2654
-2405
243
-3383
-404
8301
6035
4335
-6754
-1230
1976
-901
5579
4591
1457
1503
784
7387
2668
-2736
-479
-10742
-3817
1243
684
-5290
-7366
4834
134
-5038
-5629
3560
-1630
-9368
7124
-2282
-882
3097
-2458
20557
-3416
2880
-12801
-5026
-896
13767
-11281
7803
6053
-3482
3926
-1073
-1987
-1998
-2897
1872
-8390
-1251
-1490
8380
-2761
-10181
995
4407
-1541
2358
3312
3649
-1445
-1882
-351
4303
2055
2798
4448
169
275
-1260
-9388
15392
5120
9774
-4774
-797
5148
3456
-5627
-3203
-6714
2404
-880
9909
-7708
-950
4608
2708
5755
2911
1668
-2261
-2854
-11616
-2249
8583
-11826
-4847
-803
-2253
-10368
-9483
4570
3810
5379
13143
-4540
1644
3408
-8436
1343
8725
3072
1012
-6220
7819
-4810
391
-3879
9636
-7291
805
-4662
-743
-11892
3827
1649
-1153
5969
-313
3174
-1850
-1152
13130
3810
-5533
2162
-517
-5308
2217
-4007
6143
2921
10064
-5624
2799
-4557
73
9261
-1729
-3284
-1938
1364
16421
-9033
-4260
5467
-897
3226
2942
3681
5369
-1498
-7447
1411
-2149
-4021
4617
-2189
3093
-6380
-3999
-4766
-80
3031
7353
-2055
-2016
2192
13167
3413
12065
-8491
14984
-6578
1632
-9140
489
-651
1915
-2226
1267
2367
7188
43
2997
-3318
-3010
-5435
-6345
488
19
-2587
10204
-8972
6549
-3533
4139
-6302
-6808
829
7233
-4324
3447
-6850
-6938
2832
-7495
-5922
-241
5057
-931
-1584
-678
3131
-914
5916
19799
-2292
23230
-3155
5002
-5440
11464
-2172
14119
6471
-7804
2184
17566
14097
3901
3344
11818
1640
-9709
-2596
1585
-3984
1684
-5576
5573
251
-17105
-1438
5027
2147
952
-1937
-846
3854
-4066
-1778
7446
-8722
8732
2460
7420
-6
7128
1879
7578
-3811
7110
300
-3696
-7792
-1201
4129
4849
1842
6037
-142
1310
-6087
-3811
-1690
3004
10437
-2097
11574
-2230
-5143
-7235
-3082
-6976
-7022
-25739
6169
7073
5675
8562
4492
-8753
-4856
-2898
1246
-1288
2264
-10703
4881
2980
218
-7709
10484
14216
7981
-12320
-3184
-2759
-4398
-13034
5139
4311
14896
-18342
-3907
9773
5809
309
-3706
-11918
-7559
-3412
1254
7330
5679
723
13306
7819
13908
5872
1868
5786
2179
-1075
287
-6151
225
-4564
-9116
-5162
-2155
-2329
-8795
-5867
7602
-4932
-8369
9386
3223
-13290
4572
6807
6736
-1717
-11400
-761
-3568
4633
-2197
7854
-625
18002
-9084
-6062
-9424
-10115
-6285
-2668
2754
-3736
6289
11606
8121
5950
-1761
6757
3102
-1890
6931
10397
7561
-2409
9900
2429
1303
-3017
5180
5346
1005
-5779
9296
3110
-567
-5004
-4081
-496
9872
-348
371
6699
-6080
-5647
-858
6353
-7373
15397
-5962
12048
-2338
-8210
4747
-5600
-1053
-14915
12689
11223
16326
5801
8425
3408
-7034
-3732
-5328
541
-7071
-26132
-14273
435
10407
-8437
-1148
5580
3206
-5460
-6270
4585
1529
5170
-164
-3636
1246
-9665
8913
8530
16823
3903
2592
-1300
2487
-8500
2831
11495
235
1556
-471
-1959
-1058
-1177
1921
9027
-136
100
-479
-9733
-1562
-7530
-69
3348
3695
6266
727
2034
-13476
10103
-1944
6210
-3900
-7393
1935
-6384
-5166
-3613
4968
5065
3693
5445
5964
-6805
-565
747
15243
-7230
-4861
-7320
3025
514
15036
2624
-915
3748
-6574
2050
-1319
-1086
3233
4987
5903
-4504
3672
-6057
-4336
-11835
-14453
5524
-5312
-4360
4572
5427
-3273
-9645
-7588
2409
-6435
-2942
-942
-12836
-1087
9326
10432
-8299
8350
11924
2520
5565
-3937
-2386
-10555
685
-3611
-3655
5250
-4208
-11266
-11229
-10584
-10359
-5621
1100
875
-17352
-5343
8012
9979
23574
-6333
-6135
-1945
-3057
-269
8649
-5507
1456
5657
9220
3887
4098
-1531
-808
-2206
6435
2659
-4546
4819
-16490
3449
10581
10814
2595
1662
897
-3619
4032
9217
-4260
-12050
-10797
986
7460
2502
4066
4447
-98
-7902
6009
-7810
-1013
-887
-232
-5452
3644
-3550
-12967
19782
7268
2837
-5190
3588
-7194
-7656
-3738
-10839
2416
-1525
-29694
3734
6028
1864
-11981
4123
14301
1666
-10601
3536
3075
5752
-5551
-2248
-1039
-1493
1635
-2332
1065
-2889
-2248
-1703
-5061
-10340
-4467
748
4631
-9811
-11088
-12711
-3119
-2070
-3866
-1043
5959
6988
8476
-1297
-5804
-4765
-12991
573
4243
-3137
-1627
-3809
-1613
530
-1
-6826
3155
3291
-2636
7811
-3192
5765
-15830
1466
-3081
4041
-9264
-3752
419
2387
-8689
-5856
-8582
-11971
-370
12020
3486
2684
-2812
-788
-9513
-106
2798
7600
1298
1596
4513
4217
3870
2336
-5390
-3548
-4665
337
-1367
-1523
1415
-3400
-3672
2062
2082
-2923
-10624
-14468
8737
3147
-192
-11461
-4028
-1941
-1260
-6338
-727
1935
4624
-2952
-1902
-8761
12000
2256
-958
8319
3198
3062
-4630
3766
9262
685
8220
-5136
8100
3401
-6098
1303
-15518
-2335
-3516
-5482
8275
4208
-10022
-9001
-353
722
4214
-11352
8541
1616
2707
-162
7977
-5518
-4002
231
8492
2733
-4422
-5848
3538
-4664
-6301
-1413
-1303
1766
-3817
12457
-9493
8665
3314
2868
1156
5896
991
7875
9213
9745
6242
-3899
-5292
2636
8850
10938
-17426
9148
16689
11472
-15201
7432
3089
3095
8583
-4366
-9524
-6425
6739
887
-1689
-16206
-14911
-3991
4623
331
7465
-1911
2973
8279
7612
5863
2795
6013
-17278
3875
225
4847
-15446
-3193
-14130
-19422
-3948
2967
6952
-2734
3498
3691
-8964
-1701
-11992
10030
6472
3774
-3864
7768
1693
-4984
-1906
-1643
-1332
-1303
-12028
-14077
-11279
-1950
-14736
4895
15681
14694
-3962
-1919
-4888
-4613
-4059
-7342
3457
9922
-5914
5192
6136
-7415
3973
-791
53
3233
497
-2509
4401
-4205
3256
-4150
-4901
4457
-929
287
-6315
-1256
-577
-1416
6633
10307
4760
-1124
-12951
-6099
6782
-5221
-7188
-3277
-18298
-574
-4972
-6209
-4058
8196
-1246
-2219
81
-3613
544
-3673
6384
-1341
5418
-3325
2880
-5636
12450
548
7520
3507
8712
3162
11255
-2000
-3649
-4628
6033
-2237
-9615
-13493
-10510
-7231
-6567
-20
8332
-4843
-3311
-3562
3081
-5732
-6041
-1798
-4551
-11979
4175
2672
-4594
4985
-2243
-235
-7759
-11740
3464
-5705
-13337
-3372
5959
3467
7848
-10095
10575
3196
7048
3213
556
-4376
-7686
-5918
-1430
-3538
-1375
-8772
4092
-1503
-1166
-1291
5902
2071
-828
-5448
1675
-3203
7614
-2303
-1101
4242
-4274
4846
7888
-6923
2664
4250
-6798
-10771
-3043
-1526
-1446
6813
3422
-2513
5307
3343
-1620
1157
2192
1811
12623
2612
-3207
-10482
-6975
-9839
-4038
6776
-17416
-6716
5023
5668
-3825
654
2823
-4114
4653
-4298
3778
4334
1379
6057
7804
6556
4627
-5356
4231
-360
3904
-5353
3167
2769
-437
1574
3048
-3348
-997
-659
-2980
1938
-5161
-2816
2473
6355
19701
-5721
-8265
-8049
22377
-8665
-6451
-5330
-5730
-5277
-2479
1210
11887
1586
-4549
-2548
3903
-9121
-5017
-7807
-5906
-6380
3437
2617
-6968
-10482
-3512
-164
-1651
-7232
-1303
-2754
3805
-3964
-3736
-8215
469
6
6177
1892
12803
-7009
-3094
-8104
-7075
-2470
-943
-265
3942
-1356
-4362
328
-3198
2056
-3764
96
7884
-1665
-3453
-12377
-6064
-1048
467
5036
4010
-2834
2601
-2856
5559
3491
6585
-11298
3664
3633
3813
3840
9124
-12603
-11195
-9858
13810
-1254
2524
-3221
-3689
-2226
-130
-13670
1994
4539
-7008
1183
6924
-6790
-7440
-5412
-2780
-4606
-2806
1827
1823
7161
1742
-5219
487
-6526
-1202
-5407
2161
-604
6495
2417
4932
5983
7464
-4773
3816
1872
3481
352
-8050
6460
-2008
572
-6532
-2377
2979
1728
11452
-83
3380
-6923
1611
4388
-56
-3553
2197
-12132
-4567
-1471
-7923
-615
-4465
-3874
-1328
-7097
7112
6860
13406
-1670
-6720
-3144
2504
-2387
1811
-2383
7668
2796
204
5346
7876
1122
1003
-746
-96
-4412
-6313
290
36
2481
1905
-686
1532
-310
5758
2900
6867
-8830
-7451
3266
3874
-9375
-364
-9225
-3705
6090
-7077
-5902
4041
4148
71
-312
-2979
8748
2692
-586
-2635
-9452
5459
819
-1278
-750
-273
-6906
17520
-4049
-1313
-1795
-8307
-7000
1964
132
-3884
-4637
3598
-8167
336
-482
-358
-4794
4471
101
-5323
-2521
5370
-6631
6470
-1989
-11950
-6762
5914
-2456
271
8206
-802
4782
6536
-4959
8266
987
-79
2842
5851
-1235
9299
-3924
-11846
-6359
-2821
79
-3889
6223
-1101
253
-2781
-3829
9412
-6432
3575
-1326
12703
-7078
-11458
-1403
1037
-6150
737
8554
10506
-8433
461
6657
2813
-5980
2499
-6463
1219
-801
2308
-7209
-931
-5540
-7219
-12563
3733
-479
-1506
-663
4952
4391
2674
-1322
55
-2263
332
2520
13721
-14244
-8850
-12846
7242
1924
1261
-329
14975
-4932
-3962
-8833
1190
1073
-5294
2153
-4013
-350
1107
-3819
8035
-772
890
-11550
7585
1069
-5416
5748
963
6257
3925
2241
9072
-2781
-387
-621
-8442
-2772
571
-1543
-4254
-3154
2938
-3833
3820
-5673
-4986
-6396
9419
4502
-8399
-3425
8662
-8219
-692
-7809
-5058
9932
7261
-715
-2543
-8539
-6830
-4056
2458
-11431
-3579
-7193
2286
-324
-7850
-6321
-10107
-1537
4806
6599
-10064
-754
-4013
-8638
2597
3088
1574
4975
-6239
5759
3152
2905
-6701
-3475
2349
5272
-3633
-5375
1616
-679
25699
-1493
-3925
-6726
13605
2017
-5108
-8953
10282
-3437
440
402
4488
-10304
5410
-4052
7609
4055
5672
-1771
-4228
657
2851
-757
11275
6528
5075
-5619
-5018
-3715
3112
-2541
6260
1120
-820
4147
-11257
6565
6727
1380
-1899
750
-8541
-9908
5070
-2608
-10320
-6463
9698
-4498
-3570
140
-11125
2276
-41
6189
4363
1711
-586
3968
5124
-8681
-725
-2504
-1332
-8977
-3398
-9770
-750
1900
3546
4175
7056
1182
-3495
-5151
3048
-8636
748
-5061
6276
202
-4163
-5020
5592
-4742
-1342
499
11259
-5880
-2881
-8152
7980
-3279
-3261
-2190
-3761
-5305
98
-5357
-1697
1625
5707
1476
2401
-481
-2166
7160
-3615
3995
347
-4485
9519
5899
-713
-1844
-12967
-641
12722
7556
63
-13106
7469
10762
10646
8423
-4719
2546
14515
-1267
-1617
15759
1729
878
3240
12167
-6159
10
-5085
-4783
-2732
595
2736
-9254
-367
4098
-8822
11403
4083
6368
6199
4546
503
125
8461
-1212
-3674
3226
878
3100
7364
1567
-1365
1975
-1514
-2855
4955
-11339
1289
365
-5678
1850
5954
-3177
-6628
8223
5870
3686
-1393
5120
-2228
888
4088
-16210
-2297
-5537
3727
-5711
-3387
461
3331
1247
-3072
3963
-12165
8366
-4563
-7838
7944
-3882
-7787
4608
-4901
4591
-5465
13399
-6058
-1878
-470
1478
315
2461
-4333
1481
-19755
-9343
748
-3471
13694
3701
5238
4919
4668
6971
10775
14034
2137
-2267
4597
4250
-5551
-675
-5616
-19171
-5215
4878
-6937
-3316
4900
4631
-12277
-384
2006
589
8079
-2191
-8935
6663
-5339
7667
-3055
2109
-1877
-1730
10976
7580
-9067
-12460
-245
2743
-1068
9632
-181
-10928
7938
6994
-776
-5628
-252
272
8200
-5311
10732
247
-1114
492
1469
-5319
12700
4761
-8781
3439
8605
11527
7154
3683
5293
-2050
11639
3717
-2056
1979
-635
893
-1775
8009
-3496
167
9610
2697
-1471
1318
3968
-8054
8851
2727
-3210
-4640
6410
5423
6813
1586
2786
-655
9259
-4116
4481
2846
1929
5538
-2628
167
-582
5736
10815
-4671
1330
2841
1923
-7158
-2499
-2518
-299
1849
2992
6858
-4731
-3480
-5587
-2400
-5044
4350
-86
-7479
4577
-689
5384
-2586
659
-1730
-4677
2420
-1222
-7778
-4020
6376
-1561
-467
-2768
1504
-5105
11372
2012
-1470
1831
7455
3586
890
8293
382
9463
-2063
319
-2178
-4500
1663
-1607
1824
7468
654
3247
-10154
-6910
-2038
9885
-9
2856
2748
-1824
-305
-5298
-606
1696
-10886
-4115
4190
173
-1818
2456
-18
-3919
-150
-4085
-1582
8955
-5005
2228
2783
-5355
1934
2940
-1675
-7478
-4092
5914
-10687
-13493
-1080
652
-374
4192
6034
-10257
4463
-3054
57
-4260
-638
5410
1068
-3148
-3753
5209
3665
9268
-9247
-13394
-7865
-11125
8382
14332
2932
6218
6702
3375
-4485
-15203
-8834
-4707
-7634
11809
4502
7786
12298
3370
4679
-1587
-10365
2441
2163
13066
10179
-6873
3034
-3349
-7747
12797
9428
4146
2763
-12225
-4228
2464
13575
5274
11617
-4832
-7108
-4762
-4457
-7442
-13744
3775
-4804
9201
5973
7257
-4557
6002
-2662
-5534
3432
-12113
-495
13505
4829
-9251
2380
163
6274
494
-5225
7134
10704
-1073
1164
4044
2765
3204
3485
1543
637
13762
5104
-4193
-1885
-2978
2081
-1574
-2535
-7020
-3682
4469
-2802
9822
7749
-1894
6659
-3442
-3253
2179
1288
-7870
10659
-12245
-15773
5363
-7587
-3295
4923
10638
5458
5564
-3986
-3466
6522
8389
10480
8187
1827
-5531
-4823
-1826
-9452
6450
-882
-1593
8734
3501
9475
7683
2717
8465
9613
-1589
1571
873
7900
-1210
-242
-8111
-9016
4614
4394
7902
-5583
16079
2688
-2065
-6722
2749
-5504
267
-1839
6423
-6228
-5320
-12342
-1702
8576
-6859
7769
-12491
-9110
1979
4840
-4236
1112
-10051
554
6323
-1925
-7662
-5316
-3941
-3876
10391
1055
-1539
-5309
-9343
7154
-4723
-5121
19429
4854
-7822
3755
-9056
4614
10943
-3941
-16596
1774
6246
4790
-7157
-2896
8387
-3838
9755
7893
-16752
-15826
-10296
6701
-5402
5204
6352
-4058
22658
8335
3679
-7277
11913
792
-9514
6257
-6276
-2668
4025
3613
11684
5487
13159
5041
2658
3860
-3590
-5324
11894
-478
-4035
-3819
-7017
-2199
-5120
8100
-9086
-3331
-10050
-13054
-6888
-2756
11427
1102
2945
-12211
-4594
-3347
-4717
991
-7669
-15698
-13760
-4774
-3085
-1404
3167
2538
-4240
3846
6070
-4746
-6609
-2275
-16739
3037
-1429
-994
-15900
-2949
16729
-3150
7186
-4935
-7448
-2786
-2590
-740
3687
-2947
11757
2120
-1366
8448
2576
-2972
-13021
-7678
573
-381
15161
891
5137
4858
4864
5554
-7123
-4339
748
-14273
-5427
-5128
12299
6497
667
-987
-7377
-1171
1327
1035
7382
-2609
4356
654
2067
7710
11777
15081
-5017
-1142
-5664
-3073
-1435
-6713
-9468
-10316
-6567
-1272
7989
-796
2629
109
-267
-3427
322
-8812
-1131
-5060
10937
3607
50
497
6093
773
-2777
-9831
932
-7091
8854
-7359
1295
1892
-1536
-2673
-2429
-112
-5355
-3506
3233
-5683
-6412
-1386
4088
4825
-3271
516
3438
2053
-1586
2262
1859
-3905
7235
-3070
-132
2213
-457
2395
-5786
-7525
-1636
-4268
1802
-665
9191
4808
-9971
-3606
1085
1939
-123
-4346
-4388
2301
6676
-612
-4401
4426
1002
1291
1568
-956
-484
-3506
3539
-2702
4738
-454
4768
971
4851
5808
-834
178
-4611
-88
-190
-205
-371
-9191
11640
-339
-2821
-5558
2138
3699
3225
3349
354
2439
-858
-2659
1219
-2639
5972
-3986
-3981
54
-373
-4534
-6449
-8481
-81
-325
978
-3068
-444
2494
-5157
2196
-2509
-3880
-2056
-2443
-2935
-3560
7136
4051
-5751
-385
-4087
-449
-4532
-2818
815
-5010
-3564
307
5112
1825
1046
-1546
-5576
-3129
1113
-3195
-5706
-2792
-7449
-1150
-5177
-5788
5102
-1394
1433
977
-3939
1976
3741
-5297
-4377
2765
-2500
-2135
8594
2057
-4743
5128
-2975
-426
3297
-2051
5922
1301
-7044
-4414
2769
-630
6679
-46
11232
-2928
-1670
986
1519
2104
2579
5969
-4493
-4433
-3122
-3079
-3728
-1878
-3081
-5919
6322
1702
8602
4483
-1525
-4867
274
-30
303
2863
-2952
-1154
7031
6382
1967
1833
3923
-3638
-2887
1183
-468
-499
2110
-4341
-4867
-7753
952
-1604
-14827
-4600
3907
2895
-1594
-7930
-5372
7086
4025
-4893
-5774
-4258
-1615
-3583
446
-124
-3110
915
-157
-11729
3751
-6639
3333
-5016
-1631
3653
1724
1388
-6193
-4765
4018
-4646
3147
-2917
-6470
7072
3891
726
8424
6302
746
-8644
-5229
2843
-3803
767
-520
283
-8800
-4141
-3987
-8884
-8491
4811
890
2412
5022
-6494
-1929
-4684
-383
6058
-7359
-7437
3653
-9473
2876
2068
6583
-1448
-10904
-6729
130
437
-2485
1182
-2895
-3473
-76
813
-2678
-5608
7226
6168
163
51
4826
2343
-7750
-3191
-20393
1097
-7657
-9516
-5545
-9689
5673
-6830
16931
4891
8231
8604
7425
2552
10132
4678
-906
-6653
-590
3484
-4587
-8216
-17096
-8860
-4921
-2766
3027
3659
16095
10076
5283
9386
10687
13970
1217
10200
9310
3388
-5792
-9922
11719
4191
-1675
-6782
6768
-292
-3717
-180
19576
6141
2326
1770
12530
6178
-3073
-2561
-1408
-4580
2139
-3868
8025
16939
11467
15949
-213
6161
1859
3526
-2050
-3810
-12750
-3464
18888
636
11344
11127
5082
16194
6643
10308
-550
3251
-5691
3025
-2002
3247
3697
-1585
-2187
-1282
-6919
4700
10079
1031
-8923
-10193
12114
-795
14477
-2766
1514
-6410
-68
-3796
8091
4182
2210
718
-8673
-4205
-6730
7219
-9707
-6178
-6456
-1834
12461
1692
1961
6949
-11370
-13060
-3625
5733
7309
15331
4765
18514
-5244
-3802
3001
-2267
12948
3371
11737
7257
8214
-3684
-7097
920
6698
-4902
7982
-2712
-6365
-2039
1027
7829
1302
6924
950
3083
14274
5937
9436
3496
-1279
11657
-4284
5138
7296
6506
-3209
3629
-805
-4647
2459
1196
-7614
6935
2467
227
14219
7331
3851
-1892
4868
13362
6009
13028
4780
1488
6024
-3388
-4234
4322
-2805
-3604
11684
8000
2781
3900
-16005
-6202
-1188
10204
-15603
-8094
-3004
-3434
5952
6622
-3610
7257
1247
-7865
-3953
-1114
9879
10399
5964
-3782
7737
6313
374
-4545
27
-4194
5059
890
7342
8163
2131
10377
2500
5137
7241
-154
583
1578
-9218
-6186
-9210
-9525
-4836
-760
2400
523
7521
-2337
447
9707
7534
1625
8959
-3914
15962
6470
5588
5750
6975
-1648
-1566
-3750
13099
12959
8087
10542
6617
4269
8046
-1622
8512
10177
6903
-1581
-1449
138
-15776
-12741
-5876
-10456
4991
1492
8704
664
3983
6819
3876
1315
9935
2105
11422
1593
-8666
-2866
-6472
-9107
-1888
-691
-4328
-3244
-2260
-1159
-4897
4096
65
2449
-3744
2763
-6639
-10699
2207
-4231
-1700
3498
7730
8278
-10526
4254
5208
2764
-8087
1315
-10285
-10816
6553
-1858
-2419
9404
-3664
4290
6496
-1575
3593
-6008
11168
3566
369
3738
6577
4040
-11869
-5556
7084
-2552
-14530
-14860
-7282
-7257
22122
6575
8327
8219
-9163
-5130
4100
-3824
-5510
4523
4724
19000
4734
-2185
6701
-5716
14291
13484
16374
8471
-14178
-2226
-6378
-4336
166
-5630
-6496
-4339
13201
10418
-2842
-7441
-17249
-5685
1173
12183
13121
10068
-2022
7486
-4591
5228
-5104
-155
7382
-2524
7193
9646
50
-5844
-981
-4591
-27007
-5650
-12062
-9148
655
-4014
-6172
-2671
-18372
-3297
7715
8079
13693
137
-3912
-7897
17592
10639
11690
13477
2800
-5890
-2485
-12583
4450
-3773
2783
2565
-10996
-9228
9580
-8710
-7999
5693
2335
-2943
-2328
-3337
-5029
1194
6253
2003
7699
9661
10072
7626
3214
6797
10481
-79
775
-1707
753
-4538
-4716
-3226
179
3479
-1109
6177
-5528
-4061
6197
-1107
-6326
479
-3481
-839
-2249
1686
5979
9980
-1476
5384
6974
-922
-12234
-11917
-16041
-15457
-7752
-7731
-4177
-4965
5093
10318
7672
8919
4699
-4569
-8416
-8153
-2174
-9920
217
-4824
-3219
-3592
3164
-8745
-6490
-1073
-5483
-10971
-6948
-7753
-2245
-1411
-3618
-1664
-2783
-1570
-816
11341
8195
3
4474
505
3242
3919
-1126
2062
5945
1094
-3925
-411
-1192
1220
-14000
-10718
-13533
2826
4466
-2010
10077
2536
-21521
-1213
-1391
6495
3949
12893
4689
-6884
7205
-1938
101
-4003
-18008
-9598
-3550
-1118
-4544
6787
10403
-1552
1243
-1564
-6039
-1629
6165
2317
5810
801
-64
3326
4913
5563
-10943
-3466
2319
12670
-13312
-4615
-4756
-15133
-2254
5273
-1752
-3112
17045
-38
6817
-2223
-3543
10960
7757
-4690
8284
9027
14103
897
-7095
-3620
6899
9252
165
-2914
-14029
-8889
-4562
7234
6474
-4201
16647
5016
8037
4828
-4933
-3895
-1401
-3815
-3741
-6739
3207
-4461
-4777
4380
6512
2097
11325
-308
3424
6384
8531
-7775
8419
1005
-5731
1428
6392
-6674
9217
8356
10649
7889
3844
-2258
8556
1877
2567
-5609
-6823
6949
-5361
-2978
3204
6257
-8324
-6660
-12723
-8995
-6869
-5052
-2693
-7095
3126
-1470
-2244
403
5997
4849
5983
-2089
-11037
-2762
-537
1748
-6192
-2840
-7197
641
2330
2523
-3668
4241
12084
5739
4428
6307
5129
4660
-6390
2280
7168
1489
-9210
752
752
2098
-5645
-3025
-1969
-3260
2014
3328
6500
8194
755
-832
366
-1617
3237
-160
-2067
2140
981
-6160
-7068
1809
8794
268
-1262
-3109
919
-1668
4800
-2697
-10345
5653
1024
-1812
-3404
1473
1937
4033
12308
4702
-1543
-2438
-1599
7929
-2885
-930
-3209
-149
-2258
-516
-749
2510
10590
7377
-3234
-7225
6859
-3883
-3651
684
-1140
-3446
1851
2271
-8578
-2004
-8061
366
1468
-7987
-4110
-2915
2299
-7492
6226
-1946
4633
3374
-6021
-242
-2231
545
-8340
-2847
185
-1557
-6119
3308
2226
2734
9176
-1606
6428
5833
-4959
3627
-628
3564
-2070
-3702
6393
-52
2037
-1719
968
-5624
4590
3507
-1216
-1946
553
-1579
10496
4070
-3646
-6339
460
-1311
278
859
1529
-403
4974
-4385
748
-1717
1743
-6351
3632
1121
-8850
-2565
339
2884
5713
3489
-1919
-390
128
5965
-1531
4612
-2291
4517
-1701
-836
3680
2275
1777
2834
-3407
-3318
7308
1915
1080
1846
-9969
-1708
-3070
-355
9527
821
-1716
-2037
10252
5214
-283
-3306
1944
4916
3982
-1534
-4374
-3384
-5075
-4506
-3178
-3382
-1779
-2255
2409
-33
-1249
2414
1249
-3086
8344
-2609
2476
508
5159
-1314
-2870
1979
-268
838
4567
1329
-1328
5969
-4689
2381
3607
-1042
6053
4672
2806
3606
-3839
133
-748
-1777
-914
3754
4426
4212
-2727
-2369
242
30
-3512
-6387
-5880
1954
2873
-777
1259
-281
-683
2421
979
-4021
3870
-212
-3891
3487
-1917
1050
-308
-1846
1755
3843
2023
-1920
-2254
-4269
-4154
-3133
8567
-3691
-972
-6477
3082
549
-4178
-8008
-6320
196
-8897
-205
-1075
-1939
8318
2307
1078
-618
2524
-1104
-6189
-6487
395
-3780
164
2257
-5155
-5866
1646
-3235
-3186
-2487
1178
7470
-689
1627
1340
-4749
-3256
1964
4158
318
-2077
-381
1255
3464
3370
19
-1337
-5703
-10526
-4569
14455
5686
-4157
591
3236
2339
386
-4665
-2265
126
-409
-528
4512
-3917
-9151
-3232
9620
5554
-1723
-2397
-4151
-6589
-6587
-6720
5283
2097
1568
-549
7872
-4647
353
2247
-640
299
1373
3134
5091
3680
1648
4994
301
159
5563
-378
2069
-2070
-1880
7976
1814
-9522
2597
5069
-7276
-6116
-6979
-2106
-4124
-7549
-9277
3266
6294
-4413
3466
204
2287
6189
-2640
-8393
7165
4765
2425
-4345
-315
-741
-1863
-4718
362
-3873
4560
-2181
1311
-7360
-3449
-2723
-7204
-791
-3653
1256
1652
4526
-4350
-9621
1792
6490
1746
-1948
2975
4149
-3179
-3588
8641
-5043
-4165
4216
-1635
1470
5330
2113
826
-3939
-1099
-3641
-6067
73
1661
-8250
-4493
1424
-4232
1750
-7844
4625
-5695
492
1331
-2467
1352
2022
-4674
-1661
-8196
-6579
2080
-1664
887
-3934
597
1000
1521
-1083
-1434
5068
-511
-6375
-233
-5154
-1855
-2434
-7143
-1057
-4829
-6452
-6303
3111
-4960
510
2457
-12213
-6495
-5317
486
-5126
-2883
3068
733
-7836
-572
-4795
-5780
253
491
2951
-4413
-4734
702
-5463
-5649
4489
2012
-2229
-2231
-2064
-1220
-1818
4414
-3762
3966
-5050
-5439
-1226
-8613
6813
1673
5883
1380
-1959
3396
1112
35
-6826
-3610
2500
387
-5302
-1921
240
-2908
-2012
2604
-4361
-3350
-2467
5253
-43
-327
-1193
-5741
-13220
1536
-5809
-8953
-3057
-1124
-8510
-4339
-198
2518
611
4016
-3685
-2573
-6970
5951
5240
254
-3672
1946
-1097
-459
-748
1457
2698
2205
-1058
-9640
-1993
-5377
-5920
-2680
-5967
-5563
-10400
7313
4603
4060
-276
10210
1141
3963
4997
-5592
-6154
505
-5371
-4702
-1113
-4490
-4079
1252
-2259
4747
-5224
-4815
1047
-4727
-1101
1346
-2012
-4003
-228
-2974
-1718
-3444
-1810
11110
1254
9573
13735
3427
-1188
4583
1264
2487
5729
2128
3913
-1665
-2556
-1838
-6204
-4359
-6769
-2618
-8273
-1299
7564
1883
-12042
-3136
6831
3670
3570
8175
704
4243
6774
7824
550
-5343
7303
5496
4445
4392
-3174
-6431
2057
-6257
-5524
7478
4282
-3230
3305
-1507
3321
9256
-6889
11155
-3576
-15746
1633
-1429
484
1379
551
1960
8181
-34
-3476
1147
-16066
2827
-2623
-11148
1855
-1614
13677
572
953
10040
-4300
-2298
160
-4552
-3160
-5478
5894
601
-12606
-9979
1473
2547
423
3674
-1741
-1314
3400
6508
-1504
-9929
12153
2251
-9145
2394
-3519
-5891
4861
-11461
7153
-6188
-1986
6887
-9990
-5658
-952
-9371
4233
-5286
-570
-10506
11532
10200
4341
-8302
1843
4602
11260
6334
4098
-3790
-7373
-1410
-6222
-9824
-13036
8515
10237
1004
663
8704
10876
-5821
4698
-3463
3252
-7407
1577
-3131
5862
2607
-1481
-1828
-11762
5957
3269
-508
2356
4400
-12804
1614
-901
-2857
-1631
-14725
-1100
-5665
-2198
6402
7496
6178
-8355
-9461
-729
11158
7665
3254
-8709
4455
4634
-3387
-3209
8154
-6085
7545
7
-4123
10173
3445
-3362
1701
9230
-2465
-1960
5031
3632
1488
5344
-928
2730
8322
7221
6174
1759
-3957
-8618
797
325
-4738
-4158
7915
4880
4240
7699
-919
-5859
-3200
8767
2583
-5464
4058
9714
1056
-2206
10034
5092
3054
6121
4410
2565
-1585
-756
-1930
510
-6711
-4870
1002
5677
-19
1719
-965
-11453
-889
664
-2981
-5881
-147
-5738
772
-1492
-12851
6761
3169
2919
1680
1059
6118
-3426
-757
2991
-4611
14334
-1822
-4947
1985
-5336
-10546
-3116
-2051
-5638
-289
2369
4968
-7663
-3546
-560
3080
-12978
1027
-13244
7809
1191
7858
-2167
-3295
-3254
3824
6958
-2578
-1730
-9241
-7885
-1335
4412
-10210
-2184
5194
1072
3058
-5829
6004
7593
-3244
1929
1970
-1521
2398
-6761
3711
209
7918
6131
539
-5848
4202
1547
-62
154
4073
-6774
7681
-515
-78
-8884
-876
-4316
-3720
4320
12186
-6057
-1058
-6086
-2451
-9972
-724
-7960
-640
-3499
-2456
967
6275
12509
5936
-750
47
374
-10159
1279
1726
-2787
-10548
1757
4247
13065
-3442
-8466
-12486
-9973
10246
10514
5511
-4408
13525
808
4919
3510
-892
-6117
4223
-4617
-234
1920
2636
581
919
-863
1428
4153
-1454
7075
12340
2583
2009
-1523
4192
-4223
1895
4745
1732
2266
94
-13155
-4908
6262
795
8271
-9754
-8715
9613
4888
3503
544
1276
-2709
7930
6019
-6261
-551
757
-4245
5191
-2752
-1506
-6167
10749
6449
-2416
-2781
-12071
-9096
4915
-297
11374
-1759
-3061
3940
-5049
-2375
7220
-3480
-3185
2090
-2250
2937
3265
3125
1768
799
9350
-2513
-3618
-10615
-3743
-5096
-2288
5128
-5174
