-3106
-4661
-5255
-5719
-14015
-7490
-62
3130
4418
4325
13911
3499
-3591
-6869
168
8678
2084
-6043
-8119
-3984
-6845
4209
10950
16119
-7956
-7624
997
-2893
-3900
-7177
-5177
-10357
-1145
582
-862
1859
-1490
2519
619
2050
9418
12167
8859
4999
4242
10400
8344
-7670
12599
7950
-8527
644
4507
2780
6066
11857
10498
11555
7080
9395
1449
-12445
-3693
-3563
2680
14033
11424
-826
-11002
-5647
-3231
-8962
-2801
1116
-1855
-428
-814
-12029
-24
-2102
-10815
-5965
-7703
-7298
-10256
-9427
-13040
-4926
3606
-791
2763
-495
2558
-4946
-2848
7024
-4941
10401
10957
-3890
20013
-220
4337
6878
6115
13126
-10350
10178
-1735
4005
-9537
3275
1783
-11354
14265
12138
-1690
-3319
2000
7577
9398
9329
11181
987
9230
13724
2045
10154
8589
5048
8955
-671
-3007
5539
-3340
-3337
261
-3456
-15724
-10939
-6544
-3713
-1542
165
4792
-214
26
-639
-9486
-4322
-4307
-4769
-1346
-5300
9941
17259
2028
4362
-1774
-9018
14174
12773
476
996
-410
-4509
-5370
-4835
-1638
-5883
-5492
-7052
-4237
1688
1615
-3038
4059
-1906
-1944
-12428
12539
8550
5589
2672
235
550
-3630
-2998
-2563
16852
13384
924
-12988
-11198
-11423
-2702
2226
7475
-25734
-20396
-9474
-32767
-10494
22840
30524
29912
26764
-5902
-9170
-7436
-3678
-8031
-3929
-1606
-2275
-5910
7832
2238
2840
3815
593
-1662
107
3121
3549
3386
47
2134
965
-13809
-7986
-5519
-8464
-10494
-4814
-4546
-1407
6095
1087
-10118
-12399
3364
13705
4333
-9689
-81
15888
-1601
-1960
-12762
-5119
15144
5322
3686
1860
5114
10816
6947
-4088
6418
5220
-591
-4739
-9926
-9253
-7185
-16845
-5143
1045
2215
4053
9136
1648
-5109
2556
18214
10785
-4236
-3147
-8766
-1353
4695
11007
4833
-21266
-818
3668
4834
-6166
-11358
-10199
-8778
-4276
6922
11284
1301
-1493
9949
4543
-6161
4870
5489
3203
-919
7528
6820
-19205
2520
19575
-12052
-7305
6011
-17483
5977
3515
-36
-5522
-7127
-5445
-10194
-5196
-17068
-8773
1142
-6675
-13425
-10216
-10884
-1922
10122
4429
11403
21017
-6904
-1276
-3772
-5470
-144
-5728
-1426
4177
-3211
-2240
8966
2962
-1018
6529
-7336
1780
8669
5605
-3002
4374
6449
10130
8074
6220
7383
-3295
-3324
-6458
-24844
-17120
-6905
2881
6203
766
15294
11342
-6007
-12650
-6598
-1999
-14171
-3207
5687
-7630
1056
4409
-7897
-7502
3393
6642
8222
4435
14442
13090
-755
3796
-325
5468
-8970
-14332
2044
-7177
1126
8052
16105
4701
-11292
3717
-80
-2744
5340
4625
-2049
-4513
-8051
-2325
-3818
-5331
-8083
-453
1587
4606
8425
261
135
2445
3188
6888
6736
2816
4748
16654
988
-1290
-5916
-4352
4299
1812
5906
-825
-11225
-5912
4205
1239
2896
-626
12422
17016
-1744
-1198
-3220
-6722
-12435
-9723
-5482
-1076
705
-5560
-6505
-6081
-9669
-5752
-7213
-6755
-6002
-4135
-16348
-10278
-9952
-8272
72
-4321
6458
14161
11203
-14388
-5715
7243
8438
5847
5623
57
-5153
-2008
-5855
-1857
3714
6854
3124
10047
16382
-7539
-15013
1362
2608
-4569
2233
9417
9454
5920
8769
7156
12398
-2988
-1940
-700
5649
-8179
-14633
-4056
-1333
10640
-7592
-6416
14833
7554
4597
7040
451
-2596
1105
-242
-2293
-1279
-110
-1434
-6255
-9562
-6488
4571
4392
5904
8674
5709
-2866
735
-300
-2026
-13663
1048
-3486
-10805
-535
3038
3089
-1946
3363
4091
10037
11379
2070
3694
4001
-6598
-6690
-363
-585
-25963
-1302
9348
-17907
-697
2368
-2254
8562
12861
1329
5124
13975
3173
4093
1324
-3616
-11010
-1587
7665
11485
9819
10455
2390
1228
3843
1555
