-9190
2321
-11990
-15081
3526
-3214
635
-9203
-10006
-29474
6396
32767
18389
5064
5603
3202
-12812
-19151
4086
2419
313
7657
-244
12914
10288
7494
2971
11489
6940
-8044
-24139
-12940
2110
13860
856
-18955
7413
4586
-3599
2245
5841
8806
12393
5726
1260
1943
4005
7431
6837
3316
3535
-46
728
3310
2896
-10788
147
-206
-7843
-410
5090
-15759
-8240
-1407
-9911
-11214
-13271
-7563
-1441
309
17258
21081
9292
10112
1689
13722
8487
-3613
4501
3692
-4516
1248
-8361
-14809
-6562
-22621
-8262
14003
17516
15144
-12466
-13103
-7775
-145
-10712
-8807
-7013
-11906
-2185
-232
1279
3157
-7644
-198
14958
16533
12065
8099
-11051
-13385
-2808
-292
6045
2273
3050
-2494
-11946
-3986
-7862
-3971
-5424
-3710
-10191
-4795
676
-990
3275
-2471
-7270
1107
7967
10907
3542
6916
10972
10882
23328
5117
8187
-821
-50
7730
-1004
-819
-20106
-11793
-11568
-10613
2342
10485
8276
10717
15199
-10221
8085
20015
14715
23228
849
-15930
-84
-6479
472
10150
2456
16236
15256
7054
4784
5502
1786
-5853
-8677
-9471
2008
-1774
-10753
-16592
-24943
-10763
-13510
-6571
430
3722
12985
14697
18697
21033
17142
-8881
-6533
-8408
-963
3508
-2925
-3027
-753
-8592
4907
5958
-5093
-5595
-2368
6233
1019
12983
17245
-2845
6503
8483
6518
-1295
1656
9455
9901
6825
-4625
-3096
6683
3000
-2380
-5522
-15015
-5411
-1449
2881
8444
16355
15672
12936
-392
-1451
3510
-2438
-7276
-12645
-6456
9065
15317
8625
246
-9132
-17158
-24984
-12296
3045
10769
8265
-103
-13090
472
11988
-25935
-8535
-3535
-12887
-6167
-1934
2726
2447
-942
-21919
-29341
-15254
-18125
-8091
16239
16023
17879
19121
19736
14337
-2393
11907
1098
-4918
-21137
-8189
-2248
-12784
-5708
-23481
-18197
-7871
-6073
7264
-1060
-10034
28583
15722
-13830
12250
-2753
-23097
1820
-3989
-17641
-9428
-12081
-8217
-4712
-3112
-5397
1376
-10333
-10667
22998
15813
-2563
-1728
-7323
-1078
8014
8948
16514
3531
-5186
-5721
-4585
-11420
-11948
550
2748
-1038
8650
-3636
-6513
-11096
-18058
-3791
-5425
2529
7467
-13778
-8281
6054
15718
6501
5447
14276
5145
-4210
1535
-1639
-8593
-14647
12127
11980
-9079
-2308
-8839
8196
6332
-786
3137
6604
12421
16158
13918
4665
14483
13671
-1987
-18887
-15846
1884
15465
8569
-13756
8062
12660
1278
25
14161
15111
9365
4235
-3579
-8628
-1417
-12112
-6815
-6716
-6931
-3653
-21314
-16627
16219
10439
7337
6517
10675
8207
-6579
-7120
-3637
14979
16931
14408
4948
-8339
-12526
-677
-1422
-4665
-4115
3733
21110
7253
-5046
15122
7846
5152
11640
-187
4262
10276
14211
15549
5004
-2544
-3017
-80
-14180
3375
6124
31102
4192
833
1210
-28668
4703
5020
6034
7312
4548
8580
7752
5037
6970
5793
-10580
-5491
-6092
-8360
-3879
-7422
-5929
-2240
-3957
-2301
-5281
-4117
6319
4057
-1602
839
-4051
-23569
-11630
-6306
-10593
-19561
-14014
-6897
3055
14687
21525
-9913
-12820
-7993
-17222
2921
824
3378
9949
3861
5676
9261
-4938
-12531
-4104
14730
13769
9881
8012
15978
4767
3121
11352
3992
4764
4532
-1187
-2936
-3378
-9942
-5504
-7860
-6264
-3694
-2854
-7166
-16702
-1374
-9511
-4238
-3740
-2973
-6627
-2630
-2802
-5425
-2003
-1200
-1918
-8496
-3037
-10599
-12275
-9750
-9127
-4525
24498
6124
8048
2888
3363
7896
-25046
-13305
7755
5611
5603
3824
5108
3250
-989
6313
1742
13227
9281
1202
5056
10792
2135
-8316
5040
-3782
-7505
-10068
3111
3236
-16239
-8648
-3866
-9606
-20201
3283
-2287
-6785
-20938
-8165
-534
-1346
2076
240
8333
6354
4874
4658
5091
434
1825
4160
6918
4
4090
9016
4857
3748
7668
-5039
-1121
13218
11143
5282
5980
8249
365
3614
1680
626
5111
9321
9959
6466
7788
-895
-358
6825
7077
10886
-6104
-4101
-3244
-12746
-6187
-2704
1249
24
-4345
-1665
-6292
-8029
-4816
-6911
-9541
10055
29362
22991
-5595
12983
20743
9672
7879
1324
-5246
6014
10486
650
-13937
-11929
-13823
-9885
4393
3022
10707
6452
-1293
-5844
-10751
-7017
-12467
-10177
-5735
-6177
-3323
870
-7315
-2421
-6819
-8793
-5719
-8629
-4762
-5922
-7165
-13470
-6788
-4384
-795
-18114
-9317
-12946
-5528
18195
8192
3641
6022
-2611
1094
5160
437
-2785
-8285
-1289
-4159
-1369
-3687
132
-2023
-6363
-1463
8952
9304
6308
6172
4813
15175
-2227
-6594
5258
-13113
-15529
-8390
6978
22775
24482
14540
-6269
-16701
-20068
-14022
-118
3512
-1328
3707
4789
-4538
12154
-9672
-16464
-15512
-11904
-3358
-9203
-6137
-1456
-6049
4410
3610
6344
8657
13871
12982
7474
5000
1173
9792
8889
2705
-1648
6362
5596
4130
2397
-3927
-16599
-14528
-15538
-15268
-9294
-1091
3888
14911
12677
5364
6192
2304
6177
4372
2050
4079
4655
6844
-4375
-4856
-6949
-8219
-10539
-11146
-9711
-8598
-4852
722
-5714
22563
-2420
-1683
3253
-16083
21662
-5160
-7085
-5559
-8857
-7116
-6971
-5095
-3209
5
2408
-3294
138
-28
10468
9840
8625
5480
5408
-3440
-21577
-12322
-1444
-13228
-8593
4086
-2017
4416
16435
7018
5127
14850
22859
7813
5664
3218
-2962
-797
18942
-5958
-15165
13449
-91
11199
1028
8424
12769
-3222
1179
2630
-6177
2166
5668
3993
10562
17657
13394
8015
7146
5109
1998
4262
4092
7403
9270
1564
-2052
-714
-3435
-8501
-10227
-13218
-5044
-7636
-7711
-8479
394
-11596
-6315
1470
-6422
-5043
2459
1532
-14461
-6978
-1507
1328
27447
11076
3605
-10086
