1893
6058
1003
-1618
-3618
7698
71
3484
-8755
1894
-2070
-3582
11542
1095
1242
-6586
-11389
-6899
-5215
2464
-2251
7962
3736
7121
2155
3021
-3396
-745
3980
2698
-635
-4172
3658
2580
3906
10439
1102
17
-4232
5451
-10079
-2080
-2658
-5989
-1591
9375
-2991
8348
6791
-229
109
1224
-1664
5770
-5337
6608
340
2177
-4283
4904
-637
-6884
527
5393
-6836
816
-8137
8586
-2218
8004
-5811
-13628
999
4966
-2846
-5533
-7482
383
-691
14
9765
-4150
-250
-2162
10959
-1737
1271
-7459
3101
2958
-520
9977
15705
-307
-7892
4462
8173
-9686
8247
3567
6535
5085
755
-14194
7113
10523
-310
-11002
1611
474
1728
1693
-53
-3318
-1887
-12295
1158
3777
-2512
-3961
3368
-13169
1880
7951
-638
-4397
4005
-7759
9736
3699
1106
-1896
1766
-6674
2068
20236
8403
5577
-4093
-4180
5303
-935
-3621
-2834
1304
-1970
9775
3205
1189
1540
-4600
-964
-773
-9228
4135
-3492
-2182
430
-1484
5810
-4211
-6240
-9015
-6946
-4775
178
-5703
-4206
-3259
-2022
-7720
2989
-5282
-5201
2
1707
-18332
-8119
-6218
-7015
-9536
-2255
-13160
2092
-2276
-1713
6077
11178
-6547
-8235
-7399
5068
823
-14538
2275
21500
-2484
4321
2658
3139
2243
7514
-2547
-5975
-1744
6748
5080
2629
-8103
-1790
-7090
-2267
-8390
6233
-6396
-3976
6571
-5431
-3670
5269
2362
-11991
-3702
-7765
-1854
-336
14089
-12754
5685
-10127
-8080
3200
461
1718
-4544
-933
953
-13703
-1204
834
168
10957
-3589
-2866
-4373
4674
2663
5673
-421
3752
-10184
4918
-5351
12831
-1800
18128
-3690
1662
-3423
3756
-6298
-2381
-145
6661
5077
-12111
3475
6891
-72
-6338
9999
-3664
-8396
-9548
5881
-3533
5150
-7691
10856
-6527
13506
-1865
-12504
-13199
5992
-3472
10741
-12816
3622
582
819
7702
-4790
-1037
-9492
-6524
-11701
9576
-2739
4358
8441
1712
-4956
10960
-4218
2489
1260
-5830
-8305
4877
-3861
5687
393
-10502
3753
-14553
6449
-2593
-296
2733
-5039
-13609
-3116
-8080
-13302
1139
-2460
1952
-4351
9914
7080
9206
2488
11736
15749
-10556
-6445
-3683
-9003
-7746
-11835
-2586
-14734
-150
19
-3023
-3835
6538
-10774
277
-5775
7315
6087
7541
9733
16321
765
-7415
5086
8825
-11481
14612
-7536
17046
8798
16522
-3173
-4288
-717
3466
-17016
-1889
-7240
-1443
15929
-14930
116
2320
-2996
-8912
-1310
3482
-5364
-2698
5073
8521
-4109
97
-2526
3855
-2478
-4504
-8258
12270
-3732
5998
-2957
8189
685
-3122
4381
-7410
-802
-13623
-1080
5273
-4227
-6026
-1236
-8389
5021
-2042
2501
3531
3859
-2192
-5636
-9534
-3438
6257
13025
3060
-2469
1809
-2441
3247
-5736
-6573
-4239
5134
6267
-4520
-4305
7792
-410
-5845
3143
-7064
14706
-4851
-3512
2563
10760
-659
-2969
-11697
171
-3255
2365
5816
-3289
1974
-7761
1228
1822
-918
2058
3748
11850
3598
-352
16463
2800
5850
-6821
2863
10928
-1130
-3919
4564
-4932
1143
5444
11425
951
5502
-11095
-2253
1001
8169
-7401
-5919
3169
-1467
6736
-3930
-701
-5397
6556
-2608
5347
4487
-7728
-48
11705
-277
2198
-5667
-10535
1241
-766
3669
-1802
8773
-4001
-8397
-3688
1461
-5393
-718
2788
7200
1556
-2507
8780
-5948
344
-5786
-1981
5754
2245
-2679
2646
-3912
-840
-4167
3740
-657
-3698
-3570
2519
-1517
17
8347
-8640
-1216
571
-791
6385
-4087
10035
-5568
8424
1247
-2012
1661
-4538
2620
813
-5033
8337
7540
135
1824
4157
-2842
-1276
1580
-5777
8993
-14942
-3995
-8740
2747
3940
5707
1718
3522
-1186
1710
6672
-2423
6144
1233
-6296
-44
-2903
-6922
3519
-11321
6411
463
8805
1680
1532
-2510
3394
-2753
2214
1407
1000
-5274
-4285
2423
3795
2789
2944
-2247
-2517
10024
2485
-13546
2941
-5443
10191
5779
10817
2646
6041
-3459
5140
2311
3807
-471
-3034
-2789
-475
-6755
-2058
3223
-1952
-7891
10185
-2622
6954
2121
218
881
-3953
2701
-3892
-1342
7221
2059
6022
8489
-4202
214
1438
2649
-4442
-1627
8105
-1290
-928
8848
-3856
-380
-1007
-2776
517
-4352
-5653
5165
5376
6723
-2581
-9481
-1288
3666
-6943
1432
-9408
-2029
5791
796
-2147
7827
377
5878
2022
-744
934
2264
-7179
4811
3161
-10349
-1187
-754
11938
17337
-954
9137
-647
8702
4550
-1182
-4993
4933
3501
-20299
-17734
2518
-3646
-3171
-218
-3286
-7026
3976
3369
-2769
-2723
-9932
5083
2292
-13817
13397
8254
11654
5303
-4037
4853
11698
-16027
5553
10346
-4195
-19055
593
1397
8002
2280
9606
6871
-11063
10363
20516
-410
-6988
14375
-883
-3889
-4870
12205
2068
-4144
-4578
457
-17051
-15011
8745
-9581
-1968
-13579
-1099
-748
-8497
5578
-8044
8267
-3869
-10398
-498
6692
-8551
-14613
-17663
-3774
5086
-688
475
-15044
15995
253
6411
10710
4386
-2839
3994
-14988
-12936
-376
-4493
1898
7002
12110
849
3216
624
-718
1232
-3520
-4967
-10682
4268
-234
5696
3067
-5525
2095
24819
6515
-1178
-7412
-3829
-4848
724
10133
244
6608
-1883
-3297
-2110
-503
-11780
4444
11929
16325
821
7196
-9967
-5766
-915
-7708
12160
-1686
8644
-445
-5095
7032
-14955
-905
-4699
7552
1269
6207
7624
-13304
3396
-1989
11667
-1504
3748
-12370
-1249
726
415
-298
10840
2559
8554
2601
-12448
-2112
-485
976
-2398
-6169
-5382
-5754
-2135
-8909
11566
-6919
4570
-9747
-2802
133
-25976
-5690
4363
-21287
-3173
9821
-2553
11928
-6904
746
6801
-2477
-11201
3933
15072
-7658
-7563
-8997
3007
9470
-1209
5217
-6935
2437
14256
-6218
3079
5623
-9013
8844
-122
14122
11288
4348
12143
-4186
-683
-6476
-7943
-5222
12779
11836
4604
2335
4104
14673
7993
1220
-2674
-7214
-3560
12928
2291
-2885
1202
6989
-1572
-3426
8829
-9571
-8315
55
3657
11289
-902
2053
3649
-3238
4210
-244
-1200
840
3759
7992
5486
1804
10274
12540
4724
593
10620
-453
8886
10279
-1493
-1914
1504
-2116
3258
-6816
-3947
8541
-8800
-4573
2770
13048
-3129
800
-8648
-143
-785
2602
-5193
7116
4452
-1961
634
-14145
-1752
4269
-1576
7604
5470
-4494
8634
1351
2913
-2235
-1598
-404
3776
-10098
-5940
4423
-4305
256
11111
-11397
10070
10314
12310
6026
5704
13686
12455
-3132
-6757
-7031
3305
5606
-2377
12107
-6979
-6804
1985
-3274
2247
-10874
2795
-7695
-2909
-2043
-18192
3015
10090
-8760
436
-2270
905
14120
-4286
-3193
2427
-5688
-6731
-3377
2084
21915
3458
-899
-8622
-2366
-4051
-3023
7724
17376
-1062
-1810
-6414
-2233
7189
-7416
-18191
-12926
-11100
14104
5735
-5496
-4218
-4585
-13932
3642
9258
-5622
11292
-3526
-3143
3017
2993
6091
-3270
-5760
-1025
2804
-1072
-11763
3362
-10068
2557
4661
2417
980
513
-6486
4344
-2691
-1665
4203
-1659
1533
-3566
5534
3467
-3251
-3963
4561
549
-3294
6416
-5241
-1066
6275
-407
-478
-2923
-2827
4970
-10591
-2798
1418
-15896
10240
2027
4321
-2308
-733
232
-3951
-19073
100
7792
1327
1805
-17573
-10094
-2022
-584
4910
-3546
-4646
329
1667
-5127
-1924
-7741
2563
3179
1973
971
-6205
-2028
-1452
-1528
-3944
-10522
-8304
7
2599
4743
8952
2328
-4252
-1008
2781
2386
-5515
-2354
5970
-921
-4700
7377
-5788
2361
5993
-5371
1118
1109
11444
-4464
-4094
5952
1904
10264
-12758
8425
-13948
-12435
1114
-1320
3841
3960
19048
-245
-5517
-2163
-7291
-2242
-19406
-3317
-1958
1567
-10418
3136
1129
1170
8811
3742
8251
-7919
3390
4492
3703
7017
4232
2084
1109
-589
2290
-14792
-1832
-10606
-1328
-12406
-4497
5590
1318
2676
2379
-1906
-10790
-3505
16120
-15433
14889
-11713
-227
-4450
3448
-10644
14202
1655
256
-1451
27749
12996
399
-8560
-14524
-2655
5801
4451
-2959
-3940
-21327
6376
6690
-6488
-9727
9505
-10174
13254
-7377
-9525
16145
-6709
-11693
-1794
-4277
3672
2846
-2322
4199
606
599
-11696
5037
1346
2401
-3550
5600
-697
-9159
2111
7761
-5305
-5334
6492
-4189
4278
-5584
-3902
123
-4448
-1370
-2745
1389
7404
830
7013
5926
10045
595
-3423
934
-12215
-296
1114
-4244
-2389
-440
13
8382
4037
-49
1810
-238
10903
-5627
9184
-2657
-2018
-4555
-2087
3687
5695
-4541
5222
5311
6089
3205
3821
-3822
-2314
423
4070
-6742
9961
5668
-8170
1404
3454
-328
6715
-6883
-11401
1162
404
-3769
-10074
3220
782
-5617
12231
-10348
2999
3930
10262
3066
-7223
-8407
18322
-585
6142
-3735
763
-15349
1293
-18765
-3690
4880
-2204
-6772
2795
-9937
-1533
-2694
-1803
3138
5716
4868
-19625
3060
-11121
10296
77
-3147
1400
10373
4919
-5253
-8055
-10219
2002
7648
9602
-5580
-765
6387
-4649
-10143
2457
-5989
-3615
1040
2961
-4360
-1800
7525
-1391
-14024
-572
-15421
1571
5487
-12267
4222
-658
-201
1090
5172
-537
11313
5657
416
-2843
-1894
4787
-7110
-1370
-2118
-5906
7181
15114
-5139
-2499
-5029
7645
254
-8453
1071
7572
6581
-1515
-3634
-1034
905
-5679
-9529
4976
2435
2457
-13440
3678
2057
-11933
-7183
-2112
2342
1430
-467
4307
2965
1834
-10206
7383
2559
8357
-16211
6420
7401
-10567
-9866
22082
-8484
-4553
15902
14681
-9818
-9780
-7236
-6425
-4129
10821
-1782
240
1789
329
1301
-406
-5366
-18207
4670
7891
-12163
-5804
-10097
-1452
-1313
10901
19580
1907
-6461
-1915
14085
-2357
-17598
-2814
1443
3456
-18443
5949
8738
-308
16
-2923
10576
-4788
-7703
-2366
335
4935
3556
-27224
-1632
-868
-8754
21
1023
4467
-8438
202
-3651
-212
1927
-11886
5090
3142
3660
-1218
8244
-12974
-4846
4279
-654
5830
-12887
-24064
9351
-395
9126
1116
-6910
15211
-5981
4719
-111
-4632
-4748
1662
-6786
3852
-6850
583
-5234
-4347
803
6619
3794
1450
3141
-6422
1828
-9621
-7624
-3183
-6034
-5167
-15578
6991
-3506
-5388
4644
429
4612
-4255
-691
2386
2712
1516
-2070
521
1879
-1565
1094
-6581
3809
3350
915
3433
-1336
-3657
7513
-3627
96
-5605
-657
6285
5166
-9522
3155
73
-9647
-4290
-1493
-9604
-1496
-10552
384
-2584
-2640
9133
-2929
89
-3108
-4952
-6437
-4275
-920
-3241
593
1575
-2092
-600
-2070
8382
-41
3933
-2448
-4178
5213
-846
-234
-3659
1776
-1380
-5680
-5627
3723
-5965
-4019
-3388
2103
-2711
-8833
496
-6638
-4576
1904
-5828
-15415
6263
8675
14335
-4826
4798
-6150
-4657
12696
3749
-1643
7131
-97
-2324
-10752
-10496
-10858
4495
60
-9813
-7785
-13862
-12116
5448
9774
2809
1360
-9128
8484
-331
3939
-10798
-5568
2134
-4427
-8872
-10951
243
10871
491
4660
5696
-11082
9000
5877
2200
-3647
-13086
-2336
-3839
7799
3327
6352
13685
2559
-3972
2606
-158
2732
-3687
-7328
4714
-2542
4316
-3515
12655
-5476
-4069
12412
3453
5464
6550
505
9084
-9858
13075
-7647
8264
-8615
15206
-7404
8521
10728
-2299
-85
4330
-13929
6573
-1323
-7976
-4709
-3847
4367
-8210
-7470
72
-14750
17099
5733
-17251
1641
2679
-6438
4232
4413
8622
7240
-4691
-5688
-1516
3856
-8119
-1376
-1652
622
-1307
6566
-4199
7595
-16405
11150
-3552
13069
5771
389
-6509
10025
14121
-3394
1458
10603
-7778
3454
-15246
-248
-178
8612
1535
-1405
8645
2895
2255
3728
-1245
2967
7748
5464
14820
10559
7261
-7960
5309
-5000
10067
-2738
3083
11554
-5794
-8110
-8328
-8160
-4779
10599
23271
4455
-7644
2111
1297
-85
8928
-551
9874
8677
-4418
-9271
2980
563
-18986
4162
698
-3685
-15820
13545
3725
-5039
-3560
4457
4822
-2024
-8119
-3335
-431
22734
-3206
311
-1225
8005
12901
8835
-7143
-11877
-2203
3833
1916
-2742
1275
-2099
3205
-14116
685
3387
-10062
5090
-7264
-1966
15796
10753
9887
3384
-6164
-3412
-7517
-2848
-7068
2542
8426
1583
-162
7186
2908
11423
2809
-531
-867
-2432
-5065
6331
-6591
10204
3562
14104
-14916
5253
-13718
-3559
6674
-8185
5928
-8469
5486
-4518
4301
-1954
216
6394
-11149
9517
1818
-1615
3213
-9300
4206
1038
4575
-14194
3763
1365
-13762
13159
-2842
1534
1844
12784
8635
-12881
-9596
-8292
-9518
-9071
3256
-4197
3326
9064
-4154
-924
-294
8677
-669
-206
3067
-5453
9848
200
-7397
-9168
-11819
-4508
4313
-4574
-1026
-7383
-5144
-6562
4329
8411
915
6160
3997
3589
6758
12754
9796
-12413
815
-1506
5610
7201
-231
-3728
974
3259
-9755
-7010
4809
-5463
10397
7615
-5555
-6684
-3135
21531
-14657
92
-3243
-24007
-8204
5188
4539
-16044
9283
7603
970
163
-1032
-15554
-3425
-1094
-4296
5955
-2146
-3516
-12694
-4356
-2423
-6891
12784
-5223
289
13506
-728
-1988
-10850
-10711
7282
-2360
3936
9282
13491
-3639
18138
-14667
3018
5165
-10556
-523
10433
-11635
787
8891
5672
21504
-5444
7315
-3573
-9424
-3425
5983
4284
2494
-893
-4974
-1966
12387
-5626
-6262
-2373
2555
7969
10377
-2689
-4609
-6636
-16537
6279
885
-7805
10305
-8419
10147
-10657
-21281
9764
-6373
-7329
-8926
19210
-7420
8359
17734
10956
-7565
-2525
7527
-11005
976
-4532
-3957
9940
6920
4716
-1734
-13497
-9616
-11397
-3181
4831
-5389
-8866
-14059
4836
141
2971
179
-463
10593
7746
-12614
-13269
9426
11531
-10156
-4686
-6496
-3553
11538
-9292
13286
-6311
-798
7713
250
6066
4166
-9070
13744
9959
16223
-12749
5547
2947
747
14826
4473
8786
-3524
-4759
-6173
3194
-162
3752
-5975
12146
2616
-319
3070
6233
-2615
-476
-5326
-263
125
-1221
-43
2783
7065
4619
6784
2018
10799
-13071
1776
-8325
364
-3777
-5002
-5743
5605
8856
-5213
6430
4792
327
-10441
-7136
-4911
-6646
6592
3913
-15220
-1367
-1640
4699
-7921
-1401
-1860
12839
5510
-4308
-2655
487
-362
-2617
-883
-2012
1560
-1507
2422
-1683
-11301
273
-3208
4311
3606
3121
2838
-10105
-2920
5345
2658
-9683
-22508
48
8402
-7478
-4615
-6125
1632
-4152
3890
-4528
-464
-10054
6008
9370
10302
339
10952
3784
804
-132
-1800
-109
1210
-3375
-1248
-1018
3647
11022
3528
4149
6716
11679
-14680
-1491
-736
12761
4248
-1626
9787
-6238
-11289
-3069
-325
-6818
5232
-1680
4544
13040
-2587
2405
-8494
1069
-8661
-8755
4169
-7908
133
12879
-539
-2110
-16831
3658
5857
-4219
9401
12051
-4025
11319
209
-8089
-11136
-400
-1010
5393
-3433
-2663
-4743
14004
2760
726
-4454
-19122
-4367
3577
-2610
-8747
7670
-8225
-1801
1915
-11525
1351
6219
17966
1134
-9829
-4518
9636
-2692
3814
4726
4411
-4563
4103
455
6849
5711
-2162
873
-6521
8947
-11776
11813
-5111
-5304
-10442
7175
-3336
-10244
-2744
-1882
10686
2996
10625
2796
252
-8729
-8707
-9855
4282
-9610
7335
-934
-256
-10944
-711
-576
4650
4257
9219
-6245
-4721
-2013
1588
-530
417
-2493
4233
1435
-3930
-10895
-1155
-551
-7474
-2947
-1728
-15071
-790
7797
-936
-12729
-3660
-7087
-183
-4475
-9560
-5269
-5913
-5174
-2237
-1898
9653
-165
-1758
1526
-2599
-226
581
6147
4323
-1796
-3631
1888
1465
356
-4626
-8336
4942
-3700
15938
-4151
6748
14671
-11305
1948
1847
-11066
4852
6299
-6128
2257
-3347
15868
-9546
18570
1923
8692
-1429
-8498
-5712
-4449
-4028
689
-7461
-5416
-7575
-379
-11177
-1633
3871
-3035
687
-6630
799
-5378
1520
1565
-8239
-8355
-3162
7029
4539
4871
10081
-7338
4742
-1488
-9933
-1496
3897
9269
-2648
7364
7446
8950
2992
-831
13779
-898
-2171
-13071
-3216
-14540
-4335
6785
-8895
-3612
2308
4167
-2545
1653
-8910
16762
6495
2970
-1590
3223
11299
5250
4949
5711
-3975
3932
-2526
5268
-7224
2054
535
7160
-3483
6734
214
971
2590
-100
7397
1608
287
-10269
-2632
760
4029
3632
-8420
1132
-9289
-1756
116
-4703
2620
592
-987
-2279
-3255
-4968
9672
9633
-11848
912
8862
1105
64
-12533
-2672
-4634
-2498
-8573
869
-9321
2816
-11752
5165
2655
191
-7888
-13794
-5405
6180
11622
7481
-2205
6326
493
3287
4734
-2169
-6506
2734
-2211
-5041
2720
-5396
624
1480
617
-10948
31
388
1459
8474
6857
6328
-6052
2518
5741
2328
-5761
2635
5973
1716
1585
-3888
-8098
-210
-4473
-9434
-4524
-3427
-1847
1623
8563
-9419
-3517
-17656
1781
-9482
7260
7219
-5526
8844
10919
511
5296
395
3052
1894
335
1791
2088
3932
-7952
-3821
5985
-2117
7807
6073
7654
-7121
-4230
2666
-7765
4203
-218
-1242
-3341
14682
-8149
-174
9469
3636
4898
24
-4573
8769
5311
2991
-4616
-2513
-4787
216
6663
-5924
2549
-11781
1553
9730
9333
1557
2345
-9172
23705
2471
12221
8746
1245
-2942
-7850
-6120
1002
-608
1033
1145
10270
7673
15132
-3108
14781
610
4808
1034
1969
-86
-9938
2194
7168
478
9442
7110
-6147
-11370
2339
-3025
-13538
-7132
-923
-10871
-7460
-9046
-1393
-5446
-620
1320
-4663
7510
-6051
-1878
-13178
-664
14706
6486
5353
15092
4748
165
7855
-4576
4944
11869
-2132
9042
-11868
-6692
-7842
-4439
-403
7708
-1243
4069
-10735
4816
6334
2652
-787
722
-9240
10621
5581
10159
-4146
390
2920
-3910
-5565
1221
1250
-4939
11034
5276
-6247
-11927
-254
813
-166
3152
-3364
7166
9699
-3645
-5141
744
4499
694
4823
3188
-2219
6933
-4221
-1036
5473
-6414
-2628
9405
4228
2461
2868
13101
-5785
10010
2253
496
2545
9346
-4049
9697
-2085
12701
965
1973
-10433
481
12315
8606
-5566
6299
-3149
-2023
-10567
-440
1499
1277
-6074
-1865
-2337
-536
1865
-757
993
8644
3402
-5267
6407
1045
698
8336
5905
-10233
5743
-12953
2030
-1212
8994
3610
6960
13198
1202
-3230
1551
118
-6630
9452
-3358
-334
-5921
-3877
6228
-5467
9195
-5704
-12281
12208
-512
-247
-4499
-9811
-6153
-17210
173
3699
-11740
-7198
3245
-13734
-6525
2678
-5276
-13578
1797
1120
8042
-2723
411
-10209
2620
7880
-4376
5093
10905
1366
7004
-5669
4192
8795
6315
-18113
11752
-1426
1528
-8581
-10510
16147
-15221
-9052
4318
-7283
279
-14888
13529
-3740
-3975
-4004
10242
-6808
-5419
8061
-4613
-978
-9459
4210
4068
-2830
14083
5720
-6940
-8335
-6224
-5801
6484
3288
-10196
15878
-17122
2159
-12285
-5475
-917
-9597
-663
6236
173
-2876
-10437
-10129
9507
2243
-9688
8025
130
1210
11444
2413
-3353
5867
15243
-10499
6782
-15439
-4622
-6414
9495
-4488
3318
-1333
8290
-4236
5160
-131
9455
3110
-2063
-4610
-6574
-1578
12472
-8189
5898
3820
-6499
7434
790
-946
-4358
-1457
-7453
-80
7515
6786
6093
-3968
9359
7446
10793
-12868
-4507
-16074
-420
-707
4150
-3439
-2894
-1245
2088
-8778
-13187
-4381
16400
-2442
-15866
4238
-13983
4101
5959
1387
6938
-14090
13543
-982
-752
10401
2054
-385
-3747
-2914
-16616
4322
3190
-6002
-18024
-998
-6143
3482
-17984
-2811
14840
-5167
-1927
-7123
-2350
-657
-693
2599
-3910
1182
-2993
7426
10278
-6037
-5782
2686
-249
2146
8755
-3329
-6412
-116
-1662
610
-5808
-13454
-1156
-5754
-14699
4101
-4595
-11047
8107
6423
2108
-725
1085
-7703
-9023
-2618
-8635
-6277
-1240
-7767
5970
-6661
-1492
-5407
9092
-5915
12683
2736
827
7806
-3317
2051
-992
14984
1302
15782
-2458
-1374
-11561
4830
-6206
-6225
-8204
-15183
-7866
-1430
743
-8974
-6065
-2401
-469
-2713
3879
1661
-4414
-5280
814
-181
-1556
10213
-1230
-396
-4063
12081
2617
6005
-1905
-1360
-2902
1439
7593
-7435
1945
364
-10444
537
-4311
-1448
-2833
3719
6512
-13269
-3199
-3077
9079
8963
8540
-623
-4571
2518
-5470
-4468
-1711
-3607
3349
6475
-4406
2504
5393
1388
-3769
-819
-11258
-8159
-3622
-17807
4325
5564
14330
-558
1044
-5998
-4373
-1427
-414
1104
5657
-5938
-5983
3941
6786
-12620
2505
-7751
-7312
-3239
2593
9797
-1019
4050
3743
10680
-13242
6822
4639
-7114
12051
-14610
-14612
-5151
-4906
7021
7142
1021
9337
8476
3379
8921
-14083
-5619
-5314
-11633
-1173
3385
9628
8790
6496
322
-16699
6449
4409
421
-5801
3746
-6578
-1631
-8239
3221
6808
4426
-6617
-1978
-7582
-1856
5426
6887
-1690
3977
6206
-15177
-7960
4035
405
-1987
-8157
2462
-6882
2101
1803
-3936
-1985
-3705
1218
1030
5786
-7948
4316
-387
6639
-664
2739
761
11245
-11672
-7093
5224
4688
7538
-15726
3742
-1387
-4503
1675
-2363
2206
-1125
-5062
734
-2533
5231
-17836
4480
10496
-5325
-3683
-8005
-3021
5945
-4517
131
-2524
-16514
-5067
2025
-3853
-9587
3406
-6416
-7587
7158
-7463
-10255
9928
7538
3576
-5921
-2933
-8171
-14039
-8695
-1190
13206
-2406
10331
-5738
-3097
-398
-5451
-119
-2754
3592
-15878
-13185
-4934
-11
-40
-1666
-22
3314
-816
-19955
5488
630
22786
15962
3247
-7357
15234
-12637
-5658
1116
-8640
-15552
-2681
-1440
-6880
-9660
7415
-9837
-8550
2832
-9379
-3458
-6243
-6031
630
-6752
-13627
10010
-3394
621
-3250
-3831
-7534
5978
21668
10319
-2465
5090
-7060
7348
16242
-6856
6295
-4539
12230
10377
-10999
3541
-10157
6422
-3894
10557
22705
2942
964
-2792
-8112
-10565
-10356
-6744
960
-310
2464
-15853
-224
9874
-8867
5211
15154
7249
-2834
19294
7231
-14713
2518
1557
-14284
1135
-4447
-14269
3699
11960
-7440
-4171
3679
-14576
-4499
-10664
-3391
1781
6011
-976
-2523
-4360
-5547
3927
-11223
87
4022
5858
-68
-12448
7981
-8103
2368
2023
2003
6197
-2811
-5965
-3981
3111
-8719
11130
4632
881
7271
242
-10931
3103
9797
-4628
-12615
-4460
5425
-6187
-4367
-8322
-257
-5069
1858
-7534
6075
3735
5257
-5092
4314
1534
-753
-5049
-5277
-5765
6463
-4363
-6942
-2179
1848
-3851
-4066
-3248
4143
-2424
11699
-1297
2441
4037
5504
12977
127
-742
-4552
-5355
-6546
-10294
-1185
3994
-7346
-7392
-3313
-1730
5526
-9844
11158
-1289
92
-8764
4483
-76
-7254
-930
-9302
8153
-10586
5062
4525
4481
4754
-1833
-1
-1460
-1902
-2149
-7452
-942
-10323
-149
8152
3410
2994
-925
5325
-2063
-3844
-3177
-779
3187
-10284
-5955
2525
-12907
-3767
-2501
-1479
4359
-5019
1511
2723
-9329
-6881
-5220
-15950
7282
-2973
-9191
16985
-3545
3109
-15360
18564
1057
20671
8761
-1370
5174
-5985
17366
11227
-2378
-2624
2620
427
-1442
-8109
-1203
13644
3542
2026
12233
-2381
2729
808
4984
-11280
-18285
-6506
6251
2194
-5827
-8872
-3034
8287
-3802
-7584
-8063
3015
-13898
-635
3353
-10861
-4386
9990
3412
2003
-4268
-11704
-3325
-360
-4833
7032
-1430
9023
-7325
-7958
-15019
-5061
13928
-298
-78
-2876
-28
4495
12960
-4852
-782
3830
-2308
-947
9255
3993
-6011
-1583
5193
12542
5775
14275
-1372
2184
4809
-1867
1523
-4610
-5242
3497
-4281
-6924
-4672
-395
4003
-4429
-10715
-6077
5392
5528
-6723
14264
-2019
3185
814
-2323
-1770
-3304
-6551
7637
-2894
5729
1547
447
373
3925
8627
-1219
15030
1716
-1062
-13381
4113
-3690
9528
-1770
-7338
8695
101
2141
1946
-3218
3291
6197
-3744
1763
5141
7710
7879
2515
8213
-3779
304
-1537
10915
-4395
-9001
-2007
10458
-11288
8926
3223
7124
7284
-9286
4202
4445
-10180
-1365
6764
-2238
10841
-4203
-2908
5557
8819
-3978
18587
9547
-10030
-2231
-1819
-4191
77
-6259
5931
16043
-5912
1154
-3205
10904
700
56
4573
-6526
-2753
-2466
-3921
-1034
-2958
-6251
8425
10839
5057
-9179
-17264
-3382
20030
2980
-4579
-4782
-15449
-9026
2701
1500
-4714
-2929
-1131
-1741
-5932
-15792
-152
-1596
3225
1573
2220
-10665
-11969
-2007
-5654
3553
3996
6962
7500
-3216
-2297
-3611
2676
-489
-10686
-2343
-3862
-3927
-4155
5447
-4734
-3295
-16401
12953
6732
-5330
2336
1365
-415
-9771
3500
10640
-12220
4113
-2822
8219
13690
-8806
-4162
-1889
4574
8550
12333
-346
3130
-4970
5745
4111
4620
548
-7636
530
2342
33
-2410
-13715
-5763
-66
-5592
-3042
729
-9441
14638
8493
-633
-7921
-4420
8284
-9988
-6735
-2380
6789
-10309
4034
2635
3147
-8063
3372
-6924
-559
-9683
-10424
-761
2246
609
-11596
-8753
4091
5714
-13009
-6035
-108
-9770
1857
-17018
-11847
22779
5041
4523
-1137
-9343
91
-6405
4607
660
7962
-4422
-6050
7466
-11628
-2974
1118
-1612
-190
-2755
6890
-12963
-5811
1715
942
-1877
-182
-14451
-2788
10004
4467
-318
-5676
-1208
15400
1078
2841
-3332
-4727
5959
-6599
-2016
-741
694
-4479
-2720
246
5998
-5484
-6573
3344
8962
5084
9950
-14627
207
711
10820
-13381
5886
-7571
-8197
445
-2862
-2441
897
3400
2213
-948
-11628
-3067
-4894
-933
9529
-2340
-8238
-1700
4992
-4618
-16267
5361
-2440
-5757
-1808
-2562
-986
4374
5164
-633
-8103
-1753
9478
-1566
-6585
-3996
3745
7548
-1177
3149
2927
-4633
-12187
-6074
3080
-16125
-7708
-1478
7057
2788
-3558
4667
-812
1391
8344
-2819
3758
132
-6149
-2986
-1390
-4754
-5501
6144
-96
-4228
7122
-12691
-1641
-4353
-9554
-4828
2947
4944
-684
7342
413
801
-7538
-972
-3470
-7177
5458
-1326
4308
10650
-17188
2171
-8584
-6790
8317
-7351
1831
-7463
-2106
-3260
-4851
-19283
-1556
-1519
-744
-7590
-4264
-13648
-4088
17602
1641
1733
-1899
986
-6025
-9323
979
-1403
-63
3545
14336
-6861
12078
-11799
13794
-17377
7799
-2778
-11219
-1656
-9710
10966
5360
-1206
60
5310
6248
-2026
16526
9152
-7355
15046
4402
-2700
2783
401
567
-11833
-7062
5228
-16311
9391
-20929
7529
2439
10912
-6696
8064
-7923
-8693
-1086
-5936
5815
3493
-8888
-7081
-4954
-20846
-7751
8170
4757
-2204
2110
876
153
6236
1541
-9117
-1638
2809
54
7147
-1366
2103
4349
595
4794
7454
-5487
-10137
927
7943
-11872
-1911
2454
-2094
-3217
339
7049
-6714
-15374
-7014
10556
-9300
-4753
-1470
2743
-528
13032
-3623
1349
765
2583
-2211
7349
-10027
-6271
-5405
-2970
-248
-6188
-5534
-4064
4345
7663
753
-7562
4017
-686
-7812
7276
1860
-7260
-2701
5335
1601
-5372
-2157
7991
3028
-8378
-4095
4551
3229
7246
-4134
-2711
-83
-754
1073
-9829
2921
9654
3254
-10424
-7465
5018
-2685
1841
-332
-1833
1559
-5459
7800
-1218
-870
1484
4051
7088
4216
-8049
11569
-2559
-2364
3787
4101
4427
-14859
-275
-6393
6149
-3317
2990
7458
1605
-4113
655
-1683
1147
1872
-2595
-293
4129
-5363
-3314
107
2925
445
-1045
-6141
1567
6194
-6482
-4302
-7039
-12145
7879
-2765
-2885
-9215
-3175
-8496
125
-1469
-4300
-4147
5195
-3665
-7166
341
15806
-4744
-468
5246
2333
-4260
-5435
1864
-2218
-13165
-3788
3084
5486
-285
-5567
-4793
7310
-5970
-1617
5693
-1017
7434
-2652
998
-4068
-4443
11624
-12264
-4779
-10917
2569
7169
1828
-5794
6890
6024
7287
-4498
5683
-1061
399
2328
2845
335
-1513
12371
-3239
-1267
-4330
-8249
-1442
7931
3688
3024
224
3227
-363
-4518
-13728
3501
18
10458
4049
3181
-7240
-4611
-4407
6282
-3136
6001
3139
-6213
4508
5544
8637
-2540
-6097
7193
-3055
141
14234
2033
-2230
13991
-2170
931
-66
9989
1425
-13513
472
-9126
-4589
-1531
-710
10138
-2030
7950
-9805
-885
-868
-2968
3907
1436
16095
-3696
-8916
916
1093
2211
3617
630
924
-346
4710
-3351
624
10014
-2725
-2700
-2706
1929
949
-850
-5397
-1742
-56
5083
-1322
3715
6814
3386
-4217
8692
-533
5778
-3368
1964
-5686
-4441
-8320
2946
3320
9648
-4295
985
5921
10774
-2575
-17305
-4763
-8324
-4424
4385
11135
6106
1108
-5354
1317
-3701
6327
-6316
-6152
10761
-2438
8240
1847
-6392
-4539
-3554
3014
-11143
15799
-906
-1770
-2401
992
-1994
-704
-6924
-7971
-1340
9648
-4334
17542
-1842
-3776
246
2890
7019
1546
-11735
13315
-6623
-4269
5796
-1442
-7390
5535
-1952
298
4775
3982
2990
4965
-1983
10748
-7226
17099
5124
-4586
-5133
10729
-4135
4019
3138
-8426
-7622
-1542
1418
1966
-3621
-8566
-1842
3751
2809
2479
-5440
3896
-5462
7256
11581
3050
10380
9538
-5481
6366
-10719
2213
-5156
2029
9812
-4066
14797
9321
-4813
-87
7852
15834
10453
-348
-3858
708
11589
-9113
16733
-5354
-473
680
377
2060
-5364
-7477
-4187
9535
-1034
-7409
5779
-2623
-2132
254
10174
-6201
-2289
-11310
6099
-1410
524
3866
5066
3277
-585
10221
1577
5283
4577
3613
8365
-6365
1545
-10335
-728
7427
-3351
-15107
-10300
-1485
-9259
-1462
-447
-15056
-162
9056
8123
-10727
6400
10190
-6973
7416
-12074
21528
-10166
-2052
11923
-9091
-2062
2989
-867
10532
11800
6538
3666
-256
-3722
11136
-4346
8174
2704
-704
-12360
12553
-1125
6879
2986
10096
-6350
-1150
189
-3869
-765
7577
-11878
2189
-774
4889
7345
8400
9103
-865
-3611
-6993
1854
9266
2891
5598
2356
-5052
-1270
6772
10007
-5120
-6399
-1482
-4974
10110
-13699
-2818
-2336
-16149
-5562
1417
7793
-20324
-2048
1403
4652
1440
-1663
-40
5237
4017
-7628
-1368
14457
-2224
-12995
-1324
-11716
-5045
-9554
721
-5895
2587
-1537
-2744
-1430
-1729
5536
10060
-6752
1552
-1484
1483
37
12779
1070
-11091
-4720
-2537
-5139
4811
-1704
-532
-8701
-14429
5316
-15832
-6811
-7686
-4770
2163
-1169
-5486
10120
3066
-985
6629
4049
6701
6701
9086
5130
-15025
-6122
881
-15918
-7982
-2048
-9358
2894
-4182
-5913
-4629
8785
-6156
6717
4067
808
5234
3791
9922
4048
-7762
8027
13449
-14870
11802
10523
2281
3484
-2597
-19473
-1370
9878
6356
-365
-1041
6954
3881
-4072
1822
-4668
18793
-1907
-454
7063
2865
-1593
-1536
-10913
-6374
2356
6671
-10912
448
5664
-16183
3387
1106
-6150
6096
-8173
4271
3638
6316
900
2871
-10643
333
-17617
-1711
1232
6063
-156
4001
2910
-13453
2699
-3467
-6768
-73
3900
-17615
-2498
-8414
1936
4468
8512
3895
2660
-16482
-4178
8722
5622
-2558
5795
5521
3389
1279
4764
-1368
-733
-5738
6433
2285
537
-9485
3527
-4709
-2430
-1825
-2389
861
-1763
-9149
7576
-4157
-1346
7839
6946
1939
1461
-399
1962
4558
-5809
-7928
4367
2207
3111
-5280
-589
2889
-3762
-1867
-563
-907
-9291
-3980
4918
504
-8156
-2846
3066
-3521
-8450
1812
2683
2488
5061
-4458
-6128
-7773
-6989
928
2979
243
814
13436
-978
9161
1612
-3968
7246
2368
-3506
-2921
-4493
2503
-2884
-4013
-802
-3587
-1215
3435
-3141
-3790
-3989
-5920
-3115
7846
4092
-9978
-2352
6101
-7594
5714
-13615
9471
-4544
2026
-2988
914
3332
2582
-9601
5360
7038
10098
-19894
3224
10893
-779
-5031
-2388
-1657
3681
6908
-1352
8866
-23067
-3759
-15641
5926
4784
-11499
-1778
-6839
-9816
-9305
-2057
8104
1981
-10411
642
5396
123
8035
3267
2275
-13327
-9032
-9188
-905
4386
-7667
11819
-840
-11383
8986
11617
3009
-5466
-18354
-2122
-577
-16518
-4037
4714
2590
-17102
644
-14491
11129
-22567
480
-920
7360
-5155
20352
-10497
8476
2698
-1058
-541
10292
3109
-5214
9765
3540
2941
524
-3424
-5108
-8737
-8491
1420
4867
11939
-5055
1456
10778
2944
552
-2934
-805
2586
4815
-4036
5337
2712
-16041
-8360
-10596
2551
11864
-2367
1364
-9057
-4036
-3820
348
7631
-6774
4396
-21254
-1611
-550
3485
7931
-2077
-1239
-1430
-1555
9049
725
-7919
-4564
2232
-2911
8934
7491
5840
564
-10029
3856
-19597
9630
4865
17771
3343
-2253
14041
9401
1722
10018
12462
-704
-4079
3151
9987
18644
-3262
-4786
-2853
12910
-9646
846
7639
-15230
-10741
-460
15714
2816
-12073
10170
4967
-1005
-1454
-12358
-1995
-11715
3708
-8842
-2636
-9076
10619
707
1193
-13956
-12567
4314
-14619
-7300
9515
-8173
881
10986
-6449
-5929
12764
-16539
1865
870
-12434
-6747
9607
11255
10449
-5495
-1778
11333
-7865
-11712
2851
-1650
-7553
-563
-2675
9887
-5648
-4852
3108
-1051
-10890
3830
9012
1566
-5756
-9512
-1588
-3209
12874
2371
-7044
-7568
-6379
7318
-908
-7616
13244
-7369
-4252
-312
-5879
-9331
3235
5759
3319
1476
-7626
-13307
12277
815
4906
12300
5280
6478
-1915
7965
-9986
-2222
1630
-3923
-6035
-5995
10166
8885
21384
2365
-7
-5393
-7339
2122
-1988
7575
-2683
-8970
-2152
-1455
-2679
702
278
11146
4533
-10703
1059
-1382
668
9059
515
-4379
1773
-6791
8150
3674
-3137
-5778
-2732
4775
3850
12681
-2385
-4132
-6389
-4212
8919
-5924
-6415
4102
630
-2602
14777
-11546
2493
54
-7267
2279
2680
-5531
-755
12097
3370
-5080
-186
-18884
5092
-716
-2526
-2782
-3189
4692
2970
1670
9889
427
-1655
11006
-823
-2269
-1220
15280
-924
-1505
651
-7070
1370
-4769
3437
-3986
110
12917
-4084
123
3448
3209
2215
12393
-298
-10446
-4531
-7898
-6186
-6856
302
-812
356
2784
-6025
-3617
-4720
-2958
13391
6792
-4446
4216
-8043
-10856
3808
-5538
1445
-10361
9594
6176
9569
14015
-7172
9084
-644
2696
-1199
59
-5563
-1252
-16330
1194
1594
4270
-3972
-6198
-2503
-3697
-8631
12364
43
2102
5310
4891
-5455
3114
-3298
-2940
-7664
-280
-1702
4297
-9331
-4067
8087
2749
4175
-348
-3117
4217
7916
-1010
-3605
6657
3695
6709
2854
-5363
10338
-2560
7473
-8976
-4233
-112
-4886
-4001
-613
2500
1985
6404
-3989
8328
8955
15904
114
6698
-326
3820
-912
7063
5695
-6018
3759
-6362
-760
4298
3009
843
2791
94
-3396
3599
-976
-1126
1950
8066
-17290
2502
-5414
6441
164
-1737
-1912
-2658
3144
5976
3634
8679
-2255
-10974
3573
2686
-4477
5459
-425
-14880
4769
7760
2390
14647
-8426
-829
2467
-6472
-6769
1667
4423
-1547
-5908
275
-13236
-7468
1715
-6244
-2973
-1172
-8517
-10921
-6801
4373
-2578
-3555
-15662
-11722
-7964
-7899
9554
-1216
-2960
13218
7585
-2096
3823
-1425
9023
3306
-2674
-11163
856
12444
9085
-4607
1335
14382
-2309
-4704
3565
9698
-2249
-10728
10145
-1484
1958
2309
-16565
140
46
-6422
16019
3178
-5660
-2217
4967
4722
1967
-1125
-2954
5194
-14318
-3919
-1196
3063
14717
2302
7291
-9629
-5525
-10227
3870
12098
2939
6757
12730
-11831
-12228
1694
-1904
1923
-4722
2799
3544
3193
741
-9230
10544
5610
-4115
6842
5058
6576
-2762
4
-5103
24870
-6874
-435
-6112
2661
5258
8212
-4510
-9
-10377
8768
-3966
14252
11004
15284
-13978
-10639
-1230
-11014
-1826
-3202
-4367
12890
4175
3825
-3642
-11055
-1430
-8580
-5421
-12284
7281
2995
-2121
10591
5987
-12788
-519
-14833
277
2715
11984
1481
-1497
-4481
19489
-8870
10312
12732
10999
-24359
-10825
3248
3429
-10505
-216
5234
-8201
-5097
6905
-14581
-7109
-6119
-4871
23939
-3231
8421
-8915
4451
539
-13181
6180
138
3629
-5718
6375
-3748
-2996
-4181
-6249
-15724
-9893
1878
-1438
-16756
-2604
-455
7455
-671
24368
-8308
8434
-5871
7987
-66
14666
-714
-1194
-10800
-9634
-13385
-4809
2663
3563
-1061
459
9260
1520
-5963
-7919
215
-926
3458
9246
-7468
-7517
-5957
-6527
-8411
-8773
10617
-12301
-13403
3756
7275
-1288
-1490
5770
-179
3882
2905
2553
-824
-85
-9396
-1363
-7851
2206
11858
-8521
-2255
3119
-3097
-3833
6076
7638
5194
-3777
-319
14634
-1024
9819
5980
-8099
2129
3346
-5212
6209
4113
1190
-3175
-5717
9177
-16868
-12778
-14
-4027
-1824
1908
-1537
-1428
11447
5605
1826
2593
5222
8565
-7220
-7448
7277
10725
-1276
-1772
-5645
4323
-2223
6602
4887
17518
3813
281
2416
-2451
2201
-820
-12368
-7497
-12757
-1053
-5348
721
3649
16850
3744
-10462
-17009
1686
11677
8900
6480
-125
-1390
3197
16270
5789
8640
16622
-6123
1112
1472
-3656
8119
10230
3113
-11088
-4630
927
-7318
783
-9361
18217
10644
2404
-13282
-3950
9742
5440
2154
-7921
-10938
-2744
5588
-3647
-3950
-6712
8417
464
4512
-10589
-1510
-134
3921
-13235
-5084
2731
-12213
2608
-1082
8033
1194
-1421
5437
18624
-152
2300
-3894
6025
4220
3246
-12951
5486
3236
-13779
1592
4182
-13275
246
-3544
-1560
3451
2479
274
-2525
-2736
-5101
-4566
8151
10379
3790
9847
-4224
-4064
1338
5174
2920
2806
2463
9128
-785
-1734
385
-681
1
-1940
-4960
-2124
-2510
2163
8068
1795
-4090
-9567
354
21317
-10968
6975
-12450
11489
-6555
-10357
-743
2496
-13517
6703
-335
12393
-5771
-1778
4881
-9676
-4149
18293
-17298
9769
-3011
-11419
10926
-13726
-10127
-4565
-959
-3030
-10291
4581
3467
3677
6612
-10542
-9103
11321
10844
-2092
-5924
-1045
7144
-5260
310
10051
7972
-3274
-10193
7248
4763
-5721
5052
7229
-2470
2045
4824
-4254
-12180
9863
5256
-13466
3970
10744
-9673
16801
1250
7296
-6561
12967
-893
-1888
2537
-6324
537
-7576
-9482
-3180
-6223
5239
1271
904
12771
1508
-9174
-2717
-146
-2529
-5762
-7008
-1834
-178
-5218
-4642
6402
10966
11405
-1993
-2292
3136
2153
-1895
2499
-2324
-3872
3527
-936
125
5591
-6092
-2468
-9472
3268
-6922
6113
-6326
1047
-6144
8103
970
-1912
-1890
4911
3057
-15597
262
3959
-1405
-5600
3773
-4514
-2005
-2979
2424
1834
-9308
-2890
3066
1757
3374
270
-2687
-7161
-3455
-2482
3941
6800
2069
-9082
-6755
4747
3362
-4748
4468
-4317
7357
-5739
-1608
5553
9214
119
-1833
-930
-1571
559
-4691
-779
456
-2940
-11049
2906
707
-6871
1792
4805
-139
-4004
4211
-2774
8659
-4682
-3698
3292
1885
1232
4801
-2130
-18328
-3170
-2721
-3721
-1379
3943
-96
-1797
-3935
-457
-8352
-1948
-607
-3233
-4086
-1382
5733
-1446
3093
-185
-1531
-1963
1499
1326
540
2036
-1583
-4328
-1206
-4436
3276
5110
1935
-3751
3947
-1900
5270
-3984
-5533
3698
-8686
914
-8168
-3825
-696
-1992
3395
288
4413
6449
-1421
-1336
1475
3555
-4059
-4451
934
8787
6054
1544
1295
2091
-2781
2458
-573
1896
66
-1303
-6934
-5474
1853
469
2340
5755
-7448
-9923
1847
-7300
5568
3808
-5715
-10390
1125
6823
6066
-6873
651
-9138
-3305
299
6132
4012
-8756
-3773
-1182
-4122
-6279
-2752
-2366
5300
4292
5002
-6009
4509
11304
-8723
1570
5740
12196
1036
-3394
-17
-7109
-10987
4234
4985
-2201
2452
8090
17560
2574
-4890
23808
6672
-4551
-427
-8277
6984
-3061
13625
5441
2084
12592
9013
1220
-4941
161
3738
10570
1555
932
-7004
-8225
2293
3035
-3893
6529
383
-3762
4859
-7152
-2281
-13327
1524
414
-5204
2351
-7241
10799
-6908
8746
-5597
1162
-13034
4472
1236
6530
346
-11398
-6736
15048
-16591
-9703
-15689
-18954
-13480
5805
-9748
-3111
2332
-1763
-3228
-7937
8323
986
-3654
11759
6786
-7188
-7726
-8529
-1316
-822
4342
-9970
3133
-462
27770
-11041
10209
-6030
6413
3307
-10248
4594
-9445
436
-3095
8027
-8218
11090
-4136
-1482
-9896
16444
-2341
-14612
-151
-1635
-4433
-14849
10276
18125
-7861
5311
-1685
-10315
-6549
1392
-644
-22863
8359
12315
3587
2399
-6133
-7787
17691
-9873
5171
-10476
3251
4834
5266
-7490
-10071
2803
688
2228
-2731
-12999
-10017
-21846
7087
-9308
-15295
8173
1391
-12844
-15885
2838
-3242
6097
1783
12325
6937
7274
3446
-10654
1926
-6979
-978
-3161
-294
2375
1982
-286
14231
5780
9072
-12751
-9463
-2294
7570
14828
-4393
3388
-8583
5299
5364
-2205
5455
-6836
-7597
5771
7209
-8941
-865
10966
3383
-1138
-5097
7225
-4908
-459
-1122
2427
-8445
-2754
2140
6068
8832
-2319
-6754
493
1885
1968
-1751
12538
-2271
-12195
3872
-2449
-1536
9002
6434
6403
-913
6033
-1797
1262
-1537
-1173
3611
-3638
-7316
-11346
-6563
5166
5589
-841
321
1403
-2190
6413
-8142
3789
443
-5326
16340
-6525
8182
518
797
-6567
2329
11747
9136
8287
-7270
5552
-3884
15785
-6731
288
1786
18085
4495
-9803
-8585
3216
-1226
12844
-3778
-4134
-3731
6567
-4058
-8210
983
1471
-6014
-10936
-3300
2567
-6129
-19217
5676
-5542
-6224
-4067
-8146
-12095
-11898
6947
8259
10329
-8060
-11752
3248
-15848
1386
-15705
-5920
4175
3818
7197
6056
696
8288
-4966
1273
-941
-9936
5129
-1521
8932
-2191
-3935
2480
3555
8666
15922
-2039
3439
-9977
-989
15387
-1336
-11160
11930
-1617
12168
2714
6437
-5274
4079
-1562
-11494
-17574
596
-101
-2771
1849
7787
13369
4669
15432
-4348
6978
2850
1436
807
1422
1202
8052
5933
247
-4953
-3719
8957
-4614
4143
-1390
894
-13138
7418
-1410
-1038
7047
-8077
624
-2549
10856
-10637
-4961
3167
-598
-10151
1218
-1841
-4231
8607
3386
-3655
11636
-10235
4347
-503
1656
-7561
11244
1346
-6269
16247
-1589
-1121
5216
-3311
-1126
2289
-6414
-1783
-2084
2193
-2295
2179
4599
-2407
-2895
10382
10313
2640
-14322
1538
-5591
1364
1941
2017
-7550
1870
2401
1640
1205
10251
-181
1608
-2255
-8109
-6767
5216
-779
121
606
-15344
-2344
-4916
-1873
-5065
3050
-324
-9327
-1311
-8586
1669
-12330
4819
-1617
4364
18070
4459
5187
8645
8426
-10713
-4656
-2774
9806
13668
-4030
-12735
-8162
8916
-13522
-7970
1996
3570
875
-7221
17180
-2995
14358
4993
-4534
-12027
-9239
5415
-989
2597
4293
-111
1733
12791
5627
-4533
-6807
-19740
23975
-13223
9040
7870
11747
8552
7509
-8378
-7998
-5971
-3988
-5498
6412
-3740
540
-9833
12712
2616
2928
2449
1275
14856
-4717
22070
7393
-5872
-8160
-8327
10207
-6574
798
1016
2516
1429
-5129
1168
-390
-8637
2006
-7161
8159
-5099
-8987
2421
-3684
-7242
10963
9976
-1851
-15307
-967
-3963
8266
-5035
8795
-4323
12026
-7458
17118
5161
4316
-1821
-3695
-3251
4041
2082
1802
7575
-15437
-13784
-1888
-2198
-2343
-5008
-2342
6058
8645
-2106
-7104
-439
-1995
-3978
-8040
-11007
-9663
-15684
361
1616
-1350
-351
6849
1114
-52
10539
-3529
-10033
-9474
-9502
-8467
-7832
407
-1033
1003
-2700
6479
-10749
4557
7279
4304
18708
3688
7351
2907
1911
-9302
-9363
1958
10556
-5270
-9302
4706
8151
2391
2752
-3221
-1723
14695
7769
3507
10938
2550
-7351
-6313
8876
10155
-10712
14671
3058
1752
6236
7358
-9673
7887
1242
-2891
4684
-6691
365
4540
-515
-9533
-6196
1351
9829
6244
-1927
13171
-2480
-1097
-1146
-2586
-5988
1544
2134
2577
-3792
-6881
-6912
1830
-13655
5255
5792
2049
6322
-10491
-2339
-4566
4663
9008
7628
-354
-186
3633
-5850
308
7276
837
-6252
1928
860
397
997
6758
-1747
804
-9331
6386
2023
7943
-3821
1231
-4789
2269
-9986
-1822
4034
-3638
-948
-2100
3864
-764
-3691
-6025
-6469
3962
-1694
-3872
1355
-14129
2609
-5231
-7704
-5378
5838
-1989
-4107
-8141
-6252
-7680
-2244
742
-5810
1808
11965
-3466
-16492
788
7497
-2942
-4134
-8540
-2026
1697
2183
-4016
7295
-1931
13600
2840
-624
-9294
991
-13256
-3631
-5109
-3383
2062
9802
12113
-9404
-251
-10506
-3458
-4227
4387
-6436
8783
-9880
408
-10747
-10309
2540
5486
2129
1142
-10027
2357
6876
1816
733
4728
-6553
4483
-6175
-2049
-4979
2290
2572
938
1497
-1796
2821
2365
1677
4790
1887
-3092
5997
-2215
7218
2079
4678
879
-67
-10262
-5338
-8605
5760
3210
-8801
-3191
1618
-2301
303
3611
2214
4153
-2622
5309
9437
-3972
-1924
1367
15360
3983
-5469
7033
-7582
1781
-5459
9729
-2633
8659
-6775
-17943
-4198
2460
4124
9674
354
-1172
-16348
-4365
1623
-8381
-1276
4472
-398
3828
-1547
2016
-10228
2319
-1617
6819
-2083
-7313
-1619
-6536
-1415
-3837
-7202
-4170
5967
1636
544
-3358
5434
1397
5972
-9738
885
9933
-8297
-4730
6951
-6533
-4062
359
-7703
5453
-12202
-7185
4770
-6616
5448
-15031
-2255
-2152
6581
4560
32
2455
4835
-5712
-780
-2419
-236
-1358
-4468
6819
3616
5282
-2704
-602
-6314
-2613
2548
3979
-1173
6635
1676
-2821
1241
-4758
-6743
3321
558
-7739
8158
1180
-4803
1161
3378
-2922
-3277
10022
-6220
5586
-9262
5462
-2702
12696
-360
11193
-1948
768
3146
2826
196
-5942
-5421
-11764
4587
274
1597
-1256
562
-1263
2064
-956
-8964
-12275
-1647
-2126
3410
16817
-4926
-4277
-11283
3839
-17376
-1200
10879
-8754
13565
-558
-10336
-3359
-10990
-237
2223
-10683
-682
-4117
-7227
1286
-5058
1426
-4443
4588
4735
7060
2554
436
-6877
7703
2424
73
813
3445
-3220
2371
187
5620
-6147
-3995
-11164
778
-9222
-6103
-1266
-10472
2317
-2791
-7070
563
-4430
-4948
-595
-2501
212
4238
5788
-4499
2077
-5464
-3317
-7289
-1477
521
2278
-3331
-9372
8792
-3149
-11714
-7205
5250
1239
8092
-4966
-754
2327
1261
2966
-6037
5764
-1100
585
5896
-8379
-6801
4710
6355
-8897
8871
7401
-11310
-1902
-3020
15693
3085
-837
-10577
-12831
-5182
-10864
5325
-9293
-17446
-13
5830
31
19986
3348
-682
-7790
9637
-654
-1001
5978
477
10761
4119
3017
10671
296
-5680
3011
-2970
-551
5039
5902
7296
9017
-7464
-2380
7419
-14359
5474
-468
-3331
-11960
7500
-5872
14220
-1250
3649
-9176
-5252
6271
-4717
5015
4295
4995
6863
6728
1832
15061
496
-345
-3627
-1481
1194
-7247
14058
-7117
-2535
-6714
1101
-7826
4787
-9288
5888
-13753
-6565
14122
6349
-1999
-4885
-4352
13523
6845
-2137
-4119
-10616
4231
-10438
5534
10911
10054
-9386
7200
12664
1275
1819
-3271
-4443
12278
4609
-3477
-168
12668
4088
306
-7152
-752
2497
4435
-1811
-5972
-7590
7171
-6221
-12600
2689
-13142
-4151
-4122
4703
-1642
15366
-2247
-1966
2396
12718
1046
3435
-1773
1086
-6021
3635
-2863
-8740
8649
-7921
-2166
641
7713
1750
-11345
-10302
-2073
854
-16469
13952
-7458
-6946
1296
-16253
-14556
-3237
-4538
985
4083
-9892
-12302
-4543
2724
-22143
-23576
3307
7842
10075
3496
-6753
10584
1802
-11490
7245
-1833
-1095
1145
9741
4927
-21224
-4056
3558
14778
-1175
-6461
4941
-8998
4204
3800
-8607
-2481
3452
4223
-170
7680
-4864
2669
5910
-9596
9784
-17054
-6214
248
-12871
8615
-2351
-10661
-3999
-9637
-5190
-2269
1061
-8265
-11453
9771
-9237
1418
9143
-4477
-2357
-6147
-8505
5851
363
-14282
14408
-849
16380
9387
11170
-3335
-6443
8825
-6004
4396
14749
-7711
-4265
-14832
138
1178
7406
-4481
-4473
-4138
-8679
-5977
363
-5436
7534
-3729
6586
9965
-12084
14108
407
7125
-5439
-10123
-9327
-14382
3800
-10684
-5217
542
9895
-7356
7484
11977
-24344
-9782
8297
23643
11678
-388
-1248
5875
-3402
-3705
-2615
-13241
-11592
-2866
9048
-14648
-8069
12913
5648
6993
6161
5965
-3675
14198
-3133
-1734
-4667
-7759
9557
7671
3632
2159
-5875
-598
-837
-2894
-2675
-788
742
3993
-4027
-5757
6935
11335
2000
-2660
8379
14487
4107
-3978
4184
-1229
-3279
-3299
-820
6555
-7312
-5262
-4900
-6071
2955
-11517
5058
-4540
15106
5444
-960
7604
2558
2741
3702
2276
4428
1399
1438
7130
-1949
-1641
3504
7412
3570
-4056
9727
5619
3276
-2636
2728
-9930
6489
1702
11530
1256
-12494
10600
-348
11210
9400
9497
-2834
-13506
-4513
-15436
10969
-3224
3646
3302
17470
3233
-1723
394
4109
2121
-166
2069
210
-12872
-12059
-8371
-7067
-9978
5962
618
1512
-15456
-3918
4278
-1976
11502
-8551
5407
4562
1755
-6751
-3065
3610
9318
1510
-14286
11353
1917
7462
-3787
-75
-2557
4058
-2265
11963
16076
-1011
5680
2073
-11847
5860
15588
-7424
-2242
-1902
4371
-11136
11792
-9921
-853
-162
-776
2230
3406
-5486
2725
5116
2116
1928
-18570
-3006
15242
-11941
-5891
-13540
-10229
-7532
9008
-12312
-4255
1414
187
-3931
-4535
802
-5004
-3693
-1292
9421
-5038
-7132
-5723
7252
-4828
-11218
-34
-5566
12467
3091
2353
-7007
-8167
1855
-5800
5499
-1122
3403
1881
4316
4862
-259
6635
3943
1811
3585
8379
4802
-5609
4120
8479
5665
7193
-2766
-13000
-5214
-496
-5985
5964
-7133
2739
-3405
4607
6504
-3807
-4231
3772
1146
-4481
2096
-2735
-1313
208
3996
2439
-1914
-11617
9388
-2420
-1193
-3422
-5134
1400
-1240
-192
-2786
1302
1183
-333
-8237
-1801
-4322
-5712
-1947
4495
-351
9554
-4157
-2479
-6682
6868
1475
913
5026
-3301
-693
1382
-454
-3037
-6748
-2529
-2492
3005
-4936
3250
-2051
12470
7539
8387
-10181
-2236
-3951
-1471
-6549
10660
4475
-809
-2031
2371
-6381
4384
-2710
6122
-9968
-6575
-5702
-10982
2000
-8602
-8920
10357
669
-4544
4339
-2539
12900
-3544
9030
2876
-4533
4570
223
-7086
-670
4171
2448
-1001
9336
-8375
6964
-586
2847
-4958
-1709
-5365
3084
3744
-8997
15664
-4199
7038
-1187
-11041
2046
6489
-4978
2393
-5721
822
3750
-1172
-8974
-5913
718
1103
245
-9554
-10394
-7778
3712
-6823
-7576
-11826
7627
-9361
2083
2511
-5258
3492
3676
14111
6126
-18340
178
3958
2940
2505
-8560
-5596
-11676
-1581
4985
1403
2038
-9235
6371
-1530
3969
591
5347
-3228
-2834
-2501
909
-105
12917
-2003
-5087
-9068
22649
-4599
-2101
-3863
-5737
12813
-8256
-6486
-2163
-18773
-17729
-4247
2387
4717
-3840
263
-6775
8947
2415
11499
-751
-6401
-3975
4438
-2402
-53
21174
2843
9918
-1031
-1203
12042
6727
-10356
-7145
-3035
7987
4667
3163
2948
6018
6712
11086
7253
16021
-17976
6839
21315
-82
7526
-1378
7242
-5005
5438
-7999
7670
-9942
4280
-8986
-8672
2342
1562
-1251
-2168
-9136
-885
-9391
16731
-5233
-15737
-9112
1711
-4820
-8389
17155
-7047
6616
10586
6827
16069
-5727
-9437
-4708
18518
-2124
-2018
-9965
-541
-5980
-14757
6789
4739
-7540
3796
-21498
13028
7037
2713
11018
-4725
-1887
-8044
4405
-964
3707
-5910
5079
-22605
-3827
-4322
4647
7515
12454
6923
5754
-1927
-7197
-5085
-7642
-13839
-1666
16078
-8822
-3582
-3257
1242
10846
15671
-3895
-9530
4496
-737
-2723
815
-8860
-7315
-10421
-2593
-2070
-18011
-14912
-2877
21484
-16035
-6266
-6196
-5321
7183
4871
-21115
-10960
-13850
11375
5620
7863
-1382
-7489
11686
-8803
-10169
-9391
-7231
-2661
-17659
11858
7450
13995
-865
4293
13777
-8606
1503
-9226
-7913
5350
-2978
13049
-2625
13284
-15757
-13263
-2929
11460
-1576
1821
4712
6727
-9818
-4575
4650
-6385
14812
-14194
-4855
3220
-7425
6367
2717
1183
1626
-21377
14649
18371
4410
-178
-2864
2961
11245
-13360
10090
-1898
19206
8309
6809
4125
-2279
703
-8348
2089
-2276
-10110
10495
2800
-516
285
-9840
11356
3117
-6916
-14594
2253
10445
-1280
-11495
-3902
-4338
5354
2564
7029
-2080
2
6182
188
-9787
-14789
9768
-18370
4299
-10352
-399
14557
8333
10869
6259
-2291
-927
-11659
765
-1760
-6826
7095
2860
9953
11023
21283
1531
9638
4466
434
-2810
-6492
-5726
-7069
4609
693
-957
-4344
1841
12133
-11749
2328
-3351
-3094
-5760
-902
8954
-10517
-5610
11754
-10592
7976
-3768
11064
4484
274
-3420
3568
7131
-1964
7133
1187
16787
-6771
2631
4200
4307
258
1438
-16195
7743
-3677
-7067
-10781
-4705
-5508
-3774
-7739
347
-9703
-10332
1873
4436
7480
317
6680
-12523
5582
11600
3198
-12357
4968
2456
-7371
-2999
16564
-1528
540
3120
-6706
-568
719
4363
12169
9262
-1140
6861
-6185
2903
15242
15184
-6938
7881
-4643
5294
2586
-3611
-7262
-16283
-7401
-12560
-7655
-7611
21653
-11933
-15742
12745
3412
5076
3210
-1837
3264
7617
-4954
8947
16523
-9411
-10242
-11753
830
-8664
-4321
17195
5429
11847
1026
-1653
-10925
-11637
-3813
27555
-10296
1910
5510
16239
12223
-7110
4936
-5553
6344
6266
-17236
3638
-2918
518
-4381
-6192
119
1167
4740
-8076
-12858
-15567
-1492
616
1266
252
-3525
4782
3710
9411
-2006
-11843
9992
-279
-11696
19632
10222
-4510
6838
13000
617
2577
8278
-6810
1726
7942
11462
10162
-8945
-13350
1507
-5364
2659
4155
4313
2763
10929
-19481
-18942
4449
-10061
9160
9068
9948
890
3003
-4670
538
16258
6233
6744
-3268
-843
802
2029
2884
2959
-4027
-6567
-12650
-10807
-3921
-4376
2492
300
-13015
-10221
-7708
9595
5132
-2294
-10682
6500
6870
10917
-4947
-499
-1507
-5262
-2198
2882
-4833
18543
-26690
-8337
-3888
7218
-12961
7469
6892
2949
-1263
9894
-2825
-6997
-2836
4247
6590
-3808
-5645
12457
-20020
9017
-1684
-2515
5579
6062
1552
-8630
1822
-2826
-5925
4372
-4521
1122
-10032
-17488
-8423
7363
5237
9078
4459
-1126
-23010
-5017
-5900
-3394
9923
1724
15276
-4091
8405
-4384
15051
4935
4123
19815
4846
2776
12824
-9802
301
3122
15175
-13776
2070
-840
-3669
4655
-13217
2283
2028
-7779
-13435
8135
8665
-2136
-8032
6435
-7016
-6620
1326
-3406
13279
6676
-2485
-5389
-2009
-3206
-3628
-2557
10896
11930
-2030
-6140
1050
2394
2750
-8253
1973
13263
2843
-2125
-1832
-5151
2822
12325
-10891
-9983
-218
18335
1966
-1013
9123
-6038
1645
-33
5700
-1526
-42
10029
-3615
-1398
-275
-300
5628
-1221
9664
-8203
968
-6650
-5701
8215
-8476
4258
13532
-3080
-7377
-616
-7367
370
7012
-5255
-181
102
3470
5534
1101
-1681
-12272
-6476
-532
-4595
-8645
-1310
-8198
-5162
-5377
1346
-140
655
9511
7425
653
-10096
-6898
7749
-5557
8011
1875
-303
-3128
6598
-3306
1889
-2994
5108
-4269
487
-8586
744
-18386
-4116
-675
7894
-7114
-7716
-660
-9497
-2602
-15111
4661
-17721
775
2014
5179
6848
-1317
1086
-952
-9249
2368
4944
-2076
-8265
-1243
10843
-5814
-16544
7652
-9020
6944
-7481
6172
15357
-9756
-1288
275
5146
-675
3451
-328
-3688
-2261
6181
-8996
9757
-9126
225
4003
2962
5246
13058
-1696
7532
-2707
-5525
-3285
-4644
3669
-8432
19577
-260
1009
3364
-3688
-12297
455
-899
-9777
12567
13678
6652
-2498
5141
-823
-13211
12748
3258
-2633
-1943
-8752
7237
-9085
-4322
994
-6340
-1241
212
-6643
3293
-5078
10989
5130
17572
-1094
10294
-3494
-5235
-8205
-5617
-212
1123
-7487
12123
-998
-513
-368
-1905
7514
-50
-1449
4558
1095
897
-6331
-5414
7239
-832
-6706
-2632
2822
3556
-7971
7865
-6665
-637
5081
-3452
-4012
-4374
-4027
-5723
-4493
-4079
-8485
3329
2120
1688
-5886
2637
4744
4330
-2118
915
6974
-4794
-5810
4064
-10929
-1035
2084
-8905
582
5965
1114
-9697
-4560
-10382
1119
-4169
9234
-3402
-2941
-3552
-9842
-3818
4349
-3573
-2241
-5616
12270
6502
272
-399
-682
5448
1436
-5797
-1437
-17625
6474
-8652
643
-6146
2791
-6892
-6006
-2031
-126
-5768
22
13582
-1460
6590
-3311
-3607
-4576
-5267
5320
8357
-7064
-6949
4180
7456
-2087
-10663
-2022
613
15859
14733
7753
-13245
-18694
-969
-4435
-6173
3636
-5021
-5680
3043
6335
3146
1297
8124
2571
3160
-5150
8995
-287
-4137
2430
2327
11353
11747
-5445
-3032
-3770
12088
-4477
-26
-14262
-279
-5113
5291
11026
386
-1381
8138
-17983
6823
-3384
2710
3887
2130
6636
-487
1337
247
-12761
-2401
-6566
-14100
2299
7164
-11670
27653
77
4522
4182
834
17010
-428
-6140
2742
4452
15389
5736
-8093
-708
1553
-17852
-7666
-3450
969
-8189
-3335
-13518
-2574
14072
-3763
11668
-2513
12227
2531
2246
-3970
18241
6805
1305
-2426
165
846
41
-13523
5355
5834
-5397
-1638
3795
-13142
5731
6038
-4727
-6815
3662
-459
2449
-3534
7537
-11729
3209
17155
-15541
-4060
-1314
-1717
2241
2087
-27765
9495
-7953
9534
-2889
2332
657
2640
-11470
-14622
-11822
5959
5947
-5525
-5705
-7910
-14396
-10662
-4558
5214
-2060
1770
-9270
-5867
-1986
-3324
-7456
-362
3385
-2317
-7311
8943
-7345
-418
-6568
2293
-440
6210
-8708
-834
8386
-15847
-1539
15531
7859
-6358
-6854
-8662
-277
-2901
-526
144
-4305
-5509
4417
-5228
4968
948
-5397
-1863
-929
-647
-283
8292
1238
-6232
1417
4031
-5635
5999
-3986
1588
-12303
2839
-5870
27
-4231
-5580
4995
-2566
-5792
8427
919
-12173
4220
-51
3134
-6704
4338
-4286
-615
-792
3669
1645
2042
-7028
-5900
4105
-2243
-3587
-10958
-119
-1392
10840
4966
6449
4533
2035
-2893
-3206
9427
7969
-9878
4440
1428
1396
-7565
-6954
5358
6896
2049
-871
6587
9052
10591
-2630
-5780
10316
-1461
4135
6351
-1231
-3534
-4270
6121
-6229
-7544
-5854
2337
-3222
4548
-11017
5201
4626
7798
764
3334
7012
-585
-5662
-2401
-4607
-707
-2950
1777
-2364
-410
-188
1234
1383
-192
246
9744
1771
2373
-2133
-1320
6640
-8443
2212
784
4049
-3356
-4189
15162
-392
-4331
-5655
3091
959
1947
2212
-4010
-11127
-5336
4919
-3445
-2907
-907
-2237
7923
-2546
-4241
111
-4820
753
2530
1195
1293
-1611
-3196
-5099
7389
11531
7337
8439
-1464
-1793
-5789
-1331
624
1418
-1023
-3050
8190
3295
-2588
-4476
3415
4601
-1721
7542
-6371
1094
10391
4899
-448
-2634
-5982
-87
-4946
10138
4677
3394
5144
7343
8973
-949
6493
-2872
-3116
3410
6464
7023
1578
-1055
-6230
-388
-1824
-3820
-4537
1714
-5740
-5424
2280
-3801
-1802
1204
-1982
3947
59
-7956
6689
-6818
-8529
3282
-5612
-399
415
-7394
-7523
741
3997
270
-2833
2500
-4334
4663
5630
-3626
-2652
3133
847
-6790
26
-187
3081
3243
-1263
-3731
-1057
3961
484
-2000
1516
1751
-3210
-6076
1151
-5373
-6511
3588
1530
-142
-333
-1033
-3187
1038
-4453
-2188
-2270
-3082
-5169
2548
8533
-4178
3335
-2154
2746
-9414
232
-6726
-5
-2010
-3517
-3036
-2544
1995
-7553
-7084
-5526
1107
-6000
11459
6949
781
9619
-4725
168
-6362
3627
3903
-3553
13848
1200
-8217
10556
-12972
-1137
-20757
14503
-3721
4257
-4311
-905
-8499
-2194
2493
-2744
7901
3840
-1439
-5585
16706
7759
-3126
2238
-3963
3113
10860
8074
-3828
2255
1709
-6358
20227
-190
-492
8262
5034
-4223
-6568
7193
-7242
15323
-15874
3558
11202
19461
-7465
-11488
-7839
-7882
9619
15982
-4507
-461
5757
-5906
-2391
-10331
-13496
13447
6162
-4283
4596
5231
1307
-10908
1848
3292
14584
1879
16872
-4646
-5540
-1281
-8428
-9405
9950
15610
-4931
-4012
1794
6029
9056
-16720
-12085
3604
2635
-10415
-2449
4926
5378
6396
-737
-6534
-6308
-11030
23018
-1713
2060
-4306
11607
-12720
-2165
-5270
19573
1881
-8220
1700
6368
-13802
-6807
-1684
-5903
-643
14795
5630
-6646
-423
-3743
-3148
-13057
5854
-12825
3446
-13250
-1702
-745
-1406
9197
1587
5136
1487
2801
-11508
15596
11216
-18868
680
-6663
15215
-3888
10582
7178
7238
-6062
6449
-12968
-3126
7865
9087
1050
9851
7474
2483
7188
3756
-1789
-4684
5309
-21607
-21686
1871
15584
-2357
4835
-5854
2033
6587
-1889
-1834
14005
11397
7143
-15020
14120
14944
6585
16574
13218
-7216
-22538
-689
4398
-14013
16369
-1328
-6012
3748
3328
-4943
12278
1471
2746
1450
-8770
-1693
4782
-8534
4891
5744
4596
-188
-5415
5834
-630
5427
-5500
2665
3236
-691
-325
-7229
-772
8820
-3385
-6589
-7564
-8136
3994
9277
403
9176
12419
9181
-1912
-154
-4943
386
3038
-12645
-732
2088
1047
-13101
-1787
-4621
-10456
-10412
9947
5583
5457
-3502
2435
-243
225
-1063
-1791
8136
1305
10196
1774
6326
-3787
-8996
1298
3976
12323
2969
5531
-2780
3276
5097
-1717
442
3044
-2868
6531
-363
4207
2750
1099
8278
-3648
2239
8189
-452
-8019
-747
-4192
5492
-643
3990
-12997
-9975
-8909
4150
-3659
12398
7818
-7480
13513
-4315
-8876
-5095
5900
90
5315
6987
7548
266
-773
16176
15477
11578
10654
-6386
249
-6495
13243
-6909
2237
3106
686
11000
-133
-2989
1160
-10295
8003
-3812
-4724
243
1309
-4229
178
15332
-3242
-3955
-3668
7353
11532
19561
7122
4365
9058
11375
1086
-6022
-5777
-16210
6717
9574
-7029
-8173
-9884
8867
-3981
-7347
8702
2513
1695
-1211
-5413
-10658
15727
-624
2331
-9062
-3424
11280
-4881
6874
-1191
-10610
-15865
12476
-317
-8976
1298
977
-3353
-7257
7961
-4579
14922
-3530
133
2708
10353
1279
-2503
-7615
-2332
14605
1286
4336
-2295
2216
-168
9594
-1513
-1079
6051
-5639
4578
-3633
-3885
-4358
-8260
14127
3435
7361
-3422
-5009
-568
-2732
-1033
16238
-14304
7905
6773
4379
15413
-5545
380
-4818
8167
7135
3060
-5065
12477
1274
3631
-2805
2558
-8713
-1906
-4126
1650
-2791
8525
2583
1643
-4925
-5613
12847
3713
3785
19788
-13524
18550
4155
-9566
-3065
-3455
688
-12763
6770
-2486
-13720
6827
-19660
-1552
5066
-7166
6112
2378
-3339
-4054
1931
-2785
-53
-5774
-3784
9520
-2241
-3126
-3788
190
974
-6740
-14841
-6866
12875
5642
2633
14667
-5863
907
8940
10611
-3170
-3371
1224
5472
1760
2724
-5913
-2392
3646
9607
-3213
7276
15390
-1790
2494
-3546
2046
4841
-743
3215
-4714
-4211
-2538
6516
12860
-3564
-6010
6745
3467
-3540
5068
-12120
255
-6919
-2470
-11230
255
3980
6960
481
1616
-3443
7237
7485
4332
-4106
-1382
-1384
-9952
-7711
-6972
2346
3464
-2070
13203
3907
-6741
909
-7829
-644
5546
-8277
-8275
-1342
4648
8944
5751
-10292
7774
-7538
-9500
6547
1239
-2232
-7620
7570
-8425
6823
2706
5669
3595
-11632
-4006
7728
-1076
6023
-5388
5236
-1192
-8544
-8470
-1843
2970
5975
-11247
574
-587
-386
1212
849
-5752
3798
9
-3905
4643
1567
-2
-2086
-5669
-956
2234
-3445
-9873
5390
-1335
-1263
1376
-9419
1286
-6392
-3693
4203
-6190
633
5769
-7211
4323
4408
6183
3598
380
1133
2366
-8620
905
1032
2929
-2827
-3863
1777
3099
-1122
-3165
-3161
1407
96
4387
-10549
-660
-4898
5121
747
4084
-2584
-2076
12
-5716
6992
-6152
-1308
-2357
-1690
-1448
-4428
-5964
-1180
-3993
-5869
1807
2339
-1468
-8165
-227
2278
-275
-5912
5989
2889
-5359
3520
-2491
1101
-1615
822
431
1831
1358
-7918
3453
7918
4332
2147
3329
-3392
-1568
-7737
2062
-8548
8866
1704
6325
-1536
-1815
-3587
3576
-8229
-12340
2779
-16602
-2989
8995
7472
1967
8756
-6322
535
8829
52
-1215
5182
17267
-3329
2852
4200
-9294
-1387
9546
9100
-7288
1433
2708
4847
4251
-8846
1741
-7758
11796
-1910
-3074
-15222
9927
1991
17502
11173
1773
-5391
3058
15559
13208
6365
14797
-1828
-12204
-7403
9035
-438
-4139
161
3236
5328
-4141
1316
-5525
-9175
2840
-13656
-2771
2528
2454
-7370
3385
3331
-5136
6790
-11507
6903
2281
-5741
-19262
1502
681
-4218
6090
10602
-8787
21447
-10039
-1374
-3309
518
9280
15991
2071
4692
-11822
10332
9355
647
2181
-4277
-1860
-10778
17134
-8100
4786
-4451
390
6629
2463
-7371
-5571
-11928
-3648
-10092
17608
-538
-1762
-942
-5541
-4231
1395
-3387
4259
16244
869
-12029
8814
-20720
8561
23419
-2285
5664
-2234
2142
-3886
3471
2897
288
3776
1298
10193
-1002
12404
1255
-6541
8483
-1776
-16896
6289
7043
-4074
-3932
3965
-907
-2897
-3196
6859
909
-22666
-6954
4856
10827
-754
9292
12847
7804
-246
-8105
-540
17716
3632
21597
10180
1344
5143
-3412
295
9826
-5305
-18149
-7028
6084
-11463
4301
1399
-5961
279
-7223
170
-815
4346
12201
7804
6136
9718
-8987
-3738
3982
3077
-15485
5577
-341
-1400
-32767
-1674
-6742
-2533
-7717
-3163
-1649
8146
-8121
-3890
-2469
3338
-3206
1929
2910
-1122
-8265
-264
-2846
-15917
-516
3020
5239
-9522
-4757
12166
-3284
-10071
-1584
-3738
-6813
-7784
1422
5415
-7746
-995
-3990
6978
6132
7564
-3880
523
616
-12317
-3438
2792
-7823
2753
-3211
-4004
5540
-8907
-3169
7475
-1455
5458
2408
-2676
-3829
-173
-5133
-167
-5854
8545
978
8465
-12338
5243
-7611
-6805
10448
6707
-2055
339
-2913
4916
12
-4602
230
4407
3462
8461
-9533
271
10556
-4625
5442
12574
5308
-6639
-14505
-4157
-13003
-6907
-7599
-15
-3842
-5729
-12916
-5552
-5325
-5223
463
477
5834
-6630
8927
-4845
5126
-3211
-9613
11567
-3141
-8653
-2168
433
5645
1250
-5348
-2058
3063
5296
9304
1132
13
-256
4878
5149
-498
-500
-5359
2050
10664
-20765
-1013
-2556
8112
-7637
2764
150
2949
2566
-5132
-237
708
15520
-9795
-1071
-4714
-7742
2396
-7203
2276
-5881
-5836
7019
5511
6252
-6378
4270
-5206
1106
-6615
11865
-4813
11365
-8315
-5291
310
-2713
-9002
15415
-8308
211
3443
-705
-1770
-8008
7403
-3664
2318
-8995
3700
4230
3883
991
-8908
-4128
-6691
-4234
32
-1843
581
4534
-8722
7504
-5993
-4882
-6636
-6344
3010
-1060
-1594
154
11232
-8918
10844
2270
2106
-9753
-7920
-6632
-2538
-6027
-7335
-479
-3651
8443
-8182
18785
-14861
6464
1595
-8822
-1010
2471
6175
1137
8622
3135
3301
6810
1285
-10846
-154
-5961
1987
1321
-571
-39
-2630
6881
-3559
7636
-2040
-6564
-1894
5482
2579
-9939
-2796
-1
3504
-11577
1519
4751
-15662
6235
147
-2082
-13097
3054
2329
-7763
13851
15290
-9163
2166
1980
4252
-5390
-3719
-3407
-3425
12
-3127
1995
6808
10769
-1368
1387
4575
3018
-3270
6866
-1062
3458
-12887
-12404
-12306
1778
-3865
3359
-10120
-7019
2512
-11125
-6207
-3142
-5880
-5156
3117
-5769
9956
-2157
4416
-4591
5728
-20694
-5298
-10135
-7815
5483
-8090
4225
-6769
-1112
7307
9306
10376
11807
-5747
-22123
-3245
12407
3663
-5359
4091
8030
2254
-3221
7589
7476
-4645
-1147
5138
-257
-10684
2613
9711
1257
12898
964
-12865
-5770
-1025
-1320
8722
627
-1301
-2762
787
13954
-8634
-1966
-4299
4996
1094
12826
1058
10113
-704
-9439
4432
12386
7720
-4163
6670
1908
12159
9865
3886
-13372
52
7326
-15863
-8003
4809
17162
-483
-8925
-9598
-4630
-8484
4062
8922
7048
-3535
10320
-1133
10374
8950
53
2787
2374
-5706
-3450
-4305
11242
6845
-5352
-114
2300
-6782
-4334
-27025
-5230
117
2298
7985
474
-4920
-7701
5064
1843
-2382
-4211
-9388
3454
14429
-5081
-3186
-7411
-22319
-2494
-5230
2260
-4671
718
-1014
-16068
6742
6678
5080
473
-6870
-4489
252
-10433
5672
7280
-9410
2607
655
5693
-6297
-8351
607
6476
-19824
4639
9455
-12202
-3436
1383
-4427
-1165
-11211
-647
10687
-1699
5935
-3175
1286
8427
2326
355
-6848
-1815
-964
4171
5707
1698
-136
-2199
4746
-5849
-1828
2781
-5464
-5242
3633
-1454
-299
1846
-15902
-2195
-5299
539
-1958
1170
3407
-5949
-808
-7661
-266
-668
2306
-1818
6693
-1378
-9572
1580
-8070
-7658
-1380
-6736
-3481
6473
3381
393
-4711
5596
2739
-2922
-351
-4060
1849
811
4449
4832
-5365
-142
10724
-4797
10396
4137
2657
-5607
-6047
772
-2432
-5227
7536
-5866
213
-1577
-12928
-8216
40
640
-4738
-7504
-1414
11586
3082
10071
4905
-2526
8779
2412
-6488
2669
-2604
-2835
1615
2271
4879
9148
-7553
-4023
10774
-792
-1992
-942
-4277
-4671
-10479
-4644
11541
10355
3617
-5068
8330
-1231
16361
-122
-3341
-5397
10649
-9624
-9053
-3233
-6745
895
7387
-4207
-8650
5993
2553
2631
4475
-413
-1388
-3841
9187
645
10307
3275
8366
-10621
-314
688
3656
-2465
-7480
-3431
7251
4954
4085
-5622
5319
-6015
2769
-1730
-621
3989
-6406
2048
10992
5030
4332
-2552
7070
4369
-1896
3718
2052
-1959
-4138
-4486
6492
8757
-915
2746
-15719
6150
-6975
7998
-3685
4050
-5925
3951
-1869
8900
-6005
6327
2756
8827
-4638
1934
-3866
-13361
1169
11383
2577
7603
-5002
117
1030
1431
-5068
2939
-2367
7164
-3938
2350
-2264
-1068
4177
4661
1349
9541
-1556
-1591
9344
-2013
7605
3738
7968
-5581
-5651
-4411
5211
2576
8449
-11506
-6435
-11537
909
3968
518
-3489
-2142
2011
-3054
-1313
2616
-5167
10591
19177
-7035
-9783
-10607
-1120
9037
-13334
-3827
7716
3394
-8190
4959
-2411
-153
-303
-939
-590
9288
-291
3137
7859
4458
-15349
5725
9056
760
6967
-5537
-7140
1681
3474
-1408
-4553
3792
7248
-12160
-7166
1270
-3698
-14909
-10730
144
-1554
7173
14380
-6442
-3931
865
3568
14701
1706
4872
-2748
-6038
-11533
1111
2384
5824
-539
-6799
2437
4931
-12793
-12815
-4904
241
-8451
-1047
11183
2545
-5908
3665
-7737
-898
8383
-3931
-5403
-7315
2975
-10168
-1854
-1591
12933
-4726
-3502
-1691
3500
14027
5064
-504
-5329
5122
10960
-16922
6773
-2291
-8913
-2072
9194
2688
5671
8254
-8089
863
20101
-7162
4273
-3499
-4981
-9526
-6330
-1548
336
4854
-10019
15130
6793
-5571
-5140
-10358
3961
7421
-1390
8704
-83
395
3609
2308
-9034
-930
-10927
-13587
-6901
1837
7172
-7901
-1573
-18600
-4977
92
-3714
-1831
738
-12211
-7596
11714
-1527
12875
65
-20536
-386
2071
878
547
13319
-5667
-39
-3647
-9216
-21536
-4323
-8972
-571
6506
5984
-5376
11672
1214
-9666
-1877
-2179
-6105
4871
-3457
-10114
-5586
3272
-5802
-9324
-14845
-223
4308
10361
12869
-12405
2474
-937
-2630
9502
3236
-1456
9839
2964
3444
708
5018
-7167
-7294
7121
1848
4904
-2210
-6212
2182
6830
-10999
2539
-3406
1468
-5578
-9833
-10414
-37
2367
-3675
-4259
1020
-7496
-3346
6729
5175
8502
-1373
8233
-2999
2442
-18659
5212
-7992
3992
2286
-12835
-13777
8815
-9673
-7058
-10117
-19511
-9548
-6135
3120
5504
2785
11250
4747
4381
-14427
4288
18733
2506
344
6800
6096
-10575
12020
-7060
-5495
-722
-7099
10729
4678
753
1679
-8549
-59
-10074
-2996
2856
-6317
-8974
9710
-5656
-4125
299
-1454
33
8941
9227
-1463
-389
-2056
8904
-6056
2433
-1502
11155
2654
-2980
-3942
5908
-5883
-3942
-254
2240
3499
1706
4025
-1543
-4270
61
8493
2197
1535
6370
2851
6868
197
-5112
-13128
8131
12390
-16592
-8160
9185
-532
-3265
1751
-14546
7349
-5957
1633
3441
-5026
3060
10240
1304
-6585
6030
18680
2871
2192
441
4870
7076
3034
2496
-2225
-1118
-6112
1501
-745
3445
1363
-10118
-837
14600
-669
10269
310
-4590
-184
-11234
8314
5132
-15532
-2222
-227
4659
-1572
3640
-7419
2535
11286
2859
1131
1066
-4348
6326
4569
13365
7661
-1109
-5803
5583
-1429
-4161
-3242
-2914
-612
-2373
6365
1215
7667
2999
7488
-3959
-6241
-2828
-8819
-2745
-6802
4040
9468
585
-68
-6376
893
704
-5072
2489
4263
11147
-5772
-803
-3286
6085
4004
-1900
6261
-516
-5571
-2867
8945
1964
-2297
4235
-922
1027
-355
6537
-339
3184
-15988
156
-6427
-11446
-6314
13071
9801
-481
-5732
2075
-3938
2670
1174
4501
-11537
-3696
3271
-466
4503
-877
-2219
1413
-3684
-9353
-5946
-6914
13552
-5615
-6681
4021
-693
412
-7350
-4262
-7477
-836
-3474
-6989
1876
8903
-4858
4139
8783
1375
-3359
-4519
3669
-9692
-10905
891
-4794
4170
6296
-11612
2454
21082
8829
4166
7864
-3014
8472
648
5378
7488
3891
-2570
4033
1333
-2568
-16913
1508
2140
5044
-121
1027
4857
14638
-11473
4202
6019
-10504
-5264
-2279
1593
-16427
-14558
8404
-15222
3977
-10266
-13324
7782
-3606
-3305
-6470
5095
13239
-1399
-5312
4370
44
4138
1099
-1155
-5587
-2248
461
9321
501
10265
-1386
2886
-11622
-6861
7431
-12840
-676
9937
-5611
-4984
-1943
-1614
8609
14822
-7373
3595
-1431
-14187
-8480
4031
18972
-3829
4014
-882
8189
-11128
14288
15327
-822
6719
6785
17335
7811
-3862
6172
-5415
7197
4111
-4359
14764
210
16449
20918
9529
1911
5248
9506
17021
-164
-409
-633
3870
3832
1368
7947
2352
-4127
-3068
-18832
-4936
-8808
8126
6719
-5817
11444
11434
6548
3062
-1287
4599
3696
-3640
-20350
5315
-1527
-3560
11706
1465
7240
-11874
-3061
-7568
2384
-9871
-2400
10356
-9003
4202
-3419
-10777
-4657
15931
-9799
1994
-1107
-3111
-9881
-302
4172
-5085
673
-9936
4177
-1773
-7178
456
-9559
-1797
-6218
-3326
9744
-1064
3035
-273
6114
-6322
-4055
3428
-1295
85
996
-2263
5076
1653
3915
6795
1623
-7424
-1282
-7033
815
-7710
-4381
2771
5382
6753
2467
8437
-828
-9842
6420
-19265
-1950
3326
-12204
-746
-4109
-10201
3872
7488
2080
3937
-6587
2326
-9955
4223
-3972
-4972
383
-1842
-2085
-4509
-140
7093
-1866
673
3474
-886
3779
-1552
3236
-15315
2257
-9052
-9061
-4630
1755
11615
-3431
-13782
3552
-5055
1507
-744
-9203
-1871
-5357
-2641
2752
1822
3742
-6426
813
-1057
14191
-3753
-5925
13244
-8346
7034
1833
-4745
3926
2832
2060
4646
-838
-5665
-3271
1110
-729
856
-9383
-2674
6766
-4268
5459
11127
5533
13891
11576
10641
5333
-2034
7499
-1650
243
4832
-876
-12063
-3176
3103
6455
-352
13887
-9353
-11953
-10355
8457
5255
8859
-10712
-3747
-1424
5363
261
-6986
1028
544
1118
-1511
-5733
-4576
-11826
4015
4209
-3171
5382
-9666
14762
-10412
6998
-9381
-12576
-8291
10215
847
3552
-1759
-2941
10191
-4972
7958
8558
7316
4291
-851
-6937
7939
-5976
4637
-23858
-3535
-4480
4783
2567
-9045
9946
197
-1160
2284
10496
-1904
3811
-16038
1716
1442
14246
-4457
-7481
-5380
5231
8857
8103
-8631
2689
3355
-1815
9409
-3928
6212
-551
5386
5957
1662
8408
5730
-4607
4724
-2672
8678
-11206
3676
5590
958
-8978
1481
-3846
9968
2609
8760
-1559
-292
-8493
-35
-3216
8013
-1489
-10852
-3957
-3926
-3841
-16
8527
1994
-3144
-8682
4128
-1729
7771
669
4136
5205
-12135
-3909
6879
-6889
1722
-2043
2158
-5430
9939
1158
-6026
13643
-5276
224
-4967
-495
-15327
-627
2143
-13759
11621
-2979
10533
-978
8022
-5913
-528
-1454
2284
-6122
-1216
6594
-2446
-5017
7202
-4904
3542
8730
4515
-6182
10816
-6673
1687
6756
-9431
-4106
5944
-6107
12378
-6433
-9504
-3989
7126
-3207
6620
6426
-125
3422
-1945
-2290
2975
-15525
-3443
-12826
287
8784
2906
-3317
6987
1242
-2431
-1396
4551
-1582
-604
-674
-8791
-1283
-2254
-6983
-3643
-1430
2083
-4644
2602
-2010
-2723
2299
-5277
2797
6979
-5888
4010
-2890
6829
7926
-2865
-577
1973
7017
5550
-9972
10812
160
6460
-1500
301
-5816
5505
7500
-10819
1789
2848
3867
9484
-9190
-354
-2972
5072
-15435
-3439
2348
-207
-10308
-1067
-4364
-172
-4155
-4772
-3225
1231
-2031
-1724
-4486
-1633
5489
-5279
4793
-3304
-17329
-206
-10397
87
-2563
2687
-8353
4022
-3052
-16912
2737
9378
13422
-1485
-726
8727
2331
1962
-5332
-3712
-2950
3602
7958
1656
4055
2986
2019
-332
1549
-5048
1134
-550
-5882
-693
-2762
-2408
-6998
-7375
-10247
-7169
-770
5505
2625
-11803
-12871
10089
3068
-7864
5407
6087
-7940
2124
-6424
4722
-7103
7413
-2474
3953
-1520
5741
-5005
-479
-5662
8247
-4071
-7155
-2570
-9208
-16806
-4899
11028
-4186
-12861
-10901
-5062
-2450
2944
997
3096
6868
4464
1054
1952
-6195
2580
-8714
2390
9633
21358
1765
-6797
8929
1205
-2724
-7033
-2447
13155
19548
8671
5504
-11205
6072
1616
13260
-8276
5982
842
-535
11084
5843
-6176
11545
3302
2445
6816
36
2010
4077
-937
-3314
-10166
-13192
1013
9990
857
1394
-10969
-7006
8395
-2254
-1362
10727
14052
540
644
2849
-1193
534
568
-4565
-6763
10540
-13283
-11205
-4324
-1517
3977
1844
-6252
7343
-2065
-11885
1106
-7377
-11027
-8147
-2025
8637
-714
588
-16373
-11530
-1160
16597
-8553
10813
-2382
4194
3012
-11286
6080
-7530
-3559
-5640
5604
-5631
-5556
-2125
-13759
-11717
9568
-2041
-8409
226
-3195
-1922
5008
-282
-3812
-3196
-443
-3136
-5467
-305
2688
1263
23
-12220
-812
714
-6682
7926
5334
-11860
11093
13354
-5002
11372
1445
-7348
18911
2910
5786
-6326
3698
22713
-3000
-4557
2629
-5019
-8382
-7476
-720
-13268
-5290
-7740
9798
5279
-3420
9436
-516
-7220
-2025
5042
-6275
-4536
3158
-1985
2026
-11741
-1369
4786
7129
-4810
3197
4264
5756
-12315
6024
-12005
-3534
-595
-7020
20676
-950
-16660
5017
-9393
11379
-6419
7609
-5310
1496
5590
968
-4055
-7837
8882
-1483
-2164
339
1572
1869
4850
-5103
1407
5619
-2927
4191
4328
-11703
4053
217
-164
-791
14573
-1874
7580
-1837
-1831
-5763
11877
2505
8415
-4593
21901
-1401
-3906
1586
711
2597
-358
5472
-5733
7362
6304
-5483
6234
-104
591
-1659
7727
1219
-9450
11523
-5219
-6722
357
2300
-1960
4595
11239
-5352
7362
11405
5541
5900
4566
456
10363
-5042
-3091
-1784
9718
232
-2610
3486
-9083
-2237
6146
195
11192
7104
-4530
6138
2828
8231
-12974
-5529
-11337
7216
11543
1742
-4591
13698
-6544
-3541
-8245
324
10832
8754
-453
3672
1674
2479
-6513
134
-1050
-578
13606
4029
-5167
-7129
-496
625
4749
-4534
7994
-6863
-2308
5266
-2238
-6234
5963
2238
-3298
-7024
5898
614
2109
-514
-3486
-1221
-2083
-5096
4111
4116
-2271
5886
7280
-6219
-1738
-12730
7723
-8602
856
-4552
470
4816
5711
10172
-15269
11963
-4163
1937
-3579
-7352
4983
-2461
2396
-410
-12093
-947
-2414
1851
12593
4531
-3364
-5520
309
-815
-4705
1984
-3943
-3498
1454
-9871
3499
2189
6390
-897
-3207
1401
-2196
4880
2123
-2470
824
6525
-2717
783
4234
7730
153
-4736
7584
-3925
15572
11972
1052
260
-4869
-593
-3215
7029
2086
1305
-10821
2232
-14213
3484
10527
5280
3225
-14720
-11047
-5352
2631
7404
5562
16311
4327
-6829
-4406
10644
-1386
4341
1343
1065
-5332
2091
-9547
-8377
-295
-2975
-8382
6546
-7346
7864
-1095
7042
-1861
1404
6524
-13077
4280
927
-2869
2487
-1770
5262
2769
-1364
3798
3438
12951
-11102
-3719
-10455
-13364
-3933
-1249
3467
-11265
-3403
-7002
-7945
16462
-2326
-10434
-19145
-2806
4055
-13386
-5113
4170
-23173
413
-2853
-5591
5500
9405
7530
-6876
-10573
5075
-13998
-5891
10280
-10124
2597
2927
9614
13189
-3627
3886
11185
-4461
3716
-6682
3715
30256
-7385
-8725
9711
-1934
1784
1841
-10256
-10395
-5815
4677
-11815
2132
5475
6574
14583
1659
-9731
191
-8592
-9933
2559
-8045
5359
-11987
-13998
-7699
5667
9708
-17867
5065
2974
-10048
6674
9712
-18368
-1010
5880
-11622
-4954
-769
2092
-5670
7950
-2469
6115
-9755
-145
-17208
4456
18069
4215
-5548
5088
5624
-2534
-9572
-4840
523
-3073
-13832
7492
14486
-5186
8845
-12193
-5614
-6639
-2132
-3975
-6342
-2948
1822
21458
-7983
-8605
-2945
11175
-3726
6363
-10461
1119
-2872
-1472
-570
7379
418
4295
-14183
7580
2394
12082
762
-1155
5979
