-1321
-3118
-5788
1412
1786
-20116
-1903
-9305
-1092
-3350
-2924
1392
-1706
16988
-15112
-5322
-554
4469
-9188
3173
13171
11750
-2615
13092
4961
7560
9955
11194
-13682
-13421
-5894
-5717
-10084
3621
-8612
972
-3322
5260
6935
6541
-6717
2485
4228
2652
18595
-6803
3415
3835
-17888
-3396
5939
-5979
5639
2809
-14250
4927
1266
-18032
5540
3294
8559
5363
-5015
-5163
-10203
2133
-12298
7053
22128
-313
-25214
-2289
6659
15845
-7881
32767
-12435
-3869
-171
-21417
-338
-6960
2858
2027
11273
-5851
28152
-25754
-3709
-1525
13360
3977
-2166
-4519
3549
-3262
-3473
6824
10373
10970
-3618
318
-6586
3913
-1355
-12651
-2063
-6207
8070
11540
5908
420
-15458
6904
-4096
3275
-656
15660
11034
-188
-7126
-18805
-6982
3465
7000
-2291
-1142
118
959
5813
1006
-2417
654
-7097
-10428
-18377
-6953
433
-226
-11086
-12069
1624
10246
-8985
10486
7687
-1528
1784
14112
-10682
3707
7979
6728
3869
-2609
-9068
1594
1224
3129
9034
4212
-5600
10879
10247
9602
-5626
1432
7898
-14396
-12328
14106
5354
-12017
9047
-6578
-571
2317
-3640
-3169
10175
9912
9191
4405
930
3133
-290
-3306
-819
-15025
-10631
-12860
-9473
-2857
-9107
-1492
-13384
-5976
-6802
-3295
4762
-4045
-3400
-2383
-470
-1371
-3807
1282
5297
-5651
-1355
-3517
-4565
2547
256
-10647
10878
2674
5971
2966
9646
5116
6702
11231
-1442
-11129
17694
5999
-5917
2525
2723
3313
-1335
-13741
-17359
15764
1730
-2330
3054
-14423
-9916
-14290
1404
6609
-12570
-5844
2949
-762
-892
5553
2294
-5063
-4897
-2393
-27278
7389
-14668
6083
3542
2746
-10550
-3740
-6018
4391
-431
-3406
-1193
-7913
-3324
-162
2114
3600
-7036
-7588
41
469
-1034
-14618
-15121
4179
-1288
5251
-961
-2041
466
-2196
8735
2097
-4289
7906
1356
-18303
-11001
561
8952
13216
981
-5254
12870
8154
-14441
4047
-4344
-12403
-3767
-439
-1295
-5281
-6197
6909
1558
1523
-58
-13790
-4238
2921
-10132
-9515
-4587
-4832
2923
-1208
-787
-1580
-3573
6834
13312
-1461
19693
3006
7225
-809
11820
5962
-2818
-5098
10934
3532
-3101
-2580
-5474
9153
887
4016
7965
9786
-7467
-16975
3350
11785
-343
-874
7120
-4863
1874
15926
-2732
-1856
12433
-17040
-22764
