2134
-2715
-15655
7093
1112
-28302
16112
8329
-12016
9637
8569
-3293
493
-729
-2778
-879
7144
13161
6419
4416
4739
-1148
10568
8684
7553
-675
3231
4796
2403
2571
-1079
-282
-4430
-6267
-8271
-7383
-2261
-2535
-235
2005
-5521
1420
480
-1672
-6487
-1403
1733
-2369
-1672
-7980
-2838
-920
-2563
-73
-3830
10740
10729
3301
-219
-2418
1828
5499
9406
-680
-3719
1375
-2214
-667
8226
-1641
-2146
3633
5810
5074
7109
11137
3704
-2642
-2214
-11489
-6943
-5212
-12579
-19433
-9197
396
-1795
-2773
-2696
3059
1247
-13154
-6124
-13841
-5633
-661
-13527
-13506
-9445
-19808
-14285
3406
-9125
4440
-7911
2318
32767
4325
6079
18973
-16651
-5516
2553
-4339
2271
-1509
-15485
4798
8551
11807
-1297
-2396
5988
11171
7855
14375
8723
7761
9744
-2173
-4873
-7505
-2959
3296
-2719
-8246
-1793
-4168
-3132
-3715
-10188
-1801
-2652
18180
16958
-21563
-16261
-2908
-5481
2658
10563
4034
-7705
-3836
-292
-5336
3771
-5737
-7951
-3308
-7986
2766
4037
-13389
243
-11452
-5031
-2575
-5401
8296
-11105
-11394
-3101
-7580
-2729
-4756
8961
6738
1223
-639
-19307
-14081
-12456
-7897
-8518
1299
2263
6409
10907
7442
7913
8509
13493
-1042
5565
11342
8071
13933
691
-4889
-22481
-16687
-3419
-11762
-229
1016
5071
1497
139
-3974
-5830
-6045
-3350
675
-2547
655
-3900
-4277
3440
-2047
576
-2554
-7299
-613
6009
5510
-2450
-3347
1334
13517
8933
-650
1659
1667
3897
12760
7530
1146
9782
1
-933
3320
1514
8856
2965
2555
-1273
1395
-5934
5162
18550
3638
11395
2217
-5875
16690
-9204
-3269
1235
-7313
10834
-8432
7008
1214
1836
-8104
-5281
9322
-18
21116
16568
210
12482
1074
2289
-9226
-10359
-14375
-3349
14637
10999
9527
17508
21156
1541
-7186
-6455
1049
-7112
-27352
-4338
-3901
-20071
-1715
9105
-1600
4612
2429
8341
6344
5515
-2860
-555
3344
6127
1618
-4227
11801
-3034
27364
18418
2278
-4866
6879
-19619
-17711
7965
6446
16935
11433
-13894
-6017
13932
2133
-6991
6308
3310
-615
-652
-1909
-5014
1933
883
-2041
2679
5465
15328
7122
-3799
-3840
-2697
9262
14438
8800
2175
-7427
-460
-663
-5110
-8571
-10955
-3610
-4414
1327
1184
-754
1281
-8901
-4248
3874
-4830
-16975
-16014
824
627
-2308
478
2747
13269
4262
3444
1512
-37
3763
1658
10787
5745
1985
-2370
3464
7356
4158
15731
4226
-7999
2623
796
-5233
15599
-2709
1006
5695
-1998
12620
1315
-1357
-4982
-3582
-1208
-1912
-2524
-4937
-4599
-3307
-4054
-8342
-2258
10010
13982
12427
-1130
619
2681
1058
-938
-4190
-1197
-7472
5546
16887
-2120
-6245
9376
14530
-4024
12870
10077
-1922
12192
584
-70
7443
2803
3010
4632
6268
-3248
-1885
9627
3772
-996
-5726
-15488
-8233
-151
3928
-5190
2134
1491
-155
5974
-2319
-788
-10354
4999
21077
-7054
5952
11146
-7629
4065
4821
10513
-3134
14737
-6967
-6115
709
-10280
8271
-9001
6528
-7012
237
8290
5821
-593
4380
5395
4120
2117
4061
4695
-546
-2110
-3841
-24253
-9020
-406
-4018
1191
7534
16926
12046
535
-3406
-1981
-675
-6761
-7532
-3596
-513
-3389
3626
1575
-3626
-5962
-695
14273
13040
-3167
-297
2266
-16341
8053
21493
9664
-1312
-2833
-2907
-3730
-4065
-3028
-3228
-9250
-3697
-5016
-5582
