1851
-2927
-123
8615
-851
-5924
8554
-7115
-4152
14651
-8745
-95
10151
-6024
-21
-4267
2567
8750
7780
9478
-6527
455
-11834
8760
8540
778
9568
-4487
-3139
-8213
-7225
13971
8786
-14579
-2370
5538
-292
-5351
13716
-9386
9648
7890
11231
-2627
9094
5778
6735
5536
1485
3518
-2068
-4643
-2782
-6589
6806
4402
14684
12970
3759
5439
-8398
4729
-11817
6254
-11222
4879
-5558
-3166
-2700
-7574
10356
-3475
3818
-5288
-276
6611
-15
3931
2400
3491
-10882
9256
672
-5383
6682
4925
6342
-711
12340
-1238
-246
-11146
-411
2224
-2146
-2790
-929
15060
-14181
9500
8834
-7917
4984
-3741
12436
12442
-20669
5482
501
-5124
4597
-3943
7294
-13621
-2700
13191
-3393
12111
-7692
-144
5807
5316
-14857
18916
-439
-346
794
-1964
15812
-5328
10217
-12500
6271
15745
-7327
-4149
-5315
1250
-6021
2073
10910
2614
9032
21234
4854
3948
-416
-4452
-437
-10904
-5719
-10504
-10894
-6975
5112
-4788
-6759
313
-1744
-8426
-5189
-6858
-8767
-4111
-7269
-15422
1869
4892
-11872
-4143
10368
-4477
-18083
-12055
13778
1051
-3122
-6643
-7478
754
5996
-1838
-547
7037
-1090
-4886
1056
8133
-7704
-6044
3512
-1023
-2582
-2966
3018
7737
5772
2002
-9700
-2631
19189
6696
2117
3007
1976
3353
-11033
3910
-5384
1621
28487
983
6949
32701
-5307
19952
16990
-14798
-7389
-23568
-1071
-12361
-10219
3592
-31756
13220
7373
6198
10136
-2328
431
3731
8820
-7523
-6658
5864
-2878
-5535
949
-2666
1002
-935
3432
1557
4082
3937
-1323
4990
1906
89
-359
223
-926
-15
1947
-212
6871
-1144
226
455
-504
-1902
-4544
2443
5567
-1742
4389
7767
1949
-1062
-3525
-15917
-8942
141
3479
2822
-273
3291
-837
2623
-11202
-6453
3033
-3568
-2858
3314
-9907
2431
-3682
1675
904
3916
-911
2859
-2399
-1737
-7992
1430
-1951
-1244
-8995
8663
2352
335
-3701
-5204
-12131
-4786
3093
3306
-7962
-10661
-2650
-6467
981
-2115
-2086
-1397
-6891
-4785
-2942
-5737
-5684
-2561
-8859
-6209
-2662
-1666
1078
-1110
-2135
-6005
-7304
-8377
-475
-7527
-6708
-4122
-6593
-7614
-6938
4827
-3204
-1648
-1375
-6380
7285
-5890
-4453
-6111
32432
10292
1860
3794
-15272
-12691
-1999
32767
-1268
7252
-1701
-321
802
3280
4345
-7036
8844
-1106
-10336
13888
1112
-10140
7473
3500
-1657
6437
2957
1705
9314
4327
6408
1515
3452
8990
-5003
3049
1578
-5156
616
-1540
3875
12723
9034
6575
15131
5907
-3739
-5970
-12653
4209
7866
5084
-13724
-16086
2708
350
-7465
1315
-7595
-2793
-1153
-1267
4998
4420
-1348
-5014
-6907
1328
3654
3874
-631
-4858
-1989
-3733
1105
-1955
-2311
752
704
-8272
2927
2787
-4996
919
391
-2594
-414
1731
-3513
2097
-4437
2182
1897
-226
-4229
-4337
-2322
-1637
-1133
-5746
-288
-955
4880
457
7467
11968
-4349
5168
2030
-1931
2288
-3691
4362
-5645
-7074
-2730
16696
3651
-3699
-9045
-3984
8142
12398
20279
-5180
-10494
-7425
-1437
14166
12415
