-8619
-9454
2481
-9765
5863
-6623
-134
-7037
-6054
950
-2613
4957
-877
-25133
-2134
265
-19030
19241
-11618
-3985
3791
-4876
-6011
12702
-3746
-924
-17957
-845
1285
-116
1804
3124
-15779
-3283
10170
2510
-5442
3428
-18333
-3027
-8822
-7723
8200
18724
5777
18007
-5961
3516
-2721
5956
-7827
6178
-10556
-9439
-7608
15115
5004
8873
-10656
-12985
-3577
-21197
5542
-334
2547
6060
21594
-12091
-2736
1302
7748
-4586
9183
-4742
-6213
-8211
6017
-7728
6905
7751
-14730
1708
-13956
9617
-10201
21030
-7832
19807
20830
-5372
1900
2634
-3649
-6908
8071
8402
14359
-2312
6112
-14988
9111
-14291
5068
4024
7852
-11905
-10899
-2679
16205
8589
11427
-2896
-166
-12100
6171
14117
-5169
27100
-9202
22332
-11789
16422
1697
-16840
3883
140
3578
24764
12073
-3377
-4203
13961
-1864
-2561
11144
16746
15193
-10568
9815
-14195
-3340
-27479
-3484
3878
5794
-4073
6792
6458
-735
-3065
5711
13947
22108
5785
2113
-16338
4948
338
-2829
10092
4387
-471
-7342
15168
1700
-7361
-7604
5744
10671
-9515
2659
-5824
8119
6077
7458
-12331
907
3861
-3344
47
102
-772
7708
-4148
5262
-14994
12602
-220
-7612
-10613
22083
-14363
9454
11406
9089
-18566
-4043
-11315
8548
-9183
21480
-2196
-4586
5501
26125
1255
-7320
-7698
-15443
-6602
11855
-22072
3763
3254
-9027
3524
10191
-2154
-8186
-199
-4263
806
5546
10368
22344
2887
3164
-5187
-8285
-17668
-8316
847
-9450
-1238
4476
-8647
-13969
-2180
-9653
16346
-2390
-3631
-6154
5321
-3543
7822
-13163
4251
2148
-10624
823
-8844
233
-7211
-15792
1857
-17226
-5152
-1994
-22505
-5555
-1633
-2175
15723
-645
826
1067
6987
-3309
3067
5032
-10620
-12048
12320
-10147
-3709
4459
-5714
-1775
-2944
-14175
6731
7716
8633
13456
-9491
-25323
1279
761
477
10644
-13817
-7534
8276
-6709
-2989
-3406
-146
8303
-11946
-11731
-5921
1384
-863
-15832
-5727
8323
-2120
5714
1219
-5961
2715
-6622
-3388
-15482
3114
-4978
-345
2295
4106
-668
-14712
14110
-20890
-9145
7652
-1566
-21063
7378
20750
-13820
-615
-2269
-6769
11337
-15034
10598
1790
9698
20878
-2019
-4005
-2669
5108
7837
89
-9610
-6744
-3281
-6706
-8473
-7394
-2107
-7899
6360
-8513
-2531
3467
17700
4683
-4332
1629
-5628
-6061
-1353
-153
15610
-13163
-16418
8853
7386
-11082
-10978
-12547
6608
1713
-3166
-8938
23082
20433
13387
-13567
-8214
-14209
-8191
4677
8450
12468
7492
4649
13720
4032
6020
8660
14045
-11350
-5072
4560
-27162
15840
6737
8819
-18999
-1174
-2886
-8168
-2361
-5951
-12174
-6438
-1706
-16566
-2518
6713
371
-8230
10767
-1912
4606
8451
741
-9527
11517
12790
74
914
-5611
1861
-2642
-1889
14671
-13278
-7872
-7417
11688
-8277
-18147
-4457
-11941
9688
8339
-1040
-10099
14790
4885
-3471
-2669
-15559
8108
5372
-8159
-14962
1119
4766
16848
-1575
16786
-7994
7678
-16365
-16977
-4743
8785
3322
-6414
5449
27870
2780
4100
-1135
10897
9134
10702
10870
8687
-10869
-13559
-2837
-7986
-14840
-6346
-12186
-9981
3266
-10164
-8789
-8692
3402
-21710
2382
9811
13591
2467
7754
22646
-432
-8645
11222
-3680
-3636
6257
-14270
2714
-12290
9840
15018
-651
-20035
-13123
9010
-1925
-26215
12323
6399
13733
-5360
10487
-4579
7572
6167
10073
961
4332
-14348
-12041
-5236
-16255
-4549
-5169
5582
6383
-7044
6151
2724
10497
-5226
-21870
-8686
-17417
4653
1747
-16275
-369
-7767
-5913
-20225
3119
5003
2816
-5119
11382
-5997
-4168
9986
7601
-8713
-10484
11602
-4086
-6218
-660
-17889
2789
-5504
2107
11883
-8933
556
-10011
5994
1008
-12730
-7618
259
2513
-6817
3952
-14740
1259
-16191
-4283
-5081
-11923
-4014
-5078
13375
3391
8994
7788
-1969
9852
-4566
4886
-6267
-7040
-2717
-2286
10938
-4354
-8537
-11782
5696
-20221
-8171
14640
-2113
-8967
4211
-15751
-18979
-1697
-568
21920
-4458
10275
10122
680
10153
17318
8010
-7834
-2782
6792
-17457
9392
6843
-8001
2583
-7128
-6506
22626
-2973
-24371
7385
7162
-7028
-2291
-19762
26554
1369
-4699
-18576
-4583
-10824
-7757
10698
-4181
2871
-8278
-8703
-20010
-1206
3145
619
3913
8694
-7506
-2437
-10966
17299
-9140
14
9446
6541
10934
4236
-9075
-417
-14538
-5077
23981
1112
12358
16835
16044
-17128
20643
9510
-11062
-10175
-6779
-13324
-15076
-4408
-3073
-130
-1647
7735
-4414
-3592
-6220
-8338
14014
-7508
11941
-2405
-5228
5366
5276
-12608
-2263
-16824
-3478
8201
-9747
8978
-3467
-4577
2891
-182
766
-1537
-21608
9086
-22618
-5668
3997
-6026
-560
13766
-6824
8715
4053
-3367
14008
-15605
-9834
8805
-15291
-18890
1831
-1791
-4013
4800
-4079
5058
-11545
-2229
10892
7128
9442
-8559
15828
1035
8009
-2736
-2704
5060
10964
-8915
19281
0
-813
-1897
10414
-16768
-5836
-2524
1989
8479
7496
-10493
-1516
-16508
-15359
3507
8504
1517
1874
-14945
9676
-14597
8258
-8149
2107
5872
-8902
4545
4889
4302
6671
-407
3478
756
-11129
2969
16217
5604
-6407
-5650
1461
-11952
13403
1546
-8480
-4452
8961
2331
-12141
2283
-4956
-2291
-13198
-1387
-6114
10401
2698
-860
4600
-4072
-9484
-973
-22900
-7716
-4044
-19927
-5208
11011
-16252
-2804
21063
6371
5874
-12542
1543
4994
-4022
2599
-3763
14137
-8957
-6350
5690
10659
-1616
1918
-19314
-1724
-3384
-5782
10397
4746
-1871
17842
-15260
-3474
7466
-3811
-1090
2480
5941
-22004
7118
-10457
-1749
-7424
-14495
-5815
-4461
17406
10681
-7522
-8351
-8980
3034
-8148
9150
4677
10602
-9830
6927
5231
-12672
-3502
-3982
5061
4436
24389
4930
902
11290
-4109
6628
-10851
6113
17284
-1579
4787
12689
-5437
-8450
-3422
-6930
-2840
-10877
-14014
-7275
850
-12265
-9025
-8278
-6504
-120
-16131
155
7073
-1561
9184
-14690
4389
5081
-6367
6050
-13362
5117
-15898
2399
-3648
-3350
6679
2354
-14186
2459
-6900
-3462
11427
-5617
2645
-17394
24308
-11446
13190
-1683
-11204
-1963
-3279
15320
-7940
-808
-10078
17309
-1385
-8387
-8734
-13806
-1324
15572
3989
-16283
4709
-2881
-19084
8400
6847
-1224
7858
-4455
-6575
7074
13782
1274
-2476
-14290
58
11225
2675
5434
-370
-8663
2329
-19623
13657
12475
1540
-3237
9774
9111
-5690
-24289
16972
11975
15473
-12435
365
-515
-3737
3520
-16036
-3174
-4073
25697
-5786
22871
3174
-2845
-7518
23767
8010
3568
-4373
570
4102
8830
11201
7441
-4470
-14208
2999
4188
4437
-7082
-9035
5423
-8612
12305
-7561
20980
7112
8695
-12560
1536
10222
-19877
6012
8112
325
-7696
-8580
-32677
-2978
2405
-8220
986
-7508
4877
2748
-4002
-5268
-13173
5374
13352
-10242
-24926
-6446
10583
-21403
5647
-2767
-12045
3916
6573
3219
-6774
5239
76
-152
-2762
-5491
-15124
-1262
-10080
-129
-1502
-925
6769
-891
-844
18241
-1006
803
5146
1395
1983
1963
11173
-157
-5840
-869
5499
-5894
24455
21309
-20524
-10776
-3622
5663
6598
-1342
-16148
-8871
15069
-589
-16783
-12407
31058
11424
-4399
-57
-9094
8574
10529
-7656
-17890
13549
-21589
4626
-27646
10276
17158
15494
2338
-3383
-5088
8031
-2408
-15807
-524
-9070
-6212
-6155
-17019
1054
-8059
5040
-9229
6214
1802
5844
17063
-9737
8438
10108
-8141
-8348
13274
7403
9413
-11606
-574
-11101
-17852
1839
-10573
3026
18731
-9226
-3673
2998
-1923
15739
-889
811
8233
-10334
-14036
-12823
-18364
2898
-868
660
-1706
-155
-4782
14054
14337
20714
-6120
1322
8689
-18641
-8764
12787
-13692
4014
7874
-6828
-1097
13828
-5308
-13793
-1880
23860
-1892
3010
11316
7042
-5019
-3744
263
8726
5081
12513
-699
16196
-3369
388
-5467
-5084
6686
754
1357
-527
5965
6883
4635
-2037
-6348
7386
8996
7963
3939
-98
-12400
-4311
-249
2443
5391
-4504
-5661
-331
2775
-4916
2787
2593
-4127
-2294
-3545
-16453
-5034
8416
14350
-1664
-13620
-7427
-10433
-6899
-2209
9181
-11737
-13050
4641
-11055
4698
6739
15199
3731
110
-9339
5271
26819
10270
-18414
-2067
6358
10186
-6044
-6764
-3937
6804
-4083
3805
7785
-176
-6372
3145
-776
20294
-10051
-11496
-16398
-15851
6389
-7003
-2027
-6917
8742
15369
6517
-4525
9091
9325
4637
-17110
-4872
-10058
9711
26258
-5857
-3121
-17816
-12913
17267
191
4430
-1085
-9602
15104
-9991
-14056
14129
-12958
-24330
1890
5161
3904
-14072
18887
-5329
-10863
6203
-5395
10615
21476
-11053
-15793
2090
8140
3165
17819
-14483
-136
-22386
15857
6370
-5015
11908
-7890
7125
1496
268
4982
1028
-1785
-6548
-17269
4378
2288
-9387
-22107
6638
32767
29177
-19791
-2771
-12598
-2332
-1458
19802
-7932
-222
-2399
947
-1164
4334
-4951
6208
19495
-1753
-6008
-3217
4007
14737
2315
3354
-4961
-13967
-3264
10329
12493
-6803
1861
2474
-922
-8495
-3543
-9827
4160
701
-14511
-1569
-3145
-24966
17431
6836
-6835
-4749
17552
-22484
-6563
988
3767
16712
14805
4714
-612
2057
16068
1954
-14795
-10367
-6547
3369
-12651
7783
899
-15282
3061
5695
-9410
-1587
491
-20995
-3575
-17218
-1213
3767
-10278
-20749
1461
-6045
-10179
-14204
249
1879
1120
4214
-3844
-1120
-284
-15829
-5619
-4107
-3787
7938
7176
3765
-3908
13693
16148
-9364
-9667
-2209
-4338
-6726
11350
13355
-4167
5726
-3387
-7151
-865
7714
4236
10555
12115
-11011
9924
9425
-1014
3438
3064
793
-8024
-995
3428
8656
7596
7316
13481
-4536
9597
-5241
-6117
23662
-5970
4113
-8085
-12664
-4655
12276
12580
-9489
-14455
-2909
3460
2035
8007
-2119
-14272
-1199
11371
-8754
2541
7896
4422
-7314
-15776
2518
1129
6343
7152
394
-8285
11271
-5494
1440
-10984
1447
-18874
20654
-1220
-295
19104
1612
-8755
-1422
5416
7737
-9417
1317
4282
-11902
-13485
813
-16005
-4019
-7368
-10670
12982
1846
-2736
69
5976
1036
3705
-13637
