-2876
-1980
896
212
425
1279
1052
276
-3544
2675
-1918
358
-551
3674
5598
-1229
514
-245
-2145
-1748
1322
1996
-3272
123
-3001
169
-2817
-1337
-2063
-1539
-4570
-5009
452
1589
-2833
-4251
-8140
-2126
2527
-2677
1958
81
787
-2803
-6120
-1046
-3669
486
-1014
-3704
-3770
504
805
-2237
-2210
-3645
-2483
-175
-3632
-1546
-1853
1111
870
-1994
3446
1742
-10
-5258
-897
-306
3741
-1286
377
-2178
-1038
-1815
2915
-472
-1938
-3169
1958
-1213
-898
994
-333
3435
295
6167
421
177
-7260
-2075
373
-5175
-2380
351
2235
-44
-3268
-1128
3488
-1304
-1154
-3567
715
-1411
-135
-890
-944
1785
1898
-2437
858
-250
-1028
326
-584
4229
-469
-1894
1591
136
2322
-2092
-1500
2323
854
-632
399
1571
837
1368
-485
-2175
931
1005
1001
-1420
1274
-2877
-1298
546
1002
-7755
1183
617
-2332
114
-4704
973
-730
-2521
-3021
1973
5630
1561
377
1733
924
-3826
4307
-4386
-3566
-4547
-1335
-5702
-1313
-3808
4623
-5273
-10740
-6931
1618
-2407
7885
3155
-12239
-501
-3874
-2795
-3740
-4479
6606
8957
117
4005
4527
-3396
-8406
-8667
-486
6234
5372
-12220
2623
-7681
-3741
555
-7361
-118
475
3031
-8301
-1901
127
624
-8648
265
5174
-2384
3083
1218
-956
-462
3840
-1927
-4208
1707
2445
-10410
9439
-5510
-2834
-2614
6108
-5845
-1190
874
2869
-3067
68
-2456
2182
4646
-4116
-4629
-4323
-6415
-1728
-1520
5063
1770
-5850
-2018
6054
748
593
772
-6471
-4854
2316
2732
6839
-4319
-2522
-1031
4257
5650
-2774
448
2667
-5881
-4602
-3434
2308
-400
-4015
-5733
-1003
3237
-3223
-7
-4326
3683
-14543
3820
-8013
2848
-3788
1759
1290
-3662
-528
-3457
-1029
-4639
-156
-2519
5239
51
-11865
3441
61
-2292
-2931
-209
-8128
-4602
-146
-3417
-4789
-1431
1202
-11484
-8957
-1213
2469
-6726
-3013
-67
3138
-11234
-2397
6653
59
4597
634
1548
5762
-1079
-3351
4959
1323
-962
-2550
3242
-8067
672
-453
-1697
-4523
-6042
-852
-3898
2876
-100
-3206
8276
184
-13015
-7411
-4643
4915
-186
-5059
2162
1056
-6955
-298
-5809
-9625
447
-4520
1282
861
-2051
-2638
7949
3923
-3148
-3289
1057
405
-1864
4423
-1375
2242
-3285
-5621
1816
-3506
2478
432
-465
6074
11769
-3441
7807
-4046
-19995
-8221
-6164
3188
6043
-4680
5334
-4544
-3064
3846
4155
-5192
7288
-3277
3990
326
1502
781
4728
-2346
-3558
5496
-1693
-539
4632
5037
-4938
-5237
-5187
-7765
-8547
-8082
2595
-455
-83
12944
-2378
-8371
-12795
-5364
-398
-3544
3958
-4574
3328
-4035
-2057
1126
-6562
-1619
-1197
-1648
-10174
-26
-916
7740
2617
-10328
-2978
-1589
4197
3283
-9935
-3972
-12230
-508
-5855
1380
7344
-9132
637
-4383
3757
-11168
4365
5005
3087
-1370
-3319
-1379
8949
-2489
-2710
-9379
-7484
4181
-1786
1345
6084
-6471
1219
3268
-5252
-5785
6091
-1217
4674
-3859
3656
3550
-5056
-2311
5215
660
8237
-4463
2433
2560
3980
2993
284
-5110
647
-34
-7169
-2550
-5509
1654
-9598
-6408
2040
-8402
3833
-2159
6836
-1502
6335
-14910
-1863
-8142
1045
-6476
2650
-3137
3973
3493
-8882
-2887
-89
-577
-1390
8664
-4756
2679
-1663
2130
-3280
-450
837
-3900
1398
8147
4924
880
-9280
2886
-987
-4945
767
-3364
-4439
-10250
3340
-163
5375
4686
-4395
1582
-1549
2965
-2371
-2667
2564
2103
-5753
-6623
2096
4803
86
-2261
-2429
-9737
-3760
16188
2637
1483
-7679
-5548
-11083
-2683
11516
-3501
439
5646
-4440
5973
8051
-3519
5921
-2254
-171
-2874
-4947
6516
-4186
1558
4032
-8865
-9290
1006
195
-499
-2246
-10648
2468
-72
6095
-5717
2025
-13103
-3509
3958
3820
3469
-2242
-6815
2007
5887
2119
6187
225
651
-6779
7127
-7207
-2121
-6192
-15625
965
9416
876
-2228
-9670
7058
-1776
482
8733
-8670
1869
-5090
2444
13079
3780
1544
-809
503
-1968
-3449
-1875
892
3855
1323
-4416
-6295
489
2412
-2422
-6948
-13143
-3033
-2597
4514
-3155
-5207
6535
-3425
-6416
2442
-6662
-5912
-7465
-5343
2644
1331
4278
3817
824
-7167
7322
8022
2678
-5462
-4001
-11110
1410
-780
2114
-783
1538
1670
4262
1784
11914
-4626
-5257
-2207
-1300
683
-7317
2739
-1804
-4458
4177
-83
-298
-2555
-11291
-1488
-2529
-5691
-6581
-1597
-4277
-1821
1376
1835
1845
2336
238
5016
-992
-5976
3485
-3884
-138
1828
2391
5299
-4329
5986
-1567
11485
2730
-6640
3408
-5277
-2017
3455
-2274
-7783
-1741
2064
-5591
-888
-10299
589
374
-1550
-13898
4063
-2314
-4844
-757
-4523
-9205
-2872
2211
1810
2061
1718
4206
6744
-3288
5702
-143
-500
-1969
6547
-7853
-9377
-4269
-4087
-200
5620
255
1023
4663
1730
-1814
4866
-1074
-1705
-7932
-1666
-9891
309
-3422
1938
2324
-295
-5927
1264
9101
-189
-7163
-1204
3043
-4650
-4745
-3362
6296
-958
-4373
-522
5280
-74
2137
2568
-3096
-7728
-2935
-405
-7873
-1675
-6478
-4678
3397
12198
1605
2496
7166
-3239
1330
2027
-1057
8058
-2144
-2100
6848
1219
-3055
759
-10620
-3965
-8841
-2485
4
6467
456
379
4226
5315
-9817
5205
2549
-7699
-11421
-7770
2653
-2635
6307
-702
-527
2016
-7384
-8364
419
-2885
3243
686
-1177
-4130
1402
6872
-3484
9131
-1433
-4075
2378
9987
-5140
-3975
2920
-3701
-4812
3531
1739
6372
-1914
7853
-2382
4426
-5753
5300
9912
-3561
3005
260
-1557
-8900
2157
2105
-6775
2240
1986
-2070
376
-8632
9506
-8044
-338
2377
-5978
3436
517
-6272
-2180
-7234
-5507
-7226
710
-2086
-4528
-9215
-3773
6323
4850
3386
-3542
-6968
1914
-4581
-5725
2833
2378
2054
9655
15279
11267
-7955
-3574
54
1059
-6586
-9656
-1113
483
387
-197
2662
-5990
-1048
1161
-3482
1819
-1249
2786
713
-4360
8209
-9685
-6885
-709
1557
10874
-5151
4773
7680
1015
3747
5004
3970
-10103
-1016
-6064
697
1265
-5099
-4697
-2189
2672
-4149
-2659
-1750
-2209
-2855
-3365
-3445
537
1460
-6099
-373
-4827
-529
976
-113
-4024
979
-1174
-682
-3986
-612
4885
-3905
-765
-2008
-2726
-5492
-1931
-2598
-800
-958
6044
-1951
-1559
-4713
-1823
-1929
-5642
2665
50
355
2679
-4786
-3184
-5302
-376
-5248
2785
-3191
-5514
-1852
-1510
1473
1363
6112
-3724
5924
-250
-788
3845
2877
-1865
1686
-2867
-4228
-6122
2944
1430
1243
-1469
-2976
-1462
249
-1465
-732
-1301
-650
-2659
-3841
-3780
-2651
-1456
2041
-23
-254
-1311
-3827
-1301
-1592
710
-1632
318
1330
-328
649
54
448
-3865
-1020
2268
-3745
-10435
1387
-201
1774
587
3165
665
-2925
3709
-2687
-6808
854
-3474
-331
-1532
1047
1963
-3964
-1315
-3945
-1272
1875
-973
3380
1830
555
3531
-7259
-3415
1621
2461
-1547
5792
-5757
-5442
-2632
-2846
-2185
-5975
2908
-1818
855
-4677
1586
2402
-3859
-4937
-440
-6051
-4572
-3609
2141
150
-1348
2321
-1390
-1268
371
5297
1774
10427
5139
-445
1114
1091
7781
-984
1981
4207
9724
-12773
4351
-11129
-5670
4652
8486
-12643
5500
-3795
-11616
4193
1655
4677
-394
3511
9192
-4080
-3048
-2863
-5111
-3172
-11458
-10841
1119
-3074
688
7175
251
2013
9919
-9936
-685
-302
3654
-1311
13182
9843
-1333
3621
2097
-9409
5907
-7148
11499
-4079
-701
707
13849
-13942
-996
-4125
5698
2763
2116
2545
2377
1298
-7637
-11058
1964
6046
11990
-6536
-2223
11709
-3823
-4085
2071
-543
-5569
1916
4150
-11402
13389
-3901
-7594
-11782
-885
-6470
2124
-2970
5994
-8628
13081
-4667
-14930
-322
-12945
3008
-2870
1985
6188
-6740
-8833
-3390
-7376
-9887
19005
1465
12082
6110
-10
9138
-1772
9616
-6555
-15063
1
-918
374
2623
-15853
-9707
-11293
-21164
-257
-3554
703
6630
1634
1421
-3737
-2951
-12548
7694
-5549
4525
5228
5818
-161
-4920
-6598
-2446
7729
-1684
-3978
14314
-9992
12036
-8727
-12577
-5206
-1326
611
1966
-426
2933
790
1768
-11276
-6545
-2042
-5987
-4926
1002
-2997
-4376
-2115
-745
-2045
8147
2856
761
-10342
-4277
8922
3454
-6299
-4648
-4004
-4932
-12075
-399
-32
-3260
7625
-4152
1331
4335
-2628
82
7778
-3657
-900
-12349
-9
3789
-4203
-5647
-5083
901
6114
-5560
-1282
-6446
988
-9649
-987
-7611
-5544
788
4372
9306
357
-4585
-4458
1107
-1945
-7489
-1295
1953
413
-3394
938
-4110
10554
-1439
6979
-6507
1086
-2165
1760
-5716
-9519
8536
2338
-9209
7837
-2530
-2697
-4743
-2022
-5163
4198
330
-783
-7202
-2654
6364
6631
-12520
-2985
-6782
5836
-3037
546
2376
-1319
-179
2629
-8924
786
-2974
524
2496
-3837
-553
1865
3512
11050
-4201
-199
-8741
-3294
-554
-5472
-8623
-12927
-3268
-6902
-2289
5552
432
-1625
-1135
-10106
8294
-3755
1484
4215
-460
-1201
562
-7022
-5715
3275
-3017
-9396
1471
-1705
4608
2933
9249
-8576
-5211
5432
-11280
-5768
-10211
2599
5566
2371
-5101
-7164
-1869
-419
-8241
4853
-1262
307
-5223
-1132
2529
676
953
5030
-4424
-3151
-58
452
-3073
-4450
-106
509
-2657
3858
-1803
-5634
-6528
4917
2263
-3700
-4779
791
3249
-5822
-5936
1659
-3108
661
711
3279
1486
-7788
-8053
10348
-4665
-2426
1430
149
3400
-5276
-3203
4855
-2911
-2139
5491
-2586
-556
-6175
-2785
414
-8604
-32
-7491
-445
-113
3232
8882
-4870
1645
-2472
-4723
675
-3869
5761
-6076
-8402
5052
-4370
1337
754
4134
-2236
1725
-1073
-4409
8461
4292
-2458
4954
-4372
5072
5312
-1440
-3387
4993
4000
117
5328
3207
4916
2095
4212
-5931
2108
-4345
7658
3341
-3521
-1336
-5078
-4737
-1694
5964
3180
-6216
935
-7914
-7308
-5117
1687
-3476
-2333
-4119
3322
-1936
-6862
189
-1591
2426
-22
-2983
-6353
-1970
-3459
1091
-6113
-4246
-1365
-922
-1587
-4246
229
-1184
-4600
-6278
-545
-182
-4554
-8059
7354
-9194
539
1607
5828
-316
2991
-5176
-715
-10934
6643
-4761
-3058
366
1083
-4547
5575
-7064
-6473
-2597
2666
1330
-3489
-100
454
-2531
2731
7275
1148
-590
-2034
1480
-2502
-3273
-454
-4516
-3377
2060
-2480
4024
-5054
2217
4234
1776
-3357
-3446
-3970
-1146
-5566
-2552
-286
3990
1165
-6208
-2760
-1835
-1835
-2584
2079
2218
764
1604
-2797
-2603
-1453
1581
997
-2887
-1497
-1656
-1962
-52
-1060
3235
2399
-98
-386
941
-1283
1211
-42
-4707
-544
677
-682
189
3500
2391
-1661
1826
-4208
-423
1089
638
796
2460
-4877
2396
1212
-4286
3913
422
1874
-3690
-4581
3627
-280
-3385
-2538
2777
1577
-1659
2514
-420
1439
-4536
-7399
-219
-450
-1299
-418
1765
-1898
-2112
-3924
-694
-753
3056
526
48
-3823
-1481
720
-310
-168
-920
-726
1182
4307
-292
350
-5489
-692
2148
-4267
943
-3446
1905
-726
3540
-4443
2841
-1343
-30
-931
-2428
3479
1160
-2124
1370
-14
-6881
-1568
483
-4021
516
-3221
-1451
-1642
-4092
-1703
-2330
-3308
-337
-5748
-1991
3374
220
-993
2741
1095
-8837
-4276
3442
-5478
-2083
304
2792
-3875
-8703
-5945
7807
2657
6016
-1347
2356
-1472
-1055
-2357
1991
1316
-6874
346
1145
127
5012
-1795
1277
2343
-1025
-5848
-6834
-3353
1339
2166
-5709
5501
-6092
2747
-3064
5694
-7302
7130
-5885
3153
799
5915
3129
-1640
3525
2850
-15282
-5820
524
-22
2299
-2937
-7419
2354
3682
2780
-3774
986
-5639
-1598
2101
894
6882
-3794
-544
-4198
-4135
-5623
-6873
-3984
4486
-3441
-9094
1112
-6287
3486
9966
-1328
-3556
4773
-2176
-6098
-7861
-196
-3316
-786
-4455
7393
6494
-7546
-2208
-4378
-250
349
1397
3697
-617
-4862
4382
-3749
1309
-7513
2589
-2533
-957
2018
-1273
-8743
-4298
2657
-4124
-4482
565
1709
3956
910
-557
2416
141
934
177
675
-2989
-4593
9192
-249
-2457
1099
5426
8430
4523
-3171
-2209
-2975
-524
229
-578
-4432
-1135
-4304
8159
-2592
-3347
-5295
217
-5277
-1190
-6887
-1438
3134
-1072
-3765
-10919
1744
5322
1346
2463
456
-1923
-618
-2776
-6959
-4125
5532
-1378
882
-822
-9955
-1180
-3330
5157
-2255
-11173
-1746
-3401
-916
1130
-4405
3191
666
4738
1562
-5549
-1528
5318
-5977
-9988
-980
-5987
-2544
3945
-4941
6613
2212
-3281
-3980
277
-8672
8879
2369
-9941
2116
4394
-2898
-3020
-1279
3437
-2185
-4974
-3050
7238
2502
-5046
-5838
-8409
3781
-6931
-1496
-3111
1683
3076
4973
-596
987
-2135
-1853
-2145
-2541
-7996
2534
-2512
-2156
-3144
-12904
-7825
-206
-7400
8396
3788
-2859
-11499
-3418
-1485
1533
-1317
4902
926
6939
-2725
-2018
-13
-2332
769
-4017
2307
-2943
4555
-4908
1760
-2089
-3359
2410
2748
-403
-458
3947
-5579
4705
982
193
-1580
-16318
-4058
-7556
5138
-6950
-460
1768
-1810
-85
-9605
-320
-1027
1574
1536
-5395
2484
-4420
-4676
-5565
2867
-6894
457
-3346
20
5298
-4510
6567
-8659
413
381
-6494
846
2814
569
-5345
-1036
1345
-8353
1523
-5193
946
2418
4156
-2969
1417
1903
2871
2761
57
-7833
1602
4895
832
-5680
2181
-4627
4368
-2806
-3386
-3411
-5376
-4204
-3003
2192
2548
-37
539
5105
1864
-6014
-4224
-4422
-425
-1288
1677
-5882
-3604
577
-877
2826
-1916
-2424
699
-1035
-5165
-2320
-1459
-4385
-3198
1727
-2694
1422
4593
-1751
-2444
-1433
-150
777
1232
1276
1625
-425
-5633
5913
-2309
-7118
-1945
-2097
-1399
-571
2120
1043
-3662
1160
-7
639
3579
4291
-5601
-3094
-7514
-7543
1339
1092
-582
613
2172
185
-1303
1376
-539
-4862
-1781
-321
-2427
474
3649
-1349
-167
-4797
-6400
-60
-2039
-2214
-3091
-2263
-3185
-2065
-128
-5104
862
616
-4409
1343
-3670
2303
1781
-1194
-378
3528
-849
7
-3668
2850
4100
3953
-2645
-278
-3850
173
-1703
-1256
-2273
242
-4982
599
2978
1821
-9896
-2108
-2102
4476
1332
-4400
-4109
-2401
-1338
-1818
3356
-2674
-2216
-1233
-789
-6769
-1338
-7369
976
-304
-1003
-3350
400
-1963
2242
1415
5790
302
-872
-3345
-5517
-4787
1090
-5777
-6159
753
-4087
-1786
2112
1209
1793
699
-1572
1844
-4635
3078
1600
-5687
-4041
4718
-2030
-4434
-195
9150
4177
-781
2414
7505
-3695
-466
7783
-1514
5747
-5068
2176
-2943
2979
2163
4121
-1738
6195
-6619
-6051
2083
1932
3970
-2683
4183
-9069
3711
-2158
3991
-3333
-3660
2695
583
447
831
-4640
2339
-936
3399
-215
11569
-679
-1357
-1676
-4752
-2050
-5337
-423
970
3250
319
-3334
-519
1598
-3180
-574
-6055
-3923
3957
4312
-1046
-1144
1062
2288
1790
-491
586
-7914
2802
2010
-2781
2825
1673
-51
-951
227
7607
614
-890
-2001
2763
6619
-7639
-6603
3609
1980
-1033
59
-604
1748
2513
-2106
2381
-786
-2909
-748
-5772
4683
6260
4612
-198
2304
-929
573
-6422
-461
4644
7852
-5047
1159
2872
6890
1055
-4662
224
-3061
4023
-2488
-4578
-2213
-7110
-3797
6445
1253
8849
1408
-3835
-393
-6440
3615
-3650
2055
5733
-6183
-13590
337
-6322
1361
-2941
3829
-7
1967
-1310
-4238
-5064
2333
-4443
-1875
3653
1941
-1302
-757
-979
2964
-1797
289
2711
-5199
3316
-6929
705
-4339
-1694
-6117
-4281
1312
-10100
-1901
471
894
-2287
-5239
-1267
2102
481
-4591
-2716
354
-763
-6112
-7807
-3628
-2159
-7978
5338
5841
-860
-3077
4162
1142
-7
2869
4934
4283
5621
-5615
4926
3438
-3359
6415
1070
-1171
5137
-290
-1186
2031
2368
-1975
-2393
-1267
3649
2030
-8621
-5625
3766
8215
-945
-4865
-16337
-332
-3151
-11322
1358
2918
-3657
4991
-6533
957
3968
1265
-7277
-1316
3344
-7453
2906
-6546
1784
-7668
-5004
-3368
-2284
-3151
-1241
2047
-5345
6009
1700
-8822
2717
1465
-4535
-60
-8585
-5568
-4830
-2502
-428
-4864
4177
-499
-5128
833
-5331
-3040
10634
2182
-2255
280
2843
4602
-4115
-3251
6125
3609
-5220
983
-1939
-455
-8559
-2256
1256
1936
3361
765
-1294
-1768
1327
-2300
-2107
1609
-6134
3320
10841
-13261
-4387
675
8268
-16787
-10019
9824
11926
749
-573
-3132
12214
6024
-1279
1555
4469
-19950
-3150
-4831
8487
176
-8630
-2958
7647
-211
-1253
10527
5658
2935
7380
7074
874
7780
-4730
-3573
-13991
12402
-3761
4734
6584
-7604
2255
5286
-7029
-12504
4774
1431
1391
-13217
-1590
-4415
-9951
-1799
10879
4919
-2254
-7232
5583
-9506
-4872
-3707
11311
-5417
7891
-483
2681
7001
-2484
6384
9677
1477
-2232
-3129
-1355
-5236
346
4930
-8608
-7512
9595
-258
12832
2084
-682
-1340
-8668
9464
63
-3778
-1890
2008
2384
9310
9091
2790
-6927
6358
11720
10819
2066
1197
-1041
-8084
-1719
-7445
6259
-9330
-2623
817
6010
-5977
-10453
-2665
-12127
3651
-18312
6341
-1449
5178
-22322
-5030
-4535
2398
7082
-1708
10515
-7673
1206
-1981
18079
1037
-13969
-10896
-5147
-6678
2208
-3717
-9908
6258
5833
4252
196
-12680
-6488
-9039
-9619
5955
7590
-11118
-7241
-8493
7720
-5787
-263
4014
-2144
-2709
-15472
106
-1853
499
6884
1078
621
-1721
4029
-3422
3452
4527
-2894
-1008
3309
-2872
-5061
2639
3628
4009
1685
-2234
-3496
-657
2213
751
-6
-3335
-2627
-1839
293
-3966
-6372
-1668
395
-3297
-5349
-2351
2298
-3476
-1350
-1632
-6555
1634
-1205
725
-5977
1586
-1869
881
3940
1776
3780
-3356
2604
-917
716
-4237
-2947
-2742
3972
1453
40
-4421
-4456
365
-1214
-934
2951
933
-2310
2182
-4051
-5069
6879
529
-3951
-2801
-427
839
154
-1664
-2534
-3678
2006
-2108
2914
-2745
2138
403
3821
-919
1064
38
1894
1649
5751
3111
2866
-2240
-4602
-5193
1473
-1851
3433
-1737
-4093
-2062
-2861
1047
-258
1103
-1797
1174
-1547
-1162
-1428
-5048
2186
1269
-5803
-2465
5327
804
-2606
-3689
-670
1256
-115
-641
-2669
2529
3363
-2302
-2695
-1950
-1901
-3298
-3860
5192
-1903
69
412
-2527
-382
-706
-3918
-1329
960
-2044
-1043
-66
-5665
3442
-5487
274
-2033
-1800
280
-2559
1334
-9306
-5925
-5299
2040
1511
4210
6306
894
-7646
2604
149
-2586
-8681
-5565
-5885
-3024
1431
-9301
2152
-1901
-6983
1305
3097
-2865
-4766
3435
-1465
-2492
-4176
3363
738
4639
1923
-3922
-927
-4265
4032
-1209
-973
-915
-2957
-4145
2407
-1567
-3878
2268
327
1606
326
-2732
9425
-2838
2576
-6204
948
-4653
-1581
-2356
-2822
-1804
-4489
-2462
-3918
-2571
-2711
2174
-656
4617
2586
6606
-2391
2726
234
456
4319
-1715
-5233
4448
-1439
-7998
2651
1440
-1467
-613
3267
-593
-1693
-4274
6851
-1932
-4994
405
2201
-979
-4783
-2525
3682
-61
-3386
-2567
3459
-1206
3783
-680
990
1749
1369
-5566
-3074
2657
-5076
-4018
4834
-2870
-1105
1321
-1204
-6347
-3175
-2848
905
-837
1812
-3488
-1775
-98
2624
-1970
-1963
1712
-3660
-3152
-831
-1341
-2084
5660
-414
-3449
-1686
2257
2435
-3075
-3373
-4039
2770
-7865
4120
3475
-4358
-4355
-1830
-796
-2827
-381
-382
-1549
-4006
16
9633
-1780
-4935
2537
-1171
1111
-1367
-4070
-628
-2229
-9597
3804
-2768
-3334
-4095
-136
-2057
-4690
-3625
-5948
872
-684
-7089
475
-12870
-3423
-1107
5563
-7185
6981
-9794
6423
-3039
-1068
1390
-137
-2938
-12132
1141
-31
-66
1218
7048
-4807
6406
8586
-2409
-5815
3522
8434
-381
-175
4102
1814
-4060
6385
5834
-2533
2401
2036
-7073
-4789
-11476
-1421
2078
-2235
-3293
4042
4322
-2335
2262
1499
-2716
462
1598
3744
-5464
6999
6742
-4738
-1668
-1982
-9037
72
8566
11765
-3083
-3283
-7146
-3550
4367
-8038
-5543
-4796
2822
6352
3323
-6484
5630
8630
-6879
8173
-2455
-115
-5637
-308
2239
91
4981
-3391
9500
-71
-6708
-6313
-11024
1518
9156
-120
-7951
-2963
-11670
-5811
347
-385
-1124
4852
1469
-2635
-1572
1795
-3119
-1027
6439
-854
1122
-828
5965
-3363
-4487
-1805
2676
5805
2624
-2888
4652
-3860
-5286
4413
3386
3565
-1851
-5959
1046
2134
-6163
541
-120
924
-2626
2706
-5992
-3079
3152
-106
-2548
550
14009
-6171
-8950
10343
-3284
-11939
-829
15562
-17909
8519
1049
8690
-3703
4020
-7998
4790
12051
-6387
3297
8320
-5588
-5308
-4266
11651
-9930
1134
5094
1643
6155
-6433
-15872
9031
-936
3684
1779
9764
4625
2749
6670
-17985
-6115
-4134
-1596
-2063
667
3054
-6758
-4074
6513
16386
-2916
381
812
7867
-6652
-8321
10581
3089
5825
-11591
1464
4904
6708
2996
-574
13199
-2074
-2446
2114
5618
-4708
5224
3641
-8350
-5807
-1628
-5592
-8754
-9170
-13721
-1
-1065
6224
2464
-8048
1956
4084
-3699
-801
1089
-4881
-4370
1728
919
-5858
-3557
33
-4206
-3408
-1919
-8021
24122
-12132
11638
13672
4351
2504
-8222
-3299
3684
-8482
-16164
-8562
-9186
-12723
-7069
-5851
-7473
851
2385
179
-4008
-18520
8158
7363
9362
6230
-8044
2768
-26
4883
-9237
9588
-868
1938
1748
-4710
-23641
-29656
4704
-6745
215
3123
-11998
-1461
-8079
4816
8339
-14639
1587
-6895
346
1800
18698
2429
2260
5676
4805
10457
1725
3892
-4421
-4207
-14382
-449
3008
-4585
-1776
-3921
-3020
-3336
179
-1745
-3371
3793
55
2387
8253
239
3942
-12652
6078
-2177
1103
1688
6191
-20
970
-410
8146
156
1206
4176
-1266
-2729
-5348
521
-7096
-1556
32
2137
1383
-896
9709
5056
907
-2560
8078
-6453
1466
11029
-1587
7628
2528
-8119
-1080
3292
5143
4459
7093
5353
5176
3589
3453
3035
719
-2406
-5671
299
1186
2803
4653
-440
-4224
-4878
-5042
-413
2555
1269
-11393
-8401
-4100
904
1393
-5163
-1412
3851
2161
5995
-2240
-6494
-922
6827
675
3411
-3818
4231
4809
2072
1210
-6236
8576
4560
-3859
-3338
4415
-4011
-2298
-3302
-2034
-1106
-444
-10191
-2425
1249
4804
-2114
639
-5921
1297
6284
-64
3661
3059
-694
3804
-1338
-2382
-1223
-10177
1608
-2223
-4344
-1891
-5481
5908
-1164
5516
-5394
949
-3215
1647
7762
251
1900
-2402
4498
1695
-8386
4939
-279
-203
-2434
11634
1205
-5651
3289
-11579
1382
-11390
-8185
2450
-3948
7329
-14854
-1494
-5960
3969
-4178
2650
4967
-9013
2281
-8134
-938
-15854
3185
-349
-4386
-3152
-1597
14530
-536
5835
-5234
-4758
-9725
-1994
-7300
4274
2889
-1773
17340
6177
3930
-5804
-9882
5971
187
-3217
2424
-11857
-7792
5654
9907
-5819
349
9121
2919
-802
13261
1065
8759
-6476
155
-6389
-6606
-2637
956
-20469
-8012
-423
3146
-937
8102
4266
-5334
7130
2760
-3877
13126
2458
1477
12388
-2422
-150
11882
6795
-7776
3276
-4724
-7181
5970
8412
10922
-7445
2855
881
-880
-3286
-1033
-1320
-7419
-2032
-10339
12994
421
7133
-2647
-7793
4105
-8304
10207
-7942
1670
-2972
-4142
-7035
-6307
9448
-5532
-8131
-4420
10408
-4071
-11157
1519
12066
-4112
459
-1131
-538
-5626
-4846
61
4215
3083
4761
-5958
-8295
-6009
11616
5058
1090
-6180
4127
-6109
-11167
-13479
-6660
-2885
9029
8907
10697
-1947
-98
-12797
453
-13132
3499
-11524
-9078
3765
413
-1583
-3248
-3730
3675
-3592
1487
-2478
234
-1934
3887
827
-985
-4380
8967
1694
-4554
-6240
5546
-3227
-5271
-4240
6604
-2126
142
-10025
-4036
-2513
2168
529
-9568
1714
-3293
6224
-1195
-7396
-2270
-4562
-1949
-418
-4052
-2155
519
5745
-2427
-4727
1154
101
-4532
-2345
-1855
-9035
8339
-241
-683
-2792
-7378
7319
-4449
-356
-240
-572
6515
167
610
906
-5464
-4589
-7275
2682
7743
-3563
-7390
-791
2093
500
-1266
-26
211
-5557
2143
-1849
-543
3658
-1788
13755
-2891
-2527
-1979
-3027
1757
1422
-4581
-1640
-1119
-2449
-3130
-8190
1661
-5588
1858
-712
-1634
-1322
-7252
3905
-5555
-422
-2805
452
2265
1993
533
349
-427
-2419
707
-2665
8922
-282
604
1657
-12079
-1643
-5589
5545
940
-10986
-2376
-9004
292
-1964
1233
-2449
-2793
-1553
-788
2337
-6727
-8874
-6097
-6733
-4610
976
2260
1372
-5446
-3863
1465
-6511
15710
-952
3820
5786
-3214
-6819
-4523
806
-1395
-3937
-943
1892
-7995
-4869
-2945
-5228
9617
3873
210
5144
-8804
-2984
-3024
5504
6610
-4122
1573
680
5839
-917
-8539
-2091
-4251
-46
5202
-2433
-5044
4000
-5864
-5008
-3177
-2241
5116
-5441
3764
8626
3293
-8690
-6490
4637
241
-1503
-8432
74
4443
610
-8034
-3053
8039
-2874
7364
-2610
2578
-1848
-1182
-323
6014
-378
-6902
-987
-1923
-841
3616
-786
631
2321
-19
-3826
-565
3618
-815
5918
4080
-4265
-937
-973
-2625
-3364
-2361
-87
585
-3302
-2887
-2220
2454
1719
-959
-7214
-36
969
4744
-714
1325
-10423
4164
1657
-2347
-1402
-5184
5906
2029
7176
-4420
-1042
-5848
-4742
5770
-836
-1867
3062
451
9062
-869
-4880
-1484
3533
-1125
3031
2956
-4154
-4032
-2183
-4823
1785
650
-3830
-1103
-2309
130
-831
-2841
-4139
-1778
7890
-160
-529
-8507
2953
-4438
-5246
-1419
639
996
-7131
-3202
4141
-2612
4409
552
-1764
-4283
-1881
-3992
-3261
-4142
-2280
5316
-382
895
-2490
3019
1089
-1892
1738
2028
-1318
-2914
-3914
-436
10953
-1
3520
5
-593
-874
7445
2137
-3898
3390
166
2159
-3291
378
1552
-2869
-1930
-11448
4729
-4989
-3463
-994
-2942
1083
6828
3835
-5978
-11936
1990
3033
4750
2315
-724
1647
4386
-4651
150
-4783
3176
-7002
3024
6229
-8777
-420
3027
-1739
6154
-7932
-1048
-4778
5425
5143
-973
-9071
-1438
-5466
-2080
4555
-909
-6758
-2148
2374
-3326
2661
-1269
5439
89
-1365
-8300
2872
-6505
4939
2526
3754
1163
-1676
6110
2202
4429
-1439
-4541
-67
-9401
3657
-660
239
1438
-6741
-1337
1504
2942
-7613
175
-10737
1890
-229
-5246
3829
1435
4643
7970
-1346
-1276
-2506
36
1191
-3193
-3397
-7114
3848
5030
-4678
-5454
-296
1165
4325
-3773
86
4409
-2705
4319
210
-3103
-6505
-1722
-1399
3704
-3329
-690
3147
564
-4942
7822
-1321
-3100
-128
-96
-3408
6905
4647
968
-1572
-3698
594
-6562
-11243
5835
-2691
-2420
-1129
2105
-909
1378
2526
-1430
-4900
-863
611
-3299
-2345
-2024
-1382
1534
-1140
2440
3140
4521
-1513
2503
-4568
-857
-2321
-10408
-1268
-2926
2377
409
-76
-2765
-982
-2899
3461
-4482
989
-2857
-390
-3920
-1790
-7969
371
5390
3625
-355
1151
1225
6043
-3885
4934
-8210
-1661
-500
3227
1091
-4253
-3495
2825
-5653
-3725
-7525
-2451
3431
525
-6104
2716
-4041
-3695
-1789
-3074
1882
-2049
-538
-2107
3955
-5207
-1696
2018
2483
-4093
497
3931
-5672
-1935
-3792
3379
-3240
-667
-2058
-2838
3763
-530
999
2787
1033
-2133
-3486
2165
-1278
-161
2042
1189
-91
1654
-1226
-4669
-5736
-7413
1824
-1678
857
-3692
1191
-320
452
-5859
-1190
587
1535
-55
-1670
486
2361
126
-1534
6834
1236
-289
3848
-1383
5020
-1226
-4116
4026
203
-3884
146
1836
621
-710
-2990
3890
-1634
-3348
-2043
-2051
2737
2687
-296
2054
2251
-1421
3134
-4691
155
385
3976
-2410
418
-3728
1793
-4688
-6393
-71
739
-1219
419
-8276
-3180
-4180
-1524
3901
2024
-6563
2053
-5877
2712
-196
-435
-999
-5002
5257
-232
-5026
-1009
-4571
-3867
1127
-1278
1299
5512
1046
2692
3839
1751
4736
-6363
2263
-9341
-3150
-10117
-3571
-14854
2619
1584
-5550
-1845
3425
2794
566
-2501
-3057
296
-1726
1718
-3834
4274
2239
2254
3180
1150
-555
-504
-5113
-3475
-7354
2392
3289
-4402
-6573
-447
4002
4975
-2037
-153
-577
-1359
-8493
241
-793
-3424
1579
-3365
5181
763
1484
8169
-1049
492
-2974
-553
-1319
-1399
3516
-2442
1328
4305
6561
3640
-2680
-9444
-546
1450
4158
3320
-2547
44
-121
-438
-2023
-3093
3736
3255
5808
-4515
5468
-5588
-8781
-4524
2150
-6819
1646
-16
2880
136
-6721
-2074
-672
866
-5681
4854
-3526
-1226
147
5653
6252
491
3604
1154
-9450
-1705
-3234
2273
5829
2369
-3687
-179
2790
-153
-6413
661
-2147
-3544
808
14
-2584
5284
-5913
-3758
-5313
3793
894
-4271
-3430
6713
-108
-2755
-5933
-8594
1838
268
2864
-7266
1148
-5285
1866
2803
-5869
4919
-4631
-1084
-6109
1258
-1187
3216
-7977
-726
-1245
-4168
5697
-44
-2104
-8128
-1092
1878
628
-825
4564
2619
3004
-3826
-2177
-2939
-5455
-1405
-3594
-3771
-1437
1592
-5767
-4123
5483
-2381
939
-5523
542
2905
-1093
-3340
3467
2389
-3631
5159
-1940
2175
-3381
2168
-3538
1916
1564
-1032
4412
-2644
-7888
-3284
3416
410
585
-5748
-1216
-4688
-2522
-4187
2022
-1255
-2441
1151
3569
612
9085
827
2229
-3031
29
-25
6385
2968
-4275
5072
954
-2903
4315
141
-1427
886
-2221
-1051
-2660
-4653
6441
-4283
294
616
-2438
4970
-149
-7822
-3398
-1053
-6616
2442
-1811
-5376
3802
-563
-6675
-3444
29
-1476
-1996
-5119
-414
-1712
682
-1773
-1961
727
4446
-2420
-604
98
-1194
475
-1553
1894
1916
1274
1087
-4343
1095
-2228
-3328
2235
2059
-2324
-1647
-1310
3378
-752
2631
-645
-2196
843
-320
-164
-4856
-631
4171
-876
-972
1333
2305
452
3186
7841
-1380
-8300
-1034
-7736
-1781
2676
-19
993
-2304
-3119
1847
1867
328
-2841
-1503
4526
3620
2790
1510
-34
1890
-6797
3958
-3963
1805
-1857
-4804
1957
213
2108
-10477
-4418
-7559
-2685
-789
-5702
244
5683
-842
-6201
2616
2561
-2003
-4072
388
2747
-1761
-410
5919
4994
-9229
-11333
2310
1395
-1454
3909
-4582
1373
-723
1639
2938
1711
-7365
-4072
1028
499
1971
-4883
-4133
808
-2760
-8762
3241
-4130
3922
2917
2958
7562
141
-5304
-5207
-1542
4124
6573
-11588
-545
-3253
-7430
-516
-2766
-2073
-5209
-4680
1819
2922
1009
-4541
-5745
6096
3966
-5051
-5494
-7474
-1205
6707
5664
-6402
-2300
-2170
2458
-69
1993
-223
1579
642
-1176
-1481
1113
3654
-2049
-3541
-2110
575
-319
1476
-3196
3899
-1516
-1006
7818
4817
-1655
7367
615
-1690
-941
-309
-1866
11719
-1444
-1324
-7348
-359
-7169
863
-6047
-3322
-1989
2904
891
-2763
2881
1797
2766
-4235
761
-311
-2384
-7004
-257
-3368
1572
-7478
-1703
204
1731
-252
2970
-2987
-4236
-1172
718
2950
-3163
-1002
773
-4315
2553
-694
4395
8128
1806
782
1419
1913
-3668
565
-2104
243
3659
-6022
1926
-4007
-8615
3138
-7317
-903
2588
894
2131
-12
-4588
1600
-1307
-4550
5212
-2416
875
2584
-6466
4414
-2668
-2304
4650
-10426
-684
4248
-1439
-2343
1808
3742
-1732
-2424
-4808
5885
5611
-7648
-2179
-1205
93
3880
-517
-1503
2140
3504
8312
3537
1046
1246
7367
1929
1720
4404
-3617
-1734
1133
-7047
476
3445
-4092
393
-1441
-9056
4424
-5902
-1661
-209
-2642
-4321
-1466
-4542
-5320
-6210
-1070
-4563
-820
1118
479
740
5781
-386
-183
549
-2227
788
-3316
645
1250
-2271
5427
1671
-4909
2847
-4006
3338
-1979
-1337
-5592
-1606
-3335
3951
-884
-2993
-688
-2124
-2823
-2649
4489
-6767
-3604
-2381
2012
-5173
1775
3411
-46
1103
-2701
-1837
1756
-1462
-1413
7417
-20
-3805
-504
10108
2561
1601
-7132
-1102
1656
3811
-28614
-843
-4743
5453
2239
-7522
8159
-4857
693
2455
-2507
-3108
-638
-1260
90
3229
-10415
-11865
1692
959
-10801
1223
7051
3627
5454
3749
1664
-2143
2377
-9544
-7078
-2817
-12824
2674
-746
1991
2638
7261
-3506
-8263
-9870
-5846
5469
-875
8820
1222
1287
-9030
-2656
11583
-5000
-12842
-3671
49
2457
8073
-418
-1210
-10621
-20589
5856
-12813
-7344
7543
7523
-14649
4307
-2375
-50
-7974
-3787
3620
-6657
-3813
-12465
-4270
-7906
3455
-4131
-9450
-4805
-11499
4243
559
-5321
1097
-4035
10639
-5456
-3924
1723
8024
-7381
18296
841
13049
-1728
-11083
14059
-951
-9636
-6073
-604
-438
-9047
-130
-3835
-7545
-740
-4657
884
-2827
5647
-4252
-16927
-2271
10311
2561
-7175
-4098
176
-100
-6401
-9114
-6436
-10308
-2204
10594
5486
-4864
-9032
-9813
-4115
3061
-1299
-4271
3430
808
3537
10054
-21230
-1135
-2181
-5417
-6569
14310
-3050
11040
3428
5318
-4847
-660
-2597
3314
4991
-6418
-4363
-5271
6641
7808
-1870
867
-7920
-12428
20184
-852
6344
4780
13083
551
416
-3669
-2289
4783
-4822
-2365
-5506
-4448
-3500
-1163
-12325
-6445
10985
-1429
3796
-2209
551
-15277
-2466
9877
10004
-563
-6288
-570
6037
-3984
4658
7129
999
-3922
5652
1802
889
-6261
757
-12762
2060
2912
5784
6623
-5090
2495
-5939
-732
-7252
2989
-2177
-593
8518
2207
5045
-445
1913
-671
-6052
3482
-6359
961
1929
7016
889
-2341
-844
16037
-7271
-3505
7613
860
-460
-7465
-2669
-152
639
14736
2900
2788
9299
98
-10420
4581
-693
7730
-2637
-2834
-3464
2368
5312
7432
2250
-2747
-158
-17809
12902
-7199
-264
3161
2919
3042
3506
-1363
-7356
2805
-7490
-5859
3873
-6934
452
5457
2448
2531
-4274
-7020
6098
-7386
-3835
-9480
11961
5497
-5406
-4086
-13103
-3003
-454
3224
1299
-5359
8045
6190
-4063
3670
16206
147
4754
3750
-13600
-585
6206
12243
-694
2836
226
-1425
-2424
2399
-2173
-1044
-1383
2994
794
-4407
-4211
5827
-4257
-8633
-1335
-4137
-3782
-6802
-5247
-6580
-661
-1332
-501
2090
-62
3992
-4623
-3269
270
3217
-1892
567
-3483
2762
-811
-197
5031
1651
-1801
-4434
-5087
-3957
190
-5132
-2571
-644
-2764
7139
850
110
-782
-850
2376
-7206
3247
-127
-8744
-4945
3134
-6749
-1591
-7011
129
1410
-3492
2845
4491
4586
-3207
1912
2053
2577
3574
-4619
-259
-4002
-1963
4024
-3669
-1384
-6534
946
9265
-1699
-490
-13327
-2443
-2174
-4469
-1335
-801
-2634
-607
4563
-2939
2414
-4798
-3217
-3399
1924
-3203
1929
318
123
-81
-1127
2931
1512
-4718
-738
-3557
553
482
1884
-3565
-673
877
3670
-5897
2886
-5005
-3696
-2654
6168
785
1282
-3865
-1469
716
574
1637
422
-1439
874
-2693
6571
2992
2201
3033
3022
1013
-301
-751
-10035
-1389
2598
-4399
1032
-988
-678
-157
1428
1197
-11009
-1887
2382
1061
1144
-2714
-4191
-749
2218
53
4763
2068
2869
-1230
5087
925
-2636
-17
-1038
-7969
-1087
6302
-1621
7957
1791
-98
108
-219
4603
-700
-853
-2178
-65
-3676
4110
5600
-2688
148
9748
-8975
-2175
2853
-4998
-415
43
1163
-2995
1603
1146
-2453
1532
-4527
-78
-3545
-6967
-2454
820
-3486
-9530
1775
3974
-5494
638
-4440
-4758
-3097
1767
1552
-724
-1821
1458
245
-2733
3259
-4382
-712
-1300
2203
3743
-225
1787
-5393
6258
2943
-385
2839
-962
-1874
-2803
-4220
2617
-1142
1276
-5051
-2440
-5157
5929
-4290
-1458
-9
3092
369
-3861
-3493
-839
-5315
3197
-558
-2895
-7234
2757
-658
-1531
2840
-1520
-1253
-842
-3707
2833
1838
971
-2204
1019
-4573
-2738
2039
1732
284
-2436
-1983
-2021
1207
-5118
1651
312
1160
598
-47
6292
-3631
2559
-900
-3507
-4442
-2073
-831
-1296
-2841
-1374
-214
-2795
1809
8520
249
-799
-1312
-273
-7877
1384
2474
-2727
-4207
4410
-2966
3052
1481
5933
1946
5085
-5038
13427
-8
1868
-10213
15475
2378
4798
176
-18476
-1686
8900
10627
-8551
2028
-16825
-9010
8183
-3833
2614
-6825
-5779
4845
-11688
-2424
1523
-11839
-6188
-2240
1560
-6159
3151
1822
10569
9538
1473
-6934
5219
8952
-7915
5523
-11291
14532
21373
9284
890
6509
-7873
5568
6991
11350
-2044
-6068
2694
-4480
-11767
-4957
5118
3202
9509
152
-259
2104
3006
5129
-8142
-8304
611
-14226
-5628
3094
5514
-7863
8798
10507
-21038
-1828
-6105
-5343
10162
5337
1909
4611
-540
-13972
-12732
2222
-4354
4900
-6037
-4471
14287
4674
-7555
-18871
6124
-2675
6425
2814
6335
643
8100
-18469
-1990
1983
-6172
-1293
2946
-5766
545
1847
-6510
-16907
-5081
1968
-4063
-875
1692
1088
-4962
-7447
-12844
-2575
-5457
9568
6005
4310
-2560
340
19086
1132
12182
-10417
7572
-12566
1659
-20288
-8647
-19483
-58
8310
-3321
-1168
-1963
-12166
1100
-1596
-5670
-1914
-4984
4322
8041
568
1108
-7042
4266
-4854
-2212
-4798
-4462
1357
-470
-4342
496
-1554
-2527
-5147
-1557
1336
526
-1412
-295
-2247
-8335
-4303
-1152
4072
292
-1444
2151
-2228
1276
-2053
-1846
-1572
1224
1083
-4193
-2901
-3003
-5471
-1429
-1065
-3885
182
3282
936
-1186
-1860
-1673
-5306
-3242
-4713
-1863
-2219
-1044
-1896
-2933
-650
5821
-2514
3121
-1040
3705
-45
-6059
-1979
-4484
1669
-4834
2790
1585
-2716
2561
5885
-807
3436
-1446
-7359
-442
-243
-22
-1436
-2431
-759
-1606
1493
-1112
-1336
-128
4245
-213
-3197
427
-2352
152
-1847
2588
281
-1562
-68
-3499
1845
1765
-2566
-1431
4976
-1363
-1901
-1834
1029
-868
-207
-1217
-843
-143
-1877
-2861
3019
-1326
-4555
2954
-568
-3529
-957
-2343
-3226
565
3031
-6355
3226
26
-334
1061
-3251
-3323
-3381
212
1544
2768
10
2394
-1913
10
-2393
-3491
-943
588
481
965
-1255
1377
-199
-2991
-1186
314
-341
-265
-379
-1233
4053
-5224
333
2282
-2101
1871
-8487
2604
-4179
1248
122
-207
-7679
-5946
5722
-11246
-1618
6525
-7652
-1166
-7209
6663
4011
7312
573
-4706
3218
-6004
-2859
2037
-76
-7670
-8449
-11777
-4654
2595
6630
-1482
-2078
-15267
-12407
2085
-4263
-4367
-3504
-10043
1866
-8303
-676
3480
-3824
-6162
-2678
-11539
-1943
-67
11027
-3157
339
2592
-8688
2643
-9857
-14864
-3936
-13408
1799
-11577
2584
4534
-11435
-12482
3281
6270
-612
-85
-2060
-4441
7217
-4780
-2472
-4236
5855
8512
-5120
4203
4511
-2943
-2605
-9489
-12574
5968
-2031
1524
-6047
-1919
4798
-15089
-4334
-8529
-12846
-9264
-11509
-2114
-3074
767
-4942
-9155
-9527
4031
3101
4583
1310
4235
-4224
8780
-4910
705
-1460
-145
-7041
7399
4705
-2501
-7955
-2257
2224
132
-5828
-2571
4902
-1390
5708
-1923
7328
55
484
1716
-219
-745
-1311
6629
-4045
-11777
10511
-7988
3831
-238
-5816
-4979
-9947
7631
743
6130
-3694
-10971
-1108
-6196
-5001
-88
-2903
-2843
3362
-4543
3189
14352
-2890
-3197
1184
7873
160
5050
5923
-444
-2896
-262
2714
-9671
-4119
-5969
-3497
3869
11820
-498
5388
-1549
3794
-463
-1617
-2200
2128
-869
995
2927
4254
1332
190
-1613
-707
-5119
1974
-2846
-4373
3836
-2374
8200
-7120
518
-4575
-7168
-2052
11101
2954
578
-5053
301
-1165
-887
-667
-5294
3022
-10039
8366
5243
-2673
-1778
-4647
-8312
3880
-5025
8077
-4391
-4243
-5159
-4403
5482
-7195
-3037
7909
-2348
1785
1419
4207
-3358
-11454
-5338
-7080
5203
-4129
794
1756
-8075
-2808
-6774
-1311
-5481
743
7210
488
-6493
14627
2167
-2790
-5176
-9098
-15288
-8759
6002
3125
8686
7463
1110
6032
-1367
-1953
4811
4299
1987
822
-8166
2160
11395
-14
8870
-9125
-11126
-871
-3171
-2453
-8800
6308
-7056
-8016
-2725
655
-6267
6709
6647
-3314
4493
-12573
2085
-3555
-4002
10790
-1060
-1184
-6612
787
-2157
3749
2944
6833
-3054
-3515
-4023
-2116
-11002
4765
-4547
-3696
11017
1622
3098
14221
-909
950
-3109
-10416
-10983
-3498
-3802
-7512
-5493
-846
3386
4652
6926
-12201
-7991
-3146
1275
-2073
-5199
5057
274
1195
1786
-1514
-2717
189
4867
-1499
10323
-3928
5397
-5170
11476
-19415
22078
-1222
2842
-7286
-7892
-5799
-7471
-11956
-8890
2789
1939
-2036
6525
2858
-3077
5531
2045
5463
874
1632
-4872
5587
5415
-4877
930
8552
-8350
8933
10106
-4582
-186
-4023
-3723
-3554
-8078
4031
6655
-12200
-6073
-3563
15018
8596
7249
-315
-4224
-1693
-2600
2438
702
-5359
-5973
1785
4349
-1304
13249
-5747
-3849
-3146
-13958
8628
-5232
2057
-4167
-3657
2831
-13168
-10069
-6501
4788
8350
3795
-9739
8025
-986
-245
-2024
-3542
7584
-832
-7264
4967
-1000
-4533
-10590
1501
-14244
-25404
-7132
-19553
-2353
-5009
-9631
-1769
-10691
668
5131
1175
3624
-29
-859
-6105
4600
-7503
-1795
-5048
3465
-2965
96
5262
-708
613
-10366
1619
-10259
-11241
4793
-12263
-17631
7726
2398
2890
-1158
-213
-129
17763
4286
4766
9914
-1722
3429
12176
-11442
2327
11100
1221
-9733
13218
2647
950
-3364
-2757
7692
458
-6446
3447
-4813
-1230
8654
-4797
-811
-7971
8012
-3983
4151
3277
-1849
-5556
971
-6914
304
1560
-7133
-7234
-9447
857
9077
-2058
-31
-1479
-3921
-11206
3420
-5008
-1473
4157
-182
670
-10607
2649
-6026
6984
-9517
-89
11182
-366
2901
-15861
-1360
3286
5952
-448
-3338
4002
3855
-4158
-2255
-3561
-5755
1747
1424
690
-1431
3467
444
6541
5482
-2432
-2367
5018
-2649
5178
-4315
2914
-336
9466
-6740
-3126
4588
-7233
-83
-8630
-2665
7429
10298
2612
-10775
-1918
-830
1193
8115
-3423
-3284
9205
-3219
-7813
1030
3395
-4128
5289
6727
-2072
1258
-4885
-7619
-1052
-9528
-5668
-2640
1109
-2780
-481
-7092
-7486
2305
288
-7384
11492
9597
-1298
-1459
-4459
2332
-8086
-8446
2312
-6356
-1179
-4675
5783
2403
1231
-11948
-4575
-7904
-213
-7739
1228
-636
2543
-1509
-438
-341
1214
5448
8307
-8911
-6576
5447
-2515
5134
-3127
-799
860
-1923
-1119
-976
9140
-5159
-1440
-2531
-6275
-10629
983
-1865
2284
-5873
4027
4525
4888
280
-9407
-7412
533
10144
2973
7626
-2576
-18
4954
-6639
4758
-1862
-1403
-12751
3810
2588
-8214
-2583
-7749
-5664
413
6506
4591
-1978
-528
-7410
4965
6765
-215
-1719
-2442
-316
2821
6376
1764
-10080
-2156
3709
3985
-2479
-4048
-7451
2104
2015
1947
2751
-2479
5518
-1792
-6702
1116
-9312
6349
5119
3141
-2806
-5253
1216
-7006
-23
6709
7685
-5721
-2929
3074
-8161
-6202
-461
1940
916
-412
-807
6443
5950
-2675
-1073
-111
1708
-917
608
-4779
6815
-1235
2437
1998
4491
-1592
-4501
-3044
10171
6320
-1793
-620
-15
2328
-10205
-274
4981
348
1376
-7104
3299
8057
-2229
-4167
-5369
3157
-4147
325
1671
-5122
830
12484
3166
8075
-3219
3698
-4628
854
2597
-1111
673
-3429
4895
11322
-6023
-4775
-3184
-1246
2335
2832
-1885
-8128
-740
-2993
4460
1404
-1038
1296
-2959
-417
43
-4614
-2101
-893
-988
5926
-5380
6465
4463
2007
-5549
-156
5441
-3499
-1112
8342
3509
1217
-5523
-1737
155
-1418
-4117
-4186
1092
-4126
-2163
-5387
-1121
342
-11027
-8314
2875
-5294
1358
-615
1884
5036
-4103
-203
-5487
390
-391
1053
-38
-8504
4973
2388
-230
5767
5324
-6072
4724
2000
-1529
-5495
-3573
2093
-2456
5543
-3125
-3748
1429
-5320
-821
519
-4408
3336
1252
-1286
3661
6298
-6863
756
-3682
-1248
-4259
-3634
-1013
268
3647
-2375
-9807
9418
-3356
-1745
-2389
690
1274
-1279
2018
2179
4085
-1543
-10260
1165
-3530
1110
866
-689
-950
206
895
-1872
4962
-212
757
4636
3630
-117
3112
-5070
-3799
4561
6612
6250
1169
-2063
-7638
-828
-1720
-1836
-2885
5164
-439
-888
-1749
-1264
-1311
-4174
5612
-530
-5716
406
-3656
6022
-7389
-1590
-1147
-639
-2666
-4089
1843
1962
1187
-2990
-778
-3327
-7481
345
-703
1291
-2013
7758
-4678
-4790
7604
7273
-8362
2858
5950
-9058
778
7166
-4177
5301
1729
-6375
-6715
-7493
-7745
-9092
3117
980
73
-2006
-6678
-7696
4598
2841
2723
3498
-11379
2229
-246
-2122
-13149
5252
-14145
-2673
450
-282
-807
-1933
3809
-7371
2949
-18743
-1358
-841
-1644
-3192
-7003
-2278
-5901
2093
4884
-1982
-2967
-9248
-2559
4508
2721
-2184
9648
-11380
980
-5015
-5861
-360
3743
1294
-2640
11938
-2409
2851
-6374
-3807
-3596
-6820
-1659
11246
5961
3514
-1163
-13534
8676
8066
-15932
5891
13034
-5197
6326
-9798
-12601
7500
743
2860
1825
1598
-8171
-1804
-4128
4256
-2305
4787
-437
-987
4632
8004
5269
-4153
-5063
2281
279
-5806
-9494
-11928
-444
11937
1591
-8288
-6081
4302
-11316
937
-3665
-1346
4902
-755
1821
13417
-4626
-561
6210
-2469
7682
429
322
-2456
8848
4173
-9199
-4379
1495
-6646
-9115
9357
-123
-5615
9093
-8894
-7455
4153
-1631
-4357
-5255
-7664
4491
5263
8731
-530
-2033
4003
-116
-779
-7601
-6370
-2907
-22077
-2441
-43
-2820
-174
19835
-9150
-16755
178
-15242
2047
-4845
11223
-3383
-6700
6010
-7400
4940
3900
4719
5584
-1835
-5072
-21843
-5114
-227
13066
1696
-4606
-4240
4531
-3172
8708
-10336
-4350
-1652
-3552
10735
-17477
-3994
-15535
-10523
2153
7603
2710
-2977
-5589
4521
1012
-8870
7238
2635
5523
6828
20629
-3386
-5719
-13654
-5194
-4847
1698
-2498
-1797
-341
23942
-3338
-1938
-3808
-5590
9017
-1964
-6679
-3482
-16213
-2314
15532
-1996
-11594
4139
10231
5392
-690
2377
3059
1455
-6517
-10546
-5747
-5728
2347
-1781
-4467
-15151
6801
-7387
17508
521
-2521
1156
-1820
-12325
8878
4195
-7761
10879
7007
-1035
832
7086
-4839
2244
-11810
4408
1363
3056
3646
3816
1815
407
-4252
2925
3045
-7638
-2338
11913
-5733
-3859
4552
-8652
14560
-6175
-9
-7940
1245
-9728
-7688
1911
-3236
7941
-1439
3581
-6403
3777
-832
-19896
5652
-14431
-4213
-2054
-993
-3311
-6520
-4795
-2978
6158
-2150
14756
4778
1535
-807
6388
9806
781
-8659
-526
5462
4439
-7256
4224
-7200
-159
-7324
8917
-1091
2386
3833
-1099
2123
-7561
302
-2575
-7205
2329
3104
-7138
-1376
-6912
-9231
-6745
-2212
9391
9695
-3638
-1594
4162
3612
-139
-1229
-4429
-936
-4537
5909
411
1454
-11983
-11645
-7598
-2811
8388
784
-4379
-7809
-3884
1595
4544
-3503
4012
1447
944
5070
-3178
1466
-680
11164
66
1274
10751
5517
2275
-5156
-7375
3268
-3387
-3435
7349
-3341
-408
-3334
1755
-1919
-550
-3750
-4116
-758
7214
-7160
2562
2795
-691
3326
485
-2303
-179
-20609
11085
-4235
-7487
4716
-8103
2090
136
2676
3844
3679
575
-18622
6238
-355
-12365
-2906
-883
9214
-5768
2418
10541
-7480
3656
4504
-5339
4839
-3008
4195
7324
-2301
4568
4237
9743
-1314
-426
-6181
-7212
562
1157
8301
-2740
-3748
-6903
11537
-8817
-19377
-3754
4035
8970
-5436
2926
-2274
-3608
333
717
-1637
-5360
-7940
-19980
-2522
-2804
669
-2811
-6047
-6760
-2354
3508
6175
-1651
-914
-10150
3579
5928
8580
-416
1418
3730
-13354
10844
1265
-5525
-1376
-9821
2482
-555
-4160
-6330
-7912
-5702
236
-8271
-212
-3053
-2924
-2411
-10484
4088
7213
-3251
3585
-9120
4808
6273
4721
-9306
-6378
-11031
1195
5647
-4437
-9235
-922
-3711
-2144
3004
-1133
-280
-5597
4513
-2990
12152
-454
-721
4912
4554
7931
-7910
-14607
-4545
4928
-5744
5993
-5473
-4390
-8874
-7036
-3508
-6674
-1599
4425
-6357
5776
914
-4372
-3684
-3471
-5528
-5090
2160
1465
6815
3801
-3462
-5008
-18282
2109
-6101
-6532
884
-3180
10684
-3812
-3946
2377
3590
8243
5706
3317
11051
-2600
1957
3271
-2410
5208
-10335
-154
667
5736
909
-897
5330
-2970
3476
-5192
2060
-729
8975
9283
-12501
12373
1892
2743
-6557
561
-10054
2275
2230
-2159
3787
-4596
-2295
-143
7910
7069
-5200
-9371
3763
-7043
1534
-6290
2273
4536
-1759
3405
112
-7273
-8894
6442
-5239
1048
-8129
-8475
-12921
8569
3187
6324
-3477
1812
-635
3198
-5247
8825
2073
-5213
-7159
2869
973
2515
8348
5562
-3580
-1042
-3271
5957
-1905
-559
-2241
-6920
7884
-3173
123
1363
-1014
-2400
-452
-7742
-8457
-9876
-3561
3850
13535
3481
2844
-169
-8357
4219
-7834
1950
-8012
-457
810
348
635
4045
-2675
8778
6049
11540
-3610
-5686
-1228
588
-6297
-1392
2338
3560
1263
4713
1033
8159
4215
8007
163
-6735
1822
-2609
449
5479
7844
-3512
2109
-467
280
6543
701
-4663
-5284
5915
-9422
-7275
2930
-26263
-1628
5723
947
3378
-4121
-6039
6375
-4132
1336
-1868
2988
459
3339
-4289
-4021
-12308
-2514
-8279
-6031
-1857
-4184
-4511
-10904
1796
-379
8764
-3465
1622
-1591
-2466
-9734
-104
2527
1888
1990
-6969
-4304
5855
467
-9
-10081
-2416
8395
-3541
-4855
-1194
2760
2940
3922
116
2414
165
-2917
-15159
-2072
3567
-10859
3491
7111
-4792
9214
3577
-2852
287
-16107
-6657
1199
646
3611
-4780
-3731
728
-55
1710
-9896
1578
1591
-9845
-4474
-2203
-1377
3610
-1556
-5866
-4594
4666
-511
-5859
-1272
-3113
-8048
2617
-3311
-1405
2309
1729
-27
-948
-5224
-9031
-658
1686
-1989
-1206
-4157
459
2126
5604
4077
-4050
1829
3515
-3574
-6508
-9296
-3254
-4465
-5308
-707
1092
-7559
-6649
-720
-3309
953
237
-335
-4286
4213
2198
7501
5495
-5594
3250
261
-759
-8689
-5902
2290
-1380
-8596
-663
-4172
-2345
3187
1148
-9280
-9141
3664
-856
3677
-10194
3943
-1805
-1165
-553
-2895
10991
-2269
282
-1940
-3929
27
1220
4630
-10025
-988
29
1643
-715
3866
2305
-201
470
-4997
250
4801
2387
-5450
-6419
-513
3681
-8865
-4740
260
3104
-7782
-6828
269
-4386
3007
-2459
-1139
-2384
-4361
5350
-8747
2322
-2599
-993
-8506
-15180
-10383
4386
664
9316
-517
-1258
5548
-3439
-1721
-5075
-790
-3828
-5268
-3377
-593
-5026
-2096
-1010
-2773
-1525
5199
1294
-201
5784
-552
5956
-967
1058
-1820
13045
-6209
3430
4330
9521
-3599
-6641
-4787
-1133
-4121
5385
-2068
3381
1784
5452
-958
-2049
3078
-2835
1144
1611
5369
3763
-3148
-1053
5811
382
-2615
8268
1007
-823
4909
-3228
-5265
4932
2702
2027
-11030
3375
-4195
-2926
657
-9714
7053
-3453
313
1702
3942
7656
-6204
1631
-3683
-7165
-7954
-4782
-3106
-6617
-6413
-8699
-9373
-1164
4498
12783
2418
-11819
-1276
-4315
-5313
8707
-7318
-273
-4274
-4837
1877
-783
-6964
-2295
8537
-2561
-2496
11873
-971
-9941
-3647
-6842
631
12424
2644
-4209
2836
-9233
5209
-2975
-5572
4098
3256
9635
305
-1734
-6804
12624
-4877
-6556
-12217
8195
6934
-6874
8446
-9957
736
4553
2310
-1611
5866
-5694
3356
2317
-3689
-13232
6045
5036
6151
-535
-3007
1913
1221
-10000
2778
-364
5972
-983
764
-1767
-32
4675
-552
-12327
-11769
-903
-6103
-14845
11502
-2096
433
-7177
-6730
-975
7326
-9360
2906
-510
-10768
1778
-1522
4304
6974
3251
3670
-3580
-6003
8247
-3284
2650
-5444
-191
-2349
-1308
1572
2561
-5738
268
-2754
-7234
-8686
3585
1993
-6707
7576
141
-1005
1593
-3525
1308
-1499
-6756
-1087
1441
-3125
-6214
-3372
1035
-2011
7195
-10678
-6405
1998
-6278
2604
-4903
1161
2735
6555
-580
-1245
-4669
6181
-9205
5243
-7090
2331
-5290
6653
2197
483
1963
-14061
3545
-196
-2089
-16832
3952
2677
4592
4928
-11458
1041
2526
-3553
-3805
-12284
839
4250
-2252
-2863
2584
-5803
-7205
-8122
-5538
5621
-5940
-6964
-1129
13045
7755
10334
-6434
-19455
-1646
3177
3415
13729
-590
-3444
14314
-10345
1088
12090
-2041
6474
3485
-10492
14373
-438
-8431
-5381
3163
2717
-637
-10560
768
-15615
-8142
-8936
6318
4107
-3309
4604
4172
4216
1187
1385
4903
-9797
-2379
2965
-8466
5638
3835
-6032
-7669
2988
1355
10576
630
11950
-4378
-10813
-9816
-2336
-12251
4154
436
9125
-2890
-6242
16837
-11466
-4670
2273
430
3442
4005
894
-13020
-114
2036
-7255
-1847
-9474
-3951
8100
3327
2193
10255
243
-3576
2926
-7161
-2031
418
2306
2393
8315
848
-3677
-6423
-2471
875
-2547
3095
-6117
1147
119
1908
1177
464
6212
1383
3697
1588
-2093
3230
440
-3448
2443
-5991
3585
-10185
370
459
406
191
4096
4579
141
-5356
-10776
1939
-805
6649
-2040
1183
8911
908
-3544
-6221
-6437
-9748
7046
4978
2462
861
7708
5359
9114
-1840
-5479
-235
-2255
5204
-2600
-4672
3099
-1798
-5315
2048
1107
7912
-992
-2548
5984
6362
7649
-10653
924
2811
-5561
1549
-2448
2650
6307
-744
-4096
-8637
-448
5616
5044
4498
-1456
9533
6248
-8869
-5443
-13538
3255
3004
-983
-7925
6419
-1265
2288
-2798
-2265
-4693
1645
-4910
5546
544
6802
-766
-4751
-1900
4029
2575
2274
648
-6278
2781
7131
-7391
-4183
-555
-1257
8101
-8393
2953
-8464
-486
-7059
10847
-3342
-8379
3381
-179
4146
3457
-1131
759
7080
2113
3919
-4159
-2549
10608
4940
-1190
-77
80
-3087
-2168
-2870
11110
-2487
-9903
-13116
-4775
-6948
-9904
2482
744
1369
7119
4201
3376
2629
4743
-1498
-155
-1803
-2439
-1186
136
-5278
1614
4934
-87
-9183
-4874
-5334
1069
10016
-4971
-4238
54
-5674
7162
4140
6681
-10077
-4808
7696
-4158
-8622
-1488
-1242
-4417
2088
2166
7921
4981
-84
9730
4033
10840
12074
-3631
88
-14785
1386
-13273
-507
-6036
2078
2417
-832
210
-2404
8333
-4598
-9159
8143
-971
962
5555
4031
-10118
4664
2171
3505
-652
-7997
-12017
3378
5614
988
-1309
-15109
1218
-449
452
10682
950
-5105
-422
3639
-8974
2727
4222
-2517
-2620
-8053
2838
2094
-417
-448
-2207
-1893
9408
1755
-8307
-9529
2555
4938
5427
-1555
-6450
-318
-2026
941
-7007
7842
-2684
-4689
-8776
1641
34
2634
-483
3166
1492
894
-10903
-5847
1452
10110
-529
742
-5326
5311
1049
5252
-3374
1762
1060
-6751
-6786
-7603
1064
987
-964
51
-594
6023
-1539
-2857
941
3951
-3499
-6385
-6346
261
-1809
-3030
7297
1919
-6977
-7860
3007
247
-370
4402
-9244
7562
-859
2423
7490
5119
-3041
-8526
-1357
1450
-8685
616
6555
444
-7209
7379
-2652
-11353
-8716
-6509
247
-2637
-913
-667
-843
-2061
5432
-1076
3171
-4546
-2597
-9722
-5187
-10068
-6699
-3245
10331
2997
404
-4661
-2195
-1262
-6828
1702
-7656
-7596
1912
542
6210
-3870
8322
-251
-11425
8427
2562
-850
-777
5439
912
-7946
2560
-1126
792
-1867
8
3644
-2063
1146
5144
-5020
-4240
3474
-3130
-3549
-3874
-2107
-3193
5741
1441
1902
-3449
-3518
-1793
-614
-3939
-5623
-678
-3505
9089
-872
-8468
2804
1048
1143
-2733
-1460
1281
-2104
-1856
1179
594
1518
1221
-10290
-3886
-592
-4536
-1501
1472
13395
6522
-8961
2547
-679
-2568
3930
-2897
570
-6259
5050
-1621
3481
9294
2256
-3747
-4593
-1951
-3701
892
1181
-8130
-5112
-4894
-1589
5133
962
-5914
-6031
-5651
-1248
-4786
2381
-7681
3210
-2533
616
-2713
9198
-4639
807
471
-5813
249
-7338
-2960
-4213
-7533
-3028
-4260
-210
4990
330
3133
-375
-3906
386
1052
-2131
1532
-1802
-5894
607
1926
145
-4791
998
-4435
-2485
-2154
1812
1316
-1059
-6559
-454
-189
-1511
-2752
-68
4978
-4047
-6426
-1207
-10185
633
563
-282
1309
897
-3293
-2510
3247
5579
2517
-2403
-2195
4269
-533
-7610
-5499
-5979
-154
3897
1996
-6559
-146
-868
4760
-2658
-24
2791
-832
2304
-580
-170
-540
2277
-2442
897
-1694
-6887
-1646
-1152
3491
2724
-2847
-4959
-4061
-1406
-1951
63
-627
-174
402
-6441
6586
4691
-1981
-3384
669
-2634
262
1771
-2325
-662
3821
-5821
2842
7250
-3532
-6112
10724
3643
-2709
-2798
1167
2636
-3703
1518
-293
6934
2672
-403
-354
135
498
608
-3337
-1354
-3680
3967
-5999
2051
-1965
1649
4833
-4819
-5008
-3528
-4625
4153
453
3851
-5521
-3585
5947
-1913
-1761
2346
2595
2129
-5596
-1311
-1284
-4229
-4520
-6
231
-1675
-5710
-764
-5401
2582
-8765
614
3606
8900
-8811
-3217
5153
-6141
303
271
-867
303
1718
-1347
148
-7961
-2129
10429
-7787
1160
-2147
2082
-2101
1494
-1397
4141
-1256
-3529
-7809
1740
964
-1202
-5440
4922
-2739
-4061
-108
-4836
516
2848
-3285
2030
7126
-6922
-2471
1718
-2323
-6996
-1706
-3923
800
-3764
69
836
-2205
837
-3418
2774
-5051
-755
-816
-954
3121
3219
-1047
5453
-5421
-5665
-4253
-8715
-3266
5389
-7774
2578
-925
-7989
2620
-5969
-2946
-4067
-1180
-5945
-614
-5388
1929
2107
-1310
1534
3417
-2424
-8465
-1574
-3992
-7301
244
2219
-1901
-4732
-4206
1190
-10988
-3990
-286
1872
-4480
-6726
-618
-1226
1290
666
-391
-10972
-3163
-4856
711
-2691
2034
-872
-2211
-1781
3096
-3931
-7193
1430
2588
9783
7515
-2699
-1900
-409
-5162
-5586
-3411
2803
1276
3485
-2205
1
-5739
-3331
-1418
-1240
-9147
-2442
-6396
-9388
2064
8603
-3571
2910
5929
-4714
-6366
-7627
876
-2769
2666
-8096
-2067
-6319
4684
-2869
-3043
-3356
-1529
568
-1156
-3171
-389
403
-3068
-6900
1393
-6655
3516
4622
-6804
4821
-4332
2642
3933
6374
-4158
-3901
1734
-10751
-7370
87
-2668
-2803
460
-816
2482
1045
4225
-374
-5915
-6693
-343
-2347
-1637
-656
4873
-1227
-709
5105
-2784
-5170
-3842
-6552
2185
-5402
-3675
2457
-1467
-5069
-6875
9490
-4503
1747
4041
1135
724
-614
-2534
-663
-1899
-8915
401
52
3982
-3482
3401
-2608
-14012
-4873
3872
3728
-5842
1459
-1653
-6308
3315
-3905
-1388
-4338
-8984
1882
443
-7441
-581
2280
345
2221
-3323
708
-2320
1488
-1915
3648
-2705
-3544
-3636
4330
-6705
-3082
-959
-728
-1833
7671
-2946
5893
-363
-6717
-7609
-1167
-1542
1850
5059
-6206
1531
741
-8108
949
-5489
6413
1550
-4748
-6632
-1959
-7638
1853
1070
999
1746
3872
246
9376
-97
1003
1540
5964
-6340
-553
-6190
-164
-2486
-1779
-4300
-1413
58
5741
149
-2777
-2606
-2551
-1274
-566
-4111
-695
3428
-12401
-6762
-2505
-3457
8303
11851
2827
-2207
-4711
743
-2593
14410
-944
-6964
-218
-4286
6043
4899
-11925
-2029
-4753
5747
-3452
5715
3281
-7696
5666
217
6470
1997
-7944
-2627
3068
2052
-697
-470
-1594
3068
-2238
-1468
-1237
-987
2284
6250
-4952
-3495
-1036
5852
190
-1069
-10576
7718
-3468
868
-3908
8983
10924
-6081
-835
-19
7213
2034
199
5451
-1012
3749
2004
4951
-3140
-7127
9328
-4621
-10405
-9
-5348
3164
1835
-632
-9493
-1225
-6449
3072
-10556
-3980
-5251
2438
5377
4453
-9480
-6582
3390
2412
1266
-1185
-757
138
-8720
-1601
-853
5619
968
-680
-2245
4929
4099
-5339
-8247
-5249
-11882
-7154
-4070
-3724
-5019
2020
6206
249
738
2843
2247
-1743
-4986
-2086
3946
-475
-73
-6438
-1494
1120
535
9974
3040
-7204
3283
1463
5301
-6945
-105
-4119
4690
2286
-4336
-10340
3355
336
-3033
-43
765
7026
2060
-3836
-2862
4613
-18709
14337
-2972
-851
-1836
57
1516
1694
952
762
3235
-2966
2605
-2587
-2148
-1857
-1273
668
-5956
-443
-401
2672
-1010
-218
-4417
393
1832
2603
736
-3875
-3760
-2232
-1293
2101
-1102
-948
5600
-1177
-2812
-2419
-1178
782
-4373
-2247
-2930
-2555
-1873
-5250
-2513
192
-1078
-1182
233
3873
-4723
-1004
4659
-2353
-603
-674
-342
-3211
-1004
633
-4346
-681
-1475
777
-1322
-1367
904
481
-3816
63
-280
-3939
-4003
2314
-3097
-4346
-462
-2715
-117
1847
1980
-3193
872
1185
2233
-1993
1580
1110
3997
-1780
3397
2548
-468
3018
2371
1197
2623
-63
-917
1056
-5262
-2439
3966
-213
-2514
-3083
-1494
454
-4123
-1145
1768
1205
1350
1969
-233
-3714
674
2226
-6018
1615
393
2864
-5284
-2103
1549
-3288
1158
-1913
2823
-5450
-1810
178
1914
578
-1623
-2556
293
1344
-1775
-557
-2026
-364
-2984
3951
-3603
3890
-119
-6861
1471
1514
-772
-4721
-1970
2568
4502
1151
305
-2213
-480
7051
-7688
2755
-6622
-358
10090
-3759
7055
-7653
-20691
-10826
-2551
4729
1410
-18638
-9506
-5644
-1411
6589
-4087
-4070
-14647
1049
-6417
-1277
-3237
4392
-330
-5705
4827
1809
771
-10941
-19127
100
-2934
3534
-8398
-6288
4892
240
7434
216
-710
-2358
-1850
-4453
-8815
-8290
-3793
670
994
2331
-2417
-4935
9977
14422
-6242
-2751
-12458
-6375
2669
-618
-7336
1019
-17669
-9855
-1208
-3497
-5848
6414
-4653
-5524
-3415
-3276
-3528
661
3295
-483
11770
6084
-8480
5264
-15
6425
7435
894
-21816
-2545
-1324
2598
-6461
-569
-8156
-3660
-1694
-3378
790
-3675
5061
-5842
-11242
1548
-11825
9423
721
-9070
-2157
215
3811
1786
6875
-4344
-4835
1897
-701
1085
7449
-13139
1947
4136
2636
-3174
-4134
-6799
-6058
-10043
1895
-362
-9399
-40
7042
-3492
4128
10681
3424
-267
5867
-3158
-2054
2102
5464
3392
4863
-14323
6499
13086
3480
3417
-4227
4074
890
-6394
-2523
7150
-11905
-4223
-13298
-1111
-4850
-14117
1748
9082
-9639
-3731
4180
-33
-5502
7800
4422
3455
-2694
-3672
8221
7764
-837
10800
-5981
-11950
-619
3084
1022
-11989
-4534
8391
8785
-190
-1573
-457
-5593
-1933
-4949
10969
2490
-2349
8900
5643
2268
12520
-4336
-1513
-3721
-5284
2033
2957
4914
-6208
-9454
1445
10268
-10724
-16158
1015
7124
-6862
-7676
-5416
-1621
-3372
2197
11624
8670
2507
-1382
3089
7629
-4449
-986
-3981
2858
-264
1965
-1336
-6792
8906
-276
-1321
8001
-3101
-8546
-9298
-2615
-1059
-220
1104
-12737
2491
1433
-6105
1032
3685
-2219
6101
105
969
3819
1020
-4501
6810
-1712
308
2660
-2644
5981
-4522
7898
-3959
2050
-3363
2180
2815
1427
8202
-1540
-5931
-6536
9949
5470
-4294
-1933
-469
-224
-2148
2254
3534
4026
-5753
5223
-2496
2177
-3935
9871
2766
-2181
-5146
-1415
2704
-678
3604
-14627
1833
2089
4436
1972
-9743
4549
-5638
-8847
1217
-2742
-4544
5972
878
1653
-2630
-1478
5235
6686
-14771
-11546
-5741
-7673
682
-4623
2888
487
3193
-1979
-2197
-1848
3109
-4210
-734
-3103
748
-1055
3290
-5183
663
-2549
-5590
3082
-4140
5342
4269
4305
2650
-6062
-483
-477
1469
-2775
1953
-2305
-4076
-1553
81
6370
1827
-2860
-1525
-828
-1390
-366
805
1561
-2668
606
361
-1822
1240
-1010
-962
640
-627
-2193
1747
4049
-1648
-714
-4062
-1700
-3035
-3871
-2286
1379
715
-4805
2927
1023
-2939
-485
-2176
-5680
4492
760
-2374
-6095
1960
-3035
1804
2893
-590
-2415
-151
-3385
1471
-3289
-2740
-827
-3607
-413
-2755
-321
2940
2247
1362
3006
4856
-3041
-1008
1419
2372
-1112
-1597
-4934
-1688
1631
-518
-3733
-1442
534
2823
-1520
-953
-406
-5670
-5259
933
1670
-2792
674
-7876
-2751
1527
-2664
940
101
-1748
4462
-5585
-2003
-2592
-3314
-3592
-863
-502
-4397
747
531
2846
350
-6370
-5415
-1890
-659
-4183
1886
-1575
-3912
-463
-239
1398
-1475
3861
-630
-905
3451
1676
1735
-4052
-3472
4241
-3221
-427
5277
-9201
-629
-2020
6478
371
6095
-12888
8458
11603
-5850
2776
-1684
-9255
-1961
5242
3002
1811
4126
546
-4842
-5819
7075
2316
-6413
4032
-3389
-4935
-7889
-4770
-5100
-5020
-3411
138
-5719
3228
-8421
-20
2498
3471
-202
106
6069
699
3389
-1759
-5211
-191
4580
-1658
-1640
1578
-8838
6453
-2854
-3270
-832
1058
-3997
1204
4131
4919
-6201
11205
2006
-5161
-558
-3345
-6531
1153
1203
-2762
4615
-1929
5029
5
-3474
-4150
-5254
3771
-211
6369
3184
-326
13268
-2684
2836
-2387
3988
7035
3754
-3540
-7808
-5740
3274
2178
-1229
-1916
3249
-7833
-305
-1562
315
4591
-2141
1608
3532
-2821
3640
6510
-4209
355
1457
-4618
-495
9358
32
-3828
-6169
-1428
2435
-1152
6618
-5631
3087
-1368
2455
-314
-6999
-1059
-8765
-2233
-5051
-159
-9634
-1681
61
-5117
-2013
-1487
-5588
-962
678
-1628
6956
594
1324
-2062
-4333
-6636
9333
-1450
-1851
-8677
2270
-9483
326
607
-2259
-609
-5387
-2027
-625
-224
-4155
2717
-2519
-2380
-2679
-330
2142
-2482
-3413
-2077
-2149
-3942
4589
-522
1378
3258
-633
178
3316
210
-2235
3176
-3790
-5863
-6142
-4467
-4696
-7641
732
-2732
-2383
-1577
-2265
-4546
-8240
-7213
-522
-3856
3404
1570
-3159
323
-966
4241
9
-4977
-1965
-1864
8565
-4998
3311
-3465
-2450
-1237
-3337
-4493
-4627
1833
-3620
-543
4991
-1494
2017
-3771
7002
-10436
-3079
599
-4212
-1147
620
-2962
2516
-6099
-797
-5921
1867
-912
-2728
2515
-547
-2799
916
-402
-771
714
-1657
-2530
533
9536
-7135
456
-466
-7133
767
-3728
134
-5792
6557
3175
1899
-3773
49
-2339
3232
1371
2804
1366
1093
3928
1262
-1392
5062
1676
7344
-55
404
-2105
-2447
-3320
1313
4045
-2505
-9563
903
1551
1443
895
1107
2043
-686
6256
7209
-5608
-81
-4887
-1393
302
-1422
-6298
4965
-370
-528
-4689
1400
7393
3573
2778
2097
-101
-550
-6056
3659
-8973
3900
-4266
18003
-14690
-16364
2285
8771
2983
-14333
6984
-259
-4091
12087
1838
-1473
1816
-2702
-5120
11309
-1644
-2049
977
-9036
8261
2504
6568
7268
-18329
9462
-2747
766
8226
-12680
3043
-54
-9316
12280
-3947
12011
-14559
4039
-14063
7316
-12977
-4300
9371
-5177
4616
3482
-199
16615
2347
946
6230
-1098
2120
-3635
-6934
1419
-7486
13446
2938
-15934
11469
1579
1392
-7563
-18771
4350
-13844
2909
-6859
3023
-10867
975
6271
-4213
-3221
-10590
-14397
11247
1718
20660
3623
-4891
-9262
-8921
4147
2952
679
-10892
4435
-6072
675
-246
-4887
-12000
-6364
-8236
-11042
8343
7377
2084
-1207
11639
-8206
1153
362
845
-9540
1484
-5425
-3998
-6344
4235
-19296
2871
-6193
-5552
1790
3207
-8023
-5953
3687
8450
5063
4474
3502
-5493
-5605
7378
11611
-6424
3734
-2466
-3247
5122
3859
13938
11878
-6564
-10180
-14052
-1817
-10671
4766
1531
-4257
19
1546
-72
-16252
-11595
21967
-2388
4381
-18054
-115
1450
-1642
1700
-608
-2425
-3492
-235
3657
462
-1847
-2592
-5525
-2990
-3143
-3142
-5045
-8286
-2191
-441
2996
-320
-4041
-547
-6917
-3675
-480
2262
-8425
-56
2486
450
-461
2939
3121
-1461
-1379
747
-2634
-4393
-2240
6171
4251
-1669
-915
-11208
-1055
4381
-3249
856
-2698
489
20
3674
-3323
-1273
1928
3418
-931
-3952
-1752
-2154
-3689
-9209
-1602
2955
1333
-1941
2262
3436
5296
3510
-1330
-1379
-3966
3967
-829
1982
-2622
-6856
1115
-3048
-876
-264
-1260
2381
-7824
-5578
-2318
-3071
5423
-3526
-1596
1540
3800
3555
1412
2140
1405
-1190
-744
-4335
-1371
497
2006
-2517
-3158
1816
-1988
2289
1793
-2711
862
-2466
1239
1176
-3053
-3164
-5012
-1549
-4112
-2708
-3468
101
1775
-506
-2641
2704
1191
1880
-4449
-3443
-2025
553
288
1594
2039
-6735
-1511
3580
659
-584
-2100
-5216
1347
-4157
3311
-1773
-4722
-5267
2588
-268
-1773
1907
-5144
559
-1011
-580
-3612
-3198
1817
6549
3213
8242
1537
-7161
-3202
-1585
8228
5425
-3540
-3494
1614
-2595
-2702
-320
2031
1878
-10498
-3638
2348
-3452
-8200
-7171
-2907
1619
6725
-9931
10124
3838
1188
803
-255
-1790
-8704
4093
-6301
1396
-2827
-5566
-2568
-1333
3582
193
10553
1215
-10763
-10350
-7204
3898
-1120
7433
565
-1001
-4247
2487
-1348
-3508
-2100
9789
-9175
6437
2648
-4278
2181
3226
-3800
-150
-4661
896
-1525
-6466
967
990
5744
-2361
-3122
-591
-4679
2954
-6026
-12731
-6167
-8170
2027
2731
973
11421
-1884
3568
1585
-11569
16805
1470
3428
-4566
-12560
-321
-5973
6691
9143
-5775
6250
5469
-4132
673
-2974
6259
-2019
1055
-3992
-4
319
4298
1201
2405
-4770
6679
-3301
-2029
-7834
-7105
1674
-327
101
-2089
-6139
-3063
-7824
8090
176
-2452
1178
-1785
-557
3951
-1236
-3016
-2418
-12798
7522
83
12845
-1790
-1936
62
-8450
-1243
10172
-9417
-4726
4489
3663
-3581
-11375
-2892
4947
9296
1307
4063
-3682
-6545
-2443
-1151
3991
2182
2486
-6126
-776
2120
7013
3129
5828
684
-4629
1892
723
1738
-3376
183
-1816
5197
-70
-4003
2365
599
-1006
-1432
-533
6101
-6321
-3223
-6587
4582
1063
943
-863
-6005
-241
-5885
-2888
6640
-2836
6798
1443
-2915
4112
571
-4660
-4353
-4771
1565
3108
-4931
-3227
-3947
-10946
-5567
3492
602
-6738
2432
-1219
1557
-678
729
2237
-4
1914
-1718
3189
529
1924
9
10260
4211
-1560
6766
-3947
-4941
-4261
1794
327
-2701
-4029
-3877
4742
1908
-5506
2383
-4880
1263
1523
-4048
2515
-2553
-1671
1260
-529
-238
-4685
-6128
-257
-4487
-2204
-2063
5083
3574
215
-584
-1383
4311
318
359
1145
7249
3628
3641
-11260
608
3003
1858
524
-5412
3648
5206
-7816
-2391
-1485
4903
100
2612
-647
-119
-5569
-1354
-11112
-365
-733
-8115
5487
3407
1198
3578
-6296
965
757
-635
-7496
2629
-1114
-368
184
1345
7268
-2274
1527
3306
-2127
-1962
-114
7690
3732
4946
-7090
-1711
-2899
-10653
-1208
-6167
-586
-3697
-264
-3923
-8531
3570
4054
-4487
-6436
-5423
-932
2538
-9445
-313
-3042
240
-9567
1407
-6180
853
-2501
-1330
1445
-4151
-4027
1802
-516
-5027
-5361
3661
3395
3922
-284
-4707
8975
-4930
184
1143
-1699
-3714
-7798
735
-3574
-8388
1626
-11531
1338
-6514
-5653
11324
-22
-6126
3848
1057
-847
-5684
-5495
5048
-11191
-548
2953
2653
1050
-3388
-1730
3874
-5911
2042
376
5254
3082
-2711
1954
2562
-168
4983
2231
-684
-2886
-4060
-4748
4388
1167
-1368
-4241
-3060
2859
3405
4757
4727
-7372
-1936
-10102
8934
-5843
3704
436
-4001
4298
293
499
-2501
-9942
3077
-3862
5399
-7488
-4515
-6461
-2904
-3479
1162
-12664
-11171
4257
2519
-4850
438
-6082
3184
3120
-2636
8367
3683
4746
-5651
5768
218
-703
772
1297
-3413
10872
4191
-324
-1848
-3426
978
5307
1330
5561
-900
475
6845
-1529
-6295
-12010
-1023
1565
-13114
3165
-3107
2753
4128
5575
3333
-3622
8778
6459
9224
1844
8253
556
-4462
8487
-1769
-10875
-4615
-2168
83
7232
-3747
14183
-10057
7050
952
6075
-11984
-8854
-6073
2890
794
-12188
3668
-1568
-1696
692
2730
1222
-1347
1498
-24940
-8699
-5232
5474
-5420
4735
-5495
-9126
192
2609
-11653
296
-3410
-9906
3664
-5569
-3632
12904
-6997
2292
-2556
2961
8473
9217
-8762
-9870
-679
-1305
-6269
-3774
-4226
846
4665
-1352
-21516
-5809
-2117
-4971
33
-9555
-3859
-8720
5484
10184
-1987
6339
5616
-17380
-4473
-764
-10198
16631
-7625
6960
-285
-13254
894
4150
8307
-1977
-10281
-6484
4315
891
563
9520
3827
-1977
5269
-2814
5651
-2170
-2878
1762
-3125
-2988
1573
-6600
463
-12092
-136
4699
-1950
2523
3097
-1834
-28
-9611
-1100
2311
6791
2986
5783
1310
1769
-1908
-311
1510
-5234
-4339
11602
3011
4319
-1786
-3464
-1463
-531
-4023
5618
-6638
-6253
-5053
-8703
10746
-7891
-60
2616
1104
3340
2805
-2266
-77
168
-2082
339
-5036
1809
-1082
390
-6781
-5849
1374
4747
-3641
-5734
-617
-1252
489
-5058
3864
-3564
-2550
891
-2423
309
-11
-1685
-7198
1625
-4662
-715
-1614
-3085
-4355
3719
1878
-735
-1092
1941
-175
-6484
-954
-4751
2790
-4259
-2749
-5671
-2802
2690
-956
192
875
280
-377
-1647
1129
5558
-2878
-94
-11242
-7628
-1942
-3353
-4251
-1520
3028
5726
8508
298
2702
1432
-3292
-3396
3859
1106
-3157
2986
-2191
2083
-1939
3662
-4011
2047
3893
220
3813
-666
2106
-378
1739
3859
-1443
1665
-2396
1352
69
3054
-6910
-3629
-2362
2059
-1195
370
-2665
-1782
-4505
-1279
-2744
-88
4161
-3446
-576
9398
-3603
-1796
101
-5825
-4039
-5576
-4059
535
1253
-4249
1122
1363
-974
3448
-2509
-5359
-3841
-828
-3725
868
243
8949
-437
-1973
-5587
2436
-523
-3638
-3772
338
1855
4073
2676
3226
-5978
-1119
1403
349
-4540
1262
3609
-1366
-122
-1051
3424
-4942
13890
-2684
18260
14653
-1528
-6717
-8861
-7008
-1112
-7955
-6570
-6583
4573
1092
9633
3982
-1505
4305
-12343
7466
1282
4142
876
-3625
-5203
-9553
990
1443
4916
14021
-13186
2524
-5803
-9035
2398
5362
21593
-8904
-17603
-15245
-575
10684
1094
-2047
-4301
-10502
13235
17054
5395
-13653
-96
9528
414
8431
-5506
-2009
-9406
15992
7545
3901
-416
-489
-9299
-2003
-4712
3178
19262
5023
18868
361
-2027
10148
-1409
-6374
10598
3664
-11468
-5040
16136
6786
7494
11438
-857
-1903
-1219
-9361
-5329
-5479
3062
3820
-1318
17160
-3636
-744
-979
-5051
24585
3086
1478
-9945
374
11479
11695
-6182
-1084
-7418
5182
916
4345
-7702
2777
-8855
7916
-2917
-3215
7469
-4218
5408
-7021
-3134
4138
5311
-7346
-8909
-1432
2270
-1049
71
762
3274
-19589
-6592
4333
-5234
2868
537
-4231
-14353
-1911
-5245
3328
15570
-15245
4988
-7745
-2388
-9955
-14714
3275
-3050
1331
6044
-1483
1038
7969
-13036
-10340
608
7616
-20753
-356
4059
-9915
2802
1413
-1546
5951
-3445
3305
3125
-2029
2675
-5891
-3512
-1914
1655
2103
-7912
-5713
1263
-636
-3900
-1145
-10521
7247
1121
-2543
-3408
7845
2341
-93
5926
-3806
-4818
-1250
-1778
-28
-192
1947
-8143
2208
-1646
-922
2523
-585
-5347
1651
152
-7159
6070
9075
1808
-799
-751
-767
-2291
929
-620
8749
-6062
-1273
6888
3625
-6740
1633
-3845
-2686
-218
-8709
622
-5129
6390
4007
-2486
2000
2221
-815
-3701
-9890
-5159
1067
2465
-2670
4459
4556
710
-511
2443
-5025
1936
-2634
1508
6713
-12683
7780
-7817
276
-2810
-1244
4907
5580
6131
-787
-3485
-1949
-1666
802
3442
111
3383
-180
-2009
3733
-2476
-3483
215
1246
1311
3579
-1604
-2946
7315
-2434
1656
5507
756
-1408
1644
-2372
-8426
-2381
5665
-6046
-391
5868
3854
-4684
5200
2435
3927
1526
569
1596
4733
6514
2984
5118
10238
1195
2384
-5801
-7504
10858
-1319
-1455
-8419
6075
-7
8864
-2198
-8582
3271
-1771
-3158
4843
7953
-7170
14830
6504
-5977
377
-2346
-228
16739
-5937
-13712
-9433
7036
-13016
7034
-16720
-14972
-2334
9923
-4594
-9093
14032
1404
3239
-2051
2284
5437
-8737
-3136
-3639
4196
-11399
-1796
39
4329
2008
-22501
3366
5363
-206
-18159
8432
-5090
1314
9500
3278
2916
8327
969
-5046
-6179
4833
4672
-11576
3364
-8676
-12044
1500
-5011
-1401
4530
1322
-8525
14167
5322
4257
6802
-5476
-4418
-6064
-451
-4079
-3223
-1368
-3811
9652
846
-6285
6189
278
-4727
10217
-916
7810
2064
7458
7787
10340
-4207
-5343
3176
-843
1270
-5197
10450
1260
10174
589
-6087
14710
-1663
-1548
8673
-9577
6826
-4334
6884
-49
9863
-19026
-16537
883
-5014
10285
562
1992
18333
2763
-3736
7002
11607
-3551
9335
-4293
1870
-332
12441
8690
-15016
11914
8894
1411
-6138
5152
-2600
-7211
1295
-7861
1161
-2889
-7727
10563
-6767
4569
-848
-2644
-2025
-3074
-840
12142
1654
-3656
2983
1709
1363
8270
-11887
-6764
-9191
5294
-3086
-3156
-6833
-4809
309
-10446
15020
-1991
-7167
-6947
174
-10102
-1639
6707
-16897
20523
-3586
-1228
-1132
4964
3369
-8565
-2183
-269
-12040
-564
-3791
-23026
95
-15426
-25772
14800
12332
-1096
-12066
-7884
-6265
-751
824
6885
-4511
13036
9684
3346
6260
-122
2734
22110
12142
3998
-1499
1097
10741
11462
-2675
-3411
2415
4968
4286
-7894
-10479
5800
2557
-3609
9053
-5816
12987
5414
-992
11371
-12041
9744
-10398
-1291
3111
-5395
10492
-3739
-8660
3967
-10631
-3263
10471
-2450
-4313
12704
7670
5970
-20685
-12962
-6401
7059
5112
-4925
8652
3077
2079
-993
499
6441
-8582
-654
-13956
-2833
-2179
2543
-8583
-6254
1667
9549
2119
-20762
9489
-6398
1958
-5832
8986
-13787
2779
-5073
-4495
-3181
8722
-8726
-2293
-13021
-2378
-14425
23115
-1007
12396
-2999
3736
-2713
-1781
-17587
-15124
-6904
2886
12248
3277
15624
11071
2749
6233
2238
-7302
2193
1230
-10812
-14382
5485
11078
8877
834
-192
5376
-5218
-631
2673
1376
4503
-735
5707
705
500
-4347
898
-9042
4201
-9100
3463
-6387
2049
-5128
-769
5775
-7506
-3191
1037
-3811
-4047
-3536
-5898
4609
-1130
965
5027
294
381
-2929
-3195
861
-1813
-5786
-113
183
-7631
-1828
-7072
1998
3008
-3121
-2526
827
2061
-4518
-4051
1147
3152
-399
-406
-1507
-2613
-2052
2567
-1816
-556
4587
-1907
8529
2886
-5653
-3263
3091
-2702
3639
-72
2829
-2501
226
-6987
-97
-7782
1765
3134
4578
-4175
-756
165
-687
-8557
3181
9383
-4084
-273
434
361
3651
1271
8698
852
-3106
-976
6435
-866
1436
-12706
4298
-8726
-5424
5475
1023
6593
-4475
7309
-2741
-178
-3370
4170
1028
-4618
779
1337
-2631
6851
748
-3699
1493
-71
-1802
-3099
762
-2106
2995
1123
-604
1155
1462
-1166
1401
-411
302
242
2060
807
-6522
-2646
-1046
7871
-3281
3245
6107
-2339
3110
-2783
-6897
-1164
-2258
4205
6284
1228
2513
-435
3722
7137
-908
6730
-3878
4902
-14443
-5097
-7501
-5508
6
-4694
9041
-13097
796
-6121
-2689
-9552
-5945
4802
1020
-250
-8779
1544
-5528
-6138
-427
-1036
5661
3253
-3816
-4795
3771
-4554
15228
3170
685
6844
1033
-8437
495
3817
-11098
-3289
2562
2053
-2055
4745
3424
3926
-9823
-10603
799
-3869
2258
-6132
7470
-6657
10826
659
-1888
3127
-473
6525
-1966
-3822
4534
5749
12844
4002
5882
-937
-12181
-4486
9925
1746
6357
220
8120
8803
3266
164
2164
5952
-5637
-6677
-320
2266
-2477
-7716
3964
1981
-5131
150
4366
-2977
-2348
6576
-6337
3147
5764
719
-425
1826
-4369
3498
6381
-2379
148
1828
7459
12900
2533
-8676
7914
-2265
-8150
-523
1664
-1978
4118
4544
-4776
1102
2183
2174
-7470
-9104
-1794
-2272
-1562
2084
-20114
-264
3054
-6597
4878
-9465
2954
4328
11130
-4061
-582
-273
4136
4536
-8909
164
9776
2315
-9638
-4274
919
1229
-2497
436
-8286
53
5920
5052
-2354
-1216
-216
-208
-5309
2724
-5937
3047
1498
889
-3301
-3562
-4779
2797
-3083
3395
1942
-5103
-9724
-2842
-329
5359
-1637
-1253
648
-19
3393
-11756
2085
-6094
-6063
-3961
-8042
-2696
1467
-816
-2681
-5252
-7045
2677
3829
2770
2454
-6382
-1492
2009
-3427
646
1339
1255
-6987
4435
-42
-1696
-1847
-3458
811
-1562
7977
-1441
-4870
1874
-1169
258
3859
1927
-4898
4923
-183
6818
-2497
-2552
7971
-6014
5631
210
1502
-3148
2388
1960
400
-5051
-2346
-2322
2893
2872
-444
5574
-2793
-1486
5423
-278
2602
-250
-555
685
6208
4445
-2575
800
-3101
5333
-2461
443
3386
-289
5070
-3837
-2745
-503
-1133
-2273
1408
1018
871
-771
-1904
-3393
4227
-7205
-4665
-214
4898
3480
909
-5612
1638
-241
-1275
1617
-6718
-3218
-7561
-70
2521
-797
1385
-62
-2120
-2870
688
-7383
-2047
-3798
-2753
-4445
-2225
2191
-10495
-1977
5994
2778
-4217
-2758
8026
1705
5091
-817
2482
-3222
-3791
5991
399
-3558
-12354
10474
-6361
518
-7422
3751
-1460
-7054
3029
11435
-3775
961
-9396
-4632
3581
-9751
-609
2944
6332
-1196
2862
373
8231
-7062
11480
-5365
2699
9637
-357
-2530
-4660
-6471
4993
-2370
9496
-3630
1074
-1596
13280
3818
3214
-4408
-8414
-2449
1466
-5086
947
-3754
6997
-3410
2574
7516
-389
-9345
1170
12166
3061
800
11909
-1189
-5033
5851
-7869
4654
3327
-1289
-7070
-1383
6966
-3890
-3955
7345
895
-8861
2883
-9127
-4450
-2256
4632
5074
2537
5227
-1199
-6252
1870
-2748
-8362
8469
12023
-1871
-1384
-2350
-5386
10831
-2617
11058
-3737
-1100
-7873
-5296
-6115
-1474
1408
-381
-2239
1407
-2758
-3470
-9078
-5978
-6650
-10211
1747
-866
8660
-6632
7369
6686
12046
-5785
-6865
1662
3638
-8950
-854
-3373
-5821
-2137
5987
579
-10364
-3747
16417
241
-6316
-14638
3903
-9710
9407
10069
4221
2825
2214
16677
-193
-192
-3743
1773
-10916
6222
7647
-1563
-8637
-924
2105
-1595
-3631
-5121
-769
-4779
-7959
2819
5138
5364
-5553
990
589
-5002
-942
-11301
-3745
1073
-5673
1789
3732
498
-3599
-8655
-2706
-4574
4829
-4373
-53
-5935
-2985
3448
-9892
-121
6011
342
1884
-4429
-6058
-1849
-3571
-1562
4990
-4404
5057
2985
-4617
3392
2442
3942
-13816
-3239
-9271
1260
-4930
3404
-5898
-5146
-1970
-10923
-1934
-3657
-17457
-5101
2065
3338
7949
1945
4573
5774
6066
-561
16737
-3758
-9823
1267
-8420
-6757
-6244
1348
-7777
-11392
-2055
-2072
-1466
-2881
6057
-5912
-4806
-13953
4432
-3634
-924
-9331
-6697
15004
-683
1099
270
63
-3361
-2112
4510
-7283
-12078
3658
5381
-559
1352
-5487
-4794
-569
733
5988
-7480
2362
-7675
397
-3775
-5602
-2856
-13371
-1471
-3523
-2046
5825
5615
817
-3554
-5473
-2919
-7064
2804
-5326
5310
116
6203
5667
-2756
469
-5537
-5310
3524
4285
-2488
-8630
-2986
2446
-4895
-7037
-7844
-3860
644
685
579
-3394
-1555
3395
-4382
5808
-2953
-531
781
-1297
4758
3858
-5329
-1537
5324
-4241
-1965
-2022
1462
-2914
-660
720
4265
10880
2067
-1869
5004
-5491
7315
-4536
-1167
2161
-6463
383
-2942
-467
-6397
-269
-4751
-2866
2845
-661
-1793
6170
-1364
-952
-3442
-697
-4966
4047
-1449
-573
699
7747
1820
-3322
2092
5078
1185
907
-3516
-2296
-753
-2180
911
4865
-1151
1471
-3932
359
-6700
953
-1947
2005
4365
-4290
97
-2614
603
-2545
87
1964
109
1848
1628
2890
1571
-276
-6197
2722
3125
2804
-3497
1882
-912
8922
3029
266
152
5796
-5398
-6968
-2722
2101
5802
-3507
2386
-1136
2116
2743
4760
-3708
-1666
2246
2662
2786
1190
2890
3294
229
-7226
-2488
1580
-6078
-8166
-2952
-3770
-997
1982
112
-3129
5441
-4529
4912
-320
-1929
-257
-1018
-1375
-7300
3390
2607
-4352
-1127
2219
-1632
5072
5739
-2871
-7026
1638
-5697
2122
343
5502
-4424
6545
-96
788
932
-361
567
-1571
516
801
4655
-720
-1788
-6568
-13243
114
2440
-4906
-2433
1389
-3805
-6559
-7025
-9498
15415
5253
-18430
6849
-11656
10115
-11384
11981
574
924
-4618
4192
5629
-6584
-18796
-3234
5730
-4682
-6273
8186
-5592
-2956
-17811
-11935
-5546
1877
7228
6321
-17449
-8276
8398
14038
4382
5862
-9214
-976
2365
12263
-3404
93
-260
5466
-7146
-7464
1335
2329
7547
1934
10325
-4159
17596
2158
9529
2540
-16968
-6058
-10893
-11280
647
-29537
-1218
-6836
-4420
-5577
352
5992
-1906
12547
-8874
-5347
-3141
-6301
-2204
15434
6250
18622
-4986
3807
1426
12972
-8398
-11226
1138
-6329
-3677
-1465
-1717
13405
14056
-6709
-211
325
1324
9276
-13342
80
-12213
1655
3993
-1316
2231
-463
-13354
-1940
-20675
-5831
413
-6008
13738
-366
-2327
-6192
-11722
9794
-6475
7441
-55
24297
7521
5382
5929
-5576
-4386
3933
-10807
-764
-7485
-7152
-6744
-4710
-11626
7382
8657
4917
-9571
7318
2920
-14726
12282
6720
7972
-4237
16834
-10954
3825
-2827
676
-4704
3919
-1699
-1007
1954
259
2669
-6282
2761
-6563
-8936
-4148
3434
8256
34
7057
2164
-273
54
3775
1728
-5247
2015
-174
3729
3742
-3633
327
-1208
-749
-2054
5974
-5926
-3534
-6292
-5525
4304
-875
-3396
3175
-1810
5492
-5757
7165
2693
-673
-3048
-2937
-583
-3880
4014
1489
523
-2937
-716
5545
5373
1983
4163
1048
-3092
243
-1631
-1604
1449
-3401
-3502
-4815
-6519
3504
-3012
4920
1485
-7246
2330
2203
1254
-2233
8545
-2889
-167
-1180
4756
-2248
-3900
-8131
3349
6850
3276
-8728
192
-1099
4418
-4817
3671
639
6451
7339
-5273
3201
8220
-4045
-4808
-8644
-4743
-3852
-6084
-1542
845
-4627
2340
5141
3285
-6037
273
408
1826
1337
-2829
1011
-8045
750
-5104
4132
1642
-7029
284
2049
2903
-4446
6432
-4444
2
-4924
-971
453
4293
-2671
1254
1874
-2607
-575
-311
-5497
-5570
-3674
5257
-5583
-5169
-4628
-1954
-6648
-3667
-5446
-7192
-3803
-5157
1530
-2777
-4490
-5209
-9016
-7596
1867
-7582
-1178
-2784
-661
-4536
682
5333
3640
-715
133
3943
-2467
-8126
1260
-4786
-878
-4873
-752
5829
-3151
679
-2742
-3143
4225
1819
2164
-1674
137
-3302
841
-1829
1288
2889
-7891
-3554
688
-2142
-682
-6859
627
1098
-1472
-865
311
2892
4402
-4471
-669
-1498
2333
-4424
-1431
2843
2066
4165
-11678
-6120
2821
-1842
-6858
-5054
4056
-9656
-3600
464
-6157
-9261
-3233
-267
4180
1750
-998
-4669
-714
-5050
1783
-7425
-5993
4426
-2091
3707
1905
-2068
-1345
-1265
-7483
1622
2101
-1061
1190
-324
-2005
-1615
2588
8321
2098
7137
-5389
2806
-5179
-7920
395
2012
-4462
-1337
4523
-472
-711
-3064
-926
-4958
-4763
-9823
-2468
459
-852
5734
730
-5241
1639
1290
-191
1269
-1641
-7088
-2488
164
-4260
-4303
-9184
2003
3292
785
-64
56
-289
-1308
2482
-5552
6983
47
485
1235
2221
3673
-577
-7242
5077
131
6098
-2491
-869
2882
-9158
-463
290
-2350
1858
1289
-148
-8353
-2321
2456
-6445
3389
-12921
-4995
-4957
-5096
1601
-13966
-6456
11880
-3762
7731
-5819
944
-4035
321
-853
-3413
-6667
6394
-7220
-1179
511
-563
1346
-5283
10668
-4981
-9208
-5120
-6163
-3357
5231
357
1963
4326
4057
4187
-1939
-1719
2195
-6158
-560
-606
1735
-2784
1368
7430
-1395
-2290
-6930
-9390
-6304
-3717
-4851
4169
-4219
-3181
1604
1423
-9494
-1153
-230
-3409
4249
-4352
3372
622
702
5659
271
-1227
-10056
2422
1946
-11119
4689
622
-10755
-4435
-6750
-1955
1568
6702
-4157
3962
-6206
-864
-2504
-6802
398
-461
1332
2035
1354
2370
-5951
5911
-5875
-1825
-1023
5150
-5580
-3618
-801
3766
8473
792
-7455
295
725
-3206
-390
-11350
-4862
1000
-4589
-290
-5323
-3099
-3819
12746
2310
6288
612
5906
-5356
-899
3796
-625
4785
8303
767
-11573
4883
548
624
-390
-1340
3688
-3040
157
-4040
-1917
256
-791
2136
-1148
-3965
5368
-1829
6897
-2538
-1120
-7118
-2217
-7870
-4186
4296
5661
4167
-455
4682
-2339
-2871
-193
5830
-3601
393
-5446
-2119
-8301
3678
1180
-5553
-1525
-2770
1090
-5
-5249
5471
-921
-900
-1166
-3618
2357
-3512
-2818
7423
399
-211
2116
1437
-4378
-1116
-1729
3676
-7192
-610
-578
-7029
-2673
5952
9096
-2844
1412
2128
103
2334
-529
-4249
-1444
8222
7347
3140
-7603
-4387
-4257
3984
-1414
-3288
-6358
6917
-1993
8025
-5848
-2248
1123
-6242
2563
-4340
3041
-4874
5217
1829
-4261
-7383
5991
-1329
-5770
5702
5664
-2630
-11145
-1068
7229
3352
-4495
-870
-1771
4458
238
-6851
3086
-5188
1661
-6469
-809
873
1577
-9385
886
-8616
-4636
-966
-7553
-6524
-3149
2062
-3178
1352
-8537
-12434
4645
1554
6747
-276
3127
-5614
2002
-1047
-6552
-2863
-1456
-2793
1558
-501
4146
-2667
8804
-4245
3295
-6066
-4002
7021
1056
-3090
1976
112
-5643
304
-5118
-6178
-995
-17
-2055
-603
-3184
-2445
-585
796
-955
-8
-892
2201
2287
8988
6054
-8072
-3008
-7402
-3883
-367
6043
12227
9496
-3425
1969
11774
-10167
-5485
1731
1156
-4960
354
-7906
-1865
2183
3345
2927
-12654
-2914
4112
2332
-3057
7138
-18834
1841
-12455
6361
-6806
-4025
-6085
14763
-1647
-12284
-4152
-2349
3772
7288
10724
5378
7038
4202
-2399
-9330
-2275
-3473
3666
-7503
-1030
-2835
977
-9928
-2048
1844
-3553
903
-2365
-10600
479
-3526
-1689
-10486
-3633
-1792
-1801
10663
-2371
-7710
1676
4720
920
-11389
1971
-9409
4222
-358
-14349
-658
6559
10204
-3356
8953
-700
-1893
-1251
11981
9014
-3091
-2479
2559
4854
1446
-14504
-11020
-2323
8068
296
-7126
-1261
-5461
535
-3726
16420
-14471
7190
-662
-7745
-4166
5934
-7119
-14483
13006
-18077
4070
-4922
-4627
-6
-10164
-3804
-11373
-1099
-2558
-4157
2875
-4306
1200
487
9058
7017
3497
3736
793
2870
-1885
3327
-5940
-4124
-1858
9499
-4500
7407
3811
-4878
317
-8669
-8659
-956
-4314
4272
-1913
1925
3311
-1191
-13715
-11528
4474
-9243
-407
-274
-1970
-11556
-3925
11381
407
5171
-2254
-3195
-7751
7422
7027
-6018
-1475
-4841
-2626
-1483
-3882
-8784
1688
-1922
-1624
-970
-8261
-1749
-11146
2420
-7505
-3676
-494
9290
-8848
4009
5120
2780
-6668
-5019
1572
-1293
-3698
9457
-9489
-6592
-4604
2120
3842
-130
-51
-4770
-4688
5869
2140
-1143
1162
-2547
-3452
-318
-2846
-1097
-5337
-9860
-2867
-3848
3374
-36
-7162
1121
3537
7116
3224
-1213
993
631
-6081
-6626
-6655
-15433
5071
-8177
-1542
-1457
329
-13032
-1220
-950
-2002
4244
-2548
-4638
728
2813
-2827
3393
4505
-11389
-4494
-2328
-338
-3779
-2050
-4483
2959
512
-3317
-553
14093
2409
-89
6859
-1810
-3164
-10249
-8721
-87
-3867
-7301
4590
-8864
-9844
-682
-4149
-3035
-5273
-572
-10754
2096
-8572
-6849
-675
2253
-1627
7294
5830
-4972
3596
138
-4744
2904
1573
4061
5863
-4241
-2795
-3825
6945
-8305
7874
4425
-5341
-5996
-453
1098
238
5311
-957
-2176
-2920
-3731
-3240
12762
2769
762
-6214
-3248
-6329
-5296
3814
4553
-4172
5526
1437
-2188
9182
-4823
-14955
1207
-1657
-8918
-1905
1752
2694
-434
-1532
4688
-1656
1049
-9647
-3009
-1656
1683
-3258
-4251
4132
-332
527
-2923
4865
1838
53
-1269
-4600
-11300
-2628
-5746
1350
3410
-1266
-3303
3400
-111
-5729
-1917
-437
-5430
-2049
5060
-240
8319
3683
-1448
-5407
-4223
491
2684
2091
-3757
4248
-6789
-7165
-1575
-1252
3393
-1531
2503
-1481
325
3607
-611
-6849
11591
-2064
570
2030
-4843
-5939
3690
-9890
1614
-7725
-12683
-3250
7927
8474
5044
102
1463
4268
2143
-9437
5962
-10117
-1398
-10878
-618
4692
-6585
3497
6545
3404
2023
9191
-7150
727
-2153
-4860
3685
-3296
819
1166
2800
-3607
-2274
-3987
5063
7878
4966
3956
1476
4220
-7612
1540
3780
-3340
1214
3322
-626
2420
-7449
-4548
-3671
9469
1857
-9351
5359
8218
-2371
-4814
2679
1789
-2250
-3315
7936
-8458
-2558
-6287
-9653
-7712
-3863
1495
-2695
-2441
4997
5621
3168
3710
2424
-2107
-1332
-10328
-601
-4844
-1461
5280
-3723
4918
-6053
-4648
-5593
-6427
-2314
1803
1770
1784
1173
2050
-1259
1999
4298
-5750
-4507
-12894
-3727
-5114
-2228
1789
3009
-5863
-6630
854
347
-4875
-1489
1246
-8983
-3958
-4548
2539
-2515
1532
-12271
-815
-4068
3612
1490
-4737
-1812
-2728
2010
-7482
-3628
4223
-2133
3850
1556
1963
9465
1101
-8238
-4252
-7694
-2134
5790
-5540
-505
-9964
-4639
449
8159
-183
4238
59
-552
612
-10700
4411
7700
1003
-373
-322
-4004
594
-3657
-9048
-3395
-1118
-293
-3824
3862
2588
4342
-6663
-366
10211
-6327
-6245
-2649
9464
-2618
6407
-3379
1514
-1014
-1556
-8055
-9058
546
1894
4722
145
-229
-5879
-1589
-6607
-2496
-3033
-6001
-114
2615
2426
5204
2159
4870
-2983
-4765
6824
-2175
-3617
-2520
-4207
-734
3110
-1201
9183
4474
-1405
3874
-4500
2091
-614
269
7412
-84
-554
-1048
4234
4797
706
-2097
599
-6783
-1801
3851
-3
-3209
-2034
2074
-2727
1248
-2195
563
1532
-1041
-1457
-7359
502
-1330
2908
301
1696
-1618
1187
-595
-4488
-2567
-2082
1220
-2829
-323
-753
2510
-1318
-9214
-3037
-1625
-761
-136
-3363
925
-1686
-5086
-3135
2161
2786
1896
-2302
10586
570
283
-4209
-1509
-9
-2449
-2179
4215
-2194
4887
-530
-2852
748
-1311
2704
-404
-1732
-1642
-1730
4958
-1816
-2731
2862
-3445
-1302
-2941
226
3160
-8740
-207
-1891
1287
-1324
-2693
-7278
3165
-6128
5413
-1366
2002
-1432
-3647
3683
-1458
-215
544
1090
-2341
2668
-2343
175
-2025
-5605
-1977
-1691
137
366
-1965
-616
-559
-4134
-1239
-1625
-4644
1311
-1402
2648
4370
-5328
-1990
-141
-1353
-2211
930
-4035
5386
-1464
-3458
-343
-4144
-4542
4529
-778
-1580
650
1156
-9037
-5218
2530
3094
-130
-1342
-711
-87
-2333
-355
816
5189
-274
-3957
2913
2717
3905
-1603
5512
-3822
-3460
2790
3503
-372
-3413
-5724
7328
5583
5427
-19158
-6298
-4298
-6564
-8334
786
-17370
-930
-3241
-1126
3153
-3766
-4921
-11614
2240
6399
2616
4231
2898
-2476
7557
13925
590
2250
-7834
-630
3776
-8006
-5840
-6839
-9606
-198
3442
-2226
12705
12217
4807
-276
2481
4232
-1492
-3804
2154
-269
11330
-9915
12552
-4896
-659
-11230
-11796
-16740
-7291
-639
-5734
-4431
-3312
807
-3228
2135
-18295
-8825
-1225
7749
-16667
5470
10400
468
-2554
10628
-15505
9202
-2167
1458
-4531
-9742
-6545
3731
8222
784
-9845
6842
-7567
-10245
-2251
598
7395
-5522
2082
6967
5770
-7814
9851
-1978
4016
-32
-11272
-1919
-6597
5748
-3570
785
3696
8267
16348
-16743
-9244
1050
4544
-7832
-5147
555
13461
-3148
-3045
-719
-478
-4822
4138
-7511
6227
-6132
8
-8370
-1256
-3541
452
8765
12889
7125
552
3410
-3325
14144
-3929
-17513
-4241
7941
3462
5385
-8181
830
-10296
-1801
-7930
10209
5705
1103
2744
1793
-1613
3653
5037
7493
-4373
2144
-2328
-1193
-4219
-8340
-3713
1836
-3561
1430
3515
5685
-3872
-566
-2306
-3043
-2312
437
-5673
2672
4451
-1481
3492
-3038
-4294
-6876
2292
-2726
-1600
-2914
-5748
-8016
-3902
3549
195
-135
-4953
1520
-3608
-8
1025
-585
559
-221
-5082
-2362
1986
-5458
-429
-301
-2879
-5686
-8334
-1914
1528
-3918
-3327
-2347
-1165
-4237
-992
-556
-514
-1189
-22
-2878
4083
4742
1648
1080
67
-1622
-3369
-476
-3375
4725
-6037
4442
-6943
-1072
-2866
-2665
-1569
-3696
-1382
325
-693
-4956
4278
-2316
-3443
-3935
-531
-2614
3554
4133
2214
271
119
-3163
-4884
-7224
-4155
600
4106
-4804
-2193
-3229
444
2410
5901
-2393
-1884
2389
-5923
-1730
-15
-431
-2291
-3688
-624
74
-387
-781
-5622
5089
-23
819
685
530
1826
1501
-646
-5604
-2349
-2187
-1212
-6751
-162
825
2976
1679
4121
-3523
-3752
-313
2239
-5896
996
1762
-301
2455
702
-1819
-3384
-534
-2496
-1727
1340
5347
-829
-4671
1846
2512
2732
-367
2787
1222
-6060
-2794
-890
289
-5801
-1063
-2077
26
2512
-255
-612
-4348
1422
-1851
-40
616
-109
-1484
-82
1263
1028
-1757
-2199
-661
-1671
800
4171
108
-201
2107
-1638
-746
-1337
-1242
329
-473
-2731
-4342
727
-6136
-1747
967
-148
627
-574
-1302
3246
-379
-5701
1380
2732
-5046
-181
-3995
-533
2309
-5100
3719
424
2989
-1862
481
-1659
-350
-2693
-267
-1615
-1195
-1683
-1763
-3193
-6818
2252
-1514
1339
3994
737
-6154
7827
-1942
4245
2305
3203
7115
-5423
-3274
2737
-3408
-6662
-745
2506
-592
60
-91
-16
-3359
-4674
-6956
-908
-1185
-3870
2522
-3174
3205
-10676
-550
2609
-65
-2970
769
2016
3218
-3393
7783
4657
-2393
-7156
-5155
1201
2162
-1516
4062
1193
-1656
1230
3580
552
1968
823
2354
-5061
2161
-7050
4048
1366
471
-335
-4423
-8084
493
2637
-2658
4558
-3186
201
335
-3183
2785
3679
-353
2702
1973
3504
-1758
61
-2903
-1752
1329
-1724
846
966
1557
-511
-946
-1187
3944
-353
-4590
-3857
1928
-5644
1583
-2282
-3686
-1287
-3777
793
5019
797
-1678
928
-2916
3187
2056
-3074
-7331
-3206
-5157
175
371
-2110
-3059
491
2219
340
-1029
2621
2719
-1426
-9927
-4555
376
212
874
1484
-4128
-3325
-822
1226
-4504
-524
-7102
716
-217
-2704
2556
-573
-5565
-3855
-2713
239
-240
3497
-1351
-2966
-5563
4099
-1280
972
-1637
-171
-2178
3953
2706
-4702
-570
-2761
-755
-1754
-2266
-7124
388
-2844
-1544
-1087
-3935
3484
1647
354
-465
4490
-3076
-3997
-1368
-4233
-2951
83
-2808
376
468
265
-3323
-317
-2870
-8623
1498
5877
2829
3912
2741
-2298
-3418
-328
736
1256
-710
-2327
1398
904
722
-2208
-2271
883
472
-966
-2374
-1956
-2414
4047
2763
3520
-1599
1320
-2960
-3337
-1599
1326
1958
1167
5938
2416
-7109
-4934
2358
-1153
-536
4177
324
745
-1121
2002
2433
-1019
-2737
692
137
3848
-5947
-9978
-1664
-218
2162
-5909
-5657
7110
4674
-5270
-2570
-589
-6184
-8107
-798
4943
-123
-1843
-11724
4334
-2456
5988
-1051
-7114
-4509
1590
2036
-6266
638
-2258
-3937
-5749
-740
-2315
5202
2945
7193
-3989
8536
-2151
4935
-522
3851
-2326
2263
-4749
3526
-10251
-2575
-241
-364
-3853
-2827
-9262
1748
-7016
-690
-2018
3357
-1975
-761
-3626
-3697
-5944
1441
-7526
10201
1828
-3691
2753
413
410
10143
1567
-6976
-7062
-8969
-2845
6752
-4456
-2156
-709
-3849
3836
299
3155
-1706
-2913
4972
-7752
-2110
3050
2224
7791
3737
3084
2117
-1267
-4892
-1364
-6351
1353
-2349
-3396
7775
2046
-31
2448
-2758
4241
-3964
810
-189
8729
-2529
1355
2202
-5410
-8564
-5815
5228
1624
-1512
327
-4338
2552
-1710
-5385
5119
1761
-2718
1070
-3507
-2578
593
-6422
-3720
-3673
1498
7008
-1502
-10429
-4104
2039
-2526
-8489
7375
10248
-3872
-2288
673
-6900
-6922
-4609
-3604
-4505
-3423
9506
2256
-8417
-4439
-731
-1665
-2337
-3047
-2378
-4122
-1480
6740
2541
4278
-1732
-4748
388
2542
6261
-6685
2426
-170
-7
-7843
-2120
-5969
2605
-4593
-4958
8490
5009
3311
8826
-129
-4907
2493
3937
3672
1477
1945
5695
-4459
2284
-2186
8822
7192
2747
615
-295
-1451
-1175
1404
-2438
-1390
-202
12994
-89
-5974
-110
1135
-5709
416
5954
8001
-4813
-6893
1506
-1348
3576
4701
-2576
3006
-1259
-6369
9389
2772
-2283
2749
481
-1174
8147
1681
-4610
-13028
498
-1391
470
-2619
4021
-2179
-662
1269
5310
2288
-1252
9454
-3207
2147
2599
-3123
-8610
-1487
-397
6937
1291
1168
-834
-8038
-425
-2923
3022
-5260
7683
-7805
-1726
4789
7392
4061
-402
321
5424
-2643
-2250
3606
-422
10312
1327
5955
-5122
-3375
-4927
5244
1712
5069
-10062
3059
-4263
-9636
-1916
2713
2717
2285
2488
2900
-1543
7243
-3581
-4454
3986
652
4266
2638
2157
4227
-2350
3377
-10931
-2792
-2645
-2199
-3782
-5499
1287
-2648
887
-2420
-4479
-3101
-8082
4761
-2865
1224
22
-6654
-4622
2572
-543
-3498
-4482
2553
821
-8755
-2508
-2105
580
-7485
264
489
2017
3934
2083
-2822
-7543
-3940
5170
-4976
3150
3148
207
248
5809
-790
-2429
-3469
-5568
3300
2419
1473
419
3581
3016
-4973
-668
-2490
-825
-356
-7909
-1572
-4401
-721
-3873
6280
-2666
-5780
3990
1911
-1729
-2588
-1947
-941
6461
1390
764
-4027
-1023
3800
-5671
-2630
-1343
-4451
-1336
-683
-8244
-1947
-1355
1569
-2181
2102
475
-3225
-5522
-1966
-309
-5021
-2877
-2594
2357
-1804
-761
355
-7182
522
-5343
1205
-370
1222
-1346
-3786
-579
-2339
-872
5560
-1605
552
1042
6407
-2133
-6661
-4439
-2690
2658
4495
-4917
3593
-763
2769
-752
3981
7655
2919
40
-4070
-9804
-2707
-3756
-3552
2021
-458
-1512
3994
2989
526
-5178
593
4628
1628
-1044
-4659
-3450
-631
-2715
-1703
-2147
908
177
3544
1214
4106
-1478
7195
984
2398
2090
-4319
-865
1047
-3031
-197
7627
-165
-4966
6310
-2863
4101
-3328
-2747
1468
2041
2882
-919
3563
-7842
-1058
2596
-225
-1013
-2817
-13756
-5773
-4220
-1818
-1619
3952
-7775
1435
-4568
-706
5046
5607
-1541
3677
2447
-5672
-3893
-6379
-3813
2804
-13
-12304
-2143
8301
10637
-1152
-482
-16505
4559
-5471
2315
2181
3645
-1860
7157
6513
-7203
12895
3926
-2324
-8736
-3464
-185
-2042
-2804
-5672
-5780
-2335
-318
6162
-1570
-1158
162
4880
-1871
3961
-2898
-6800
-8052
12802
-878
-2908
-1150
6946
-4689
-2574
-3951
11185
540
2868
-597
-4336
-6101
1605
5714
-2342
-956
-2659
4239
-1018
3234
-3484
-5211
-9277
-1743
10085
5688
-2208
4923
3590
-6627
-7433
-6286
313
7069
2367
-5225
4078
-2305
2104
-1987
-207
-151
-2210
1637
-2743
11546
-3595
-1207
-13949
1260
-5016
-3193
-2670
-3976
-4200
-282
1675
1302
5217
-1302
5448
-497
-4065
2506
-1023
8006
5615
-1926
9634
-1885
381
1328
-1390
1723
2767
-2880
-3232
737
295
-1503
2396
-3445
1145
-3592
-2512
-4447
-1750
6335
-2349
-390
4928
-2171
-717
-2529
5264
4886
-2847
-7026
1590
-3133
7574
-7349
2590
-4647
2435
-5087
-387
-6279
6832
2441
-3000
600
3230
-4156
-7314
-4669
-2232
-4683
-2549
3354
-5601
-7774
-4632
2662
5542
5847
-2187
2102
2300
-2908
-1549
2175
1180
-2801
-5096
4889
2005
5182
-4527
851
3809
420
-5593
-550
5268
-2122
771
-215
-5282
-5342
2310
-3483
1165
-523
1852
-4514
1490
4724
920
2881
-463
-1026
-102
-2105
-7048
2727
-6847
-747
3007
1
2481
-1955
-3128
-6242
1775
-353
2427
4521
5332
-1374
1047
3051
-5384
1687
-3469
-1052
-1190
-2694
3778
-1735
-1788
3726
-1736
3643
-2026
1895
2624
-2730
-3815
2698
170
-7858
5941
-690
339
-5398
8320
4495
-1512
-654
-868
5372
1042
-2636
-1824
-1228
-3579
4058
2022
4399
-3230
-1416
829
-1496
1791
5336
-1147
-718
4549
1525
-524
-1271
912
3376
712
-3464
-1017
1308
-2524
-4883
-2437
1832
-310
-202
-5686
-830
-286
2755
-1898
3879
-4068
128
-4125
311
5173
-5540
-5637
-4169
-4665
3658
-4219
-4738
1415
-1765
2817
-4684
-4430
-9179
2762
3822
-943
-2109
3530
-7814
-2040
-4127
-50
-2271
4621
2063
-2252
3028
-1825
-564
5807
-759
-5235
-169
4064
2342
5814
-1891
-1889
510
-3786
1686
9
-3301
-4752
-2594
4543
-529
2596
-5936
4578
8859
-1743
-4038
-1558
-2120
3699
955
289
-4005
4796
1251
-765
-1431
-4131
251
-1905
-1898
-225
7633
4648
4170
5147
-1818
1376
1775
-8849
3341
-2469
-6864
125
3354
-4370
-140
-2546
1740
987
-2136
-1543
-4907
-1547
-1825
-1656
-7763
-2416
965
-3047
-1544
791
929
1611
1564
-1490
-3133
-801
412
1387
-2247
3862
-3564
6329
-65
3105
-239
-6445
2510
3633
673
-2385
-889
7600
1544
-2572
6333
-802
-4036
6307
407
-808
-2198
4649
-2461
894
-5488
-1502
1143
-3976
2200
-2036
-1330
-617
-1801
451
-3251
1786
1
6059
4528
-1392
-3912
-5065
-3216
-2240
-2222
-3015
-3325
-674
909
-1678
-560
-6455
5039
2675
-1272
-108
-820
3921
984
-6398
-6663
-17
3856
-2525
-2850
-2585
1280
-713
-2717
-6282
-808
-65
-4808
-758
1813
1903
458
2154
7262
-471
1739
-4378
-5229
1213
2875
3493
-791
-5048
263
7989
-3903
-5045
-7683
-1922
3339
-9291
-581
-370
374
-2369
-800
3396
-1469
4145
717
3106
-2037
-4549
-5237
2624
-2837
-2578
3375
-4008
-4759
4199
-5018
55
-8267
-1403
-1834
-5344
-843
6270
-2081
-3852
-3099
3475
-4123
-2607
-2216
4998
-7957
-695
6446
2951
-435
836
-4478
3126
3445
-696
3642
6470
-323
-4770
-4617
-1330
-363
-405
3541
-614
-1384
270
1175
614
9748
2221
4083
3869
-2901
-437
-6358
3728
-4075
-1219
4839
3645
-1881
2906
2048
-2901
4566
-1427
3569
4777
2469
3003
-10916
-10603
2804
2944
-3377
3215
-318
-3724
1427
2180
-474
1476
-8049
16368
-8239
18178
-11820
-4506
6306
-6000
13295
2352
-2340
-2294
-20770
10951
22440
686
7884
-2008
-15000
4242
2942
-7181
6078
10641
17362
-7876
12308
-7739
-9738
6150
-233
-16175
-8018
10607
5861
4903
2589
2140
-1428
11759
-3305
11240
13596
21636
-6171
-7924
-11102
6009
12176
3392
-21833
2205
14726
-11625
-6
-3187
2467
6585
-3905
-16456
-7219
-1238
-9842
2567
8957
-1258
6305
5298
-11127
-2277
-844
-26027
9040
26279
-4098
-12575
-4357
-14139
-5109
4457
-12142
5475
7237
10984
-5213
-32767
-763
1416
-5903
-24366
-8452
-16460
3102
-3361
-15384
7930
-717
-552
-3286
182
-4694
-9299
17671
-5357
-3954
-11801
-3841
-6146
-5276
-3178
-2646
-6779
2668
-5649
-3958
-16117
2868
6566
-9149
4549
-14981
8757
15522
-5702
-5538
14117
13394
-2510
648
7085
11911
821
-4487
-6429
-5446
-5901
6040
14733
-3586
-72
-7605
-13775
6681
225
-13821
1235
-4810
1167
-3547
223
3755
201
-10569
-3885
-11048
-11660
-3661
-2083
2894
956
-4760
-2898
1659
-731
-926
-4519
359
-2790
1998
-3415
378
-3705
7073
11064
-2877
-704
5603
-5555
7647
4688
1243
-4587
730
5198
2822
-2591
5791
6837
-2228
2811
-1998
-12701
-2160
-426
1826
8768
4336
-4552
-423
4863
-4493
-2406
-734
1344
425
5165
-9850
-2599
-3781
863
-8802
-114
-446
3575
920
-3014
-3272
-5941
-2727
-2553
-3144
-3096
-11759
-4345
8371
-1368
-7082
-3060
3004
4915
8987
1745
-4697
2739
-1492
-81
-3832
-176
-4285
6498
3437
-4803
-889
-8286
-594
17098
-10770
-5839
-1556
-159
5726
-10554
-2648
10295
-1378
-5490
-4363
4295
-390
-122
-3406
-3229
-2326
-7700
3132
-5216
-2394
1342
8565
4041
10651
1526
-5933
-1369
2218
-1558
-6351
-1378
2089
6515
3137
189
3383
-6299
-3592
-787
-7308
2218
-5745
4424
-1909
-708
-7783
-4491
2714
-4463
-5591
-1613
1565
1973
-11411
2643
6327
3870
881
-1998
2635
11473
-1786
-9464
2537
-5428
5218
-6236
-531
-4381
-4275
1121
-7101
1571
11110
5997
-2029
6709
5641
-12884
-1896
17
13419
1277
5290
1391
-966
-4663
9623
1968
-1742
-1668
4681
3684
6490
-11170
3573
-10618
6474
4916
5526
1431
9282
-10541
-3867
2170
-5748
-3716
6810
-344
-3051
-2611
1715
10960
856
-8655
-5452
3980
4227
3166
912
2532
6001
-744
1641
-6460
-12950
-9929
-1489
-841
1031
-10381
846
4858
2074
-3672
-1921
9036
6167
10700
7627
-1375
-4764
7182
6937
-9419
-2785
15024
-4268
1161
-4969
1768
7373
1217
-4429
1630
-2757
-3689
-7949
8597
-1741
7348
-5763
-1718
-3199
-5302
-2590
-1265
1945
-525
-5296
-6725
-5720
3787
4237
-463
-5598
-2233
1699
-2721
-5065
-2969
-1843
-301
-2738
8103
1257
7722
-2221
-7251
6974
5838
-1858
5525
-3945
-2673
-4240
-4035
-1998
6318
10138
5918
2893
6220
-142
-10410
790
10313
-1222
-5160
-2898
1067
2823
12363
-9810
-1821
4251
4535
-8756
848
6673
-5670
-4482
-2749
1500
-930
-3870
5006
-9489
-5133
3316
-3242
-209
-4506
2329
-3323
1959
-110
-502
4393
3196
-3950
-703
576
2705
-400
225
-2743
-1658
-1085
-2051
2564
-4486
1782
-3880
4708
-1147
1967
-2356
1391
-4581
-1012
1575
-5990
1766
-1448
-81
-1314
-2168
-8
-2575
-651
-1039
2790
1314
-773
4080
1192
-1025
-3707
-504
4289
-1805
1995
-364
3150
-4109
-2379
-4437
1494
2566
-1572
-6220
-1157
-707
1280
367
-740
-1567
-10245
3244
-1410
-370
2307
38
-1137
1170
579
-385
-2080
-2742
-1356
684
102
-1518
-1855
4739
4145
-3324
1323
4876
-662
-5974
4646
1872
1112
1648
-169
3709
-919
407
-1838
129
1440
-627
-4973
-7683
-549
4576
-3255
-1886
-1125
-164
-6199
-614
-4309
-2451
1535
-5099
5898
-3322
-2585
2079
-3567
-3974
-3230
-3887
-2582
-10947
2261
-3425
-2596
1057
-2839
-1882
908
2676
249
-1691
-2860
3382
651
-479
5842
1089
-2811
-4506
-7939
-854
-3305
-6897
1760
871
-1295
-2412
-1590
-3346
557
61
-72
3815
-1401
-5824
12041
-3816
-10789
-2260
1522
-13082
-13133
11980
-4095
13717
2896
7429
704
-12703
-11641
-7470
637
-17160
1461
-542
3851
-3440
-20812
-4470
2437
-5586
702
1432
-3188
6322
11503
2803
5969
-9494
1929
10058
4841
-10857
1438
-15083
10998
-495
2340
3589
-2221
5526
-1988
-13987
2945
-2892
5855
-4801
-5208
-15212
6263
-11418
-9942
1076
-1945
-1891
6439
7112
-234
-2877
-1049
325
-7562
-220
-1604
-2222
-5276
7498
-8434
13055
2341
-2460
10557
6815
8837
-2483
3783
-9451
37
-4153
-10780
5924
4050
-5057
2791
3551
-205
-3315
16
-3501
-1874
-12739
7109
-4325
-1199
635
-1607
8088
5684
-2863
8094
1484
2591
-12019
-1754
-1769
899
2465
2811
-5087
-6304
-2614
5000
-3156
1558
1998
-10199
790
4772
-2494
-738
-2240
10187
-14583
5241
-266
-1336
5324
-5245
2197
3956
-5757
691
9840
-5286
3644
9895
4846
3315
-3135
1154
-3233
-16435
-12100
-7
-1484
-11471
-5016
4545
3727
-8079
12566
-887
-1377
-5480
-12950
-5032
-2439
-2489
-456
10903
-1659
724
312
3840
-3077
-5023
-2528
2351
-4388
-2245
-1084
2642
154
-3643
-1307
-2830
349
-2222
-5585
5925
2809
1562
-2458
2163
4005
1066
-854
-1668
724
-47
-2067
-4865
-833
-4613
-5514
-767
-1192
2364
-2772
-5318
557
-1676
-6492
-2605
4180
3440
-1122
-3803
-2372
-1243
-3123
1877
-1889
-1199
-1343
143
235
-4704
-1002
-4081
1303
-5086
2319
1810
-2770
1815
-1256
-4561
-209
-1337
-2055
-3573
160
-1239
-7120
1628
-3454
-1446
1611
-4633
-2566
5057
-5043
-611
-3346
1394
-2908
-1802
667
1891
-1224
924
92
2239
847
483
-4926
-2092
-6495
327
3297
-1730
-752
-2129
7900
670
845
1259
-2891
-3977
972
898
-1077
1135
-885
-4953
1292
-705
3785
2264
-1188
-186
-5605
-635
-2472
2262
2702
-7244
1837
791
-2176
-7604
-1321
422
2023
-2327
-3785
-3067
-483
-1552
1359
-1199
3393
3256
-3086
-5327
929
2679
-669
3281
-1198
-126
3123
1541
-10818
784
1456
2526
-5510
324
3681
164
118
3974
3994
-5977
1297
1700
-6008
4026
1620
396
-2642
841
-4873
-5344
-1565
-9085
997
1855
1142
-1363
736
2086
-5214
2646
5997
-8022
-7353
-1522
-169
433
-5856
427
7969
625
-6984
-1579
-2344
867
944
-3743
-6784
-1992
5662
-2184
5522
-2026
8897
-4747
-7493
4001
-7478
-6665
-4993
-968
3030
-1368
-5085
2150
1305
-2087
-561
152
2452
-231
1502
-3826
2547
1306
-3002
-3772
-3079
-3529
-1608
-827
227
981
6084
-258
-2897
629
4929
-9187
-9054
657
-1815
-1276
1899
-1843
919
-5604
-572
4011
18
854
3182
-2481
-5114
844
279
-1885
-590
-533
1627
-672
4039
206
3033
558
1418
-6388
1875
-5606
-703
1435
1909
2182
2591
-394
-6848
-284
5340
344
-859
-8388
1250
1025
-3203
5198
866
-2802
-3387
462
-4041
3792
-1510
-3441
-1655
-588
-6326
-3197
1691
1849
-518
-3346
-6117
-6105
1130
-1741
-3991
1319
878
754
-2770
-828
1936
-407
-107
3195
-6105
-1922
-235
653
2145
2739
-1630
3115
-1238
-7403
3467
-513
-1540
5639
-10167
1684
-4621
210
-3658
-3127
-608
-4200
-3253
-238
-5921
-4860
-3152
-2648
-5374
-2589
-859
-2894
3694
-1319
1071
-524
-1499
99
-7262
3355
-970
-1961
1834
55
534
-4953
3692
-1807
-2567
1671
5016
-4162
-4337
5496
3978
-149
-6018
-5499
-8135
4328
-1255
-446
1770
7091
3653
-863
647
1253
5021
3083
304
-1251
-3246
-4775
-3659
-6123
-4947
-4845
6734
-2393
2841
-8461
-2229
1617
-3298
2661
-4453
-6381
4217
-117
-3262
-7320
-4731
-4353
-1978
436
-354
-3067
-6261
1984
2583
-788
88
-624
-6627
-27
-7596
-4467
-1326
-6165
-5065
-1894
-1246
4559
-280
-1835
-8206
-6243
-526
8100
-441
4970
-5694
634
-4526
1438
454
-1975
-3501
578
-6666
3947
6339
1469
-6061
1404
-4355
-3677
-7666
-4768
-4337
-3105
1933
5915
-2243
-4890
-4436
-6996
-66
-5606
8665
-280
-1357
-1451
-7306
163
-4259
4960
43
-1928
3077
-9451
-352
-2805
-1385
1274
-2321
731
-2788
-6923
6714
-4073
-379
4027
2628
2009
794
900
1379
8118
4534
-8412
-556
10515
-459
7947
-3552
-1754
5932
-1769
-5543
801
-9737
-7444
3556
-4560
-4870
5852
543
-3986
44
2045
429
-5781
-1019
-2808
2192
265
-1021
-8367
-5694
2689
-11722
2088
-3333
-3069
-663
-2772
7
-5917
-8568
8506
7817
-336
-7236
-480
-2741
3122
-3941
-191
-7262
9494
-5118
-4344
744
-5081
-1843
-3610
689
1526
-10431
-3311
-1854
-3771
4277
-4098
1415
-3490
-9482
8569
3908
667
-4935
6857
-3116
3317
4188
-4497
-2832
-1717
-8994
91
-13992
-51
-3326
-1780
8507
4358
-5848
-7870
-724
2174
-620
-1231
-2386
2742
-3302
-1092
-1361
5020
552
2237
6126
1241
1981
-412
2217
-7835
-5597
406
-2266
-4100
-3750
1073
-8640
-2687
-4021
-1893
410
-9489
1580
362
2584
-6013
-5134
4546
1788
-3392
-5365
-751
-3822
2191
2026
4293
-1220
7206
-4974
-850
-7493
-9324
3476
-10595
4959
5396
7670
-2369
1574
-2387
6525
4421
9363
1584
-8701
6520
35
7081
-4201
-2351
4664
-898
-7470
2074
-111
1135
-245
-7684
1485
-2909
-6627
2538
-4409
-7838
-16753
-6908
895
3920
1230
2478
2402
5513
-4643
412
-8443
-58
-5790
698
-3159
-4427
-98
9254
-5698
-934
5003
1701
-1286
2179
-261
4059
-12707
7750
8469
-427
2046
-4742
-8271
-6443
7524
1396
8857
1366
516
-10891
3390
-1173
-462
3003
-13809
-2890
-7387
-2014
-2735
1441
-1062
-1296
-3014
3902
-3070
5511
-7449
-4780
-3038
-5388
-6095
9611
558
2879
2098
3391
-5723
-503
73
2370
5614
963
-4364
-1080
-8386
2111
-1699
-5562
1554
-7222
-1828
1542
-2180
-11548
3452
4527
-3015
-1474
5959
9847
1889
1736
1035
3504
-5131
-10448
1924
4244
36
-6209
1588
-2046
8756
-2693
-14852
-1227
-19434
6675
-772
1584
1825
3869
-4666
-3077
-5504
-5352
-5418
-1472
-1439
-5440
-5448
-4110
-2313
-6531
-1139
-5679
-2245
-1194
-2332
-779
-3477
2609
-3845
2304
-3698
-3375
-3669
1410
1847
4328
-3455
347
-2946
350
-4022
-8654
-5952
1672
2849
658
-4501
-1577
1000
-824
-6768
-2420
-1053
-742
-4536
1247
-2206
-1229
1499
1170
-7130
-3236
-2646
-2714
-2848
-4285
-2471
-3288
-1131
4943
4172
1483
-424
-1036
3888
4533
-3950
-2108
-2876
1382
2794
759
-3128
-1442
-2776
-3709
1550
-2327
2671
6020
-4348
-2984
5668
1045
-884
2518
-1240
-660
-2465
4459
-3370
1216
844
3053
-4408
1126
-1507
-2265
8169
1338
-1163
887
-4157
1800
-2852
-1923
-664
-1731
-2341
659
-6409
-3568
5675
-1559
4069
-203
-176
-4709
-501
-2806
-1885
-831
2127
-5117
306
223
1731
1891
-4127
-99
-9966
-574
-549
3944
-1666
1475
-1461
-904
-5
1830
-2721
-507
2664
6590
-7083
-2373
-171
-2762
-2452
5863
1321
-4378
-2208
-1181
-262
8058
-2637
818
-5461
-6700
-1955
975
966
-2460
2228
633
4696
837
-3095
-6448
2774
-4907
2158
-6769
-1788
-5300
6184
-3934
-2392
-5861
2268
3806
-3048
1986
1285
-2364
-1906
-8829
-262
1622
-1886
3912
-1726
3095
78
-633
-6666
1076
1179
1105
-7838
-3812
-9692
-3019
3771
-397
33
-3181
-4233
4830
-1029
-2765
920
-4702
-5812
420
1736
-13
-6845
4656
2863
893
-4840
-2524
-1004
-1391
-3511
-592
-249
-7111
-294
-6956
234
2264
3205
-2740
1724
-1035
-3734
1131
-1250
120
-4262
-2690
2069
70
2738
793
-9120
-2354
809
-2443
4090
-3772
-1211
6113
7308
-2825
6632
-3205
-5615
-6184
-2749
-2809
5251
3365
4146
-2013
3922
-201
-6461
3639
1167
-601
2778
594
-157
-2440
-3177
-2597
5430
2057
-8242
3154
2927
610
-1005
-3269
555
3128
2704
-455
5890
-454
-3654
352
683
5579
-2129
50
2602
-6045
1357
-147
634
-10305
-2281
-1146
694
4515
457
5605
5993
1504
8115
-6967
-3313
2004
2786
-6627
5215
-5846
-1412
-5838
-3433
-1526
-2220
-5036
7381
-12957
1570
-6631
5165
-8251
-3948
-2270
-2650
-9729
7002
8811
-1119
6033
-3045
4518
-4144
-13653
-6610
-6403
823
7249
10891
3580
7866
-9655
-7852
6397
427
-18422
-8547
4542
-8908
-1662
-8344
-14419
2726
6280
-5436
-2955
-151
7413
-7000
8375
6701
-5362
-3372
-8669
8670
-780
8821
7463
-2686
3953
1758
-225
-9373
3010
5314
-18775
-1727
2227
5329
-1599
-2150
14878
3473
-155
7889
2856
-11315
-15277
-4132
-1305
-1826
9025
7956
-8879
2119
6689
254
-9953
320
-1837
-7316
-12582
-3256
1877
-7207
1173
1669
-8696
1522
-10401
1212
5596
6331
5879
-2328
2914
8756
-4810
3037
975
-3046
2877
2189
1438
-1657
180
-2740
-4790
567
-2740
-8397
194
-631
-3631
-3793
10084
3363
-10041
9205
13060
4317
-1684
-716
-596
4800
-7642
-3205
413
-146
4873
1530
-11492
-6740
1205
4364
-1427
327
8253
2126
-3752
4386
-12115
-8507
-14674
-3607
-5998
-1171
880
-5650
3534
636
-5489
3181
5510
130
-1712
883
-5937
-2711
554
-427
-3757
-7684
-3646
-519
-810
-739
-7345
-2819
-404
1801
-2342
-2218
-4050
-5795
-973
-125
6470
1873
2933
-1872
-1295
-2451
77
116
-603
-2314
747
-307
-2602
-3362
1873
-4355
1109
-4604
-2230
-6022
-3508
1552
-2593
-3835
2948
-3403
-6675
-2083
