3038
1365
-2223
3107
-5580
-4690
5294
6550
-7441
-118
6580
11117
-9524
-2018
16069
-4692
-2994
-150
-858
6532
3462
-3553
-6348
2530
2675
3393
681
690
-4516
9006
-748
6647
1928
795
15838
-5549
-16166
-4237
7028
8415
-2839
5580
11961
8314
11976
-11297
9981
-179
-7328
-8127
-13837
9372
3844
6825
9787
1020
-8777
-1480
1533
-1408
5318
1470
3251
-3683
2262
5098
-3130
5190
7823
455
-1199
-6703
-346
-4774
2112
-7667
-9441
3424
17043
-9319
3260
11359
13378
12713
-328
9611
2102
11398
-62
592
5495
-1980
3083
-8000
-7617
-7121
-1393
-1351
13424
1530
1574
5425
11388
-2557
999
-1864
555
-2046
574
6067
3543
995
1276
-9266
-8503
-2744
-5371
2040
5076
-6731
-6913
6184
-1168
1203
4566
11426
7704
2088
6936
-8198
10752
941
-5177
3313
12769
2518
947
4995
2556
1577
1325
8466
5241
-6053
1234
-539
-2535
-3636
1124
12133
-9610
5607
6640
7830
5723
2833
-1485
5851
5489
-838
11319
-4751
-1403
1334
4539
-169
-10942
1087
1515
6851
7073
3262
-3299
2076
-776
-14045
-3149
8466
2479
-1403
4086
-5573
5997
-8622
2169
3289
13219
-5741
2272
-11559
551
2004
6297
-2665
8300
-5381
2203
-8149
564
1364
-3791
5369
-1911
-1402
-2648
-2622
-1417
-422
2869
-1985
1679
638
-567
844
-9355
-3149
3981
2846
-3463
3311
308
-1901
-6070
-3058
-4983
-6611
6476
-6001
-9102
-8754
-810
-6109
-898
4224
-8015
818
1727
858
13435
5861
-4832
-8927
2834
-7907
3
10669
6234
-4946
-621
-7947
6760
914
-2116
-1972
1409
2537
9050
15498
-12705
6027
-4748
3782
5510
769
16253
-4466
12666
22007
1879
-4701
5358
-3059
-2647
-5262
-1210
7762
1567
7281
-3657
7683
378
17948
-4056
-5917
3822
9382
6643
7797
74
8969
3022
983
-12474
-855
-5362
-10715
12675
-5227
9337
7164
7825
-9356
-8054
14416
-638
13463
-3242
7071
16383
-7330
-7813
4293
-258
2373
6108
-5517
-2546
-2920
-4898
-9279
9755
-291
-8142
-834
3115
1320
-1627
4602
-9605
1987
-5958
11054
12590
8021
6888
-6531
3311
13067
-7231
12045
6242
-8271
6091
8367
2601
3625
-5167
9
-5368
-1229
5055
-5534
2880
7019
-1156
432
2747
9292
749
-1925
4708
1087
1956
-160
130
4588
-5740
3664
11964
-4532
1829
-93
3189
-19343
7207
3541
-10701
5860
6876
-1724
5873
13107
4386
3652
-965
-3849
7981
16536
1242
2150
486
-2314
4843
-1047
-4368
-2635
13371
8121
1420
-10226
10297
5097
-3238
146
-10849
2412
-5246
-6011
-6289
-5054
8740
-9136
7884
-3373
-6438
-5966
6524
2889
-4511
2838
-10331
5274
465
-3939
-6959
7840
1742
-1225
-2504
7658
-10696
-20305
-9037
-16332
-6170
8094
7146
-5772
5342
-1491
3062
-6553
-3067
15019
-2038
3854
-8601
4860
1644
-1981
853
-2809
1263
5888
-4736
-667
4855
-13973
-14095
-4151
-8761
-14798
-4278
-28807
-12553
-8998
-5794
-8473
11153
-13356
11233
3284
4482
17587
7270
-2952
-16252
-10079
-2874
12874
2281
-319
10628
4477
12358
1198
-6186
-6778
6556
5259
-1297
9697
-8039
2190
5557
2846
574
-3342
15144
-892
2330
6014
-6401
-2541
-3253
-19427
2997
2005
-10429
-10730
-2008
-6637
-11007
-9790
-4921
1380
-3296
6414
2148
7775
-4639
3200
-9360
4632
-5369
6866
1774
2328
6891
6727
3426
21599
-1655
10945
-1696
-5250
9122
780
1408
-921
1593
2196
-2852
-11394
-3105
7661
-12808
-2781
15655
866
-852
3565
1651
-2284
-3240
-4067
5316
4055
-1253
-2099
12336
1531
8902
349
5727
6414
-10231
-8970
6499
7070
-8088
-1382
1223
-3647
3172
-10247
-13870
11545
7737
-4240
-4775
-9454
-277
-4048
-3583
3996
-18037
-11750
7240
2828
3739
-9455
-3053
-3677
17256
-798
-11493
3776
-13124
9259
7990
-6842
6700
-5340
4042
646
238
3202
-15592
-216
10449
13464
20359
4142
-1383
-3875
137
-7058
-10908
4287
1532
-9121
-3220
5662
-3
8822
3532
-1348
4496
6166
3545
-10413
-43
6045
-6506
-1546
-478
-10278
7217
-6393
13574
9300
9120
-1945
6536
530
12332
2854
9124
12496
2455
499
1301
4399
6641
2775
-9284
-1341
6876
4255
1309
-2464
1788
983
8807
6119
4347
-1580
-6222
2360
-9430
7436
-2406
4382
-824
-8017
-9754
-1397
4134
7667
-12370
2133
4055
-6988
813
9410
5700
3351
-742
5197
5096
-1787
-7560
-3064
-3804
3450
-5660
-8831
-7135
-5094
4200
3300
9771
-9607
4231
-3364
2467
-508
-649
4803
-11718
-10664
7590
691
-1880
6793
-8498
-8933
-1009
9545
8064
-11105
-4072
6507
6230
472
-5052
123
-1862
3317
-5616
5551
11136
-9663
-1885
-7290
-3478
9545
6583
-8771
1912
130
-6689
-1497
3145
7702
-2346
-4355
-2604
6286
1046
3389
1474
3791
1938
-2154
1986
-5350
2968
-2161
-155
4866
-1834
4435
10214
-6225
509
3967
536
-4170
10106
-10984
9818
-14342
6778
-8621
1704
1785
-1865
13095
1144
5689
3898
5082
10341
11388
22919
7494
-21630
-7864
231
12745
3284
6802
15070
8618
2905
-2036
9243
-16789
-24120
19369
9406
420
-4012
8544
-3749
18701
2640
9263
-5896
14396
11529
-9700
601
16841
11107
11071
-2804
-6767
-14320
807
9013
3105
8730
-7893
-2537
-5587
-1962
-5206
-940
-6089
-13494
4679
12162
-21662
7087
-2122
1228
-19469
-16
4160
9459
19593
-4449
1862
22819
17037
1821
-948
261
-3907
-133
9759
-6046
6986
-3020
1971
628
14478
-10963
6426
3496
7849
-1404
11704
-3001
-8966
-4628
-4338
9184
-10294
-1309
-6506
12530
5289
-12327
6909
-6526
-547
-3326
1192
-5105
10449
-11650
4519
106
-6374
-12319
-443
13647
-1309
19426
6815
-6120
6396
2713
748
-2689
5189
2216
1812
1038
8895
-4599
11547
7585
-4670
-2028
-1463
4408
3825
-2355
3650
1324
11535
-14477
-6349
6930
1140
369
-13675
3075
3445
-12105
16749
-13155
5437
2936
4579
15402
12694
14207
1787
-1259
8335
-13519
10364
5593
-1136
-736
6613
5681
-2447
6437
9789
-7416
-17752
419
2524
-1724
-2462
-1095
-4117
4304
9392
6484
2715
13081
4551
11720
-767
7667
2459
-5514
1476
-523
-8383
-2131
864
5688
-2232
-2480
-2062
-12547
-1665
-9190
3058
-358
-4505
12391
8234
-870
1331
-1543
-10990
7024
9104
-18382
11096
15646
10090
-7834
-12435
-14805
1677
-687
2042
214
1564
-11765
10862
9308
20187
-9791
6025
12665
-1330
-624
1197
3730
4722
1866
-11844
7249
9940
313
6942
7457
10620
8147
-19285
9236
1968
806
-17643
6679
4731
5520
1889
9782
-6105
16938
2208
-15585
2509
6250
-16239
-5811
98
-2422
-644
8297
1690
-4964
3679
7182
-4913
7856
2636
-3903
5795
2551
12899
1754
8017
-2053
5300
-1419
3794
-3231
-26313
-8298
-11220
-8761
5768
4984
3298
664
-4658
517
-6974
2248
-3361
4802
-13494
-555
-10670
339
-9926
-9440
-1069
-7575
-3511
-756
-5450
264
-12515
-2543
-2915
1011
-5110
-4034
-5671
7808
5951
245
-2019
-274
-10490
96
-13327
-5039
4498
-3868
17290
-8215
-13566
-7317
2940
-11944
-9434
-8566
-551
11280
2763
10719
-4431
3143
5609
9230
-6144
1139
4086
-7944
5311
15513
15376
6009
-2
13905
4194
5045
11213
12185
6030
3806
-3063
-12687
-4550
1893
4416
-2066
8336
5964
18404
-2871
-4295
7896
-5170
24148
8668
-900
10023
2945
-3014
-5426
-6358
-8164
-495
-7207
-11184
1728
-2754
8805
4551
13158
-7281
-11268
8507
1665
-10674
4174
-11545
-4594
11423
-5790
-4899
-6220
-1256
-846
-11149
3942
-1263
-1489
-1394
7294
3062
-11737
4311
-6354
2927
7076
-488
-6527
5445
-2261
3769
3546
11750
7701
940
-5112
-543
-5482
3435
-6389
3260
-2318
975
-10151
-2930
-3504
15456
3283
2099
-16854
6661
652
-6236
-7273
-9756
-2899
8849
8248
2200
-11934
-141
-9663
13697
7000
5319
-5049
15695
3296
-12662
7357
-9592
-1453
-4519
-4659
-228
-6150
6334
-8108
12222
-10402
-12276
-3186
-5320
-3598
1069
7669
-7712
4780
-10359
-6625
4387
-5198
-10687
484
7354
-3729
-12374
4144
-9652
-6276
1375
-12933
-7444
8983
-3667
-1129
-210
9783
-366
-5835
12453
7741
-8575
-6159
11981
-8298
-4281
-4963
-8685
-127
5234
8154
-3605
-1764
213
3402
3721
6602
-4687
2217
-6461
1129
-5088
4805
-3124
-2617
2173
-9111
-2579
-11415
-13879
-11063
974
-12286
-4161
1342
-14020
4283
-3803
-26903
-16531
-5937
-3332
-4521
2274
-10497
-9453
2853
13989
-2384
7090
-4876
-9585
8780
2315
-4629
-1300
-1980
9553
-6500
5330
14274
8983
-4197
-635
11180
406
489
4538
111
-2498
-1828
-2599
2335
8426
3693
3679
491
-14986
17075
-7878
-3567
-1462
3434
8198
10120
4088
4007
-9035
-7496
-13026
-9462
7279
8057
-7402
12791
-6097
-18237
6639
10930
457
-8251
-1731
10159
-328
643
16089
2997
-6864
3813
4426
13815
-17335
-3745
-5353
-260
-7706
-13774
-12994
-285
-1065
-875
6140
5962
7784
-9726
-2222
1591
-657
-10682
6205
15769
14942
-1743
406
1511
-1051
-16770
5339
20412
-2732
7059
5640
-13678
17123
4525
-7055
887
16514
-879
-7682
4384
5172
-10340
2857
9432
2800
-5034
7696
-2036
-5149
-5457
-4666
18432
5466
87
-4718
-11920
-3388
3351
-5655
-11454
-10328
4191
10124
11073
-4780
-2370
2151
10472
-5706
10883
5003
-5068
15612
-7006
-1634
-5564
9235
7759
-4928
2533
2920
-18006
10827
1064
1864
18079
-256
-8918
-470
-4434
8586
-4684
5658
-6424
-4825
8292
8354
5729
1067
-2421
6208
-13944
1968
-5054
1757
-4074
8473
-14469
8760
6881
-1126
-54
-8453
11202
-13477
-7717
7111
-9787
-15708
8744
4142
-1437
-8736
-9859
1075
-12694
-3231
40
10087
13354
6558
-4721
1775
-2036
6504
10603
8441
7412
1965
-5736
3102
-3322
-4039
6425
-6822
-5623
10742
4368
4165
-9711
-3418
-11562
-920
11736
8489
4150
-13845
18288
-5137
8756
-12595
8222
-8248
1284
7850
10401
976
13347
5091
-15178
-3487
-11518
2041
-2550
-11935
-2558
-1309
-5042
-13229
7576
9400
3491
-8751
7868
3508
-1138
5403
5862
5318
7356
-2782
6120
7155
3482
22611
-15420
-10807
13378
-7891
-7705
21290
-7377
-11101
-3166
-9
17457
1246
2865
690
17036
1858
15621
-2232
-3042
-2645
9102
-7538
-2246
5005
-3558
-9389
-5059
-8346
7711
-10164
-627
14772
9209
2788
-10578
17243
-1342
-7983
10819
5805
-19129
8100
1316
-4092
-7735
3907
25939
9823
-26244
-6473
14394
5286
10239
-10268
3045
-9430
-9441
2650
-1128
-72
-4792
-4874
-8525
9041
6195
-7091
17893
-700
-3426
-5365
-1364
4773
-9918
-16018
-5969
-12279
17912
488
5535
262
-13871
-4220
-1057
-3965
-2673
-5812
-6717
-6312
-4521
8636
10107
46
-5955
-8190
7159
4407
5814
15442
-2566
614
-1672
-5372
13603
-6366
3307
-4786
7907
4973
-9134
627
-3953
-6536
4847
1801
1506
-7159
2212
-4755
4695
5702
-274
2596
10054
3079
4256
4244
4340
7134
-2392
-4495
9304
1386
1225
13355
-4633
-4991
993
12973
1112
-18958
-12483
-2708
-1736
10216
2206
-5077
4860
2515
7638
2502
10673
-9925
-1456
6163
2028
-5855
-18010
12834
-10768
-4492
-6807
-10411
-13885
12119
6157
4174
4955
10722
-4777
-7074
-5010
-12264
-7936
-11840
3570
3679
-2538
-868
-7247
6885
13109
4668
-882
-4481
12629
1642
-15608
-1035
-8596
-3116
7444
1846
-7273
-2622
2599
-10792
-7580
792
3963
-4151
2013
-2390
6673
-1983
-498
-2414
-3925
6152
-8137
182
5998
3015
842
-2658
-9558
-361
2510
-10766
132
2588
-2176
-1760
6659
-1784
1924
-3264
-3139
-2475
-3457
-117
2082
841
4049
3083
-222
5826
348
1531
-3041
-3004
9177
-1178
-10653
-919
2998
-1201
489
5669
5043
457
-4555
3840
-4176
-2207
-4514
16
6363
2326
-2329
2543
3253
-1462
-2900
-7555
9972
-2634
-4516
-1886
-4622
-4560
-2717
-7158
-6556
-1772
-1706
-9220
4770
725
-2395
1444
-3282
-4258
2238
-2227
-1236
5457
-2150
-12
-4787
-3252
-2841
-781
-6561
-5923
-2129
-3786
-1313
-4204
-7373
1749
-2586
-3189
5788
599
-2303
-8231
-13218
-4357
-883
-1363
2827
-1355
-5823
1087
304
-3697
-1229
-2646
366
-185
-6635
-1366
1178
-1020
-3512
4550
-1275
2495
-498
-2063
33
-2307
-3761
-3909
-7852
5711
4328
-15871
1469
-4043
-9069
2085
9562
-14212
6548
2711
16097
836
-12586
4907
-6093
-3661
3691
16451
-7415
1304
-3087
6095
1760
11548
20740
10392
1741
-4599
4315
3376
1148
-6206
-56
-4832
961
5541
-13100
614
740
1977
-1812
847
7328
432
11809
-23395
-3511
-1227
-1593
-957
-1446
5228
-5237
-3044
-1782
-25051
12772
-16599
-12231
3740
11106
-10631
2170
-2282
-5893
6840
5945
2814
-2390
-1805
1884
-2160
1208
-3508
14550
3519
-3761
4149
-11645
13895
8132
4417
7122
5431
2148
-14149
-9214
14967
-14566
-9465
2286
-3828
6609
11438
-1668
192
-7321
5017
14120
-1498
-8556
3911
-1922
-4791
-2089
-9143
3944
-7494
-1070
13012
9020
-3123
-3022
-11010
-2912
-1350
-6616
-4005
-5990
-12106
-4180
-19461
-6487
13350
13882
4445
5862
-4830
-8112
4754
-15920
-6895
3339
-14516
6831
-493
-5439
182
-12410
3308
-630
6736
1862
-6560
-19500
4838
-2181
16157
-3070
-6400
441
1638
-4512
-1413
4073
296
-11406
-4259
-6918
-2870
-19130
381
6171
3996
-1678
-11098
-2100
-7469
-16150
8139
-2849
1827
-7954
1630
-8220
7630
-4774
783
5534
2876
9050
-15495
3457
17338
6134
990
7112
-66
7501
-4366
1236
-1134
8441
6778
4633
-10543
-3791
-16561
-10329
1942
-382
-4555
5902
-2557
4056
7704
12393
4828
2318
242
8076
-368
-7207
-5118
1111
1296
-8937
2338
-2066
-8978
-7676
7027
9485
-1014
12376
13799
-3190
6859
1139
352
-9887
15262
8750
-3336
-6014
223
-8301
-6769
-3062
-11875
-11888
-4017
11850
-1169
5254
-1748
-5262
-4660
-3990
9791
4424
722
-15231
15356
-3403
-12035
-174
3884
8273
2516
2809
-2346
3208
-7272
289
757
11306
4173
-3231
4914
12071
-1633
9279
4462
-1273
8437
15931
-1845
-1988
7693
7302
-3012
-7985
10779
7827
385
4367
15275
-4164
3510
-128
3868
-4777
-2898
723
-3610
2356
-1957
-12620
6070
-2400
1078
-3698
519
-2559
2362
-4860
-6775
-1819
14559
-3572
-3314
11531
6163
-5297
5539
-1945
-7200
-2505
-1078
3445
-8978
4408
4406
-4632
-6370
2379
815
-9525
-4103
-1190
6724
11528
6062
981
-3462
5580
-15377
1539
8825
3474
2037
8349
8048
2639
-9469
-147
-4394
7622
3987
4187
-2033
6733
5436
2326
1759
9343
-5135
-10559
-3171
8288
583
-638
-4599
-6953
17989
8485
10105
13247
7368
-6021
1318
-7126
-10806
-2815
-4699
-4733
-3038
4618
1364
-2400
4668
12674
1886
6157
-7181
18177
9862
4198
-4562
-9636
-332
-1341
-5712
-8202
6493
7960
10279
-10994
-3847
-6937
-13408
-2552
9743
5913
8409
13801
-7235
2323
18048
6310
1363
-9920
1849
9413
4599
7632
12992
2738
-7997
8574
20844
-6279
-14109
-22788
-4079
4292
-4735
14402
3021
-3446
-6709
-4327
5150
3076
-14111
16443
11855
-11855
5098
1675
9284
8905
-12153
17571
6692
-788
7535
6116
-724
12069
-7835
-9619
-1149
9197
-16302
18878
-16290
17869
5569
3371
7730
13284
-4664
2178
18528
-4819
-9352
19427
2795
-17912
22186
-389
-4087
-5230
3014
3731
6134
12192
-9171
-6927
3642
-10004
16745
12150
728
576
89
8733
321
-3580
-1078
1798
10849
9939
-1248
8537
2870
10129
2590
11839
10716
177
3358
2578
483
15476
1560
2523
-18310
22942
-2774
3555
-5466
-3176
977
797
3027
1705
1681
-957
5210
653
6475
-2331
8496
3747
6867
4563
-650
-728
502
-5513
-6829
11940
-2360
41
-3521
6573
-716
3498
5894
-5701
-2710
-345
8631
-3677
-2078
4424
-5157
2931
4578
7571
3137
918
-7357
3506
-3212
1167
-3900
-1910
7118
7417
-905
-8007
-1246
1
-4461
-20
-952
-2568
-2784
8115
6883
2764
-248
-2713
4559
2800
-10473
-2237
-333
-3030
6796
-5780
4125
3936
-6215
609
-2605
3906
-2961
-6673
12035
3662
-6702
-119
5235
-3063
-6820
5906
3395
1330
5423
4289
-1018
4005
3924
-10184
-1214
-2129
2064
7912
4064
-2159
-3573
3272
-2842
-4111
1753
9994
14131
3532
5139
416
-2323
-8588
-1576
-9856
8154
-2876
-10013
-4149
6045
-1276
5795
-7474
-9366
-3994
-2269
-5160
4074
7177
10078
5456
5473
5440
-12553
8109
983
1752
22039
-6234
2428
-1932
-777
14376
-6057
-549
8655
-12732
-5949
-4399
-6273
8211
6738
-1500
6659
7522
-2295
3696
-3924
-623
1349
-6331
3242
-788
10028
1931
5562
34
-7308
-2760
3064
1080
-6130
7185
-9272
879
-3297
2600
9871
6135
19071
-9593
11845
6297
-4983
-10763
-2759
6718
396
10041
-1299
3615
-5394
-8306
-4218
7568
-943
4220
-4156
-4505
-11456
-3932
2363
42
4491
8339
5134
-7266
-3242
10514
-4297
1704
9491
4931
5325
668
-5900
-11993
94
-4931
-9261
2743
-13961
-3902
2510
8143
9055
3076
10223
-10558
-1880
619
5546
371
-80
-436
3096
-5545
-2704
10030
-16923
-4698
-12568
-55
-6722
-962
4350
7002
5324
-6353
764
3770
4626
-364
5842
-14188
-8981
2536
-17136
397
-15532
6863
-12343
6711
12425
-3652
-1674
10
-6282
-2355
-6608
1056
13278
-1459
4140
10003
7118
1456
-9374
7341
-3046
-8604
-5062
-6563
-4384
14031
-15900
3855
-2186
4325
9924
740
-7381
779
617
-11680
-7260
8816
14953
2882
-12050
307
9462
-13810
5884
-6456
-8003
-3810
11594
-7415
-1133
7694
-2922
-13853
-8602
966
-665
-3006
-9434
-5442
-2800
-3933
249
-5688
-7961
-3586
-7666
637
5349
-1863
-8338
-2430
4099
6293
9818
-2962
4020
8192
4288
5214
1285
-8116
6615
-18912
535
-7726
-1069
1002
2392
-3089
-4359
-16283
4630
-8853
3949
-2772
11030
2843
-1900
-464
-17743
494
-6967
4275
1598
3987
-22
-9301
3082
12595
4273
-3316
12654
4960
-897
3322
6480
-4308
12765
2748
-2988
-1948
-658
9055
8736
11308
-2958
-12173
666
-4654
-1289
-7773
-5773
4127
15886
6079
8630
2904
6597
8579
6942
7778
4924
-3220
-3314
10333
3074
-1916
1316
-4275
2652
462
11761
-4375
-10186
-3786
-8692
13660
-4577
-124
9786
-12535
3308
6441
507
3938
-3086
11227
-16976
-4521
2134
-1468
393
-2509
3706
-2666
10414
525
1538
1888
6007
57
-10369
5655
3385
5463
-4947
-1569
-3673
7518
8508
-4001
-7122
2339
-2986
-10223
-232
-9375
4118
6863
-1902
2978
7656
4259
-245
1647
-1578
2356
5591
2511
6618
1475
7667
6655
4086
-712
-9634
-9712
2553
3601
724
-1727
7864
-2783
-8929
-1379
-2575
6076
8839
-488
-3437
-5449
11799
-5662
-5610
6039
4360
-3902
10358
2349
-8048
-6661
-9500
-488
4956
4497
-4082
1402
3338
2911
3687
-2841
4529
9157
-8805
-9636
15728
-2571
668
-3298
3132
817
5962
-10799
-12539
-17334
2988
-7732
-13426
457
1480
-4120
8229
-2674
7443
-816
8201
-746
-9974
8127
3905
-9659
2011
-6512
17580
-440
-5859
-7296
-8987
5177
-5001
78
3842
-3436
1624
-11505
8861
-1993
18102
-2747
5174
-3290
-6972
-5543
11983
6143
22037
-11848
3457
1593
-6891
-4743
10125
8978
-3271
-7355
-1854
-2047
772
-7709
4729
5021
-7653
8780
-19534
18486
16471
-9183
2062
-8497
-2157
10774
-5792
2530
578
-6482
-1204
-1951
-968
-2822
8285
-6050
3991
4713
7280
-958
7185
8412
22657
-644
5618
-2112
-4195
1129
-1378
-1524
-3946
2129
-6570
-4032
5721
17876
-6712
12885
93
5007
-2870
4966
-2355
-2977
8434
2647
7274
8107
-4900
-11
31326
-3111
-2701
1244
-19497
-3097
-4745
3917
22740
4923
-561
14371
8307
9184
11205
-1292
-18728
948
13583
-6926
5023
-6584
-1484
8051
-3066
8312
-12383
-3278
-1633
-6438
12729
-2105
-10790
-738
2209
-12667
2266
18594
-3825
14563
8556
7111
-4276
5740
6674
2223
-19461
2237
11116
28
14352
-13376
-7550
16370
-904
-1692
4768
11036
11100
15739
3497
8233
-20440
4205
-7262
6293
-569
-3675
-7832
15013
10503
-759
13777
-7105
-2421
627
-12310
-592
-2787
5650
4982
-16439
28867
-2972
4752
3704
4947
12733
-2299
-977
-11170
-12732
-6183
1621
2050
-19117
7592
2040
-2816
8761
2150
-10835
-7266
-1428
2154
-16671
2612
416
-4791
3655
4687
6548
7822
21096
6105
-5115
-13149
-3422
-19209
-14654
31038
-11881
964
-28551
-7491
-4277
-1575
-12110
9832
-11209
3684
-4151
-9037
-9492
18388
12578
13159
-4370
-3154
-788
21880
12940
-1754
29
1973
3398
-6815
11395
19416
-1011
6842
1949
-2518
13212
-15862
-10862
-13417
-8891
-811
10165
-5786
5961
-16382
-3402
3532
5592
-1775
-10062
-4761
-2800
9061
-13182
6273
5463
-30767
-7372
18264
-12759
-31
-8089
-19726
-3477
5639
-387
12583
4514
-6732
-1505
6007
1561
9006
-21157
-8175
2213
26987
14129
-13443
8370
453
-9385
-3034
20384
-1733
-1529
716
-14786
13856
10313
-2563
12707
-5851
-11526
-11472
1945
6274
12208
2391
13404
17035
-4340
4718
714
-8876
8768
13034
584
14154
5129
6791
-4222
7886
-2870
11078
8323
5344
-3462
12643
-2642
3637
2978
10080
10203
-1566
-6027
16560
-7447
2121
-10878
-14734
-467
-15369
632
-1901
-10400
2680
4730
-7510
-2203
18900
5004
7889
17807
16560
-1182
1280
9783
1742
4698
-2160
-12650
12742
6564
5333
5641
-13066
4965
-5594
-6946
675
8022
-502
-1254
8582
-1579
-5089
-2489
13699
13821
-1983
3371
19782
-5659
-12417
11889
1380
11557
-6984
3790
522
10551
3695
5821
10431
5986
-1495
-3284
6308
-3990
6323
-6957
-8927
-6352
-5491
6231
-4425
15506
-3876
-13495
9416
-13980
5320
3468
-7348
5887
1287
3464
3884
3572
8648
1082
-8333
8412
-6712
13993
-5651
-1669
-1590
6559
9468
-1002
5037
-9240
14239
17105
-1047
-6381
-7914
-118
1499
9113
-12883
9786
-14621
7998
-2494
-5927
272
-3875
6556
-11026
12640
-8843
1719
-2649
-8332
8411
410
-717
7523
-8284
12190
-177
-14530
-8432
420
-10296
7495
8858
5569
-11444
-16179
7793
-10094
-5164
2528
-10663
582
-2894
-20305
10380
-7221
22652
-4128
10570
-1425
3961
5837
7226
-4581
-17913
5970
-8070
1642
8012
12617
3902
-5356
-5883
1258
-7425
-2467
10129
5806
-20674
4944
1729
13147
-9094
442
2377
-2968
4296
8504
5284
162
-5758
-12794
5520
-8818
-2438
615
5662
-1873
-8206
20607
4090
-4876
-162
-6308
14996
14735
-5444
-21634
11092
4393
9789
8035
-6392
550
-13788
9255
3543
-10924
7276
8155
5167
-3297
11258
4248
6492
7613
-3126
-18254
-24392
9632
-7789
698
-3350
-3049
7148
-3004
15686
687
13194
8188
-1673
925
-18713
1159
4098
8350
-10831
-3213
-413
6434
-10583
10193
12462
-2783
-6551
-15786
3063
4459
3070
-6769
-13906
6430
-6106
-461
2273
746
-10903
6607
-27558
-3356
9182
1189
-2361
-6470
13460
9818
21820
2823
-2692
-5400
15100
-2237
3260
4696
-1332
12227
5159
-523
2615
1676
-8274
-6090
6582
-1561
5129
-1356
1254
-1099
-10890
9866
2505
4323
2098
6933
617
5738
4160
5410
15689
7294
-4878
12004
-12248
8671
-6184
-796
-5988
-7621
10674
-8560
2853
2427
-6254
-4126
2578
-7226
-7165
1933
637
11475
-6356
2318
9465
1952
-5099
-1277
5812
2501
5942
5003
4239
5950
-2772
5563
5674
-2141
-1772
-1658
-4244
-4869
-6716
1733
-3240
-4250
5389
9283
10762
-10690
-7708
-4304
-5805
-2186
-347
-6153
-1326
3145
-6804
265
5760
1341
-3417
-2927
12032
8160
3053
-1772
-2930
-5353
-2465
-6476
-4180
6248
-3740
-10105
-3795
6988
3884
287
1599
858
-196
-5683
-6658
4310
-1618
4282
-1788
-3779
2530
9037
-2841
-424
-1058
-10546
-7835
-1513
4421
-9015
-4357
2838
-2872
6362
-6877
-2441
3853
9344
5868
-10105
3886
-5158
18785
8174
2053
-4266
-11369
-3234
-1239
-3503
-1015
-9218
1439
5305
6137
-806
10862
-5593
2772
4865
-6897
-6652
-5989
7336
-7106
-5033
2273
-2612
2673
-7270
10552
-6989
-13458
-9215
-5866
-8529
-3948
7268
3047
12004
1282
-5146
-1871
-6313
-9537
7389
-1173
2734
-4799
1543
2562
15810
-5769
-3467
-1239
-9349
-120
63
4261
-5538
-410
536
-5281
-7088
-4878
5691
4971
-4114
2853
-5858
6995
-7782
4580
-10787
7846
-8318
-14156
-1253
10017
444
327
-7438
-3805
1990
3467
-6417
-6346
-13982
4813
-606
-5074
-6664
139
2369
-4206
-3847
-864
-4693
8527
-5609
374
3633
-9509
-273
-6335
14477
849
-3580
-7850
-11538
6238
-6674
-786
-10450
7386
838
-5997
3636
5586
-3269
21551
11361
3746
-5543
4193
-6367
8786
-9368
-8087
-13121
11662
-5050
-7168
3875
-2472
4633
-3395
-8113
-13997
5216
4803
7371
10659
6089
6248
-11264
3459
154
-4694
15511
-4615
-1326
15101
-14058
-6409
4912
-8760
7423
4877
-627
8331
-8657
-8750
6349
4327
-3245
1864
-8371
-11706
-9214
2148
-12532
10609
5033
-4743
16036
10241
-4331
17926
2103
-6131
-16220
10481
-367
-5480
10489
-2245
-7878
3041
-3953
11125
6607
3035
-19368
-14870
3221
5299
-5602
6371
-20160
1224
3725
2317
-6464
436
-11295
9788
4629
-18595
-1784
5137
3978
-8524
2850
-2442
-1825
-1199
1993
-1027
-2332
4863
31762
8843
3444
6419
2599
13264
1258
5396
824
11484
-7783
4349
-1733
-12615
-2781
-16940
-3412
10048
9859
9095
1707
-2760
8997
-13119
2722
13257
-4055
2024
-2313
4265
13435
4191
1865
4236
-5509
1304
14674
-12430
11584
7594
-725
3056
-5297
152
-119
8599
8603
-10576
-9464
9647
-3178
15286
-7436
3082
5354
4356
19186
-13243
3998
-5631
-5833
-5573
3081
-4251
7865
-6057
6781
-49
5519
4408
-8999
-6295
10979
-18013
4593
-130
-14959
5766
-1487
-3376
-1459
-1411
-6769
2924
816
8804
13885
-176
-13809
6073
15239
1269
10483
-14600
-12120
-8920
515
-3312
10412
3613
-7056
-1
-781
7788
-5811
8307
-2130
-4341
-7424
-2903
2231
-2270
-1554
7606
6619
-2307
1108
-16954
-3284
-6002
8599
-16680
-3084
-5765
-1420
3224
2242
7482
-11653
11012
-2487
4927
-5362
6842
15458
2209
-4892
10488
20911
-3599
690
7792
17853
-10272
-4051
11454
-653
-14365
-5174
-9709
-3894
17870
-5540
13154
12972
6988
-12171
635
-3521
-7298
-154
3074
-95
-14174
7716
3791
4267
1597
-5162
-8043
1664
-1469
5625
8268
-17355
-3110
-339
-6199
-5386
-7488
-1184
3000
-2680
2809
-5902
-457
13380
-16717
-2111
-3555
3913
494
-12163
-8395
-11934
2608
7645
7402
669
3555
7863
10454
6877
-512
8042
9160
-6647
15687
6542
3510
4604
-5688
662
6088
4245
5498
10526
-4073
-8727
5351
8825
6576
-341
-3114
-9685
701
2017
580
12161
-4076
10586
11394
2460
1592
14150
-5511
6582
1702
8383
-8727
20651
4756
1793
-625
1437
-4891
2177
1583
-11256
-20
-2541
-5640
-2732
5250
-13199
-15300
-6913
-1824
-1822
8219
-3877
6870
460
-909
-1810
2087
-3284
-2236
3268
17644
-18694
9190
4194
3583
322
-324
-14006
-4683
15072
6938
1054
-7309
927
5157
-15407
-4386
-7610
-14247
15642
-3948
-4905
-3942
1510
1735
-1519
-7076
8870
5490
3901
4812
1775
-1855
-467
12454
-10326
-5463
2942
14148
-10436
-7703
-12752
-5153
6020
-512
-306
4716
-512
4351
-2791
2605
-615
9826
-1892
-7110
-11000
-5360
3630
1080
-7661
413
4535
-9960
5768
-931
7732
3126
1494
-2123
-5829
-259
15275
-5836
7899
7757
1037
1802
-7444
-2452
9536
-1560
-10296
5370
-778
472
2980
6943
-1089
-5886
-11451
5301
3024
2917
9476
-2610
-3300
-2562
-5292
-379
-7234
-7869
-508
-4826
-7118
-1268
6883
-2797
-3773
-2169
1481
860
10206
1741
-955
3227
-10237
3835
1348
-2552
5624
649
-6303
-7021
669
6763
-2001
-3078
-4291
-8040
7170
175
5923
11629
21753
-2160
-8586
-3377
-2577
20999
220
12847
5304
6091
-601
-9507
1979
5891
-524
-4847
2667
-27
3314
8426
1335
-838
3475
1459
6676
1563
591
5942
2365
2390
2631
10609
-7482
-4627
-9945
12072
2636
-1615
863
-4011
-6611
-7451
7124
-327
8112
-4700
-3293
11446
7558
6372
3165
2288
1801
-9642
-6514
-8263
5642
3675
11197
2806
6766
7753
11824
832
1119
1342
4985
-181
1726
-2093
-3303
6599
5786
10779
1948
203
889
4770
2251
9637
-4884
-1164
1305
4658
-8166
8357
-5373
-6938
-7761
5939
6153
-614
-6719
-4240
-1183
1192
5407
2222
-6414
4204
239
-6765
-808
3462
3612
4658
11663
-4251
5607
-8802
552
4426
-1177
5079
4198
-1059
-473
-219
3706
-2139
4752
1132
-3603
12985
-3956
-8663
2449
5814
-2944
-271
7399
6556
4113
2259
-4766
6193
-2683
8509
-7035
-14838
92
1167
-27
-1141
-1434
-15354
-6176
7860
-2145
4869
-13965
8241
4470
-6940
-1277
5109
-6482
595
-1423
4306
-2002
1177
2774
6298
-3787
-917
-3739
-5980
-7672
-1311
1152
-609
-2323
-2763
4218
5792
-5169
-2320
12790
15744
-239
-1629
538
861
2544
-3549
-11773
1681
2334
-3872
-660
-132
-170
-930
6674
-2152
-8434
2605
2844
-11414
2104
-2124
3327
449
2671
19375
5774
-1264
-14333
-12312
-1840
4679
-15721
2275
-8802
-4586
-236
-6671
4245
-807
1674
-6008
-1604
-5942
-1091
-1725
5823
7413
-8386
-6924
4275
-9095
2573
9435
6767
-4920
-1371
-5880
378
-5935
9584
19593
-7295
4448
9223
3170
6763
692
-2160
-4534
1893
-6740
8722
-10887
193
2290
3922
-1956
-4170
5934
6385
3591
1591
-6190
-7470
12572
-1634
-3193
9533
17840
14658
-4021
2711
-6848
3778
-4333
4663
-4960
-1576
-2447
13077
3888
-4613
-10272
-7350
-10618
6603
7417
-12285
-4070
-16221
-977
5838
942
-17951
13335
-6815
9952
8982
5965
-4347
1197
-16201
-5401
10928
7191
-5943
6760
-3712
-7784
4458
6206
6623
7354
-4905
-3536
-6630
-3007
-418
13031
396
-1195
6399
14266
-10471
-12107
1417
-2093
-4374
-6458
3399
-3288
2771
1316
-11598
3601
7219
-3447
-4317
8790
1499
1504
6017
-2997
10024
-10935
1314
-18640
5942
-615
7842
-22674
4716
28
3488
-951
5055
13179
4885
2833
-3946
-15629
5638
-6986
-8354
5702
-11223
1422
-6706
5012
-194
14517
-301
10761
-1050
-3463
4542
384
-690
12737
-6429
-2715
-3729
3650
-7078
-4238
-7607
10982
8789
-3995
-4069
1100
-7761
363
12697
4547
12344
-130
4659
1335
9420
42
158
-7057
-2623
2720
-155
-16289
-4646
1488
1500
-1691
6227
-4235
-3941
-4187
5265
11041
8937
7259
6341
7829
-9364
4810
418
-1328
-3669
-10292
-755
-5077
-5587
-1405
1288
-1568
335
6220
2081
8961
5505
1422
-5665
1393
-6274
10578
3153
4886
-6418
8108
-3326
2971
-3699
4406
6621
8034
9840
7938
-6863
1078
-5295
-3023
-2762
3533
-2936
1934
-5250
1300
18
3665
5761
6486
6695
10297
3306
4596
3636
-2688
-7320
-4465
2855
-2924
-9539
10695
-2533
-506
-1804
14142
-5816
1571
8344
8498
-13440
2523
2318
-4537
12309
9951
-1355
9801
-2354
-3004
4952
5237
-11865
-7097
3585
-3925
-3009
-13702
7013
6962
-7888
-9360
-3185
13407
13008
-5153
2051
-7918
-1434
-2952
-10313
-638
258
12195
1630
4979
-1526
-3404
-12000
-4599
3854
-895
809
3007
-6093
7840
4470
8361
2989
-1890
1648
-10658
3461
2187
1013
2121
3648
-6620
-6656
-5175
1034
-6491
-10830
996
31
-7053
-3638
6755
-4740
9015
-670
715
-3940
-5758
-7726
4674
-5597
-1649
-11537
-9543
-9200
-6629
4866
5182
1495
-511
6988
-5639
-150
-4568
280
-2581
3214
4745
2460
-6707
-10296
-481
17664
-900
3911
-1551
841
-8297
-333
-4788
-4101
5010
-3471
501
-11140
2588
6935
3966
-2799
7291
5543
-1281
-4428
2043
765
-2334
2178
-5439
-5233
-3804
-6621
3351
-1258
-3808
303
5046
-2735
3270
-6582
-3179
2274
2294
-10665
-7696
10323
3672
543
-1064
-2853
5641
4848
5872
-4060
948
598
-822
1673
-4113
-140
-9307
1288
5896
3590
5821
1969
-2205
9713
3668
-256
-4625
-2720
5486
814
-2692
5486
-483
10456
5187
3623
2728
6603
-1262
-9402
-3160
3756
-6437
-2128
-415
6009
1057
7091
904
-2166
-8308
10507
-1174
664
-2774
-3255
2223
-2438
-2579
-7631
2129
-3461
2950
-6270
-3363
4449
-246
5865
6171
-9639
8963
189
10792
2999
800
6657
3620
-8864
-2909
-115
-1798
4425
3734
624
-4918
-1416
-7383
-285
16538
-5793
-5063
-9178
346
-2787
212
5622
-1291
3042
-1316
3290
-3685
5850
4236
5998
5450
6735
-3995
4782
524
-618
-1215
-4345
-5014
-6319
3148
5922
834
3516
4093
6186
-3095
8706
7463
1256
2521
-4866
6567
12149
7508
544
-1369
-2208
-306
-7739
1532
-8944
-3719
-7859
3820
3236
-997
4439
2983
1177
233
6375
2650
-11055
7653
3916
3373
-310
9319
4538
1808
-8457
-10560
-2785
-5831
-14021
-1524
-2016
-5143
-1692
2637
-15967
-5006
-2327
10955
6010
3987
4962
-2109
-1030
2741
-2285
-5155
-10741
-2985
-13902
-5432
-16675
-13223
-16778
888
7158
14017
10677
7895
4324
-2078
-9100
-13343
-12234
3004
1514
7127
-6116
-3851
57
24930
6443
6483
-10396
-4830
-5665
12158
3851
4105
9588
6431
4947
-1263
-3529
-2006
-8008
6297
10896
-9657
231
8935
-12481
-2362
-3519
-6013
9
8859
-1771
-10603
-2663
8764
6688
7159
-6162
1238
-19
8539
4837
20389
-1138
14188
5707
-25199
-1177
-12644
-4062
8999
-5283
-10325
9538
-8376
7364
-495
13139
6241
5673
-2610
-5843
-2351
3815
-1193
1895
3720
-6111
-10540
-649
8350
-13017
-15824
1558
3433
-1479
-2675
-8275
10467
-10071
3789
-2257
3686
-5353
-8941
2769
-2511
2528
-1507
2193
3854
1808
3386
685
1224
10316
1672
-7315
-3713
2976
6284
-10177
-1090
-3801
3371
-3289
-2070
3803
5045
-2736
-15546
-2236
11557
-854
1948
-1755
1637
2254
-6183
5279
9005
5149
2642
-5747
-870
3946
411
-9396
4185
-4612
-9404
-8095
5586
-6116
1092
-10088
-7798
3485
3047
57
-1290
-9796
-3609
-2331
1500
-846
-8610
-6966
-52
-7973
-285
7342
-4230
-2761
3736
2459
1545
4265
1165
355
8540
4272
-11912
221
-11018
-7655
-6631
-8428
-500
-2063
-3032
7752
4935
3634
-160
-5353
-8376
-11676
2515
3015
2815
-6733
-7422
-11089
676
-187
-522
8397
731
104
-1123
7669
-6104
-1096
2121
2635
-9553
-3648
5143
-5830
-10161
-7329
4611
-78
-6337
-1216
15081
3386
11690
155
11011
-83
691
1869
-1033
1868
-2130
-1932
-3808
8467
-2992
3316
-6929
5462
4698
498
4755
1617
2004
10446
-6421
-1659
3409
2436
8362
4193
2317
10207
-1777
-1820
1071
-11218
4327
-4902
-2230
-2842
-13217
-3886
156
-1303
-1201
-5891
2203
-1502
147
-3582
-1734
-1252
11500
-2214
620
-1215
-457
11555
6980
7054
-2229
8256
-1991
-2732
-5067
4031
5289
-1904
-1282
-4337
-8659
-6900
1472
-4904
-1867
1203
4195
-6532
-1035
7689
7277
5211
-8396
251
1552
2830
4872
540
223
12138
-4207
1222
-16419
5018
1165
3214
-3968
2341
-656
-84
-4164
4233
6229
-4888
-2166
13488
-4143
9073
-2717
7717
10171
5962
-477
-282
4984
4532
-1759
1922
-3714
973
-3232
-4093
-1659
-3313
3462
962
336
-264
3819
2189
14429
-1931
-1176
-2026
-3177
15605
765
8162
-3686
-445
-3400
7762
-5021
-2115
5817
5594
-3522
5357
8015
6584
-21022
-47
-8528
4414
-12248
1474
5295
5824
5073
-5315
-5335
-6426
-7922
5496
4859
3624
-2687
-5937
-5324
609
21116
2340
-4381
-8506
4158
9821
11015
6507
-1406
8401
4264
-3899
9484
-4396
18407
6418
-2184
-6812
-7184
-61
-493
6584
19443
4
-3593
7532
-9104
2450
-3384
-12210
-4058
-658
-1204
-3072
15503
10870
17598
-6468
10605
7059
-7176
-7014
-4535
2230
1034
10163
472
5384
-1793
154
5412
-2567
887
3846
3965
-9960
-5067
-5391
4398
1714
-1016
-17574
12355
8664
973
14393
-2020
7305
1803
-13120
-6823
1815
357
-2057
-146
-7827
-1165
21179
2787
-17498
538
-6924
1852
8382
-1593
10830
-1197
-2334
4933
5768
5470
-574
15367
5955
-1151
-5752
-4263
13977
9268
-799
8912
-6677
3401
9604
-1247
11553
7785
-4619
-2404
6038
4778
-5152
-11726
-2701
-203
-5122
-2220
-15490
-4114
-6273
3806
1465
-8486
-5287
-2799
-7723
1196
-6753
1410
-6395
2336
-2039
1021
-6320
-10855
-6967
-6214
4037
8691
12
-4055
-6545
9348
-4050
-7833
-673
-2334
-11026
-8078
-9879
-1640
8139
-2689
9773
-175
5425
16512
9228
-3368
9040
9136
-2685
525
-649
11394
-5250
6149
7085
14104
6495
-5688
10910
-8707
-3284
-18650
-3311
-1161
878
-4362
22
-13375
-5275
-4037
-7323
13757
2621
-236
3327
-2061
-5142
-2552
-5506
-2199
8494
-7832
5711
17860
6318
1031
9090
5070
5173
-6017
-6131
4113
-7899
-5090
5015
3405
-3496
7062
6442
-3510
-466
1039
7350
4612
-13463
11855
11619
5788
13605
-1342
-3211
-3945
8457
9924
899
-8033
4740
3740
-852
788
688
4393
2612
-6148
7949
-9038
-4837
-10459
-1916
-491
9851
2417
-1299
-6486
9307
-1256
535
507
-3068
1366
4064
-16508
-14828
7478
856
11478
-144
-4402
-5551
528
12515
-4522
-1184
-729
-1159
6030
-1611
-788
13701
-988
1696
16995
-1634
-1179
-8111
11139
5008
-2703
-2735
7742
-10090
2622
-2775
-1094
-7870
4319
4015
-2204
-1752
-1699
6570
6579
11520
5418
-8589
3785
-217
-1298
1730
-17883
-6874
-5013
5008
7240
-1169
-8443
4105
4368
6166
1206
335
-8201
-239
7040
3263
-7024
3563
3518
-4897
8979
1631
-9441
-115
11048
9264
-1300
4847
-2689
3369
6977
-7820
3449
-761
4713
942
-51
5655
10036
-6827
-1213
-2123
9113
2034
-6404
-7582
10810
-11515
2520
13513
7303
5800
4131
1346
1094
-880
8378
9583
-8453
14398
1633
-9389
11286
-971
5977
14794
-7455
796
-76
12385
-609
-2609
15194
5108
11342
-2788
-424
16164
6383
-2393
-6095
611
8361
2327
21620
-579
-2459
-3364
16038
2344
-11980
-3937
5930
3812
5904
-11902
12936
13942
994
-2383
8205
-5174
-291
959
3353
-493
3685
-2268
-4499
-325
-8903
-4742
10268
14072
-859
7405
2102
-6248
2056
-8967
-12967
-1463
584
10934
-29
-3856
-859
1226
3678
1091
6937
11761
8515
-1343
-11198
5023
11361
2247
-5754
-17577
-2899
1865
-1519
3856
-8680
-401
-1171
-2569
-3604
-344
4561
-1520
7986
-859
8052
-3291
-6277
5063
-4702
-4936
1098
-397
-855
637
-10310
1079
7667
6015
-8636
17245
-9327
1747
11035
302
1945
-1542
9090
-8211
-15054
-5553
19674
-19227
-10079
-1667
13899
-7840
972
-4464
-7340
2568
-9528
-923
-1805
3120
3213
3007
10446
-4011
444
14597
6125
10387
-9831
-10028
-12181
-3425
3
1895
11161
-4525
-6133
753
-7504
-9315
-1139
3548
5981
15286
-6839
-7585
1293
7202
3237
7389
-32
-5661
683
657
-3659
3988
4790
10246
-3655
-1790
-6850
8479
-11870
-7439
2275
-7918
-450
-4856
-2735
-11570
3798
8956
4482
2234
-13834
5073
-6870
-6423
-7210
7134
-8451
-2634
13668
2453
-12293
-2870
-1390
6823
7527
-5052
3530
-7919
-4865
2713
-8829
-6982
5287
-2871
-7220
-130
-632
-4164
453
-6764
1085
-13080
2710
2562
-5037
-10865
4552
-11
-2229
-14317
-6418
-9220
-6999
-13630
3393
1330
-2719
-5811
-7975
-9371
6182
-279
1302
5056
-16465
4115
1507
5602
2520
-1293
-6586
-3628
-6673
15359
5148
-4976
7548
-6690
-10974
1196
3092
12763
7246
-7972
134
2660
-6847
3057
7348
12816
-1529
-2268
-419
-8568
1155
-10979
-7531
13245
-2
5501
-8727
-1533
-4086
-1659
9051
-16797
8702
-5290
11580
-10641
-7914
11846
-6970
-893
10354
-7971
-10176
2881
7206
-5051
6013
-5094
4056
4599
2907
9225
-2538
1921
-5623
3928
-4859
-13149
-13030
-16178
531
9674
-7781
16100
9116
5029
6116
309
-1544
8851
7043
-8897
-6152
-9585
886
8554
279
-233
5281
-6953
-12230
17322
-489
6319
-4220
-528
-972
913
-1432
6603
4092
1445
269
4025
10153
-8939
1611
262
-2846
-2911
-6396
4710
-10313
-19534
4983
-14605
4636
-5942
-13096
-15097
399
-624
9002
-10947
-1041
2952
7193
195
2977
2634
1522
3015
-6669
3841
7117
3938
3203
7075
7406
-5260
9127
-6892
5865
444
-788
15331
-2785
-9385
6291
-7221
-477
-8132
-1873
-1971
10304
-3044
-8689
-730
5542
6668
7343
235
-1809
3001
1617
-1356
5805
1097
-1122
-9401
2951
-5662
1950
-1274
5512
87
-3445
2039
8563
-6266
6959
-3650
-9248
1326
2019
881
-1453
-6847
-8741
-2418
5011
5465
3270
4363
-4452
9574
-5912
-5827
1917
12321
-375
8660
7347
1948
4878
1899
2855
-1259
143
-3543
9662
639
4514
3827
-6780
1145
6445
6592
-7770
-1715
14946
9069
-9551
379
7050
3806
2464
-6733
2045
7910
7134
-4827
3616
2094
8784
3970
10529
-243
9301
6267
3321
-5897
4641
6966
658
-317
-5822
-7169
10615
4460
1957
-21938
-3041
2397
7822
-6556
6142
12616
20885
2432
-11204
-13363
-180
7916
-4414
13922
-18290
6177
18260
-10969
9376
-4599
-8981
-312
14863
-9953
10965
5394
-10151
-1827
5731
3802
5826
-163
1254
914
2043
7780
14501
670
6977
18892
-5467
-1368
4944
-40
11075
-11252
3456
-5813
-9157
1891
16395
-25564
8335
2580
174
6397
22644
-13821
-15681
8140
-1620
1588
1140
-12941
-6466
-18702
7248
-9312
-5174
15947
-9296
2373
-7004
3000
7715
3000
963
10944
-8825
5397
-6561
3332
-326
-278
-192
10794
8578
1646
534
4791
-13158
-5889
-2942
-5436
3458
9544
2819
-3670
-11008
2214
-2030
-2479
-7055
6438
-5299
5131
13984
22414
1368
1753
-2405
4727
10999
-7043
-11820
-1048
-5660
14312
8178
1671
8349
-10579
3874
-8378
2958
5267
-4433
8516
-1811
6608
13808
-2473
540
-2173
464
5813
-109
-45
6454
-4421
2986
-2140
11729
6278
523
13485
3551
3053
-4714
-1415
-1700
6539
3258
-15236
3868
4427
-13411
-3430
6230
1728
-7198
14
-406
-872
-1253
-20119
-2503
13456
7392
1974
-4063
10068
-6593
-9208
-8957
883
-5915
2833
-2433
-463
1524
-2669
-5572
4114
389
-13518
-8724
-7353
-500
-5266
-10179
1140
2139
9
2892
4346
-2082
-6695
5507
-5648
5694
-2923
12807
-11474
11258
-1579
-4852
-628
-502
4194
2908
-4113
15054
5371
-3051
-26
-4205
3061
1020
5966
2659
-255
10933
4639
-794
-1690
-12118
5320
2609
-9080
4455
-6683
-14145
-5167
-4833
8770
-1785
-4126
4568
458
-2359
2392
-11301
-12041
12048
4538
-47
2724
-3158
-1651
7248
1300
15893
-3695
10
19481
2049
-9486
-3445
871
4525
-1138
10806
-6409
10080
-6967
4560
-15758
1608
-7047
-1709
-3151
919
4079
1902
3592
3168
-4767
-2586
7925
752
-4054
7960
7249
-14922
-7256
4702
7573
-6908
9696
-3503
13668
-14188
-9654
2421
-3392
-2717
1087
4213
-7077
-1020
5498
2459
3491
-3808
-3928
-3068
-7841
1187
-4182
-5297
5063
-5981
10658
-3472
-17793
7397
-12048
-1085
8303
3247
606
-165
1096
6159
10602
-5902
6924
19457
-11017
-1092
-8682
3427
-12198
2550
11391
-1725
4208
7998
-6770
-4319
-9243
7316
11491
9376
2905
-1094
-8488
-1596
518
-13212
-1736
3703
10868
1072
863
2486
-6498
-4920
314
10595
12025
-13579
392
17071
2873
-3624
-6937
3868
-800
-7357
330
-8969
9400
-3831
11663
-5459
4164
-3244
18856
267
3776
2330
76
5029
6669
-10950
4870
10401
-2491
-937
-15035
-4107
-3833
1474
2216
-6740
11669
13362
-3237
-5139
-2682
-4235
11244
-583
5049
3418
-3438
16856
-692
6764
4417
3210
6769
2562
-3272
465
-3418
-2421
-5059
-8329
2523
-5876
-2214
-6823
-9638
-5967
-911
4137
-3122
-2880
-13057
4814
5790
-6676
1715
-9040
-2375
-1654
-1385
-5260
6013
-2045
5197
-6998
-5058
-7122
2925
-8716
-4163
10948
5459
1871
5251
-1686
3017
1844
-5979
-8836
4719
962
-3642
-13062
-7977
13675
-4329
1120
5992
-2797
-14001
1278
-8471
-8009
917
-6929
9306
5553
-8270
-10523
5586
-1868
165
-4633
-2955
528
-3085
-5248
-1769
9402
11679
-3459
-12852
-10504
-7405
-6055
-2425
5612
-4341
-5020
14324
-8598
-1114
-1766
-6093
7575
985
7582
7274
12538
-279
4010
2333
3311
-3206
8000
-11383
-6294
-4044
-6368
-20047
9506
-14581
-9740
1002
17290
671
-7014
-11207
13079
-2103
-2544
-19182
-2749
8320
-2543
6052
-7480
3855
5276
-6123
12574
-2843
-1070
10581
-880
4132
-21110
7988
4210
-9382
-11999
12580
4698
2216
-8639
-3875
8412
-10246
15945
-3218
-4337
-3407
-472
14380
14006
3648
15038
2367
6800
-3356
-5875
18937
9995
11707
-13364
1691
4214
-10661
13861
3237
7036
22010
11744
2147
15726
1933
-704
-3813
12115
6729
2297
12461
-5077
10530
4992
-4007
-5723
280
4712
-382
-3063
-17308
1616
15074
-7368
746
-2683
14115
11095
468
6145
10585
1959
13277
12376
4178
-3948
7065
14521
-15831
-24735
-8545
4769
963
10932
6881
5052
11068
-7040
-22910
14013
21138
9722
-2755
17930
-7067
10388
4765
2808
4841
5828
2135
-2869
19851
6903
-4683
-7688
-6273
-10767
6095
2437
-3215
-7374
-1108
-458
269
1127
6046
10035
4784
-3476
15291
7460
3597
3933
6507
-2133
906
658
6521
10785
3829
-135
7462
-8348
-3442
7277
7844
-2573
41
-1520
-4541
7205
-4946
-4563
661
3685
3901
1095
2497
5036
-963
115
5097
419
2384
6614
4771
4543
-4032
7013
14490
-291
5427
-904
-9898
2556
85
4611
3197
-5808
7717
-4899
-5829
1075
14181
2312
-1257
-6180
-1449
-6253
2083
-2112
4294
4096
5697
1105
1933
4787
16937
13005
4144
-5137
-8571
793
-2547
4142
7248
3163
2678
475
-2014
2683
-8908
10155
3171
-5358
3590
-1990
2057
-3383
3759
7154
8296
7538
3021
-6948
-2107
1707
-10516
9066
-4549
5299
-7162
2085
-3201
1139
-2252
4454
1952
-5574
3382
2627
-8613
-130
-558
6382
9451
4173
9467
8340
-3864
9962
-6026
-10554
5197
-5703
3238
6253
6969
-8441
-9273
1259
5668
-8893
-5811
4886
592
15849
-26873
4013
-4904
12472
12909
15388
5486
-3465
-7410
-10317
4696
189
1623
-4234
11942
1726
-1662
1254
-8578
5421
8350
-8804
-6924
-4813
5957
1827
-7301
13696
-9983
3690
-1353
-1333
8757
5239
1948
3932
627
6190
2358
13815
5281
491
-10872
-2435
-6183
1582
-10672
7749
-10780
1265
-2140
-6555
-12153
17440
4659
1310
5449
-12178
-9506
-774
-985
11791
5998
7817
-3689
12287
-7166
7466
-3004
6308
5030
-17164
18714
-3038
-352
-4213
1182
4753
558
13033
7317
11361
-10266
-5409
10648
-1607
5976
-1540
-1288
909
8106
2931
11619
6023
-3695
618
-3953
-10627
-861
-11347
-2977
7210
7276
5049
-126
3486
-6916
-2581
-8722
3145
-2085
-10479
2911
-837
1136
-2577
519
-6146
-2681
2489
6505
4510
-4811
-12504
-1733
6289
-8501
5508
2092
426
-3012
-8355
3839
4101
-13
-1999
3576
-544
-1698
-6144
-4416
-15155
10592
-5293
9011
5253
-2338
157
-10502
472
1594
-10334
272
-9843
3398
3384
-6862
1521
1231
-5873
999
-3075
4476
209
136
982
916
-7075
5997
-3161
-6004
4920
1739
-3176
-7082
7765
5057
4619
5060
1712
-4610
-8480
2570
3452
-4168
-6735
-2876
-6008
3611
10462
-2672
13
-2563
-1848
-10523
-1304
-11539
-8044
2003
-1735
7473
2376
659
-2298
-1840
1731
2734
518
4594
-922
-6593
172
-1240
-5077
4212
-11814
-6117
3981
1637
-1281
-2693
5658
-2277
10035
-10239
1068
8190
-967
3407
3131
7491
-2864
11183
-13718
-3153
-358
4521
-6543
4186
-4218
-2316
3061
-6972
-5112
-312
-14103
2324
-1873
7178
-8468
1381
-1113
11151
3117
-288
827
3240
-4877
8508
-6574
-7100
6022
8301
-9355
-9608
3902
-2736
6746
-433
-11690
-7885
-2097
-6511
-2007
-15408
-2732
1859
3119
7784
-1137
-4125
2500
2916
3562
9777
-3812
2475
485
-6988
9117
682
5747
-7618
11925
313
-12114
1395
-12186
4955
12352
-6335
13876
-4138
2865
9603
12206
4586
5265
-1209
-14207
4890
-34
4631
7586
4415
457
3181
-14542
1498
12662
6249
-4068
-9879
-1258
-1377
14017
-11464
-8116
4353
5111
-8015
3866
9791
-2595
-5335
-1337
-411
8827
-1524
-4612
-5198
-12574
480
6826
1682
1263
5404
-2184
-803
12328
130
-1528
-7162
3012
-5572
481
-2078
1523
3463
8756
2959
-2373
-2563
1120
3282
-1597
-2066
-7505
8183
-4017
-9253
-3970
-8261
-3127
2084
-2650
-2614
-1775
-3440
409
-1114
13102
-2332
1282
11192
-8427
-4013
-1000
3275
1751
-3886
-1574
-10895
-2009
7434
3464
-6771
-90
-783
-2516
6770
-1588
1794
-5903
-1684
299
-4580
-1622
-2819
-2062
-1547
-9380
3302
3977
6844
5266
-13135
-807
-1636
-5549
-2373
-1173
-3868
-4131
1890
793
-1330
-1589
5448
3585
-2400
1457
-2539
-2079
4670
-171
-5169
1392
9386
736
827
-127
4916
-6048
-8616
5787
-4363
5509
-1225
2733
-5972
-3706
-915
-9159
-1158
5182
-2280
2966
-6262
-2780
-1202
4134
-5068
6081
81
843
2724
6091
-4463
-3779
2935
-9471
-2417
2663
-2863
324
2375
3725
11810
-783
-6863
1863
4074
1029
1807
9111
-2987
5375
8845
-1592
7366
11218
5131
2160
5271
607
3688
-5646
4197
5175
-5404
-10099
6027
-4647
12449
-11568
2403
5824
1930
-9027
136
-5948
4207
-1589
-6324
1446
-3344
-8887
1737
-19102
9705
6654
6700
15481
-666
2475
-1107
-427
-165
-3117
-5159
4928
167
4243
-5844
4504
-3601
2057
5206
-13345
10579
-17980
-5067
101
5286
4753
-3055
6818
-4105
5498
-6463
5386
3723
-1376
1361
1351
11509
3862
19350
-13706
11114
8606
-6133
-8034
5400
252
2767
-5992
-4631
-5948
7103
8762
-2110
2698
-1911
2352
3978
-993
11503
6644
-1962
-6232
-5906
240
6247
3822
2234
-4560
6410
6601
2132
211
224
-3497
12949
-3214
-3780
34
1137
149
-7834
-175
1170
9012
-2721
3948
-6961
8209
-10536
-9539
3381
-1388
-4465
854
553
-7247
11248
13118
3693
-9406
10541
-8440
6917
-5770
10502
11088
252
-8240
14092
3592
-10081
22830
4825
-1210
10233
2350
7610
-8073
-10577
2138
-3162
10662
-15261
-1320
-159
2127
3815
-17106
2930
11766
8875
-6155
-5623
-2153
8161
3638
5891
-4551
-10774
7437
3020
-15246
-4729
6912
-3469
10381
-2037
16858
966
-7191
7483
1498
10395
1242
7435
1608
7292
1518
5522
-18408
4205
4159
10439
-1927
-4242
-13284
16021
-831
-6195
-1664
-21065
-14123
5162
-10607
10599
-2305
-5538
-3113
7779
-8347
-6196
-6529
-3721
-6647
-10133
-5651
-14082
-40
-3670
5249
-7515
8925
-12766
-3811
-118
-13083
3221
4089
-6057
-1417
-8852
10059
9135
-6466
729
-7637
10607
-14076
-14312
4197
-16122
15558
6970
-7005
850
-6083
5492
2172
-7549
-3097
-3156
8594
-511
5130
-1337
-5877
-1898
-2799
1464
7417
-265
-3476
3548
-2939
-8620
1284
-1364
3159
-2445
-13299
2473
213
9503
-585
4045
3126
2981
-874
8708
6458
-2794
339
-17241
-2955
8655
4686
2544
5201
492
3305
-6194
12039
3223
61
-7881
6768
-5396
7856
15674
1906
931
1548
-2158
797
-4529
192
-3134
-2223
349
-7009
627
-5423
2539
-5270
9488
-1965
-4389
-8643
7490
7504
-5958
-713
-58
3689
-12212
4164
6055
-374
2347
6633
-3868
-216
-3265
-6483
12706
5686
-5800
4762
-12370
3653
-877
3017
2568
11248
6723
3120
390
1626
-6836
1360
2818
-3195
-12731
-1680
6642
4707
2315
-7255
9777
610
-8916
-1291
3596
942
-503
-1424
2343
10356
10462
1488
182
-4537
-317
-1540
8804
11221
5635
-5436
4218
-281
2848
-3195
-649
6358
3339
-9057
3874
-5127
-7451
8405
906
186
1362
615
-5189
-2214
9337
6485
-4081
-6718
-2043
1667
9001
9523
4551
7845
-6556
-1440
-6067
-1247
-3379
-9729
-6557
2619
3887
3019
583
10510
-1556
-9153
1601
2
-4592
3406
2157
12792
-2027
12513
5321
-5579
-5758
-2037
-2585
537
3279
1242
1974
10961
542
5976
14006
10692
-6838
8491
-18231
-4748
-6996
11167
3828
2306
-9231
13377
3436
1081
-6850
1191
791
3552
-1259
-4145
6751
-12218
18887
7084
8794
2566
-7078
-6974
3215
945
-1140
6483
-1831
-6900
-653
-4847
-13506
-1074
-86
-5018
-1292
-1934
-7725
948
4761
-3234
6065
-8813
-896
1584
-6844
-3166
-2683
-2810
3164
6785
-7990
3673
13271
3281
8360
5107
-9456
477
7643
-5364
-5967
-7129
138
589
-4778
4146
5966
-5164
3454
8655
-548
19576
1067
-1895
1116
-2146
421
11235
3637
10146
-7188
3652
5956
10060
8258
-2948
-1696
-4666
10391
8239
1247
10961
-9457
9381
482
-3828
14261
-3808
1041
-1205
1621
-2335
-10747
10114
-5505
8598
10933
-6943
-1070
1419
-1802
10528
-4143
-5379
8780
-9664
-10399
-547
-12062
-8288
-228
-16671
4937
-6751
7789
7052
-10079
-3945
809
-2896
2028
6038
1459
3888
-4074
-9410
-2113
9393
-16387
-8961
-5498
-9807
1594
4429
3167
-3582
-3943
-10974
-2331
4434
11615
-7726
-6088
-2846
-1444
4694
-4152
-1059
-14379
-11462
5798
-9437
7228
9284
8032
-7384
14732
-2898
-9407
-909
-13684
14281
8237
-1176
-10571
1670
-9706
-2950
667
10776
-8297
-1337
16482
-4503
-2296
2992
733
-12996
-5832
-2323
4101
-55
-9351
-582
-1996
-2350
-7273
1663
-559
-322
7299
95
-842
4866
-2956
2690
9071
-12469
-2924
2053
544
2788
6376
-927
-627
9606
-8134
9016
-7351
-2484
-4777
-2997
1487
7533
-547
1292
7258
2854
-4124
-72
4384
-7314
-7474
12567
5383
-12628
-1861
2862
-4263
6862
2794
-6557
767
-1330
803
-1267
1219
-4784
5769
-6986
-7861
-3737
2725
-4190
-3811
111
-1654
-969
-8049
-1586
-161
139
4471
-6466
7020
6244
-33
-7182
2742
3418
662
-2656
1503
-2962
-406
-3229
8069
-9830
-515
4691
-3909
1988
412
1920
-2803
-2502
54
78
-5689
-1581
2491
-1764
136
753
1832
-5279
-8510
-4606
-7233
-2611
-13824
-837
2720
2884
7668
-301
-6466
-1350
1502
4787
8874
-4873
-4579
6302
48
-1589
-2811
-5166
13873
2545
4132
-164
2488
-672
5248
15479
3186
-5567
-10535
11361
3013
6103
14508
47
-3460
409
-4822
-1676
-4030
-17257
-18819
14506
-11577
1155
-8545
4579
618
2680
4603
2941
-4688
-4259
7571
-15094
11382
5476
-3303
-9256
15150
-880
17799
1520
-4855
9602
6274
-274
-1143
-10173
158
2887
-2704
1829
-3713
-2798
-2919
-1327
-4390
-27138
-12019
11305
8517
-4528
-9511
1204
-11383
3794
-15020
-4103
-11951
-6732
-8850
-8287
11512
-5724
-26402
-2667
15451
-7807
-11842
-12540
14175
1176
15561
3727
6342
8213
12336
-429
-126
-7938
-6054
13769
-13942
-8194
-7880
-9005
-9601
-7104
11720
12518
-13368
5472
13825
2503
-8797
11142
9059
5985
18564
-10646
-7875
-12463
-16952
-8837
6952
7923
-18629
61
-5835
4696
6144
2180
-3988
-3041
7241
3
-1565
8573
2830
-7407
6701
7155
8872
7461
-2934
6210
4944
-2446
-119
-10390
-3577
-412
4403
3020
7909
7878
4396
996
1472
7000
-8524
-618
2302
-5162
-1749
96
-7999
698
6128
6852
4550
3038
-1281
3911
5524
-5742
10794
-3367
5785
-1720
10920
10705
-7810
-2468
6234
4110
-1378
5936
3161
-2310
5485
938
-6332
-1259
-4756
5165
-4462
-784
2277
-8668
6128
-7406
1995
-484
484
-10198
4473
663
481
-2211
4048
-10530
3052
2192
2784
-1401
12259
-366
566
-4964
7497
1132
10082
8226
754
4070
-5645
10203
-3926
3711
-7191
-5072
4935
-2520
9860
3091
31
939
-2927
5592
2648
-5067
2301
-89
239
5748
-2886
-3653
-5660
5913
1898
-7930
-5041
14952
-6607
-5084
-588
-6024
-3967
1770
4924
4698
5304
2086
3042
-7245
2513
-826
-3655
7463
3970
-5522
-5704
-1185
-7751
-2900
-8958
2947
1504
-1553
-9341
-7571
-3826
-654
-1232
-7505
846
-4827
-6182
2767
-4073
972
6736
3937
3505
-7268
4872
5374
-2465
-7113
3410
732
-2534
-1242
-4268
-5658
1737
1846
2049
-4118
-2574
1983
-6374
-3531
-530
-4376
5449
-3871
2044
-8081
-9153
913
1741
-7406
-907
4244
-4328
-8242
2837
-2425
-654
13453
2880
5118
-2279
-404
-6234
-4437
1629
545
3459
-1290
-12804
506
1405
832
-7521
572
-7026
-1219
-123
-6161
1511
-2016
1490
-7364
-3172
-12081
6775
486
4963
7228
108
1292
-7154
-3115
-5918
-6102
5552
-1896
-5299
-10001
1400
-4944
-6185
6440
-7055
-9949
-6910
-9584
8944
1847
-1274
5906
-1329
1488
-6543
-3985
-5584
-394
741
-4251
-11867
-1555
3748
728
-1734
-5352
1256
-12484
-2375
-10653
-2328
7295
2727
444
5085
-11394
-8829
-2875
-5826
-3377
3335
-8598
-4515
-10582
-7044
2582
612
6451
8414
-7313
-3524
-1971
3708
-18084
-2274
6750
3835
-50
-1729
-5450
-946
1398
8516
3502
-3898
-955
-9764
-4713
-9979
-319
2503
-4787
-4286
-2503
-3658
1347
-5458
-8752
-4420
3517
-12594
254
1168
-5929
-3734
6048
-5246
1991
-3285
-2096
2697
8091
2538
-4034
-3501
1314
-5878
-9155
-4051
-2720
8092
5873
-13908
5247
3833
-15259
-6076
-1999
-5835
-3070
-6733
3977
-2701
-789
2963
-2456
-3442
-9344
13187
-11641
811
-3526
-6404
9057
-3701
-1556
-7241
4058
5228
401
937
-7546
11579
-983
1154
-5660
7002
-10492
-762
1193
2851
-1660
-2373
15647
6017
-4460
-8183
-15009
-19885
2966
18607
4119
282
-7413
-4370
-1391
4349
-1653
4589
-12248
-134
1115
-5426
11804
5187
6607
7921
-7660
-165
-487
-1339
-8253
-4637
18443
-13865
-170
3630
-75
-15616
12010
-253
-16761
-716
-3009
-3080
-1914
-4327
8952
-15157
2096
13701
678
-8632
12063
-9883
8071
-6953
-8261
-8554
-2065
-590
-6311
3858
3135
-13647
17656
3789
3458
-9961
-1015
5619
-4420
3743
6569
-9953
11535
-7776
-19883
-3092
-1621
-15605
1107
34
-17310
-12360
-8707
-9576
19572
-4950
-49
5186
-4344
20229
-6125
4412
-5654
7673
-975
4250
3001
-9778
11267
-14819
7830
-634
1902
-2150
12792
-1261
8457
4869
13259
-1457
-5133
233
5950
-12209
-353
6531
8736
736
6262
12156
-18425
-4939
5810
-8724
17903
55
-10692
-3958
12115
15651
3949
2425
15996
2893
11692
15230
-5500
-909
8659
8260
10782
-9848
-2173
-888
-5127
-8693
-3639
11035
-10160
-7183
8603
12887
-3130
22272
12028
-1665
3323
-9842
11093
-50
-769
-4414
155
-7100
-12537
-16882
-5688
-5368
10615
-5759
14952
915
1741
5711
846
6633
-3007
6555
-6954
-5343
1319
-1610
-5806
-13143
-7524
-4835
-5075
345
-5343
-1801
-2946
-12815
-3648
3384
6104
-11974
2743
5825
-6604
3756
8413
2518
-12566
-897
-555
4372
1459
-7830
-642
-7034
-363
1639
1145
4497
-11624
3556
-11515
-278
-8342
-7956
-1038
3825
-1564
-17545
2567
9426
5839
4060
7803
-3517
-2853
-10519
6172
7005
-10853
5584
-12067
11528
501
-5243
10322
15029
-2460
11756
-8874
4136
-9505
1832
-8732
-9058
9446
3305
-7331
1691
3335
-9158
13904
1300
-1158
-6158
14280
-6593
-12964
7759
3316
-8007
-10804
-7686
5192
-7961
-7574
2001
-10400
-884
2906
-7354
-6955
-3504
5742
9967
1442
-6942
5096
6768
9213
-5853
7818
9259
-2012
17610
-10468
-4884
-679
7289
423
3998
-5038
10859
-13473
4819
-1612
2169
871
13763
-5883
-9025
-2933
578
-2312
-1029
3305
-10043
-736
4496
959
2071
-9266
3969
20995
-938
3175
3322
10105
-35
3099
664
8739
9917
-10999
5204
5758
2959
896
4748
9075
-1140
-3752
-978
-11336
8482
-9856
-2597
-2474
-1768
1742
5288
5572
8310
6927
2582
7843
2623
4485
-5534
-265
-2682
2581
11288
-1934
1500
-4163
4945
11104
-3300
8174
-6283
-10567
-5946
7888
3815
-3933
5477
-13832
-6084
7916
2619
8363
-2050
-2634
6682
9755
-8595
1911
-9343
-54
-6593
-10231
7671
-17158
-14152
4654
-6748
8635
-12014
-1956
-14846
2303
-5391
11673
3720
11525
2258
-3582
8811
5523
8954
819
3618
20471
-6746
-1031
9001
10662
8881
-1623
1250
-5058
-3741
2683
3595
11050
6454
14273
-14493
-3394
-2570
7857
1741
17225
-6054
16660
9061
2642
-13046
-11922
8311
4657
4708
-723
-3093
8393
2950
-6097
-1998
3183
-2088
-9694
-8515
3690
1919
-17497
518
4194
-12972
-505
8087
-11054
16244
-18980
-2962
829
8183
12643
1040
-413
-13625
-1805
11689
4361
-2248
18762
7121
2972
7613
-11750
8555
2567
-2134
-11136
9218
5978
-2212
821
9027
11389
-750
5801
-12777
5789
2496
15579
-1014
-13552
-1687
10510
2295
1676
-4508
5687
4407
-9467
-6621
6606
2398
1787
-1560
-6518
-1132
1625
6290
-4623
-1580
12668
7095
-23445
-8483
2914
-4815
-4446
4331
12499
-10915
-133
719
1586
-1212
14927
-8793
3030
-1677
-2876
-3107
4531
8976
-12001
-6082
6305
-5713
-13650
-7855
10440
-13417
-536
13861
-7733
12216
329
9868
-2276
7166
8148
-10958
7006
1044
-4132
-2952
4208
-9218
10260
-752
2585
8024
-5535
-16544
-1541
-2620
1101
4006
-3922
-3805
-17779
-571
-5736
6360
4806
-240
-4277
4343
-5283
3273
-6786
-10176
16198
2935
-9866
13078
7030
-3836
-14696
-11831
7864
-9230
2459
3645
-12474
-4139
211
445
-1403
-10812
9817
-10342
8464
2851
-2850
4038
-12093
16637
6042
-1149
5832
16065
-5774
16268
8073
-5145
-3506
-9010
9787
-2996
11403
11258
14774
-14671
8156
-11411
20530
-824
6692
-550
7894
449
6774
8250
-11047
-10588
16479
-875
-6730
6908
-11588
9034
32767
1160
-812
4343
4687
1555
-8861
-541
-8445
-1833
-9815
-6183
-6271
4268
11990
-5405
-3545
-5668
-5577
3480
-4305
-14773
-1124
-2884
-11639
5639
-13587
5156
-884
10544
-7733
4450
-19682
3155
-14016
10763
1027
-1641
-3494
-2542
-463
-1320
-2856
4606
1248
-12302
-9960
-19552
-9566
-7075
-4953
13962
-7473
9927
2019
7722
4672
14791
2735
19720
5320
-1183
-14983
2588
8263
-10235
-2521
6556
8061
-13369
-5004
-4716
18102
4434
13142
684
-2221
14758
-2992
-9913
-5591
-7592
4382
-14965
17714
-12042
11849
-3604
-1842
-27270
1869
-9759
-15838
-7990
7203
-7657
-7026
902
7505
6371
-1691
-8961
12465
-11527
4132
-3599
-8583
-4701
24579
6548
-6762
8209
-1118
-3459
1859
-5757
-6121
8274
9666
1036
-13632
7317
2707
36
2460
-11859
3671
-4512
7585
-699
-5909
-780
-8180
-3022
-6053
3786
-9350
-323
-10700
-11104
1357
1756
-4403
-3346
-10149
1869
-8446
-5830
5639
-5562
-3482
-4158
8748
4067
-1363
4240
-5439
3770
-3865
-1039
-18491
2558
2698
-10648
-5621
-2813
-918
-220
12973
3482
-3993
-6581
5152
5142
13204
4353
4925
3216
-3622
-1139
-4172
-3055
-3894
-6681
2746
-904
6692
-5538
2871
6335
2128
-1227
-3131
-4365
2199
4092
-4435
6580
-4739
2030
7139
4206
13508
9857
-34
504
4756
-9586
-2220
2368
-9996
-11636
-11741
-6975
7266
1246
12156
-5462
4978
6069
-4594
-7746
1099
1128
-16956
120
6284
3370
10305
-1557
-1478
9481
-1315
-1827
8755
694
6499
5914
11071
8005
14114
9529
4786
-1218
533
-2301
-1196
-8835
2532
-8503
-16409
805
2615
-12403
4588
-416
-12529
9048
5049
-7184
10276
-8092
18748
-760
-6727
16063
6436
7419
-58
1732
1513
553
2000
3227
5951
-1992
2648
6281
-2582
-6083
-3177
-10028
7421
-10783
6858
-265
-6085
883
6263
-2961
-4433
4072
5369
-6815
3323
1817
-2744
-1722
9579
264
14542
12399
-951
-6685
796
-6966
-2921
-5991
-2513
-2886
2026
713
-14449
683
-11345
4161
-5765
3235
-1464
6033
4743
-2066
-532
-322
1992
-4186
-467
1151
2135
-2255
-7875
-10082
71
7818
-1889
-3794
4011
-3726
7931
1203
-5611
12422
-11136
6865
-2880
4681
-2589
-116
2544
9839
7466
-8271
-9720
2079
-1446
-6438
-3732
3950
-3544
-8641
4892
14
5935
11426
88
2335
-5794
11377
11681
5294
-3844
3154
-4529
2734
5741
10739
6116
-4270
12534
15220
7585
-427
4323
-1802
-1441
1175
-3918
3005
2334
-3194
1831
-2071
6379
5797
2146
8774
5729
-3105
3046
3341
-6879
1894
-2516
3088
-3655
1297
3662
3778
-570
4425
-2660
1531
-7918
4739
9066
8418
-4282
-972
1867
5609
5804
6200
-1015
-4402
14778
-11103
-3743
-1294
8640
8320
-4974
-5193
-656
3003
2053
-1519
-8771
-1132
4606
-8864
336
5125
-7227
8259
3475
-10741
7727
2109
-275
6806
-3361
-3063
2604
6755
118
14643
5684
-7195
751
2915
-1365
-1643
6697
1363
-6571
439
1444
-5047
6449
1449
7644
1337
5764
4743
2640
8820
2101
11933
810
1061
-5670
6781
4037
-165
6547
1206
-7507
1187
-2206
6452
12044
3414
2225
-5414
966
2224
7206
-8580
1938
-5360
-32
-5633
-2864
2064
-2303
-3810
2874
-5159
8343
5721
4597
9859
-8664
-1279
562
-6753
-9203
8322
-10288
7883
11731
-7039
5438
1035
5217
7566
-250
3736
6137
1508
5515
11128
1792
1706
8267
18635
5211
13015
457
4490
6107
-15083
14173
-287
-1279
-7038
996
4556
12236
4308
-5553
261
9632
6447
-667
-1228
-15967
577
-953
-8416
-10250
3023
-784
-6071
9289
-9302
4441
5646
-1949
-2669
-1663
919
-10618
4099
-859
14013
-6940
16852
5627
-1985
-6203
-255
4635
9407
-10926
621
-2303
-7757
-7579
-12795
2021
-6983
1626
-4001
-3775
1266
3080
334
2257
-6486
3253
675
-13685
13423
-2571
-13353
-12
12417
14263
-1610
-7018
-5077
2768
10342
5524
362
-914
2931
-60
3004
-6709
12776
-4961
-10527
-3098
4272
9275
-14617
-3638
14369
5241
7487
325
-11442
7458
-9080
-12798
-1835
9448
-1166
-674
-6635
-3802
2537
-4522
3020
-12800
-8348
1701
-5676
17193
1532
-6391
26769
-8079
-4376
-761
16396
867
-14950
18416
-1380
2844
-9917
5388
14684
-14914
-10491
-14443
130
1839
-7262
3325
-12912
-1273
4094
14157
-19660
1473
-2846
5048
9378
-2408
-6303
245
8060
1257
-10121
12989
8953
-3087
2411
-7653
-9731
4013
1295
-3330
5894
4121
1254
-3369
-337
-728
3662
-8587
11656
-3949
20723
12323
9510
21642
1510
-14566
136
-15792
-17826
-7003
-783
-6673
-12984
-5079
-10008
-8245
993
-16113
3573
5083
1539
12950
17664
5387
6062
-7017
4836
-8815
-1240
18442
1526
-10749
-15942
-10182
-1092
9615
-6664
-3492
7401
4645
-2321
-7191
-1067
12142
2518
3166
1272
-9368
-1078
-15223
10283
-3142
-12249
-209
4669
-7473
-11405
18648
18387
11019
-12757
-4263
-12168
-483
-16385
-3956
7922
-9278
14569
-3816
8725
17782
-4697
2790
-17623
11525
15730
-1864
2692
-7872
13113
-137
-6180
384
2779
-17291
-3899
10002
7809
2460
50
5741
8467
-2116
-18251
5154
8513
-1315
11115
5076
-9747
9158
-5268
8618
-16128
-1594
-6277
-2322
-8865
-4536
-314
-4852
11423
-7541
-1465
-27618
5801
-7727
19331
-5559
-12881
-2777
1294
14680
-4090
-1229
9663
-606
-5237
-5740
3478
-10500
-19548
-3698
22625
23762
8556
-4103
-8458
-5973
-13904
-1187
-2736
5733
-7085
-8188
640
10645
11903
-11973
-2081
-10267
3372
-6552
-1602
9531
-9809
7232
-3614
5435
12983
-8730
12288
-16680
-10680
-4265
2408
11625
-12457
-7215
-6861
5418
-1267
-5315
-10132
7486
-692
-14526
20013
10359
-13310
-6720
-6476
-1197
-5840
418
-2119
-5288
-6036
-1673
-2088
-2036
-1301
-1375
436
147
2583
-4688
5357
209
1599
1033
-4544
1775
6845
-7609
4440
-2222
-1023
370
-10
5264
-845
-3050
3368
-1597
-3032
-1018
4790
2663
-11136
-4944
-4959
-1360
1510
4610
416
6732
1477
1256
2748
4444
-4259
-902
-90
958
-1968
3149
5316
-5812
-7823
6213
-2812
-3829
-4747
4391
-1600
-3688
-4167
-1367
523
3226
-5747
-11922
4015
6049
1218
-4612
4736
-1444
-4431
-371
442
1343
1878
-1525
-204
-3423
3640
-3728
4622
-9252
2718
4509
3625
-2727
4459
-226
4777
7974
6700
-7907
-4513
549
1487
6427
-4554
-8037
2055
1886
-4435
-5162
-6232
-2223
-7849
4226
-12690
-3197
634
3268
-4916
-6282
2654
42
-14830
3078
3279
2620
2100
-2550
-11200
-453
-1476
2297
-3779
12
-2878
2233
11151
7014
1670
2571
2145
-1666
2617
229
5822
-8648
-1018
4787
1037
-3899
-9406
-7258
11244
-6140
-8667
-997
9465
-9068
-520
5278
-115
2527
2550
-7058
3966
-8241
-3869
-7679
11417
9076
-3814
-4512
-2509
2296
7211
8370
1143
-5430
-2334
663
12663
511
173
-225
2132
-2669
-1119
9924
6189
3999
7340
-4870
694
1048
-12791
3141
2173
8543
2904
1054
6967
-487
1400
-5314
5486
3544
9908
-456
1535
-7278
5585
-6132
8870
-3445
-4295
3434
-7025
-5484
-1243
-7883
1340
-1979
6236
-5324
-2389
2361
-2778
-2403
-6356
5372
2040
1096
3672
-2763
2024
3713
8009
-4886
-662
999
12228
5793
5260
2495
2742
-740
2051
3129
-1747
1858
-3142
6874
-8300
-1875
-2260
10897
-444
-5996
-4664
-14447
-5256
3583
-964
-801
5169
-3458
3453
-12694
1170
-6123
3979
7810
487
3279
-665
8809
629
4786
3243
-6056
-2114
1885
-1978
-11755
-8921
3992
-6520
-4856
-8723
-7494
5192
-580
311
5191
6387
1251
1746
3062
7351
-6631
-6306
-2676
-3970
-1390
4429
6358
-4543
-743
-8290
4277
-411
-908
632
-6371
-13535
1896
6973
-6564
2751
-8891
694
2517
-13690
-9632
-3630
4187
-18288
-1127
4561
-3093
2403
-962
-351
-1256
-7614
-4179
6786
-12
6635
383
8975
-8347
5872
-4476
-3102
7387
-1419
-981
4221
6257
2800
3650
1319
-6902
-332
-3555
-2736
1680
-14930
565
1440
5484
-3204
-2732
2132
-12438
-4488
1823
-2857
4452
-3593
-3512
-9215
5559
-12676
13050
131
-14970
9467
2900
-6871
6388
-8646
-9820
1597
4023
5705
4965
23150
10421
-6295
-5341
15811
-4709
-5633
9709
-7074
-5632
10013
-7010
1038
-11864
-3206
-4477
4251
-4675
17905
7629
-5471
-2670
-15174
26516
11743
8654
8575
5908
14264
396
-16677
2109
3799
-11296
-3093
1520
1723
8122
2885
-6998
6795
927
2775
-4405
-7442
9656
-24466
-9814
16178
-222
-10633
-15179
5016
-589
15702
3252
-13387
-6036
4992
-193
-5522
7498
1763
9760
15083
-6147
13013
15581
6090
10061
-11745
2776
-606
10214
8165
-11035
-10196
-3270
-1532
-3417
5953
4620
4653
2782
11422
1679
10418
-13925
5537
2854
5896
-2062
11421
18734
-5233
14979
-627
-6107
2703
-3018
-7421
-7685
-6918
-2
-11781
3061
-9
17657
-9630
4863
-15359
2893
2394
985
-11594
4257
-11724
9182
-3802
3110
5494
-1058
-2400
3495
4559
-3553
202
94
1946
6277
6173
822
-7161
-6734
2528
-12521
904
10141
6203
307
510
2655
1772
22
-2571
6490
6806
-11173
-561
3271
3282
-8789
-1401
10368
7973
1997
507
-667
4391
-13876
-5358
4584
-5320
-8926
-5580
-11116
147
8208
1052
6608
-4505
-1756
-175
-2186
2822
-6866
206
7435
1379
13184
1509
-1620
-9057
-5165
1573
-1697
-8011
-7431
-3288
4348
13212
6151
-421
8332
9911
-7185
-4145
-5605
6263
2812
12488
175
-8878
-5273
-8452
-1040
-2700
-895
17709
-3430
-404
-3673
-6393
1279
-4996
-6244
13923
6653
-1153
4717
-5809
-2445
736
827
10616
4698
-6719
-4260
5341
2497
282
5173
-4097
-6851
-8917
3784
4474
3652
-12630
-9303
-1241
10105
6651
-3717
-1624
2672
-1134
-4474
-1259
386
-3881
5292
-5911
7678
-448
-5200
3564
-6694
-1929
5658
7479
3805
-9710
-642
-1374
613
19826
5063
8407
8282
9640
16821
7467
-3421
9278
3380
684
-7509
966
3586
11411
4006
2855
-10790
-5200
3281
-9652
3684
4478
9064
-4096
1339
8239
-1311
3252
4676
4934
7120
-11477
-3556
-1063
9594
3983
-6563
-1915
-1685
-3691
-4039
20567
-42
14967
-59
8637
1815
-3330
-7980
-638
-628
-3717
6258
2483
-5871
-440
7665
-5584
1036
-12187
-221
-1739
5261
4964
-4917
11673
9014
16851
646
9279
4589
10795
-925
580
16572
3865
-2033
-389
-22473
-10200
-8608
-12279
-9900
714
7275
-9315
-2099
1795
-5455
1094
3229
-10059
11299
11607
-4820
-137
2818
2074
-9308
-6370
16392
-16389
-2921
-2624
-8515
4539
-5039
10196
6485
4156
-9523
7625
8902
9496
4320
-5825
9270
-2837
1527
-8943
-4348
6559
-8763
-1149
8909
-6709
572
-9870
2740
-6142
1866
-12052
-15796
-2075
-11026
-5451
-1613
-6466
-4389
8565
-8008
7485
-3372
-3576
-2851
-2611
16168
7196
435
-4490
-6016
-10443
8458
7988
-3564
-9481
-3144
-4891
340
7064
7983
2010
-2547
3956
-1754
37
-3900
-298
6187
-15321
-11004
-7920
-15694
-7728
2864
-1363
-8170
12389
6588
12850
-1555
-18160
5683
5850
359
-3569
2637
7643
-2632
-2694
633
7999
1446
9019
2895
-7551
-696
-18006
4062
-9660
5490
-15255
3279
14748
-1357
6182
-5084
-11765
-2930
6780
3899
2014
5276
-8238
-1058
2037
-1968
592
-14658
-5818
8894
10214
8681
-6759
5281
-8613
-121
-9603
5681
-3928
2775
7540
3562
9778
2399
-88
-8415
9700
-2055
-312
-9543
1754
-883
2842
4677
4296
1989
4073
-6030
1638
-212
-2409
-886
4017
2225
222
1538
1208
-1149
-5057
-3583
4967
-1026
-4038
-1199
17
3174
4067
-552
3495
-3480
-791
6107
1371
877
-4571
-2334
2854
-2732
2693
-1203
-5649
-31
4
74
1275
404
-725
1751
1544
3012
-2093
1040
-639
2311
2784
4096
5460
-5965
-7145
3233
2959
1319
1565
-2831
372
-636
4120
3039
2411
3335
7501
7128
-936
2496
1470
535
1080
-7363
1894
2489
1212
-644
2079
1105
1034
5274
-8994
5465
3411
-256
4974
-5905
6032
3561
3462
6118
-1413
-3429
-4360
-819
2139
570
2132
-2250
285
-877
1864
-4306
1179
-2602
-409
1360
7447
5976
-5708
-5033
7031
3872
114
3115
-2588
-3143
1429
-4561
-831
-297
2144
-1095
4013
-1003
1096
7268
-586
7892
-8603
-7675
11599
693
7388
3617
2883
-601
8201
-668
760
10897
1491
-14412
12028
-10426
1501
-369
9957
-7710
7500
334
9061
413
-5882
-3408
17253
-9177
-9105
-11141
18682
607
-2282
-3484
1208
-13290
-8855
1937
-14322
9669
10766
8487
-1669
-10352
-8398
4977
-4653
-7784
3795
580
12290
18374
12451
-8774
-7857
7108
19534
2624
-8950
14365
-4272
9683
-5499
9946
756
-3300
5482
6261
2622
-3166
-17053
9014
-1971
4681
11751
4674
5289
-5753
-4516
-4080
10399
-1180
-1555
-1576
12766
491
10803
9677
-7574
13100
-8087
8557
6747
-11089
-9502
-3173
-15333
2571
-3631
7070
15643
3906
13170
-5678
-8948
-919
-371
-9711
2989
12091
-10444
6886
5518
-16325
3861
2537
-21669
18526
-103
-10547
-3063
19179
12762
3276
9715
-7546
11292
5210
-6153
-8704
17345
-4564
1484
18767
19050
-3145
6109
-5566
9222
54
3070
11961
4108
-4399
7544
2188
-6359
-4172
-13335
8721
-6208
-12035
-8084
-5063
-5085
5543
-6736
6895
-2945
-8299
-8565
706
2215
4587
-3788
-1688
-318
11093
-18112
9950
8989
-3684
-23308
18299
-1487
-1660
16686
-22292
1385
-2142
-5440
1719
-1949
939
-4217
4418
7214
12575
4081
-6176
-2599
2586
-3850
3102
-5925
5280
10698
-19412
-5764
-6720
1032
2701
9151
9528
-8111
2480
-10092
-664
-4377
-1234
-4777
13240
-13774
-463
79
-349
-6822
836
12200
-6075
-6411
-263
1093
-21985
5045
-952
15077
-3575
-15655
13019
-4366
3907
-5398
-5513
-3037
-5496
3096
16762
6263
-2546
11186
7201
-8793
679
1308
3152
-9207
2537
-6185
14277
-230
-525
-1701
-8435
1030
-1535
17687
76
711
12115
14126
10313
3871
-4002
-5562
-1717
-5831
-2298
-1340
-9779
1872
8173
3258
-12745
280
-276
4662
-7489
739
1685
-7766
-10072
-2758
1425
5471
9663
452
-2032
1636
-18572
706
4279
7287
-5680
-8609
-721
-9259
8111
-5429
2369
10938
-1706
755
17450
-10623
-4956
3226
-5325
9367
-337
-1757
-5968
415
6787
-197
7039
-3596
2710
-11897
-7162
8157
-6244
921
-2553
7795
-18224
-7106
11294
-6719
-295
1888
4883
6369
-3260
15032
-3246
2675
-6623
-6697
-8794
-1131
-10343
5984
-12403
-4582
-10250
-4314
-13758
3611
8536
1344
11211
-3504
-15544
-17461
1762
5182
5447
-11324
10290
-5066
-4978
-6914
2428
5863
-10093
-8801
-12413
-3231
-1238
-4364
15678
-9451
1989
-5181
-4789
10124
6600
-2243
-7816
3477
-787
3970
10264
-5716
6935
-8299
6124
313
2061
4124
4854
3086
-3869
3240
-5481
245
-7953
1334
7196
-4323
5936
-7537
-820
-265
-7596
-3143
-6773
-1918
-3743
2996
3798
-2995
819
11573
840
-2972
7156
-198
517
-4516
-3170
66
1522
5165
-3665
-5046
-3315
-379
-2708
6812
-1223
9866
7483
-2784
-1166
8283
4749
4052
-5816
-10927
-3748
4139
-2056
3585
-6293
-5950
7410
2962
274
-3547
96
-3215
-2448
-7270
-2385
585
-1668
9079
3043
5147
-288
-298
-12171
3933
-3614
3167
7943
8983
85
-5687
243
3571
2394
1265
8933
-24
6364
671
5423
-8213
-3940
3743
-5451
3783
350
-5158
9355
-5845
-2403
278
1486
-5215
2000
-3294
4245
-750
1559
-9817
3305
6144
-1688
-3409
1808
-2574
-10896
5394
-2987
234
2667
8650
-12402
-5781
-5638
5259
4656
6934
7343
-19408
19085
-695
4918
22462
3929
-12768
-9799
4492
-29
-8935
2310
91
655
8202
-5961
4071
-1590
-6730
2493
5141
-7471
-7276
-10292
8303
2634
-8410
-11231
3210
-311
882
-13834
3784
3076
-1723
2929
3635
-6222
11269
-4494
7681
-2860
695
-5391
3232
-9500
-2177
-13358
-6693
5141
5807
-7098
12720
6109
-10148
1676
721
-7285
549
-5711
-6464
-17325
-6233
11694
-8904
-948
17299
5999
-3687
2497
-5973
-2968
8210
4107
-7769
-2686
-4880
-6635
-3419
-4057
-11260
12742
-803
-3796
-2245
23049
4074
-2436
3404
1629
2135
145
3565
-7960
-8342
-3863
-2257
-8038
1746
-2021
2960
4413
7272
3992
-2466
-5874
11546
6291
-6237
-10724
13274
3330
7176
-3732
-3332
10882
8612
-8214
582
8737
-2778
1907
-1946
2093
10854
-5918
-6510
-2932
13166
-8388
12006
15244
2460
-11368
-6982
-811
1539
-7816
8733
1078
-2495
-1466
-3158
11825
-6411
118
17167
-7726
-727
7042
3026
-1194
-8088
-246
-15010
-5792
-9793
8231
-21782
-2365
83
17395
5918
-271
1371
-8756
-22218
-13844
-1157
-4172
11089
-19268
12381
-5974
-10244
121
-24919
-8353
-6040
2360
-6383
-4620
-3839
-42
-6417
-16073
-1872
-1472
10003
12201
-19827
-2653
-12405
-3837
8496
-6233
7889
-7582
13958
11695
-9576
-3048
9707
-17126
-1309
15230
8983
18785
-8400
4007
8097
7868
683
-7980
27875
-4019
-6050
-1886
11041
-3864
2839
-14785
-3679
7683
8616
-5897
4413
-4136
8755
7764
2323
-4841
-8511
15035
-6903
-6741
-17630
11358
-14104
-12148
-11335
2400
15421
-6343
-13658
-20468
9146
-3590
-1177
4842
-832
9564
-2804
-7067
-1950
5751
-6874
-280
-5672
-8569
-11124
-9765
2655
15815
652
4316
9917
6637
-6330
342
15514
6978
4894
-3985
-8528
8248
-13338
5273
6850
6562
-825
-9680
-1616
1019
-138
-4274
-1475
1888
-12207
-7392
-16089
3043
-8441
3111
-15292
-4601
857
4753
7135
6471
5672
-213
-8786
8221
9448
-14909
12413
-15110
-4836
-16556
-5554
-12140
9018
-16712
-6160
-1867
-4171
-8382
11185
-6357
-1267
-13860
-14061
8550
8668
-5492
12374
-6222
-11462
1919
-18924
3009
-2467
3027
-13494
2879
11538
-5388
8417
-322
-4459
-1571
-8538
-8454
8199
-13225
3190
-5144
-5087
-1986
6809
-6662
1899
428
-11196
2113
-4023
4068
8613
470
2216
490
10213
-12694
7073
-6137
-9061
-2841
-7740
8536
-1184
6781
-16043
-21325
3229
-1726
7964
-2516
-5353
-7101
7600
867
3397
8346
2533
-2446
-7551
-10677
-3929
-8671
-5643
6018
-10563
1175
211
-1021
2234
3534
3957
1023
7207
706
1842
660
-4666
-14041
-15024
-1476
-1551
-6735
-1464
1340
-10902
9485
4124
-3275
0
8735
6570
2860
-8431
12890
-18648
12617
3952
2227
1157
9863
8734
-4136
-379
7500
1727
-8494
600
167
-292
3943
10925
1398
-2443
3448
-5575
-2776
5262
4082
-349
-2219
5236
-5959
11360
1497
-7999
3932
-8529
11610
-183
1648
-122
-1337
12875
8535
-10430
9673
7958
7225
384
15865
-1374
3102
-156
557
2828
-15680
5397
953
-10879
-5653
-2575
-1146
4382
-1773
8575
9275
7846
625
-917
-15315
-58
3778
-4120
6336
9460
-5013
-6147
2175
-7227
-2366
-3008
1310
-6039
-3917
-1482
-5191
1711
-2913
648
5393
4092
-3971
3297
4143
-764
19248
188
-19541
941
216
-2251
-11168
-2374
4246
-3491
-5469
-4697
15985
6335
3574
-4235
7598
-4176
-4902
-2625
-3620
5116
887
2456
7082
-11010
10006
-9687
-5057
4586
-6499
2722
-8737
-10285
3404
-6944
7184
-984
20840
16813
935
-9683
-6005
5051
-932
-3855
-13750
-7208
11071
3008
-5567
-4745
-3553
-5131
-1129
-8526
-5291
-1538
-10460
-235
3917
2966
10866
12468
-2418
-8370
-8951
-3728
5853
-5555
-5012
-11382
-10848
-3320
7277
-8807
7448
1449
2746
-5374
5637
1926
-9403
14961
7363
13471
-1998
811
12931
3435
4180
359
4254
6808
-10785
-1262
-10404
4504
7634
-1593
-4607
2292
3681
3044
-3664
4929
-89
8004
-430
9727
-4226
15088
633
6380
-4495
897
-327
1532
6511
2614
-3192
-322
2089
4002
8359
-5883
7847
-3473
-7001
3181
-1944
1169
8093
1757
583
-1929
3899
6759
4951
-8178
-4267
1157
-3636
-4107
-519
6484
4228
-955
-7454
-3428
-875
-4388
-6857
-3103
-2024
-2191
-2162
-3679
-18
2230
95
2878
1255
9898
525
-878
8424
-6294
-2363
-3367
7131
4672
1420
-1225
2123
2434
3872
-3512
3100
-1087
1377
2552
8339
-609
4205
-5786
-3299
-1325
-3330
-6714
-543
6907
-1597
-2380
7848
-2490
7452
-2868
983
5086
4974
10568
-5155
7549
2433
7749
689
13835
574
-400
11368
309
-4520
-12225
-757
4663
1757
-613
-2692
-5532
2987
-4525
5280
2808
-2845
8774
3283
1570
-3201
-4816
1619
2119
-6375
-4721
1861
2891
-2562
-1946
2508
-5051
3751
5306
12190
220
1045
10073
16750
17323
22675
-5187
5260
-11982
293
10294
2498
-16932
3002
3074
-8884
-8034
4538
7859
13761
17517
9829
2070
3159
5128
-16812
-2879
8480
-2127
-8166
5935
-7126
-9816
-1215
-6837
151
8352
-3469
7501
-12706
-760
-1385
16120
1454
9001
-4142
12355
3595
2742
11013
1091
-8263
-1309
13828
-17974
-8996
5217
521
3537
6351
-12229
-6450
5941
333
-17284
-7318
-1885
12484
-131
5183
-5947
6373
4064
4223
19032
1434
3484
6074
-1571
-172
21802
13261
-2155
-9019
8300
3132
7860
-2444
-3242
-6366
12991
-5366
931
-7169
1417
6731
-1437
-12620
6331
-22941
-18144
9611
170
-738
1752
1859
11687
16781
4683
-2178
-9215
-12946
-90
-4173
870
7467
-8300
8928
6972
-10595
-1229
12184
6805
5879
13919
26672
9983
8358
-504
-15167
11151
7720
2782
19274
-10681
-7980
-5249
2715
-874
-3379
6381
11893
-7470
-19439
8230
-9067
-12689
12593
-17788
-1636
-1842
-12976
-314
-2304
13027
-775
-5990
13522
9623
-5953
1851
-29166
-2970
4380
-13432
2603
-6606
-3274
15920
9845
6935
2858
-1707
-8357
-730
5644
-12789
-1560
1527
-9169
-13052
6038
-4563
-7524
15682
-10555
-3657
-7494
3937
11352
7164
-419
-9054
2127
7753
5317
-15237
-15767
21596
-16442
10699
-1509
22534
4640
6485
6670
11884
-11032
4022
-16261
4523
-7509
-10307
16298
-7979
6740
-18780
25491
-18910
61
-1530
-2340
8966
7232
5008
-15007
1795
-17376
-3434
10077
16762
8807
2056
-480
6152
-4814
-8602
22456
-12989
15296
9
7600
14856
-9215
-9881
-13561
-17994
-5631
3897
-5626
65
-620
-2736
-17659
2933
-3158
20232
-11751
3630
4639
8511
6341
-8919
2439
18246
3728
-2922
9258
-2215
-1291
11400
-3001
16485
-8103
-5265
11890
10551
8571
3898
2283
-3721
8039
1482
3011
4777
558
-13170
6220
5811
-538
5491
806
-5849
12132
3063
-981
-2445
3733
-5704
-6425
-513
-9080
-4712
-2543
-2969
8610
-501
10881
10228
-17381
-5781
-1336
6355
-7430
-9591
7128
4810
-1586
3188
2852
8793
-10934
-4695
4549
5270
-13193
4260
4417
-11707
1421
-683
5825
5003
4847
14557
13256
8980
-7246
11318
12796
-905
23937
-950
-7749
7326
4365
6724
-1213
4051
9492
6607
572
-1097
-2352
-16888
8595
-2767
-1855
-3083
-9407
9854
-7404
2515
-3457
-4815
8367
-7499
4252
-284
-2914
-4184
-12156
-3925
-2183
21770
-12845
216
14576
-10684
4023
-5301
6287
2185
13172
-2351
18111
-1053
-5795
3236
2480
8468
6310
1170
10833
6969
3600
7380
6737
2347
-3241
1052
1426
3363
5208
2973
1981
-1604
3732
10104
-6515
-163
2847
2210
5718
-3484
-4697
6847
-4093
7653
12567
4861
4332
4874
1615
-7806
-142
-430
4785
-8749
-7223
-11034
2126
9126
3617
-20577
3532
1051
3452
-1670
-8855
-4501
-4301
6085
-6274
-1915
282
9432
683
-7088
-8
-144
7406
3628
3452
6578
-1258
14879
-1583
10493
-1160
2171
7696
-10391
-594
-7734
-9125
-227
281
-1668
-2455
-5648
-10843
5318
85
1206
12010
-116
9673
10079
-2305
-5389
-2237
2122
652
4514
1429
-2353
12880
2974
7021
650
7424
-3326
3756
-16118
2472
6830
-1137
-3943
1064
4728
9706
5200
8673
2585
3209
3084
2583
5403
-1380
5909
-11082
-5636
2475
-778
4030
-1084
4341
-4101
422
-2295
5000
2732
5957
-7522
339
-3674
549
-1874
3044
-221
462
2809
10346
4097
-8971
-7390
-524
477
8850
8150
-3670
-8697
-2203
5620
8535
1028
-3672
8007
9963
-16885
-9885
1502
963
6675
-9387
5272
-5454
4095
7994
-5789
-3256
-5690
-4352
13833
-5508
4937
15782
-64
2534
3116
-1925
-12451
-5726
4228
1479
477
5321
-134
4312
14576
8648
3161
765
540
-8328
-4834
5331
6739
8819
3694
8197
-12694
-5862
-5925
38
-3714
7427
6652
3381
5806
-5028
-3907
8518
809
256
-8268
-3313
954
-1958
1888
-3405
-6863
5974
6735
1382
1085
-10966
2798
7260
3210
-6076
1866
5489
2111
7507
-4824
-723
9678
2915
-3231
2281
2
-8487
-383
-13962
10962
3434
-9260
-704
2242
-1730
-5584
-2057
-5861
3650
-5543
-4852
11711
8373
7949
368
5153
3847
7490
-575
373
9252
16
6318
371
-2083
-4411
3605
-163
-7690
671
-2907
7665
2333
-2367
-7038
4588
-4102
882
7709
372
264
-10196
8356
330
866
2508
644
-7041
2367
2556
-1672
-4154
-2296
5320
6438
2117
2650
-284
12424
-3097
-6029
-3621
-3620
-5366
4690
6976
-4613
2129
-1473
-969
-8541
-8602
1047
-5666
-1365
49
3616
-2333
-5114
-3755
7907
-6692
-12526
2343
-2794
10043
-8539
10756
-6814
-7652
-9197
2735
-2101
634
-5775
-753
6923
9786
-7622
-8102
6162
1196
-14578
-6430
-15
-2962
2320
-1086
-1213
2454
5543
1209
1193
-1808
-5223
-9001
4099
8508
-7430
8292
677
1722
6287
-854
2104
5959
-10773
-3419
13168
-3446
13474
11178
-5912
4149
-1125
-9695
3962
5769
-3097
1189
1152
-1089
2050
-6434
6371
-5919
785
-9584
5106
6442
-1807
279
4997
-3305
-1340
-9675
-7520
-3722
-597
7479
546
-3699
1074
-8255
-423
-3876
2936
7673
-3554
-1394
9966
-4186
8147
-3178
1220
-10790
3353
672
-2969
-8726
2599
-8491
11237
6363
4411
-16667
3685
-19615
6552
6102
-12494
-11887
1514
3069
12793
-1747
8048
-12649
241
-3948
79
-1034
-9148
-12654
3904
5948
6578
-1471
-8842
-343
7705
-3602
-16023
6854
-3148
-292
10311
-608
1008
1224
-27274
-18666
4608
13845
-2617
-2133
-5940
7642
13902
-4058
747
-5544
5260
-6011
-3814
-2291
-4309
8042
-7048
1808
8954
109
8766
-351
8206
-8733
4257
9058
-1616
954
-6148
-2147
-10129
-1568
-2400
-803
-6692
-10592
-926
1526
-819
-7059
-2991
-12063
-11111
-2462
-5021
1427
4083
4207
239
-2625
-1110
-950
-975
-1372
-3190
571
-157
-6643
2774
2076
4327
-1358
8147
-5939
3638
5279
-198
-2728
7844
-2216
-1211
-3189
2803
4659
-2398
-853
647
1880
1026
-2409
4066
3006
4808
4699
-973
-2163
-6373
-929
-6416
6708
1928
-869
5266
4529
-807
2290
4731
-6942
610
-729
7742
-2166
8990
6634
-2977
852
599
-5820
-2540
-462
-2908
5271
-8994
3420
10272
-4916
-8461
409
-1740
2741
-611
-161
-4975
1104
2492
-407
-8101
1957
-480
3210
233
-2545
-2238
-9648
1376
-5130
-15368
-3085
-1580
2395
5079
-5311
-6076
4035
-8193
3351
374
-4020
-4589
-3343
-3142
675
1215
-5967
8041
4176
719
598
-156
-4661
-4611
6354
4641
-1067
1970
2462
-1981
1799
2816
-3732
-8345
-6769
-487
-5430
1080
9904
345
11317
3674
-743
-5580
-5477
6194
61
3427
8878
137
-10038
-5860
4606
2092
-23099
15815
2307
9732
825
3654
-1431
-3497
-7603
8370
-5784
12117
6414
-2154
-1788
1439
711
34
-6253
1470
-6084
-3672
179
4059
-859
1576
-2946
-2370
10708
3446
-6730
8379
3704
-2443
811
-1127
-2599
-3011
-22219
2701
-5836
-1240
-760
4068
2687
1059
15990
-6270
2126
6931
-11658
3613
6196
-4238
-9975
-1711
-12412
-3516
-8950
1830
-46
-1856
-8300
9320
-6618
-6313
-1339
6700
1755
-2719
10699
5625
-7468
3588
4544
-3186
-8631
160
5127
757
-10934
8507
-5411
-6203
-10112
-3198
-1530
-4069
12677
518
372
-874
-2777
-6278
-3672
2166
10333
-3224
5468
6319
11610
-8343
4378
2904
6509
9374
-5939
6456
4048
-9164
6724
-1083
-8867
2809
-10375
-4356
7426
2079
3343
5526
-4477
6173
4434
-8988
459
-1482
9639
-3792
2554
7194
2127
13027
8167
-1110
-4574
-3465
4754
8813
1326
950
-7633
-793
358
-3306
-330
6396
1588
-3991
4417
-6576
-11051
3227
8383
-4198
12628
2940
8990
-2007
5159
-4251
-1177
10882
-995
2936
-10336
-1967
-13411
-5002
-184
-1486
-2487
11125
5287
-1460
4933
8852
5257
5557
1511
-547
461
-7095
-1723
-2616
16343
4943
2448
-4369
-7799
-12915
8831
-10404
4359
-6828
-9680
-5300
9753
-1710
-18921
5904
-9699
3143
-11117
-3179
2732
-2086
-6231
-2371
-5225
5766
-71
173
-4347
6042
-5982
7114
-559
7279
-10814
-2442
7753
1027
10543
5348
-1390
5980
-9551
5601
-3710
7627
3684
-10241
1097
-3217
478
-377
4845
-2534
2823
-4004
-432
-1662
-891
5306
2448
-4775
-819
9224
-12513
-3381
-14622
-4942
-1950
1025
11545
-809
15245
-1870
-3079
3320
-5269
3985
10582
-14227
3934
-5962
2659
-15528
2024
-6323
-11873
-3740
-787
-1519
397
8263
1795
7579
8282
2560
-11270
9259
7478
-8995
-8559
4005
1761
-5571
4506
1972
2798
-520
-5875
4145
4781
-454
2703
1539
-881
12428
8554
-2738
8187
-2456
-2505
2955
6191
-5328
-1567
4084
1080
6443
11025
-4555
5485
-621
274
2779
-14297
2171
-2409
-2291
3636
2059
-4002
-137
-1609
1464
1617
217
6122
-1271
8803
5640
-4162
-10384
5652
854
2086
4335
-1612
-2441
5823
-1396
-1287
-1032
3085
-3829
3895
6835
3251
-5506
10575
-4353
2136
5350
4840
6122
14030
2994
-14192
10576
-16856
12924
-11519
6741
12020
-2822
-3318
-7718
12323
-11657
1863
-9791
4494
14559
-6714
11929
4280
-12895
1273
-5015
9422
-4809
-3975
2291
-13110
10432
8325
-2636
6326
-1207
-777
-4343
-2950
250
-4924
5023
3024
13669
2715
6475
14478
-2773
15901
9672
-13573
-5601
1446
4831
5283
-4932
8656
3206
-745
930
61
-19522
-3271
11333
12958
1464
-7782
-5843
-11723
3267
17094
6078
3207
-10295
11179
-6822
-9441
13863
-6935
-25183
-5124
3304
-4082
-2590
-10310
-13165
-2783
3720
7316
-513
-10200
423
8782
-4777
6569
899
-11572
-14497
6399
434
9026
11226
4198
1868
-7271
9051
3531
-5239
-7304
-4694
-4379
10684
942
-3116
7669
14006
3519
-2578
-8386
9439
2626
-6663
3078
-9963
-16564
-13178
-20190
-5899
11430
-20112
-5709
2171
4613
9164
-2801
17551
-11206
607
-211
4751
8886
9434
1049
11237
10313
3608
2063
9449
5646
-2438
-3172
1264
5245
-5945
9232
1471
6867
7750
1854
5267
-2326
-15397
7184
15363
12678
-7659
-3552
-4783
-741
1466
-3182
18581
6102
-17442
-5703
-4327
-4775
-4022
1559
-6675
6299
-5655
-159
5256
-1798
-6456
3456
5647
3276
-558
-3086
8700
1063
-5488
-4859
-16946
13706
3349
-460
555
997
11528
8643
-5781
-1069
11230
-4410
-2899
7235
-9327
5831
4656
-406
7335
18475
-7730
4495
11156
-1133
-3019
2600
-3129
6794
13881
2805
7345
-5264
595
-20087
247
-3173
1658
-2653
8747
5757
-6047
8373
7286
9021
11844
-6775
-1985
-11217
16274
6459
12250
-2386
2007
19237
-4867
-16583
2244
4926
-1714
7292
-6304
7950
6403
-973
5972
1534
4612
-4914
3862
-17860
4098
-926
-4711
-525
-763
-6850
4478
8652
-13274
1303
-14377
6845
-8545
9121
4483
2701
66
3628
5962
-12292
5450
10274
5218
2544
-6132
-1001
-4306
2713
-7457
-5822
-4036
-3925
-8695
8481
15585
348
2713
638
5676
11440
-634
-6835
-3386
648
-3588
15074
-9104
1572
-2700
128
-5221
-10056
-2558
-11312
-13737
-1326
1122
-6816
-387
1763
-9329
6104
8375
21592
7707
13832
8814
-7807
-1151
-7834
2910
11490
4836
-1148
-5498
-8280
-2593
-2724
-6262
935
-5851
-7927
4374
1967
-5750
-183
6501
-3008
-7803
-9848
-4044
-5704
-19996
-7956
778
11046
1466
4401
570
17114
3497
-2223
-9282
7211
-15716
-10653
-10174
-931
-3555
1639
4347
-3478
4087
3255
27
-15148
-12369
1935
1462
1179
-17178
-14234
-8069
1160
7176
6494
-13541
8185
-4640
10269
5225
7332
-8271
-10748
-335
-1251
9840
4836
12758
-799
1187
12079
-286
-15728
-13801
-11838
17220
11305
-5550
-2250
-15347
-3705
9579
18021
-8388
1706
-2299
6766
-38
-6154
-11428
7783
-8818
1051
1104
1933
3430
7747
-7135
3138
7205
10639
1069
7291
4529
11282
-1825
5748
-7475
-1489
2277
9090
1333
5018
-4731
5374
19280
-14306
-5748
-6178
-14097
-16138
-8258
-5713
17635
-9294
535
-8615
11852
-4844
-3959
-2925
17948
19009
-71
812
2369
-9774
-8107
5043
-14990
2832
-5675
-3310
324
-11444
6454
9808
-17854
-12648
20220
-1238
-2936
10606
5835
7914
795
-8890
8764
-10467
-5715
-12288
8449
-3319
-3025
12112
78
16651
-7342
-460
3919
-4771
-6487
-4458
14381
16115
11240
-860
708
8153
-17048
3487
5850
-11069
3668
3956
3674
-717
2954
-8035
4914
307
4630
3831
4925
-4588
11207
10077
3241
4555
-2433
3042
-3150
-7606
6558
1882
-6117
14545
1231
9
9200
-11991
-1212
4007
3621
6458
-1404
3330
3830
33
2492
82
1522
12604
1287
-6868
1571
-311
-362
2818
-615
2759
13008
-4910
8045
8345
-3342
3727
8771
2345
655
-12712
1019
43
11239
1945
377
668
7414
-6006
-7141
1091
7473
-4640
-3095
4913
-1932
1039
-6590
3486
-11154
-337
8149
2663
-8831
2861
8259
6200
7151
-9924
2825
-1464
418
-365
3500
-11464
-6527
9462
-5782
-2330
3290
7159
8069
5967
-78
-8228
13021
156
8985
4884
7880
6437
-1829
-232
1108
3038
-6863
-69
3372
-1151
5151
-12330
-216
249
7710
2322
-9911
5322
6373
4397
-361
9752
10903
-8516
17
-5694
-8475
12631
11108
11970
17127
-2615
-14596
2934
9182
-6692
1564
1135
-2275
-3727
350
-3115
5101
-4415
1879
3303
394
-2518
10308
-1145
-3442
2724
-16267
9132
10360
9198
-6445
-1187
-3158
6612
1182
1081
9399
429
-250
-1191
-394
-15489
7389
-6508
-649
9748
-2880
7851
-5283
-11080
-3470
10835
11333
-6412
-353
-2832
10411
-10372
-4625
508
4254
-613
-1291
-4360
-2428
-10388
4111
15448
-13317
5610
-16149
6898
-1520
8685
14988
5991
1632
-7303
8668
5483
20636
-3925
-17303
1499
-3131
-13169
-1412
-14131
-14942
10881
3335
7836
-3982
-6227
10170
5358
-169
-848
2322
2654
-3467
-1767
836
1406
-3068
-257
-11947
8266
4546
-10385
-3338
-12239
2045
8327
-744
11791
6527
1179
2518
-5714
-1716
9099
6887
3929
800
-1229
-2898
-687
-1932
-9074
6017
-1795
-2487
10690
-6174
-1247
2871
9374
16453
3462
-3814
7871
6566
-2157
-5577
-1231
2345
4863
1229
-2182
-6546
-4542
4475
-3194
-82
3237
-2090
9334
151
-9324
6002
6535
3919
-3727
-1593
-10774
10721
-2040
-1648
-3477
85
-13496
-41
5991
-3931
29344
-8364
-6108
6624
-6807
8410
-10140
-5427
4744
-3978
-927
-1870
-2952
2889
9329
14184
3561
-1805
-15214
-1216
6419
6668
8457
-3093
7755
-5123
-7132
-9967
2926
-6037
1764
-9590
8789
14274
5461
5176
3720
10693
-13470
-14726
2981
-16299
-5162
-2270
-2727
3076
5233
14525
9031
-1340
-4543
1527
9259
-12584
2839
-3229
-8798
-931
1663
5554
-5563
13864
-6883
-238
4253
2856
-10480
-8050
-3461
5174
17552
-8990
-57
12152
1629
7439
7
8995
6912
142
5384
-564
65
-3569
-3358
-5714
301
2553
11402
-2771
-706
-8168
-2548
-462
-7209
5865
-12736
261
735
-305
-8830
1512
-4536
-5711
-3652
4890
-5640
2980
13080
-445
-4013
-336
-8251
-3829
-6491
-4316
-663
-4656
835
2975
-331
-2550
8015
2632
4561
-3609
-1344
-3418
-3189
-2052
-4759
-6849
3376
-6215
-10549
746
-2361
-1045
15152
9289
-7701
1216
-5525
-2259
-8100
-5582
-13346
-4653
-4282
7782
5099
6269
15113
4198
-3167
6656
-7958
-7281
879
-1295
2893
8256
11599
-11411
2631
-3646
-7045
4905
-1634
10133
1190
-4863
-3222
5082
-439
-5077
-5821
-11444
-8789
2719
-1919
-636
-7060
441
8573
-5869
-2999
-7490
-4072
-3237
2087
2631
-2241
-3375
1253
430
-1738
-2539
525
2287
1626
6203
1694
-10875
-6534
-1240
-1196
-9124
9544
5532
-32
6608
-16694
3420
10160
3041
936
-64
3121
7184
-10882
-4388
354
11564
3632
-3267
4978
4509
3947
7344
-827
-9964
7592
-11466
-917
5468
7730
-5951
1071
-3716
11185
-5986
1090
9365
405
3056
-9669
10069
-7850
-8219
1591
-1018
5810
1947
3332
13027
-3814
3182
785
-2699
469
4912
14619
-10351
1119
-7312
-3541
-6130
-8105
-1397
5229
18862
-5031
-7664
2966
-4262
-6348
2490
16047
-310
2683
-8131
999
-2917
4390
8028
-1645
-1196
-1868
-3876
-2044
89
5856
-3713
689
18773
-1969
1259
2183
-6895
2974
2791
-11649
8311
-2826
-3876
-56
5573
11244
11043
-2317
-7494
7367
-1549
-6136
12557
4533
3780
-4258
8296
-4262
-6393
5789
-1329
-8256
4604
3309
6645
3180
9262
-243
-3189
2054
15282
-4283
8215
-1923
-11852
7619
-2810
1207
6671
5565
-2302
-10031
-6214
1842
-11533
-4563
-2007
-3904
-9579
-7001
8071
5193
-7789
87
10508
1949
4572
1056
-6544
-10242
-11693
-7015
4025
162
8808
-5451
3229
4417
1496
1046
7915
20
660
-8753
2098
-22246
1319
-10602
-71
-267
2420
-5085
-863
11250
-1601
2912
8856
1841
-889
-14689
1443
1280
8911
7708
3257
10430
-7334
2134
-7428
4498
15786
5736
-527
-4308
-779
-5118
-7030
-6713
4509
-9102
-6888
1703
6451
3821
-7556
2216
-8581
-6288
3339
6816
6401
13221
-3322
-4578
-7245
9840
2634
-6013
1825
5714
-6733
-10053
8133
-2664
7876
5312
-4481
5477
-11246
-2782
-341
12176
1392
-8892
4133
-9811
-3751
-1348
11033
-10196
-8326
9973
-11830
-4016
2313
2745
2137
-1274
-1389
-5103
-5069
-3333
11876
-11227
758
5143
-824
906
6908
4270
-6770
-8219
-107
-5112
1720
-9405
-10996
-5379
-1952
3573
-4129
4097
-5871
1551
-13854
148
7275
-18629
-511
11047
162
-1847
-6141
-8751
9095
-7141
-9981
-9043
10394
16335
-7698
-7355
4971
-715
-1787
-361
2319
2518
-11512
-4695
4048
-6306
2878
6920
7639
-8339
381
-5727
5502
4096
9297
3632
9074
12489
-10769
-8487
3886
-3192
-8060
-6847
-7394
8137
7267
-6329
-85
19594
-10717
-1260
-12612
9474
5785
8454
4063
2708
-1548
-6972
9340
7785
8550
-22115
8010
-266
1521
2504
2004
1456
-6114
-5010
-2927
-2189
2072
-8075
1699
24
-14860
-3372
10627
-6693
11902
1568
-4057
21525
-5367
764
9478
-10283
-1987
-2948
-10420
-7562
14340
-3296
10447
-2804
-7363
7149
69
-7977
12034
-472
6258
5861
2082
5770
-7510
-592
-12650
6145
8897
182
-5763
1837
-14858
11368
14100
4922
-6920
-9357
-3609
1313
8835
3233
1779
5676
-2350
-20728
-321
1188
-6180
3300
-4709
9015
-4771
-1339
430
2560
14264
-5473
14701
-5707
5035
-7021
-6201
15932
9094
1798
11452
323
-11046
-3816
4303
-5682
-5583
-7530
-135
8233
11591
9175
356
-10240
-3611
10289
-2541
-4018
-3793
-11995
2073
16141
-103
6058
-9002
5747
-10233
6488
11004
-6239
17328
-213
-4464
7587
-13048
12573
-1149
-7435
7120
3214
7240
6436
288
15957
17798
-5872
-9867
15284
2014
9146
4672
-15369
12903
9733
2571
687
-12190
12331
-7048
-7373
-11938
-6803
2514
-7385
-2279
-16861
20411
10791
-3136
-9076
8662
-4422
4064
-7346
3615
13529
6088
-1528
6197
-4493
-1519
-963
3186
8412
2906
5263
5715
2410
2948
3847
4304
6412
-7154
9543
1659
1400
-3933
-7574
324
-541
-2219
7718
-10784
-3195
3995
-3122
3142
-2272
-2698
-8376
-5574
6963
9907
-3285
-4410
823
583
-1733
-1846
120
-3874
2785
-5624
2435
4387
4688
-2152
-2739
1319
-97
-2520
1430
188
9749
-842
3059
6308
4075
2846
2606
7058
-5159
-334
11660
2608
-939
399
-7497
-4972
-4264
-8216
-3672
1982
7001
-4399
14456
4174
7604
4509
-1586
-623
752
42
-3270
-4332
9469
-3847
743
3622
-925
1823
2995
10062
1812
3516
3803
-4904
-3598
-638
-12310
9565
2021
130
2831
5499
5346
6095
-3866
1501
-3359
-4435
4658
6093
3661
-5097
3163
6708
3876
-9523
3616
5812
-3294
3345
4546
3067
5565
217
1332
-6105
13244
269
-2191
4958
-13411
-11141
-4494
7571
956
8141
-1655
3459
-2407
-2803
-475
-5154
-10615
-1454
-3058
1630
11131
6268
-11903
-10975
4665
1235
6031
1548
266
-4738
-2972
-2412
-7582
-7049
2343
11453
2388
-9438
4033
3779
-1241
-1732
7792
-4393
5146
3225
-3176
657
-8571
20223
4192
-41
-12069
-3284
-1653
450
11866
6407
-9255
1006
-1028
-4120
-4850
5991
4244
5543
8319
-871
7314
3063
-1494
-989
10385
3674
-6028
-4841
-7660
-1244
-9081
-3746
139
-144
-7864
9618
1891
-6578
14590
6603
-127
-2078
1786
-15148
-9891
-5409
-6132
4046
-3021
-7251
-363
1645
-8986
-588
56
8203
7525
-9242
-538
9417
8979
-5632
-2056
8753
4598
-23528
13068
-19
438
-3987
529
13624
6857
24
-6827
-4902
3343
2004
-2401
11373
6830
-7367
11220
-1281
9514
-11050
-5923
-9464
6474
3506
2825
12384
2559
4202
9079
-10955
3252
9506
7805
1565
-6545
10329
16200
-2169
-29
-14934
498
-3242
737
1209
1076
-3252
-10999
12026
10458
2253
12457
2318
-1460
1592
-1534
-4444
252
-15507
8046
9452
-7036
-4468
4857
-10017
-18117
3084
10144
35
-350
-5397
-4686
-2202
-3530
-4206
-6669
2777
-3382
-1877
2790
7288
-6408
-3789
19172
82
-5581
-9423
12387
5026
-3424
-19379
4357
-7963
1716
-10988
-7577
8333
5089
10100
-3010
4598
4378
-9563
-12149
1781
5415
-5932
-3718
1867
5627
17953
-3751
5213
-2467
9823
-5748
931
354
-2083
2117
-3242
3813
1416
-2005
5692
-5721
-1690
-4684
12879
-5597
-1094
10290
8800
-1414
4077
-5507
-2272
9547
9154
2289
6995
11563
-6371
7103
1291
-3271
-4752
7183
-6666
2015
4645
-3578
-1640
2163
-4175
-5360
-3608
-5067
397
-11756
-5597
-15886
-3812
2267
-3600
4351
4033
2096
-1649
-178
12463
7322
-4099
4751
-8315
-3254
-7672
-4635
1507
-9398
-11136
437
2982
4451
-1417
2926
-485
76
-9237
-4689
10047
4381
-474
-5514
2971
12886
7519
271
1656
928
6950
-639
7052
-6
3049
-3329
-1242
-3375
-4236
3790
-4130
-7840
-5309
4243
5337
-7452
10276
-7529
-7778
-4761
-8510
-5564
5557
3106
1111
2170
3506
7413
4876
-2599
13474
8358
-1208
6607
6688
-9427
6560
6552
-3623
-2734
2483
-507
-1932
3796
-1165
-10404
20
4865
3589
-3057
-7372
-1089
-2948
2251
-8464
2698
2385
6709
-648
-9255
-2172
-7975
12510
2220
11924
-13594
-6115
-2799
-1297
1325
-3103
-3273
-3970
-4562
-10203
7201
-3528
42
9617
-8885
-1481
-2382
-439
4200
-2934
-19
5649
-6068
-6094
-7632
-4522
-4104
-8669
-2182
6725
-5070
371
-8283
4730
-7491
-2499
-3000
929
-8240
4358
-1785
-10134
-7731
351
5289
-2679
3106
-322
-10886
-10471
1769
-12751
-1202
11620
5603
6323
346
-4430
-789
9516
8080
-6368
-5039
-5261
-6372
-5639
-5887
3062
-6305
-855
2251
-9469
1091
-8741
-7828
1352
215
6437
-8148
3407
-8691
3015
-850
4628
-514
1910
1313
-5305
1909
853
-13876
-2944
-4247
3331
-8213
734
-5839
13625
-528
2452
-6865
-6694
-2659
2838
-4366
6717
-4344
-5567
1478
-10080
-1206
-8611
-3970
-6749
4369
-13585
7774
-1175
-5274
-8567
2930
-5114
-1560
-7310
-3158
-3107
4384
-2471
-4131
-10541
-1365
-13886
-2926
4871
3321
1542
758
8446
-19010
-3968
-2550
2843
1984
5840
7483
-2052
-3040
297
6681
1808
4398
5064
3423
-1604
-11732
-6098
-7883
-7703
5250
2617
16723
-3262
2373
8967
-1604
-2796
9425
-6828
260
2485
3564
7511
-10406
7363
3638
-2302
-17666
349
-4204
5379
7681
-2703
648
-1377
907
5957
-8223
5589
-10408
2468
-14316
-3995
1459
-14183
8218
537
4428
-5333
-12730
13329
-4885
937
-2826
-2482
1435
-68
282
-3312
8611
-11499
-3863
-3182
2597
7945
1965
814
-12288
10739
4119
3541
1071
5946
4672
-3772
-1755
4051
2431
7039
-13441
2857
-15320
6198
2600
-4389
1809
-1242
-2211
3268
-5370
-1428
-5777
-15308
-2662
9930
554
3428
-2908
5108
-8302
7877
-6481
-1681
8324
-3029
-19055
3047
-10340
9980
1288
1504
1529
1454
7026
-6241
5001
2209
-7592
-3180
6293
-903
-9231
-3590
-7004
-6589
11167
3631
-1342
12309
-4324
-838
1514
4040
-11472
3195
7866
13042
3957
3950
-12035
-8562
12209
438
-15180
12425
-4707
5608
2115
-2874
-4197
-1214
-911
840
262
6575
16574
7054
-16619
-1048
-3527
-7485
-1662
-13044
-3329
3596
-4445
7634
-1790
-21961
15616
573
7684
206
-671
-10733
292
-2046
22617
2887
-13444
-111
-6459
12556
-6464
2971
619
-3802
5923
6181
1412
-4340
-3387
5778
3131
16056
12034
-660
-5816
-3384
4871
5792
3931
2593
5234
907
-9060
-11866
16274
288
1965
9325
-11948
-8371
-15189
-10340
1970
-9981
-1187
-3541
-12439
-7615
-3073
-6823
-3443
-8844
-9326
-14891
-11627
8071
-2619
-4834
-3842
-9566
11697
-14220
6195
11776
-1513
5909
13560
-3407
11610
7259
-3177
12909
-216
3771
-10502
-10624
10922
7273
5795
-520
-5662
-10212
-9588
6076
5138
-7858
-1767
566
9987
1242
-10800
6509
-7670
14180
1331
13658
-12545
-523
-16615
6148
-1165
2752
-419
15324
-5384
-6146
-9253
-10916
7647
3468
-6907
12232
-13736
-1841
6066
3806
-8647
-458
-18094
462
4808
7544
9894
-4996
-14916
-3036
9615
-4584
10380
1122
-1513
7121
4746
-1248
13576
4282
-957
-11722
4846
-7815
-6900
1527
-13357
4163
-8038
7540
26824
-3998
10256
-7853
2595
-228
-6155
-3387
-2850
8787
-468
885
-7791
-14391
991
11054
-8898
1141
9950
-6227
-20973
-19656
1268
1751
-5443
-8620
3069
7618
-8362
-5501
8524
1286
846
951
2426
-88
-1566
-6252
-4285
-8077
-3560
2675
746
3475
7692
-4843
479
5841
11556
-673
2147
-16281
-7876
11641
1360
-4349
-1086
12424
9995
-4554
-8207
10069
-1994
-77
4401
6775
-14187
5292
-8662
3009
-7630
4431
-11486
5709
-1493
-427
6906
-5389
-4860
-4629
2315
8976
15437
-4489
-4013
-2497
3523
-9727
9774
-4893
-3791
3251
-10776
-5235
-7693
-4379
-5154
12513
10778
972
10248
-2715
7809
-4633
-402
-76
-8488
5220
2144
-275
9260
-657
-13951
4135
-9335
9621
1721
5721
2385
8363
-2914
2110
1005
-11074
9850
1735
7597
3587
14012
11358
-4013
4885
1485
4843
-9676
7220
-3786
-6239
3382
-5982
5057
-5547
6204
-1304
14763
8355
-4524
-3683
-17657
-3839
-2993
-3886
2529
6955
-10925
-6350
370
-21487
4589
4677
-1363
-3046
4478
-6527
514
-3521
-3103
2800
-5172
4193
-11249
-3846
3755
416
-6390
2609
411
9671
-1718
2257
-10807
-7413
-9852
-12128
9027
-9820
9407
-3003
-1139
719
-1112
-121
1398
-6588
2237
-2817
-3471
2582
-316
5546
712
-3238
706
-2291
-9446
885
-7348
-963
-1165
-12489
6729
-12582
-12059
-11954
1940
11279
8322
2120
1345
3880
-4082
-13995
11485
-9451
2323
15399
6715
-497
-4038
1614
-8719
1085
-5186
3904
-1795
13653
-10918
-8504
3841
8872
-3723
-5007
-389
3957
1773
-4654
-2920
13474
-3413
3021
-7128
8298
1933
4156
-1811
-563
1880
-662
7725
-16181
6796
-1902
-4636
799
7873
-4918
10640
5428
4047
-9903
-6488
-3478
-2155
-12183
-7740
1939
6634
7703
-4228
2156
3086
373
3472
3450
-934
-9966
-9345
-4565
236
7039
2732
-4304
-14066
-12669
2115
9735
-3513
4452
-14345
4971
-4379
6822
-2254
-4291
4637
4483
-4531
-3825
8065
-4092
18023
21255
232
6296
-5601
-5960
-817
5682
1820
3347
1819
-6624
-4054
9404
524
-6622
-4070
-13291
4983
19222
6314
-8601
2525
-14347
-2320
-177
-7696
6962
-7654
15706
1140
2207
6143
4319
6959
-3140
10814
4137
22165
-6063
10232
10065
2691
-2149
16062
-13706
-1453
-3037
-4915
2189
-4147
6128
12346
-5650
2411
-4656
-3310
8441
-1028
-7458
6488
8030
-766
-4462
-351
11887
-16018
-4599
-3927
4918
3034
-6222
6999
-3216
-1931
5681
-11790
13091
-2239
3044
-14026
10349
2120
12538
-10082
4247
2493
-9673
-401
13088
16880
-8688
-18444
5221
-7140
7817
3177
-11621
376
-2125
10546
-3691
-2120
2448
2112
-1623
14926
-10965
-3282
-1609
-967
7109
4403
6020
10494
-6534
9619
-7165
14263
10040
15149
2473
-7799
8303
5706
-2527
5565
17892
11963
22497
2601
4281
-5761
501
8631
15150
3270
-11136
1226
7711
835
1242
-9842
2235
7160
-9742
7548
-5328
-3662
-2996
-7579
5907
743
-7732
-2107
-8214
-1556
-8963
2219
-8866
-5299
5146
3489
-7053
11972
2050
-16696
9721
-2223
-7457
6251
-6435
5567
7864
-8446
-5864
1289
14515
2815
-4077
-6245
-2889
2329
-3117
-10998
-7610
-4504
3523
-5237
-15514
-199
5621
-6927
-1245
485
3407
5708
3416
11537
4409
3109
-9097
12139
-7253
-9427
-8690
-12855
-22675
10293
1007
4943
8213
-12291
3763
-1149
9242
2465
9440
-4970
13617
4547
-384
-3744
-2723
2863
5747
1870
605
-3931
12512
8961
10541
-178
11903
21614
5847
-4259
1218
2217
-8910
-3626
14590
-22969
1172
2530
20908
-4669
6660
3919
-3931
-17720
-2582
-2993
580
12123
518
-2192
-9465
-12265
-2566
14444
-4584
-9710
4188
7555
5043
-2684
-1825
1018
5979
-4671
-11041
-1132
390
-12815
4751
-12032
-972
-9999
-9198
-2830
-5765
-1757
-2028
5649
-3634
1915
-11990
5632
1391
13580
5991
5887
10512
-2131
8818
4959
-5724
-103
4588
-1380
-1487
-871
-5279
4341
1130
-11047
9819
-3209
-9848
-2533
-1652
5811
3180
7757
-7325
-4303
-7721
-15581
9218
-3948
-221
-8263
7773
-9347
-4985
-3459
-12258
2056
-2233
9537
-45
-2678
8163
8366
-4224
10182
-8143
-16764
5284
-5754
-812
-8928
10969
-3880
-6413
1033
-6098
7689
8150
-6342
-82
-15241
6950
-2105
4354
-2609
-1320
1556
2644
2298
-976
3168
9727
56
-2552
13650
3818
5864
-57
-3277
5272
2217
8802
-2525
-2517
5938
11364
-8528
-5438
-19070
-2701
-1459
14026
-9736
-12707
9039
12481
-12206
14594
-4164
-5319
-8687
8706
-8964
-2738
2424
-11220
11095
11275
-22280
-3942
-10612
2759
17
1268
5743
8777
-9531
-1986
6634
-283
18126
-6690
15265
-6997
10259
-7074
-5603
343
72
-5779
9128
13658
4895
993
-29539
-1209
2273
15579
7643
-2842
2254
11266
475
-9589
10583
10087
990
-483
-3727
437
6875
4146
-1145
-4924
17685
-13209
1358
9292
11496
-2131
-55
-8548
5857
2706
7175
380
-5016
-5577
5939
-23721
10465
6068
-4024
2048
-9710
1191
1172
1057
9495
-2206
-8055
14511
815
3492
1628
-3130
5224
3992
8114
17907
-6246
12971
2803
-6170
8517
-6345
-10634
5862
5023
8193
3353
-11701
-12307
-5088
-5567
12611
10233
18017
-10157
-6385
-6441
377
-5484
10715
12476
10555
-1329
926
2095
2826
4726
2221
2346
-2699
-2671
908
11121
2802
5006
-559
543
3171
4306
-7060
12415
-8326
10293
2528
-5080
-6836
6721
-2571
505
-12573
6815
14847
4227
-20915
1003
-1049
-6876
-5839
-127
-9964
-4841
16972
-262
-2401
-2582
2084
-6380
4616
1193
5138
-4015
13039
-10712
-269
1564
4014
-9710
-8240
-10275
6925
-11119
-2069
-8061
4245
9952
6314
9055
13454
-5331
2000
-7124
5785
6107
2088
-11844
8422
1859
1232
11360
-6964
-2891
-2347
-1711
12150
3684
1745
6657
1275
-1432
10692
1575
755
-3332
-5790
-2218
1111
-5656
-5159
-6389
5795
-5429
3815
5692
-1424
9749
7749
-132
1353
6810
-11521
-7248
-1161
570
-1878
-1921
5106
3093
1688
-7162
1383
-3545
6878
-4932
6740
-4284
6845
-15784
-6731
19068
16067
-1732
2401
-7711
-9235
9997
58
-9305
1224
107
10608
720
-8560
-2350
7703
-11253
-221
4496
-9318
2515
-2329
-3239
8199
-4223
668
18718
-1260
2956
-2912
2762
1672
-4973
-3807
15310
-8638
4375
7569
-11162
-687
-7478
-4639
-8527
13591
-11812
6040
4765
7375
7208
4337
-7481
-1045
-893
6692
-10542
-6715
-6448
5618
10468
-3166
16025
-8594
2344
17406
-6324
-1586
4816
9637
23925
-6532
-3498
-724
-9654
-13412
-2699
-1146
1904
6118
-262
-8555
5269
-9770
4989
1701
-3002
-8960
413
199
-478
-5375
7385
7798
18344
11171
-4991
-6219
-7400
6456
-9742
7180
8818
-6794
-15663
9559
5492
6415
4689
2032
405
-2650
-8970
3218
7499
-3578
24336
8111
-4735
2894
-397
-10651
-10961
-3374
-3046
5307
430
-9612
3068
-7592
-6417
-2673
-253
2827
8469
-6459
-4756
-558
7628
9154
-5605
-9810
12904
-8209
4938
-5493
-14531
-11090
-2363
-7212
-6709
-5944
-3639
7301
-9256
-1402
-426
-1797
5679
2310
13246
-6752
5822
-11306
7710
852
-14540
-1721
4358
-6798
14861
-6404
-11110
3804
-19348
-2697
-456
5576
-12357
-7635
-5145
9583
21430
2655
-7153
9224
7416
7433
-8707
-1197
2463
6623
-13751
8055
3178
7366
-4977
-12526
14595
2221
873
13586
6681
12577
-830
3335
5301
-2086
-580
5462
11690
-1025
-3702
2098
-10761
-9394
-8373
563
-8963
-12465
3647
7629
-6674
-330
1402
-2271
-1665
-3246
932
1001
2589
382
-1732
6112
19775
1398
4377
-15178
-16074
-4085
-1350
-5491
14970
6470
-637
14564
7844
5688
12655
-5672
-2133
5708
7090
1402
2214
-14369
5121
-5941
-2177
5925
-8576
-10034
3874
-5607
844
-2633
8045
-9797
743
-246
-1523
3070
8335
3410
9402
3294
7187
-4512
-1222
3026
-7566
1526
1405
-8027
-8568
-106
-8964
11159
-12270
19541
4613
2929
18289
6149
4000
5878
12661
-5409
-13332
-474
-8551
2302
-1732
7130
-17844
-2660
3009
-8651
-3425
704
-1953
-2948
7026
-12342
-5739
7279
-4579
-5772
6355
-11729
1949
6927
-28
-18
1031
-3862
-4602
2129
2810
-11079
-14688
-5316
5916
9600
-678
-1889
-3574
3562
3647
2284
-5460
-620
741
6268
2104
7689
-16153
-8121
-7417
-4937
8320
-2753
-7562
16968
-2776
2163
352
-5230
-513
356
620
-11919
-1058
-5242
17712
6031
-6531
-19705
-4028
-7696
-15530
9217
-2655
1264
1020
4403
5542
-2716
36
-10565
883
3633
8991
179
-5641
410
2392
-1579
893
5518
-6630
5556
654
-6408
-168
-1510
-1726
-6931
4358
-1820
-1915
-1833
-1891
-6351
1031
-560
-1751
2664
810
5735
2417
3094
-1167
-1014
-1914
-6867
-999
-3200
1610
879
-62
4816
2130
-1264
6441
4536
7035
-2073
1705
-701
-3157
2572
749
353
-8483
-2091
43
2016
252
1691
