-10607
-437
-4249
-6513
-12977
-7924
-4076
-2025
7389
10056
14462
4796
1068
-10770
-8801
-1663
-236
4162
3757
10484
1220
4251
-7876
-12847
-5530
-220
929
-486
2759
2757
803
2367
1185
-6116
-4400
-1490
-5548
-884
-4717
-3501
2462
3516
1929
-4419
-1727
-970
-5732
-4559
-1810
-1362
-479
2536
-788
316
615
-3437
-4541
-6087
-12991
-191
-2763
-4125
19826
7920
-7022
-22289
-4695
-12624
-409
19870
20893
2954
-7115
-30130
18987
-25829
18898
14353
-2507
-18236
-11760
-30821
20088
-3548
32669
-1337
-18846
4666
-9068
-23226
17980
29659
-7012
-3757
-4210
3147
-3473
9644
9724
7238
-3470
13867
-509
-13632
-14361
-2734
-1950
-4058
-6962
3868
-708
9036
1984
-2027
-6109
4796
-6785
-9956
4036
2075
9147
1894
6140
-1270
-3168
-19364
20255
12409
3673
-20372
-20218
7986
12443
27132
-22412
-7226
-5024
8764
7738
-16646
-5202
11456
6717
2450
-1497
-15421
862
-1569
19836
-10175
-12284
4569
11213
-1093
-7870
-15345
17955
-16735
21816
-15159
11152
823
3914
-12095
24798
-13653
3001
7473
-18018
9373
139
-12435
7373
1933
-13945
6925
3206
-5061
-6174
31552
-32767
14047
16865
-31426
18421
3555
-5036
4550
8428
10035
15954
5853
-5510
2625
-7294
-9586
-6828
151
-5581
-3067
-1191
-8129
-6413
-14593
-6662
-299
3548
7022
12828
5933
5603
-7094
-1918
3152
1094
-5085
3514
-4505
-7856
-6854
-3
175
12149
6166
4595
-1244
-3103
4684
8025
4799
-460
-3249
9207
7073
-6187
2724
1367
4354
1562
-5066
-9762
-10014
3713
2065
-1334
-328
-9084
-8346
615
1350
-598
6472
-7700
4885
-1103
-7804
-5681
-4270
101
-937
4674
12940
8036
10297
10498
6839
6043
1261
-1231
2032
1934
1270
-2173
6100
6942
-754
877
-4385
5162
4789
6035
12075
5517
877
6261
-3664
-8168
-811
-6187
-2382
-5241
3995
-8870
8685
-2295
-5604
10051
-9763
-4723
-8748
7492
-18071
3108
-9375
404
211
-4184
-3084
-3241
7093
-3055
9510
2151
-5339
-64
-1966
3070
3341
-14932
-9292
-2924
-7663
-884
4472
-572
10934
5278
-5139
-4966
3764
1138
-2002
-194
-4244
-10346
2446
3165
-1473
-8002
-11363
-6158
-5486
-7954
-8901
6438
-5056
4236
11653
-6044
4628
12391
4863
-12520
2966
-10430
-948
-3743
-1302
8169
-12526
11827
10739
10276
-8122
2618
-734
-16501
7874
-11098
-1802
-10771
2325
-3832
-11520
-2332
-13234
-2269
-8305
-842
-307
6115
4627
5385
3218
12268
3691
16837
5287
4669
9979
-6630
-5243
3666
-3431
-505
-911
-14518
-7143
-5349
7214
-918
-36
-917
-132
-7821
-5127
169
1121
-12916
-8306
-7092
-1774
3539
-526
9841
-3533
-13676
-15117
-3692
-11426
1160
8001
403
10614
719
-2948
-12505
-11296
-1285
2106
14400
12517
-4300
1840
-5561
-3225
-4993
1650
3185
1641
3424
-3931
-4254
1809
-6702
-3476
-2243
8763
425
5064
-7810
-8214
-4182
1702
-10393
-2509
-4880
-9751
-816
1500
-9864
-8627
-4402
-7901
5462
-9417
-813
6468
1563
-9810
101
-3317
4415
11149
-1775
4943
-978
-533
7485
4764
-1684
-1532
2483
125
3329
-4871
-5648
-11683
-74
-17143
-1499
491
-5474
-6722
8749
5119
-5576
2337
-12342
-7901
-3889
-9072
-5397
3839
-2710
-5097
3613
986
-5744
-2886
2480
-10032
-3511
7944
-4691
4656
-1858
2618
-1198
596
-381
-5540
-8223
1380
-3686
-7844
5251
-3063
1912
3202
-1021
-551
-3759
-8120
-5086
1325
2273
10951
6635
12093
5914
-6136
-6664
-18846
-19162
-10028
7058
4588
7116
12516
12169
11699
12062
-7199
-6856
-7216
-2315
-10347
-3429
-9909
-55
-7882
8917
9688
-14193
961
-1112
250
-11633
1308
-15397
13438
19971
4915
21479
-5898
7988
-16678
8126
-17120
18253
1766
8668
-10709
-8671
15371
-8111
-14801
-16566
-2021
2037
2450
8724
9455
3219
7676
3762
3594
33
-1552
-2441
-6453
-3574
-12134
-1375
-11148
-3802
-1566
708
-4973
-2736
5276
514
950
2863
6008
2657
-2674
-3849
-4205
1261
-5265
-4472
-8122
213
-840
1589
-7976
-11081
-5617
-9556
-2226
-3318
-3727
-2261
-6616
-3855
1667
-6890
939
-6734
825
-4875
7770
-2536
63
-6380
-689
-1468
-28
6789
4650
-225
10971
5430
2805
6537
1653
4014
-1223
2793
667
1644
3509
301
3439
1478
6072
3543
1066
2492
-16
-1737
655
-2899
-5421
4140
617
941
861
408
-6387
6882
214
6841
4457
-9066
-7947
-7815
-8879
-14515
-9656
-1930
-1963
787
5753
-497
2323
3712
-12049
-1881
-3270
9047
1952
746
-1171
2622
-175
1102
2107
-1586
7396
2679
2258
3113
-1322
17756
952
3793
12896
-10584
1860
-10716
5924
-3534
7784
-11066
6675
-4926
-4263
6339
-1615
15686
1968
3463
-3867
8965
-10020
-8840
-1265
-11152
-7343
-2999
-308
