9975
3302
2658
168
-301
3467
9732
-5521
-5529
-6698
-8336
-3030
-10220
-5734
5684
3638
4752
4078
4897
5118
5250
3425
3758
3295
9510
4145
6611
4438
-2420
3103
7866
6047
-492
11014
13101
3199
8804
9426
-2179
1660
-782
2999
9741
11207
3399
2820
1820
-1116
-2595
-4864
-7048
-4710
-10683
-7254
-6066
-2482
-1831
2898
6112
7373
7581
7428
6109
14671
-14228
8915
11275
-13978
9707
-8586
9292
8074
4995
3538
1591
4671
3868
-10444
-16471
-10573
11590
16509
9816
-5632
-5546
-1588
-8195
-5271
-5951
-7598
-2179
-14299
-22314
-13014
4788
8733
10385
19758
9492
11716
3687
7119
3719
5572
5003
15849
1549
-22109
-4677
-4349
9946
5670
-30782
-23077
-7367
13023
6937
14627
13803
-6801
-15013
-6068
-357
-1716
1234
4724
-9489
-15415
-9583
8465
3162
533
6974
-12969
-12200
-7247
5228
14274
7048
4579
-7643
4561
1215
-5376
1252
-21257
-2236
-17395
6084
5468
5656
-10727
-15287
12300
-17792
-11652
-2667
-4600
3731
-3720
-7513
2729
-5461
724
5847
1233
13442
8980
-4742
-8052
-8021
-5157
-7481
-6143
-8779
6122
4368
960
4903
8781
7893
12620
-5718
-6727
-5265
-6828
-7336
-6824
682
-8132
-11427
-10793
5112
12789
6449
7847
-698
1168
13632
10377
53
3581
1142
11250
1402
609
10643
1437
5688
8679
-1637
-8647
-5691
-6477
-7392
-7291
-13470
8526
2640
-161
6789
4409
8084
10956
6847
6871
7115
2561
3723
3758
5444
7699
3378
2780
-4788
-11416
-22451
-13498
-1765
-9273
18651
-13185
-4782
19080
-14830
-14106
-976
24020
9928
-12801
5236
15072
11682
4744
2982
3334
7630
2714
-957
4636
-6186
-8972
-6640
-13412
4215
7060
3113
-13281
3011
5310
4384
-5686
-12922
-20897
1366
4841
-8718
9465
1674
-25179
117
-1997
4295
7694
9208
7019
11955
-11161
-3651
249
-13486
-7196
-39
-561
11365
15610
11932
-15414
-13849
-10793
-7808
1854
-4219
-4071
-6590
-8893
-9536
-5747
9857
5404
3479
5355
1870
2177
-1168
2284
-911
4892
11828
12014
-1216
8295
-5253
-1419
2871
3083
3775
10434
8497
-4730
-6167
-5302
-7911
-8334
-7830
-10749
2897
1754
6906
10777
5506
2519
5459
-8431
249
-2206
8216
9238
7356
11875
-10671
817
-2360
12220
15784
457
6957
-6071
-4809
-4499
-1243
-1708
-4746
-6565
1803
1654
2443
2373
4212
3487
4000
8210
11479
5784
9981
1868
-11109
-15914
-4458
-3662
-3004
-9886
-3344
-503
-1232
-11158
-1346
-2525
-2170
-4734
-8808
-7974
4315
7603
-2331
9552
8561
-14719
-18188
-13383
-3256
-3442
-2318
-4686
-5328
-1369
3763
13240
5306
2555
12544
2848
-6581
-5763
-757
-9758
-9930
-1578
-3884
-1777
2541
6454
3919
8040
4519
3904
1470
-794
2143
6971
18677
16703
8191
-3102
4328
5310
5396
3886
3835
2325
-1154
-5796
-3294
-5698
-6925
-1836
-5495
-4039
4277
850
1664
1978
6498
5748
3748
-4539
-1141
2845
-2599
3381
16420
-32639
-5005
3511
107
569
3170
2082
17905
2956
6001
3939
8914
-167
3624
2820
-6864
-5447
-3519
4967
166
-700
-11672
-6557
-22489
8832
15878
10119
-24799
-16719
-14852
-20291
-4759
4759
-475
1798
16319
-8884
-9395
-486
-5793
-5669
-4571
-6908
5554
8628
6204
7031
3521
6597
5815
-105
1520
-5755
10317
5193
-692
7718
-16299
-6909
-6637
-3658
2564
-6816
-12020
-4247
-6688
-4837
-7697
-3830
-6308
-2916
-5155
2515
-1723
-6077
-2862
-9074
-2129
-10811
-18055
-9445
-5906
-3640
8209
10121
-17480
-15881
-14890
-8228
10530
17670
14665
20051
20954
8852
1272
-12844
-20099
-17363
-1512
2693
-2647
-11205
-2865
-5168
-7186
-9215
-11772
-11808
-1521
8013
11519
12074
-8554
-10457
710
-6750
-10070
-7529
-2713
-7596
-5496
-4787
-2302
-3274
368
-4954
1545
9091
-1639
5162
-1628
413
12647
-18054
4172
-13378
6319
1938
11394
14252
15602
14745
7210
1968
-2114
-5171
-12076
-14822
-3639
-1372
13414
2309
8830
14465
5620
5314
8500
-2430
8709
5647
7666
4439
6225
4550
2777
1066
2893
7017
8392
11099
3748
1076
1133
6317
4908
-11230
-10537
-16237
1333
5699
5600
20934
9514
3358
3095
33
7555
-2033
2216
3502
5620
9419
12646
7285
7306
7161
-4751
-11250
-10579
-3590
-2762
-1171
4603
-4090
-4838
-4708
-8351
-5043
-544
-9447
-7303
-9475
-5185
-10599
-6310
-6075
-2426
8157
7816
6799
2726
6319
2798
3631
-1370
5082
4907
1157
1525
9148
4459
-20613
-16759
-3118
-3060
5299
13462
18504
-12614
-10302
-32767
11460
4438
-13235
-1545
10718
9905
7802
11156
486
-6190
834
1337
11239
2059
-733
24261
8730
-11527
13069
6139
4184
3122
-1802
1847
4465
-11847
-12292
-3396
-7220
-1667
5542
7850
10084
3667
743
6430
1330
8243
8669
-2773
736
6351
12460
6599
6016
7154
2296
16644
6572
-16267
2369
12600
7755
1909
-3279
-3265
9582
6937
9097
8567
12648
1804
-2535
3171
-1592
5255
8438
2191
-762
983
1626
-178
3774
12572
13726
5486
-5470
9601
11617
3922
1048
-2036
-5061
-6022
-11308
-6164
-8693
-4043
-2509
-2170
14721
10448
-1248
3689
-2907
8896
9004
2862
1301
3785
-922
-446
-4161
-5898
-6542
-7136
-4781
-7061
-4245
-8701
-2138
-4750
-7204
-2470
-6125
-7568
-8006
-7920
-10917
334
566
-5824
-10640
8628
15220
-228
-7927
9759
9816
5509
-7631
-6204
-5695
-6174
-1400
-3367
-4937
-8670
23107
23452
-1511
6330
4160
-26583
-14566
-11762
-1867
-5400
-8490
-662
-6496
-20871
-11061
532
4435
5028
7553
6149
8254
8964
3297
-1950
1791
7273
5334
-19741
-12123
-8984
4013
4002
16782
13516
-2586
-9301
-8440
-8551
-13063
-4043
-4726
8093
8186
4324
6755
3160
5970
5754
-7020
-4745
-14134
-4984
4023
2313
647
