4705
857
7121
-1043
-10120
4924
-3479
5366
-3028
5025
-9026
-20353
-11961
-3037
-9846
14936
-10706
-11521
-1283
-1746
-6832
-8011
-10919
9493
17203
-7918
10519
10432
-391
-6208
-10748
-8868
-3531
1936
-8390
-10609
-1379
896
-12429
-8499
-3711
-2515
6652
9685
7851
-1317
-7477
-14545
-1058
10987
-1485
4128
-2928
-5711
7972
7726
5155
-4705
1152
5878
-5784
-7984
-11972
12394
9303
-6087
2444
-3246
5730
19654
2133
-172
-135
-6605
-735
3450
-12115
-16178
-1845
746
8863
-17471
11772
-5890
-2230
15943
2361
-4105
10582
546
-5470
15142
923
-8771
-2151
6641
5156
-381
27487
4620
-16479
5612
-2056
-8364
17565
-9546
-10423
-18760
-7560
5802
-9896
12359
8383
5131
-6669
11211
-8011
9660
-11489
11260
-5667
7456
-11839
2021
-12674
11503
1432
-3611
-688
1983
5850
1469
-3552
-9947
2343
-8785
-4046
-18995
5162
8098
-8576
-3929
7890
8674
-21171
7515
12937
-14383
-1961
5900
-10388
10345
5498
7469
11796
-10504
-3679
3494
-6716
6380
-1152
9998
1703
-1922
13412
13599
3040
-24662
-2912
12799
2471
-10038
-11148
-7120
5054
-3890
-1966
-3929
-1568
-7063
-7380
19705
-8519
-15729
-682
-12160
-13827
7045
-2237
-11315
-604
16360
-17938
3157
-23086
19350
3192
8410
-11602
12964
8458
-3573
5981
-10125
-9214
681
1537
-10781
8412
757
2206
-668
-17210
-3675
-21307
3192
16845
-2037
-10083
1736
-5870
-6629
-835
5411
-11785
-1023
18654
9968
6656
2536
14443
-3496
-832
225
-5642
-1966
-2399
10544
2866
-15582
-5865
13341
-16939
9219
-2102
-9592
6257
9427
-20409
-7672
-8141
15034
-7689
8766
-1151
3694
14244
6054
-2490
-16537
1471
4562
-7627
-345
-2178
10261
6227
-12437
-14411
-13218
-703
9492
-4465
-4643
-13886
-6584
-8590
15833
-4934
-6495
5229
-5669
1549
1527
5791
-2327
20976
-18920
-13239
-7719
-3189
5947
-8032
-4338
-3685
-108
11269
-21880
3542
16716
3104
-3438
-1158
-4843
-15120
-4271
-6123
12929
-7534
-3489
-13769
-2716
3006
-5135
-6931
-5599
-15159
-8025
-14386
-1724
-8879
5430
-12560
7173
-9048
7108
-9971
21189
-7046
-13125
-19817
-2112
-18410
870
-12568
7651
15477
-3048
-3447
-6365
-13543
2368
-8712
13420
12099
-3868
8227
-12904
-10457
17790
-10743
1497
14854
14227
-3150
6312
-10237
9081
3357
15959
-500
3171
1260
8850
4638
-1813
4156
-2656
21471
16797
1752
15072
-10315
-1749
-103
-13243
-9950
10658
-19647
946
7718
5132
2547
-2535
13747
3750
9756
3948
-1091
-5599
-15553
-377
15631
8097
-4366
-9587
-4350
-18077
2217
-9588
1806
-17570
14216
-15770
-13933
16665
4229
1908
-8492
-7108
-4197
12112
-9749
3584
-18031
15816
-7811
12421
995
1321
4447
-3780
-2998
7191
-9100
-11209
-6989
-4095
12816
12911
-27676
-2524
10972
-10962
9435
-14823
-11403
-3660
-2859
-13324
-1978
-552
-1603
-7197
2260
920
5523
1561
-1970
-9572
-8245
7906
719
1388
-11435
-2230
1808
-14993
6064
-2966
-5102
10421
-10690
-16457
2679
-7702
-14464
-2044
238
10025
999
5276
7738
5114
4771
13501
12137
7218
-2187
13178
800
-13830
-9244
3702
-387
19755
-762
-496
8142
-7436
3196
5988
5125
3774
10982
5940
-3437
-3504
6736
-17385
5764
-3419
2008
1198
-5577
6948
-5285
-1158
-4691
219
-6756
8408
2940
10221
-12746
14859
-18755
21116
-6983
-3659
5081
9342
-14791
8760
-2323
-9918
-4353
-3316
12375
-2998
876
4914
2415
-5420
-448
1487
1657
-6211
-3084
-9339
1927
13333
7391
5586
-1779
4481
5422
15248
-13806
-13868
-6771
-383
-20230
-10101
-2468
-4823
19639
7939
-1358
-9104
-11589
-6675
7205
10746
11950
3241
-5302
-10149
-6692
3495
-635
74
8491
8035
5929
-11034
-84
2129
-5828
-13856
12459
-2097
16846
7306
15167
-507
-3506
4566
-1620
6073
-821
12678
10104
10650
10381
7924
8987
-5939
-7112
-2040
3337
-6936
32767
-6037
-10887
21297
3273
-22459
-10746
-9555
6859
-12774
2582
-12586
2072
24036
-19001
477
-11597
10762
2183
-4759
12350
12483
-1180
915
-629
7953
-3343
-5871
-24444
11948
-7609
7450
-12825
3978
4789
-8637
-9373
-10660
9322
12580
-4318
11425
4884
4295
10201
-13006
-131
-5276
-16135
-16757
-11261
-1076
-2068
-7420
-25783
8295
-3224
-9332
-7697
-2304
8171
-6182
7895
758
2219
9733
15663
2401
407
11886
10572
-1705
2906
9689
-4898
-5237
-1656
-912
5857
5020
7351
7718
-6248
9149
-7406
-14983
9138
1023
2789
-20357
-2755
-15972
3415
4650
4238
-8687
16357
-9879
7013
-5914
231
-695
2217
-10234
-9057
-5006
6405
8497
3773
11036
1876
-10135
19675
2265
12437
5615
3080
5043
-14249
-420
-20455
-14507
-13693
-5954
5148
2291
-23607
-4441
6097
3483
3350
-10659
-165
-12956
3694
7187
-12133
9205
7975
-14545
12851
-8142
-5792
-15264
-20804
21145
8973
12026
-1924
-12748
396
8290
-10007
-11069
2856
7715
-2869
-1027
496
-10
-7054
7244
-16762
5682
1254
9770
1587
4642
-7857
13949
-12283
9517
5172
13107
-18089
-15569
14980
8157
-11688
-2669
-4251
-14096
-9811
-16243
-11387
18847
-5189
8706
11792
-1689
-11085
-4838
12080
13959
-6821
-13727
31
-12396
3232
15054
-190
-7263
-10690
20372
-7807
5999
13686
-3351
6265
-19504
6887
-25390
9720
-12582
-9109
-8211
2853
-12478
16255
4515
-7728
-6430
-4906
-15848
-10068
-2004
1311
-2906
-5152
181
6199
-7525
-5181
-12218
7238
-712
616
-1904
-13000
13638
6863
-1079
-1518
-6459
-6684
-11339
-327
-7242
6629
4404
-5886
-7144
-6917
1356
10272
-9823
-9863
-5336
20828
-4922
18913
7331
7117
5273
3395
-4532
928
11618
-3420
-10858
-8035
-7990
-5120
19288
-10605
-3066
5402
3299
-1914
-1968
13199
592
-1353
21667
16018
-3366
1641
-16872
-10060
-15208
-5816
-13653
1478
-14833
19918
21978
28
4971
2214
7535
9255
-5417
19038
-7366
-4371
905
-5710
-8731
603
3103
-2071
847
14666
-8208
8424
-3738
6127
16769
6689
-14959
-14788
-4010
5531
6349
4389
-17397
17621
-9695
-14240
-684
-5261
-20855
14242
10945
1408
-9751
-18980
7359
-12349
-5183
7337
1878
9770
-2665
-3082
7992
3137
2434
4491
-4512
-2364
10851
13984
1249
13146
-9229
-1824
8383
-5405
-4018
2426
3816
-8074
9155
12875
12364
7360
10539
4116
-6595
-13889
-4287
4759
-9491
5358
-1961
1153
-7802
5352
5298
6484
7251
-7428
8674
-5293
2969
-1712
-1752
6136
-850
-9217
7798
3406
-8653
6194
3885
-767
2990
-1379
-258
5798
-8011
-9342
746
1012
1064
14163
5152
-8065
15141
-6548
-12143
-1684
-21149
-6598
-49
10868
4594
3867
7619
74
18171
142
3237
23990
-3275
3308
12106
-13410
13313
-13004
12596
11525
-16700
-2131
-989
-5074
10106
-3216
-2036
3675
-3682
-2276
-169
-6492
-16901
-6475
-3653
-1392
-2819
11996
6608
-12107
-6906
858
3995
1264
-1814
-1611
-2490
1773
124
1376
-1111
-3343
-2979
-12459
1440
-2094
-3176
1744
-2359
625
-7073
399
1110
-1482
-446
410
-77
-103
-412
811
80
553
-1147
-2029
-408
506
1794
-7894
908
-7085
1889
-4984
748
2206
5530
-76
-7894
-618
-6583
5055
14045
11173
-3318
19174
8998
-8144
3397
3435
-868
14048
4724
-4909
30281
-11045
-3433
-4076
-801
-21046
-1058
8413
-11115
1574
-8576
-10774
-2078
-1918
-14434
5013
-17651
-7809
5641
-2465
-9531
-18959
-3448
3442
1977
5661
6093
9247
-2189
-2486
13199
-7123
-11774
-24648
9910
6632
4291
9923
-8270
18918
10491
7697
7636
1967
10028
8726
325
-17106
-4201
15397
-2779
2753
10727
-7008
6090
7778
6460
387
2201
-375
6431
613
-1459
-4031
1215
13606
-6597
2759
7564
-13224
3078
-1396
11498
11818
3508
4450
-17413
4464
-10311
311
-1065
-8488
4854
2736
-23908
-7007
10963
4436
-6740
-3442
6012
1187
22694
-3949
20975
14071
-7359
4338
-7612
18311
-1534
-6611
-6202
11119
10598
-10527
-8397
-3958
-5318
4836
5615
15911
1493
-7144
-11607
104
-3520
424
6844
-3727
-14662
-6924
-7389
8721
1181
-13592
17411
13573
-2842
-753
8023
-1419
-5298
16821
-8640
-588
3933
6625
15340
4024
404
-627
-2532
3869
868
-10375
519
2518
2408
-3121
-11742
1722
-2163
3324
14121
-7987
5482
-2247
1429
-1921
-2137
12906
9165
5056
2421
-766
386
1965
-11517
-6019
662
-995
-4707
14466
8462
-2904
-15148
11850
-10952
4628
-6854
10327
3596
8623
-11681
7506
1999
1759
2457
4340
5907
-3695
11280
-199
14144
9988
-9760
5453
1056
6618
-8228
-2677
13101
3328
12169
-9291
1747
879
-13127
-4390
-10752
-108
3181
-17061
-18301
-7221
-3489
9748
13892
-2820
6579
6892
-1488
-4302
-6864
-4736
632
-13096
-10847
574
-2709
-782
-15179
4092
1089
4770
-219
2168
-14445
-8950
5964
3043
-1109
-10280
3852
-5513
-2399
586
-1576
-5504
4516
-9784
-13294
-16900
4973
8470
-9336
-13140
8149
-1690
13217
-8755
16178
-19287
6525
-436
-6173
-14146
2151
-1024
-11018
2437
1481
-10855
-22385
-2989
5150
-8908
11115
-1759
11174
27168
2506
-6645
-7500
14700
-4759
804
-10296
12744
2122
8696
1790
13372
-7496
-13059
-3052
5722
6435
9457
1209
-1392
-14968
-28032
2839
-4986
7062
-2060
-16471
-10278
1915
12733
-4827
-11731
-9599
-4421
-18820
6510
-5819
-868
12840
7751
1004
-5798
-14059
-2670
5025
-4493
11169
1133
-986
11874
-8088
-9304
-2488
2466
-15026
-7966
-7121
14916
12988
-2929
4689
-695
-6849
-10918
11068
-9746
-7622
-6347
-13825
10180
-7848
10683
1539
16419
-16038
1133
2655
6089
4070
-9232
-4000
7804
327
10692
12032
-432
-2358
-973
4934
1065
-12045
10304
12364
17934
9388
4845
-4000
6407
-5837
2916
-10047
11447
-3312
5785
-5641
17228
1156
-5909
2582
3871
-12502
2409
11656
-3267
6132
10957
-22227
8749
-8192
4759
10435
5504
-12766
14357
-6592
-2752
18271
18615
3579
-11681
-6618
12235
-11784
-10612
7193
-5329
-9374
1665
8909
1400
-9889
-14710
-7838
2401
2015
-6965
4936
-16175
28210
-5367
14727
-14852
23334
-2694
11072
-7710
-5256
-862
-1493
-2056
-5728
2954
-16933
-9307
1884
7889
-5792
7486
-12079
4540
1389
-7579
-12521
-16081
-14954
-11957
-10949
-151
-291
1227
11988
-1233
1740
2108
-11918
-3583
-7963
-12614
3403
-16026
7938
-539
-7184
16245
11166
-18612
5310
-879
-8600
-17668
-14252
-13083
-15106
-3858
20209
11707
14760
-2324
-6214
14718
-5108
19677
-14828
-1505
17540
-2309
-4215
13561
-3581
-17335
17461
12658
-1255
-6728
2259
-580
4089
-12520
-6744
7729
5305
4067
-14227
5045
4004
-4282
-1123
10831
-14709
-9967
2049
-4536
1792
-17377
14824
3362
-1341
3442
2624
11105
-586
987
-9446
2174
7881
-2666
8439
-9626
-1984
1457
5732
-22583
-2271
-1119
-1042
1463
-5396
-4270
-877
-3033
7374
6459
-9693
6440
-3059
-1788
-7815
3998
1088
-23084
-1870
-979
7150
-1488
9876
2668
-7220
-5450
5185
-90
2083
-780
-643
-3600
-3364
-4164
7603
-12692
-3449
7309
6103
2623
-1398
5879
-7519
-745
-12359
-4630
-8236
2579
-5488
-1434
-4316
2404
-18789
-11870
14307
16276
-7745
1799
14826
-5884
-3935
1126
553
813
-5168
-5588
4253
597
-1501
5078
-907
-2996
6146
3927
17242
11252
-1374
-3071
-1123
-3594
-3332
-5303
7857
-8611
-7050
512
-15926
11028
13816
8831
-12159
1329
3806
7895
812
-3433
-1577
-1471
609
-4248
4154
2661
-768
-3333
-1484
-5618
-10427
-6644
317
-1348
-3552
419
-7549
-4145
-3343
-6053
10996
15357
-2370
-2180
-1582
-946
4509
1374
-11111
2609
3202
10564
4099
2842
-2938
10687
-1718
-7852
4998
-10112
9283
-11917
6335
-865
1143
-3592
11491
-8456
-15970
-2502
-9387
-4919
534
-3618
19482
-15298
3239
-8148
7140
4440
15316
-4212
-14312
-7387
-15193
-22266
-5594
-4487
8746
-7422
5008
1822
16441
-5615
16495
-3281
-3015
1063
25485
14227
-17838
3097
-4247
-3242
-11783
-855
-9187
12851
-10933
-6053
6077
2034
1410
-10833
1948
2850
9370
-1511
1278
-5932
-441
20521
-109
3925
-7623
-6434
2614
4689
5755
-6624
4379
14765
-7603
-1166
-3960
-11201
-17896
2448
-13332
-24127
13122
-3228
-4515
9282
-4491
4644
4199
-16511
6987
1753
-3245
555
-8642
-397
-7946
-6311
-1695
-3105
-4126
-5670
14350
-1617
-2654
-9102
3568
-2389
-9780
5507
-11679
13056
-9569
2757
23084
14840
-11252
-4178
-10139
7079
5135
13045
3565
4008
-15823
840
7799
703
279
-7303
-255
-2753
-2784
-7093
1893
-2568
6783
-5342
-1173
-2329
-398
-2799
-5773
-6522
-2121
4643
3681
3748
2055
-4240
-9563
549
616
-873
-1274
-1492
-353
-13976
3152
2132
-4964
-627
2343
-6886
5103
878
3249
5310
3785
109
3334
-214
-886
12488
-4699
-3049
10509
9983
-13617
3526
9132
11203
6976
639
5792
6238
17289
2598
-19645
6742
5969
7345
3487
-9906
2236
6961
11063
-23736
11358
-6428
-11569
-6831
-7017
-6786
-21657
-1742
-8748
7846
8788
1802
-12783
-13104
382
6661
6286
-8987
3104
8849
17418
-8966
1883
6533
-496
2019
-11256
3844
-7148
-10064
-32646
-3777
-660
-5170
-6366
-4921
2245
11433
10357
3085
1197
11458
-8615
-9804
1211
6675
1141
-5323
-14446
15378
8149
-1615
10251
2042
-1685
-5419
-21478
-286
420
-1706
7919
-11270
-16561
-9907
-1467
2127
484
7462
3938
-518
10182
-12787
667
7416
-1969
-13991
7118
-562
8668
1919
-500
4031
1837
-577
-1185
-7419
10824
4134
-18207
-6546
9379
5681
-7503
-535
-3427
833
22526
4719
4931
-855
6086
-11222
1890
-4705
21168
2867
3156
3899
10779
-4647
7700
10407
-10800
-2648
-7023
-1341
8975
-7388
11217
-2859
9934
-3213
-2275
-24793
-23412
2776
77
-2434
-1456
20444
15593
-9093
-4928
8069
1138
-3950
-14257
-3684
-7099
17162
-10735
-169
19182
-14583
-7550
-9738
-12930
-881
-60
1608
11593
585
-11448
-4280
-2017
-11296
7843
6737
-6365
-4257
-6058
7087
-14145
3796
2065
7718
-20766
-3264
5310
2695
-1497
-962
3537
7244
13880
14273
9537
-4509
-12989
-794
-19402
12625
-1883
19045
-146
4412
6912
10177
-9660
-4804
5675
3758
19421
-8820
-7620
-2101
-11147
-10755
14698
5856
-1457
10055
-9917
-14610
5459
9327
10925
-1019
18745
4190
6311
-10724
5512
-22177
-5810
-3589
-14518
13606
2926
2059
7003
9001
-2153
21690
2265
-4932
1838
1535
1876
-2093
-4742
347
334
3500
16530
-10741
-1086
-800
8343
6753
-2273
-4610
-3020
9497
2983
-14418
-5569
-1880
9419
-9936
5674
19980
1226
12435
-3827
1185
-4317
2392
-5059
-770
10878
-5047
3485
5298
6344
-837
-2690
19515
3569
7346
2221
-5365
-2064
-407
-15295
-7957
8665
11498
-2357
-481
-7606
8337
-5384
3679
-14951
21982
2749
-3330
-22055
-12930
1001
1465
8784
586
8460
-10280
-19406
1649
-9912
6024
6064
3707
16143
8836
-6399
-978
1398
-7154
-2557
9275
-7303
2828
1753
-2622
7740
-5095
6187
-4714
3157
12772
-7756
833
2581
-10234
14153
-4623
23408
-4096
-9817
10500
-4050
1866
2317
7378
5229
-8289
-10382
-12822
7009
-9903
11254
9543
3098
-7462
6114
-11570
-7875
-10451
4717
2457
8007
900
-1112
967
-8905
-494
2201
-6190
-7919
-10969
-6339
-7331
3797
-10873
8019
4453
1109
11113
-6826
-1146
-17121
13016
3544
-1627
7714
-5587
-12400
6629
-8556
-11920
1122
-12688
-5248
-15131
3430
-6886
-6402
15714
13295
-1610
9619
10098
7395
-1037
-3664
7427
-9637
-8856
5213
-8511
-6280
7280
5004
-3818
-1349
20261
9889
-20952
-2698
5145
3545
3882
2382
-12203
746
-11579
-11167
2030
2227
-6212
5830
21356
-4336
-55
375
10766
6202
3572
5716
1274
-4790
3344
15287
14955
13748
16126
-16041
-2475
-2799
16362
7342
5501
-10751
6353
-10470
198
-1337
-1274
-19807
16849
-16330
-3022
-5240
-13942
-15584
1479
4307
1334
-3539
-8759
656
-2351
-5461
3647
1580
-7298
-481
404
1171
-3300
-2639
-226
-604
2882
-5782
1234
265
12204
3220
-3599
-7394
-5535
1554
-4277
-2790
3928
7546
-5431
4343
6164
1854
-2327
12168
3600
3115
-2539
1779
-3060
5180
2524
-3433
-10644
4203
-8296
16252
15185
-23144
-7131
4993
16801
5573
-12590
8619
-5027
-1670
4515
3794
-13212
-7288
-2175
11234
-4100
65
-10223
-6124
-13654
-1655
2972
-8060
5062
-12564
3845
1942
159
151
1748
2183
-1382
-12406
-19714
5521
-1429
9751
3347
99
18035
-11718
2977
-71
13759
8249
3035
-3874
-12454
-1493
-18679
-2509
4281
-871
-2249
9115
6155
-4240
-2620
2918
-12959
-39
-9368
1366
6201
-4082
-5423
862
-9842
-622
-9854
-3571
-15643
-2880
4079
3512
24237
6964
-13833
-1227
-657
-8104
-3609
7426
6750
-2173
-11114
-23441
242
-15552
-6921
-6130
13279
2255
-11046
-10199
-15750
16675
-301
5
509
5657
-15326
4433
-5237
-12997
-3077
-8102
-7124
-2047
407
-4913
-5329
-2582
-3785
13450
-6753
13502
7906
15763
-3163
-1965
6207
5568
-3233
-2301
-23831
821
-18577
-931
-1093
-7742
-3681
14509
-889
3491
958
-2095
-2021
-7660
-2908
-6555
-3989
3719
1011
8272
-4112
2612
1612
1626
534
3323
-3686
10049
-6938
2535
-3257
277
-3404
-3203
-2837
-3391
505
8848
675
-5593
7452
-2773
1417
5458
-7155
7783
44
-5211
-1979
11450
-4488
8971
27
-757
12813
17660
-4959
-326
-1020
4940
-4427
-61
-5617
-426
25150
-2282
-421
-7349
-15313
-3598
-12615
25899
-15659
-7214
-1313
17203
8558
4912
19892
8005
2160
5883
3480
-10572
-4866
-11754
2375
7175
20609
-19520
-5974
12998
-3169
-4314
-12712
21298
6686
2852
-18414
-15691
13505
9976
-9377
-2541
-6622
15118
-12841
-9561
-15698
13471
-929
14614
27189
-6691
14748
5880
4231
2911
14920
3375
20404
-6334
8551
16037
-158
-7110
9976
3565
8548
-10746
4340
908
4298
15697
-14989
858
-3614
-2127
-2749
-11758
2493
-3855
3722
1920
1297
-11086
1235
6687
-6198
1736
17978
-6642
-5632
-2595
10286
-3520
-4893
-3255
-9552
9027
576
955
-2984
2764
4162
-1907
4917
-4353
11530
-3705
-9195
7842
-9439
424
-1378
-615
-17386
-1714
-6187
-8650
19082
-2958
-1013
-5699
16646
-10446
-249
3889
-5901
5548
-4517
-8766
-7498
-654
17916
-6688
-2178
1723
11171
-1442
-6486
12880
-13466
14419
13373
9325
-10339
-8868
9468
2129
3525
852
1135
-489
3458
9331
-1057
8367
17433
9120
-14332
-16094
-943
7588
13966
4287
16126
-3251
208
551
-3272
8464
19920
6346
-4117
-6131
-7935
-2104
-6783
4897
-9318
-13325
11518
7865
4379
5558
958
12596
2614
-989
8320
-536
-4365
-3052
-214
-4736
-10154
-3677
-593
-5041
-3090
8431
2692
20089
-568
5443
-1238
-4200
4529
11235
-8092
-16263
3247
-8117
-11143
-12850
16843
-10806
-5738
13319
1429
-5588
2661
-8289
3923
-3068
-1351
5695
967
-1773
-15062
-4750
5776
189
-18389
15432
3752
-20167
-3319
856
18805
1975
-10444
13369
-18556
-12195
-3343
-17929
7513
6477
-2790
-3758
6110
-14756
-13028
3053
-10446
-17408
-4254
10045
3762
6745
-774
-997
266
-4810
-3656
-2288
-14556
2212
-1121
6755
-9358
18409
-38
1157
-3855
1715
3381
-4102
11529
-789
799
-11224
1517
-8676
-7642
12373
-16469
25279
2521
-2506
4325
-2031
-1039
3858
-7059
-5537
-13332
3308
-7017
8452
-4034
25195
-1595
2596
-6574
-707
-2734
3502
2403
-10987
5884
-2122
-12591
-3352
9856
1799
9793
-19412
-3221
-723
9648
-1810
-1872
-8626
-8526
-12125
4809
-5269
9778
-5768
-1010
-1206
2971
2901
5093
-5542
1732
-616
-1540
11125
-604
8428
10788
-15753
2015
2984
4864
1307
-1525
-17596
-2884
-7166
1692
-1663
4748
6416
9253
-1267
-7168
-16069
-9023
-539
8684
4460
9357
3848
5129
6217
-7523
2261
2404
6659
1926
6576
-5536
551
2173
-3071
-879
6343
12089
-483
-8796
705
-19931
-9121
