7066
5379
3036
2468
5234
4325
3090
4220
5374
4113
2905
5306
3513
2051
1077
5073
5404
3779
3695
2109
1994
-1287
-1625
25
2566
372
2112
911
1789
5797
1900
2731
2914
2183
2972
2994
2492
436
2211
2212
4078
2364
2004
1239
3505
2209
2572
3811
5812
3577
5785
5530
6619
7725
7278
7361
6144
4876
2828
1944
-2090
-2689
305
2574
-876
2171
-4263
-5267
-3308
-2971
-5907
-6121
-4141
-6300
-6019
-3357
-2816
-3668
-1126
-3052
-43
-1916
2924
1259
-3593
-6490
-3832
-5515
-4866
-3737
-3047
-3463
-3828
-5395
-5191
-7542
-8662
-6204
-6707
-5531
-3860
-3116
-1616
-677
-529
-2617
-3674
-3152
-3107
-3484
-6419
-4254
-2648
-2836
-2625
-2570
-1923
-1472
-3293
-330
-497
-1218
663
764
2538
2088
2249
2744
2062
2982
5039
4850
4444
4461
3526
-9113
-6071
-5745
-4947
-7036
-5963
-4888
-5056
-4368
-3967
-5835
-4329
-5986
-3591
-3597
-7854
-2426
-1892
-5382
-5326
-2948
-3073
18
-4768
-2302
-4034
-3651
-8046
-6626
-7686
2440
2040
827
3155
4564
4651
5742
1938
2862
2079
1705
1270
-638
26
-244
-1229
-4074
-4499
-4674
-4048
-5048
-5927
-6110
-6037
-5299
-4164
-2724
-1605
-1053
-1498
-11738
-2511
1963
3782
13635
15901
19261
15813
6358
-6004
-11340
-11565
-12694
-14702
-19993
-3590
-6142
-5292
-5329
-4739
-7951
-10038
-9763
-13366
-11131
-7748
-6667
-6849
-8104
-8335
839
1274
1178
1976
4945
5121
3164
2322
1809
1181
1925
2302
3213
2220
3853
-4917
-6592
-3176
-5734
-7369
-5123
-4844
-4434
-5388
-7462
-6812
-3586
-2760
-3685
-3436
-3150
95
2483
4115
5482
5450
6381
8606
3171
5948
4702
1606
3004
4439
2672
-1172
-3123
-1609
-3559
-2421
-4485
-3513
162
-1829
-2881
-4021
-3992
-2859
-954
-912
-13961
-12587
-12199
-9579
-11061
-2841
-2284
-951
5787
6468
6224
6507
3965
7711
5959
-3672
-6270
-4958
-5425
-5976
-7774
-6198
-5545
-5647
-5899
-6469
-3483
-1896
-1106
-75
2930
2127
5036
5389
5263
5174
4741
6505
7896
5661
3817
5669
5998
3442
4480
-36
3294
1477
3360
3182
4613
4660
4620
7025
6074
3730
5975
2718
324
-362
2069
1708
2723
2700
3697
2829
4810
5692
5588
4969
2779
2039
1305
1338
1723
-3532
-3575
-2310
-3666
-3257
-3574
-4163
-3037
-5765
-2808
-682
-2142
-3738
-4037
-3518
1040
-3749
-3848
-1162
-1564
-2598
-925
-5916
-2166
-2081
-3635
-2075
-1425
-1879
-4698
5680
7302
6366
2906
1518
-1327
4647
4287
5342
4965
6599
6962
5722
5207
1644
330
-860
1581
2112
4213
2618
5254
1068
1450
3014
4519
2572
1669
3130
2279
1840
-1817
-1269
94
4442
1427
1086
4782
7044
5363
3286
1467
427
1570
983
3027
2141
4554
5630
5194
7130
9725
9555
8714
5004
2838
4396
3123
3493
1223
2815
2387
2856
2970
2944
2160
3348
1906
4224
4821
4183
4411
2320
3031
2760
4795
4349
4214
3598
3423
5059
5017
2063
1063
-1538
-3050
-1302
-1496
-867
-1380
-548
749
1297
1892
3942
4550
4627
4532
4231
2416
1766
2923
4603
1045
1123
-4963
-6011
-5775
-7217
-4543
-5321
-4509
-5827
-4302
-3134
-5615
-6063
-5597
-3682
-5776
3436
3460
3716
4022
3460
3486
2036
2992
4474
3850
2992
1672
1767
2588
2161
4849
3488
5766
6233
5734
6695
4812
6006
1107
2487
3451
2091
-2382
-507
-3188
1044
1108
613
1785
3552
2200
2969
1778
2491
4228
2266
2735
4033
3029
5007
-2108
-2814
-2591
-3997
-1884
-3145
429
-898
-2335
-2254
-3530
-6869
-184
58
751
4050
5853
5591
7066
9112
10552
8292
8833
9474
6502
6086
4460
2425
2508
5300
-1380
2674
716
562
3449
3300
4301
3092
3541
4276
3377
2137
2653
3082
1537
3796
3972
1998
1052
2573
-5668
-2697
-1214
-14611
-20585
-13821
-7752
3159
9706
16038
4538
4751
6208
8670
7168
6358
7123
8551
10036
9354
9035
4814
3878
3707
3337
912
763
235
3269
1507
2992
3580
4682
5383
3284
3482
1866
5915
4032
3515
692
1090
1710
3912
4368
3049
3824
3758
3654
3843
3426
2745
-689
2316
407
2001
1786
1470
2821
878
4781
4060
3269
5163
4621
2004
1603
1299
3469
5850
-102
40
307
849
3224
4384
5329
5413
6804
3525
3417
2851
1036
3134
2525
2163
1391
900
1103
1850
3189
3844
-51
1186
3014
1820
1376
3091
4374
771
-1733
-2940
-4725
-1579
-4799
-5893
-3493
-4704
-6534
-7926
-5662
-4440
-2422
-956
-1777
-6017
-4517
-4635
-9227
-8305
-1227
5055
3586
-3480
-8403
-6533
-2559
-2500
-1754
-834
5874
5511
3671
5219
3842
5669
1654
3241
3672
1128
-388
-2215
-1946
657
642
-2858
-3751
-2857
-2729
-1117
-549
-2385
-3268
-3203
-431
-4651
-1392
-2120
-1759
-3227
-3967
-5358
-4469
-3352
-4941
-6701
-5512
-4387
-4316
-2470
-4710
-2427
-1221
-1697
-437
1534
-1068
-253
714
3635
2337
5615
4896
5743
4096
3435
2883
449
984
1824
-3681
-3261
-2194
-4461
-2828
-1916
-4848
-2725
-4595
-3224
-5337
-7052
-5604
-4582
-5473
-4498
-2269
-3292
-4182
-5130
-3091
-5317
-4433
-3676
-2656
-4508
-482
-3120
-3962
-5353
3840
4694
7091
2479
172
1714
2077
1253
5777
3598
1088
148
-922
-267
-297
5405
1185
5006
3019
2915
1106
792
1682
686
1530
2576
3867
3965
4605
3832
4751
2457
2634
2516
1403
2868
4186
8033
5498
9006
10202
6663
8525
5904
5449
1173
1828
384
2085
2825
5884
4910
5295
5594
4135
4511
3926
3390
1206
-1145
836
3701
3299
5996
6397
10344
13482
13377
11732
9297
6133
4990
5037
1695
-121
3172
3290
2675
2103
3158
5403
4524
3417
2988
3270
2420
1201
979
1717
701
2419
2360
3229
4032
3344
2365
5753
5555
4522
3236
3435
4094
2963
3338
1572
-1988
431
-3320
-1249
3034
980
3245
-3139
-3983
-9428
-5568
-1832
-2189
-6610
-388
3547
-835
-115
-295
2520
4976
4198
6147
4462
4321
2230
1585
1346
1118
1
-5387
-2812
-5186
-5080
-6652
-8511
-7505
-6603
-7357
-6043
-2952
-3679
-573
-916
-1330
-10818
-8841
-4468
-6800
-8259
-8686
-6338
-6389
-4917
-6405
-5582
-2555
-1990
-4967
-3463
3669
2494
4896
4751
5431
5367
6125
6311
4111
3938
3718
4067
2786
2830
3255
1166
1696
1497
2455
4066
2759
3286
3118
348
1059
2540
3602
1347
2422
4262
-1393
-689
-1764
-5205
-5248
-8639
-9976
-8208
-14148
-8617
-7889
-8248
-4637
-1459
-2750
-9776
-9769
-6854
-9078
-6689
-7321
-5426
-9610
-5627
-5226
-5902
-3904
-5376
-5676
-9245
314
-904
-2174
-3081
-6487
-2045
-6414
-4814
-5457
-2005
-1796
-1367
1106
1000
1486
-4012
-2559
-2768
-4822
-4905
-5522
-2412
-3194
-3060
-6073
-6265
-3883
-3691
-1701
-2429
5272
3045
2231
999
2833
687
2052
-419
-565
3038
3586
3533
1960
947
4742
-866
-2146
-6669
-6954
-5523
-4249
-4980
1557
-1451
-1460
-1020
-1405
-919
-788
-856
-5275
-2557
-2756
-1878
-3332
-3383
-2310
-3867
-2440
-3662
-3560
-3140
-4260
-5559
-5653
-2907
-3041
-2365
-2887
-4991
-3907
-4538
-4385
-3688
-4059
-4166
-2801
-1270
-894
-2351
-330
867
336
1417
2445
1256
1223
2449
1362
5107
7026
7208
7256
5928
4433
-3197
-1515
-2672
-839
-2992
-3986
-2445
-4743
-4145
-2244
-4956
-4738
-3656
-863
-3487
5509
1638
2114
3956
4090
-678
4248
3231
3876
2967
1777
692
1211
1125
2593
4033
3148
173
-863
-1418
-3464
-2708
-3658
-4370
-4003
-5492
-6210
-4334
-2707
-4057
818
916
1179
3793
4499
4471
5355
5470
7561
5433
2789
1301
-621
-609
-4376
-1217
1135
-207
-1801
-641
-2125
-1773
-1229
-5594
-7927
-6535
-5702
-6350
-4066
-4332
-19521
-15041
-10602
-13064
-8500
-7805
-8703
-18300
-9217
4857
14912
23580
23603
17761
17172
-2777
-4640
63
-1804
-1788
-428
-3224
-2734
-3885
-1712
-3468
-3591
-897
697
786
5200
3094
5136
6185
6467
5922
6017
7158
4747
5928
7171
4612
1651
2610
4648
551
-1900
-1389
401
1084
2308
-882
-3139
-7711
-8258
-4722
-4866
-5108
-4007
-3885
6006
3778
2517
2695
5921
3989
3977
2222
-3852
-2834
-8123
-6210
-8381
-10858
-7829
-3702
-4075
-5111
-4919
-5754
-8421
-7335
-8967
-7538
-10217
-9355
-8518
-7696
-6906
-5681
2326
3407
2311
3541
6613
6097
4921
5987
5427
4495
4926
5250
4739
2900
2392
1959
-935
-1655
-2092
1381
-2665
-1849
-5437
-3157
-3465
-1592
-5758
-3491
-224
-3065
379
-329
-532
1271
684
2111
3199
1732
4663
4894
3211
2634
1701
724
2044
-4388
-5646
-7801
-9143
-4303
-7612
-5916
-6374
-5820
-5531
-5434
-7889
-6951
-4327
-6628
2141
6201
7910
6965
6333
4264
7195
5044
3468
2648
6292
3539
1322
-1646
3080
3592
7998
6400
8283
9711
8337
7874
6399
8661
5873
7203
5814
2018
1068
-801
-5833
-4921
-3607
-4198
-2470
-5255
-3446
-6744
-5265
-5038
-3969
-3852
-3418
-2760
-3752
4953
4804
5334
6328
4955
3618
4282
3896
4171
3415
3498
4323
3889
4671
4589
-263
-1545
-3225
-2270
-2056
-3394
-6450
-4155
-5700
-5540
-7286
-6578
-4689
-4035
-5023
-1217
-3018
-4571
-1885
-685
-4672
-4628
-7170
-4472
-6845
-2041
-2213
2640
3814
3396
8129
9586
8901
7094
8312
5058
5144
658
-3832
-3706
-6279
-12653
-7961
-12227
-12691
2679
3704
2169
3019
130
-8
1639
651
-203
2293
2599
1418
5552
5831
7881
2029
1896
993
4471
9068
9123
5371
5162
4217
3430
5274
2825
3542
2538
2005
3706
2284
2880
2464
2818
3001
4789
5509
5958
2848
1761
695
3148
1427
1922
2037
3728
2777
5096
5995
7801
4955
3253
4800
1211
2786
-1394
2502
1286
3395
1846
1174
2369
206
1954
2648
3481
202
2129
1494
2373
1975
3647
3236
5328
2665
1395
55
2857
2759
2928
2770
3438
4347
4202
3053
2181
1154
703
-152
-12734
-11087
-3604
-2372
489
5844
16351
22110
18637
11252
133
-7501
-9408
-13172
-13967
1968
1893
1048
990
2664
3214
4651
3476
2586
2289
6257
6491
4909
2037
-2039
-28065
-16799
-10191
-8940
-2446
1447
13459
22560
20278
13191
2381
1401
-3894
-5266
-10674
-1162
-216
592
1575
1376
4800
7290
9303
8291
7694
6224
3703
3250
1577
-968
-10156
-7659
-7055
-6406
-6292
-8857
-7311
-6019
-925
3854
9724
11554
11340
12229
11138
-2358
-3089
-2918
-8062
-3081
-5613
-2212
514
-623
-2064
-805
-2021
-3370
1239
-1066
945
970
3347
2465
4364
3057
3700
5379
1413
3177
2588
552
2008
2707
830
-2274
-4369
-6463
-4817
-6977
-5183
-5018
-3017
-2079
-1832
-1242
554
1750
2505
2678
-1236
595
-267
2783
4632
5322
5558
5479
6037
6983
7624
7634
9329
8767
4065
-3249
-2818
-1697
-4402
-3591
-3541
-3623
-4108
-3252
-2425
-3763
-2072
-3495
-5250
-4273
-1013
-650
-5658
-4119
-3860
-5124
-1940
-5944
-7179
-3719
-3009
284
243
482
-248
-6309
-8601
-6127
-10046
-6813
-10300
-2854
111
3211
4313
6027
7574
8509
4223
6685
-4193
-4483
-4165
-2027
-2420
-5436
-6138
-6721
-6134
-6893
-6140
-5139
-4055
-3322
-2687
3962
5594
5055
4114
3335
4052
2673
6430
5915
6517
6405
4293
1708
997
2322
632
810
259
-686
1248
5115
4236
5177
4745
2959
3583
2314
2656
1079
1742
-8278
-8949
-5300
-2127
1184
4426
5608
9093
11953
6893
4761
4264
2081
2725
753
-5644
-5308
-4635
-5852
-4697
-2102
-4915
-6522
-3811
-670
-1726
-1462
-4209
-5275
-4921
3903
3249
2470
1277
5698
5690
6248
6007
1827
2470
-1331
4671
1716
745
-4430
2671
2557
683
4010
3755
7889
4172
2466
4541
5417
5611
7004
4333
3202
218
2757
2913
294
1061
2748
6510
5862
3949
6157
5725
7166
1671
3407
4685
5699
5912
9104
6911
7413
3994
8507
9824
-93
-2025
-5526
-8199
-11058
-11007
-9669
-9094
2337
885
841
2594
1734
4161
5449
5693
5692
4388
1976
-806
-468
1651
1271
-786
-6174
-2384
-7653
-13707
-10442
-13847
-11125
-1158
581
4108
5254
3179
3940
5499
-1063
-1785
-3221
-3272
-4777
-4088
-8025
-8321
-2507
-2756
-2222
-1372
-2474
-2374
-2313
2888
2263
3468
2213
3096
2839
4428
6023
4939
4516
3785
3324
2875
2031
2008
567
3341
2270
3321
3939
1729
2661
3851
5007
4911
2620
260
190
698
624
-1390
26
1254
4228
7973
8712
9854
10269
11946
11759
5982
5681
6837
5844
4969
-6774
-12196
-6497
-6893
-4592
-5160
-11288
-10722
-1657
7896
10821
11902
9945
7855
10469
-3022
-4106
-2703
-4321
-3144
-3601
-686
-2299
-2505
-3305
-3749
-3159
-3113
-2717
-3498
3588
4322
2129
2098
2744
-75
1054
1624
821
3195
2778
3246
1923
3793
3645
452
-677
-2695
-2810
-1835
-3476
-6281
-4709
-4952
-3552
-6655
-5684
-5210
-3220
-815
2891
1905
2488
3228
2298
3526
3591
4148
2160
3370
5201
6104
7519
1744
2237
-515
3810
1655
606
-459
5577
4948
5107
9816
6708
7034
3752
-2054
2220
4010
-96
516
1592
1467
4727
3752
3528
2333
1629
3426
3279
3012
1914
4019
4997
-5900
-5548
-5615
-3991
-2884
-3555
-4394
-3727
-5004
-3334
-5626
-4391
-5065
-5772
-6154
-2962
-5659
-5463
-9471
-7039
-5609
-6101
-4445
-4948
-4564
-2464
-2501
-1452
425
222
-32767
-23863
-19452
-5007
-540
9805
19561
20972
21522
16694
10521
581
4025
-11182
-12626
7905
7078
7647
8388
12357
12861
6953
4186
-610
-6095
-8307
-9086
-15098
-16542
-15014
-2163
-612
978
-991
808
2696
2232
1846
2797
1934
2830
6784
6437
4527
3356
-4895
-4507
-6307
-6641
-3561
-3686
-3745
-5805
-6619
-6054
-5545
-5017
-6462
-6148
-6438
4204
3365
3371
2004
3159
3076
3039
3867
3055
2695
3598
2925
1828
503
386
-2598
-3249
-5346
-5540
-5778
-6137
-6075
-4942
-6538
-4984
-4955
-2195
-2561
-1811
-1343
-2706
-3381
-5032
-3689
-4897
-5093
-4078
-3501
-4419
-4174
-4738
-5813
-6823
-3715
-3081
8945
7594
4369
1121
1025
1344
2208
-761
-1229
1894
5093
2007
3226
8491
2096
-660
-3113
-446
-2720
-2928
1000
-2574
-2065
-2333
-4903
-4542
-3286
-4014
-4869
-4883
-4490
-3757
-3326
-7830
-4742
-8177
-9585
-15247
-7397
-2343
3179
9146
10146
8974
5331
2800
3896
2393
3350
4566
1725
3787
2504
2309
1693
1934
2800
108
3362
1937
6369
3911
3073
4588
4465
1210
3233
-1065
-4091
-5299
-7987
-9827
-8766
-10498
-9211
-180
1402
1073
1473
1319
247
1573
-551
-2532
-4173
-7049
-5381
-3895
-6163
-6178
-902
1164
1321
3444
-34
-3930
-4604
-5316
-4028
-4704
-2400
-1627
-2578
-3196
-2829
-1899
-154
775
1617
5068
4300
6525
5585
4607
2974
3280
1036
24
-1144
-1616
3809
2680
1713
6542
6337
9937
10598
4352
2124
-1962
-1841
419
694
-4819
-2356
2109
4128
2006
3247
1239
4838
4362
5774
6634
5497
4835
3033
943
2295
1241
3891
3913
3476
5939
6474
3834
3170
3283
4693
6480
5280
3965
4431
4157
5456
-3192
-5045
53
-926
-3815
-5223
261
-1460
-3817
-2769
-1881
-3692
-3344
160
-4065
