-3828
-12263
13042
-18072
3143
-9776
2607
-2210
13394
-3296
-13343
14683
-9126
4737
20178
7850
21081
12089
-1498
4823
-16281
1660
-31700
1252
3711
8877
6850
10947
-10239
2092
12667
-12512
1873
22820
-28329
-8596
12509
-4972
2255
3368
-15370
12851
-12436
1621
9729
-7676
-16044
17056
-9115
-3057
10755
13433
3388
-3377
-5139
-8831
2327
-1447
-8720
-4049
4807
-1371
-8918
8116
-11144
10141
-17207
-19552
2992
-4033
-4432
17909
5571
9303
-8379
-3274
-25296
-15833
-13960
-174
-15506
5353
-5854
7732
-3727
254
-24049
3603
4856
-14080
24337
-12935
-2037
9235
9800
3513
-19833
-10743
2887
2988
-10260
-12708
-5072
4863
13005
-2302
6584
-15893
-7202
-1618
-16534
13578
-8267
-13347
431
-8158
-3201
2964
3105
22650
-19128
-18629
-13020
-17092
-16830
8646
16478
-5579
-10253
-10719
114
1677
743
-8656
11017
19078
-8934
25479
-4342
-10475
2957
2676
4142
-16715
9063
-3812
-2887
16971
7591
4840
575
12297
-2523
-15966
-5038
7343
-11773
-1296
-13327
-12375
12132
-5142
-5764
-3688
-6863
-5139
-2304
2876
-16599
4179
-16477
-2232
-7128
-8019
8262
-11460
-10138
-11625
-4832
20395
-3165
5100
-8210
4222
2264
-20676
11228
80
16834
2009
-9292
-12271
-4367
-8952
-16793
6099
-10846
3221
-1061
-12137
4134
-19205
-5671
-3128
4844
-12909
-1871
-12038
-5408
-16829
-13863
660
-2126
1346
13350
-14384
-3826
-16003
-2089
-9128
695
-8594
-1985
7395
-1582
-9093
-9308
-4414
-6873
-19158
-5168
6788
2070
-478
2017
-8802
-3126
9144
-1552
-4992
5241
22234
-11640
-3991
4195
-22941
8527
-11948
-613
7652
-12621
-8577
2312
6541
-5844
-7178
-10691
4097
11350
2983
-11524
1142
-11166
-1625
-1321
1623
7572
390
4018
8201
-13993
-19893
3946
4468
-6098
-427
3625
-11689
-12032
-4159
-11142
-8328
-11099
1010
-2574
-13609
-5363
-4124
5344
-7399
-5544
-5172
6731
-2497
11180
-9273
9965
-3166
5181
25665
3418
5205
8241
935
-3551
4013
-19617
15987
-11934
8344
18
-14907
-6259
6910
-8350
-5571
10777
-10485
2843
-7825
-1847
-5694
-20016
-1274
4583
3682
-6072
24589
-2071
6359
-2880
14527
-25559
-23169
-5618
-5215
1756
1777
-10486
11259
-5305
-240
-471
-11503
5390
-5709
-11932
-3662
2567
4623
-4756
1215
-11954
2640
-1089
-7599
4882
-132
-5849
-6165
-12090
-10565
5001
7839
5031
1826
654
2705
-1981
-9000
-8082
-1467
2516
-8931
-13030
-4844
14092
770
-15169
8339
-13040
14364
-254
1958
-6187
-1625
-4533
-3659
-8658
9127
19303
14388
-459
-649
-13676
7330
-5461
6232
13545
11113
-1448
-5420
-3452
10923
6425
1369
-1680
4721
8132
-1293
16325
-1940
5606
22073
6978
14702
10653
3490
-14346
-3229
-17997
1221
-571
-6604
7222
-6515
2090
-1442
5346
-3688
-5289
-404
7950
-7141
-15098
-8262
-1464
11766
-6707
-3786
-12925
-21295
-10655
1046
10781
2070
-2574
3029
1235
-23591
-1472
16601
-7501
15367
-3871
-1218
-8670
-8828
1793
-4280
-7446
6102
3572
-14598
-15449
7468
18320
965
1779
-12552
8998
-912
4436
-4637
5585
1629
-22862
-4217
16053
-4856
17096
-10743
-20632
13579
1392
17135
6563
7862
4524
-5102
-4216
10190
-6656
2466
-2614
-6014
41
10183
-4436
-4395
-2992
-1506
-539
-5354
5912
-12031
15376
-9106
-21010
8701
3479
12489
2023
7015
10579
-4224
-8376
-7822
-5252
10155
6593
6094
9148
-11299
-11609
-2405
-15149
-12083
-5043
-5328
-2423
2402
7520
-12282
13888
8193
1520
-9034
-5773
-2627
18812
-19125
-11086
-10001
-1384
4202
4001
-5494
-7271
13591
-13506
-10776
-5544
-3851
-3902
-4769
-3422
10192
-5656
-6012
-14094
726
-13269
-4632
25379
-7960
-15514
-4136
-11092
14921
6700
-193
-4537
4152
11994
4790
5657
-11877
-14099
31404
-3538
-3219
4693
-11205
-8516
-26658
-4727
-7351
-5045
4940
13338
-4271
-12429
-3246
9060
7098
3499
-9994
4831
-11282
-3449
-6329
-9438
-1863
5402
-2010
11433
-9267
-20497
939
-329
-8657
-21610
4716
-20926
-3423
-2971
-4340
10551
12058
-539
-10865
10121
-7968
10335
-2579
2320
-4151
-1772
13356
-3367
-8190
-8000
-1440
-13672
13601
5182
9054
-5791
-7234
7713
11504
2473
2581
2840
10221
-8324
-4117
9608
-970
12742
2772
5109
-6303
-8583
-23631
-11845
4626
1127
-9201
-1017
9371
8698
-936
1286
11830
12981
14497
-12123
8592
8868
21194
32767
-12222
-8052
13772
2353
-5321
-8029
-8883
-16495
-5155
14947
6682
-8026
-9899
3458
16389
-24722
-2490
-15047
2547
-46
4336
22831
-8695
14117
-2194
7022
-9213
20775
-693
-3358
5108
3651
3135
-9637
-7624
4554
-3216
-975
1695
9113
-3115
12400
19466
189
21927
5478
-3812
-7085
2099
-6193
2284
6280
691
-3226
6315
8004
12021
8879
7190
6630
529
8971
-3601
-3410
-13958
6014
-558
-12678
5176
924
2143
-2153
-12962
-12160
-3843
2147
10717
15680
-8459
12920
36
-454
-23530
-14961
7383
-6717
-9572
7118
-2655
-2463
-3934
-14468
7353
-1709
8735
