1899
-1578
6066
8543
3430
5116
-1522
6475
-19109
13768
-16147
6659
-541
-2790
-15094
701
-8065
1414
14325
-6520
-9763
-387
18857
16926
-1781
-2701
-5857
4642
-2013
-235
17674
11068
-4070
9692
54
7140
1833
-277
-16649
-12017
-15101
9416
-4134
-6818
14988
-3403
627
-9812
3814
9833
1968
-6133
11014
9615
6350
-14599
-17448
3890
14808
-6785
-23284
-4468
762
-855
-2534
7065
2761
8044
8412
5069
5437
14298
324
5564
-1575
1032
18130
-18480
-11321
-5011
12194
-5789
11746
2229
-18642
-4456
5518
4106
-4703
-11487
12130
6708
-2582
8338
-5609
13758
-9613
-3605
-4385
-48
-3547
2300
-12066
5881
5050
-5674
19521
-9095
-1190
3220
7403
-2404
-10655
7096
-4692
9041
2472
-7827
-14903
-906
1024
-3570
642
251
2437
-7431
3270
-2100
-2607
-9674
-6321
2393
11683
-8487
10150
3059
15712
10751
6099
1170
-1943
5133
7567
7920
2264
-3201
-6394
-378
-11498
-869
13451
6678
-3560
-6158
6117
-20058
14220
-8440
1087
-6130
2670
8960
-525
-2090
21861
-203
3319
931
-12409
-8125
-2923
-8303
-3407
6415
4621
-2605
3301
8557
15355
4352
5402
-10646
-4800
11725
-8449
6416
14303
-8141
-21427
-8303
2523
8844
370
4295
1077
-5698
8426
-975
-9136
-3335
-8004
-6656
-9138
22674
9164
5567
31
1775
2437
6464
-4120
-8152
22728
291
-3905
613
-23212
-2471
-20382
-472
-10067
-3099
-20065
-3454
10642
9577
-8872
12036
2281
-5859
-7107
5900
11282
361
7993
-13095
-9
155
-7720
7211
732
6681
-9859
4042
4776
-8852
-3393
-7498
-9367
20365
-12286
77
2341
-3602
-19966
2573
-10926
6473
-17718
8774
-13857
-3413
-540
-5540
-11828
7738
-2325
-8106
-1232
12375
-13897
-15141
3985
-4601
-1021
-21996
8753
-4754
-5197
8143
-15937
-6077
-1861
-20338
21378
4993
22261
-1888
14722
12874
-6220
13847
7608
-6222
15067
-4936
-8379
53
-4084
-4793
-10999
6363
4610
-15963
8106
-8322
12372
10669
5312
12000
-23221
-7280
-9676
6549
13858
3428
10561
-4661
-251
-16525
-11500
1662
3507
6232
-5368
4080
-3883
-1988
-5155
-2142
9490
-1811
2759
5204
3072
-5765
4707
3367
-2091
-8097
5474
2622
-3703
6769
3680
5465
1559
-1852
-373
-11772
6057
-2197
-1460
-5114
2246
-581
-1608
5583
18931
10586
-9630
6291
-9862
-2171
9457
5858
11205
5343
-7738
-5757
-324
-3644
12168
4447
3226
-3241
12146
258
5906
8049
-7631
-12681
-3190
926
8928
1229
-4077
15512
11478
6743
1907
-2424
1599
-1469
-4796
6467
21197
6248
-21361
-2071
2918
-5704
15992
1579
2384
9340
5829
-32767
-1460
-806
28436
-4274
2686
7379
8825
3439
2913
-13404
1538
13745
-2155
3011
19312
8228
-1438
-1706
-6505
-8289
-1755
15164
3639
-9326
4131
8919
142
-2463
-6021
-7017
-3328
464
2791
-1719
2173
-10749
-12713
11740
-2881
17608
10958
-9982
9130
-5758
617
-7096
6227
-1350
-4941
-2629
-7290
6314
6118
-9994
-2912
-7974
-12623
13860
-7931
3086
-4039
-785
8240
3823
-1567
16228
5453
7625
-4840
-5878
-10880
-10083
652
13000
3497
-12501
19241
6645
14779
-10017
1058
143
345
-7923
3040
9862
-2390
-3135
3801
-8516
15914
8685
1490
10593
-9135
-10712
-3716
-11347
-2576
-861
5122
15467
1357
-5212
-9560
7143
3801
-12728
-630
-2329
3182
2331
-4211
-17753
-4407
-8150
-4876
-9829
14726
2058
13526
-11366
-5276
-2852
-6520
-1232
-919
2228
-1526
-3689
7637
12986
11544
-1979
5095
88
-4872
14867
6828
5603
-15061
-7426
-2971
-5009
-11895
-2410
810
-11786
12628
-16808
-10701
-1337
-8154
7917
7654
-5423
10421
9756
-10034
5103
2895
-12228
-9524
-8673
2469
-825
13569
10939
4947
7651
14848
-1322
2024
8807
-3208
12411
2966
-8950
-2509
-14526
-7575
1815
-1548
-94
9565
-7808
27651
-10071
1761
-3838
98
-10069
-11718
4990
-13688
-7243
11402
18850
-13624
10524
11220
2680
-9914
12119
-13187
1545
-10712
7232
-5231
-3340
9143
-2120
437
10050
619
-3265
-2588
1865
2474
-22196
5660
13576
-4136
-1448
10272
8396
-1881
-4939
578
8548
10087
-572
-8343
-2392
770
16169
5570
4571
482
163
8861
1843
21287
507
-2446
4923
-15871
-217
3954
-1779
9628
2446
-12763
12284
11125
-396
-14148
12624
2721
3402
-2731
-3578
-5793
-4480
18600
1980
11381
-18105
-10893
2768
-1956
10697
8507
9753
4929
-5741
23885
12340
738
-21041
9742
422
2497
6231
-3890
-17122
-13194
1256
4609
-2716
-13438
-6034
-82
-1876
-14435
-8672
-10789
-5154
9030
8677
-10950
5745
8533
4858
-11979
502
5208
-11319
7910
-13981
7177
11763
-1185
-6166
1907
-10321
-11877
-8056
-13396
-14528
5369
12497
9030
18110
2058
3128
-8221
7416
-6179
12698
2134
10208
-7184
878
4521
2006
-4752
8640
-598
1944
3612
803
-10323
-2588
-17842
-5656
-855
-503
3655
-4555
-5842
-1320
-5743
5477
1485
-2053
-3506
5516
9873
6648
-9465
-2283
-7
-5757
-11117
-13083
2204
-2891
-14579
-9387
2322
776
820
-7652
5639
-470
7872
-424
-5500
-6696
9892
-8759
6401
4462
14102
-1231
-11748
-5049
-4400
-12993
4008
57
12272
16090
1374
-11831
-1861
-1133
5745
-7985
4817
5306
-2560
10004
-4018
-5374
13031
-5632
3679
-6522
-1888
-3381
11454
-3585
1115
1709
338
4495
4486
2305
4633
13647
-17833
247
-21997
-9482
3006
-918
-4173
-1818
-13516
21796
-1214
21583
-1700
7214
-14268
1115
-703
-804
-4012
6270
8537
-6113
-6561
6151
-2281
-10564
6307
1219
-15961
4481
-214
4870
-158
3051
2639
26
11
-7396
-834
-13220
2548
1953
7309
-15168
12671
-12927
7826
-3208
21605
-9521
-4215
6897
-7368
-3169
9140
-1149
-8170
-5050
2420
-8222
-7591
-16578
19755
-14903
7289
1717
-1118
-1446
9719
236
10928
-622
8907
3433
-5892
16126
8844
-9715
-16698
-2841
-221
-1961
-10025
3208
-848
-9389
-8136
323
-5386
11317
2985
4021
-628
-12359
15213
5099
6907
-9465
4950
12598
-3688
13400
1003
-21367
-49
-1326
-499
4376
7590
-4842
2517
-7288
-4886
-7899
-15407
-4273
1719
-2298
-1491
-2760
-6866
-7551
-6568
-11873
17421
-4525
-11428
5097
-12323
6085
-16039
1076
2131
2932
-2911
-1869
2661
-9270
-2206
-8215
-4443
-7873
-3806
-4649
-861
7633
1097
2138
-8063
15534
-88
-7042
1719
8078
-4106
9710
8046
-5318
-7240
1356
-17332
-20264
3406
-3279
-3262
-8704
-9237
12863
-7724
-9937
-2650
5008
5133
1457
-11725
11341
-461
-2046
-8262
12842
16599
-5321
-11292
-1339
3053
-5998
3322
6062
8399
-1284
4877
-641
15817
10613
2410
9611
-9205
7498
-4485
-6722
-7997
-1350
-227
1930
2711
-7296
4231
7810
5108
-7543
-17898
-578
-6019
13
-6458
-336
15171
1437
-181
-2495
11231
-4007
-10875
4725
4083
-1530
7422
-1230
-1405
-2075
1115
-609
3202
-3082
10688
-332
6547
-4117
-2341
-886
2173
8475
6167
3246
5106
599
2067
-2917
-225
-7188
331
4255
7130
2957
-1764
6076
2880
-4616
7010
1611
-1897
-9567
1147
216
12950
-4084
-5837
5032
15694
-3086
14195
2934
-1954
2227
-2028
11843
503
9565
7501
-1244
-4283
7785
2000
1385
234
3904
-15002
-11979
2412
2783
2884
3348
-6283
-10074
-2005
-6478
-11018
-2101
-7880
-3470
16214
-11110
-14205
-9917
-3442
12632
946
-6113
-8863
-10294
-3385
9738
-2551
9563
6647
9861
-11836
7297
-3006
-18954
-6327
-7972
-3533
-8512
6327
-3254
-3415
1036
-8102
-3920
-5523
1407
1600
23408
-5018
8853
-13518
-4222
-5938
-2963
3344
-1716
-10483
-5990
-5685
-3290
-1542
9458
262
4131
1415
-15782
-752
-10133
-1489
1518
5787
-2901
11328
16466
-9261
5524
-781
-967
-13788
-3231
-1342
4813
4113
-10340
12442
-1326
8918
-1016
-6004
-11163
23427
2005
-9660
5356
-703
4953
-3165
-6110
-6002
8320
-3413
6436
-12064
822
-9658
-6270
6711
11639
16795
2283
-35
-7372
3864
-16386
-2954
-626
4698
-6771
-3913
-1722
-7038
2965
3469
-5381
-160
13280
-7051
5386
-5541
8641
-13914
6681
8178
5867
-4103
7175
-6181
5578
-7353
641
1943
-8257
-4833
-12339
2569
905
-2008
3452
-8350
8162
-2996
-10465
-3381
8454
5947
4206
-7295
-9889
3019
-4089
1967
16019
3742
-9894
7791
-1299
-661
17337
-2358
2268
-6994
2433
-10127
-4723
-22628
-2609
-6671
3560
-303
9317
6836
-2486
4874
-766
1217
16637
-10747
5815
2493
-8427
556
13
417
5389
4887
-2281
4178
1315
3515
-7418
-10587
1349
1663
-21781
3889
-1143
-1259
4632
642
-4838
11642
-124
-4098
22
-4696
9282
-2897
-9099
5643
-90
1691
-610
-11756
2841
-4748
-1684
-7758
-4687
4985
15866
9718
2433
7080
1491
3711
-12174
2405
12809
10543
10411
-1850
-1255
-2076
-9125
2498
3245
-4979
2877
12049
-10011
9224
-3640
4011
11195
400
3597
9854
21568
9119
29077
6373
-10475
-9632
-2198
14958
9799
-10756
-5509
2296
289
-15799
-15371
-4628
7030
4100
-437
1802
25385
-9389
20646
-5796
-3366
1206
-3528
10327
-11818
-9276
-6157
-7192
4140
-7953
9007
5725
-12095
-6722
10186
-5842
-1987
-6547
8587
-7807
2816
-2124
13545
295
7765
-2028
-5521
-17073
691
13926
-7629
629
-4595
-11411
-5787
-394
-1881
-1300
1713
-9099
-6317
9603
-7019
-4182
-1125
-1492
-3657
12697
20543
4674
13474
8211
-3137
349
3098
-869
5377
3466
1810
21390
-12851
-7134
9606
1964
3304
257
-6015
-8687
4275
4102
6722
-6045
5065
2688
-8428
-5381
-13850
316
-11823
3887
18258
-12507
16008
-12148
8055
-6699
501
7729
-13697
-1801
20181
-18234
17729
-12889
4068
7714
4814
-6489
6941
-3556
-3493
-1893
-7611
-4516
-3684
-1604
-3135
-11939
7375
-8745
5595
13378
-3606
-8660
4619
3391
-2020
3410
2691
-712
3757
17681
-22727
6906
8998
-12470
13557
4118
7957
-9802
3820
-4544
16963
1708
-2201
-19674
-20888
-2578
-3808
-840
-9200
8743
1443
-243
3939
3391
1593
-4746
5366
12291
313
10584
-8318
-2458
-1393
-12979
3430
-8297
-7223
-2055
9884
390
7893
-10634
4417
-8252
11965
2914
-793
678
2190
-2681
7701
4616
6991
3315
-13025
-18480
-5428
8650
361
1895
5503
11929
-9850
21915
-14869
11684
4992
1226
3943
5672
4722
-5871
-5866
1174
7685
8801
-5451
2447
1255
13159
10913
8501
-6175
-7003
8457
-12254
-6563
-7346
-5776
9371
81
-13136
3823
-4304
11521
5200
-8234
-443
755
-16650
-13829
-1995
8904
-16724
-6209
4153
-5208
-26877
5631
4767
-1871
-4177
3851
-1191
-2096
6860
365
155
2647
7571
-5178
-3402
810
6096
2560
-4281
-477
2504
23387
-6745
7216
-11197
-6926
-2540
-4530
-13431
-1240
-11431
-1197
-10531
-5231
-7681
-2947
312
3213
5567
2387
-1129
2300
367
683
7972
-5225
375
10049
9567
-1587
-4557
2609
4890
-20038
-4586
3895
-7638
-961
-4781
-6759
19522
-7695
-2710
-6690
250
13874
-4300
3817
2651
-17300
20077
3037
-6077
-6861
4825
-13212
-14213
-13461
3250
-7118
-101
6370
8039
15439
3781
4036
3505
8135
5003
11729
-4291
-9906
-5863
1129
8402
-5659
164
-7444
7047
1341
9544
-5418
-11362
-3601
18045
3580
6947
4541
-7468
-719
-1899
1866
-1586
18373
2095
6024
-6933
2191
1639
8880
-4354
-2419
14367
6131
-2126
-262
1634
2968
7989
-5481
3355
2145
-1787
-3082
13400
-7228
-8802
-1986
-14572
-6893
419
-16466
19328
-2998
12525
-7369
9195
-1694
-4852
-5010
-10408
-8323
14565
13246
6433
-19368
-6307
786
-3307
1913
-9786
2042
11037
-1830
-7567
2242
-2803
17025
-2325
8798
-6280
-483
7632
6653
-17946
-25842
-1090
5367
5735
-14986
4309
11749
-816
-19169
-3122
-12059
3407
-2316
-8397
-1780
-990
-9170
14659
-2823
2428
-6506
-6471
-262
5833
2545
-18867
-16541
-2546
11701
-9264
-3022
297
-8846
-2517
3698
789
-7333
714
604
-5650
3361
-10326
2095
-9458
6076
-26198
2962
-11793
134
2356
-7689
-875
-2321
-2794
5852
3163
-625
-104
-7831
-3119
-2653
3152
3857
-1378
3140
-2064
-2865
8981
955
4320
-8625
-4474
-1495
3445
-1389
3123
-1582
1049
-6103
-5293
3472
-12738
1957
-4932
457
12876
2523
-8592
-6693
4956
-3395
16358
3030
4423
-51
-3307
-795
6752
-3984
3456
3450
-12204
3558
-2233
1751
-4742
-514
-564
9219
-3715
9092
-2324
-15298
-7432
-10339
5320
2440
-4273
-11454
16587
19850
122
2160
-4282
5666
18502
5128
-15389
-1730
15400
-13287
1432
-8389
-10924
-1349
-5455
5679
8896
9155
-7117
-8388
13696
-7304
4878
-6304
10537
-9322
95
217
-6454
1410
12949
-11071
14497
7334
-6662
-10477
-8190
16431
9379
-13095
7632
-14361
-8740
-32606
10087
2800
-8499
-14469
2614
2483
6264
-11069
-1464
5684
-22282
-11618
-1693
9348
9335
-23027
2207
991
1490
1354
-11820
1326
5703
-14266
-4947
-9319
-807
-3128
-10551
-920
10434
-6092
3633
-1751
5970
-776
-514
-5831
5046
350
-7996
744
-12980
6496
-1397
-5492
-5594
4491
9661
13
-1151
-10586
2126
-3985
-1933
2432
-656
6381
-6145
5987
-3431
-2154
-15516
559
-3169
-4537
-5096
4910
-2463
-3735
-12922
4960
6064
3447
-1726
1642
-9143
19880
6137
7158
7998
-6369
3853
4215
-4254
10468
-2481
2134
7816
3336
10612
-10961
-5869
-9379
-11160
6223
-11630
-4882
-523
6656
10542
5403
5402
6592
1347
-7996
-12271
-7017
3036
11665
5549
-5229
12269
3448
-6150
3742
-7618
-10399
-8419
-8637
-9709
6293
-12286
7984
-11734
7508
16023
-9557
14289
-14359
-1078
2350
7896
-19686
4536
-7442
3658
-7192
-3993
9171
2149
-2215
1440
-4684
3975
18993
8964
-2205
-190
-3627
-12974
15616
-15134
-1873
5539
-19553
-5478
-2050
4665
-1540
-11536
-1409
-9203
2918
-2789
-11278
-3257
13156
5171
4476
8305
11360
7064
8173
-11629
-2459
-8008
2241
122
5081
10202
-702
12437
-868
-4341
-9523
9252
16579
-10556
1079
-3417
9973
-15281
-12596
-7609
13191
6783
-4360
25926
2372
2453
18829
14795
4589
-17726
4300
-4427
-631
3098
5881
787
-5816
-2108
723
-5190
11725
1390
10630
8179
9155
-3569
3830
-77
2752
-4531
477
452
1811
3438
-8332
9808
-9959
-1478
-3686
10845
-4959
1091
7439
2379
-7350
4071
-6928
-860
6951
-6629
10541
-7025
-6520
-17863
-5650
13521
-5464
-419
7
-3963
-4082
2059
1036
-8136
5890
-13375
4625
-12520
-3853
-6683
5493
-3405
13583
-12127
1465
3067
-11858
-12106
13543
13794
9143
-3856
-8900
-11201
8574
-3450
26362
-10549
9120
8653
15226
1247
-12921
-9402
11511
-15992
-11210
-8718
-399
3618
-2624
2150
688
-2075
-17886
2083
-12231
-1732
1472
-1552
13491
13079
11280
-12798
-16517
5129
278
19344
15159
-12991
-2188
-3838
-26058
-2244
4578
-13262
20477
-17600
11321
-9187
18699
-5263
-2387
-5408
-4365
-13776
6524
5804
-13956
11985
-12620
14200
-6043
-1110
9234
6376
2060
5462
141
-8516
6252
444
-10753
55
1648
6659
-686
-6740
-7179
-392
-95
-19696
7882
4537
-5884
-9637
-2183
5559
-9844
10177
5737
-5535
3359
-4839
6157
-1048
1824
-7998
12073
-6626
-2796
2245
7127
-23192
-9981
13905
-2000
-9128
-2090
6024
-2811
-4878
-1079
14252
-13779
1674
7513
-8382
-2420
1726
6581
11428
-8471
7920
4934
-5260
-1624
-3094
5802
4835
-4760
6549
-10014
-9535
-1477
-6077
8500
-449
17108
-335
24207
-1975
-5448
-3896
-5587
2310
3477
6097
-182
-6887
1287
-1163
18103
4123
5265
3451
-11810
9391
-5226
10698
-1978
1698
10365
2308
2043
13779
15190
12334
1609
11949
14342
3238
-1619
5092
2810
-5902
-3872
-1502
1664
-1916
2706
12885
4706
5590
12797
-18066
13087
-21894
-19877
5399
1345
-15822
8576
21245
-6674
4669
-4426
7161
2981
9300
-848
525
-6381
-11554
9748
-4530
-6920
9536
6548
-5373
-842
1688
9040
581
-6763
5971
-1324
-3517
-670
4006
-13347
-3159
-3605
12133
-7588
20732
-5251
-647
7709
4287
-5479
-11468
-10463
9552
-6856
25980
-11791
-11238
6541
-21910
-7832
-4011
-8259
-4730
1088
-7936
-1341
12558
7253
-2671
-2256
20682
-31384
3656
7506
-4040
1675
522
-7662
8606
-3720
-5695
3083
8277
-949
-8522
6262
4601
-7017
-9335
4186
1769
-5149
-6284
-6232
5623
-8458
-2097
-3986
10704
5332
-7530
-11806
-780
12414
-7502
12270
-8878
-22870
12407
13095
3860
6727
-6699
883
-6523
8999
7529
1395
-1326
-567
6649
523
-11284
10355
-7417
5597
7840
9468
-31936
1585
-4130
1417
-1922
17381
-8170
11799
377
1722
4269
2938
16693
-1253
15682
4605
4288
14106
-14940
2020
-15876
-3682
-3809
-4068
9881
6308
-19979
-3332
-4923
-6850
-1276
15542
2122
5228
-776
-4162
-1311
-4406
2190
2487
18486
-13297
-12714
-5669
9937
-7957
-4925
-512
237
7244
-949
3863
4705
14425
-4107
-2758
-16385
-5116
-9474
8395
4497
-3465
-10861
15764
-8761
834
-2408
17626
-11588
-3268
18323
-5957
-11008
4991
7925
-13978
4949
-2629
-13495
3941
-4030
-3412
11549
-19066
5138
14224
7857
-3487
3532
-14476
7893
14367
-2096
-438
-18042
-4033
13057
7145
3555
8848
-8386
-7025
-8408
-3587
5284
4636
-1789
-9940
-1709
-7456
1546
1583
378
-9393
4535
-2571
-2520
-8486
1086
6393
382
-4511
-8213
-17948
-2050
4014
-4281
4660
-648
2023
-5884
9439
2363
-11245
3277
8754
19168
-7247
-8004
-3746
-8930
12792
-1568
-8842
-13580
3455
9747
6074
-3078
-7429
-8341
3833
1997
-708
2083
1170
-11770
3027
-4742
-9365
10886
-1886
-11148
5172
-15433
2425
4032
4019
7337
-3331
7945
4913
-630
-4124
-18624
-8734
1346
915
4913
5847
-8392
5247
-2493
2671
-2643
-2518
-22178
11754
-2341
1168
-2228
-12982
-255
9293
-7665
8940
1561
-5151
3561
-1637
3449
-9084
1875
-5685
-6379
-11572
-7513
-12338
4687
-6428
11548
3626
6664
1108
-2369
-4771
-15915
-5027
-12337
-8318
2361
7979
7922
-8999
3384
-8672
18563
-11985
7952
-3021
-18878
-15915
7202
262
11131
4159
1961
-2755
260
5644
-4458
-12457
3223
4415
8501
11275
-6140
6351
4062
7334
798
-3412
-1700
14210
-5360
-8407
-9963
-4199
3316
-9066
-7674
1358
7012
-1851
-2037
-9899
2442
-15229
2838
3249
879
-7381
7460
-9871
-6881
2933
1101
-1715
-3390
-5527
-202
4288
-11743
-4180
-2396
-7463
-6448
6448
20528
-13741
1211
-9697
6753
-5869
-11405
-16327
-14721
-1416
775
-6577
16064
-4767
5935
-495
-3133
-8705
3687
-2493
-1514
-1946
5019
18111
-5706
-4370
16052
15866
-566
7238
-2642
4080
6351
-13274
1478
-4136
9565
14301
-3521
1046
5036
-11848
-9987
1131
3628
15783
-9510
-1731
-1306
-7757
-4963
-4754
-2650
12534
-953
-6269
4654
1752
-5794
2250
3682
99
-3515
-658
-16068
3395
-7926
1192
-2173
9505
4317
-3005
712
6859
-1074
-597
5395
-4300
-6087
-2135
-15486
-7214
7930
-4722
5531
-2858
2575
7699
-5591
3039
-8816
5896
10468
4028
-6036
8712
2337
12960
9609
-11406
-3812
2159
-10972
7150
-3624
-2190
6481
3082
6466
15046
8023
10470
1438
-15289
-9100
-5972
2188
1476
4946
7668
2769
2625
-13695
-4605
7524
-4300
-3654
-1391
19313
725
-12280
3566
11770
-5374
-3569
-616
-9726
4719
11620
-913
-23
6351
9282
-2135
-2528
-4857
1424
-17968
-4782
-9505
-4550
-7856
-1882
-3255
9083
-3384
-9086
8522
6280
-7656
11856
-756
9170
8496
-8485
-5921
-5452
6746
2450
-9812
7540
861
4658
11356
2273
146
-874
-5996
4898
-334
1816
-3708
-8470
10921
3336
9811
-713
7646
-2957
-4326
7717
7942
-19149
-10370
4612
7111
-7067
-8735
4436
-17089
-5367
-6130
-5262
-2500
1626
-5587
-4646
9524
2122
-6929
8451
-9574
5260
-175
-699
-7453
-2908
9818
458
2936
-3519
-2989
1151
-7445
-6585
6707
2836
5425
-5906
1406
22081
1453
5455
-1016
-1817
-11670
6115
2748
-6772
-10939
-12010
-3399
-17436
-14310
-6654
6148
8111
-4442
547
-7054
8942
-4157
-16902
1543
1112
-9740
13213
7913
-10868
-8677
-3082
-6114
-5828
-3246
3165
11389
5036
5845
-1628
5374
73
-2430
-7723
3274
2976
5372
3949
-769
6303
12698
11922
-2654
-1707
-1654
15188
13210
3731
15606
-7495
-4691
-4998
-11922
5154
7052
14045
-13851
-1398
339
-4700
-2204
-7101
10507
594
13445
-10851
1352
-2338
18049
3173
25975
176
4749
-11600
-6637
-10290
-11764
3836
-167
142
-16835
3961
-14274
9368
-8922
3213
15780
-7141
3783
-536
19531
-18931
1549
3875
-23187
-5715
-10450
-6879
-7777
23204
-10939
18233
-7254
-2018
7087
1146
6020
-10344
8480
10936
6143
-6568
-8783
9071
572
-7724
17189
-5073
-10664
17627
-7019
7447
-8864
10818
1284
-371
8741
3791
-6364
-9275
-11983
-267
-7324
-776
-4216
2153
13225
1674
-4958
1057
-5011
-799
14756
-2708
3623
6686
13563
-7543
-8271
8978
3664
-2646
-1633
176
4338
6272
23820
-706
-6972
21265
11152
-7114
-687
1516
6625
7215
8342
18257
3762
-10159
2689
-4170
6530
15764
369
15004
2135
-2194
-29730
939
-935
11007
-2237
2041
-3516
18929
114
-5585
-2603
387
-231
3947
3604
-4206
-3956
-3176
2758
-5140
730
-1965
2542
9474
-3088
-9654
1803
-14502
2724
1462
-4570
13290
-5551
-3025
7589
3387
5448
7680
7283
3053
729
-5304
5094
-4474
-4990
5615
-920
-3268
-3656
9883
5018
6917
2575
-1834
7222
-18599
6131
10087
2435
737
8706
-2241
2556
-8276
-8529
3266
6706
7705
-1045
2507
-3903
-5054
-5212
-7732
10756
12069
1135
-7562
6959
1445
12369
-10595
3768
6327
5924
-5919
13957
4461
1194
468
6631
-4231
4887
9095
2621
-5238
-8389
3867
2353
-5270
3763
6769
2382
19305
1626
-1265
-10307
-4592
8520
-5208
-12248
-9697
1824
-3997
5865
8433
-5016
11039
829
-6168
-2333
494
1421
-6051
2896
-1651
1545
-10006
10721
765
9671
-4141
1549
1412
2540
4442
-22709
-4447
-2613
905
812
-1281
3296
-12052
-3798
13703
-7114
-19316
18703
8066
-16646
9577
-2210
5664
2110
1918
5246
9861
-5651
-4510
3237
-5437
14763
3086
5146
181
-5047
894
10459
-5805
14078
-4574
-11024
-8654
11703
-10478
-10007
1917
25608
1668
-18250
6680
-7085
21164
7134
-1586
2450
-2634
-578
-1849
-5750
3010
2034
4613
-14527
-2414
-1421
-439
-773
-7504
2973
-9057
-5628
-6771
13963
9034
-5640
-198
10695
-414
7193
-648
-1608
-5476
-9627
-3208
-9719
4575
-13016
5315
-8552
10216
-316
16144
-1233
-3008
8244
-9351
11984
-6639
-2927
5078
-3826
3535
-7651
-11535
-3079
207
11284
-1182
-12353
7260
8096
-6428
2604
-1027
-17652
-14832
6261
12542
-14146
2752
19976
8131
-441
10611
-15479
2975
8775
2064
13562
17160
-7626
-10607
9169
-2030
-601
4282
-8747
-7034
13891
-2979
5053
9657
6920
4113
8937
-4980
10718
-1962
6051
-20931
4320
1881
3500
-405
3385
2045
2472
-3868
15609
12807
8006
-16995
-1353
11779
1816
-484
7765
-15051
-7900
-1952
-10680
-1014
-5306
2870
-4869
3346
-9188
1893
-5510
-3761
7258
-14689
-4076
-10886
10229
-1001
-6522
13233
-603
-808
4224
-23230
-9730
9466
-15072
1256
-7852
-6142
3077
698
6607
19562
-7404
3811
-12320
-7305
-1584
-13990
-4027
8039
14612
685
1516
1376
-16234
-12280
-16239
208
-6469
16593
7841
11167
-5783
5276
-13589
2270
-18482
570
-19961
-17598
-3010
-17378
-9665
13097
-7691
-12150
-19650
-427
7952
13763
-5470
-12943
8456
-14543
9093
429
-3916
5
-5615
2511
-9439
19623
-4978
5084
11887
5706
-13645
31669
-13049
-21115
5598
-16995
2538
9547
-7883
7931
-190
-20432
16119
-1576
-4524
5748
6137
2575
-17991
-1091
-2343
-1447
4196
2747
-4932
2121
-11317
-14301
-4132
-3303
-3931
-2818
-65
971
1867
6282
5599
1402
-10964
92
-7077
-13843
-3188
14460
777
-3593
-3920
19592
-2421
3885
1623
-5607
8446
-5624
-2892
-3421
-20060
-1947
-13551
3821
8049
9583
-9094
1436
-6698
6067
6071
-2240
-10500
8058
-11515
4959
-7564
2671
5601
-5048
774
1003
14656
2938
-8068
-6678
5793
-10525
-1765
-8204
-13643
2037
2377
1976
8832
-7394
-3881
-13417
9536
-8851
-9543
3049
2031
17900
-4395
-8555
2970
2472
3708
3113
-6004
1469
-12269
-3400
2774
6495
376
11888
11131
4327
-13866
-8423
17923
-11439
10492
1667
-11480
-3596
9488
10009
-1109
-181
-13128
796
-7796
2924
14842
-4742
7930
-7971
-170
9083
-4001
14185
-2575
8207
-1705
5189
-5216
13362
8963
-1678
-5330
3262
-13036
1357
844
77
12177
11737
9953
12614
4333
7410
-5584
11368
4450
2120
-2009
-3757
1633
2578
-4085
792
-8347
-7958
4801
-11186
2850
1636
-2519
-18222
5835
8910
-18937
490
11102
-9477
-1670
-3734
5250
26118
55
9249
2125
-8475
-4985
-11026
11868
-2907
45
-5030
7471
915
10691
14954
-12751
-142
6992
3436
9666
12743
3335
-12513
8219
25265
-25203
2628
9498
-1305
685
1959
-8731
-4196
3837
4354
-1832
-6367
-18935
-4008
10619
-3804
-3190
-546
-1984
1289
-9017
-4673
6274
-1918
6720
-10297
149
7617
-10735
-15572
-862
8056
-13434
-1034
8783
5658
-724
3628
-12048
1683
-7692
-4788
18191
16853
4899
9063
-671
9722
7688
-3038
2511
4849
-9406
5193
-8011
-3211
-5885
1207
2385
-15333
-8280
9352
-4779
3143
-627
-1230
-6651
10537
-1618
-379
13906
5296
2907
-11977
-13655
-4873
-5298
6100
2374
-4604
4478
-4210
-6039
14576
10429
-6050
10349
7327
-5349
-11327
-8074
6216
740
5419
-6411
6604
-14240
-16190
4345
8182
3377
-2336
-7576
-4756
11343
13421
3173
-4378
-5012
-11815
5740
80
3631
-4219
-16414
-5140
-16716
-17010
15594
-2892
-1069
-9365
7273
-11231
7282
-1236
-4431
3370
-19442
-15763
2812
-5271
7202
9929
10016
-2466
5671
49
-10740
-3380
-5730
-3869
14194
-10631
-4569
11975
13070
1294
7906
-5504
-8521
13537
-13824
441
5421
-19032
-8192
10859
-12803
-1244
8878
14587
-3215
11549
-459
5534
-1944
-11144
-2119
-2031
1158
10435
-15928
18945
1877
-10321
-10092
-67
-5061
-11353
-5613
5046
-3279
-25274
-887
-3791
-23481
-1276
-7764
7984
7269
133
6433
18444
2141
-15177
-13628
7188
24041
7101
4886
-5429
-12507
-2479
-9489
-8004
334
-10711
12869
-13713
-11795
5481
-3151
-658
-2131
1171
5586
4746
5892
-2824
-3549
3479
-4482
21873
-5400
-7766
10444
-5911
-10990
10332
4448
-12280
1729
6918
-13133
6137
-6311
4931
-648
377
5537
5291
22951
2747
-4737
4066
3762
1500
13678
-15748
900
2641
-1758
13650
-10278
-6131
1839
-2324
11232
7907
5427
668
-1381
5408
-5642
2468
-16056
13316
11139
14760
1936
-779
7764
3901
-14689
-1473
23527
-229
5161
-6830
-3691
4841
281
15546
5877
-6590
15850
-7941
7778
-2446
-12660
236
8699
26560
530
-15352
10240
6390
-13962
-9167
848
-5867
14232
3078
3981
1164
6539
-599
-9830
-8735
5345
-8394
14536
-7801
-9837
4092
-7887
181
-5219
1436
-17760
-7780
-1761
-187
9361
4741
-2724
9566
-7852
277
-659
2972
-9185
9108
9424
-3997
6272
14819
-9905
8782
11039
-2667
-16465
1162
8329
-10255
-1292
1329
-476
-3053
-3234
419
-3992
7016
12630
-1362
-3112
1828
-10193
-1358
-5904
771
910
-1131
-3973
-3468
10979
-1799
2224
8550
3804
1866
-1364
-4638
6532
-5594
-59
6734
6086
3690
13682
1192
-3272
-10971
-10520
-13159
2493
14123
-3078
-12270
-7319
-5623
-272
7025
-2936
539
-3336
16747
922
-11745
16627
-423
-1686
554
-1791
-12497
5705
3578
-4692
-887
9480
-11809
-9095
17051
-3616
-12603
12149
2545
-2174
-12993
-39
-6396
7207
-1516
-7671
-11316
5332
-11525
-2010
-3587
6717
-10617
-773
-1287
3334
-9347
10765
1677
-9255
16431
14746
-4533
9050
3345
8760
-4405
-6669
16367
-5753
-60
-9558
25773
1208
8498
-2898
-10848
13491
2543
-3262
-3412
14473
2274
11486
9321
-5711
-5422
21324
-642
-15739
-1510
-864
-13715
9473
-10113
3082
-8302
3536
6786
7645
-3539
-5937
2943
-2631
-22420
-9424
6129
4261
7638
7945
-3045
284
6595
-2770
-74
11565
-611
18160
14192
402
4730
10254
-6223
-4415
-5618
12023
1334
-7746
5586
6929
4647
-972
1852
-16964
-2733
-15956
-8114
-6494
7618
-11921
520
2604
-10836
8287
-10013
-2666
-4482
-2097
-3643
-5
1111
-4039
8368
-10965
-6154
-6896
-6939
14658
-4424
15237
-19692
-3448
4365
13953
5123
12552
-193
-19322
7721
-4040
6505
1377
-7371
-3660
-9259
4065
3422
-1603
3209
10712
-8728
-14278
-5018
-10088
5054
-3576
7113
63
-2836
-864
8686
-2422
14520
14302
-6886
-14371
-6571
2661
6371
-3296
2413
-6728
4011
-3375
-1618
572
-5653
538
-569
-15890
-3187
2529
-2694
4412
-744
4656
1031
13940
-11259
3544
-10139
6371
-9857
5046
-5248
-10459
4270
-10329
3008
-12989
-10985
-9951
2362
-3157
5149
8042
-12170
-7691
2626
-157
-4920
-3060
11568
5436
-2388
-10334
-9856
4508
6793
-12636
-7343
4218
-19683
-20057
-3546
7479
-7380
-4823
-8811
-6403
5252
11228
9435
6871
-3178
-70
12914
-2952
-9766
-9651
4772
-3400
-1751
-7635
-4675
-14209
-11191
17928
-437
-6249
-10319
-7951
-3058
4356
-4229
3013
-8089
-8122
-5404
2147
184
5500
-280
17219
5117
868
14550
-26381
7192
10166
22160
3926
586
5178
-12414
3403
-3286
6876
3699
-2328
-768
3034
9767
10920
18519
-7357
600
6822
6990
-13537
267
7232
-1308
-4699
2807
13685
13350
792
-2708
-26793
9057
12335
5407
5830
-15521
-8611
-12116
13116
-4599
2950
12337
7839
-7184
2134
10324
1042
-17587
-1910
-1566
1919
12612
-15470
1083
3711
-18521
-12724
-2208
-5231
-16326
-11639
4285
-815
1420
279
-10
-10969
3451
-3112
3877
1065
-1438
5791
-7750
-10
-563
4919
-1395
5618
-4156
5494
7740
1333
10200
1069
3009
3066
5222
5054
-3738
-3346
-8579
2351
10421
-1400
-1564
14147
2788
5192
3113
-553
951
3845
3710
-7236
-1004
-5479
-15295
-14555
8663
15775
4384
-9001
-3872
-10399
13869
19568
-5965
3262
9352
2579
-8798
-2974
-6220
8119
-6349
7451
-10300
-8080
10542
-226
10016
1609
2109
-4232
-8294
10428
7327
13209
-6026
-805
10679
2279
-6943
-8508
-7552
7986
-8892
-9987
7023
3346
-468
-3292
5347
-15081
-10090
-4021
14366
8542
-4325
-9295
11897
-10079
-2250
2110
-7021
3666
5679
-3947
1294
15110
-8497
6589
-1446
-3262
-3762
8567
-14001
-6806
515
1537
6171
144
9502
-9044
-5033
-12977
-4983
-10388
-3770
841
5042
-8254
-9050
3975
-7583
-5746
-15430
-14673
1454
14430
-18067
-13759
-6557
3855
-3663
-2324
9340
-2070
15600
11668
-4705
8405
-3358
-924
-12428
-12439
-4888
11051
10833
-6241
4085
4616
6247
-1296
-8617
-122
2166
11203
6549
16259
-2807
-10782
15952
17024
7449
9203
-12375
-16437
5673
-5547
3143
8906
-1802
-14523
-7095
-5687
-4860
553
4618
-994
2714
3629
6558
-4238
-4553
-429
-8338
-9450
-13152
-8217
-8914
-7830
-2559
-9090
-14351
1193
4004
8884
-1737
5942
5905
-6335
15424
-10059
2641
10079
4603
4309
1657
4291
2968
67
-402
-759
-2327
-2293
1022
-328
5703
-4448
8794
6419
-3177
-7885
846
-1755
-4412
-2440
6169
12647
-4894
2314
4386
-4988
7804
3262
2019
2286
750
3202
10355
1363
8833
3116
12444
190
1405
921
6510
-364
-6203
-688
1452
7424
17835
-3629
-4158
-5042
-453
-4766
2386
8466
-5677
-1655
-11824
2191
-5696
-15848
-13135
-1103
-809
7006
-296
7222
5938
6837
-1699
10673
-801
-15783
5449
11496
-5119
3547
-3708
-11745
-11059
6474
-14164
-3176
965
10274
1993
9431
18322
5698
-3631
3906
8284
-5721
-15662
-15006
3462
-3503
-247
4602
1933
9922
-17269
6865
3497
-9544
-5834
12504
451
-7793
797
-4131
-2641
179
-2479
21463
-7922
-7163
4133
-2354
-447
11162
-1667
-4479
-1655
-6462
-1365
1501
575
1175
4570
416
-4530
-7712
-12226
589
-17003
9220
-11033
-2032
11292
-6825
-10987
-6965
-917
-3066
-1512
-1057
-9939
912
8113
2196
2735
-3032
8998
7305
-110
-1164
1529
-5976
-5187
-8003
-3083
6019
-3739
-6403
4005
4351
4333
10319
618
6486
4955
-13778
-94
1334
2193
4941
-1310
-505
3042
-5266
-15086
1471
1255
6515
1439
-15747
-2390
11298
16544
-2077
-2291
-7256
1482
8635
-7699
3885
3716
951
2957
-9200
-6108
-926
18482
-13217
961
-5086
9829
-1795
13681
12778
-2370
-9963
2797
4003
1156
-8049
-1064
-7017
9156
7934
-486
-5831
-7206
2514
9076
-5681
-5149
-2241
8593
8410
-8892
15993
16715
-19144
-1653
927
2696
11725
-10087
594
5364
-5333
8416
23836
-3809
1948
-8159
-12184
-17445
-10722
11810
-3602
-5630
14775
-974
7293
9080
-310
-3409
-12758
81
-8221
-6928
-8326
-1442
-2579
-5555
-4286
12059
-9745
-5799
-153
2608
5571
624
-1377
-5372
-13064
1691
-4480
-4330
994
11564
-14877
-7852
-14571
-2665
-4695
-8284
-3190
-15507
-1307
-75
-2484
350
-7552
519
-1956
3028
1237
-1170
6297
6492
-5070
4344
-1912
-3127
-1757
4136
3950
455
-5653
-13469
-8463
7526
6993
-4202
-2614
15075
5849
8617
3737
-4058
-12115
3492
-10781
431
-2326
-5823
-12421
1599
2488
-3246
-4909
-10590
2637
-1993
16667
-17300
171
-8329
-9104
5686
-7400
-4094
6059
-2567
-18516
-7440
5518
-5035
-8849
1898
7790
-4414
5896
-1831
-4709
17270
-4486
11727
7938
-453
1481
-4876
-2663
-242
-2306
-13797
13548
3977
-2587
9964
9294
-2553
-1297
-7281
-459
1764
239
3473
-2030
-13211
-12881
1835
-9908
4655
7927
11145
3670
-1568
18678
-5107
9241
-1807
5337
1682
3098
15461
9932
-10683
675
-12682
1470
-1465
-179
-674
-1437
2289
426
18357
6768
10126
-21097
10865
9242
1544
19313
2591
15988
-9114
185
5493
3415
25230
-8381
10672
-3111
13090
2715
4862
-14247
-4107
1
20287
-2249
2043
19019
10937
-14235
-11873
4137
-9093
2554
7348
8434
-3930
1769
-2771
2828
-1555
-2916
-9347
9453
-2519
3004
-4543
5873
-364
2827
-2682
-2615
-56
5786
-7356
1366
-10182
5255
-412
7658
2103
4346
-7228
7345
-8671
7950
-7310
-1948
8022
3380
2588
3479
-13479
2994
-2592
-2759
-11528
-1097
3630
6808
-472
770
-2784
-427
2759
-16635
4618
11317
3655
2620
-3179
4403
-2087
-20396
-1250
-6874
4218
8996
-18136
521
-7644
-12848
13819
-14708
2858
7456
-6114
246
-12092
13804
10625
5722
-19577
43
-5632
-12096
18883
-3488
1750
6934
-571
975
25066
1481
-3799
11377
-7661
-28536
-8338
3357
1751
-11390
-20168
9233
-10084
-14184
1528
-2859
20010
-23373
-8288
-10508
-4332
-2003
19771
361
6954
-19812
964
5190
1809
20221
-164
-7766
-1344
-7255
2885
6648
-4438
16797
8703
4789
-11172
-9761
1919
-9908
-13276
-10071
-4078
5592
5099
-343
-6963
-4741
-7347
12342
-1460
-11801
1303
10594
4626
20848
9678
5537
-4443
-12628
-7602
7382
8065
-8295
-5083
-4157
-4604
-3749
-14995
647
-1054
-4415
7462
-21473
8374
5118
-15939
-10459
3621
-12861
10369
-3957
-1996
2790
-7927
10517
-3179
-15922
-4607
6129
551
-2575
5105
3980
6159
-6591
-5429
15235
-6538
21869
-27711
1954
-5322
14519
-21466
-12506
7879
-13776
-4315
5345
-7972
-12215
2115
-3490
-13889
-640
9955
9398
19633
7817
-10489
-2821
-13026
-10736
8791
-2533
10983
-10613
8977
-12585
8589
-6198
12093
4559
13322
8273
-26086
-8697
5320
-27999
1181
-9213
-16473
8199
-8003
-5985
95
7825
4803
-7515
8662
-3648
-8566
2644
2595
4408
4964
-667
1811
-2959
16197
-6941
9837
16245
-3600
16326
-5004
21660
-3634
4551
6936
24806
15569
9408
-13307
3990
5448
4419
-1854
-381
-4540
-8210
8617
8180
7039
-2770
11308
-3577
9255
22179
385
14621
7090
-11054
6323
-964
-59
-1760
-5141
-7929
-2283
-2243
2063
-1158
-10104
2196
673
8362
3831
5029
10019
2258
-11918
-5260
-3301
9523
-5315
4868
-4041
5337
-9531
4267
8701
3288
9827
4078
3840
3785
-982
-262
5698
-3115
13413
2073
-6196
5348
-4197
-7970
9379
-4592
-6487
989
-548
-4680
-9752
3368
4634
1658
1435
3013
-5080
1441
-4258
-2104
2043
15200
-7096
-3579
-1540
5386
4397
4296
1435
4409
5580
-2744
-9233
-6514
-14364
-5892
11708
1314
6603
-4874
-4921
-6169
2388
-1513
20057
-7470
643
11408
-4243
11945
-14421
-5885
10162
1333
-15876
2921
-3225
-4238
730
12967
8129
-10981
-3328
-5529
13082
-2035
4452
-7176
3807
2119
-9979
-5398
9228
-1659
-8693
-10367
-1686
6647
-5396
8654
3124
3926
-941
7246
11045
1728
4474
-5737
-4239
7099
8911
-625
1242
-7299
2742
-533
-3763
8118
530
-669
3595
3668
3611
1098
20192
-6412
13063
-903
-7860
-2850
9372
9122
8784
10035
-2778
-2819
-259
1581
-359
876
-10092
3348
-1024
-1034
-12685
-6407
1136
4906
5003
1216
6379
1513
3607
-6095
-9789
3059
-11214
2326
6523
-1538
1426
-1011
8198
-29
-11725
-7440
-15130
-12288
-4511
1060
-13327
-2935
-9348
441
-16871
-3089
14018
-9912
617
-4227
-5983
1305
-2212
14977
-2468
-15517
11760
4122
4473
6642
7151
6758
927
-1170
1525
3254
4690
-2592
-15740
11074
-5269
-2551
4093
1670
15264
3898
11309
-3173
-9951
-6553
1110
3167
-4979
9556
4752
-256
-10059
-8021
-9289
7539
7856
65
-15933
-17158
6434
10127
5244
8888
-17368
13798
19997
7938
11818
-14235
1716
10886
2627
2325
-11422
1191
-5748
-6570
-7249
7978
4635
-408
-2601
11688
-22199
-4395
-3615
-4522
-1166
-2527
9407
4546
-6487
7355
6527
-3172
2265
-7041
4279
1034
2019
7584
-3253
-349
1167
2819
9644
8062
11935
-4952
-8307
10466
3645
4638
-18592
-7820
7877
-12210
-8285
4676
17877
-8142
-8367
4274
5089
-841
5336
3343
17265
-3186
-9847
-3863
3542
14854
-8692
783
1281
-4980
-1829
1974
-15887
-939
13607
-7972
-4078
-2484
10090
-5473
-7691
4785
13020
-9295
1875
-3665
-2080
8168
5630
-1643
-1160
9625
7136
7976
-1016
-1484
-2093
863
1998
15089
-3345
505
-2676
-18484
-10759
-1760
-3007
6419
-3206
9230
4321
20215
463
-10936
5737
-6310
-3264
-509
4633
-13906
5964
-2584
11930
-12479
-3996
5669
-4762
2132
12531
-1527
-5566
-2261
-1512
3193
-2453
22038
1674
-2621
-3023
16897
19655
-10776
4840
-750
-4259
8769
703
-8277
3850
-6467
-11006
14557
-2970
12161
-13053
8434
6588
-412
7773
6899
1919
23
8754
14496
-21121
14221
-3615
-2163
-10659
-1432
-1597
-3810
9017
-3502
7747
-15044
-6746
-11787
-21347
18571
-3638
-4908
6056
-25837
11641
8648
-20267
-4283
1347
3148
7915
-6384
-7500
-17190
4336
2699
-1382
-1188
14412
9749
-6095
8416
6118
-10717
253
2926
10865
10323
-12686
11232
7806
-12848
-11877
8682
-7408
-6196
14705
-4438
-5538
-6205
8057
-9879
3291
10574
20356
18556
-10069
-2088
4497
3224
-2616
-2282
-11299
13290
3180
2545
-3507
22963
-5474
-8823
3442
9496
-17061
9443
5301
5524
4842
-7353
1299
2022
1309
11629
-4800
8469
18460
9730
884
-493
22636
-20866
665
-5092
-3974
-11552
7406
-1698
-6461
6253
9774
-14400
15520
6611
-5403
-16556
15311
-4562
8493
-1236
15367
852
-2663
5174
-1877
8498
-11208
566
-3220
-2114
-1736
-6824
463
-5330
2159
-252
-4001
-10118
-2893
5116
-7424
-8916
-8591
9732
15479
-2365
7325
-7714
8017
-10527
-9174
3614
3287
-318
-1368
1022
2546
14978
-3390
7810
4487
-3228
3340
18241
23067
-16365
4294
12629
6475
-6574
1176
11330
-12062
5962
3463
-13802
630
18182
5615
14405
-23517
971
10174
-11577
-5789
-10979
17728
-5868
-15138
469
-17325
-3479
