-4683
7118
247
-9916
-1286
695
608
-1434
2736
5681
-5214
-1609
3705
451
-136
13227
-4523
-11940
-2058
-4769
1872
-928
4374
-1225
-3289
2286
5010
-10115
-5847
-3143
-6485
-9043
-264
-6576
-4362
2962
5327
-10646
-899
-4204
-7434
8305
11256
-645
909
10848
-1672
4584
2096
-2608
18973
-6603
4539
-9862
8438
-11249
1169
379
-3773
10189
-6016
-11281
-8480
-10631
7583
-138
5652
7051
1167
7462
11996
-475
-1997
-2788
15840
-6219
-214
4728
16173
-19660
-1741
5041
603
4081
4968
-3664
6292
1227
-4206
-431
-4533
15653
-6007
-14605
1119
2242
-3314
-8085
-8673
-8608
-3097
-13129
-4892
2220
1511
-2781
7165
6900
3062
-1446
-10287
-10162
3619
-3933
4661
1598
571
1368
-2177
5882
5319
-7000
-6776
4355
-130
8906
993
4480
-7240
-10136
-3344
3717
-3671
2092
7730
-2978
-2079
-209
-13365
6954
-534
4280
-5569
-4574
-7673
-799
-892
-1052
-6639
-3499
-12477
15697
5139
310
-1607
9606
-13418
-199
-2867
-5531
-2411
5335
-3253
-3515
-9252
-331
-1033
1877
-3987
2742
-528
2785
-3938
-3112
686
784
1778
1599
-4617
-6198
-3968
-1696
2355
-5160
-1098
-6083
160
-12330
4164
-6907
-660
-8664
-4248
2414
-8635
-5698
2720
-3019
-6734
-8023
485
-899
1342
-3546
-4225
4526
-332
-614
-1060
-4740
7852
2443
404
-5778
627
-8554
-11721
-2475
-1264
2231
-3732
-6485
-4622
-8720
-5989
-2106
6240
-5170
-3568
-1726
-1877
422
-2172
183
-3495
-1913
-1046
392
6830
-6627
-2343
-591
-5590
4534
-2175
-4045
2142
-965
-2601
-4702
-1871
1516
1366
463
-6612
-6929
-1229
-8484
-2046
-11090
2671
-3820
-4568
-5488
-1634
3994
-2396
-2008
-6233
3254
467
-4034
-5435
1318
-7612
-16206
494
-8105
-313
-10683
-1121
1298
-1563
-7876
5839
-3004
-2404
-5494
-4415
-11140
1390
-11439
-11007
-5230
30
-5420
-6541
-2887
-3334
-10792
-4506
2453
-6200
-4801
-6607
2043
-9062
-1905
446
-8966
-4238
-3794
5072
-5932
-3582
-1634
-5037
3695
-2155
-8992
-5911
-7996
8540
4837
4598
5956
-38
-14457
-485
1166
-6330
5078
3382
10784
-5946
-2305
1227
-1312
-1371
-2157
-7862
-6095
-8750
-264
5892
5694
5667
2984
3131
5173
3591
2951
-4551
-5601
-10886
-6400
-7213
-4997
5378
-1524
6180
10481
4503
1982
10629
11204
4758
3051
395
-10505
-1511
-835
1355
5015
-2399
-10091
-2143
-9458
-2120
-6286
-549
-13823
-5226
-1623
1615
4342
-476
-3188
-2122
-5251
4193
-5351
6764
4634
-8685
-19743
4310
173
6985
-4553
-4092
-8638
-248
7408
1645
4128
1063
-6131
-722
4551
3601
-655
-6289
-2522
-6156
318
8154
-4157
1937
4778
14512
18561
-6142
-7064
10282
9380
-12661
-8323
9166
11084
-16774
-16328
-2220
-7073
2072
5845
581
-5557
5232
12090
4427
108
-11020
-20206
1708
-73
-703
-1002
8510
3816
-627
-2381
3314
-1276
-1427
8682
688
1681
3515
8778
9011
10445
1730
2907
3308
33
1374
262
16832
16973
-13816
-16086
5398
7612
5063
12224
9116
12825
-9597
-10841
-561
-1346
-2569
-2592
-2970
-252
2487
1764
8537
7246
8479
-4220
8520
2622
9292
8775
-4309
-4346
-6067
-5877
-3836
-13312
16731
15922
-541
-1503
-12323
-20055
-868
3183
611
961
-1436
-3147
-1227
-7076
-7878
-3712
-6608
-12074
282
-9985
-665
-2810
1297
-3555
-4637
364
-5888
5063
3384
-3672
5221
4523
8991
7960
6731
2650
-3662
157
-9052
-8655
-2816
-6362
8584
16115
2686
1738
529
-7083
3791
-1219
-4454
4016
12071
6433
1180
6422
-3782
7124
12328
10639
-6008
-10694
-11537
-2023
6028
2028
7988
9425
8485
-4294
8016
1544
8506
7106
668
-11590
-1782
-4590
-9242
-13345
2122
5418
-4039
-2755
1672
7524
1170
3458
-10837
-10258
-8382
-3202
2636
-752
-7305
-8643
3448
4262
-1285
-8465
12113
7634
-5968
-1915
-3637
2894
4517
-457
3983
-4440
-4173
-5174
4672
908
-11329
-6082
3369
-3188
-4913
-9268
8539
18332
4400
9633
-2185
2393
4942
10794
10177
11433
-4952
-10011
-1795
-422
4032
-3541
4060
229
-6426
-6266
2873
4267
-806
-2848
-195
2581
-4449
-2512
-3945
-7522
-3931
6310
224
748
-2423
-157
-1172
881
-2853
155
6356
1733
734
2151
2130
-3816
734
3956
-2571
2322
384
1782
2786
-995
-5776
-2219
-9315
-4882
-1854
-2849
674
-3685
-3706
2236
-215
3872
-3909
-851
-2516
1405
6144
8915
-5237
-8484
-1162
-6989
1324
4279
-2830
7947
-8928
-7225
1183
-3792
5077
1451
295
1291
1161
2392
-1248
8535
-5307
-4953
-1155
-3236
-4694
-4883
2626
97
-267
3280
935
-339
-577
5003
-4781
-1541
5014
3606
2175
128
-2021
1661
823
2808
-1926
-389
6997
5473
-1847
-2241
-921
-1984
-58
-4495
-2640
6093
-8040
-11859
-9479
-8624
-1283
-5211
-3905
779
3696
3528
2015
-3373
-3017
-2257
-5807
-1097
3777
-3426
-3024
-2963
6475
2505
2240
2212
-5130
912
-1696
4479
-2583
658
2261
-1357
4286
3879
428
4747
3374
1360
-1311
4182
-4345
1810
-2247
777
-7792
2292
8002
3121
-3748
-6768
-3296
2254
-950
2747
-3018
-270
4267
10077
-3671
2435
-4545
4135
3361
1935
2395
3629
-3244
2882
-5297
-1945
-3778
-2123
3676
7172
266
-853
393
-7660
832
3707
-4041
-672
685
5493
-3738
-1862
691
-7346
1924
-9216
-3279
2930
19
1251
-3512
355
-407
-1001
756
3388
-2280
7209
-1158
5887
-7259
1931
-7556
1252
-2855
-2264
-62
2125
897
306
-2540
-1820
2971
-837
-4574
-7891
-9137
-7967
4512
-776
-4161
-2283
-546
4220
-6022
-2068
-3366
-1284
1370
105
554
6100
-4531
-4584
4473
1048
-611
-3543
2996
8219
-2653
-57
4677
-7221
-6402
-5908
-980
-4244
-3224
-7459
-8011
-6834
-7497
-397
-1477
-377
-4118
-7747
-1294
-2858
-3152
2847
-5436
-795
-4775
-4738
-2944
2193
1464
4456
1402
635
-6107
-1751
-7621
-9061
-152
55
-4845
-1652
-2540
3047
2284
1344
-3881
-7118
176
-4871
-1553
4629
4882
6356
-5310
-1616
3308
3804
-3800
1175
-3605
-9513
848
3854
-3199
-5554
-1666
-3081
-6523
93
-106
58
7210
9275
4805
10666
4978
1232
2534
7814
-7850
-1663
-12020
-11475
1639
-2507
4230
8931
-3506
-1981
-2369
-2661
-2350
10372
6849
9659
6447
-229
-6067
1258
-1574
-3785
5277
3609
4369
-477
4724
5751
-5477
-941
141
4986
-4667
-6740
-8115
-404
654
608
5206
3289
4896
-535
10704
1093
-6072
704
1702
4592
8366
11878
3810
8114
-1936
-4239
-6415
-4856
-7463
-4235
-14525
-4352
-3721
-12318
-15247
-7882
-7232
3111
-5348
-11483
6089
5413
7674
4622
6177
4799
4816
4132
1287
5888
11288
4570
-6359
-769
2398
5408
-4572
-1528
2025
595
-3846
-938
-1604
7538
5318
7558
6092
10797
-7020
-2533
-6925
-16085
-6573
-11836
-3028
-9579
2771
-3820
-3549
-7144
166
-13193
-5015
-15254
-1890
102
-4567
-4646
-1268
-3494
3807
2098
-2167
-1673
-7228
-1793
-1523
587
-5292
-6433
8265
-4084
2184
2242
5373
5529
3520
5975
-11310
-12387
-5835
-14725
7947
1116
4927
-2442
1879
5803
756
-10339
236
-2913
-4880
-9677
2799
4012
400
-3419
-1631
1810
2746
-1798
-3469
-4836
5501
-6075
-350
-3795
-1138
-1127
6503
9003
10957
10111
-2782
-447
-2676
5664
3474
2687
1654
-969
1950
373
-562
-765
4706
1640
10797
6324
12753
18932
16256
21580
2572
2403
-8208
-3880
5489
6600
2283
7703
-8737
-15376
-2547
-12605
10358
8734
6402
13065
-21275
-7156
-13979
-20663
-247
-11634
-4187
-5309
1224
706
43
5509
154
-4714
-3171
-10719
7041
9746
1955
13806
736
-1211
1720
-527
-7883
-1500
-14839
-11173
2498
-3100
2867
-2694
-7926
-8811
-3628
-9156
753
4622
-250
5622
-5879
4182
4353
8184
218
258
-1977
6039
-4338
7543
2641
632
-2887
6077
-1208
9562
1584
8830
1875
-158
8511
1586
14770
1324
5356
5902
12706
8084
3645
-5495
-6986
1845
2037
-1960
6925
-111
11812
14498
9803
18795
539
-9708
-8463
-11786
1668
-2775
3901
6012
12642
5495
1856
8050
8897
18200
15308
13618
-13188
-16677
-12732
-11107
-6041
-913
-2740
5603
-1729
1758
903
4035
2254
4524
1627
2087
-3083
1230
-770
7618
-1382
9346
1658
11764
-2614
3347
7081
-3580
13036
8007
2327
10752
3737
5012
-2058
4044
-3220
2314
-1502
-6243
-10852
-5532
280
204
-3170
302
-12134
-5851
16036
15584
15294
22867
-3231
-158
-4440
570
-16036
-21252
-7514
-25283
-3409
5130
5896
3633
3147
-1984
-4434
-3223
-5443
-4455
2964
3435
-5493
-8195
-8946
-7018
-5175
-7389
1178
-5995
-2312
-161
-11622
-12422
6499
-8477
-5199
-1679
-284
-7326
1735
-2079
918
2087
-4538
7112
-7611
-1058
306
-899
-3434
-4493
-2393
4688
7835
7392
-3630
5357
3377
7397
3455
7339
1144
1091
4003
5856
-1906
4210
-5095
1534
-878
3519
-1569
2135
-2919
-8340
-11577
-13856
-7341
4396
-1884
-3679
2786
13361
10759
13301
503
-2785
4278
-3576
3491
-5906
1054
-1508
-6575
2266
-3291
6988
2977
-6157
-2937
-2691
8515
4036
-525
5521
-2010
3779
1377
9416
-2420
9323
-2076
2363
1201
7689
9729
10723
-10726
-12306
-9519
-12680
-7094
-1088
-7997
1840
1966
7869
2953
5647
9607
5116
4244
11439
710
2665
-3355
-2291
7222
1408
5881
1089
5410
9370
1303
4647
7225
-1260
-2992
-11326
1042
-1926
-7771
-14146
-9137
-6491
-7925
-8394
5897
4518
4443
5993
2278
-2536
-6457
-3271
-1062
5560
-2467
7156
-818
2694
547
705
-13704
-3704
-14006
-15940
-2024
1493
643
-6185
3834
3205
-1555
1926
-775
-17050
-6647
-5428
9564
1594
3601
1257
-6159
-937
-8736
-4511
19241
12323
12989
20099
-3382
-6700
1837
-6441
503
-1122
609
-1303
3262
1598
-6645
251
-2504
-6335
4922
-1986
128
-10172
-7146
-11392
5920
5610
1932
2970
1853
-12846
-2000
-6236
-5522
-1099
286
9024
-14796
-6311
-13050
-5669
6250
6442
13564
17588
-526
9003
5915
4503
8399
-2086
-96
8537
5817
-3002
8110
2637
8812
9505
13303
3203
-12028
-9768
-19482
-14052
-5260
6849
1754
2148
-3356
-5897
2111
-5523
-5841
2395
-2741
-11663
417
-5329
-7762
1199
1346
-615
2093
10367
-1676
3652
4691
1423
-2193
4278
-767
-2858
-5213
-3942
-5037
-4341
2990
-5258
-39
2178
-4993
1822
2893
715
-442
3243
-147
928
1663
-107
3077
7224
2902
9423
1373
856
-9877
-8186
5203
261
3466
5664
6184
4508
-313
7290
4690
5804
1778
2895
6010
5311
698
1787
4185
-237
1659
9479
10830
6757
3070
388
795
-1517
-1889
-5104
-1115
2811
-5067
4315
-2845
-1719
-1465
-891
-3470
-3380
904
1132
-1546
1529
-1011
3480
-1106
-3112
221
6031
3024
5371
786
5346
2185
4218
2271
-4208
-1920
-7055
-5562
125
-3007
1239
58
4596
6473
6670
-1197
-3186
-1216
-8825
-2088
-3884
-6867
-4286
5119
11051
6064
4163
12245
-979
-744
4171
-2053
-2838
-2885
-4971
-2324
-2337
-2107
4969
-1048
4365
2686
11811
-3815
3982
-1595
-5898
1257
233
-537
799
6140
4666
4388
10434
-7639
-4271
-3714
-8378
-817
-1900
-164
-2760
-1082
-3573
-7588
-8399
5971
2818
5012
1253
5255
-1384
1216
287
3104
2515
2285
-3266
1841
5074
6661
2410
2727
-1639
3690
-996
8458
6449
3910
5109
1579
2012
1760
-4759
6209
3880
9638
2725
6889
3581
761
5917
-3263
4212
2412
-1266
12158
6540
3806
8130
7126
-878
-1802
39
2698
7261
6173
6196
-3687
-4169
-3156
-2172
6389
4315
1032
2845
-10514
-3805
-10169
-8106
-4327
-4614
-3281
-9928
139
-1040
3074
-3991
2225
-1430
1985
4821
4230
5790
4333
12876
3671
3083
5738
1142
-6329
-7468
-1514
1673
-6808
-5347
-141
-2234
-893
628
1960
-398
6682
3693
3797
-2651
2975
1635
2100
3085
2786
2213
6118
267
2726
-341
-2384
-995
4513
3897
2971
241
2656
5417
9612
7382
5589
6577
4026
5937
3209
-59
1467
2380
8299
2471
5511
3844
5673
6165
2262
-549
5704
-611
-818
4580
4528
10
771
3084
3714
2336
1156
-593
2829
-259
1965
6354
8491
10228
10451
6341
-10971
-9625
-5120
-2193
2357
3871
-1181
-1045
357
5590
2550
6163
-5248
928
-1788
1799
1928
3934
8298
3898
-1658
-3982
2111
1966
-2212
3823
3223
182
8735
2410
3297
-2302
6678
3964
5191
3002
-3251
-791
-3404
-1989
-7157
148
-9796
-1754
-1184
-1376
-274
4765
2410
8420
4494
7582
-2997
243
-905
-38
-1463
-3535
-6496
-2713
-4172
-4647
4024
-3396
4649
3420
3019
1927
-269
2407
137
-1471
-8940
-4040
-9579
-2726
1456
136
-2219
262
-5986
3893
-5602
-5463
7168
-7672
-3963
4188
882
5055
-128
-6072
-6205
3063
-1717
-1560
3103
6728
2068
4253
-5923
-2178
-2005
4601
7945
8282
1953
7309
1321
5237
7265
4021
203
-5642
5949
5142
-2839
6523
-4100
2383
-1550
2290
2951
5942
6005
5800
-1309
1644
-4291
-3055
689
-2547
-3254
416
9639
-1050
-386
2035
1557
3082
-2275
-3658
-5642
-4047
-5875
-4939
1257
2080
5486
-1382
-24
-3082
5200
6903
837
-1240
6608
2450
5855
2008
-3111
-2310
-741
818
-5475
2509
5519
1488
-4113
4784
-8133
1795
-55
3640
3873
343
-39
2496
-3156
-2729
6343
-1197
6769
-1138
962
5788
-2615
1487
5397
8715
5312
753
2075
4993
271
676
-1661
-152
-1742
3950
2653
-1986
-6063
-4101
-967
181
-7477
-3747
-6402
194
-2678
-1978
-1199
-2192
-3385
-462
2419
5267
-603
7433
-5543
5080
1072
-5016
120
-2691
-11095
-4446
-3541
-6802
2942
-9129
-562
1477
-3473
4711
-1403
-3426
4506
-2003
-4260
21
1757
-1502
7640
5861
4885
2806
7223
9566
5938
9922
3026
-1064
-84
-2379
-1578
-1797
623
-185
137
2573
-4635
-2362
2694
4207
1980
-1539
-8039
-37
-1409
-6374
-2735
699
-1092
2856
951
-5933
636
-1906
-6129
-2102
-2241
-3198
-1158
-2926
-1230
-5708
905
2167
711
7713
3584
9706
10283
10000
2197
-1307
1474
4858
2479
1789
1252
2182
4603
3595
1959
6985
-4794
1490
-9167
-3223
6777
7259
6398
5058
-3065
-5214
-6667
730
-7886
2506
-2987
-2738
1912
8249
-600
8994
4872
-12364
-3695
-6468
8166
1806
-4908
-549
22
-6416
-6296
1131
4609
1893
-2286
-796
943
5946
-7383
-14117
-10861
1840
-3641
-1537
1990
-857
-515
7933
2534
6852
1504
1528
-10733
-3086
3347
1933
-3068
-4287
-7770
2306
3037
1192
-128
-5785
6944
942
-4515
4545
2972
-3048
-2681
-1685
3799
-1065
7471
1429
4078
1632
-6727
9157
6685
-9
9347
9377
1739
9648
-1925
-213
1535
2402
-4115
9601
2030
-7645
2715
9357
-2892
3399
-11862
-1204
-5076
85
6043
4493
-3345
-3125
-560
-2349
5118
12596
-8538
3061
2127
9017
5115
5628
9457
-5837
10744
2184
-2390
2453
3783
-669
-2477
-2416
6609
-418
-6033
910
1277
1310
8506
-15114
401
-2360
-262
6469
-5711
-5380
3791
-2157
-5988
-2722
12275
-935
7124
-913
4687
1273
-7045
-2761
2382
-3291
9592
-1918
3505
-6098
14523
5842
788
-4258
-957
-5149
698
59
-4469
-3407
-5702
-7073
1749
-4697
2701
4620
8770
1584
-552
-10205
-3353
-6221
8684
-2888
10575
1594
13423
9800
6852
-1692
-3298
-3083
-2676
-799
4749
6318
-5886
-2035
-406
-3735
4325
721
15524
-5568
12586
8669
1064
-3653
-2506
784
4966
-1568
3081
7659
-4626
-4413
-1182
3322
-1374
-8810
5037
-7246
-1270
-186
4704
5907
-1839
599
8999
-966
3903
1463
-11369
-3768
-3289
1399
7887
-1143
2647
788
3010
-6604
6638
-51
-3017
14833
12708
-12081
-8526
8218
-5862
-5055
-3425
2490
-4134
-5899
11275
1559
-6615
9760
10551
7707
3430
-3518
3807
-515
7116
-8858
80
-3064
11926
-3343
-5716
-9421
-2081
4184
5005
3033
788
-1159
3395
817
9900
-1830
4466
3007
2405
6880
-2100
4519
-2250
16681
4746
-7579
-735
-8972
6384
316
8373
2756
1479
-512
8414
-11745
608
-1707
7211
-8967
2171
118
-18032
9598
160
-7555
5868
1477
-7536
3144
14265
4365
-5281
-858
5825
2202
2302
5255
199
1176
174
3296
-5123
5062
-5146
2874
-823
2000
3309
-945
4944
-1373
2710
-2372
2537
1329
-537
-6401
2833
5550
-17068
-4781
1637
10045
-3912
2176
2462
1217
1981
-4040
1786
-14354
2521
6651
-2639
-2777
-7709
-12609
5474
-1049
3804
-1660
2598
1579
6998
8422
4791
-6595
-3975
-3980
-697
7016
1417
-7036
-6046
1899
-2747
-15178
-8949
-3944
5790
529
1047
1628
5119
9799
1881
5001
-6457
6596
2208
5130
440
7530
4356
-392
12709
15441
-756
1767
8388
-5162
-5227
-1818
-3687
1134
2940
380
1404
-5233
259
2442
23
-5024
-4000
-3809
-6653
14406
5097
-3581
864
-4438
-1273
-5334
7906
4064
6978
3925
5117
2523
-115
-4741
3020
-1759
11743
-3494
-6229
-2551
-4322
-1330
-281
-2139
1810
-6237
-2665
-5829
3304
6460
-2910
-7671
7088
4719
4031
3506
-9470
-4334
5134
3816
-173
11
-5613
-4192
-1110
-1333
6658
-983
9435
-4868
8640
8248
-6899
1792
1501
3759
-5734
-4430
-3584
-7180
4784
-5507
9964
9322
8684
-4561
-6879
278
8655
-10004
87
11787
-2127
181
11505
-9240
-2139
-11752
11423
5950
599
6614
8098
-1321
10593
-4239
2067
4801
-13
4395
1219
9021
-6828
309
-4128
244
1216
6026
4156
2445
-1901
3847
-123
462
9351
3153
5357
-2863
-3773
-638
8816
3446
10266
1010
3991
11
2113
7410
4956
7555
984
-1685
2564
-197
852
6341
2279
4354
-4860
-5681
1244
-1093
3387
3513
7470
2378
-1318
-3380
214
7897
6737
11672
-6775
4232
117
2303
-2780
-6036
4085
-2556
8532
-991
3274
5688
540
3646
-968
-8765
-442
-7958
5398
5214
-4003
-2350
-67
1506
-616
-9188
5068
6456
7175
8022
9905
4977
2223
8116
-5486
1684
784
-1414
-10846
857
3094
2164
-243
-3723
-8673
-10923
13006
6031
-2795
-10799
-4301
13594
-567
4026
9911
9617
3787
1833
-1284
-2911
6744
-5024
-4557
-8458
4864
-3777
3068
1541
1886
1213
-3765
-2415
-6122
-13560
47
-1692
5944
-6921
4629
283
-2732
-8005
-2056
5065
1820
2004
-847
10390
-3022
-4969
-4206
3946
-10254
-2963
-519
-5522
-3284
3099
8444
-985
-9509
-5032
6945
5060
-921
-1236
9469
-5579
5123
580
7359
5740
-905
-4186
-11640
-5998
-10884
2172
-2595
849
-22
2145
4491
-1200
4271
5682
-4015
-7918
-2791
-42
627
478
-570
555
2010
-4021
-1695
-6461
12011
1125
-5315
741
8327
5295
8468
-246
-893
-114
-1843
1905
4218
-20
-2024
-1909
5030
1043
-5981
4407
-5288
-3041
1763
422
-5830
-4779
2417
-788
-2540
414
-2618
-1095
-494
-216
-5975
1566
1684
-7549
-7184
523
-1140
-5416
-199
-418
-1452
-4384
-547
7062
4275
-3447
3934
-1583
-1116
545
-1755
-639
5001
-2901
192
8798
-7532
-5491
2649
-4006
1439
1123
1177
-1887
1064
7338
-6439
-846
3418
55
2549
4974
2102
-1089
-2645
-8348
8315
928
8817
2842
-5014
1174
8573
5384
12679
-2979
-10891
-4471
-8260
-4361
6214
-842
-5305
173
-3065
-1245
-1665
-187
-2811
-5345
-3375
-424
-3701
-7263
10098
1418
2031
3895
-3952
1015
12960
-7956
9679
-3096
-1455
-1259
-1073
2171
-8060
-4721
-1020
-2263
82
-1693
2721
3185
-10702
-4193
-4560
-6169
-897
4610
6509
-4881
-1444
1771
874
1473
-4249
-2792
897
-907
14154
139
-2472
2390
671
-3348
-672
6304
-3072
229
4951
-1422
2318
-2642
4808
3498
6841
2748
6301
1103
-2817
-7979
681
-2667
2486
-4547
-1151
-3406
3685
-3621
-2704
-7813
10946
-2411
5147
-1025
-5682
-3056
1814
270
-5949
-3540
-56
-965
-4895
-886
5684
2885
6757
5812
-73
-1835
-4020
1450
935
2028
-6103
-8047
-183
6726
-5965
-2675
4478
773
-7651
4907
4103
3806
-7224
-3559
-10953
-1097
9160
3002
-1970
-7706
-9178
-1935
7903
2393
358
-3848
-4040
1519
-3870
-2725
12238
-402
963
4999
-6386
-3330
1209
-1048
-3846
-5015
549
85
640
-978
-5184
-2121
1158
-4049
6607
-367
6053
2124
-2130
-8827
-5085
-3100
-1146
574
-9543
857
4
-252
-945
268
2328
-516
-2469
-546
875
-782
1169
7526
2198
6903
206
-6680
4209
1373
-3976
-4856
-4562
-3963
-5994
-7452
4805
4997
2303
3268
7043
11233
-5860
-9577
-13237
-6555
-2151
-4839
4194
4122
6163
-6109
-9761
-7952
7705
-590
-8487
-11413
7739
-4765
2509
-2934
1051
-2438
-3997
-2292
969
-761
1511
-2753
-4560
-2757
227
-712
-5970
-4278
-8109
-7536
2214
-2274
-95
4034
-4936
-5252
-2971
-8511
2850
-5639
-5140
-2851
2583
5365
2374
11924
-3651
8717
-1855
-5085
-3070
620
-2004
-2848
-5715
3089
-78
-1160
8073
9385
371
576
-702
73
-1556
-1174
-4249
-7074
-4956
-7009
-7565
-2130
-3399
7064
-1057
3781
-7011
17
1237
-14205
-12892
-4131
11574
2057
6251
3581
1920
14996
9145
2387
-5886
1334
1287
-2420
11438
5877
-1829
5293
6748
453
4267
691
4038
-1408
825
-3221
10396
3796
20544
5660
-4071
-2570
4170
-5444
9275
-5213
-2928
-7988
-8625
3220
437
4370
-8060
-551
-6381
-6227
-1343
1601
2062
7149
78
3891
1617
-2206
1153
2950
-407
1605
-8983
-1107
-293
-7476
-3294
-1702
-6297
-17364
-9108
3271
4009
1783
4860
1241
2768
2736
1730
-1568
-1990
1954
1415
-1330
-489
2473
2900
2455
2614
4683
2843
13592
4992
5421
-6682
12485
9184
11672
849
-2968
-3806
-7003
336
1960
7437
5550
10966
-5631
992
-11468
-10237
7026
-4837
3164
-5044
-1506
5252
-1365
-1413
4997
2701
-4704
-7044
-3472
-6386
-1564
-5396
3226
-1552
-3457
1955
7053
6968
12886
-2903
-641
-5670
-12736
1925
3527
-953
266
6121
1970
3891
-2148
-1993
-3999
-12641
-4638
360
-2344
2861
-3996
4127
-2026
3393
5146
-777
-7562
-102
-10951
-549
5217
-1286
831
8245
104
3540
7528
3991
3047
-2559
-2633
-3545
5051
10372
3917
-10521
-2120
3812
-4590
3038
-4977
4295
4337
-3330
4199
-2490
9037
-5068
2127
1974
-1778
3203
-302
4641
-5187
2190
7222
2366
5972
-1897
6997
2066
3822
3827
-11661
-5674
-3039
13356
-4160
7297
-3000
6128
-582
10702
9461
-9359
246
-4205
-1050
9247
-2434
1833
-6187
441
-17587
-13831
-15872
10534
3263
4053
1826
4621
-1563
3294
-10101
2004
4659
-1053
-3386
7804
-2734
2312
-5611
-9843
-8052
-1622
-8991
-1226
9854
-1453
276
-11080
11355
2754
992
-4645
5947
10679
8986
-817
2085
6178
8
8208
-5449
3844
27
9491
2012
3835
5528
2158
4570
-2769
-2082
-5630
6566
5689
1047
5887
-3732
1712
-521
10302
14473
1856
4660
-4224
3280
731
7220
1046
2708
-3698
6647
16323
6595
4636
11612
-3811
3456
-7714
-1965
4290
-2144
8970
13332
4956
-969
2978
2089
4469
-3156
-7710
8011
5662
2694
1784
8722
-797
-2059
1127
7822
12694
-8735
1785
1820
-2129
-13539
-9839
-17724
-533
-5685
7432
4105
-770
3685
-1234
7622
3219
2505
-546
-47
-225
-7953
-7308
5772
2922
7189
2490
9044
1305
5418
5625
10505
-15140
4982
6324
18009
497
2968
-5017
-2925
-5612
-9592
-3760
-6982
4993
398
-987
-1127
6573
371
4985
-4597
2156
800
3504
6732
2206
6405
5574
6757
3465
-825
-9530
-4309
-5578
5
-2936
-55
5290
11940
5113
7244
-11479
107
3643
4829
4588
1793
5494
-16497
9037
-6212
-7909
2521
9153
14226
1114
6034
-11562
15415
7833
5278
10900
502
6773
3307
-2018
2371
7083
5548
-19527
1334
15568
600
-1204
1530
8101
2727
-12693
-3722
-6158
-15610
-4284
10365
7062
952
1960
8975
-1381
-2073
-12118
-8723
-7385
-3438
4081
12136
8137
5516
-7155
-7444
-5276
-3018
1188
-95
8520
10438
4569
-5654
-7499
-6383
-993
7970
13008
6527
4140
6069
4296
-1718
9137
-4028
-87
-2425
248
269
-14344
9021
-10409
6018
-8819
150
4861
2718
-5174
-12915
7124
5448
-2979
1361
-3099
180
-1198
2461
2720
6711
-3432
-4183
-551
-6942
-4531
-13857
-10224
-4569
-1858
-4016
3596
1746
-3684
-10583
-2407
8380
4046
12385
2535
1223
-1861
-4608
-7376
-3625
8588
8618
1742
5425
8878
1012
10237
-76
2065
9011
-1424
1332
-7567
-9942
-4811
-6398
1362
3318
-15586
-9074
-5238
-7813
-4948
-5811
3791
-611
-1153
-1280
-500
-5957
10357
3623
-2465
-910
-5145
3265
-8871
-1043
15425
-6869
4364
2859
-3207
-4712
-497
1541
10439
-1727
-7797
-8619
5597
-4280
-913
2230
3658
-5453
-5166
1961
-3888
6294
4215
-1897
-6923
-630
524
-3986
-2212
-2215
-2008
2746
-4810
-1592
2806
-158
-5535
2923
-2910
-4667
3303
-1155
385
2163
-1603
10981
2101
-2134
-3306
-2695
2848
-358
4082
561
1642
-10138
-2026
-4478
538
2145
-2820
915
-759
824
2795
-1300
748
-514
3480
-9601
1318
-8162
5226
3222
919
268
-7126
-1249
4182
-8962
9139
-7498
2188
-900
11016
-1705
-18
3672
-3676
3850
1243
7454
-3486
-7280
492
-2900
-345
-2974
-6259
406
-1071
-3834
-653
-1881
2157
2450
4199
151
4430
4423
7112
4869
4253
-2348
5246
-1578
943
3221
-588
-1169
-3642
8787
-7467
-4200
-9151
-2560
973
-5213
-3715
8441
6309
824
-3580
-1987
2493
-3877
1260
-2940
-3047
8980
-9589
-105
3072
-2346
10451
-3569
-3652
-11545
-8285
549
3100
1407
2619
-3023
-5353
-9431
-5940
4776
1380
859
959
-5244
269
-6540
-588
3656
2445
5190
5110
2815
166
2256
1513
1772
-5673
907
7525
-3699
-3736
3109
2230
5042
2992
-412
1011
3036
9927
-447
-1559
861
2999
7742
-3367
-9889
-2778
-5970
2937
-15324
451
-1679
542
6140
-428
-1302
5339
-4366
-718
1642
945
-4146
10872
4842
-4437
1185
1468
-2757
1231
2540
7771
2237
-5273
-921
6513
3163
1093
-2989
-756
4805
-3462
-4023
-8315
-6352
10189
5087
1095
-2649
9996
-9773
-6324
1297
62
-4076
7379
-4062
3371
-7349
-1302
5329
11827
-5320
-257
-626
-12381
-3261
-92
1014
-2642
-1758
2603
-3886
8348
-4987
550
3877
-1549
2695
3012
-593
-3968
1376
-1747
721
-3965
2769
-751
-5825
4193
-3808
97
-334
-3493
-1121
1606
-401
-3972
-1726
-1015
-6408
9667
802
3305
1005
-3902
-1924
3313
64
0
25
757
3417
12205
-4363
-2789
-7523
8688
-696
1463
318
4312
1131
4518
4016
3829
1826
-596
-2815
-4112
-7647
-8802
597
1800
-937
-1658
1058
-3576
-4134
2800
-3037
-1037
7662
4933
4649
-9746
-5515
9092
-651
2960
-6078
12874
-1437
-6086
3813
2072
-589
9463
1738
-2660
4150
-2989
-517
6506
8857
-5829
-581
4358
3154
-11946
-8241
-3389
-5078
-2550
-3547
-2877
3142
5868
886
-1762
-1414
500
2228
-130
2691
-10041
6036
-423
10550
6772
6356
9426
9388
-1149
5265
-3822
-3892
4158
-3909
-2324
-1648
7059
191
894
294
9135
-6551
2029
809
-636
-4831
-1708
2067
1687
4465
-568
1315
799
-370
-6774
-1669
-3604
-5965
2205
-2138
9715
822
2849
3600
-477
-6671
-755
-5320
-826
-486
-1561
-1014
-6505
-499
-3918
-4144
5258
-1629
2228
885
656
2391
1811
-693
-10682
7016
-1202
5393
-5502
1400
-3799
-540
-1039
-3971
-2430
-6660
1528
-533
-6999
1431
2538
-3851
1226
-8390
6952
128
71
-3206
3068
4252
4814
-173
1564
1118
397
-64
3917
6136
2269
3643
-2327
-2462
-258
433
1868
-6817
-6624
247
1322
5880
-3945
-938
-8212
-980
368
-4276
-1353
3657
-4643
516
-13277
-2069
1115
5195
-1964
-6211
-541
-3256
-2985
-5301
-7281
-3432
-18064
-849
5423
-1910
9054
-680
1111
3340
-670
-13853
-6760
-5548
-34
984
449
1598
1561
1877
1765
1204
-85
-5507
-746
1922
-7312
-2647
-1700
-620
-1550
-2529
5363
-1744
7552
1413
-1176
-1426
7867
731
89
471
-3329
-1872
-2638
-1828
4231
4550
101
1820
-1605
-15013
-2862
-419
-1733
882
-2207
-2355
6241
3536
-1666
-1835
-3807
-2866
75
-2135
4335
-1323
1259
-1926
-10
-1737
4375
382
2984
-1268
4824
2020
697
144
-7758
-7351
-3719
-3724
122
-5855
-612
3638
-682
2381
-11612
2615
-4906
-828
990
-5234
2124
-110
2885
-8736
-31
663
-1237
939
2545
3199
586
974
-1252
1345
-4115
1835
3814
2037
4465
4804
2446
-2039
-129
3102
-1716
-9492
4400
-11151
1192
-9175
1055
-7000
-8403
4323
-6552
10961
-1921
-3543
-1784
-11299
-14392
-4171
1522
53
-11239
2631
2202
-10931
-12582
-5924
3956
8783
-6360
3009
7756
9434
-881
-4393
5713
-7696
-834
-3399
-7254
-606
-8125
-20872
827
-558
-1750
-1899
-3365
-6601
-5364
1901
522
-4139
4250
5173
-2636
-149
8495
-8906
-7956
3623
2618
-1017
-3589
-2764
-10791
-8468
-2280
-8988
-7760
-7243
-7492
-648
-11537
-3769
5020
6372
-2576
-744
9523
2714
1249
-386
8301
1734
2354
-81
1100
4858
6453
2388
-15754
-7337
1636
-13983
-126
-383
-1027
-5867
-4144
-2469
-505
-6885
-390
12059
-1359
-6599
-3208
-11504
-9528
4263
-5481
7784
3070
-6211
-2247
7365
1103
10408
6986
6807
-13649
-3436
3426
9137
3515
2471
10263
-8
6479
-577
-932
10834
-12600
-7740
-14092
5345
3389
525
-792
4589
8794
4877
-11812
-7728
110
10354
-5601
-1677
-6231
-4343
2416
5668
114
-9369
-1401
6003
-1528
-7702
-2819
-2044
8269
-3061
2878
-9775
-3345
241
4664
886
1789
-1095
-648
-2045
-9587
-12123
5883
4356
-1119
-702
-6727
-1486
2485
-2425
4386
-1691
-8134
8936
-2218
-7236
2130
1817
-3349
8217
73
8451
-2660
1569
-5057
-8593
3625
8768
8896
-7842
154
-4702
-178
-512
-7046
-1978
2143
-3193
-9077
5767
3444
4768
4020
-3722
200
-1588
533
-2442
5836
-811
-952
-819
-3902
-24
165
-683
-4109
-5348
2550
1819
-2925
9938
1052
1608
-12381
372
10477
-6487
-6771
8069
2277
-3578
3716
3857
6336
-4126
-1407
-687
2550
7233
-2258
1298
-3896
103
1595
2299
3458
3355
878
-3977
-2087
-3567
-1801
6215
-2672
2880
1088
5839
6392
203
-4311
-6778
-1613
-12536
-2943
-4188
-6378
-1633
-7365
2907
-1380
4033
5823
-1531
-1322
10306
6285
6386
1521
5593
5114
-140
-7745
2603
-4957
2097
-7755
5038
11014
4252
4679
-8351
7852
7625
-3234
-1383
-2620
-8113
-9318
-1070
6989
-5659
-1936
4003
5557
-8168
1344
-5617
-6824
-9254
-3835
-3986
-2559
3067
6421
2681
-3168
-355
7716
2399
-5753
-3591
1784
-5812
-4090
-4030
5241
3877
-4765
-1874
-2132
-2154
2820
1476
-4640
423
7139
5377
-9861
-2597
11453
5267
-2549
-272
-13143
-3980
-12292
-14545
-212
-1008
4752
-3227
-4004
2401
-46
-10521
-2794
-536
6251
2565
-4374
-5444
-5865
-4347
-3831
-3856
-3242
3790
535
-1959
-7264
-6813
-6662
4857
4396
-3995
8687
3033
-3255
1114
-10944
-3209
11189
4214
-5466
-2038
-4561
-562
-1540
-5060
-10958
-11935
-954
-1097
-10152
-2817
-16038
-12514
7005
-984
2676
-829
-1551
-4773
-3839
-6633
-442
1641
-3514
-2921
-10252
-4604
-572
2107
-2590
-7963
-10372
-8941
3575
5116
2899
10841
-5888
461
3126
-7043
10943
8703
-4863
-8941
-4955
-502
4941
11366
-3713
-10078
-6294
-3414
1389
-1809
4501
2596
-12253
-13499
-6150
-9840
319
-813
-9242
-4903
-11580
-10847
2889
3021
-3868
-6696
-6839
2930
-12551
-11557
6717
-130
-1588
-2414
5349
9607
1057
2499
6571
70
20265
-1448
659
5850
-4448
5124
7726
8996
834
11355
245
1458
418
1105
1388
-2380
6309
-3563
2540
3027
-3583
-2206
9605
4590
-9060
-2113
-6830
484
-2088
4644
-12748
-6437
1366
-638
-7112
-4056
529
-6378
-6624
-2265
-13208
280
-1198
-2893
-2224
-5155
-5742
-1947
-6406
5333
8795
-411
-14171
5978
-1889
-4829
-246
-3722
-4252
-14008
1458
-9653
7017
-3594
-3195
-8774
6956
9166
-3011
3601
-2417
1006
-5664
-5733
-4580
5861
-2578
-4758
7964
10247
-2314
4168
5023
3879
-14515
-4038
-4645
-6423
-5114
-7751
880
5584
-2801
3061
-5192
6574
3470
42
-7407
-8763
7158
15494
5231
-136
-330
-686
13729
1283
-6092
-6144
-7690
4905
-19274
-7980
4780
-3967
1253
7775
-4777
-1019
-5073
34
2700
2319
2038
2204
9062
2696
-11083
-2426
-7594
1787
8680
-4581
3189
5616
-6057
-7451
-10506
-12109
-6797
-8658
998
-307
2548
-5777
367
2346
711
-1971
-11144
-485
873
4385
3848
5346
-4217
-920
-7628
-5915
-6351
5316
-3306
-3273
4669
2853
-2503
-4178
-3389
3859
-6355
-2275
-9975
-1668
2954
1318
2146
1133
-2789
2497
1959
122
5414
3674
-3626
1103
-4280
-9222
-12849
-4394
-8866
-9873
5128
8508
1880
552
-7995
4628
-4271
-1655
-10844
2599
453
3619
-353
5448
-238
4450
1136
5613
-2814
-2828
-7470
-2970
3668
12076
2178
-4204
-3901
-3698
717
6262
-3724
4220
527
518
11619
13453
3829
6547
5111
6436
-996
1904
-2857
3158
-4038
24
-4153
-4123
-301
1093
3859
4518
4988
2646
-12199
-3302
1278
-2341
-2583
1125
4379
267
-4730
-883
-5156
-4268
-500
6641
6299
-2046
4383
5217
-6466
-4445
247
-928
2559
3284
2538
7455
3166
1806
1325
-2741
-2098
-1257
1411
-3838
-952
696
4464
1216
2875
1127
-4709
657
-6346
1120
-1189
-6429
-4707
-954
-2911
1263
-3646
2607
1878
847
-778
-5436
-2286
-2034
4889
1837
1985
-881
-2576
-8252
6354
8657
-3042
3988
-292
4123
-1963
-3961
6050
2368
5791
7183
-8412
-4028
-6975
-3288
6405
13836
-3576
869
-5922
802
-4278
-81
3716
5912
-340
6530
-8639
-2553
-1127
6700
-5170
4773
-769
2027
1274
5141
-702
1469
-2266
-1711
-6264
-7132
-2660
-249
1952
3831
-655
978
-3255
1398
4656
10868
3455
3239
-1874
2583
-9083
-807
-6394
585
496
5040
4599
1420
-4623
-5691
34
1006
3852
3061
9777
4338
6556
2022
2078
-406
1469
1691
-2854
5055
-2819
3599
-4407
-9298
-4160
1734
-6292
-53
-5518
-1202
202
713
-10354
-9241
-776
5680
-5202
-1360
5458
1832
-61
6588
-6632
4348
1728
5680
-935
8535
8659
6934
1917
5465
-468
2617
594
12579
4061
3211
1838
-753
-7335
483
6957
5859
-4189
-194
2126
5829
-6652
-4921
2963
-817
3562
15083
2291
8266
4137
-951
-3400
5317
12007
12283
500
5019
-5012
1655
-883
-1405
-1077
-1857
711
1188
-7477
-8202
863
-1691
6053
3422
-2893
2356
2567
7249
-2200
-3161
3658
2220
-3783
4789
-2510
-2566
6467
2263
1745
-5934
-6340
-3848
6379
882
-7122
8712
-10195
300
-4598
-2953
719
4138
895
839
1283
606
-7136
1252
4950
1987
3935
3422
1667
2043
-5333
-3502
-3491
-2537
-3288
-6550
-3355
768
-6605
-7193
9864
10219
6023
3695
2158
-2810
1298
-1345
30
892
-4129
-7712
-1955
804
2867
-1136
2176
-2456
116
630
9481
2623
6777
-814
1733
-5269
3005
-24
-2589
6704
864
-2114
-3943
-1428
5507
62
-4683
-5310
-8400
-4517
-21195
-13203
-14650
-8576
1673
6145
333
8392
-5125
-4608
-4411
-1783
-9612
4349
1995
-4276
-11657
-3933
-8367
-2368
5217
-5462
3243
-3169
5989
5793
2408
5606
367
-3058
-6250
-9380
1224
-4622
-959
-10826
-8322
-5998
-7834
-6531
-6076
-8260
5555
-3259
-1791
134
671
-2276
-13044
642
-8548
225
-3713
-8271
517
6001
-1280
2132
-2732
8238
12522
7885
10950
9688
-367
-4288
5672
84
-9507
-2412
-2900
-4905
7851
13216
6627
14278
-12330
-8391
1872
-225
2857
1981
5016
2329
-3202
-1535
-2420
-5944
-9821
-6498
-12979
-15136
-8732
-12
-329
-2092
-11214
-2694
-1267
725
-11858
-8894
-19162
-11305
5324
1633
-4124
-8122
1580
4223
-150
2610
3595
-1984
-6532
-2747
632
1453
-1651
-5841
-8528
539
-6910
-3856
-12488
503
2909
-8571
-2361
-8850
-4302
-16310
-833
-10494
1568
404
-1252
-7553
-323
-4565
-288
-7033
-1927
2457
9530
-868
-164
-5052
168
8140
-216
8253
-8117
-4807
-3541
-6946
5923
-2887
4329
-6280
130
8910
4746
1096
-56
-105
-6558
-9409
-2022
-7072
-7294
-4041
10902
7962
-2172
6684
-2442
-1409
-2573
2352
3535
1024
-4383
8263
2409
643
-4729
3640
6366
4661
5095
-3467
-13845
-4750
-8096
-5948
-7272
-9787
-5726
-3583
-3068
1751
-6575
3221
-10638
-609
-171
2109
-16515
-10881
-16027
-14073
4323
-2125
-1859
-2256
-10848
-5291
-6444
-8443
-3157
-1331
-3751
-2629
-18087
-11336
-6643
-10519
8348
4463
7644
1927
1076
-6884
-9222
567
3942
-385
-1284
1766
-2180
-4201
-1829
9558
4010
-311
3795
4311
11338
13252
14201
8028
-4119
-1678
-2560
-806
5527
2073
-2986
-4600
806
1805
919
2600
-290
9208
513
4667
-10128
3158
1144
3494
2277
3859
4393
-2271
-3038
2451
932
2413
-738
2399
-12427
2123
7682
-1713
5467
2433
-4896
657
744
9965
4824
3435
874
1117
-2324
-539
-7112
-4833
1365
-866
-1318
-3119
-1720
-3703
4160
13213
-8883
-2312
-8387
-6079
6376
3734
6279
-6846
-4771
1589
1232
2402
1328
-8907
-6224
-2530
-2633
-4597
-8438
-11165
-7541
-4290
-9502
-6114
-4324
1364
-4748
-2841
-118
2230
2931
4081
-4350
909
109
-4195
-3038
-8540
7449
7867
962
7161
-2196
-2277
-2906
-11660
-5748
-5199
-3338
-12388
-1559
-2165
-2477
771
-2102
-2530
-11194
-3809
-2884
-15279
-1871
-4800
-4864
-7367
3447
9161
1205
-2970
-1319
-2962
21
-8126
4490
11324
14261
14373
-2273
4942
171
-8769
-13715
-5372
3218
4516
-10758
-2243
-2830
-1307
531
-3396
-553
-3040
-3768
1795
-3820
4630
8354
6579
6253
4122
4174
6196
2106
-547
9164
6954
3051
5461
-17034
-10214
-10221
-1349
-4114
-127
-1554
-4991
1364
-5520
5191
-6915
-5360
665
2619
7085
-2409
-8655
-6035
-660
2699
-116
-1380
389
11397
5254
262
5706
-10852
574
-10299
9303
3233
6843
14487
8905
706
-5354
-1822
1912
1370
-7923
-264
76
5121
5804
5552
-4528
-8947
-10144
-8036
-10782
-4757
2770
1964
-3324
-4923
-5670
-11782
-1930
9620
5001
-5053
-966
3795
3257
6266
9314
-2798
-1645
-7795
257
-3207
2075
-3425
-7133
3677
9876
5005
3175
9601
1354
3961
222
398
2688
11157
8501
-1166
-1727
-10266
-4083
-19036
-2562
-12541
4615
-4917
3792
-3154
5598
28
6400
8390
5789
1363
-516
-9580
-8965
-5153
-13509
-14511
-4932
-7357
-10777
-14377
-4004
-3219
1711
-2436
2079
-1726
-8074
1824
5373
-4178
934
1275
5012
416
-3340
-1439
-263
-11782
-4781
-4804
-2464
2639
2705
4044
3808
6911
7136
5749
1986
-5845
-1101
4117
2486
-6068
-355
-11806
-9156
-1507
8761
1873
5652
-6098
5039
-551
229
3670
8920
2907
907
1643
1590
-4838
-1640
5172
3112
10774
4484
-10297
-12161
-8553
-2145
-4646
4908
2222
866
-385
1916
3432
4403
7508
5964
2876
3544
-1753
3368
5487
-289
708
-2224
2064
492
5555
326
3628
-3521
-1235
1047
1595
-257
1762
-4524
590
-3110
-10301
-10963
-2125
-7932
-1449
-7984
-8637
-7287
4620
7572
5454
8088
-2370
3439
2141
174
-3656
2477
-1846
1057
-4492
-249
-5415
-1920
-8442
58
-3976
-3076
-6229
-2887
-1433
-4047
671
1765
-4907
-5230
-431
-34
8520
-48
2681
12100
10659
7308
-5054
1814
-5810
-2893
-5908
-4162
1573
-835
6903
9262
9479
13942
-577
-4934
3508
-560
-7672
5286
-1359
-1482
2002
9450
9337
9348
2955
2685
-467
3476
9377
5082
2456
901
7336
11351
13306
7612
-1198
1322
1256
4500
7995
2720
5437
7271
3061
-1819
4241
2073
1592
345
-1366
-3163
-3618
-2849
-6975
-2333
-5879
-4779
-1858
-4066
2371
-3699
929
-899
945
6526
5474
2587
1804
713
3907
3094
-3387
-6485
-1307
-4554
3842
4426
4345
-893
2429
5592
5
1044
6327
5511
-1656
-3101
89
2271
38
-2867
-11462
-3449
-4432
-1736
-4273
699
1996
1823
-1677
807
6336
-4016
3646
5869
3893
1471
-5643
-2928
1979
-6812
1891
-662
1882
3185
3954
-4786
6359
5309
1307
8545
10774
9002
-1381
3220
1851
838
654
6359
1539
340
694
-82
2659
833
571
807
-3336
-714
5970
1541
-1230
506
6090
2666
4512
-1930
1880
2429
2022
-4781
-6242
-685
-2637
-317
-3715
-948
1761
1304
-1277
-111
-1800
-623
-6247
4819
-2450
5843
2398
-5030
-2743
-5161
-527
-1183
2104
691
1016
384
-4513
-717
-2992
-4632
-6035
-7179
-1659
-4348
1838
1281
1860
3939
2282
3827
-1788
808
4371
701
-4731
-4265
-5118
-2344
240
9011
10007
-1018
1035
1674
2268
3114
7462
2537
1667
3932
-5552
947
1007
4047
4102
5414
5930
2400
5369
11759
8014
3048
-1958
-3459
-45
-7511
-4698
4137
-1643
317
7536
5976
10732
10487
811
-1458
1348
-2211
-2725
-1342
-1906
3900
-1522
1101
4783
-4442
-536
7333
1413
6525
347
14978
9068
9665
2746
851
1691
3457
-4537
-4969
7029
3004
-4644
-1070
2329
4147
-3745
-297
725
-1023
312
5171
7382
1448
883
3262
4956
7677
-8540
6246
6683
6649
828
-4617
-546
4107
2633
2251
2598
-392
-2541
-910
1701
-5061
-2716
1259
987
2167
1574
1169
541
3904
10632
5212
8215
3296
-434
5800
-4830
4394
2110
6925
6775
5178
-11364
-882
-5336
6078
-5266
3228
222
2566
5940
-8349
959
-4492
623
-2025
5565
5748
-5000
-55
2904
3471
4009
-835
6060
2122
1424
1926
-447
540
-1605
-1820
-218
186
1933
4818
-37
696
2265
1953
2758
1729
-4044
2332
1957
-8503
-7390
6719
1788
569
10
-2817
4047
4071
-2288
1744
-9063
-1789
-3352
-6787
-1006
-6588
-5801
-610
-4982
6039
-7850
-4456
-10280
-3449
-1528
5515
-224
4519
-8582
-5764
-5897
-3567
1988
719
6862
4514
-6716
-10505
-6694
-3676
5448
9573
-2382
2477
-1980
3679
2522
-177
5025
4733
-2614
5127
-5579
5702
735
4471
-3571
3349
4358
11990
3995
6765
9135
2895
-134
9358
3090
3145
410
1277
3560
2748
5755
1433
8775
1385
-2365
1837
-1133
-2312
-4716
-700
-3420
1430
-2103
-642
-8020
-2764
6937
7484
7349
3637
-6417
-2918
4159
-1584
377
8451
8123
5750
-2481
-618
-4891
-1011
4458
7930
1722
-1119
7699
4075
12988
3496
2254
5262
7266
8496
4481
2676
-244
1695
-5529
-1318
-1407
-711
-2155
11720
4522
7298
1105
9349
9411
5809
-4540
471
-322
-3636
-7543
137
-1834
771
-2286
-983
-4130
-668
310
-156
-549
4401
-11040
-1648
-6444
-2198
-36
-3866
-3278
-40
5392
3042
3377
3998
-8056
309
3504
-4706
-4006
8464
-7932
9077
-8436
-5282
8859
1351
4131
5752
-2344
2172
-223
8915
-747
6078
4814
-157
10425
2897
-1082
-4770
-3722
-4033
22095
-2843
1709
6336
5316
4339
9345
515
5666
-4734
-6197
-1461
-5618
5842
4884
2129
-1065
3190
6729
-6597
-5839
-1447
-3338
-11057
-2477
33
7656
3062
-3852
-9063
-336
-141
-9488
1548
2470
3539
-5426
4704
-4725
2299
1296
5248
3115
-4820
5483
-1649
-9587
-1667
-9764
-721
-3360
844
1762
668
477
-3828
350
5938
-1322
-1607
-8301
3154
262
-347
10123
7703
7031
-1994
-6042
1856
-744
-2033
-3237
-4875
-3449
1038
9456
-4813
5200
-6435
7114
-1929
-4021
-13528
-8190
-3141
819
-2588
-10119
11458
-2544
4732
177
-5040
-3411
-1960
-4656
8226
-2787
-5267
4442
5676
-2584
5141
9368
-2712
3528
-6200
-3016
12975
4259
-4188
857
-1675
1602
-7084
14574
4019
-4669
-52
4643
-3988
-1869
-4338
316
-4437
-877
967
4311
-10645
-7833
8759
8667
5954
-6001
-3079
-7769
-2996
-3519
14039
1696
1370
-1734
2394
2511
-13246
-4020
-1669
-1248
3965
-4373
10766
1696
332
-4433
3990
-2436
-1279
-3450
7930
-5106
-4705
-11403
10732
2688
11846
-1825
2867
3394
-2572
-3788
-4102
-1666
293
-5415
8727
-8902
2913
-7375
9591
3963
1392
1556
-1146
-612
11619
6295
1983
240
-3832
-5814
-2218
15431
2293
-3885
109
-3887
2398
-502
12937
8505
-6664
3113
2338
3933
4606
-1555
1948
1815
1550
1663
-4292
1912
3002
-2587
-2570
1388
-3815
-11173
1795
-9447
2207
-556
1667
-2890
-1665
2020
11304
-3684
-584
-5371
10960
-2674
-11941
-680
1525
-5035
6286
-4530
-9539
-1127
2676
5416
-12764
-8187
-62
-9601
3282
7787
-12877
3828
9140
-1555
15438
6387
-2914
-5653
4464
1812
15262
-2049
11783
-5771
786
-3301
12547
-2666
-11750
-1814
-4043
-5935
5993
5901
-2302
-246
12034
7593
1801
-9514
-9078
-8962
2743
1523
-7752
-1314
-9337
-7183
2842
5981
-5089
1050
-1509
14094
2252
475
-14166
4398
2879
2623
7060
-3147
-11786
8090
-3254
-7626
-10174
-67
3217
-3423
3068
-3564
-5187
-3300
-7859
3715
7047
3839
4341
-4910
-4333
2422
-3092
-4512
1742
4050
-4308
4584
8567
783
-3491
-652
1234
10214
3197
12214
3469
3065
5159
892
-1981
-1889
-2952
-5607
-1787
10874
2936
-11125
-1374
-4844
7180
7387
5944
12116
620
3542
-2437
4828
7717
-152
2718
-1642
7478
-7141
-10265
-4003
-14587
7524
864
-1309
-7210
-1836
2497
4008
10055
10013
-4377
4354
1568
3494
-1059
-4976
6440
2631
-10066
1827
8744
-2921
-6057
-2565
9311
-8443
-9258
542
940
1742
-1535
4105
5753
6313
7460
4768
-2935
-4991
-5433
1421
-3803
13699
-4111
798
-9337
4415
4383
-5242
-552
104
-4099
1647
1664
5854
-2820
6563
8402
5846
1777
-5462
-2081
390
-3781
1821
220
-5242
-12426
-3308
-2405
-10642
453
-9779
-20286
6251
708
193
289
-2844
2601
-11074
2710
9021
11948
481
-139
-987
5228
4477
-1590
-484
-5851
-972
-3512
2321
6187
-746
2674
11445
4132
-2186
-9130
-1316
5793
-2349
-8635
7308
1808
11294
11824
6996
2552
3911
-3841
530
-6879
514
831
934
7796
3607
-6296
1100
-6491
-389
4399
-4525
8363
6120
7942
-2362
-2732
5855
6840
4021
2358
-986
-3125
-8553
-2023
4454
9364
5529
2432
3596
-568
-5113
-4541
-7814
-3601
-1629
-3354
-2730
-5545
298
502
-2203
-7454
-6450
8197
-877
-104
7577
-5840
-9813
-5537
-2442
-8304
6754
120
3225
-11065
-15859
-6028
8852
-2562
1781
-2341
3579
-3669
7066
3279
3201
4966
870
4328
5063
-1255
7851
13689
13821
473
2315
10160
508
3052
5397
-6051
9712
9020
1441
-262
-1113
-4550
-2957
149
-6912
-522
-2480
2431
-4476
-5002
13037
7693
-2870
-8848
-3330
-6024
-7729
-2348
1742
2142
-493
3574
5496
1453
4756
-4805
-998
-1235
-303
-6191
3690
10339
-5558
-5235
9943
-2044
2016
-14201
2266
-3031
8038
4287
4672
4659
7004
9537
973
7732
-1337
-1792
207
-4158
-496
-6487
-7006
1654
10348
13604
6864
3501
-7039
-368
1752
-9623
-49
-47
-5464
-4621
-13405
-7101
2744
1507
2735
-1225
-5909
-3091
-2967
1234
483
-3448
3282
3198
587
3581
2556
7334
-11943
-6666
2421
-3418
-793
-41
-389
-2518
-5971
-415
3120
15482
-420
-8899
-2528
4482
-10586
48
11128
3688
1487
-4562
8757
10898
-928
513
-2014
1701
6688
4994
-2690
-4245
-8223
3642
-1392
-6479
-6575
2218
232
2547
-1898
-1550
2648
3458
-8122
220
5023
5581
-3214
-2924
9063
7104
-988
2922
-5263
-6606
-1235
-3859
-1405
4552
-36
-2226
9087
5303
2509
1409
-972
1052
-705
-5274
2057
1546
-148
-4891
3662
165
8780
9698
-1033
-3074
-1757
4395
-1529
-1084
-1952
-7205
-2849
2600
-2201
380
14656
2835
7758
1555
-5335
-4689
1955
1981
3973
9236
4418
2802
3770
3304
185
-1705
-2550
-1204
254
-147
3082
2883
-2858
389
3389
-1081
-493
-2155
903
-3049
-4783
-4254
-2451
-5586
718
-1262
-4590
-2963
-9740
-5016
-3600
5903
-5621
1001
-6227
3286
4376
-3851
-1274
1299
-4863
-4846
-2893
2955
-1106
-5088
10344
9085
-6948
-2712
-3416
4669
-5008
-7663
7026
10700
2372
949
-5424
1339
-163
2470
-3943
5578
-5485
-788
4392
8242
-2653
978
-5719
-4271
1483
3612
-416
3629
5457
4305
-5532
2506
-14695
2222
-3993
-4431
-3183
-5380
-232
-3017
7703
1039
-6134
-12013
4549
-127
17227
4623
-4240
-3420
12379
11303
1867
191
-2200
-4466
-10415
-4066
1352
9133
-865
3825
8767
10911
-8192
1499
8149
8922
86
-9290
283
4240
3216
-1478
9468
6183
2823
48
-6469
3917
-584
5686
-3461
-970
-10178
4033
5369
6016
5522
2564
-5686
986
-922
1868
6601
8324
10176
3130
3705
48
-7994
-5261
-5682
-7031
-10861
-4964
1100
-2670
-2977
-5143
-7328
-11415
188
393
-7857
2352
-3090
2967
2621
5457
6074
621
-4552
2122
-529
5881
-6491
-1629
11028
5841
2848
149
-2555
-269
-7930
-8618
5270
-4893
2341
-10030
1846
10168
1016
5782
-7585
-8732
-5540
-7964
9793
1436
10878
1067
-7856
-22352
-10825
-9793
-20
2493
-5031
631
1346
5481
2063
-1071
2437
2940
-3560
1805
-2212
2094
3823
-1701
-7083
-2047
20502
7528
9309
2696
9098
-119
-4993
-5566
3671
-1012
1157
-4772
-9610
-6155
-6324
-4940
7079
2264
-5460
1348
-327
-3172
15613
4088
1126
4333
2248
-4086
-3827
-3880
627
-1161
6283
5375
12349
8325
4157
2928
3251
3733
5020
12743
2871
1739
4356
4389
-469
-2238
2806
-4974
-3374
7336
3112
913
-4045
-10687
-2627
-5074
8120
15127
10571
10918
-2443
3888
2610
2841
-6871
-2475
8223
12226
16975
6555
-3475
12131
6911
4217
2523
6434
5958
213
-66
-8417
2243
6488
7145
5493
1702
-2341
-3979
499
3585
14129
-5831
9733
2238
256
-2093
-8187
-7380
-9935
-12075
-1412
4380
-3434
9383
1596
-3139
-5534
-9895
-4953
-1170
4962
-292
2762
10855
10421
13286
6471
5619
3461
-2865
305
-1256
-2359
-311
-6003
2942
-1453
6885
-6768
794
2389
624
1127
-4465
-5322
-547
-6895
-8119
1820
1895
-794
4489
-2718
-8204
-6944
-34
-1353
-683
-5242
-10295
-14314
1038
-3714
1933
-2446
4548
2831
1266
-2628
-7232
-471
-571
6414
-2004
5800
1781
7928
285
6231
-1265
5381
-5321
3562
-1462
-8929
226
-5270
-1410
-2225
1576
-3527
-1673
2208
9150
7327
-359
-2221
-16849
-19029
6548
4294
-1943
6065
3078
6297
-7644
-1583
4895
3683
1608
-9252
929
-3920
9993
3638
-5443
8362
7024
13795
3270
4141
-84
-2685
4313
-5553
10756
6575
3913
-5750
-7734
-3408
-8210
-3147
2156
-1394
6355
-4438
-1094
3818
2055
-10767
-2267
-1786
-3048
-2305
-3238
-391
-5819
-1787
-620
-4636
-5564
-7674
-10006
-12545
9430
91
-1363
2367
3335
-4042
777
-2838
-3697
-2692
-5929
-5069
-7688
-8281
-3972
-6277
2674
10155
10958
4874
5189
-4210
-790
3035
4753
-3784
-1051
-36
70
2401
2324
-5539
4712
-6743
-12290
-3309
-10455
-8539
2336
-4364
-5689
6382
-6019
10874
11444
-5730
4633
-1801
5158
4342
5225
3777
-14227
-11681
-2134
-575
4226
5989
8760
6257
3066
-6779
-7338
3637
12578
-1756
4246
-3814
3797
5675
5139
8927
-1272
42
912
-3045
3679
-1846
3632
-525
1795
-770
-706
82
-4261
-2786
-8391
3232
2823
5320
8306
-1395
4448
-1661
1369
974
5468
-3197
4718
-6151
3006
2976
3758
-1568
1058
4280
14104
4989
2871
1254
-3248
-1425
-2577
-10784
7343
-4320
4798
8322
964
-1619
-2736
4378
5351
-579
4249
4572
2588
4200
-8545
-6012
-6255
-9760
6798
7254
230
7305
4567
11365
2345
9311
-3681
2158
3117
-710
-9002
-2578
1394
-5456
-13726
-7228
-5280
-8062
1353
-6891
-2647
1877
8709
489
865
-10615
-3352
-7478
5850
-4015
-5647
-2978
-4007
-4547
-1490
2335
7843
311
-9141
-1624
630
361
8814
-9198
-8095
-1031
-3476
-3131
-3448
-4688
5838
-5312
-5169
-6440
-2011
8199
205
-1471
2262
-3712
-11751
-8486
-14498
-7054
-5701
-5923
-12112
-414
8167
15084
1780
190
1751
199
-3055
-12212
-6973
-3875
9377
5058
13543
9513
6240
1237
10417
4417
1576
2954
3073
3329
3441
4380
2623
-2388
2566
16758
12076
-641
4887
1068
2500
1117
2695
-1939
4542
3187
-8514
-2051
3803
2503
9006
-521
-1439
5624
3310
3753
12631
-1595
-2659
-1269
2752
4352
-6335
-1429
385
-2993
5718
-7656
-2264
-9641
-6998
-494
-147
3332
-1540
-536
3570
10872
-2005
-5560
-9493
-6082
22959
7841
-2200
-4553
-93
-2070
-8797
-2808
-13099
-5416
160
-5261
-5283
-924
-111
-1581
7831
4259
-1378
7078
-5192
-7818
-2640
4664
3524
-987
6649
-6124
-6
-3495
-7526
-5758
218
-3302
3888
-689
-11952
-2824
-9920
-8725
-9016
7183
10799
-838
8429
-7213
-6092
-9861
561
1121
6811
8924
-4966
-9845
-5818
-15300
-3980
-1031
-788
-1949
10396
5790
6188
9203
6017
-475
7675
-4964
-3035
3845
5108
1796
-1685
-1400
-5085
5114
1635
8659
12502
-7762
-292
-560
-2449
-1555
1200
-244
-4428
5823
-8546
-6917
2516
834
5515
10665
9266
6292
1127
-1078
5484
5598
1073
2199
2680
1232
-10749
5207
-2352
-11084
163
-4718
-78
-2177
-12999
-597
1544
-1845
-15927
-4500
4503
2452
4232
3532
-3019
-114
-997
3474
6639
-2909
534
-3684
-6402
-3202
-3633
-4134
-3653
6424
-938
460
-3443
991
5587
-5412
5705
-2962
-2159
-3295
2963
-4323
431
5211
-1821
2652
-4299
-2485
-2429
-2206
3709
5313
-5157
9252
-4277
2940
-1143
3528
3144
3217
-1072
-7
-786
1577
-3506
-2992
1225
2226
10788
4023
-1709
10296
3286
-2694
-4475
-8239
25
1539
-2986
-4978
-2482
1148
2465
8843
-774
1171
5267
2243
5771
-4539
10167
9986
3875
5420
1166
-184
-1811
1677
509
4648
2734
1295
3345
5628
5563
6309
1513
893
-7103
-8477
-2675
3804
582
4678
-2060
-2224
-5614
-7521
2788
8037
393
3581
-1239
2379
1766
206
3737
4304
4902
8564
3618
3173
28
3751
-6443
-4203
734
2145
3113
1136
5558
-3302
-2658
-3880
-7675
-5360
5314
6218
999
2259
655
-447
-1149
-1244
-2706
4008
-3316
-4335
-4282
-1196
-4227
-5016
-3239
-5387
-706
-30
-3857
3439
861
3264
587
3933
530
-2899
978
2519
-3742
-270
3787
-146
2663
-895
-1701
4488
368
1605
-4127
99
4316
-5177
1555
327
-11722
-5039
3836
-2393
-3278
-3213
6662
8377
9150
4994
-585
478
-1041
-278
-1028
4117
1798
4219
-3454
1622
-1203
4051
-1987
-916
-1733
2287
3104
9002
2425
6033
-1704
-1959
7575
1515
4370
-4105
453
2681
7080
956
1183
-3015
-3829
1162
-2694
-3692
5973
-5805
-2434
-2922
2134
627
-2518
-1552
-6184
50
-3063
6613
935
-4033
4019
-676
-7390
-298
-669
-5045
-72
-1301
-1699
-4674
7952
-2468
-1646
-523
2436
2732
-3333
-4521
-1834
-1877
-5401
-2740
-4251
1189
6230
4589
-1735
-2516
-2261
-1431
3691
-2135
-7661
-4325
-3479
-2439
-3494
-5411
-7203
3649
-3158
-4498
-230
31
-378
-2401
-6671
-1072
-2834
-485
-3934
-7229
-3285
-5320
-1548
-2752
-526
1500
-9172
-5880
515
-4188
1333
547
6496
6500
2187
1376
-10297
593
7066
-475
-910
528
-6537
-3093
-1170
-1832
-4219
-4343
3233
-1247
8317
1724
5538
4529
1461
5516
5433
5891
-2051
-2877
-9489
1102
143
3603
-2668
393
-13804
5623
2212
-6585
7253
6724
8076
9864
-2838
-82
-943
-4396
-18029
-3309
226
-987
-2470
6399
-4670
-431
-5317
7322
1646
5139
-1584
2675
1244
866
977
8698
11507
-3544
-3659
-2297
-2685
-2774
-8059
-3691
-6739
-3315
3694
919
1741
29
1308
2370
-1315
-422
1329
3052
2341
-1254
-9767
-5584
-909
7250
-8418
-7948
-5087
-4846
-892
4642
3158
-6489
-3908
-3057
-10015
-1272
-4039
-2258
-935
3569
3935
5969
9177
3318
-12364
-3306
-1504
-4062
-3490
1290
809
-241
5032
1450
-1428
-794
-4553
-4591
-5309
-2022
10484
11128
7744
2208
2619
5567
-511
-1920
-5405
4119
-3033
-8638
-8092
-3819
-127
-5702
-1311
5679
-240
2431
2170
1565
1840
-3406
4995
3306
6868
3344
-5808
-1186
-148
-8085
2293
2571
6878
5875
-6189
2836
-2335
-7650
-664
4244
2479
687
-1897
3422
1075
9205
5765
-94
2965
2485
-3780
-2347
-3611
-6381
-17590
-1166
-1289
-3015
-667
5424
-3469
7874
-3237
5654
1134
-2013
-7387
-6111
-1469
-3833
-1876
-311
-1173
-3107
1671
5843
-39
-1845
-10816
-3937
2383
-6790
-1808
2462
-2863
784
3372
-455
1345
5063
10103
5525
2355
-2193
-1737
-3408
-10197
-1640
-10065
739
-6693
-1508
2035
-2526
-3294
-7204
-6186
-117
-286
-6293
-78
-3661
969
-3056
1947
3204
-1475
-6966
3515
-5095
-9319
-11094
1294
1281
-1598
-3109
-10086
-6003
-919
-2228
-6322
2554
5148
2140
4907
5185
-1785
3247
-2723
-1871
-4950
2434
-2458
1821
6806
-2210
993
-3530
-2627
-2668
2246
-1085
-3260
4987
9309
10318
6562
4300
-753
734
1335
5740
-4966
-247
-3359
-2882
-6523
2321
-11185
-13741
2885
-2929
6450
-14827
-11168
10011
124
-140
-2545
7350
5823
-1629
-18561
1530
-4527
-12194
5375
-4815
5249
-4049
-7238
3607
11837
5438
5030
-2374
8819
6153
-1394
-2064
4447
1807
5972
-7176
1020
-3501
-1302
6001
4583
8713
-979
3534
3114
-4195
1546
8106
4160
3446
-1054
-10620
-3875
-1560
-13239
-789
-12337
-4889
-2221
2151
-7130
-4341
-3788
-4497
2165
1426
-16197
-5550
3071
2667
-3888
-5505
6332
-7310
4559
2602
6172
1065
2108
-13180
1050
7316
-4793
-3969
-7246
-1640
-7017
-6188
4492
-907
-5792
2885
10043
-17459
3303
-4532
6436
-1663
7600
-8194
5674
6196
-3427
5281
-10587
9467
-1942
-1841
-2205
3709
7459
-4876
-4810
-1765
3978
3469
-3769
2401
1490
3834
-4714
-1898
4493
10933
2796
-11456
5567
-2029
4272
6384
-8525
3955
3892
-2650
-7160
-277
-3467
-5663
362
11264
2819
7165
-2506
-755
-3933
-8024
-1720
10112
191
-17232
-1600
329
9627
7530
1795
-893
-6327
845
-15126
10938
1298
10658
5678
21461
9086
8504
-4037
10747
198
5529
2005
3589
2816
1034
2626
-1302
-609
-2717
-326
6231
9025
3799
-6118
-3971
6763
15202
3007
5656
2282
9426
546
9739
2169
-6640
10180
-1622
478
-3268
397
5635
12301
-461
1776
-3443
-2141
938
-1979
6676
-80
-487
-1206
-4964
-1454
628
-2614
-6703
4753
1543
7754
-1895
838
10884
-5600
-5425
-5499
-6307
-8861
1182
-1689
2100
1011
338
5381
-1640
7673
-1045
2253
-3494
-4304
-4018
4277
546
-3474
7229
-12474
2187
-6622
1063
7367
-8063
-1952
14726
5579
990
-4322
6210
6576
3109
-1418
6237
-391
4654
2787
7230
-4791
5405
1207
-4751
-4997
14154
889
4100
-4510
251
8122
5698
-11746
-10182
2501
8703
-2686
1004
6352
6992
1948
-226
6206
16450
9730
3465
-2337
7823
4866
17065
15835
8565
-830
10607
-5755
-494
1452
5296
-210
3515
2176
-6581
12229
-4890
-1721
-2376
-1739
3375
15837
5088
3761
4070
2758
15124
434
3816
-4189
1925
8097
-6684
-10809
1004
3057
770
-10593
-7188
454
-1643
13957
15300
7139
-7311
-6925
-8616
-5789
-9160
6285
-4527
-1695
4197
-4321
-26
-8358
-12560
-77
3464
5768
7578
-1466
-9463
-2645
214
-16693
-4961
6668
-521
-10784
4466
-701
3115
3869
-1380
8315
-817
-627
-92
-4908
11159
-395
5887
3595
7829
4514
3669
-2338
-4422
4340
6325
3845
2538
7079
3966
3418
-722
-15812
-7054
-3731
-847
-9441
-12486
-679
-5168
2098
2324
5861
10213
4070
17383
-14822
-4941
-1054
831
1519
-5416
-8091
-5568
-2895
-7172
6386
2401
-3102
1942
5589
6338
-3804
2773
-16643
-14513
-741
-849
-9342
-598
-10552
-15450
5405
422
-9560
-9602
-2117
-10136
2741
-4447
1374
-604
-15617
-5142
-4200
-6136
-3655
-2164
-7788
2488
-3155
1940
-3194
-517
-6998
583
2038
-10270
4178
4915
6100
1511
2886
6921
-5589
-3158
-630
6148
-6612
-3246
2929
3338
-3392
-123
10258
11763
8905
3922
4187
-4162
-7492
-5917
7167
308
5977
3131
-982
3696
-8771
192
-11249
-3396
4459
-5807
-17753
-611
-5605
-9465
-506
6422
-12083
-2540
-7164
-1917
9815
-825
8090
2383
-5179
-7798
4575
-532
1519
5231
4649
-4202
-5967
-9586
-827
2429
1679
1824
-1919
11303
4117
5411
-10865
-1344
-1979
-1497
-5271
-8671
12956
7416
-2891
-3562
2568
-394
-3332
-3535
-650
7808
6513
-3952
-16346
-2012
-2192
-348
5560
-2499
6930
2455
5357
1610
-9794
-1722
-2979
-1770
7800
7203
-253
5730
-374
6288
-3477
-3160
7602
59
3228
8387
7850
394
-10849
-9483
8664
1060
13116
-1574
5694
8574
4645
-3049
116
1661
4292
-2158
3653
-1515
-2491
-783
-12804
1547
4410
-1721
2122
-1437
-1421
-9477
-693
-3602
-3841
6219
682
2696
2358
1990
7957
-1741
-1060
-3882
-3407
-990
-4037
-5753
-7074
2100
9565
7863
-1982
6354
-11240
-11350
3460
3902
3652
6994
4376
968
-969
417
3440
6248
-6725
-7338
-2481
-13975
-3987
812
-9642
-5826
6719
5410
-4228
785
6028
5386
-2990
3722
11213
7113
5690
-1627
7378
2492
-9089
-3013
6385
-1533
399
2275
4930
2291
-4036
1190
7689
6293
-2615
1452
3020
-3211
-930
-963
-11
3382
-1221
860
-2388
-5447
-1962
692
1684
11907
78
1686
-1266
2595
-4978
-8539
-233
1072
4907
4127
13920
953
437
4574
7478
-1451
84
1919
-2462
-551
1928
-694
10372
3196
849
36
-7054
-5166
7892
3934
-1988
-3347
3709
2011
-1232
-2794
-3536
4207
4448
5213
8606
5188
-59
993
-3195
2268
2211
2023
3929
1583
51
2652
-5341
162
1001
1645
2238
-2564
-3481
2650
4214
-4727
-4598
-1206
-5851
7396
481
-2371
-3087
-1950
-746
-1732
5947
-3064
-4579
-5365
-485
-4891
-2241
-2924
-3160
1716
7881
-1342
-2758
-5076
210
-3756
-5212
3937
-6313
-9167
-4050
-4287
-5022
4462
-6036
-2247
-846
8078
-719
9803
2563
-4797
7164
1671
-6064
-166
7115
-249
-596
1911
318
2353
1442
-2222
-3227
-2722
-8476
-9246
4227
572
-185
-1554
-2336
2044
7582
3671
-8672
-1794
2918
3072
-7030
-2215
2108
-862
-1540
4407
-7706
-6630
-11606
645
8778
-1055
-1332
553
1923
-4909
-435
-6790
-1707
4112
4201
2312
2542
532
-3597
6734
3483
3928
-6474
4862
2633
4930
5358
-1581
6835
5652
-1789
2372
3340
1259
1805
2704
1804
-2637
-2512
2634
10843
8420
5822
4665
-2678
-4445
-1520
4245
1640
1597
9331
1275
864
1003
-7633
-956
-2488
2463
-1453
-723
3098
963
-9403
4548
3614
-6143
2676
3671
4411
37
724
1438
-6608
3573
2579
-4852
14100
248
6559
-6177
3982
197
-3632
-4499
6938
-7632
3082
434
10553
2073
16984
8140
118
-9209
754
2268
4776
-2775
-5987
901
-4470
-2389
2474
-2858
95
-626
-261
10750
-2494
5110
2524
1205
-5258
-8007
9449
-2079
-4908
841
-5378
-7304
3893
-5195
-125
-2819
8697
-13
11644
4428
3276
-760
-3889
5783
-175
-489
2062
4234
16583
2548
-1398
2369
5121
9306
-2240
-2909
1797
4540
13258
-3733
-6039
3855
-5457
-2901
1246
4983
1986
2119
-1171
1503
-7363
-13168
-12937
-5613
-8211
-1105
-2988
-5808
21917
13035
6877
11360
7432
-3051
1064
-5623
-2201
2273
-218
-425
-8294
3633
-4504
-3802
6750
2978
1280
9401
2256
1813
16457
7562
1862
-6806
-532
183
-2959
-14418
-4730
-13153
1430
-1650
-3093
5010
6488
2331
680
-5078
-6706
-13842
-7208
-12616
-5621
728
-2280
-4675
-26312
-12438
540
2573
-214
7054
4260
-552
-8873
-3657
-2004
6684
-9019
-2261
2814
280
4272
1234
4658
-3712
4410
16188
11301
7862
8304
1312
-2427
-2512
-16202
-8162
2690
-291
408
-1970
721
3836
4327
6106
4285
-488
9921
7613
7555
10120
-5512
-5833
992
-1709
7371
1812
824
8919
1953
-658
2066
8719
5718
676
-1867
7064
2362
995
-4421
-10590
-16316
-14127
-9893
-9317
-3359
9847
661
1295
-8971
-9598
-2061
-2418
-2484
-15741
-4035
275
6231
1423
3087
1477
10470
134
676
12060
8328
8224
6831
10537
-9953
-11595
-911
-9729
6073
9858
1141
-4448
-3421
1761
765
-993
-12361
-2215
2317
-8647
274
1481
-4963
579
13808
-1202
11359
4003
-1507
9265
3712
-2342
1131
5356
11052
4488
-12137
-709
2771
-2278
-5157
-5339
-8626
-13405
-4603
-3672
525
-4356
-7922
-771
-1867
-3293
-16049
-8563
-15962
-17668
2280
-1252
4067
6241
-7152
-15048
-3532
-6075
-7339
-1031
-11106
-5860
-2211
-3728
-7974
-2590
2451
-167
-1896
-4377
-8693
-10676
-1605
-8644
-1040
3072
968
-9803
3463
-4572
626
8512
-24802
-3675
-8353
-3236
2682
3121
-1164
4049
-6264
116
7229
-2973
-16437
812
-1239
-7432
-16904
-7401
248
-13794
5099
-327
7053
3736
4288
-1230
7140
-2278
-4086
-435
10137
7201
1605
-7131
4777
667
-9747
10206
2336
-693
-3728
-6285
-4029
-10880
7377
-2917
2479
6387
7369
-1613
-6967
-5268
5671
10645
6196
12282
2890
5943
4218
1938
-3249
6022
-1627
-6401
-12340
-5847
-14400
-7468
-7307
2137
5465
1040
9061
5948
15920
559
-4899
1295
3431
1499
-16301
-1933
5047
557
-18266
-5474
6863
-9567
17824
-7730
-6492
-3886
-12190
-7394
-7416
-3384
-9892
-3366
-7480
-6670
12981
-1308
9001
3486
-6043
-5531
-10107
116
-15061
-5704
-398
-4638
1906
3967
2291
5511
10921
-640
-2276
8080
-4820
-22096
-18354
-11850
2107
5781
-322
903
-4487
3162
66
-581
-6262
7482
-2960
3455
1142
-7273
-12881
-10186
192
2474
-422
3847
4239
-6325
7894
-2090
2080
5583
10607
-4123
11350
-1056
10529
4617
-11974
-1524
-7188
-8733
-1406
1607
2757
-1359
-19899
-4048
-5419
-11782
7723
1839
3283
-6800
5131
5604
-4372
-6346
206
-3307
-1018
-2256
606
6031
4307
-5310
-359
4570
10143
7873
-2691
5153
2686
6491
-14780
-8602
-1134
-10115
-7694
5414
-3912
-1864
7484
-1847
5193
-1331
-175
12878
5094
5285
7794
-4055
-7273
5207
-11477
-2022
4870
-5491
-8440
-5740
1825
1857
5091
3182
2042
2499
10723
1841
6516
7648
-4841
-4627
6916
4729
-3714
-4011
2559
-10216
9840
7666
6694
1261
-2632
4320
2092
5279
691
4813
2624
7840
-14809
-6239
-4407
-10176
995
10589
3972
954
19251
-747
-7699
1572
13405
1639
95
5263
2291
496
7721
6223
-9039
-23
433
-7093
14491
-3893
-10608
3576
9414
6949
4416
5605
1030
-951
-3984
1930
-13078
-14864
-6815
3262
11649
-2544
-1568
-361
-8118
-2894
5642
3261
3621
-2691
-5916
5711
2509
-8338
-11083
-5120
958
1449
5639
11673
2217
7606
2740
5084
3467
5228
9044
4921
3880
2917
677
2251
-1346
-5573
-7360
-8012
-9979
-5302
-9854
4049
-5412
2930
2269
354
837
-9382
165
3875
8584
5482
13081
1868
-3363
765
-157
6255
-7435
-13765
-11381
-6535
-1199
4452
2472
4517
2860
9026
4971
5204
11385
753
3223
4154
8140
2317
-4684
-9876
3020
225
313
4666
-3256
2110
-4313
-1751
2625
-4516
-7913
-5979
-3534
-12353
-3562
-4383
-8456
-9492
-14686
1817
7913
103
6200
4971
-8667
-2256
2127
-7583
12315
6291
2511
10606
1108
-2953
-5245
-2886
12487
4066
13235
7717
3936
1879
1120
2380
2810
-4970
413
-1141
-7861
-1449
-3206
-610
2678
833
-4084
5162
4789
-7113
-3478
-10356
1783
-44
-1292
4093
-8097
-6979
-5965
-7085
4044
1022
1120
4801
-1820
-11726
5225
-2833
1450
34
-1326
-374
-1210
-7324
1083
-6424
-2320
-5964
6540
-3291
-1212
-96
-2964
-3154
-6862
-10357
-5697
-2422
-1218
6301
625
1519
8584
-9736
3170
580
-4644
3730
2873
-1380
-3226
-1886
4461
-413
-650
-6827
-6246
-492
518
4272
150
1904
4169
7111
2192
831
7888
6290
3187
985
-18
-4872
5055
6359
5457
1970
1733
-483
1397
499
885
-649
-316
-59
3885
-4829
2616
-5987
-2104
467
8661
1454
-3305
2395
1611
568
928
850
-272
-5820
-3726
-7508
6971
6637
1884
485
5357
-3938
-5110
1634
1970
4104
3079
-2555
-4602
-1122
-4027
-4898
1251
-10509
-1345
3058
3864
4310
2812
204
10549
3830
-2480
4239
2660
-8298
5366
4688
1124
-9671
-2936
-2234
-598
4183
-1200
-1927
-7943
63
669
-1427
-3181
2765
924
1399
739
-2823
-3216
-7591
4184
-1159
-4654
-3745
-3286
-5028
-2564
-2290
-509
443
5509
-2937
5989
-1842
898
-2616
-7324
-1757
-3632
-104
-4036
-3506
3479
-3289
7803
48
460
-390
-5741
-729
-5567
-7826
-2833
-1327
-2247
-1726
-4820
-6216
656
-4982
-7039
3610
-322
560
9205
592
-7470
-10201
-6132
-5423
570
-2909
520
-2501
-2041
-2949
1087
3335
1305
3676
-3950
-1223
1238
2641
-9969
921
-130
-4205
-5688
5348
893
6713
-1724
-4517
-3400
-7516
-5966
-3758
-1440
-3434
-6259
-2550
-7029
-9535
192
-6804
-1153
-3562
3227
-7666
4106
-760
-1208
7308
-2068
-2069
3173
-3893
1769
2186
-1622
2935
5698
2874
-692
-5480
-2379
-8970
8297
-753
1886
4021
-2124
4260
-2003
1774
4806
-19
887
1659
7284
-315
-550
-2208
-536
-3535
-267
-6212
-9128
-8927
-6527
-11825
-1047
-108
-381
2640
2456
-363
-3562
-2100
993
2350
-1605
-1396
2370
2675
4612
7131
-6275
-14532
-48
-9781
-1772
4049
-5131
-4705
-5079
-8087
-4754
-1685
-5188
-4487
149
154
5438
-1511
3166
-1505
-628
-12573
-10377
-7254
-12549
-6372
-852
-1203
10245
442
1652
4849
11193
941
-3835
7477
-3725
-4925
-4780
-3899
441
-7783
505
-8099
9846
2290
2274
5710
620
-1405
2149
-4636
3723
-9653
-8665
-9162
-3550
3329
68
-673
4384
2669
-1566
-5071
-5225
-7044
3969
-5818
1691
151
5287
-1438
4698
-3259
-1028
-5369
7944
3201
11012
-3419
-8963
-2080
-6919
-4886
6936
3460
5871
-1646
2393
484
-3285
-2005
-687
-9888
-3654
-2019
-4084
3266
748
2523
-1529
3706
308
604
-200
-2670
-1102
-830
1997
-5217
-2164
2173
-3713
6173
4762
4934
-395
937
3111
1365
1766
176
4491
58
-3567
-1622
-3362
1426
-8910
-5077
-2507
-1363
-8576
-12214
-3048
909
3807
-5823
-220
1238
9779
-2258
-419
-3102
-3761
-6660
-1243
-95
4687
-2166
-4721
-2692
5252
3459
2494
-2586
-73
-2652
8666
102
7096
-1997
-1129
4025
-3811
-4918
-620
-11558
1569
-1826
-2032
-2648
12178
122
-2467
-354
8269
-4755
-601
-3516
5458
-195
-2180
4040
-3399
-1277
742
-95
10774
-9802
-5712
-6242
-333
-2003
-7543
-3389
4457
3907
-4114
-2818
8987
-1032
1755
2394
4687
1612
-5306
-1716
-7221
3310
-2671
-5106
-2104
71
-12557
-7881
-7028
-4692
-3110
-7348
-2502
802
2399
9447
3423
-1896
1249
231
-4284
-2153
-121
-4527
-1151
-7437
-356
-615
-5966
-2561
-5258
-1474
4992
-6574
-572
-154
-6640
-4821
-4513
-11622
16565
1666
4028
6689
-4192
3476
1486
1320
-3163
-4081
-1192
-2826
4633
-6353
-3808
-7627
3520
-1164
-521
-3608
3464
3576
-1152
-6296
8030
-830
2180
2104
7567
-2168
37
-3716
-3336
-3339
-2620
2573
-755
-4591
-4280
-4281
3547
2243
-2629
-3063
19162
3397
-179
2172
-1686
-3873
-4680
-5087
2889
6601
2293
7680
-996
-6114
-6526
1948
3913
-6323
-735
-6189
5466
2759
2468
8954
2837
15511
-538
3312
-15340
4168
1454
-717
-10857
11686
-3004
-11755
8960
-5782
4757
1604
3941
3465
8910
11149
5311
-2936
6989
-8954
-5529
-4148
-8458
5684
-485
-12498
10530
16356
-11192
8522
-14863
7821
7538
6818
8486
8105
3333
-6808
4439
4199
-8153
13922
-11997
-2782
4863
4652
-480
7538
11432
426
681
-17483
1728
2219
4697
-6022
3575
-8114
5066
7954
2988
-2076
-2701
2781
-4812
4741
6774
9664
-4675
1975
-493
-8217
3011
-7801
7015
-730
3899
-2338
7220
1348
5315
-5782
1925
-1868
632
1351
5796
8227
255
292
9820
-5716
-12241
5476
1346
7980
-6805
-689
-9929
4959
2044
-2683
4183
-4426
-4111
-5356
-3160
-5695
-8061
14516
7317
9158
2494
-5358
1660
7348
3621
-815
-973
-1612
-3450
7867
3356
4285
7937
-3923
10868
10358
-1415
7351
-4243
-5498
10521
-12237
7774
5847
4871
-2735
-5186
11709
3474
3934
16138
-4724
-16321
9996
-4279
1785
5253
-5545
8828
2087
4435
-1085
1073
1816
-3482
5815
-4088
3182
-9134
2435
2111
-1963
-3160
1438
559
3513
2045
4901
-8381
3224
-3917
-3282
1576
-674
-1602
2401
-3761
-4967
-1372
-5425
4443
-8947
-2669
-8002
-3456
2196
-4775
-4041
-3210
-6393
-3734
-935
-523
-1856
-5469
-713
1587
-224
7566
-175
-2909
3275
2546
-6028
-7272
3116
-2975
3609
-3143
-6192
1321
3580
-5247
-6900
-8496
-2833
-97
-438
1047
-2886
-4944
145
-1119
1322
-1856
-3183
-2826
-3093
-5414
-12520
452
6055
-1911
3765
1904
812
5753
-2200
-2076
-8831
371
3567
-6387
-5639
-10400
4168
49
2711
2040
-4291
-1059
2040
411
-964
3444
-3643
-1716
3252
-75
-4370
-899
2123
-10380
-4170
543
-343
-2159
1053
60
-4300
-884
3077
771
3030
-2590
-3702
3180
-9404
4666
-10672
1559
-2459
-2101
-10355
1274
-786
-4844
2083
-495
-7458
-10600
-1978
-4017
-2524
207
571
-2076
296
3887
-9650
-2668
-4438
-14556
-1998
3730
436
4665
2297
-126
4351
6971
4773
5715
4509
3669
6693
14587
11385
3019
-5054
6228
10004
-8878
-1675
10589
6872
-16089
-20429
-1054
6269
2539
-955
4615
10160
-9483
-11328
3991
3963
-7722
-653
-9423
-13650
4878
9415
-5695
73
-1693
-9794
438
2612
6023
-3940
3549
6850
10765
12094
12696
13681
9245
340
2552
-547
-2226
5874
-5417
-4472
-9663
-9882
-1122
815
-10446
3368
897
9481
2576
-2701
-6917
-17181
12029
17514
17144
14472
-6510
-12103
3971
-7202
-11900
-10906
3110
7170
5894
6325
7078
1099
6498
10941
4523
-1097
4369
4765
-6475
-3437
847
-3497
6665
12573
-6533
-7975
4495
8085
-16877
-8566
-7262
-1982
5807
9362
8779
2250
6737
-1118
9805
5754
7631
6828
6651
1138
4054
10515
-12614
-18076
-3572
3556
-8340
7315
12075
1639
-13616
-5456
10929
-5524
306
-4547
-8736
-1414
12828
13278
1330
-5968
-3836
-6598
2421
6276
1626
6511
-7051
-7702
1115
3396
3872
-42
2125
-2774
-4821
3481
7368
4169
-2267
4570
-8730
-2473
-2636
-1234
-8232
-6089
6146
8704
-6412
-10237
8042
1336
-1705
-3581
7956
8048
6167
1403
5990
1369
-13429
-11460
-2113
4245
-4454
-4840
-5422
-2104
-4770
-2079
4549
7153
1735
2009
1285
-5641
3194
-995
18064
14944
-1627
-10558
-20207
1264
9051
-578
696
-2799
8804
5513
-872
5326
-5232
-877
-11939
-3165
-2583
-1882
4654
-231
3401
-4255
14913
8130
-121
-699
3291
-1953
-3797
-6575
1183
-3380
-4055
-1171
-3446
-6198
7881
9184
-85
8757
-2623
708
3882
7462
-7786
-12320
3265
-2423
9534
8038
-1763
5311
-14550
-10858
452
-4796
3702
1514
-5057
9514
2876
-2503
5069
9550
453
6912
746
369
-11648
-9086
-674
11769
-435
14176
1991
123
11381
13558
-2447
-1391
-6029
-802
954
6371
-10182
-11250
10585
6796
11575
8518
3819
5283
438
-4208
4955
2005
9925
7194
-6269
6370
-1211
1113
17490
16218
-6203
-7789
-16579
-9486
6032
8990
-7161
413
6281
-1944
1360
-2086
-5330
-3514
1916
-3123
11894
2828
-1619
-3114
-1153
-6801
-1587
-1540
4419
9648
2088
-2192
5571
564
-3561
-5698
5782
4849
-12094
-11144
3413
2534
1101
2760
2777
-5985
-5883
-10300
795
-858
377
-1247
-7673
-6363
1862
-1143
2609
4775
-1517
-2840
-3251
2052
-1921
-1559
-3449
-468
-4514
4116
2139
3095
-915
-2277
352
-1279
2248
-9782
-11770
-1783
-3805
-1431
818
-3934
5755
5561
-8695
-3068
-2708
-6756
-7976
-602
-5346
-1168
6652
2457
-4105
-8001
-5357
-2042
-3568
-4056
-4921
-5843
2143
1637
-1387
-4370
4177
1940
4378
340
-5482
-5546
381
-4500
2290
-43
-1760
3048
8836
4856
440
6683
-3376
-9356
-833
-2147
-3838
2016
-5108
-4868
-1106
-5524
2579
410
-5352
-5181
61
-6116
-7749
-4374
-7558
-8540
2851
352
50
3292
-6089
-5696
-4918
2885
-3506
-3624
-6052
-6700
-1323
79
-3176
2033
3491
5796
-3682
-4205
-679
-5111
688
2014
902
1129
602
3965
1605
2612
-1794
1628
-4205
-2171
-329
2015
-1873
-2212
-10010
-12439
-3152
1864
3541
4773
4715
-1160
2033
6198
-3374
3013
-3336
-2717
3518
3544
6054
5270
-3131
-2538
-7010
-5543
9715
-2487
3208
3893
720
-2679
-771
-5270
-5217
-5506
5810
12241
1953
5326
-5786
8
2869
2085
-1608
-6569
-4845
-999
233
3578
1674
1405
-2551
2655
-4956
794
1199
1644
2164
2246
-8425
831
-4052
-5304
-3723
-4703
-1533
6309
233
601
-3306
-10523
4933
-3601
2567
787
2496
-515
560
-4077
4256
1223
-1232
-3393
-3332
-4761
-5244
338
601
-1748
-3511
-1661
3830
2577
-8324
-3016
-2105
-3736
203
-1137
-5311
-3767
-2450
-74
3006
-2635
3440
6878
-2068
-1399
2898
807
-8897
-6885
5724
1969
3808
3980
-773
2132
-3513
-879
-6608
-863
-2666
-7143
-8019
-243
-11792
-674
1444
-4070
2814
-1729
-4602
-1623
-2835
-1340
-1619
5249
5948
-698
2043
-530
-6326
-4163
2072
-5132
-5834
-9307
-10084
1362
-2045
87
-1562
2968
-3373
-2205
1791
1337
3043
2315
-4899
-2333
7683
2318
11309
10253
-2187
-67
9776
4773
2583
-4260
9095
-1902
5099
5593
2006
15563
4623
11523
945
-3741
-1093
29
14559
9301
5542
3891
794
2270
-1925
-6667
11568
6029
6418
12855
-12039
-13260
-16458
-19892
2754
1073
4322
-7842
6633
1629
-1489
-152
6431
6645
5396
4479
-10074
-9931
-10996
-20530
8298
5558
6312
8735
2212
323
3981
-3457
-10154
-10135
-5424
-8302
6555
2290
4611
4239
-9521
-5266
-8935
-2152
-7777
800
-4506
-1076
6805
3125
-6761
-3075
5716
-523
4659
-3754
881
1426
-365
319
7518
8919
17568
12035
7760
7125
9948
6484
6250
1685
7513
1342
4752
-3106
-6427
221
2125
484
10257
-2767
-6600
-3857
1148
7829
-2539
-2392
-17118
-7271
4607
-3131
-576
1173
-24779
-4822
-9075
5493
4756
2353
6802
5811
6955
2356
-2966
-7010
-4785
-9543
-12543
-10613
15109
13756
13654
13890
12530
12485
14951
14927
-2386
-11220
-8421
-6038
-5563
2888
-4071
-1719
-1370
-4802
-12969
-9972
8997
7782
2014
1702
10387
8885
9867
-811
4921
1376
3804
8321
11650
9488
6778
14667
1015
6061
-2018
-867
687
2672
7715
3645
-7096
-10613
-2491
-4676
-2997
-19
-1109
-1133
5592
12646
11950
8382
-14178
-11405
-3327
-3244
7570
15359
14306
9374
-3943
-12981
-8639
-10949
-6505
240
-8625
-3971
8313
261
2574
9024
6491
7305
4387
6796
-4135
2123
1848
-1919
5838
13498
4060
5946
6699
13355
12603
15651
4383
4857
-2163
-3525
10568
-4168
1231
3125
-12230
-14280
-17349
-17895
4526
1478
-8895
-4610
-812
-6448
3818
6895
8554
3651
4769
-2957
-6587
-14846
-12643
-7409
5265
4390
4331
6179
-3385
-7431
161
329
3144
5552
-2491
-1805
12018
8304
9190
12737
-2311
-198
318
-8080
-6163
-2256
-4796
-4108
4485
-6189
3363
954
8164
-1425
9458
2506
-4357
-1245
-1478
-5237
1339
3795
-1191
3773
4382
-292
4744
-3516
11434
1474
-4727
7256
-6898
-3677
-7100
-3619
7057
7395
10448
2091
-2035
1074
6453
-6464
-15409
484
-7896
-13383
1452
-2527
502
1310
421
-2099
-5074
3635
364
4557
306
8678
-2262
-4696
4005
-5654
5431
6241
-525
6919
1571
7612
-22
1588
21255
7201
9729
7610
9788
-3776
1354
5871
9860
1457
9983
3486
-8590
-10463
-4497
-7297
2769
-2646
3260
-4882
5676
2330
-310
-4759
-1148
-1848
-1055
-4321
2756
654
-8853
-4122
-448
7085
7123
872
7041
11626
10917
1471
5801
851
2418
-3665
-5588
5795
6125
1454
21219
12823
14242
19075
-9458
-2912
-10810
-10688
-22396
-11811
-6132
-2754
3926
1254
-5001
-1619
-2570
-4750
-10133
-6460
4635
8456
7293
1325
-558
658
1555
824
-4512
-7361
-7669
-2231
-2214
2868
-640
-826
-7344
2437
-1897
-5127
-6109
5302
7372
7250
-3412
4981
-9265
5646
3256
10588
10247
14223
-5704
-1959
2745
-2195
5714
-2024
-1260
-1067
-6285
-4582
-884
-6683
-6004
184
-2901
331
-1566
-603
-4883
-3267
-6807
-3444
-2499
-4626
244
10013
13890
10160
-4812
739
1056
6981
-227
1580
3433
11864
7276
10
2578
4119
-8212
-7825
-4869
2709
5603
1882
-3528
-4251
4489
10557
2545
15128
3306
-542
2435
3808
-8579
-2389
-8733
-12792
2398
2699
-1352
-7564
360
2576
6777
-1271
-1093
-6477
2891
8988
11488
-2837
-838
2055
4701
7718
2992
10726
6343
-4670
-5486
-2032
6350
4448
1990
2248
1403
13
-5570
-10310
934
12392
8914
15009
-433
-587
5045
5468
5919
4301
4008
1138
11068
14443
10083
9287
-7538
463
4389
4299
-1916
818
5084
-7361
9615
3397
1610
131
-3757
-7313
-424
-14173
7713
6046
3440
3042
8523
6900
3095
14977
9834
5409
-379
-1040
-3475
674
5152
2794
1855
482
5129
-3425
2668
8383
54
6577
5479
1568
6359
3543
4794
6493
4975
4787
19011
7159
8861
10643
2554
-3620
6911
-7277
-19225
-8642
-11248
-11983
6459
7938
5330
12344
49
-2351
5137
1720
-94
1807
1536
-1392
-5258
9654
-5507
4773
-10794
-3135
-19172
-11111
6401
1625
1120
-1568
4547
16865
-800
5420
6318
-565
-3128
4265
-4961
-8201
1392
-226
-1490
-6590
-1349
2381
-1601
10752
3889
7541
3212
2903
-3690
6706
2446
-1770
635
985
-3181
-353
-10741
-11220
7841
5793
1861
6058
-9261
-6664
-7620
-4677
-675
-3802
5882
5412
-727
-3938
-3947
3370
2441
1889
6544
7885
-3480
-6355
-4723
-12087
-1315
5331
-153
2620
-419
3867
5306
3694
-7186
-3209
508
-4785
487
1144
-107
-2571
8068
693
-3
-5716
-7059
-1232
-9708
1776
5798
-1715
-6304
-1702
-218
-2341
-2475
772
2715
305
-1788
4182
1212
1841
-2894
5620
2020
5270
4349
3379
3093
-1478
-3816
-409
2327
1831
-2518
-1861
-3743
699
-5850
-5521
-10851
2323
-1515
4666
-5578
-4524
-4917
5260
1143
-2118
1947
-2700
2345
-138
7890
6473
949
-5099
-1441
-683
-1246
1273
-5580
-3464
-5049
-5324
-9895
1278
-5111
-7504
5486
-1829
7632
7179
4491
1442
-3521
-8642
-4710
-8006
-8819
959
-2209
-6182
-1930
-2554
-675
-2604
1194
-8079
-651
-3331
7359
1370
3595
3565
1079
3255
1103
1144
654
4346
1065
1127
2547
-886
-314
1647
-3808
-3012
-3748
-209
-1789
2197
6
-2679
-327
2022
785
-345
2086
3065
4100
1896
-876
3634
7132
1270
-1519
2723
8559
3023
-8293
-4322
-4047
-1749
556
-2088
-1390
-85
-1985
102
1856
-312
-1457
-1666
-4785
-5553
-6688
-5635
114
-4707
6208
9018
-2087
6431
-501
1157
1382
-2422
550
4642
3788
4034
4486
-2114
-3806
2538
-14991
-9934
-8427
-10177
-2821
3453
4252
3378
4751
-6537
-3936
450
-3396
-4352
-2266
-5770
-2872
-3532
2345
-3788
-763
1868
950
-1834
-3379
-2878
-11335
-4761
4198
-1033
1478
244
1571
-1531
-3316
4990
-53
6187
3250
2415
-1053
3218
-1340
988
-1918
4619
1470
-1649
3557
1530
1802
1349
265
-335
1282
854
401
408
-4697
-731
-1109
-2804
-2730
1378
6337
-4967
-3507
-2125
-1057
1797
-2343
-335
2152
-166
2211
997
-959
-5413
-3941
-185
-6144
-3423
-5673
-5580
3603
3194
279
7149
-2041
1884
2286
4929
-444
1475
2366
2846
2220
3585
-2005
3722
-310
7311
-6374
5924
1844
613
-1106
3833
13007
3018
1035
868
8125
3924
-534
-4062
1531
-4564
-2457
-4645
-1188
-6085
-10398
-7728
499
267
-5386
8804
-4741
3114
5427
2831
-1177
-5287
-2086
-526
2800
-13159
-6420
-175
-2104
-2490
-1658
-4657
7709
7077
4203
6170
-218
3499
1212
4691
-5245
-1481
-7573
-7116
4653
-2036
-4792
2189
1283
-15690
-2387
-7121
-4906
-5522
1542
-1785
3153
6687
4167
-2190
-3760
-1590
235
-4807
4988
3073
5278
5035
-241
1743
-1029
4032
36
-1895
323
-3972
-827
2043
2459
-521
-6652
-394
-5605
-4596
4993
5963
5431
-2534
-3052
509
-3110
3655
2632
3591
2815
1218
-1836
-1591
4887
2131
-4462
2181
-2828
-3002
-5533
4929
-4936
-2745
-635
5580
3301
4816
4212
5795
-840
-3553
1185
441
-3656
-2899
4800
5861
3542
2843
-1112
3351
-1804
-164
-2611
-5246
451
-4972
-5323
2151
3699
3304
-6805
541
-8484
1802
1727
565
775
-3066
1683
8522
1780
6383
-7658
1035
-1238
3486
-4217
-4883
-4317
3049
-1425
3319
-860
-2230
-995
-1133
-889
-1466
538
-1015
6691
3163
2240
-5013
158
-3847
-2001
-844
3181
1396
-676
-271
745
-5867
4725
-1976
457
8394
-1882
-1682
-11212
-5940
3397
1964
7732
4166
973
6809
3964
2324
592
4041
454
-2983
3823
-2454
-655
-388
-2146
-5855
-1535
-1198
-5212
733
-3385
-5798
-7167
-1545
-4889
-617
-4331
-8419
-9524
-11103
2327
-3774
-3211
-7320
4297
7329
4051
1014
9907
2438
1267
4551
1808
2831
2751
-2339
-985
-6053
-1228
-2387
-899
4650
5110
3094
3999
1854
9834
8676
-1370
901
194
-4776
1744
-6118
-4719
-1599
-6547
-7606
-377
-5868
-4062
-12022
-5203
-4267
-1619
3249
-5347
4272
1078
-2243
-1462
-364
9056
-1756
1053
-742
4243
8128
9057
-1881
4833
-1449
963
-1967
128
-1735
-851
875
1896
4786
-5984
102
2410
-1231
-6827
3310
6541
-4458
2690
696
2999
-2244
3704
-8080
5453
1719
8733
-628
-3259
-6828
7421
-5023
1141
7462
4744
1110
2986
-533
791
-4100
-4801
2963
3081
-1448
4481
118
-11075
2901
5327
1778
-7097
2762
-5607
227
7787
202
-1023
-2167
-1487
-5963
2243
-1708
6005
551
6458
6236
2993
6984
4604
-4878
1736
-10426
3201
1403
-6214
-2904
5533
4582
4165
-9070
5580
-5878
5569
-2185
987
-3653
-449
179
-2312
965
1648
6024
-1638
-3614
1400
2622
368
-5523
13226
2921
-7524
-7483
-1870
-4717
-3834
800
2817
-65
-3154
3693
5569
-535
404
-8529
6345
-5033
-3560
-987
-8574
-3964
-4480
-2850
-1206
-42
1476
5675
7946
6134
3221
-5297
4238
-26
5408
-3050
4913
-6445
2056
-6043
2690
3267
-2828
2478
-2325
-2030
-10083
3300
-4800
-1553
-5600
-6256
-2802
-3415
-2884
-2202
5039
-6025
5266
-801
-3899
901
8271
4106
-6028
-11625
-1515
472
-1992
87
300
1210
-2960
6303
6732
5172
4219
-7743
4924
446
-4183
-1716
-4710
-18679
2979
8970
1308
-871
-4768
-1749
3409
-3260
1870
-9269
2017
-2304
10448
-1424
-16932
-1469
-8697
7009
-6102
-2489
-8131
-1707
822
13624
11498
-5617
13765
4397
-5780
2262
-1316
1005
-4674
6858
-6481
3117
-606
-2513
-7943
3684
-3358
2018
3052
10980
4807
-727
7792
-1603
2002
6209
2514
-4062
7424
170
-11653
-925
-3488
-994
-5706
43
11252
-1413
-5139
3728
4453
2991
-301
5161
-1407
-557
797
-8514
-1998
-3868
13107
-10246
-8663
-5973
2927
10784
670
-4659
-10552
4030
5916
-6221
-2174
4644
3957
428
-4610
1294
-680
-6344
-2383
6628
-3486
7835
4787
14461
-439
-3260
7803
1128
1739
3868
-2847
-11731
8595
2899
2638
3382
-2556
-2823
2774
-8115
-2914
-2101
3126
-5831
-3651
18745
12973
-2370
471
9016
-6111
18031
-3334
11243
-16453
4902
-2097
4812
-12401
6207
816
-9189
-2593
998
3748
6544
4246
12605
1906
-13648
458
4158
-1160
2425
1161
796
8947
-3062
-6015
-7890
-9809
4204
-1041
52
-4563
-2124
-6439
-3166
-4263
7563
2266
8109
-171
7333
-6773
13417
-3646
-13478
6204
9256
5751
3944
91
-5732
747
-3982
-6536
-3632
1079
7681
2411
5205
-2653
8138
-123
-1670
4868
-2386
13330
-852
-6796
6665
5073
8552
-2977
-4976
2013
14768
-8818
1227
-8472
-1758
-2649
3401
-3448
8937
3023
-5740
-10348
-1632
11692
6858
1825
-16269
-4452
11544
2864
629
12
-4405
-5747
11371
-13053
4182
-2543
7308
2418
-329
3605
4119
1542
-6007
-9176
-2784
5836
7565
922
-4366
-5661
-8759
-1583
1490
-2915
-1959
6969
1982
1782
3922
-2704
2083
3709
-1353
6816
546
-2573
3996
6328
-168
-997
-2790
3707
-82
552
-11847
241
-2689
7668
4922
-4549
-1829
7790
3808
-4102
7619
1213
-12444
7471
1477
-6282
-10069
-2897
13210
-9231
6834
10545
-6671
9195
7290
4059
1625
3976
-7184
6728
-2982
-1087
6748
4879
1795
-1860
-578
-991
3945
-3041
9965
-3411
4472
-6705
6502
-2817
17170
-4602
-2687
-2164
623
-5298
16194
3981
4918
-9402
-1997
-5503
1367
3081
4722
-9105
7343
-2201
1685
-4385
-2078
-1333
3821
10259
-10990
-9977
1199
7195
2378
-2412
10645
4216
4504
-2615
4783
-4219
-3081
-197
-4879
6969
-3264
-1148
-7721
-1760
4506
4547
4331
-62
-485
-6930
-11320
-3288
8591
-4585
4754
2225
-1281
2896
2755
5509
-11872
3148
7405
7662
2396
13347
-1705
6408
-2274
-3308
-5984
4682
1965
-2624
-8795
3456
-3756
4455
7146
-3821
-2025
3006
3745
8442
4267
-5356
7837
3851
5036
3871
-7789
-5352
6047
-7457
18364
-11426
5314
3109
-3701
4047
-8667
266
4359
-3169
-643
4677
-4050
-2377
6557
-8737
-7632
-4284
2593
4160
-763
9412
7354
7746
-3275
-7489
3328
-2797
-391
-1021
6081
-1264
-4402
-2983
2946
-6804
4655
4027
-2216
-2585
-126
-309
-734
-4071
-4334
5439
7401
7423
-14027
2751
-3223
-4342
-2954
-2296
-499
-4213
481
6519
-921
2564
16877
10264
4096
11716
-2815
2888
-9437
-3530
2118
4620
-6492
-2374
-4369
-8181
2965
1413
-4870
-4213
1116
-4339
504
4301
465
10033
1514
1293
-5936
-3311
-4907
-2099
310
-5237
-467
5832
5127
2632
-7136
2437
1940
-1713
5003
712
2275
-1138
-382
5864
2400
-1691
1184
-9556
-1769
241
-559
-5393
-9920
3984
1869
-3718
-6855
3767
-1466
-7175
7165
-1254
-2731
2305
-1753
17782
-3762
4863
-9465
-2549
-296
13783
-10311
6686
5084
-4294
3532
-1834
-1674
-1399
-3297
2274
-7620
-2821
-4379
7775
-570
-8316
1619
4139
-1608
911
2430
3474
-1152
-2725
-36
4562
891
3442
1420
-738
2570
-1952
-8496
15823
5006
7930
-5068
-822
3338
2448
-7481
-2663
-7170
1286
-1279
7636
-6964
-254
4042
2838
3132
4493
1522
-3285
-4755
-10505
-547
6735
-11563
-3984
-1232
-1320
-7370
-11498
5761
2635
4414
11867
-5414
2661
1762
-8446
2944
7541
2146
1978
-3841
5795
-5552
1337
-3622
5797
-6506
-2212
-3648
-1678
-9158
3275
1579
-1827
5499
-822
-166
-3380
-3583
15610
2161
-6170
737
-2646
-4492
1290
-3413
4372
2573
8359
-4738
397
-3311
-984
6054
-3668
-3005
-935
4290
13963
-6787
-2233
3200
-1635
1432
-51
860
5987
-2416
-4992
1537
-2611
-3813
4230
-1473
1654
-5883
-3298
-4811
-2584
2530
5057
-2568
621
2232
15089
2553
9871
-8537
15071
-5028
-25
-7266
-1272
137
4121
-2914
1618
-368
5618
2221
2284
-1649
-3492
-1423
-5158
11
1536
-3021
9709
-8879
5889
-3115
5099
-5265
-3925
796
6246
-4791
5475
-7298
-5791
3129
-6952
-3740
940
3193
-2684
-678
654
3205
-2395
2716
18747
-3377
19138
21
3200
-3359
10181
-1837
12563
4049
-6890
2283
13058
12029
2277
3671
12602
243
-8228
-2059
1031
-4174
-1615
-5127
5670
-1136
-13291
-1940
3933
5060
789
-3611
-4656
2734
-3775
-2192
7996
-8638
6239
2045
7836
-632
4944
-503
9325
-4744
5723
-557
-5607
-4976
-700
5339
4579
3246
4297
-111
3037
-5532
-6033
1959
7816
11167
-4493
8915
-5971
-4116
-5613
-3749
-4404
-7291
-23014
10391
9108
7151
7523
3255
-6776
-3844
-4949
-1068
-1142
2709
-10525
4267
3182
612
-8257
12456
14184
9902
-12398
-853
2405
-1657
-10952
5759
6040
15972
-15849
-1472
13321
8320
-1319
-6117
-11345
-9531
-3103
6110
8424
4744
717
11960
6800
13075
6207
2862
5968
1258
-5032
-1443
-5942
-501
1030
-8946
-5712
-1085
-3837
-8778
-6774
6833
-2562
-2748
8681
1041
-11909
4995
5111
5367
-1110
-8607
-1701
-4742
3379
-317
5454
-1262
13460
-7915
-3173
-8890
-12671
-2743
2743
6449
-576
5911
7738
6655
3854
-1816
4704
2727
-1564
6745
11370
5745
-3947
8528
5670
1184
-5745
4644
3019
1289
-6111
8400
3940
507
-6164
-4227
-1356
10510
-888
-291
4728
-2823
-5277
140
4203
-4937
14061
-4199
9412
507
-8656
110
-6655
-2833
-12465
13092
11390
14169
8280
11133
4183
-4501
-2677
-2602
1672
-3290
-22745
-9386
2035
12493
-8907
-2837
3458
4763
-5362
-3695
4901
3480
5506
-1601
-3062
1531
-7156
9567
8686
15348
5002
1095
-2509
1694
-8637
3711
7429
2456
783
-362
-2556
872
-1510
2411
7090
-575
-2803
665
-6066
990
-6500
-735
2169
3321
3709
-1557
3334
-12363
10744
-724
8286
-3170
-6963
4005
-5551
-3630
-1126
4304
3984
769
4670
5207
-5141
1933
-760
13713
-7220
-3929
-4142
2586
1409
8846
2983
-279
5800
-4316
2403
80
-866
2415
5348
5341
-2307
2684
-7516
-857
-5699
-12140
3963
-5709
-5850
3128
4960
-4727
-7722
-7275
1743
-6363
-3845
-2261
-9218
638
8006
9613
-7298
9858
12344
5354
8419
-1809
-1405
-9794
2185
-1179
-3158
4402
-4069
-10374
-8541
-8424
-5960
-3910
3949
3133
-16152
-1664
4541
5977
20108
-5532
-4532
-1714
-1241
2500
6118
-5071
3929
6833
7471
6281
4885
-1783
-1534
-2154
6112
3635
-4841
6564
-14865
2434
7877
11108
2725
-1251
1774
-3587
2828
6081
-5587
-10125
-8081
1485
6548
1426
-1893
3049
2542
-7568
5525
-8721
-210
-3259
152
-6845
1966
-3207
-9714
16992
6207
1913
-6973
3561
-6288
-7188
2128
-13298
2802
-1303
-30100
2760
3826
-709
-11424
4268
14407
4424
-9418
808
2673
3400
-5695
456
-64
-158
-277
-66
1733
-3235
-6260
-836
-3984
-8419
-4275
3743
4864
-9687
-13306
-10491
-1060
-3943
-3231
-663
6312
7170
8154
-1920
-3975
-5789
-15043
3607
4888
-1800
1311
-2661
-977
-1223
538
-6873
2822
-4161
-108
3357
-2786
4848
-18012
1486
-525
6529
-8701
-3736
-398
2464
-8915
-4479
-6492
-11652
-64
9900
2289
2641
-4751
-785
-7618
-1608
4832
7703
2380
587
4603
2421
3791
964
-5143
-4472
-2472
25
1748
-1941
3275
-2081
-2430
728
2513
-2968
-8895
-13173
6690
1247
-2018
-8403
-2726
-1842
1553
-4725
431
-381
5059
-2836
-1723
-9500
11305
4064
1198
6962
3879
2859
-3352
1597
9504
201
7607
-4743
8051
3238
-6065
1744
-14440
-1547
-3479
-3787
8866
1983
-7286
-9226
-336
620
1536
-10867
6191
42
1044
1426
7396
-5098
-2607
224
8485
4145
-1796
-3195
2448
-5431
-4671
-198
427
-676
-7240
8056
-10992
10305
4972
5046
2400
10158
3002
8536
6717
6584
6754
-4951
-7822
740
5251
9228
-17007
10200
15673
9754
-13756
4502
1912
3452
9016
-7134
-9089
-5966
5702
1479
-1641
-12361
-11818
-1529
5375
195
7637
-2938
-375
3262
6248
5849
2982
4570
-16793
2864
777
4496
-12850
-1006
-12228
-17078
-2214
3226
6247
73
2708
1332
-6768
-3274
-11315
9981
2767
2499
-3852
5851
3719
-5654
-1154
1071
762
-1613
-10093
-10067
-6900
-366
-12397
9697
13051
13130
-3109
-3421
-3671
-2681
-5198
-4715
2543
8964
-9546
3436
5830
-3857
3847
1583
241
5319
408
-334
2514
-4549
3621
-6053
-3060
4638
-2417
-911
-3390
-4982
2460
560
6779
9676
5818
-1942
-11685
-6758
4138
-4958
-4349
-1260
-15496
83
-4024
-4082
-4040
11235
273
-3161
637
-895
2291
-3293
6872
-1686
3636
-3765
845
-2753
12950
892
8131
6472
11087
597
8707
-990
-4457
-5106
6154
-4844
-7146
-11827
-10303
-3181
-2778
-1152
8587
-3956
-2859
-2657
113
-7850
-5369
-1676
-7052
-11256
5245
3412
-4144
3194
-1975
352
-10873
-7869
2996
-1806
-13095
-1161
6534
4943
8154
-6384
10428
2873
6479
431
-2466
-3145
-5432
-1884
204
-622
-1499
-8299
1809
-4755
-1557
-619
5481
2119
-2415
-4443
-560
-4408
7953
-2421
-3452
2891
-3773
1928
6275
-5124
5449
3430
-5745
-8932
-2007
1712
-269
2722
188
-3242
4364
1663
-1443
-200
-741
1103
9883
252
-3425
-9364
-5877
-3815
-1258
8243
-14629
-4921
7487
5197
-3482
-182
2831
-3570
1557
-5586
1328
1885
3284
3222
8871
4872
2909
-3973
2875
-2150
4482
-2461
3390
2885
1
1534
2325
-2700
944
-3596
-2679
3072
-2856
-365
-301
3909
19312
-5927
-10371
-10209
18022
-8979
-7869
-4982
-3627
-2892
-2170
-1488
11211
673
-5942
-3216
3001
-7691
-2057
-5358
-9042
-6202
3085
3959
-5488
-9024
-3170
2455
-1875
-7907
-2921
-2696
5695
-4573
-4225
-3901
-764
287
4799
2582
11942
-5158
-5774
-5934
-7372
-4399
-772
636
3519
-1379
-3287
-422
-2301
-149
-1870
354
4409
-1086
-2707
-10927
-7062
-171
2104
5191
2572
-1212
5004
-3487
4830
2111
5266
-8661
1208
3167
2560
5247
9518
-13311
-10098
-10575
11507
-927
1055
263
-4234
250
1354
-10401
1988
4488
-6914
-39
6799
-4163
-5366
-4434
-1718
-5332
-4612
790
891
6612
-544
-5490
-996
-4296
-1156
-4179
1696
826
5472
3371
5058
1641
6080
-2941
5345
473
1699
-260
-6903
3306
-2413
653
-6861
1127
2453
4194
11242
-448
1587
-7590
2152
3731
-633
-3807
2741
-9555
-3585
-1341
-4062
1013
-4378
-1359
-1765
-4464
5977
5550
11712
-2402
-6801
-2755
427
-918
2672
-2066
3539
3182
-1358
5664
8691
1326
-1618
-1649
3362
-4830
-4949
989
360
2948
2381
-288
823
-195
3711
816
6706
-7369
-4963
1301
859
-8945
858
-6371
-4361
5772
-2507
-2364
2493
4934
-248
145
-2909
6856
2142
2873
-271
-10999
1000
-1061
-2378
-159
-2370
-6306
16349
-6617
-2105
-3433
-9856
-8661
613
-1782
-5593
-2504
3072
-5979
1694
-4898
-1197
-5089
3383
-250
-3698
-179
3695
-6087
3411
-1802
-9672
-6641
5456
-1491
-2570
7762
-1443
2661
4065
-3528
5914
-695
698
2605
2901
477
8958
-3324
-9668
-7166
-2342
1384
-1608
5348
-458
-2023
-3631
-2346
8030
-7939
3055
-4076
10172
-8999
-10065
-2326
363
-3814
2257
5585
8012
-6569
2726
6126
2786
-4950
1658
-5429
1326
-3348
451
-8144
-2175
-6098
-6424
-10751
4121
-575
-3397
1028
3871
-838
359
-3205
-601
-2839
686
1616
14038
-11421
-7723
-12837
7109
-1803
1715
-2978
16182
-5051
-4014
-5363
1306
-1199
-2502
367
-1595
-2128
819
-1243
9239
-1346
337
-10538
6318
1782
-3445
4666
3013
5850
3774
5353
8372
-2771
1977
-146
-6024
-1867
-1095
-398
-3057
-2746
1931
-1729
4185
-4357
-2364
-6523
7255
2605
-7807
-5926
7300
-7253
-905
-6597
-3485
9442
6856
900
-344
-6679
-7102
-3741
3846
-7105
-2604
-5883
3258
1909
-7565
-6920
-8238
2468
5587
5442
-6787
681
-2339
-5947
2461
2643
-349
3306
-5029
5088
801
2532
-7385
-1171
3320
3710
-2248
-6300
1044
-1802
23240
-2503
-4097
-6193
12060
1330
-2296
-6188
7808
-1597
334
-1530
4933
-11828
-21
-3925
8355
3504
5091
326
-5107
232
1932
925
11130
3663
4551
-2267
-5703
-3293
1770
-572
7020
1888
-1848
2812
-10932
7028
6855
881
-2336
210
-7507
-10033
3477
-1855
-6025
-5788
7162
-2169
-2096
3173
-10034
4257
-1030
5410
3947
637
1658
5646
1902
-7641
457
-3301
-1877
-11256
-2842
-7959
-2376
2526
4067
3739
6946
-2228
-4878
-4505
2147
-6525
957
-3751
9238
1129
-3222
-3733
6213
-5068
384
-2181
10176
-4794
-6371
-7968
7771
-2614
-3555
-3662
-2932
-5565
-584
-3604
161
3704
3414
2850
3998
-1590
-544
5103
-3030
3623
699
-3336
8247
2918
-221
-3295
-12165
-3581
10094
6380
-767
-13050
7835
8486
10441
7058
-3590
43
12990
41
-1897
14191
3005
-218
3940
10124
-5182
55
-7185
-4479
-2730
-1071
2015
-9927
-1216
4362
-8752
10501
2821
6159
3190
2864
967
1382
7754
-1993
-1900
1658
3046
3740
7282
2642
-2756
4808
-1958
90
4925
-9631
1708
1112
-6100
1219
5214
-3935
-8835
5875
6961
4958
-1569
6179
-132
1708
4873
-14602
-646
-3690
4529
-4998
-4521
199
1334
1191
-2592
1799
-13522
4410
-1410
-5932
5917
-3607
-7786
2890
-4495
1830
-4147
11514
-4405
-880
36
-7
-12
2998
-2372
1802
-17032
-8810
384
-3003
12838
3799
6996
4888
3340
5881
9349
11888
2832
-1884
4269
3240
-5247
160
-2934
-18580
-4199
4591
-6849
-4048
5247
4780
-12336
-181
1355
-416
4552
-1505
-8349
4884
-9098
5255
-4171
-284
-1248
-1574
9682
7375
-8271
-13411
-3309
3343
-2485
8395
-529
-11804
5189
5625
-1051
-7606
949
1446
6156
-4770
13991
-505
-1604
964
2411
-2891
12407
4698
-6241
2643
8347
11319
7763
4931
4877
-1487
11874
5209
-2398
4
-1361
1143
-655
6848
-2420
-1395
6230
3552
1445
1985
2785
-8095
6961
3176
-1206
-3099
6152
5372
6276
3511
2631
-1166
9598
-2081
4672
3714
1708
5561
-1897
-10
-540
5334
8821
-2434
407
3370
1334
-7000
-4231
-1906
-394
2158
2785
5203
-4101
-2439
-5035
-1053
-5102
2953
-921
-7325
3342
296
5637
-2809
826
1519
-3593
3746
-125
-5118
-2564
5358
-105
-1481
-1931
770
-3992
12549
1044
-593
2217
6714
2387
1381
7719
1555
8372
-3809
1692
-4494
-897
1032
-821
1525
5792
1340
3625
-9498
-4866
236
8430
-403
2099
4430
-1403
-3451
-3402
-753
842
-8305
-1560
3671
1291
1453
3017
2401
-2804
-361
-4708
-1296
6253
-6397
2061
3160
-4018
1025
1873
-234
-7891
-5022
3817
-10385
-11101
-3579
1877
737
4724
4779
-8373
6197
-2631
2546
-4336
-1113
4252
349
-2775
-3575
3480
3283
8236
-8934
-11726
-7058
-9506
7084
10596
1955
6153
8705
1129
-3071
-14344
-9265
-1743
-5237
10987
6070
8736
13329
1172
1849
31
-11939
2121
1550
9081
11529
-6128
2297
-1920
-7297
12032
9739
5607
3123
-12427
-7000
1988
12404
5056
10191
-5444
-7789
-2306
-3015
-7322
-11755
3740
-4148
9173
5410
6225
-5423
6597
-1260
-7020
2111
-10126
-2264
12775
4100
-10333
597
-685
8149
234
-5727
5918
10160
-1348
461
3542
3954
2388
4039
1109
-1138
11830
2872
-6916
-1873
-1830
-296
-2441
-2758
-5480
-585
4230
263
8574
7468
-4623
5052
-2806
-4146
3485
1915
-8774
9275
-8620
-11293
1935
-4965
-3235
1239
7269
5278
6623
-2131
-4362
5303
8545
11231
5275
3623
-3813
-5410
-2826
-11106
4391
-1363
615
11811
5180
8424
7558
2524
8542
9585
1161
2241
1411
5089
-2122
6
-7078
-8458
2129
3303
5606
-4668
15041
2873
-7171
-7586
2381
-5654
2037
-321
2358
-6481
-5137
-10746
582
7656
-6254
5086
-12966
-8322
2609
4758
-3205
2400
-8108
2255
6775
-1873
-7394
-5553
-3582
-3495
7734
1626
-1433
-5766
-8947
4837
-2878
-6898
16623
4204
-6711
659
-7927
3104
10270
-3048
-14598
1193
4269
3500
-6547
-3424
5377
-3640
8724
6947
-16628
-14693
-8897
4932
-6555
1064
5829
-3635
19941
7779
3836
-6258
12177
2284
-10231
5873
-7119
-3340
3602
3353
10028
4892
12059
5488
3941
3326
63
-8102
11762
-489
-1853
2027
-6968
-5375
-5991
8750
-4233
-1074
-10672
-11744
-5987
-2266
9524
726
1375
-12161
-5086
-2387
-2545
-348
-6909
-11984
-13852
-5020
-3524
-210
1540
794
-2878
4056
4163
-4144
-3834
-1494
-13306
3633
456
1107
-13615
-4131
12827
-3560
4822
-6992
-7368
-2111
-1370
207
-103
-4044
12284
473
-552
8277
340
-1009
-16193
-7900
221
-2055
12094
-271
3764
3765
6818
5058
-6998
-3850
1498
-14364
-6221
-6647
12125
5633
20
-2383
-9217
-1570
1119
557
7216
-1252
1038
-15
672
5467
11381
14277
-3041
-1248
-5143
-3494
-2310
-3960
-8466
-8650
-7364
398
6795
-2041
2482
1968
-1494
-2605
-22
-7017
-881
-3495
9837
3384
3110
-2440
6276
397
-2868
-9939
-634
-5193
7249
-4210
4134
715
-2446
-2823
-2199
-793
-3998
-4523
1002
-6224
-5061
-1330
2156
6376
-2634
527
235
893
-468
2799
3611
-1464
5465
-3009
196
2843
-1193
1821
-8431
-7127
-1098
-4269
1742
-833
8682
3234
-8222
-2997
2878
1941
2545
-3331
-2836
399
5562
-1094
-3026
3278
1351
1008
2014
-3598
-2771
-4410
3298
-3686
4636
-768
6109
947
3175
5018
217
737
-3956
-1661
-2263
629
940
-5947
11830
68
-2859
-4683
96
3375
4379
2053
193
378
-3418
-3331
596
-1427
3913
-2305
-3769
1040
1708
-3923
-4448
-8299
162
-272
228
-3063
376
4318
-5215
1095
-4612
-1984
-33
-3118
-3509
-5668
5968
2077
-4804
259
-3050
-1915
-1630
-3704
1460
-6100
-3979
-769
4315
2291
884
-1769
-4219
-2156
1758
-1578
-5030
-1528
-6516
-92
-4037
-3930
5376
-698
-1788
124
-2704
1551
3140
-4489
-3135
3840
-4716
-3160
8965
3002
-5689
3368
-4405
857
5743
-1780
5065
1779
-4676
-4006
861
1318
5490
-1475
11539
-2653
-2326
2275
-1730
968
127
5360
-6279
-4122
-3590
-1204
-3514
-4944
-4038
-3769
6253
2240
8365
3172
-463
-4464
1314
1198
-2395
3941
-3438
-1031
5819
6153
4287
1894
3409
-2259
-1382
-1042
-862
-190
2126
-2650
-6249
-6840
2362
-955
-11042
-1913
1780
676
-525
-4693
-3942
6843
2750
-3830
-4828
-1824
1273
-2092
60
-49
-3365
1916
-684
-11744
3356
-4710
1625
-4497
-2301
4488
1963
732
-4189
-4361
4609
-3183
1167
-2303
-4521
3856
3502
-248
6287
3553
-803
-7074
-4667
3165
-3373
1018
1357
-1118
-9492
-5364
-3457
-6283
-8538
4399
2420
3219
5524
-7126
-570
-4849
423
5354
-6705
-6668
3129
-6063
530
2116
5374
-1026
-8664
-4410
-671
1155
-579
1448
-3157
-1706
-1803
535
-2317
-5044
7544
5779
952
391
4052
3210
-8343
-1751
-18999
-728
-8537
-6999
-6080
-7854
3579
-5282
15134
3568
7247
6264
8328
3796
9340
4073
-3126
-7613
-2439
2479
-7536
-7941
-17561
-10200
-1011
-1900
4507
3191
14826
7368
5055
9239
13822
13137
5553
13317
7686
4070
-8756
-10247
13872
5935
-2619
-6256
5552
-2778
-3658
-2259
19583
4532
4174
3263
13267
4080
-3033
-3057
-1224
-2922
-258
-3101
7692
14997
12404
15296
1725
8537
2512
4845
1380
-5160
-14264
-5538
19267
465
9482
9346
4485
14791
6185
10573
-2842
373
-5190
2566
-1453
3299
3563
-644
-3912
-3570
-7581
1406
7300
206
-7440
-7940
11659
2724
12815
-3860
2682
-5149
-287
-5751
7861
5979
3452
694
-8209
-4551
-6281
5002
-11930
-5976
-3345
-1821
10316
2445
2084
7944
-12641
-9631
-3483
5762
7010
13615
4618
16545
-3165
-5481
3102
-2680
10737
2633
8539
7787
5131
-5342
-7894
1814
5261
-3786
7621
-2130
-7571
-1342
739
6627
358
5290
-588
891
13721
3153
7912
2577
-5330
8427
-2251
3716
7856
5669
-2773
373
-656
-3930
-79
-1078
-4298
6797
982
1453
11948
7200
3092
-1602
3426
12032
8902
13478
886
-666
3682
-3591
-2904
1587
-4038
-3961
11612
7056
2069
3610
-18070
-6805
-2417
7248
-12881
-9070
-3326
-5345
3231
5493
-2106
6587
-3144
-5518
-4810
1053
7484
6847
6347
-1989
6931
6965
1066
-3876
-2609
-4755
4839
-361
10208
6047
3331
10948
493
5613
6172
710
4303
-186
-7499
-6629
-10180
-8302
-5495
-2801
3106
1032
7301
-1493
2310
10325
8267
4089
7350
-2316
15148
7372
5350
6472
6906
-1980
-258
-1094
12906
13904
7086
10270
4769
5007
7087
-5402
7940
7674
6716
1877
-654
-15
-12485
-10658
-5784
-7167
4413
187
6905
-408
2103
6024
3038
-646
8149
-106
7810
2055
-8978
-4293
-6076
-8676
-1659
-542
-6371
-3833
-1321
-166
-5748
2613
-1567
-222
-4022
2105
-6926
-8092
3214
-2538
-2636
3557
6518
6511
-8036
2296
5354
-258
-9455
-470
-11355
-11777
6784
213
-963
9972
-2034
6916
3372
-200
4683
-3922
10495
2962
2499
4851
4203
5389
-11773
-6388
5982
-3327
-12550
-14577
-9556
-6381
18813
4992
6472
6152
-9792
-3540
3664
-5784
-7632
2531
3608
14204
6509
-2422
4824
-8348
11034
10236
12823
8374
-12491
-1885
-8170
-4229
-2790
-5298
-3968
-4050
13805
8603
-2889
-4570
-19778
-2554
91
7907
14370
7252
-2375
7518
-5249
3473
-3256
-661
6427
-1603
4645
5682
-1498
-2338
5131
-3026
-25146
-6783
-11399
-9596
-680
-4428
-9117
-2869
-12429
-5339
7490
5416
14157
-1302
-3221
-7558
17580
8167
11383
13357
2484
-6407
-1746
-14357
7466
-3629
2750
4518
-11140
-6972
9776
-7068
-7433
6825
1750
-4088
423
-1571
-4120
355
6803
3615
6863
9459
7396
5786
4420
6595
9866
-2016
472
764
722
-1314
-2484
-4939
-2544
3009
-1470
5593
-4661
-3117
9755
390
-7508
-3040
-4354
-1375
-7057
-690
8694
10894
1464
2538
4431
365
-14384
-9452
-14215
-16358
-7753
-4473
-4482
-3368
3847
9489
7559
7754
5071
-3191
-5539
-8600
301
-9595
-1877
-5148
-851
-2456
2936
-10011
-6682
-869
-4614
-10580
-5540
-11193
-2776
-3340
-2347
-1517
-633
-1045
-2512
9469
6104
986
4846
3033
4232
3579
-1510
1734
5968
157
-4036
1244
1312
1055
-10698
-7828
-10983
1430
4261
-2023
9992
2621
-18199
-3464
-3655
6929
4655
11318
3525
-5324
6171
-2360
-2731
-4729
-17193
-7512
-3400
636
-6649
6052
9628
-900
1089
339
-5414
-2755
7785
2994
2528
2073
-4149
2084
7031
3261
-10265
-1818
3659
10683
-14139
-5409
-3230
-14242
-1657
2718
-1326
-4126
14758
-888
5639
-2088
-5507
9653
6220
-5246
10301
8586
14091
2491
-7332
-4177
4375
9645
-529
-1747
-15140
-11217
-4970
5131
3927
-3871
15574
3564
6855
3933
-6507
-2995
-561
-3698
-8304
-7004
3140
-5399
-2821
4907
5778
841
7879
-1607
-222
6802
4638
-7764
6864
324
-5827
-18
3997
-10274
8677
9151
10325
7096
4253
-4513
6510
2645
2160
-6463
-8153
5527
-7761
-3752
3343
6824
-8090
-4615
-12399
-6007
-7651
-4310
-2238
-5041
2963
694
-1883
-980
4468
4770
3759
114
-9378
-3996
-2093
3374
-5567
-376
-7718
-2066
3134
1891
-943
2915
10321
3567
2369
5143
7085
5390
-5963
1916
5250
540
-7809
-408
-361
2913
-6513
-4978
-1678
-5235
219
2294
6892
6432
946
-1179
74
203
3585
-2381
-3873
782
1143
-3969
-5937
2492
8827
1296
-1804
-814
-1128
-1796
4156
-4016
-13675
2870
2101
-3364
-1226
-35
1500
4711
10835
2748
-1476
-719
-2298
6336
-2693
-2563
-3024
768
-1855
-1180
-1291
3321
11215
6655
-1591
-6269
8052
-555
-3572
-1322
-1262
-2987
1732
1782
-6270
-2749
-6007
-2286
-1047
-8317
-5110
-3784
3842
-6712
4616
-3432
4081
2839
-6449
-1979
-396
-877
-7654
-1214
1033
-2050
-4778
4348
1650
3006
7794
-3002
4100
4562
-3399
5287
-1464
2621
-2549
-1336
6206
-2455
955
-708
819
-4356
4467
3326
1035
-668
291
-1842
10145
2398
-3100
-5849
-1627
-2036
-752
191
3567
19
2960
-4626
373
791
2858
-4163
2744
1504
-8110
-2387
1939
3505
5293
4622
-2229
1898
385
3515
-1869
278
-4110
5590
-4085
-2113
1371
1075
2716
3453
-3040
-3808
6921
1988
-514
797
-8319
-826
-1478
-187
5404
-11
-1196
-1039
11435
6442
1145
-1242
407
4113
4790
1747
-4940
-3073
-4388
-5516
-4040
-2617
-1406
-1281
892
-1978
-540
383
808
-1705
7714
178
2098
87
3615
1478
-3475
1964
-2317
2878
2409
1155
-1355
4949
-2610
-754
3050
28
4953
4748
2894
3889
-3084
854
-1275
-895
-3459
4167
4296
5665
-799
-1451
880
-199
-3333
-7652
-4284
-222
544
1545
2364
-703
-1840
599
-1234
-2989
3552
1280
-2059
1194
250
460
-2419
-1512
1842
3585
2024
-3474
-4616
-5026
-4716
-2397
7389
-3326
-384
-6631
2089
-137
-3507
-5512
-5947
-1413
-7354
-3023
-989
-636
6029
3576
217
-321
804
-359
-5059
-6895
236
-2203
-1508
-1134
-6557
-4418
2514
-2238
-2124
-3390
417
5758
-222
2699
811
-5459
-2969
1836
4039
1422
-2736
37
843
1931
3679
1146
-2538
-5201
-9556
-5065
12471
6155
-4022
88
3271
4755
-1278
-3417
-2120
-1719
1735
-1517
5938
-4926
-8628
-3512
8832
4631
-1085
-3014
-1966
-3980
-5951
-6546
3655
1918
2095
-424
5760
-2776
-146
3402
2138
2637
1862
2805
5269
1058
169
4650
-67
-125
4262
1276
2314
-878
-1543
3882
359
-7583
2658
1227
-5635
-4488
-4931
-2834
-1619
-7958
-11882
3200
5149
-5286
1623
-1336
2808
5936
16
-9224
6995
3813
1101
-4021
-28
-1546
-1985
-6513
-618
-3345
1656
-3360
-1359
-8757
-2019
-1547
-7833
1198
-2118
1273
2374
6033
-2815
-9087
3365
5758
1690
-722
2880
3919
-3827
-3731
5724
-5173
-1718
2174
-1067
2716
731
536
-1452
-1193
900
-1113
-5848
-72
1928
-6061
-1274
-2363
-3398
1933
-7650
2601
-729
3339
4146
-202
-883
681
-4188
-1657
-5454
-7584
1218
-1751
944
-2090
-1091
1683
525
-986
-1049
1281
-35
-5309
1623
-6927
-2342
-4103
-4772
-1731
-4409
-6855
-4691
795
-2247
-898
4154
-12285
-5305
-5629
1370
-3837
-269
2221
760
-7083
-861
-3172
-5847
-3701
-1398
2234
-5633
-5080
3569
-4510
-4623
1374
1947
-2697
-1707
-1719
560
-2623
5146
-2913
3744
-4274
-4800
-809
-8105
5908
-1026
3699
-1521
-2878
1608
-432
-2759
-6728
-4275
717
1710
-3743
-4765
1755
-1608
-907
432
-2241
-2809
-2848
4094
-797
-1518
-3552
-9040
-12895
830
-5630
-9597
-2395
-676
-6463
-5208
-1709
2496
200
3657
-3504
-2425
-6242
5045
3319
-871
-2612
542
-984
1249
-882
1084
1178
2909
-162
-6644
-2030
-6333
-5685
-2576
-3940
-3305
-10158
4213
2933
3808
-326
7755
2274
2543
4172
-5098
-5394
877
-5876
-4434
-2168
-2707
-6114
1879
-1225
4051
-4180
-4955
-956
-3766
657
974
-1510
-3478
253
-2200
-3721
-3228
-2085
8957
2236
11110
11169
2827
-1822
3554
1172
3877
4696
4413
3599
-3333
-3827
-1956
-3049
-2938
-2461
-2945
-8347
-3108
6697
-3420
-13118
-1838
4112
2819
3863
7165
-702
3696
6337
7080
2907
-4058
4331
4998
4450
3353
-3767
-10230
1265
-3388
-9238
6683
2982
-2865
2921
-4902
3070
6760
-7424
8498
-4714
-15786
1082
-3088
-529
-2250
29
1007
6315
1958
-5011
389
-16955
1572
-2022
-7854
3494
296
10442
-433
2428
10429
-3119
-3004
-74
-4791
-5008
-5609
3292
1206
-9428
-11265
3057
482
-1823
2205
-2350
-31
712
6449
1380
-9045
11660
3606
-10180
2039
-4406
-6378
3093
-13176
7237
-6745
-1493
5495
-9757
-7339
1930
-8789
2705
-4328
-3853
-10127
8132
7790
5100
-6970
-141
3735
10848
5652
6397
-3078
-5163
754
-3789
-9309
-9345
8732
7832
-216
887
9428
11901
-5591
5038
-5345
4256
-5719
317
-2690
5345
4843
-1596
-1907
-12131
5234
1459
-399
-150
3321
-13725
982
-2044
-3801
-4326
-13010
1566
-6529
-1108
5678
10778
6998
-6308
-7264
-1635
11166
7062
2126
-10462
1277
2265
-3380
-2233
4891
-7160
7006
-2956
-4833
8169
-336
-3864
4432
4836
-4136
-1186
4297
3422
1737
7087
-607
4855
7033
4443
6359
2871
-3837
-7427
-1606
1015
-7245
-6266
10241
5314
2227
6022
-419
-3882
-1293
5663
224
-7711
3314
8489
1435
-2436
8728
1527
2301
4877
4000
4540
-1337
-1642
-4182
873
-5960
-5369
1375
7564
-838
1941
-1825
-13364
-524
896
-3408
-7825
1287
-6539
2026
-3129
-9940
7883
2949
3313
2519
499
5031
-3421
1422
1770
-2996
13911
-473
-3519
793
-4723
-10441
-539
189
-5861
-1629
4700
6980
-7360
-4625
910
1920
-9208
1694
-16923
8727
2964
5273
-2872
-2407
-3584
2119
7815
-2678
-1414
-9179
-8039
-1913
2285
-9047
-5400
4012
2675
3695
-4829
5167
8254
-3585
680
2522
-2452
2033
-9123
2433
513
7858
8652
888
-5048
3919
1221
-1992
-2026
5360
-5700
6949
2366
-273
-7677
-3265
-3610
-1595
4826
10915
-3992
-1033
-7652
-3147
-11637
-986
-7634
-111
-2808
-3758
962
5985
12279
5447
-891
2602
972
-7553
686
-2241
-4462
-8259
791
5945
10822
-5177
-10306
-12532
-11667
7695
9060
4030
-3682
11737
1270
5622
3289
679
-6261
4183
-3806
897
2463
3925
1507
1086
599
3516
3387
699
8833
9166
864
4045
-3061
4318
-2533
-179
4524
285
3129
-5264
-14203
-4588
4508
3827
7414
-9912
-10723
6681
4809
2078
1021
2549
-3241
6658
4134
-5944
-2450
1773
-4388
6095
-1382
-2622
-4641
9562
3998
-4174
-5811
-15341
-8882
4763
359
9044
-3639
-2786
786
-6652
-2802
3903
-5015
-4355
742
-149
3162
4953
3616
-504
-1342
9274
-1896
-5819
-8394
-4302
-7728
-2124
4904
-3960
-4532
5658
-2378
-735
3896
4561
1962
-3048
-1573
5088
3213
23486
-3040
2241
2445
1591
5271
9942
-6456
-1635
3099
1134
-13716
-3785
-8445
5008
8840
-673
-4800
3658
1513
-4607
-7309
233
-403
6400
5785
-5562
268
-3324
-2379
-7674
-2131
905
-743
8024
-5374
1326
7355
-99
-1215
-7146
2438
3845
1313
-227
8547
-14384
-3249
1422
7167
1066
3818
-6968
-9949
-6680
7334
-16964
-12892
5964
9585
-6198
-9310
-6246
645
8195
-1731
99
-9132
8568
-5441
1488
4140
1168
-4008
-241
754
204
720
-6158
-12771
-4607
-10645
-576
-3937
4368
4079
